svm_type c_svc
kernel_type rbf
gamma 0.03125
nr_class 8
total_sv 582
rho -0.39525 0.322233 -0.56408 -0.0784634 -0.316944 -0.0360441 -1 0.429935 0.0521709 0.285696 0.317364 0.420399 -1 -0.869738 -0.0506626 -0.719165 -0.243804 -1 0.946728 0.426558 1.04739 -1 -0.773729 0.104537 -1 0.612831 -1 -1
label 0 5 2 4 1 6 3 7
nr_sv 189 13 84 129 85 64 17 1
SV
0.1975761970863827 32 0.1544030435691252 32 0.5046637451223246 0.8915935699985075 0 1:-1 2:1 3:-1 4:-1 5:-1 6:-1 7:-1 9:-1 10:1 11:-1 12:-1 13:-1 14:-1 15:-1 17:-1 18:1 19:-1 20:-1 
0 0 32 0 0 0 0 1:-1 2:-1 3:-1 4:-1 5:1 6:-1 7:-1 9:1 10:-1 11:-1 12:-1 13:-1 14:-1 15:-1 17:1 18:-1 19:-1 20:-1 
0 0 32 0 0 0 0 1:-1 2:-1 3:-1 4:-1 5:1 6:-1 7:-1 9:1 10:-1 11:-1 12:-1 13:-1 14:-1 15:-1 17:1 18:-1 19:-1 20:-1 
0 0 0 32 0 0 0 1:-1 2:1 3:-1 4:-1 5:-1 6:-1 7:-1 9:1 10:-1 11:-1 12:-1 13:-1 14:-1 15:-1 17:1 18:-1 19:-1 20:-1 
0 0 32 0 0 0 0 1:-1 2:-1 3:-1 4:-1 5:1 6:-1 7:-1 9:1 10:-1 11:-1 12:-1 13:-1 14:-1 15:-1 17:1 18:-1 19:-1 20:-1 
0 0 32 0 0 0 0 1:-1 2:-1 3:-1 4:-1 5:1 6:-1 7:-1 9:1 10:-1 11:-1 12:-1 13:-1 14:-1 15:-1 17:1 18:-1 19:-1 20:-1 
0 0 32 0 0 0 0 1:-1 2:-1 3:-1 4:-1 5:1 6:-1 7:-1 9:1 10:-1 11:-1 12:-1 13:-1 14:-1 15:-1 17:1 18:-1 19:-1 20:-1 
0 0 32 0 0 0 0 1:-1 2:-1 3:-1 4:-1 5:1 6:-1 7:-1 9:1 10:-1 11:-1 12:-1 13:-1 14:-1 15:-1 17:1 18:-1 19:-1 20:-1 
0 0 32 0 0 0 0 1:-1 2:-1 3:-1 4:-1 5:1 6:-1 7:-1 9:1 10:-1 11:-1 12:-1 13:-1 14:-1 15:-1 17:1 18:-1 19:-1 20:-1 
0 0 32 0 0 0 0 1:-1 2:-1 3:-1 4:-1 5:1 6:-1 7:-1 9:1 10:-1 11:-1 12:-1 13:-1 14:-1 15:-1 17:1 18:-1 19:-1 20:-1 
0 32 0 0 0 0 0 1:-1 2:-1 3:1 4:-1 5:-1 6:-1 7:-1 9:-1 10:-1 11:1 12:-1 13:-1 14:-1 15:-1 17:1 18:-1 19:-1 20:-1 
0 0 32 0 0 0 0 1:-1 2:-1 3:-1 4:-1 5:1 6:-1 7:-1 9:1 10:-1 11:-1 12:-1 13:-1 14:-1 15:-1 17:1 18:-1 19:-1 20:-1 
32 2.031960059846412 1.735974343407396 1.934616576413834 32 1.637266823964753 0 1:-1 2:-1 3:-1 4:-1 5:-1 6:1 7:-1 9:1 10:-1 11:-1 12:-1 13:-1 14:-1 15:-1 17:1 18:-1 19:-1 20:-1 
0 0 32 0 0 0 0 1:-1 2:-1 3:-1 4:-1 5:1 6:-1 7:-1 9:1 10:-1 11:-1 12:-1 13:-1 14:-1 15:-1 17:1 18:-1 19:-1 20:-1 
0 17.15482959002286 0 32 0 0 0 1:-1 2:1 3:-1 4:-1 5:-1 6:-1 7:-1 9:1 10:-1 11:-1 12:-1 13:-1 14:-1 15:-1 17:1 18:-1 19:-1 20:-1 
0 32 0 0 0 0 0 1:-1 2:-1 3:1 4:-1 5:-1 6:-1 7:-1 9:-1 10:-1 11:1 12:-1 13:-1 14:-1 15:-1 17:1 18:-1 19:-1 20:-1 
0 32 0 6.251647923154293 0 3.084104244663628 0 1:-1 2:-1 3:1 4:-1 5:-1 6:-1 7:-1 9:-1 10:-1 11:1 12:-1 13:-1 14:-1 15:-1 17:1 18:-1 19:-1 20:-1 
1.179888305464357 32 2.658710224331464 32 1.019587314575243 0 0 1:-1 2:1 3:-1 4:-1 5:-1 6:-1 7:-1 9:-1 10:1 11:-1 12:-1 13:-1 14:-1 15:-1 17:1 18:-1 19:-1 20:-1 
0 0 32 0 0 0 0 1:-1 2:-1 3:-1 4:-1 5:1 6:-1 7:-1 9:1 10:-1 11:-1 12:-1 13:-1 14:-1 15:-1 17:1 18:-1 19:-1 20:-1 
0 0 8.261788276391711 0 0 0 0 1:1 2:-1 3:-1 4:-1 5:-1 6:-1 7:-1 9:-1 10:-1 11:-1 12:-1 13:1 14:-1 15:-1 17:1 18:-1 19:-1 20:-1 
0 0 32 0 0 0 0 1:1 2:-1 3:-1 4:-1 5:-1 6:-1 7:-1 9:-1 10:-1 11:-1 12:-1 13:1 14:-1 15:-1 17:1 18:-1 19:-1 20:-1 
0 0 32 0 0 0 0 1:1 2:-1 3:-1 4:-1 5:-1 6:-1 7:-1 9:-1 10:-1 11:-1 12:-1 13:1 14:-1 15:-1 17:1 18:-1 19:-1 20:-1 
0 0 32 0 0 0 0 1:1 2:-1 3:-1 4:-1 5:-1 6:-1 7:-1 9:-1 10:-1 11:-1 12:-1 13:1 14:-1 15:-1 17:1 18:-1 19:-1 20:-1 
0 0 32 0 0 0 0 1:1 2:-1 3:-1 4:-1 5:-1 6:-1 7:-1 9:-1 10:-1 11:-1 12:-1 13:1 14:-1 15:-1 17:1 18:-1 19:-1 20:-1 
0 32 0 0 0 0 0 1:-1 2:-1 3:1 4:-1 5:-1 6:-1 7:-1 9:1 10:-1 11:-1 12:-1 13:-1 14:-1 15:-1 17:1 18:-1 19:-1 20:-1 
0 32 0 4.909602510844281 0 0 0 1:-1 2:-1 3:1 4:-1 5:-1 6:-1 7:-1 9:1 10:-1 11:-1 12:-1 13:-1 14:-1 15:-1 17:1 18:-1 19:-1 20:-1 
0 0 0 32 0 0 0 1:1 2:-1 3:-1 4:-1 5:-1 6:-1 7:-1 9:-1 10:1 11:-1 12:-1 13:-1 14:-1 15:-1 17:1 18:-1 19:-1 20:-1 
0 0 0 32 0 0 0 1:1 2:-1 3:-1 4:-1 5:-1 6:-1 7:-1 9:-1 10:1 11:-1 12:-1 13:-1 14:-1 15:-1 17:1 18:-1 19:-1 20:-1 
0 0 0 32 0 0 0 1:1 2:-1 3:-1 4:-1 5:-1 6:-1 7:-1 9:-1 10:1 11:-1 12:-1 13:-1 14:-1 15:-1 17:1 18:-1 19:-1 20:-1 
0 0 0 32 0 0 0 1:1 2:-1 3:-1 4:-1 5:-1 6:-1 7:-1 9:-1 10:1 11:-1 12:-1 13:-1 14:-1 15:-1 17:1 18:-1 19:-1 20:-1 
0 0 32 0 0 0 0 1:-1 2:-1 3:-1 4:-1 5:1 6:-1 7:-1 9:1 10:-1 11:-1 12:-1 13:-1 14:-1 15:-1 17:1 18:-1 19:-1 20:-1 
0 0 32 0 0 0 0 1:1 2:-1 3:-1 4:-1 5:-1 6:-1 7:-1 9:-1 10:-1 11:-1 12:-1 13:1 14:-1 15:-1 17:1 18:-1 19:-1 20:-1 
0 32 0 32 0 0 0 1:-1 2:-1 3:1 4:-1 5:-1 6:-1 7:-1 9:1 10:-1 11:-1 12:-1 13:-1 14:-1 15:-1 17:1 18:-1 19:-1 20:-1 
0 32 0 32 0 0 0 1:-1 2:-1 3:1 4:-1 5:-1 6:-1 7:-1 9:1 10:-1 11:-1 12:-1 13:-1 14:-1 15:-1 17:1 18:-1 19:-1 20:-1 
0 0 32 0 0 0 0 1:1 2:-1 3:-1 4:-1 5:-1 6:-1 7:-1 9:-1 10:-1 11:-1 12:-1 13:1 14:-1 15:-1 17:1 18:-1 19:-1 20:-1 
0 0 32 0 0 0 0 1:1 2:-1 3:-1 4:-1 5:-1 6:-1 7:-1 9:-1 10:-1 11:-1 12:-1 13:1 14:-1 15:-1 17:1 18:-1 19:-1 20:-1 
0.8262277477258624 32 11.82644994674792 32 1.340808556281175 1.522373525667244 0 1:-1 2:-1 3:1 4:-1 5:-1 6:-1 7:-1 9:1 10:-1 11:-1 12:-1 13:-1 14:-1 15:-1 17:1 18:-1 19:-1 20:-1 
0 32 0 11.67460969862395 0 0 0 1:1 2:-1 3:-1 4:-1 5:-1 6:-1 7:-1 9:-1 10:-1 11:1 12:-1 13:-1 14:-1 15:-1 17:-1 18:-1 19:1 20:-1 
0 0 32 0 0 0 0 1:1 2:-1 3:-1 4:-1 5:-1 6:-1 7:-1 9:-1 10:-1 11:-1 12:-1 13:1 14:-1 15:-1 17:1 18:-1 19:-1 20:-1 
0 0 32 0 0 0 0 1:-1 2:-1 3:-1 4:-1 5:1 6:-1 7:-1 9:1 10:-1 11:-1 12:-1 13:-1 14:-1 15:-1 17:1 18:-1 19:-1 20:-1 
0 0 32 0 0 0 0 1:1 2:-1 3:-1 4:-1 5:-1 6:-1 7:-1 9:-1 10:-1 11:-1 12:-1 13:1 14:-1 15:-1 17:1 18:-1 19:-1 20:-1 
0 16.68575207354941 0 0 0 0 0 1:1 2:-1 3:-1 4:-1 5:-1 6:-1 7:-1 9:-1 10:-1 11:1 12:-1 13:-1 14:-1 15:-1 17:1 18:-1 19:-1 20:-1 
0 0 32 0 0 0 0 1:-1 2:-1 3:-1 4:-1 5:1 6:-1 7:-1 9:1 10:-1 11:-1 12:-1 13:-1 14:-1 15:-1 17:1 18:-1 19:-1 20:-1 
0 32 0 0 0 0 0 1:1 2:-1 3:-1 4:-1 5:-1 6:-1 7:-1 9:-1 10:-1 11:1 12:-1 13:-1 14:-1 15:-1 17:1 18:-1 19:-1 20:-1 
0 32 0 0 0 0 0 1:1 2:-1 3:-1 4:-1 5:-1 6:-1 7:-1 9:-1 10:-1 11:1 12:-1 13:-1 14:-1 15:-1 17:1 18:-1 19:-1 20:-1 
0 32 0 0 0 0 0 1:1 2:-1 3:-1 4:-1 5:-1 6:-1 7:-1 9:-1 10:-1 11:1 12:-1 13:-1 14:-1 15:-1 17:1 18:-1 19:-1 20:-1 
0 0 32 0 0 0 0 1:1 2:-1 3:-1 4:-1 5:-1 6:-1 7:-1 9:-1 10:-1 11:-1 12:-1 13:1 14:-1 15:-1 17:1 18:-1 19:-1 20:-1 
0 32 0 0 0 0 0 1:1 2:-1 3:-1 4:-1 5:-1 6:-1 7:-1 9:-1 10:-1 11:1 12:-1 13:-1 14:-1 15:-1 17:1 18:-1 19:-1 20:-1 
0 0 32 0 0 0 0 1:1 2:-1 3:-1 4:-1 5:-1 6:-1 7:-1 9:-1 10:-1 11:-1 12:-1 13:1 14:-1 15:-1 17:1 18:-1 19:-1 20:-1 
0 32 0 0 0 0 0 1:1 2:-1 3:-1 4:-1 5:-1 6:-1 7:-1 9:-1 10:-1 11:1 12:-1 13:-1 14:-1 15:-1 17:1 18:-1 19:-1 20:-1 
1.563036382914332 0.05272372173327856 0 1.935892973297062 32 1.63441442926457 0 1:1 2:-1 3:-1 4:-1 5:-1 6:-1 7:-1 9:-1 10:-1 11:-1 12:-1 13:-1 14:-1 15:1 17:1 18:-1 19:-1 20:-1 
0 32 0 0 0 0 0 1:1 2:-1 3:-1 4:-1 5:-1 6:-1 7:-1 9:-1 10:-1 11:1 12:-1 13:-1 14:-1 15:-1 17:1 18:-1 19:-1 20:-1 
0 0 32 0 0 0 0 1:1 2:-1 3:-1 4:-1 5:-1 6:-1 7:-1 9:-1 10:-1 11:-1 12:-1 13:1 14:-1 15:-1 17:1 18:-1 19:-1 20:-1 
0 0 32 0 0 0 0 1:1 2:-1 3:-1 4:-1 5:-1 6:-1 7:-1 9:-1 10:-1 11:-1 12:-1 13:1 14:-1 15:-1 17:1 18:-1 19:-1 20:-1 
0 32 0 0 0 0 0 1:1 2:-1 3:-1 4:-1 5:-1 6:-1 7:-1 9:-1 10:-1 11:1 12:-1 13:-1 14:-1 15:-1 17:1 18:-1 19:-1 20:-1 
0 0 32 0 0 0 0 1:1 2:-1 3:-1 4:-1 5:-1 6:-1 7:-1 9:-1 10:-1 11:-1 12:-1 13:1 14:-1 15:-1 17:1 18:-1 19:-1 20:-1 
0.8367889990210353 32 0 32 0.777240394053171 1.094830889041743 0 1:-1 2:1 3:-1 4:-1 5:-1 6:-1 7:-1 9:1 10:-1 11:-1 12:-1 13:-1 14:-1 15:-1 17:1 18:-1 19:-1 20:-1 
0 0 32 0 0 0 0 1:1 2:-1 3:-1 4:-1 5:-1 6:-1 7:-1 9:-1 10:-1 11:-1 12:-1 13:1 14:-1 15:-1 17:1 18:-1 19:-1 20:-1 
0 0 32 0 0 0 0 1:1 2:-1 3:-1 4:-1 5:-1 6:-1 7:-1 9:-1 10:-1 11:-1 12:-1 13:1 14:-1 15:-1 17:1 18:-1 19:-1 20:-1 
0 0 32 0 0 0 0 1:1 2:-1 3:-1 4:-1 5:-1 6:-1 7:-1 9:-1 10:-1 11:-1 12:-1 13:1 14:-1 15:-1 17:1 18:-1 19:-1 20:-1 
1.344372949809374 32 3.097056562390673 31.82532166644738 0.690247785870602 31.15091820524134 0 1:-1 2:-1 3:1 4:-1 5:-1 6:-1 7:-1 9:-1 10:-1 11:1 12:-1 13:-1 14:-1 15:-1 17:1 18:-1 19:-1 20:-1 
0 0 32 0 0 0 0 1:-1 2:-1 3:-1 4:-1 5:1 6:-1 7:-1 9:1 10:-1 11:-1 12:-1 13:-1 14:-1 15:-1 17:1 18:-1 19:-1 20:-1 
0 0 32 0 0 0 0 1:-1 2:-1 3:-1 4:-1 5:1 6:-1 7:-1 9:1 10:-1 11:-1 12:-1 13:-1 14:-1 15:-1 17:1 18:-1 19:-1 20:-1 
0 0 32 0 0 0 0 1:-1 2:-1 3:-1 4:-1 5:1 6:-1 7:-1 9:1 10:-1 11:-1 12:-1 13:-1 14:-1 15:-1 17:1 18:-1 19:-1 20:-1 
0 0 32 0 0 0 0 1:-1 2:-1 3:-1 4:-1 5:1 6:-1 7:-1 9:1 10:-1 11:-1 12:-1 13:-1 14:-1 15:-1 17:1 18:-1 19:-1 20:-1 
0 0 32 0 0 0 0 1:-1 2:-1 3:-1 4:-1 5:1 6:-1 7:-1 9:1 10:-1 11:-1 12:-1 13:-1 14:-1 15:-1 17:1 18:-1 19:-1 20:-1 
0 32 0 0 0 0 0 1:1 2:-1 3:-1 4:-1 5:-1 6:-1 7:-1 9:-1 10:-1 11:1 12:-1 13:-1 14:-1 15:-1 17:1 18:-1 19:-1 20:-1 
0 0 32 0 0 0 0 1:1 2:-1 3:-1 4:-1 5:-1 6:-1 7:-1 9:-1 10:-1 11:-1 12:-1 13:1 14:-1 15:-1 17:1 18:-1 19:-1 20:-1 
0 0 0 32 0 0 0 1:1 2:-1 3:-1 4:-1 5:-1 6:-1 7:-1 9:-1 10:1 11:-1 12:-1 13:-1 14:-1 15:-1 17:1 18:-1 19:-1 20:-1 
0 0 0 32 0 0 0 1:1 2:-1 3:-1 4:-1 5:-1 6:-1 7:-1 9:-1 10:1 11:-1 12:-1 13:-1 14:-1 15:-1 17:1 18:-1 19:-1 20:-1 
0 0 32 0 0 0 0 1:1 2:-1 3:-1 4:-1 5:-1 6:-1 7:-1 9:-1 10:-1 11:-1 12:-1 13:1 14:-1 15:-1 17:1 18:-1 19:-1 20:-1 
0 0 32 0 0 0 0 1:1 2:-1 3:-1 4:-1 5:-1 6:-1 7:-1 9:-1 10:-1 11:-1 12:-1 13:1 14:-1 15:-1 17:1 18:-1 19:-1 20:-1 
0 0 32 0 0 0 0 1:1 2:-1 3:-1 4:-1 5:-1 6:-1 7:-1 9:-1 10:-1 11:-1 12:-1 13:1 14:-1 15:-1 17:1 18:-1 19:-1 20:-1 
0 0 0 15.68757097192061 0 0 0 1:1 2:-1 3:-1 4:-1 5:-1 6:-1 7:-1 9:1 10:-1 11:-1 12:-1 13:-1 14:-1 15:-1 17:-1 18:1 19:-1 20:-1 
0 32 0 0 0 0 0 1:1 2:-1 3:-1 4:-1 5:-1 6:-1 7:-1 9:-1 10:-1 11:1 12:-1 13:-1 14:-1 15:-1 17:1 18:-1 19:-1 20:-1 
0 0 32 0 0 0 0 1:1 2:-1 3:-1 4:-1 5:-1 6:-1 7:-1 9:-1 10:-1 11:-1 12:-1 13:1 14:-1 15:-1 17:1 18:-1 19:-1 20:-1 
0 0 32 0 0 0 0 1:1 2:-1 3:-1 4:-1 5:-1 6:-1 7:-1 9:-1 10:-1 11:-1 12:-1 13:1 14:-1 15:-1 17:1 18:-1 19:-1 20:-1 
0 0 32 0 0 0 0 1:-1 2:-1 3:-1 4:-1 5:1 6:-1 7:-1 9:1 10:-1 11:-1 12:-1 13:-1 14:-1 15:-1 17:1 18:-1 19:-1 20:-1 
0 0 32 0 0 0 0 1:-1 2:-1 3:-1 4:-1 5:1 6:-1 7:-1 9:1 10:-1 11:-1 12:-1 13:-1 14:-1 15:-1 17:1 18:-1 19:-1 20:-1 
0 0 32 0 0 0 0 1:1 2:-1 3:-1 4:-1 5:-1 6:-1 7:-1 9:-1 10:-1 11:-1 12:-1 13:1 14:-1 15:-1 17:1 18:-1 19:-1 20:-1 
0 0 0 32 0 0 0 1:1 2:-1 3:-1 4:-1 5:-1 6:-1 7:-1 9:1 10:-1 11:-1 12:-1 13:-1 14:-1 15:-1 17:-1 18:-1 19:1 20:-1 
0 0 32 0 0 0 0 1:1 2:-1 3:-1 4:-1 5:-1 6:-1 7:-1 9:-1 10:-1 11:-1 12:-1 13:1 14:-1 15:-1 17:1 18:-1 19:-1 20:-1 
0 0 32 0 0 0 0 1:-1 2:-1 3:-1 4:-1 5:1 6:-1 7:-1 9:1 10:-1 11:-1 12:-1 13:-1 14:-1 15:-1 17:1 18:-1 19:-1 20:-1 
0 0 0 32 0 0 0 1:1 2:-1 3:-1 4:-1 5:-1 6:-1 7:-1 9:1 10:-1 11:-1 12:-1 13:-1 14:-1 15:-1 17:-1 18:1 19:-1 20:-1 
0 0 0 32 0 0 0 1:1 2:-1 3:-1 4:-1 5:-1 6:-1 7:-1 9:1 10:-1 11:-1 12:-1 13:-1 14:-1 15:-1 17:-1 18:1 19:-1 20:-1 
0 0 0 32 0 0 0 1:1 2:-1 3:-1 4:-1 5:-1 6:-1 7:-1 9:1 10:-1 11:-1 12:-1 13:-1 14:-1 15:-1 17:-1 18:1 19:-1 20:-1 
0 0 32 0 0 0 0 1:-1 2:-1 3:-1 4:-1 5:1 6:-1 7:-1 9:1 10:-1 11:-1 12:-1 13:-1 14:-1 15:-1 17:1 18:-1 19:-1 20:-1 
0 0 32 0 0 0 0 1:-1 2:-1 3:-1 4:-1 5:1 6:-1 7:-1 9:1 10:-1 11:-1 12:-1 13:-1 14:-1 15:-1 17:1 18:-1 19:-1 20:-1 
0 0.5597425480831908 32 1.950428583603611 0 0 0 1:-1 2:-1 3:-1 4:-1 5:1 6:-1 7:-1 9:1 10:-1 11:-1 12:-1 13:-1 14:-1 15:-1 17:1 18:-1 19:-1 20:-1 
0.8287086451001026 32 32 31.95112239313532 0.76780829479679 1.516110191408574 0 1:-1 2:-1 3:-1 4:-1 5:1 6:-1 7:-1 9:1 10:-1 11:-1 12:-1 13:-1 14:-1 15:-1 17:1 18:-1 19:-1 20:-1 
0 32 0 32 0 1.662481432133503 0 1:1 2:-1 3:-1 4:-1 5:-1 6:-1 7:-1 9:-1 10:-1 11:1 12:-1 13:-1 14:-1 15:-1 17:-1 18:-1 19:1 20:-1 
0 0 32 0 0 0 0 1:1 2:-1 3:-1 4:-1 5:-1 6:-1 7:-1 9:-1 10:-1 11:-1 12:-1 13:1 14:-1 15:-1 17:1 18:-1 19:-1 20:-1 
0 32 0 0 0 0 0 1:1 2:-1 3:-1 4:-1 5:-1 6:-1 7:-1 9:-1 10:-1 11:1 12:-1 13:-1 14:-1 15:-1 17:1 18:-1 19:-1 20:-1 
0 0 32 0 0 0 0 1:1 2:-1 3:-1 4:-1 5:-1 6:-1 7:-1 9:-1 10:-1 11:-1 12:-1 13:1 14:-1 15:-1 17:1 18:-1 19:-1 20:-1 
0 32 0 0 0 0 0 1:1 2:-1 3:-1 4:-1 5:-1 6:-1 7:-1 9:-1 10:-1 11:1 12:-1 13:-1 14:-1 15:-1 17:1 18:-1 19:-1 20:-1 
0 0 32 0 0 0 0 1:1 2:-1 3:-1 4:-1 5:-1 6:-1 7:-1 9:-1 10:-1 11:-1 12:-1 13:1 14:-1 15:-1 17:1 18:-1 19:-1 20:-1 
0 0 32 0 0 0 0 1:1 2:-1 3:-1 4:-1 5:-1 6:-1 7:-1 9:-1 10:-1 11:-1 12:-1 13:1 14:-1 15:-1 17:1 18:-1 19:-1 20:-1 
1.340956232695033 1.890277309098573 32 0.04497589396414283 1.423249674357617 0.1510076019155631 0 1:-1 2:-1 3:-1 4:-1 5:1 6:-1 7:-1 9:-1 10:-1 11:-1 12:-1 13:1 14:-1 15:-1 17:1 18:-1 19:-1 20:-1 
0 32 0 0 0 0 0 1:1 2:-1 3:-1 4:-1 5:-1 6:-1 7:-1 9:-1 10:-1 11:1 12:-1 13:-1 14:-1 15:-1 17:1 18:-1 19:-1 20:-1 
0 0 32 0 0 0 0 1:1 2:-1 3:-1 4:-1 5:-1 6:-1 7:-1 9:-1 10:-1 11:-1 12:-1 13:1 14:-1 15:-1 17:1 18:-1 19:-1 20:-1 
0 32 0 0 0 0 0 1:1 2:-1 3:-1 4:-1 5:-1 6:-1 7:-1 9:-1 10:-1 11:1 12:-1 13:-1 14:-1 15:-1 17:1 18:-1 19:-1 20:-1 
2.07321988014914 14.89490208798295 0.009619538734993454 32 2.706432832101624 2.388849384798033 0 1:1 2:-1 3:-1 4:-1 5:-1 6:-1 7:-1 9:-1 10:1 11:-1 12:-1 13:-1 14:-1 15:-1 17:1 18:-1 19:-1 20:-1 
0 32 0 9.908322039473163 0 0 0 1:1 2:-1 3:-1 4:-1 5:-1 6:-1 7:-1 9:-1 10:-1 11:1 12:-1 13:-1 14:-1 15:-1 17:1 18:-1 19:-1 20:-1 
0 0 0 32 0 0 0 1:1 2:-1 3:-1 4:-1 5:-1 6:-1 7:-1 9:1 10:-1 11:-1 12:-1 13:-1 14:-1 15:-1 17:-1 18:1 19:-1 20:-1 
0 32 0 32 0 0 0 1:1 2:-1 3:-1 4:-1 5:-1 6:-1 7:-1 9:-1 10:-1 11:1 12:-1 13:-1 14:-1 15:-1 17:1 18:-1 19:-1 20:-1 
0 32 0 32 0 0 0 1:1 2:-1 3:-1 4:-1 5:-1 6:-1 7:-1 9:-1 10:-1 11:1 12:-1 13:-1 14:-1 15:-1 17:1 18:-1 19:-1 20:-1 
0 32 0 32 0 0 0 1:1 2:-1 3:-1 4:-1 5:-1 6:-1 7:-1 9:-1 10:-1 11:1 12:-1 13:-1 14:-1 15:-1 17:1 18:-1 19:-1 20:-1 
1.938060664673014 32 0 32 1.234362350506524 0.2307432287978879 0 1:1 2:-1 3:-1 4:-1 5:-1 6:-1 7:-1 9:-1 10:-1 11:1 12:-1 13:-1 14:-1 15:-1 17:1 18:-1 19:-1 20:-1 
0 0 32 0 2.698250690066795 0 0 1:1 2:-1 3:-1 4:-1 5:-1 6:-1 7:-1 9:-1 10:-1 11:-1 12:-1 13:1 14:-1 15:-1 17:1 18:-1 19:-1 20:-1 
0 0 32 0 32 0 0 1:1 2:-1 3:-1 4:-1 5:-1 6:-1 7:-1 9:-1 10:-1 11:-1 12:-1 13:1 14:-1 15:-1 17:1 18:-1 19:-1 20:-1 
2.075750048959383 0 32 1.90043191303613 32 2.573424758855637 0 1:1 2:-1 3:-1 4:-1 5:-1 6:-1 7:-1 9:-1 10:-1 11:-1 12:-1 13:1 14:-1 15:-1 17:1 18:-1 19:-1 20:-1 
0 0 0 32 0 0 0 1:1 2:-1 3:-1 4:-1 5:-1 6:-1 7:-1 9:1 10:-1 11:-1 12:-1 13:-1 14:-1 15:-1 17:-1 18:1 19:-1 20:-1 
0 0 0 32 0 0 0 1:1 2:-1 3:-1 4:-1 5:-1 6:-1 7:-1 9:1 10:-1 11:-1 12:-1 13:-1 14:-1 15:-1 17:-1 18:1 19:-1 20:-1 
0 0 0 32 0 0 0 1:1 2:-1 3:-1 4:-1 5:-1 6:-1 7:-1 9:1 10:-1 11:-1 12:-1 13:-1 14:-1 15:-1 17:-1 18:1 19:-1 20:-1 
0 0 0 32 0 0 0 1:1 2:-1 3:-1 4:-1 5:-1 6:-1 7:-1 9:1 10:-1 11:-1 12:-1 13:-1 14:-1 15:-1 17:-1 18:1 19:-1 20:-1 
0 8.863439261476458 0 32 0 0 0 1:1 2:-1 3:-1 4:-1 5:-1 6:-1 7:-1 9:1 10:-1 11:-1 12:-1 13:-1 14:-1 15:-1 17:-1 18:1 19:-1 20:-1 
0 32 0 32 0 1.928200748770103 0 1:1 2:-1 3:-1 4:-1 5:-1 6:-1 7:-1 9:1 10:-1 11:-1 12:-1 13:-1 14:-1 15:-1 17:-1 18:1 19:-1 20:-1 
0.1158904594191923 32 0.07500217904955281 32 0.4207409379858804 31.93030141948359 0 1:1 2:-1 3:-1 4:-1 5:-1 6:-1 7:-1 9:1 10:-1 11:-1 12:-1 13:-1 14:-1 15:-1 17:-1 18:1 19:-1 20:-1 
0 0 0 32 0 0 0 1:1 2:-1 3:-1 4:-1 5:-1 6:-1 7:-1 9:1 10:-1 11:-1 12:-1 13:-1 14:-1 15:-1 17:-1 18:-1 19:1 20:-1 
0 11.71675741672464 0 32 0 0 0 1:1 2:-1 3:-1 4:-1 5:-1 6:-1 7:-1 9:1 10:-1 11:-1 12:-1 13:-1 14:-1 15:-1 17:-1 18:-1 19:1 20:-1 
0.1059592006279142 32 0.1718344874811844 29.1647990466231 0.07436639675173348 1.105146364061375 0 1:1 2:-1 3:-1 4:-1 5:-1 6:-1 7:-1 9:1 10:-1 11:-1 12:-1 13:-1 14:-1 15:-1 17:-1 18:-1 19:1 20:-1 
0.1667038506433546 32 0 31.86679189105881 0.2491779888810045 32 0 1:1 2:-1 3:-1 4:-1 5:-1 6:-1 7:-1 9:-1 10:-1 11:1 12:-1 13:-1 14:-1 15:-1 17:-1 18:-1 19:1 20:-1 
0 0 4.52081171467166 0 0 0 0 1:1 2:-1 3:-1 4:-1 5:-1 6:-1 7:-1 9:1 10:-1 11:-1 12:-1 13:-1 14:-1 15:-1 17:1 18:-1 19:-1 20:-1 
0 0 32 0 0 0 0 1:1 2:-1 3:-1 4:-1 5:-1 6:-1 7:-1 9:1 10:-1 11:-1 12:-1 13:-1 14:-1 15:-1 17:1 18:-1 19:-1 20:-1 
0 0 32 0 0 0 0 1:1 2:-1 3:-1 4:-1 5:-1 6:-1 7:-1 9:1 10:-1 11:-1 12:-1 13:-1 14:-1 15:-1 17:1 18:-1 19:-1 20:-1 
0 0 32 0 0 0 0 1:1 2:-1 3:-1 4:-1 5:-1 6:-1 7:-1 9:1 10:-1 11:-1 12:-1 13:-1 14:-1 15:-1 17:1 18:-1 19:-1 20:-1 
0 0 32 0 0 0 0 1:1 2:-1 3:-1 4:-1 5:-1 6:-1 7:-1 9:1 10:-1 11:-1 12:-1 13:-1 14:-1 15:-1 17:1 18:-1 19:-1 20:-1 
0 0 32 0 0 0 0 1:1 2:-1 3:-1 4:-1 5:-1 6:-1 7:-1 9:1 10:-1 11:-1 12:-1 13:-1 14:-1 15:-1 17:1 18:-1 19:-1 20:-1 
0 0 32 0 0 0 0 1:1 2:-1 3:-1 4:-1 5:-1 6:-1 7:-1 9:1 10:-1 11:-1 12:-1 13:-1 14:-1 15:-1 17:1 18:-1 19:-1 20:-1 
0 0 32 0 0 0 0 1:1 2:-1 3:-1 4:-1 5:-1 6:-1 7:-1 9:1 10:-1 11:-1 12:-1 13:-1 14:-1 15:-1 17:1 18:-1 19:-1 20:-1 
0 0 32 0 0 0 0 1:1 2:-1 3:-1 4:-1 5:-1 6:-1 7:-1 9:1 10:-1 11:-1 12:-1 13:-1 14:-1 15:-1 17:1 18:-1 19:-1 20:-1 
0 0 32 0 0 0 0 1:1 2:-1 3:-1 4:-1 5:-1 6:-1 7:-1 9:1 10:-1 11:-1 12:-1 13:-1 14:-1 15:-1 17:1 18:-1 19:-1 20:-1 
0 0 32 0 0 0 0 1:1 2:-1 3:-1 4:-1 5:-1 6:-1 7:-1 9:1 10:-1 11:-1 12:-1 13:-1 14:-1 15:-1 17:1 18:-1 19:-1 20:-1 
0 0 32 0 0 0 0 1:1 2:-1 3:-1 4:-1 5:-1 6:-1 7:-1 9:1 10:-1 11:-1 12:-1 13:-1 14:-1 15:-1 17:1 18:-1 19:-1 20:-1 
0 0 32 0 0 0 0 1:1 2:-1 3:-1 4:-1 5:-1 6:-1 7:-1 9:1 10:-1 11:-1 12:-1 13:-1 14:-1 15:-1 17:1 18:-1 19:-1 20:-1 
0 0 32 0 0 0 0 1:1 2:-1 3:-1 4:-1 5:-1 6:-1 7:-1 9:1 10:-1 11:-1 12:-1 13:-1 14:-1 15:-1 17:1 18:-1 19:-1 20:-1 
0 0 32 0 4.52081171467166 0 0 1:1 2:-1 3:-1 4:-1 5:-1 6:-1 7:-1 9:1 10:-1 11:-1 12:-1 13:-1 14:-1 15:-1 17:1 18:-1 19:-1 20:-1 
0 0 32 0 32 0 0 1:1 2:-1 3:-1 4:-1 5:-1 6:-1 7:-1 9:1 10:-1 11:-1 12:-1 13:-1 14:-1 15:-1 17:1 18:-1 19:-1 20:-1 
0 0 32 0 32 0 0 1:1 2:-1 3:-1 4:-1 5:-1 6:-1 7:-1 9:1 10:-1 11:-1 12:-1 13:-1 14:-1 15:-1 17:1 18:-1 19:-1 20:-1 
0 0 32 0 32 0 0 1:1 2:-1 3:-1 4:-1 5:-1 6:-1 7:-1 9:1 10:-1 11:-1 12:-1 13:-1 14:-1 15:-1 17:1 18:-1 19:-1 20:-1 
0 0 32 0 32 0 0 1:1 2:-1 3:-1 4:-1 5:-1 6:-1 7:-1 9:1 10:-1 11:-1 12:-1 13:-1 14:-1 15:-1 17:1 18:-1 19:-1 20:-1 
0 0 32 0 32 0 0 1:1 2:-1 3:-1 4:-1 5:-1 6:-1 7:-1 9:1 10:-1 11:-1 12:-1 13:-1 14:-1 15:-1 17:1 18:-1 19:-1 20:-1 
0 0 32 0 32 0 0 1:1 2:-1 3:-1 4:-1 5:-1 6:-1 7:-1 9:1 10:-1 11:-1 12:-1 13:-1 14:-1 15:-1 17:1 18:-1 19:-1 20:-1 
0 0 32 0 32 0 0 1:1 2:-1 3:-1 4:-1 5:-1 6:-1 7:-1 9:1 10:-1 11:-1 12:-1 13:-1 14:-1 15:-1 17:1 18:-1 19:-1 20:-1 
0 0 32 0 32 0 0 1:1 2:-1 3:-1 4:-1 5:-1 6:-1 7:-1 9:1 10:-1 11:-1 12:-1 13:-1 14:-1 15:-1 17:1 18:-1 19:-1 20:-1 
0 0 32 0 32 0 0 1:1 2:-1 3:-1 4:-1 5:-1 6:-1 7:-1 9:1 10:-1 11:-1 12:-1 13:-1 14:-1 15:-1 17:1 18:-1 19:-1 20:-1 
0 0 32 0 32 0 0 1:1 2:-1 3:-1 4:-1 5:-1 6:-1 7:-1 9:1 10:-1 11:-1 12:-1 13:-1 14:-1 15:-1 17:1 18:-1 19:-1 20:-1 
0 0 32 0 32 0 0 1:1 2:-1 3:-1 4:-1 5:-1 6:-1 7:-1 9:1 10:-1 11:-1 12:-1 13:-1 14:-1 15:-1 17:1 18:-1 19:-1 20:-1 
0 0 32 0 32 0 0 1:1 2:-1 3:-1 4:-1 5:-1 6:-1 7:-1 9:1 10:-1 11:-1 12:-1 13:-1 14:-1 15:-1 17:1 18:-1 19:-1 20:-1 
0 0 32 0 32 0 0 1:1 2:-1 3:-1 4:-1 5:-1 6:-1 7:-1 9:1 10:-1 11:-1 12:-1 13:-1 14:-1 15:-1 17:1 18:-1 19:-1 20:-1 
0 0 32 0 32 0 0 1:1 2:-1 3:-1 4:-1 5:-1 6:-1 7:-1 9:1 10:-1 11:-1 12:-1 13:-1 14:-1 15:-1 17:1 18:-1 19:-1 20:-1 
0 0 32 0 32 0 0 1:1 2:-1 3:-1 4:-1 5:-1 6:-1 7:-1 9:1 10:-1 11:-1 12:-1 13:-1 14:-1 15:-1 17:1 18:-1 19:-1 20:-1 
0 0 32 0 32 0 0 1:1 2:-1 3:-1 4:-1 5:-1 6:-1 7:-1 9:1 10:-1 11:-1 12:-1 13:-1 14:-1 15:-1 17:1 18:-1 19:-1 20:-1 
0 0 32 0 32 0 0 1:1 2:-1 3:-1 4:-1 5:-1 6:-1 7:-1 9:1 10:-1 11:-1 12:-1 13:-1 14:-1 15:-1 17:1 18:-1 19:-1 20:-1 
0 0 32 0 32 0 0 1:1 2:-1 3:-1 4:-1 5:-1 6:-1 7:-1 9:1 10:-1 11:-1 12:-1 13:-1 14:-1 15:-1 17:1 18:-1 19:-1 20:-1 
0 0 32 0 32 0 0 1:1 2:-1 3:-1 4:-1 5:-1 6:-1 7:-1 9:1 10:-1 11:-1 12:-1 13:-1 14:-1 15:-1 17:1 18:-1 19:-1 20:-1 
0 0 32 0 32 0 0 1:1 2:-1 3:-1 4:-1 5:-1 6:-1 7:-1 9:1 10:-1 11:-1 12:-1 13:-1 14:-1 15:-1 17:1 18:-1 19:-1 20:-1 
0 0 32 0 32 0 0 1:1 2:-1 3:-1 4:-1 5:-1 6:-1 7:-1 9:1 10:-1 11:-1 12:-1 13:-1 14:-1 15:-1 17:1 18:-1 19:-1 20:-1 
0 0 32 0 32 0 0 1:1 2:-1 3:-1 4:-1 5:-1 6:-1 7:-1 9:1 10:-1 11:-1 12:-1 13:-1 14:-1 15:-1 17:1 18:-1 19:-1 20:-1 
0 0 32 0 32 0 0 1:1 2:-1 3:-1 4:-1 5:-1 6:-1 7:-1 9:1 10:-1 11:-1 12:-1 13:-1 14:-1 15:-1 17:1 18:-1 19:-1 20:-1 
0 0 32 0 32 0 0 1:1 2:-1 3:-1 4:-1 5:-1 6:-1 7:-1 9:1 10:-1 11:-1 12:-1 13:-1 14:-1 15:-1 17:1 18:-1 19:-1 20:-1 
0 0 32 0 32 0 0 1:1 2:-1 3:-1 4:-1 5:-1 6:-1 7:-1 9:1 10:-1 11:-1 12:-1 13:-1 14:-1 15:-1 17:1 18:-1 19:-1 20:-1 
0 0 32 0 32 0 0 1:1 2:-1 3:-1 4:-1 5:-1 6:-1 7:-1 9:1 10:-1 11:-1 12:-1 13:-1 14:-1 15:-1 17:1 18:-1 19:-1 20:-1 
0 0 32 0 32 0 0 1:1 2:-1 3:-1 4:-1 5:-1 6:-1 7:-1 9:1 10:-1 11:-1 12:-1 13:-1 14:-1 15:-1 17:1 18:-1 19:-1 20:-1 
0 0 32 0 32 0 0 1:1 2:-1 3:-1 4:-1 5:-1 6:-1 7:-1 9:1 10:-1 11:-1 12:-1 13:-1 14:-1 15:-1 17:1 18:-1 19:-1 20:-1 
0 4.52081171467166 32 0 32 0 0 1:1 2:-1 3:-1 4:-1 5:-1 6:-1 7:-1 9:1 10:-1 11:-1 12:-1 13:-1 14:-1 15:-1 17:1 18:-1 19:-1 20:-1 
0 32 32 0 32 0 0 1:1 2:-1 3:-1 4:-1 5:-1 6:-1 7:-1 9:1 10:-1 11:-1 12:-1 13:-1 14:-1 15:-1 17:1 18:-1 19:-1 20:-1 
0 32 32 0 32 0 0 1:1 2:-1 3:-1 4:-1 5:-1 6:-1 7:-1 9:1 10:-1 11:-1 12:-1 13:-1 14:-1 15:-1 17:1 18:-1 19:-1 20:-1 
0 32 32 4.52081171467166 32 0 0 1:1 2:-1 3:-1 4:-1 5:-1 6:-1 7:-1 9:1 10:-1 11:-1 12:-1 13:-1 14:-1 15:-1 17:1 18:-1 19:-1 20:-1 
0 32 32 32 32 0 0 1:1 2:-1 3:-1 4:-1 5:-1 6:-1 7:-1 9:1 10:-1 11:-1 12:-1 13:-1 14:-1 15:-1 17:1 18:-1 19:-1 20:-1 
0 32 32 32 32 0 0 1:1 2:-1 3:-1 4:-1 5:-1 6:-1 7:-1 9:1 10:-1 11:-1 12:-1 13:-1 14:-1 15:-1 17:1 18:-1 19:-1 20:-1 
0 32 32 32 32 0 0 1:1 2:-1 3:-1 4:-1 5:-1 6:-1 7:-1 9:1 10:-1 11:-1 12:-1 13:-1 14:-1 15:-1 17:1 18:-1 19:-1 20:-1 
0 32 32 32 32 0 0 1:1 2:-1 3:-1 4:-1 5:-1 6:-1 7:-1 9:1 10:-1 11:-1 12:-1 13:-1 14:-1 15:-1 17:1 18:-1 19:-1 20:-1 
0 32 32 32 32 0 0 1:1 2:-1 3:-1 4:-1 5:-1 6:-1 7:-1 9:1 10:-1 11:-1 12:-1 13:-1 14:-1 15:-1 17:1 18:-1 19:-1 20:-1 
0 32 32 32 32 0 0 1:1 2:-1 3:-1 4:-1 5:-1 6:-1 7:-1 9:1 10:-1 11:-1 12:-1 13:-1 14:-1 15:-1 17:1 18:-1 19:-1 20:-1 
0 32 32 32 32 0 0 1:1 2:-1 3:-1 4:-1 5:-1 6:-1 7:-1 9:1 10:-1 11:-1 12:-1 13:-1 14:-1 15:-1 17:1 18:-1 19:-1 20:-1 
0 32 32 32 32 0 0 1:1 2:-1 3:-1 4:-1 5:-1 6:-1 7:-1 9:1 10:-1 11:-1 12:-1 13:-1 14:-1 15:-1 17:1 18:-1 19:-1 20:-1 
0 32 32 32 32 0 0 1:1 2:-1 3:-1 4:-1 5:-1 6:-1 7:-1 9:1 10:-1 11:-1 12:-1 13:-1 14:-1 15:-1 17:1 18:-1 19:-1 20:-1 
0 32 32 32 32 0 0 1:1 2:-1 3:-1 4:-1 5:-1 6:-1 7:-1 9:1 10:-1 11:-1 12:-1 13:-1 14:-1 15:-1 17:1 18:-1 19:-1 20:-1 
0 32 32 32 32 0 0 1:1 2:-1 3:-1 4:-1 5:-1 6:-1 7:-1 9:1 10:-1 11:-1 12:-1 13:-1 14:-1 15:-1 17:1 18:-1 19:-1 20:-1 
0 32 32 32 32 0 0 1:1 2:-1 3:-1 4:-1 5:-1 6:-1 7:-1 9:1 10:-1 11:-1 12:-1 13:-1 14:-1 15:-1 17:1 18:-1 19:-1 20:-1 
0 32 32 32 32 0 0 1:1 2:-1 3:-1 4:-1 5:-1 6:-1 7:-1 9:1 10:-1 11:-1 12:-1 13:-1 14:-1 15:-1 17:1 18:-1 19:-1 20:-1 
0 32 32 32 32 4.52081171467166 0 1:1 2:-1 3:-1 4:-1 5:-1 6:-1 7:-1 9:1 10:-1 11:-1 12:-1 13:-1 14:-1 15:-1 17:1 18:-1 19:-1 20:-1 
4.52081171467166 32 32 32 32 32 0 1:1 2:-1 3:-1 4:-1 5:-1 6:-1 7:-1 9:1 10:-1 11:-1 12:-1 13:-1 14:-1 15:-1 17:1 18:-1 19:-1 20:-1 
32 32 32 32 32 32 0 1:1 2:-1 3:-1 4:-1 5:-1 6:-1 7:-1 9:1 10:-1 11:-1 12:-1 13:-1 14:-1 15:-1 17:1 18:-1 19:-1 20:-1 
32 32 32 32 32 32 0 1:1 2:-1 3:-1 4:-1 5:-1 6:-1 7:-1 9:1 10:-1 11:-1 12:-1 13:-1 14:-1 15:-1 17:1 18:-1 19:-1 20:-1 
32 32 32 32 32 32 0 1:1 2:-1 3:-1 4:-1 5:-1 6:-1 7:-1 9:1 10:-1 11:-1 12:-1 13:-1 14:-1 15:-1 17:1 18:-1 19:-1 20:-1 
32 32 32 32 32 32 0 1:1 2:-1 3:-1 4:-1 5:-1 6:-1 7:-1 9:1 10:-1 11:-1 12:-1 13:-1 14:-1 15:-1 17:1 18:-1 19:-1 20:-1 
28.88027489398917 3.711562460161938 22.5827041214247 21.22256602976855 29.15985230277911 30.15461238948303 32 1:1 2:-1 3:-1 4:-1 5:-1 6:-1 7:-1 9:1 10:-1 11:-1 12:-1 13:-1 14:-1 15:-1 17:1 18:-1 19:-1 20:-1 
-32 32 32 32 32 32 0 1:1 2:-1 3:-1 4:-1 5:-1 6:-1 7:-1 9:1 10:-1 11:-1 12:-1 13:-1 14:-1 15:-1 17:1 18:-1 19:-1 20:-1 
-32 32 32 32 32 32 0 1:1 2:-1 3:-1 4:-1 5:-1 6:-1 7:-1 9:1 10:-1 11:-1 12:-1 13:-1 14:-1 15:-1 17:1 18:-1 19:-1 20:-1 
-32 32 32 32 32 32 0 1:1 2:-1 3:-1 4:-1 5:-1 6:-1 7:-1 9:1 10:-1 11:-1 12:-1 13:-1 14:-1 15:-1 17:1 18:-1 19:-1 20:-1 
-0 0 0 0 32 0 0 1:1 2:-1 3:-1 4:-1 5:-1 6:-1 7:-1 9:-1 10:-1 11:-1 12:-1 13:-1 14:1 15:-1 17:1 18:-1 19:-1 20:-1 
-32 32 32 32 32 32 0 1:1 2:-1 3:-1 4:-1 5:-1 6:-1 7:-1 9:1 10:-1 11:-1 12:-1 13:-1 14:-1 15:-1 17:1 18:-1 19:-1 20:-1 
-7.392670431443047 6.272629804415431 6.309438270674668 6.628006738951647 32 6.46081812646754 0 1:1 2:-1 3:-1 4:-1 5:-1 6:-1 7:-1 9:-1 10:-1 11:-1 12:-1 13:-1 14:1 15:-1 17:1 18:-1 19:-1 20:-1 
-32 32 32 32 32 32 32 1:1 2:-1 3:-1 4:-1 5:-1 6:-1 7:-1 9:1 10:-1 11:-1 12:-1 13:-1 14:-1 15:-1 17:1 18:-1 19:-1 20:-1 
-1.992165486081293 1.121144205205113 0.9029088970279961 2.62300090465031 3.374060946517854 0 0 1:-1 2:-1 3:-1 4:-1 5:-1 6:1 7:-1 9:-1 10:1 11:-1 12:-1 13:-1 14:-1 15:-1 17:1 18:-1 19:-1 20:-1 
-1.99488748068834 3.364506367907891 0 2.61570538895698 0 2.259480538540931 0 1:-1 2:-1 3:-1 4:-1 5:-1 6:1 7:-1 9:-1 10:-1 11:1 12:-1 13:-1 14:-1 15:-1 17:1 18:-1 19:-1 20:-1 
-0.109467249305396 0.3441534578678653 0 0.1151460986339855 16.17245347726498 0.1573614646202507 0 1:-1 2:-1 3:-1 4:-1 5:-1 6:-1 7:1 9:-1 10:-1 11:-1 12:-1 13:-1 14:1 15:-1 17:1 18:-1 19:-1 20:-1 
-1.999739771366753 0 3.691864139956272 0 3.375244662599624 0 0 1:-1 2:-1 3:-1 4:-1 5:-1 6:1 7:-1 9:-1 10:-1 11:-1 12:-1 13:1 14:-1 15:-1 17:1 18:-1 19:-1 20:-1 
-4.520811714671659 0 0 0 2.760405885858813 0 0 1:-1 2:-1 3:-1 4:-1 5:-1 6:1 7:-1 9:1 10:-1 11:-1 12:-1 13:-1 14:-1 15:-1 17:1 18:-1 19:-1 20:-1 
-29.98448403939282 3.738027496050271 2.907104900578342 3.059092994422203 30.00766224704373 5.000184730435163 0 1:-1 2:-1 3:-1 4:-1 5:-1 6:1 7:-1 9:1 10:-1 11:-1 12:-1 13:-1 14:-1 15:-1 17:1 18:-1 19:-1 20:-1 
-0 -0 0 32 0 0 0 1:-1 2:1 3:-1 4:-1 5:-1 6:-1 7:-1 9:-1 10:-1 11:1 12:-1 13:-1 14:-1 15:-1 17:1 18:-1 19:-1 20:-1 
-10.47790575046852 -0.08807308836001428 0 32 0 0 0 1:-1 2:1 3:-1 4:-1 5:-1 6:-1 7:-1 9:-1 10:-1 11:1 12:-1 13:-1 14:-1 15:-1 17:1 18:-1 19:-1 20:-1 
-0 -0 0 32 0 0 0 1:-1 2:1 3:-1 4:-1 5:-1 6:-1 7:-1 9:-1 10:1 11:-1 12:-1 13:-1 14:-1 15:-1 17:-1 18:1 19:-1 20:-1 
-32 -0 32 0 32 0 0 1:1 2:-1 3:-1 4:-1 5:-1 6:-1 7:-1 9:1 10:-1 11:-1 12:-1 13:-1 14:-1 15:-1 17:1 18:-1 19:-1 20:-1 
-32 -0 32 0 32 0 0 1:1 2:-1 3:-1 4:-1 5:-1 6:-1 7:-1 9:1 10:-1 11:-1 12:-1 13:-1 14:-1 15:-1 17:1 18:-1 19:-1 20:-1 
-32 -0 2.804678412807164 32 2.389581343151171 0 0 1:1 2:-1 3:-1 4:-1 5:-1 6:-1 7:-1 9:1 10:-1 11:-1 12:-1 13:-1 14:-1 15:-1 17:-1 18:-1 19:1 20:-1 
-0 -0 0 32 0 0 0 1:-1 2:1 3:-1 4:-1 5:-1 6:-1 7:-1 9:-1 10:-1 11:1 12:-1 13:-1 14:-1 15:-1 17:-1 18:1 19:-1 20:-1 
-0 -0 0 32 0 0 0 1:-1 2:1 3:-1 4:-1 5:-1 6:-1 7:-1 9:-1 10:-1 11:1 12:-1 13:-1 14:-1 15:-1 17:-1 18:1 19:-1 20:-1 
-32 -0 32 24.30919208354626 32 0 0 1:1 2:-1 3:-1 4:-1 5:-1 6:-1 7:-1 9:1 10:-1 11:-1 12:-1 13:-1 14:-1 15:-1 17:1 18:-1 19:-1 20:-1 
-32 -0 32 32 32 0 0 1:1 2:-1 3:-1 4:-1 5:-1 6:-1 7:-1 9:1 10:-1 11:-1 12:-1 13:-1 14:-1 15:-1 17:1 18:-1 19:-1 20:-1 
-32 -0 0 0 0 0 0 1:1 2:-1 3:-1 4:-1 5:-1 6:-1 7:-1 9:-1 10:-1 11:1 12:-1 13:-1 14:-1 15:-1 17:1 18:-1 19:-1 20:-1 
-32 -0 0 0 0 0 0 1:1 2:-1 3:-1 4:-1 5:-1 6:-1 7:-1 9:-1 10:-1 11:1 12:-1 13:-1 14:-1 15:-1 17:1 18:-1 19:-1 20:-1 
-32 -0 0 0 0 0 0 1:1 2:-1 3:-1 4:-1 5:-1 6:-1 7:-1 9:-1 10:-1 11:1 12:-1 13:-1 14:-1 15:-1 17:1 18:-1 19:-1 20:-1 
-32 -0 0 0 0 0 0 1:1 2:-1 3:-1 4:-1 5:-1 6:-1 7:-1 9:-1 10:-1 11:1 12:-1 13:-1 14:-1 15:-1 17:1 18:-1 19:-1 20:-1 
-0 -0 0 32 0 0 0 1:-1 2:1 3:-1 4:-1 5:-1 6:-1 7:-1 9:-1 10:1 11:-1 12:-1 13:-1 14:-1 15:-1 17:-1 18:1 19:-1 20:-1 
-27.80382186401475 -0 0 32 0 0 0 1:-1 2:1 3:-1 4:-1 5:-1 6:-1 7:-1 9:-1 10:1 11:-1 12:-1 13:-1 14:-1 15:-1 17:-1 18:1 19:-1 20:-1 
-32 -0 0 0 0 0 0 1:1 2:-1 3:-1 4:-1 5:-1 6:-1 7:-1 9:-1 10:-1 11:1 12:-1 13:-1 14:-1 15:-1 17:1 18:-1 19:-1 20:-1 
-0 -0 0 32 0 0 0 1:1 2:-1 3:-1 4:-1 5:-1 6:-1 7:-1 9:-1 10:-1 11:1 12:-1 13:-1 14:-1 15:-1 17:-1 18:1 19:-1 20:-1 
-0 -0 0 32 0 0 0 1:1 2:-1 3:-1 4:-1 5:-1 6:-1 7:-1 9:-1 10:-1 11:1 12:-1 13:-1 14:-1 15:-1 17:-1 18:1 19:-1 20:-1 
-0 -0 0 32 0 0 0 1:1 2:-1 3:-1 4:-1 5:-1 6:-1 7:-1 9:-1 10:1 11:-1 12:-1 13:-1 14:-1 15:-1 17:-1 18:-1 19:1 20:-1 
-10.11810925341454 -0.3676763847512965 0 32 0.6063420730559039 1.368800093941877 0 1:1 2:-1 3:-1 4:-1 5:-1 6:-1 7:-1 9:-1 10:1 11:-1 12:-1 13:-1 14:-1 15:-1 17:-1 18:-1 19:1 20:-1 
-0 -0.5540041621796807 0 1.098127583086216 0 4.522279889049212 0 1:-1 2:-1 3:1 4:-1 5:-1 6:-1 7:-1 9:-1 10:-1 11:-1 12:1 13:-1 14:-1 15:-1 17:-1 18:-1 19:1 20:-1 
-12.20881161159037 -0 0 32 0 0 0 1:-1 2:1 3:-1 4:-1 5:-1 6:-1 7:-1 9:-1 10:1 11:-1 12:-1 13:-1 14:-1 15:-1 17:1 18:-1 19:-1 20:-1 
-32 -2.319320241276268 2.370008028579752 32 1.57263658251803 1.07995480142012 0 1:-1 2:1 3:-1 4:-1 5:-1 6:-1 7:-1 9:-1 10:1 11:-1 12:-1 13:-1 14:-1 15:-1 17:1 18:-1 19:-1 20:-1 
-32 -0 2.416165895085002 32 3.148461266052856 1.053278894318566 0 1:-1 2:1 3:-1 4:-1 5:-1 6:-1 7:-1 9:1 10:-1 11:-1 12:-1 13:-1 14:-1 15:-1 17:1 18:-1 19:-1 20:-1 
-32 -0 32 32 32 0 0 1:1 2:-1 3:-1 4:-1 5:-1 6:-1 7:-1 9:1 10:-1 11:-1 12:-1 13:-1 14:-1 15:-1 17:1 18:-1 19:-1 20:-1 
-32 -0 32 32 32 0 0 1:1 2:-1 3:-1 4:-1 5:-1 6:-1 7:-1 9:1 10:-1 11:-1 12:-1 13:-1 14:-1 15:-1 17:1 18:-1 19:-1 20:-1 
-32 -0 0 32 0 0 0 1:1 2:-1 3:-1 4:-1 5:-1 6:-1 7:-1 9:1 10:-1 11:-1 12:-1 13:-1 14:-1 15:-1 17:-1 18:1 19:-1 20:-1 
-32 -0 0 0 0 0 0 1:1 2:-1 3:-1 4:-1 5:-1 6:-1 7:-1 9:-1 10:-1 11:1 12:-1 13:-1 14:-1 15:-1 17:1 18:-1 19:-1 20:-1 
-7.252153254559154 -0 0 0 0 0 0 1:-1 2:-1 3:1 4:-1 5:-1 6:-1 7:-1 9:1 10:-1 11:-1 12:-1 13:-1 14:-1 15:-1 17:1 18:-1 19:-1 20:-1 
-32 -0 0 0 0 0 0 1:-1 2:-1 3:1 4:-1 5:-1 6:-1 7:-1 9:1 10:-1 11:-1 12:-1 13:-1 14:-1 15:-1 17:1 18:-1 19:-1 20:-1 
-32 -0 32 32 32 0 0 1:1 2:-1 3:-1 4:-1 5:-1 6:-1 7:-1 9:1 10:-1 11:-1 12:-1 13:-1 14:-1 15:-1 17:1 18:-1 19:-1 20:-1 
-0 -0 0 32 0 0 0 1:-1 2:1 3:-1 4:-1 5:-1 6:-1 7:-1 9:-1 10:-1 11:1 12:-1 13:-1 14:-1 15:-1 17:-1 18:1 19:-1 20:-1 
-0 -0 0 32 0 0 0 1:-1 2:1 3:-1 4:-1 5:-1 6:-1 7:-1 9:-1 10:-1 11:1 12:-1 13:-1 14:-1 15:-1 17:-1 18:1 19:-1 20:-1 
-32 -0 32 32 32 0 0 1:1 2:-1 3:-1 4:-1 5:-1 6:-1 7:-1 9:1 10:-1 11:-1 12:-1 13:-1 14:-1 15:-1 17:1 18:-1 19:-1 20:-1 
-32 -0 0 0 0 0 0 1:-1 2:-1 3:1 4:-1 5:-1 6:-1 7:-1 9:1 10:-1 11:-1 12:-1 13:-1 14:-1 15:-1 17:1 18:-1 19:-1 20:-1 
-32 -0 0 32 0 0 0 1:-1 2:-1 3:1 4:-1 5:-1 6:-1 7:-1 9:1 10:-1 11:-1 12:-1 13:-1 14:-1 15:-1 17:1 18:-1 19:-1 20:-1 
-32 -0 0 32 0 0 0 1:-1 2:-1 3:1 4:-1 5:-1 6:-1 7:-1 9:1 10:-1 11:-1 12:-1 13:-1 14:-1 15:-1 17:1 18:-1 19:-1 20:-1 
-32 -0 32 32 32 0 0 1:1 2:-1 3:-1 4:-1 5:-1 6:-1 7:-1 9:1 10:-1 11:-1 12:-1 13:-1 14:-1 15:-1 17:1 18:-1 19:-1 20:-1 
-4.279367703859724 -0 0 0 0 0 0 1:1 2:-1 3:-1 4:-1 5:-1 6:-1 7:-1 9:-1 10:-1 11:1 12:-1 13:-1 14:-1 15:-1 17:-1 18:-1 19:1 20:-1 
-32 -0 0 4.825955516108497 0 0 0 1:1 2:-1 3:-1 4:-1 5:-1 6:-1 7:-1 9:-1 10:-1 11:1 12:-1 13:-1 14:-1 15:-1 17:-1 18:-1 19:1 20:-1 
-0 -0 0 32 0 0 0 1:1 2:-1 3:-1 4:-1 5:-1 6:-1 7:-1 9:-1 10:-1 11:1 12:-1 13:-1 14:-1 15:-1 17:-1 18:1 19:-1 20:-1 
-10.12142057970632 -0 0 32 0 0 0 1:1 2:-1 3:-1 4:-1 5:-1 6:-1 7:-1 9:-1 10:-1 11:1 12:-1 13:-1 14:-1 15:-1 17:-1 18:1 19:-1 20:-1 
-0 -0.6735844802501958 0 3.406078075209131 0 4.739812470880653 0 1:-1 2:-1 3:-1 4:1 5:-1 6:-1 7:-1 9:-1 10:-1 11:1 12:-1 13:-1 14:-1 15:-1 17:-1 18:1 19:-1 20:-1 
-0 -0 0 29.55407729944691 0 0 0 1:-1 2:1 3:-1 4:-1 5:-1 6:-1 7:-1 9:-1 10:-1 11:1 12:-1 13:-1 14:-1 15:-1 17:-1 18:-1 19:1 20:-1 
-32 -0 0 0 0 0 0 1:1 2:-1 3:-1 4:-1 5:-1 6:-1 7:-1 9:-1 10:-1 11:1 12:-1 13:-1 14:-1 15:-1 17:1 18:-1 19:-1 20:-1 
-32 -0 0 0 0 0 0 1:1 2:-1 3:-1 4:-1 5:-1 6:-1 7:-1 9:-1 10:-1 11:1 12:-1 13:-1 14:-1 15:-1 17:1 18:-1 19:-1 20:-1 
-32 -0 0 0 0 0 0 1:1 2:-1 3:-1 4:-1 5:-1 6:-1 7:-1 9:-1 10:-1 11:1 12:-1 13:-1 14:-1 15:-1 17:1 18:-1 19:-1 20:-1 
-32 -0 0 0 0 0 0 1:1 2:-1 3:-1 4:-1 5:-1 6:-1 7:-1 9:-1 10:-1 11:1 12:-1 13:-1 14:-1 15:-1 17:1 18:-1 19:-1 20:-1 
-32 -0 0 0 0 0 0 1:1 2:-1 3:-1 4:-1 5:-1 6:-1 7:-1 9:-1 10:-1 11:1 12:-1 13:-1 14:-1 15:-1 17:1 18:-1 19:-1 20:-1 
-32 -0 0 0 0 0 0 1:1 2:-1 3:-1 4:-1 5:-1 6:-1 7:-1 9:-1 10:-1 11:1 12:-1 13:-1 14:-1 15:-1 17:1 18:-1 19:-1 20:-1 
-32 -0 32 32 32 0 0 1:1 2:-1 3:-1 4:-1 5:-1 6:-1 7:-1 9:1 10:-1 11:-1 12:-1 13:-1 14:-1 15:-1 17:1 18:-1 19:-1 20:-1 
-31.47666350573258 -0.667720358955444 9.817354151353554 30.37593536267124 4.374552264456706 1.582046496366992 0 1:-1 2:-1 3:1 4:-1 5:-1 6:-1 7:-1 9:1 10:-1 11:-1 12:-1 13:-1 14:-1 15:-1 17:1 18:-1 19:-1 20:-1 
-32 -0 0 0 0 0 0 1:1 2:-1 3:-1 4:-1 5:-1 6:-1 7:-1 9:-1 10:-1 11:1 12:-1 13:-1 14:-1 15:-1 17:1 18:-1 19:-1 20:-1 
-32 -0 0 14.91333283424825 0 0 0 1:1 2:-1 3:-1 4:-1 5:-1 6:-1 7:-1 9:-1 10:-1 11:1 12:-1 13:-1 14:-1 15:-1 17:1 18:-1 19:-1 20:-1 
-32 -0 0 32 0 0 0 1:1 2:-1 3:-1 4:-1 5:-1 6:-1 7:-1 9:-1 10:-1 11:1 12:-1 13:-1 14:-1 15:-1 17:1 18:-1 19:-1 20:-1 
-32 -0 32 32 32 0 0 1:1 2:-1 3:-1 4:-1 5:-1 6:-1 7:-1 9:1 10:-1 11:-1 12:-1 13:-1 14:-1 15:-1 17:1 18:-1 19:-1 20:-1 
-32 -0 32 32 32 0 0 1:1 2:-1 3:-1 4:-1 5:-1 6:-1 7:-1 9:1 10:-1 11:-1 12:-1 13:-1 14:-1 15:-1 17:1 18:-1 19:-1 20:-1 
-32 -0 32 32 32 0 0 1:1 2:-1 3:-1 4:-1 5:-1 6:-1 7:-1 9:1 10:-1 11:-1 12:-1 13:-1 14:-1 15:-1 17:1 18:-1 19:-1 20:-1 
-32 -1.809845281323755 32 32 4.374121144188393 1.89484937671838 0 1:-1 2:-1 3:-1 4:-1 5:1 6:-1 7:-1 9:1 10:-1 11:-1 12:-1 13:-1 14:-1 15:-1 17:1 18:-1 19:-1 20:-1 
-32 -0 32 32 32 0 0 1:1 2:-1 3:-1 4:-1 5:-1 6:-1 7:-1 9:1 10:-1 11:-1 12:-1 13:-1 14:-1 15:-1 17:1 18:-1 19:-1 20:-1 
-32 -0 32 32 32 0 0 1:1 2:-1 3:-1 4:-1 5:-1 6:-1 7:-1 9:1 10:-1 11:-1 12:-1 13:-1 14:-1 15:-1 17:1 18:-1 19:-1 20:-1 
-32 -0 32 32 32 0 0 1:1 2:-1 3:-1 4:-1 5:-1 6:-1 7:-1 9:1 10:-1 11:-1 12:-1 13:-1 14:-1 15:-1 17:1 18:-1 19:-1 20:-1 
-3.864500372785546 -0 0 9.573313422613694 0 0 0 1:-1 2:-1 3:1 4:-1 5:-1 6:-1 7:-1 9:1 10:-1 11:-1 12:-1 13:-1 14:-1 15:-1 17:-1 18:1 19:-1 20:-1 
-32 -0 32 32 32 10.03287091650898 0 1:1 2:-1 3:-1 4:-1 5:-1 6:-1 7:-1 9:1 10:-1 11:-1 12:-1 13:-1 14:-1 15:-1 17:1 18:-1 19:-1 20:-1 
-32 -4.567602158881394 32 32 32 32 0 1:1 2:-1 3:-1 4:-1 5:-1 6:-1 7:-1 9:1 10:-1 11:-1 12:-1 13:-1 14:-1 15:-1 17:1 18:-1 19:-1 20:-1 
-32 -0 2.803936961301769 32 5.208570742512564 31.42887362582089 0 1:1 2:-1 3:-1 4:-1 5:-1 6:-1 7:-1 9:1 10:-1 11:-1 12:-1 13:-1 14:-1 15:-1 17:-1 18:1 19:-1 20:-1 
-0 -0 0 32 0 0 0 1:-1 2:1 3:-1 4:-1 5:-1 6:-1 7:-1 9:-1 10:-1 11:1 12:-1 13:-1 14:-1 15:-1 17:-1 18:-1 19:1 20:-1 
-0 -0 0 32 0 0 0 1:-1 2:1 3:-1 4:-1 5:-1 6:-1 7:-1 9:-1 10:-1 11:1 12:-1 13:-1 14:-1 15:-1 17:-1 18:-1 19:1 20:-1 
-0 -0 0 32 0 0 0 1:-1 2:1 3:-1 4:-1 5:-1 6:-1 7:-1 9:-1 10:-1 11:1 12:-1 13:-1 14:-1 15:-1 17:-1 18:-1 19:1 20:-1 
-32 -0 0 32 0 0 0 1:1 2:-1 3:-1 4:-1 5:-1 6:-1 7:-1 9:-1 10:-1 11:1 12:-1 13:-1 14:-1 15:-1 17:-1 18:-1 19:1 20:-1 
-32 -0 0 32 0 0 0 1:1 2:-1 3:-1 4:-1 5:-1 6:-1 7:-1 9:-1 10:-1 11:1 12:-1 13:-1 14:-1 15:-1 17:1 18:-1 19:-1 20:-1 
-31.98422558743045 -0 0 14.80304688987176 0 30.25291970501553 0 1:1 2:-1 3:-1 4:-1 5:-1 6:-1 7:-1 9:-1 10:-1 11:1 12:-1 13:-1 14:-1 15:-1 17:-1 18:-1 19:1 20:-1 
-32 -0 0 32 0 0 0 1:1 2:-1 3:-1 4:-1 5:-1 6:-1 7:-1 9:-1 10:-1 11:1 12:-1 13:-1 14:-1 15:-1 17:1 18:-1 19:-1 20:-1 
-32 -3.837362523263201 6.578877027823487 32 6.967619008398533 3.644917529439585 0 1:1 2:-1 3:-1 4:-1 5:-1 6:-1 7:-1 9:-1 10:-1 11:1 12:-1 13:-1 14:-1 15:-1 17:1 18:-1 19:-1 20:-1 
-32 -32 32 32 32 32 0 1:1 2:-1 3:-1 4:-1 5:-1 6:-1 7:-1 9:1 10:-1 11:-1 12:-1 13:-1 14:-1 15:-1 17:1 18:-1 19:-1 20:-1 
-32 -32 32 32 32 32 0 1:1 2:-1 3:-1 4:-1 5:-1 6:-1 7:-1 9:1 10:-1 11:-1 12:-1 13:-1 14:-1 15:-1 17:1 18:-1 19:-1 20:-1 
-32 -32 32 32 32 32 0 1:1 2:-1 3:-1 4:-1 5:-1 6:-1 7:-1 9:1 10:-1 11:-1 12:-1 13:-1 14:-1 15:-1 17:1 18:-1 19:-1 20:-1 
-32 -32 32 32 32 32 0 1:1 2:-1 3:-1 4:-1 5:-1 6:-1 7:-1 9:1 10:-1 11:-1 12:-1 13:-1 14:-1 15:-1 17:1 18:-1 19:-1 20:-1 
-32 -0 0 0 0 0 0 1:-1 2:-1 3:1 4:-1 5:-1 6:-1 7:-1 9:-1 10:-1 11:1 12:-1 13:-1 14:-1 15:-1 17:1 18:-1 19:-1 20:-1 
-32 -0 0 0 0 0 0 1:-1 2:-1 3:1 4:-1 5:-1 6:-1 7:-1 9:-1 10:-1 11:1 12:-1 13:-1 14:-1 15:-1 17:1 18:-1 19:-1 20:-1 
-32 -0 0 5.01813858322351 0 3.531152920044501 0 1:-1 2:-1 3:1 4:-1 5:-1 6:-1 7:-1 9:-1 10:-1 11:1 12:-1 13:-1 14:-1 15:-1 17:1 18:-1 19:-1 20:-1 
-28.49577875978943 -1.036037930385713 0 32 0 29.29748424992998 0 1:-1 2:-1 3:1 4:-1 5:-1 6:-1 7:-1 9:-1 10:-1 11:1 12:-1 13:-1 14:-1 15:-1 17:1 18:-1 19:-1 20:-1 
-32 -30.9192347218196 32 32 32 31.64368643777954 32 1:1 2:-1 3:-1 4:-1 5:-1 6:-1 7:-1 9:1 10:-1 11:-1 12:-1 13:-1 14:-1 15:-1 17:1 18:-1 19:-1 20:-1 
-32 -0 -0 0 0 0 0 1:1 2:-1 3:-1 4:-1 5:-1 6:-1 7:-1 9:-1 10:-1 11:-1 12:-1 13:1 14:-1 15:-1 17:1 18:-1 19:-1 20:-1 
-32 -0 -0 0 0 0 0 1:1 2:-1 3:-1 4:-1 5:-1 6:-1 7:-1 9:-1 10:-1 11:-1 12:-1 13:1 14:-1 15:-1 17:1 18:-1 19:-1 20:-1 
-32 -0 -0 0 0 0 0 1:1 2:-1 3:-1 4:-1 5:-1 6:-1 7:-1 9:1 10:-1 11:-1 12:-1 13:-1 14:-1 15:-1 17:1 18:-1 19:-1 20:-1 
-32 -0 -0 0 0 0 0 1:1 2:-1 3:-1 4:-1 5:-1 6:-1 7:-1 9:1 10:-1 11:-1 12:-1 13:-1 14:-1 15:-1 17:1 18:-1 19:-1 20:-1 
-32 -0 -0 0 0 0 0 1:1 2:-1 3:-1 4:-1 5:-1 6:-1 7:-1 9:1 10:-1 11:-1 12:-1 13:-1 14:-1 15:-1 17:1 18:-1 19:-1 20:-1 
-32 -0 -0 0 0 0 0 1:1 2:-1 3:-1 4:-1 5:-1 6:-1 7:-1 9:1 10:-1 11:-1 12:-1 13:-1 14:-1 15:-1 17:1 18:-1 19:-1 20:-1 
-32 -0 -0 0 0 0 0 1:1 2:-1 3:-1 4:-1 5:-1 6:-1 7:-1 9:-1 10:-1 11:-1 12:-1 13:1 14:-1 15:-1 17:1 18:-1 19:-1 20:-1 
-32 -0 -0 0 0 0 0 1:1 2:-1 3:-1 4:-1 5:-1 6:-1 7:-1 9:-1 10:-1 11:-1 12:-1 13:1 14:-1 15:-1 17:1 18:-1 19:-1 20:-1 
-32 -0 -0 0 0 0 0 1:1 2:-1 3:-1 4:-1 5:-1 6:-1 7:-1 9:-1 10:-1 11:-1 12:-1 13:1 14:-1 15:-1 17:1 18:-1 19:-1 20:-1 
-32 -0 -0 0 0 0 0 1:1 2:-1 3:-1 4:-1 5:-1 6:-1 7:-1 9:-1 10:-1 11:-1 12:-1 13:1 14:-1 15:-1 17:1 18:-1 19:-1 20:-1 
-32 -0 -0 0 0 0 0 1:1 2:-1 3:-1 4:-1 5:-1 6:-1 7:-1 9:-1 10:-1 11:-1 12:-1 13:1 14:-1 15:-1 17:1 18:-1 19:-1 20:-1 
-32 -0 -0 0 0 0 0 1:1 2:-1 3:-1 4:-1 5:-1 6:-1 7:-1 9:1 10:-1 11:-1 12:-1 13:-1 14:-1 15:-1 17:1 18:-1 19:-1 20:-1 
-32 -0 -0 0 0 0 0 1:1 2:-1 3:-1 4:-1 5:-1 6:-1 7:-1 9:1 10:-1 11:-1 12:-1 13:-1 14:-1 15:-1 17:1 18:-1 19:-1 20:-1 
-32 -0 -0 0 0 0 0 1:1 2:-1 3:-1 4:-1 5:-1 6:-1 7:-1 9:1 10:-1 11:-1 12:-1 13:-1 14:-1 15:-1 17:1 18:-1 19:-1 20:-1 
-32 -0 -0 0 0 0 0 1:1 2:-1 3:-1 4:-1 5:-1 6:-1 7:-1 9:1 10:-1 11:-1 12:-1 13:-1 14:-1 15:-1 17:1 18:-1 19:-1 20:-1 
-32 -0 -0 0 0 0 0 1:1 2:-1 3:-1 4:-1 5:-1 6:-1 7:-1 9:1 10:-1 11:-1 12:-1 13:-1 14:-1 15:-1 17:1 18:-1 19:-1 20:-1 
-32 -0 -0 0 0 0 0 1:1 2:-1 3:-1 4:-1 5:-1 6:-1 7:-1 9:1 10:-1 11:-1 12:-1 13:-1 14:-1 15:-1 17:1 18:-1 19:-1 20:-1 
-32 -0 -0 0 0 0 0 1:1 2:-1 3:-1 4:-1 5:-1 6:-1 7:-1 9:1 10:-1 11:-1 12:-1 13:-1 14:-1 15:-1 17:1 18:-1 19:-1 20:-1 
-32 -0 -0 0 0 0 0 1:1 2:-1 3:-1 4:-1 5:-1 6:-1 7:-1 9:1 10:-1 11:-1 12:-1 13:-1 14:-1 15:-1 17:1 18:-1 19:-1 20:-1 
-32 -0 -0 0 0 0 0 1:1 2:-1 3:-1 4:-1 5:-1 6:-1 7:-1 9:1 10:-1 11:-1 12:-1 13:-1 14:-1 15:-1 17:1 18:-1 19:-1 20:-1 
-32 -0 -0 0 8.653664596645775 0 0 1:1 2:-1 3:-1 4:-1 5:-1 6:-1 7:-1 9:1 10:-1 11:-1 12:-1 13:-1 14:-1 15:-1 17:1 18:-1 19:-1 20:-1 
-32 -0 -0 0 32 0 0 1:1 2:-1 3:-1 4:-1 5:-1 6:-1 7:-1 9:1 10:-1 11:-1 12:-1 13:-1 14:-1 15:-1 17:1 18:-1 19:-1 20:-1 
-32 -0 -0 0 32 0 0 1:1 2:-1 3:-1 4:-1 5:-1 6:-1 7:-1 9:1 10:-1 11:-1 12:-1 13:-1 14:-1 15:-1 17:1 18:-1 19:-1 20:-1 
-32 -0 -0 0 32 0 0 1:1 2:-1 3:-1 4:-1 5:-1 6:-1 7:-1 9:1 10:-1 11:-1 12:-1 13:-1 14:-1 15:-1 17:1 18:-1 19:-1 20:-1 
-32 -0 -0 0 32 0 0 1:1 2:-1 3:-1 4:-1 5:-1 6:-1 7:-1 9:1 10:-1 11:-1 12:-1 13:-1 14:-1 15:-1 17:1 18:-1 19:-1 20:-1 
-32 -0 -0 0 32 0 0 1:1 2:-1 3:-1 4:-1 5:-1 6:-1 7:-1 9:1 10:-1 11:-1 12:-1 13:-1 14:-1 15:-1 17:1 18:-1 19:-1 20:-1 
-32 -0 -0 0 0 0 0 1:1 2:-1 3:-1 4:-1 5:-1 6:-1 7:-1 9:-1 10:-1 11:-1 12:-1 13:1 14:-1 15:-1 17:1 18:-1 19:-1 20:-1 
-32 -0 -0 0 0 0 0 1:1 2:-1 3:-1 4:-1 5:-1 6:-1 7:-1 9:-1 10:-1 11:-1 12:-1 13:1 14:-1 15:-1 17:1 18:-1 19:-1 20:-1 
-32 -0 -0 0 32 0 0 1:1 2:-1 3:-1 4:-1 5:-1 6:-1 7:-1 9:1 10:-1 11:-1 12:-1 13:-1 14:-1 15:-1 17:1 18:-1 19:-1 20:-1 
-32 -0 -0 0 0 0 0 1:1 2:-1 3:-1 4:-1 5:-1 6:-1 7:-1 9:-1 10:-1 11:-1 12:-1 13:1 14:-1 15:-1 17:1 18:-1 19:-1 20:-1 
-32 -0 -0 0 32 0 0 1:1 2:-1 3:-1 4:-1 5:-1 6:-1 7:-1 9:1 10:-1 11:-1 12:-1 13:-1 14:-1 15:-1 17:1 18:-1 19:-1 20:-1 
-32 -0 -0 0 32 0 0 1:1 2:-1 3:-1 4:-1 5:-1 6:-1 7:-1 9:1 10:-1 11:-1 12:-1 13:-1 14:-1 15:-1 17:1 18:-1 19:-1 20:-1 
-32 -0 -0 0 32 0 0 1:1 2:-1 3:-1 4:-1 5:-1 6:-1 7:-1 9:1 10:-1 11:-1 12:-1 13:-1 14:-1 15:-1 17:1 18:-1 19:-1 20:-1 
-32 -0 -0 0 32 0 0 1:1 2:-1 3:-1 4:-1 5:-1 6:-1 7:-1 9:1 10:-1 11:-1 12:-1 13:-1 14:-1 15:-1 17:1 18:-1 19:-1 20:-1 
-32 -0 -0 0 0 0 0 1:1 2:-1 3:-1 4:-1 5:-1 6:-1 7:-1 9:-1 10:-1 11:-1 12:-1 13:1 14:-1 15:-1 17:1 18:-1 19:-1 20:-1 
-32 -0 -0 0 0 0 0 1:1 2:-1 3:-1 4:-1 5:-1 6:-1 7:-1 9:-1 10:-1 11:-1 12:-1 13:1 14:-1 15:-1 17:1 18:-1 19:-1 20:-1 
-32 -0 -0 0 32 0 0 1:1 2:-1 3:-1 4:-1 5:-1 6:-1 7:-1 9:1 10:-1 11:-1 12:-1 13:-1 14:-1 15:-1 17:1 18:-1 19:-1 20:-1 
-32 -0 -0 0 32 0 0 1:1 2:-1 3:-1 4:-1 5:-1 6:-1 7:-1 9:1 10:-1 11:-1 12:-1 13:-1 14:-1 15:-1 17:1 18:-1 19:-1 20:-1 
-32 -0 -0 0 32 0 0 1:1 2:-1 3:-1 4:-1 5:-1 6:-1 7:-1 9:1 10:-1 11:-1 12:-1 13:-1 14:-1 15:-1 17:1 18:-1 19:-1 20:-1 
-32 -0 -0 0 0 0 0 1:1 2:-1 3:-1 4:-1 5:-1 6:-1 7:-1 9:-1 10:-1 11:-1 12:-1 13:1 14:-1 15:-1 17:1 18:-1 19:-1 20:-1 
-32 -0 -0 0 0 0 0 1:1 2:-1 3:-1 4:-1 5:-1 6:-1 7:-1 9:-1 10:-1 11:-1 12:-1 13:1 14:-1 15:-1 17:1 18:-1 19:-1 20:-1 
-32 -0 -0 0 32 0 0 1:1 2:-1 3:-1 4:-1 5:-1 6:-1 7:-1 9:1 10:-1 11:-1 12:-1 13:-1 14:-1 15:-1 17:1 18:-1 19:-1 20:-1 
-32 -0 -0 0 32 0 0 1:1 2:-1 3:-1 4:-1 5:-1 6:-1 7:-1 9:1 10:-1 11:-1 12:-1 13:-1 14:-1 15:-1 17:1 18:-1 19:-1 20:-1 
-32 -0 -0 0 0 0 0 1:1 2:-1 3:-1 4:-1 5:-1 6:-1 7:-1 9:-1 10:-1 11:-1 12:-1 13:1 14:-1 15:-1 17:1 18:-1 19:-1 20:-1 
-32 -0 -0 0 0 0 0 1:1 2:-1 3:-1 4:-1 5:-1 6:-1 7:-1 9:-1 10:-1 11:-1 12:-1 13:1 14:-1 15:-1 17:1 18:-1 19:-1 20:-1 
-32 -0 -0 0 0 0 0 1:1 2:-1 3:-1 4:-1 5:-1 6:-1 7:-1 9:-1 10:-1 11:-1 12:-1 13:1 14:-1 15:-1 17:1 18:-1 19:-1 20:-1 
-32 -0 -0 0 32 0 0 1:1 2:-1 3:-1 4:-1 5:-1 6:-1 7:-1 9:1 10:-1 11:-1 12:-1 13:-1 14:-1 15:-1 17:1 18:-1 19:-1 20:-1 
-32 -0 -0 0 32 0 0 1:1 2:-1 3:-1 4:-1 5:-1 6:-1 7:-1 9:1 10:-1 11:-1 12:-1 13:-1 14:-1 15:-1 17:1 18:-1 19:-1 20:-1 
-32 -0 -0 0 32 0 0 1:1 2:-1 3:-1 4:-1 5:-1 6:-1 7:-1 9:1 10:-1 11:-1 12:-1 13:-1 14:-1 15:-1 17:1 18:-1 19:-1 20:-1 
-32 -0 -0 0 0 0 0 1:1 2:-1 3:-1 4:-1 5:-1 6:-1 7:-1 9:-1 10:-1 11:-1 12:-1 13:1 14:-1 15:-1 17:1 18:-1 19:-1 20:-1 
-32 -0 -0 0 32 0 0 1:1 2:-1 3:-1 4:-1 5:-1 6:-1 7:-1 9:1 10:-1 11:-1 12:-1 13:-1 14:-1 15:-1 17:1 18:-1 19:-1 20:-1 
-32 -0 -0 0 32 0 0 1:1 2:-1 3:-1 4:-1 5:-1 6:-1 7:-1 9:1 10:-1 11:-1 12:-1 13:-1 14:-1 15:-1 17:1 18:-1 19:-1 20:-1 
-32 -0 -0 0 32 0 0 1:1 2:-1 3:-1 4:-1 5:-1 6:-1 7:-1 9:1 10:-1 11:-1 12:-1 13:-1 14:-1 15:-1 17:1 18:-1 19:-1 20:-1 
-32 -0 -0 0 0 0 0 1:1 2:-1 3:-1 4:-1 5:-1 6:-1 7:-1 9:-1 10:-1 11:-1 12:-1 13:1 14:-1 15:-1 17:1 18:-1 19:-1 20:-1 
-32 -0 -0 0 0 0 0 1:1 2:-1 3:-1 4:-1 5:-1 6:-1 7:-1 9:-1 10:-1 11:-1 12:-1 13:1 14:-1 15:-1 17:1 18:-1 19:-1 20:-1 
-32 -0 -0 0 0 0 0 1:1 2:-1 3:-1 4:-1 5:-1 6:-1 7:-1 9:-1 10:-1 11:-1 12:-1 13:1 14:-1 15:-1 17:1 18:-1 19:-1 20:-1 
-32 -0 -0 0 0 0 0 1:1 2:-1 3:-1 4:-1 5:-1 6:-1 7:-1 9:-1 10:-1 11:-1 12:-1 13:1 14:-1 15:-1 17:1 18:-1 19:-1 20:-1 
-32 -0 -0 0 0 0 0 1:1 2:-1 3:-1 4:-1 5:-1 6:-1 7:-1 9:-1 10:-1 11:-1 12:-1 13:1 14:-1 15:-1 17:1 18:-1 19:-1 20:-1 
-32 -0 -0 0 0 0 0 1:1 2:-1 3:-1 4:-1 5:-1 6:-1 7:-1 9:-1 10:-1 11:-1 12:-1 13:1 14:-1 15:-1 17:1 18:-1 19:-1 20:-1 
-32 -0 -0 0 0 0 0 1:1 2:-1 3:-1 4:-1 5:-1 6:-1 7:-1 9:-1 10:-1 11:-1 12:-1 13:1 14:-1 15:-1 17:1 18:-1 19:-1 20:-1 
-32 -0 -0 0 0 0 0 1:1 2:-1 3:-1 4:-1 5:-1 6:-1 7:-1 9:-1 10:-1 11:-1 12:-1 13:1 14:-1 15:-1 17:1 18:-1 19:-1 20:-1 
-32 -0 -0 0 32 0 0 1:1 2:-1 3:-1 4:-1 5:-1 6:-1 7:-1 9:1 10:-1 11:-1 12:-1 13:-1 14:-1 15:-1 17:1 18:-1 19:-1 20:-1 
-32 -0 -0 0 32 0 0 1:1 2:-1 3:-1 4:-1 5:-1 6:-1 7:-1 9:1 10:-1 11:-1 12:-1 13:-1 14:-1 15:-1 17:1 18:-1 19:-1 20:-1 
-32 -0 -0 0 32 0 0 1:1 2:-1 3:-1 4:-1 5:-1 6:-1 7:-1 9:1 10:-1 11:-1 12:-1 13:-1 14:-1 15:-1 17:1 18:-1 19:-1 20:-1 
-32 -0 -0 0 32 0 0 1:1 2:-1 3:-1 4:-1 5:-1 6:-1 7:-1 9:1 10:-1 11:-1 12:-1 13:-1 14:-1 15:-1 17:1 18:-1 19:-1 20:-1 
-32 -0 -0 0 32 0 0 1:1 2:-1 3:-1 4:-1 5:-1 6:-1 7:-1 9:1 10:-1 11:-1 12:-1 13:-1 14:-1 15:-1 17:1 18:-1 19:-1 20:-1 
-32 -0 -0 0 32 0 0 1:1 2:-1 3:-1 4:-1 5:-1 6:-1 7:-1 9:1 10:-1 11:-1 12:-1 13:-1 14:-1 15:-1 17:1 18:-1 19:-1 20:-1 
-32 -0 -0 0 32 0 0 1:1 2:-1 3:-1 4:-1 5:-1 6:-1 7:-1 9:1 10:-1 11:-1 12:-1 13:-1 14:-1 15:-1 17:1 18:-1 19:-1 20:-1 
-32 -0 -14.27264472911249 0 32 0 0 1:1 2:-1 3:-1 4:-1 5:-1 6:-1 7:-1 9:1 10:-1 11:-1 12:-1 13:-1 14:-1 15:-1 17:1 18:-1 19:-1 20:-1 
-32 -0 -0 0 0 0 0 1:1 2:-1 3:-1 4:-1 5:-1 6:-1 7:-1 9:-1 10:-1 11:-1 12:-1 13:1 14:-1 15:-1 17:1 18:-1 19:-1 20:-1 
-32 -0 -0 0 0 0 0 1:1 2:-1 3:-1 4:-1 5:-1 6:-1 7:-1 9:-1 10:-1 11:-1 12:-1 13:1 14:-1 15:-1 17:1 18:-1 19:-1 20:-1 
-32 -0 -0 0 0 0 0 1:1 2:-1 3:-1 4:-1 5:-1 6:-1 7:-1 9:-1 10:-1 11:-1 12:-1 13:1 14:-1 15:-1 17:1 18:-1 19:-1 20:-1 
-32 -0 -32 0 32 0 0 1:1 2:-1 3:-1 4:-1 5:-1 6:-1 7:-1 9:1 10:-1 11:-1 12:-1 13:-1 14:-1 15:-1 17:1 18:-1 19:-1 20:-1 
-32 -0 -32 0 32 0 0 1:1 2:-1 3:-1 4:-1 5:-1 6:-1 7:-1 9:1 10:-1 11:-1 12:-1 13:-1 14:-1 15:-1 17:1 18:-1 19:-1 20:-1 
-32 -0 -32 21.80110470880243 32 0 0 1:1 2:-1 3:-1 4:-1 5:-1 6:-1 7:-1 9:1 10:-1 11:-1 12:-1 13:-1 14:-1 15:-1 17:1 18:-1 19:-1 20:-1 
-32 -0 -32 32 32 0 0 1:1 2:-1 3:-1 4:-1 5:-1 6:-1 7:-1 9:1 10:-1 11:-1 12:-1 13:-1 14:-1 15:-1 17:1 18:-1 19:-1 20:-1 
-32 -0 -32 32 32 0 0 1:1 2:-1 3:-1 4:-1 5:-1 6:-1 7:-1 9:1 10:-1 11:-1 12:-1 13:-1 14:-1 15:-1 17:1 18:-1 19:-1 20:-1 
-32 -0 -0 0 0 0 0 1:1 2:-1 3:-1 4:-1 5:-1 6:-1 7:-1 9:-1 10:-1 11:-1 12:-1 13:1 14:-1 15:-1 17:1 18:-1 19:-1 20:-1 
-32 -0 -0 0 4.907232558541105 0 0 1:1 2:-1 3:-1 4:-1 5:-1 6:-1 7:-1 9:-1 10:-1 11:-1 12:-1 13:1 14:-1 15:-1 17:1 18:-1 19:-1 20:-1 
-32 -0 -32 32 32 0 0 1:1 2:-1 3:-1 4:-1 5:-1 6:-1 7:-1 9:1 10:-1 11:-1 12:-1 13:-1 14:-1 15:-1 17:1 18:-1 19:-1 20:-1 
-32 -0 -32 32 32 0 0 1:1 2:-1 3:-1 4:-1 5:-1 6:-1 7:-1 9:1 10:-1 11:-1 12:-1 13:-1 14:-1 15:-1 17:1 18:-1 19:-1 20:-1 
-32 -0 -32 32 32 0 0 1:1 2:-1 3:-1 4:-1 5:-1 6:-1 7:-1 9:1 10:-1 11:-1 12:-1 13:-1 14:-1 15:-1 17:1 18:-1 19:-1 20:-1 
-32 -0 -32 32 32 0 0 1:1 2:-1 3:-1 4:-1 5:-1 6:-1 7:-1 9:1 10:-1 11:-1 12:-1 13:-1 14:-1 15:-1 17:1 18:-1 19:-1 20:-1 
-32 -0 -32 32 32 0 0 1:1 2:-1 3:-1 4:-1 5:-1 6:-1 7:-1 9:1 10:-1 11:-1 12:-1 13:-1 14:-1 15:-1 17:1 18:-1 19:-1 20:-1 
-32 -0 -32 32 32 0 0 1:1 2:-1 3:-1 4:-1 5:-1 6:-1 7:-1 9:1 10:-1 11:-1 12:-1 13:-1 14:-1 15:-1 17:1 18:-1 19:-1 20:-1 
-32 -0 -32 32 32 0 0 1:1 2:-1 3:-1 4:-1 5:-1 6:-1 7:-1 9:1 10:-1 11:-1 12:-1 13:-1 14:-1 15:-1 17:1 18:-1 19:-1 20:-1 
-32 -0 -32 32 32 0 0 1:1 2:-1 3:-1 4:-1 5:-1 6:-1 7:-1 9:1 10:-1 11:-1 12:-1 13:-1 14:-1 15:-1 17:1 18:-1 19:-1 20:-1 
-32 -0 -32 32 32 0 0 1:1 2:-1 3:-1 4:-1 5:-1 6:-1 7:-1 9:1 10:-1 11:-1 12:-1 13:-1 14:-1 15:-1 17:1 18:-1 19:-1 20:-1 
-32 -0 -32 32 32 0 0 1:1 2:-1 3:-1 4:-1 5:-1 6:-1 7:-1 9:1 10:-1 11:-1 12:-1 13:-1 14:-1 15:-1 17:1 18:-1 19:-1 20:-1 
-32 -0 -0 0 32 0 0 1:1 2:-1 3:-1 4:-1 5:-1 6:-1 7:-1 9:-1 10:-1 11:-1 12:-1 13:1 14:-1 15:-1 17:1 18:-1 19:-1 20:-1 
-32 -0 -32 32 32 0 0 1:1 2:-1 3:-1 4:-1 5:-1 6:-1 7:-1 9:1 10:-1 11:-1 12:-1 13:-1 14:-1 15:-1 17:1 18:-1 19:-1 20:-1 
-32 -0 -32 32 32 10.20742572861154 0 1:1 2:-1 3:-1 4:-1 5:-1 6:-1 7:-1 9:1 10:-1 11:-1 12:-1 13:-1 14:-1 15:-1 17:1 18:-1 19:-1 20:-1 
-32 -5.128003799583231 -32 32 32 32 0 1:1 2:-1 3:-1 4:-1 5:-1 6:-1 7:-1 9:1 10:-1 11:-1 12:-1 13:-1 14:-1 15:-1 17:1 18:-1 19:-1 20:-1 
-32 -3.750479591845656 -0 0 32 1.801951317072944 0 1:1 2:-1 3:-1 4:-1 5:-1 6:-1 7:-1 9:-1 10:-1 11:-1 12:-1 13:1 14:-1 15:-1 17:1 18:-1 19:-1 20:-1 
-8.244643772794616 -0 -0 0 0 0 0 1:-1 2:-1 3:-1 4:-1 5:1 6:-1 7:-1 9:1 10:-1 11:-1 12:-1 13:-1 14:-1 15:-1 17:1 18:-1 19:-1 20:-1 
-32 -0 -0 0 0 0 0 1:-1 2:-1 3:-1 4:-1 5:1 6:-1 7:-1 9:1 10:-1 11:-1 12:-1 13:-1 14:-1 15:-1 17:1 18:-1 19:-1 20:-1 
-32 -0 -0 0 0 0 0 1:-1 2:-1 3:-1 4:-1 5:1 6:-1 7:-1 9:1 10:-1 11:-1 12:-1 13:-1 14:-1 15:-1 17:1 18:-1 19:-1 20:-1 
-32 -0 -0 0 0 0 0 1:-1 2:-1 3:-1 4:-1 5:1 6:-1 7:-1 9:1 10:-1 11:-1 12:-1 13:-1 14:-1 15:-1 17:1 18:-1 19:-1 20:-1 
-32 -0 -0 0 0 0 0 1:-1 2:-1 3:-1 4:-1 5:1 6:-1 7:-1 9:1 10:-1 11:-1 12:-1 13:-1 14:-1 15:-1 17:1 18:-1 19:-1 20:-1 
-3.516786122890136 -2.553888071676983 -2.705670218161645 9.242514527923124 2.957737121893182 2.585286386811167 0 1:-1 2:-1 3:-1 4:-1 5:1 6:-1 7:-1 9:-1 10:1 11:-1 12:-1 13:-1 14:-1 15:-1 17:1 18:-1 19:-1 20:-1 
-32 -0 -0 0 0 0 0 1:-1 2:-1 3:-1 4:-1 5:1 6:-1 7:-1 9:1 10:-1 11:-1 12:-1 13:-1 14:-1 15:-1 17:1 18:-1 19:-1 20:-1 
-32 -0 -0 0 0 0 0 1:-1 2:-1 3:-1 4:-1 5:1 6:-1 7:-1 9:1 10:-1 11:-1 12:-1 13:-1 14:-1 15:-1 17:1 18:-1 19:-1 20:-1 
-32 -0 -0 0 0 0 0 1:-1 2:-1 3:-1 4:-1 5:1 6:-1 7:-1 9:1 10:-1 11:-1 12:-1 13:-1 14:-1 15:-1 17:1 18:-1 19:-1 20:-1 
-32 -32 -32 32 32 32 0 1:1 2:-1 3:-1 4:-1 5:-1 6:-1 7:-1 9:1 10:-1 11:-1 12:-1 13:-1 14:-1 15:-1 17:1 18:-1 19:-1 20:-1 
-32 -0 -0 0 0 0 0 1:-1 2:-1 3:-1 4:-1 5:1 6:-1 7:-1 9:1 10:-1 11:-1 12:-1 13:-1 14:-1 15:-1 17:1 18:-1 19:-1 20:-1 
-32 -0 -0 0 0 0 0 1:-1 2:-1 3:-1 4:-1 5:1 6:-1 7:-1 9:1 10:-1 11:-1 12:-1 13:-1 14:-1 15:-1 17:1 18:-1 19:-1 20:-1 
-32 -32 -32 32 32 32 0 1:1 2:-1 3:-1 4:-1 5:-1 6:-1 7:-1 9:1 10:-1 11:-1 12:-1 13:-1 14:-1 15:-1 17:1 18:-1 19:-1 20:-1 
-32 -0 -0 0 0 0 0 1:-1 2:-1 3:-1 4:-1 5:1 6:-1 7:-1 9:1 10:-1 11:-1 12:-1 13:-1 14:-1 15:-1 17:1 18:-1 19:-1 20:-1 
-32 -32 -32 32 32 32 0 1:1 2:-1 3:-1 4:-1 5:-1 6:-1 7:-1 9:1 10:-1 11:-1 12:-1 13:-1 14:-1 15:-1 17:1 18:-1 19:-1 20:-1 
-32 -32 -32 32 32 32 0 1:1 2:-1 3:-1 4:-1 5:-1 6:-1 7:-1 9:1 10:-1 11:-1 12:-1 13:-1 14:-1 15:-1 17:1 18:-1 19:-1 20:-1 
-32 -0 -0 0 0 0 0 1:-1 2:-1 3:-1 4:-1 5:1 6:-1 7:-1 9:1 10:-1 11:-1 12:-1 13:-1 14:-1 15:-1 17:1 18:-1 19:-1 20:-1 
-32 -31.42514296651671 -32 32 31.17975866352345 32 32 1:1 2:-1 3:-1 4:-1 5:-1 6:-1 7:-1 9:1 10:-1 11:-1 12:-1 13:-1 14:-1 15:-1 17:1 18:-1 19:-1 20:-1 
-32 -0 -0 0 0 0 0 1:-1 2:-1 3:-1 4:-1 5:1 6:-1 7:-1 9:1 10:-1 11:-1 12:-1 13:-1 14:-1 15:-1 17:1 18:-1 19:-1 20:-1 
-32 -0 -0 0 0 0 0 1:-1 2:-1 3:-1 4:-1 5:1 6:-1 7:-1 9:1 10:-1 11:-1 12:-1 13:-1 14:-1 15:-1 17:1 18:-1 19:-1 20:-1 
-32 -0 -0 0 0 0 0 1:-1 2:-1 3:-1 4:-1 5:1 6:-1 7:-1 9:1 10:-1 11:-1 12:-1 13:-1 14:-1 15:-1 17:1 18:-1 19:-1 20:-1 
-32 -0 -0 0 0 0 0 1:-1 2:-1 3:-1 4:-1 5:1 6:-1 7:-1 9:1 10:-1 11:-1 12:-1 13:-1 14:-1 15:-1 17:1 18:-1 19:-1 20:-1 
-32 -0 -0 0 0 0 0 1:-1 2:-1 3:-1 4:-1 5:1 6:-1 7:-1 9:1 10:-1 11:-1 12:-1 13:-1 14:-1 15:-1 17:1 18:-1 19:-1 20:-1 
-32 -0 -0 0 0 0 0 1:-1 2:-1 3:-1 4:-1 5:1 6:-1 7:-1 9:1 10:-1 11:-1 12:-1 13:-1 14:-1 15:-1 17:1 18:-1 19:-1 20:-1 
-32 -0 -0 0 0 0 0 1:-1 2:-1 3:-1 4:-1 5:1 6:-1 7:-1 9:1 10:-1 11:-1 12:-1 13:-1 14:-1 15:-1 17:1 18:-1 19:-1 20:-1 
-32 -0 -0 0 0 0 0 1:-1 2:-1 3:-1 4:-1 5:1 6:-1 7:-1 9:1 10:-1 11:-1 12:-1 13:-1 14:-1 15:-1 17:1 18:-1 19:-1 20:-1 
-32 -0 -0 0 0 0 0 1:-1 2:-1 3:-1 4:-1 5:1 6:-1 7:-1 9:1 10:-1 11:-1 12:-1 13:-1 14:-1 15:-1 17:1 18:-1 19:-1 20:-1 
-32 -0 -0 0 0 0 0 1:-1 2:-1 3:-1 4:-1 5:1 6:-1 7:-1 9:1 10:-1 11:-1 12:-1 13:-1 14:-1 15:-1 17:1 18:-1 19:-1 20:-1 
-32 -0 -0 0 0 0 0 1:-1 2:-1 3:-1 4:-1 5:1 6:-1 7:-1 9:1 10:-1 11:-1 12:-1 13:-1 14:-1 15:-1 17:1 18:-1 19:-1 20:-1 
-16.05606360781672 -2.383104773437525 -7.138000332166027 7.452667112608642 3.387267878828402 4.916794359311806 0 1:-1 2:-1 3:1 4:-1 5:-1 6:-1 7:-1 9:-1 10:-1 11:-1 12:-1 13:1 14:-1 15:-1 17:1 18:-1 19:-1 20:-1 
-32 -0 -0 0 0 0 0 1:-1 2:-1 3:-1 4:-1 5:1 6:-1 7:-1 9:1 10:-1 11:-1 12:-1 13:-1 14:-1 15:-1 17:1 18:-1 19:-1 20:-1 
-32 -0 -0 0 0 0 0 1:-1 2:-1 3:-1 4:-1 5:1 6:-1 7:-1 9:1 10:-1 11:-1 12:-1 13:-1 14:-1 15:-1 17:1 18:-1 19:-1 20:-1 
-32 -0 -4.739723344416625 0 0 0 0 1:-1 2:-1 3:-1 4:-1 5:1 6:-1 7:-1 9:1 10:-1 11:-1 12:-1 13:-1 14:-1 15:-1 17:1 18:-1 19:-1 20:-1 
-32 -0.5706970051771711 -29.93498185309395 29.60691960394512 1.729306981309466 1.339831225777516 0 1:-1 2:-1 3:-1 4:-1 5:1 6:-1 7:-1 9:1 10:-1 11:-1 12:-1 13:-1 14:-1 15:-1 17:1 18:-1 19:-1 20:-1 
-27.27686093469891 -0 -0 0 0 0 0 1:-1 2:-1 3:-1 4:-1 5:1 6:-1 7:-1 9:-1 10:-1 11:-1 12:-1 13:1 14:-1 15:-1 17:1 18:-1 19:-1 20:-1 
-32 -0 -32 -32 32 0 0 1:1 2:-1 3:-1 4:-1 5:-1 6:-1 7:-1 9:1 10:-1 11:-1 12:-1 13:-1 14:-1 15:-1 17:1 18:-1 19:-1 20:-1 
-32 -0 -32 -32 32 0 0 1:1 2:-1 3:-1 4:-1 5:-1 6:-1 7:-1 9:1 10:-1 11:-1 12:-1 13:-1 14:-1 15:-1 17:1 18:-1 19:-1 20:-1 
-6.983119501674059 -0 -0 -0 0 0 0 1:1 2:-1 3:-1 4:-1 5:-1 6:-1 7:-1 9:-1 10:1 11:-1 12:-1 13:-1 14:-1 15:-1 17:1 18:-1 19:-1 20:-1 
-32 -0 -32 -32 32 0 0 1:1 2:-1 3:-1 4:-1 5:-1 6:-1 7:-1 9:1 10:-1 11:-1 12:-1 13:-1 14:-1 15:-1 17:1 18:-1 19:-1 20:-1 
-32 -0 -32 -32 32 0 0 1:1 2:-1 3:-1 4:-1 5:-1 6:-1 7:-1 9:1 10:-1 11:-1 12:-1 13:-1 14:-1 15:-1 17:1 18:-1 19:-1 20:-1 
-32 -0 -0 -0 0 0 0 1:1 2:-1 3:-1 4:-1 5:-1 6:-1 7:-1 9:1 10:-1 11:-1 12:-1 13:-1 14:-1 15:-1 17:-1 18:1 19:-1 20:-1 
-32 -0 -0 -0 0 0 0 1:1 2:-1 3:-1 4:-1 5:-1 6:-1 7:-1 9:1 10:-1 11:-1 12:-1 13:-1 14:-1 15:-1 17:-1 18:1 19:-1 20:-1 
-32 -0 -0 -0 0 0 0 1:1 2:-1 3:-1 4:-1 5:-1 6:-1 7:-1 9:1 10:-1 11:-1 12:-1 13:-1 14:-1 15:-1 17:-1 18:1 19:-1 20:-1 
-32 -0 -0 -0 0 0 0 1:1 2:-1 3:-1 4:-1 5:-1 6:-1 7:-1 9:1 10:-1 11:-1 12:-1 13:-1 14:-1 15:-1 17:-1 18:1 19:-1 20:-1 
-0 -0 -26.15086065175814 -0 0 0 0 1:-1 2:1 3:-1 4:-1 5:-1 6:-1 7:-1 9:-1 10:-1 11:1 12:-1 13:-1 14:-1 15:-1 17:1 18:-1 19:-1 20:-1 
-0 -0 -32 -0 0 0 0 1:-1 2:1 3:-1 4:-1 5:-1 6:-1 7:-1 9:-1 10:-1 11:1 12:-1 13:-1 14:-1 15:-1 17:-1 18:-1 19:1 20:-1 
-32 -0 -0 -0 0 0 0 1:1 2:-1 3:-1 4:-1 5:-1 6:-1 7:-1 9:1 10:-1 11:-1 12:-1 13:-1 14:-1 15:-1 17:-1 18:1 19:-1 20:-1 
-32 -0 -32 -32 32 0 0 1:1 2:-1 3:-1 4:-1 5:-1 6:-1 7:-1 9:1 10:-1 11:-1 12:-1 13:-1 14:-1 15:-1 17:1 18:-1 19:-1 20:-1 
-32 -0 -32 -32 32 0 0 1:1 2:-1 3:-1 4:-1 5:-1 6:-1 7:-1 9:1 10:-1 11:-1 12:-1 13:-1 14:-1 15:-1 17:1 18:-1 19:-1 20:-1 
-32 -0 -0 -0 0 0 0 1:1 2:-1 3:-1 4:-1 5:-1 6:-1 7:-1 9:1 10:-1 11:-1 12:-1 13:-1 14:-1 15:-1 17:-1 18:1 19:-1 20:-1 
-0 -0 -32 -0 0 0 0 1:1 2:-1 3:-1 4:-1 5:-1 6:-1 7:-1 9:-1 10:-1 11:1 12:-1 13:-1 14:-1 15:-1 17:-1 18:1 19:-1 20:-1 
-0 -0 -32 -0 0 0 0 1:1 2:-1 3:-1 4:-1 5:-1 6:-1 7:-1 9:-1 10:-1 11:1 12:-1 13:-1 14:-1 15:-1 17:-1 18:1 19:-1 20:-1 
-0 -0 -32 -0 0 0 0 1:1 2:-1 3:-1 4:-1 5:-1 6:-1 7:-1 9:-1 10:-1 11:1 12:-1 13:-1 14:-1 15:-1 17:-1 18:1 19:-1 20:-1 
-7.533712171132718 -0 -0 -0 0 0 0 1:-1 2:1 3:-1 4:-1 5:-1 6:-1 7:-1 9:1 10:-1 11:-1 12:-1 13:-1 14:-1 15:-1 17:1 18:-1 19:-1 20:-1 
-32 -0 -0 -0 0 0 0 1:-1 2:1 3:-1 4:-1 5:-1 6:-1 7:-1 9:1 10:-1 11:-1 12:-1 13:-1 14:-1 15:-1 17:1 18:-1 19:-1 20:-1 
-32 -0 -32 -32 32 0 0 1:1 2:-1 3:-1 4:-1 5:-1 6:-1 7:-1 9:1 10:-1 11:-1 12:-1 13:-1 14:-1 15:-1 17:1 18:-1 19:-1 20:-1 
-32 -0 -32 -32 32 0 0 1:1 2:-1 3:-1 4:-1 5:-1 6:-1 7:-1 9:1 10:-1 11:-1 12:-1 13:-1 14:-1 15:-1 17:1 18:-1 19:-1 20:-1 
-32 -0 -32 -32 32 0 0 1:1 2:-1 3:-1 4:-1 5:-1 6:-1 7:-1 9:1 10:-1 11:-1 12:-1 13:-1 14:-1 15:-1 17:1 18:-1 19:-1 20:-1 
-32 -0 -32 -0 0 0 0 1:1 2:-1 3:-1 4:-1 5:-1 6:-1 7:-1 9:-1 10:-1 11:1 12:-1 13:-1 14:-1 15:-1 17:1 18:-1 19:-1 20:-1 
-32 -0 -32 -0 0 0 0 1:1 2:-1 3:-1 4:-1 5:-1 6:-1 7:-1 9:-1 10:-1 11:1 12:-1 13:-1 14:-1 15:-1 17:1 18:-1 19:-1 20:-1 
-0 -0 -2.41674472174418 -0 0 0 0 1:1 2:-1 3:-1 4:-1 5:-1 6:-1 7:-1 9:-1 10:1 11:-1 12:-1 13:-1 14:-1 15:-1 17:-1 18:-1 19:1 20:-1 
-32 -0 -0 -0 0 0 0 1:1 2:-1 3:-1 4:-1 5:-1 6:-1 7:-1 9:-1 10:1 11:-1 12:-1 13:-1 14:-1 15:-1 17:1 18:-1 19:-1 20:-1 
-0 -0 -32 -0 0 0 0 1:-1 2:1 3:-1 4:-1 5:-1 6:-1 7:-1 9:-1 10:-1 11:1 12:-1 13:-1 14:-1 15:-1 17:-1 18:-1 19:1 20:-1 
-2.468447514282645 -0.1076277535456895 -32 -0 0 0.4936077659669962 0 1:-1 2:1 3:-1 4:-1 5:-1 6:-1 7:-1 9:-1 10:-1 11:1 12:-1 13:-1 14:-1 15:-1 17:-1 18:-1 19:1 20:-1 
-32 -0 -32 -32 32 0 0 1:1 2:-1 3:-1 4:-1 5:-1 6:-1 7:-1 9:1 10:-1 11:-1 12:-1 13:-1 14:-1 15:-1 17:1 18:-1 19:-1 20:-1 
-32 -0 -32 -32 32 0 0 1:1 2:-1 3:-1 4:-1 5:-1 6:-1 7:-1 9:1 10:-1 11:-1 12:-1 13:-1 14:-1 15:-1 17:1 18:-1 19:-1 20:-1 
-32 -0 -32 -0 0 0.569004863114957 0 1:1 2:-1 3:-1 4:-1 5:-1 6:-1 7:-1 9:-1 10:-1 11:1 12:-1 13:-1 14:-1 15:-1 17:-1 18:-1 19:1 20:-1 
-32 -0.02040586969133286 -32 -0 0 32 0 1:1 2:-1 3:-1 4:-1 5:-1 6:-1 7:-1 9:-1 10:-1 11:1 12:-1 13:-1 14:-1 15:-1 17:-1 18:-1 19:1 20:-1 
-32 -1.901354470912301 -32 -32 4.765101709951273 1.978792021166917 0 1:-1 2:-1 3:-1 4:-1 5:1 6:-1 7:-1 9:1 10:-1 11:-1 12:-1 13:-1 14:-1 15:-1 17:1 18:-1 19:-1 20:-1 
-32 -0 -0 -0 0 0 0 1:1 2:-1 3:-1 4:-1 5:-1 6:-1 7:-1 9:-1 10:1 11:-1 12:-1 13:-1 14:-1 15:-1 17:1 18:-1 19:-1 20:-1 
-32 -0 -32 -32 32 0 0 1:1 2:-1 3:-1 4:-1 5:-1 6:-1 7:-1 9:1 10:-1 11:-1 12:-1 13:-1 14:-1 15:-1 17:1 18:-1 19:-1 20:-1 
-32 -0 -0 -0 0 0 0 1:1 2:-1 3:-1 4:-1 5:-1 6:-1 7:-1 9:1 10:-1 11:-1 12:-1 13:-1 14:-1 15:-1 17:-1 18:1 19:-1 20:-1 
-32 -0 -0 -0 0 0 0 1:1 2:-1 3:-1 4:-1 5:-1 6:-1 7:-1 9:1 10:-1 11:-1 12:-1 13:-1 14:-1 15:-1 17:-1 18:1 19:-1 20:-1 
-32 -0 -32 -0 0 0 0 1:-1 2:-1 3:1 4:-1 5:-1 6:-1 7:-1 9:1 10:-1 11:-1 12:-1 13:-1 14:-1 15:-1 17:1 18:-1 19:-1 20:-1 
-9.896858614641552 -0.9150578203035874 -10.15692236798701 -0 0 0.8283765347891695 0 1:-1 2:-1 3:1 4:-1 5:-1 6:-1 7:-1 9:-1 10:1 11:-1 12:-1 13:-1 14:-1 15:-1 17:1 18:-1 19:-1 20:-1 
-32 -0 -0 -0 0 0 0 1:1 2:-1 3:-1 4:-1 5:-1 6:-1 7:-1 9:1 10:-1 11:-1 12:-1 13:-1 14:-1 15:-1 17:-1 18:-1 19:1 20:-1 
-32 -0 -0 -0 0 0 0 1:1 2:-1 3:-1 4:-1 5:-1 6:-1 7:-1 9:1 10:-1 11:-1 12:-1 13:-1 14:-1 15:-1 17:-1 18:-1 19:1 20:-1 
-32 -0 -13.34460485870951 -0 0 0 0 1:1 2:-1 3:-1 4:-1 5:-1 6:-1 7:-1 9:1 10:-1 11:-1 12:-1 13:-1 14:-1 15:-1 17:-1 18:-1 19:1 20:-1 
-32 -0 -32 -0 0 0 0 1:-1 2:-1 3:1 4:-1 5:-1 6:-1 7:-1 9:1 10:-1 11:-1 12:-1 13:-1 14:-1 15:-1 17:1 18:-1 19:-1 20:-1 
-32 -0.4696429397912674 -32 -10.04067617585837 4.764353875774284 2.46113558039765 0 1:-1 2:-1 3:1 4:-1 5:-1 6:-1 7:-1 9:1 10:-1 11:-1 12:-1 13:-1 14:-1 15:-1 17:1 18:-1 19:-1 20:-1 
-32 -0.9222207497346987 -32 -0 0 32 0 1:-1 2:-1 3:1 4:-1 5:-1 6:-1 7:-1 9:-1 10:-1 11:1 12:-1 13:-1 14:-1 15:-1 17:1 18:-1 19:-1 20:-1 
-32 -0.1083876484178497 -32 -2.775170112461979 2.840686272984544 0.9565615062602425 0 1:1 2:-1 3:-1 4:-1 5:-1 6:-1 7:-1 9:1 10:-1 11:-1 12:-1 13:-1 14:-1 15:-1 17:-1 18:-1 19:1 20:-1 
-32 -0 -0 -0 0 0 0 1:1 2:-1 3:-1 4:-1 5:-1 6:-1 7:-1 9:-1 10:1 11:-1 12:-1 13:-1 14:-1 15:-1 17:1 18:-1 19:-1 20:-1 
-32 -0 -32 -32 32 0 0 1:1 2:-1 3:-1 4:-1 5:-1 6:-1 7:-1 9:1 10:-1 11:-1 12:-1 13:-1 14:-1 15:-1 17:1 18:-1 19:-1 20:-1 
-32 -0 -32 -32 32 4.060308005658553 0 1:1 2:-1 3:-1 4:-1 5:-1 6:-1 7:-1 9:1 10:-1 11:-1 12:-1 13:-1 14:-1 15:-1 17:1 18:-1 19:-1 20:-1 
-32 -0 -32 -0 0 0 0 1:1 2:-1 3:-1 4:-1 5:-1 6:-1 7:-1 9:-1 10:-1 11:1 12:-1 13:-1 14:-1 15:-1 17:1 18:-1 19:-1 20:-1 
-32 -2.835699725814468 -32 -4.540346921166884 5.800717678451841 2.851083744930638 0 1:1 2:-1 3:-1 4:-1 5:-1 6:-1 7:-1 9:-1 10:-1 11:1 12:-1 13:-1 14:-1 15:-1 17:1 18:-1 19:-1 20:-1 
-32 -0 -0 -0 0 0 0 1:1 2:-1 3:-1 4:-1 5:-1 6:-1 7:-1 9:-1 10:1 11:-1 12:-1 13:-1 14:-1 15:-1 17:1 18:-1 19:-1 20:-1 
-32 -0 -0 -0 0 0 0 1:1 2:-1 3:-1 4:-1 5:-1 6:-1 7:-1 9:-1 10:1 11:-1 12:-1 13:-1 14:-1 15:-1 17:1 18:-1 19:-1 20:-1 
-32 -0 -0 -0 0 0 0 1:1 2:-1 3:-1 4:-1 5:-1 6:-1 7:-1 9:-1 10:1 11:-1 12:-1 13:-1 14:-1 15:-1 17:1 18:-1 19:-1 20:-1 
-0 -0 -32 -0 0 0 0 1:-1 2:1 3:-1 4:-1 5:-1 6:-1 7:-1 9:-1 10:-1 11:1 12:-1 13:-1 14:-1 15:-1 17:1 18:-1 19:-1 20:-1 
-7.973666157094847 -0.8144061617940701 -32 -0 0 0.1531181592076531 0 1:-1 2:1 3:-1 4:-1 5:-1 6:-1 7:-1 9:-1 10:-1 11:1 12:-1 13:-1 14:-1 15:-1 17:1 18:-1 19:-1 20:-1 
-0 -0 -9.712084539650334 -0 0 0 0 1:-1 2:1 3:-1 4:-1 5:-1 6:-1 7:-1 9:-1 10:-1 11:1 12:-1 13:-1 14:-1 15:-1 17:-1 18:1 19:-1 20:-1 
-0 -0 -32 -0 0 0 0 1:-1 2:1 3:-1 4:-1 5:-1 6:-1 7:-1 9:-1 10:-1 11:1 12:-1 13:-1 14:-1 15:-1 17:-1 18:1 19:-1 20:-1 
-32 -0 -9.892883234811762 -0 0 0 0 1:-1 2:1 3:-1 4:-1 5:-1 6:-1 7:-1 9:1 10:-1 11:-1 12:-1 13:-1 14:-1 15:-1 17:1 18:-1 19:-1 20:-1 
-30.31757305189798 -0.3821768455608306 -32 -4.236304758489423 4.764659300678683 1.208454007524714 0 1:-1 2:1 3:-1 4:-1 5:-1 6:-1 7:-1 9:1 10:-1 11:-1 12:-1 13:-1 14:-1 15:-1 17:1 18:-1 19:-1 20:-1 
-0 -0 -32 -0 0 0 0 1:1 2:-1 3:-1 4:-1 5:-1 6:-1 7:-1 9:-1 10:1 11:-1 12:-1 13:-1 14:-1 15:-1 17:-1 18:-1 19:1 20:-1 
-5.516688203687956 -0.06297950578690489 -8.776435654795279 -0 0 0.9543599248033722 0 1:1 2:-1 3:-1 4:-1 5:-1 6:-1 7:-1 9:-1 10:1 11:-1 12:-1 13:-1 14:-1 15:-1 17:-1 18:-1 19:1 20:-1 
-0 -0 -32 -0 0 0 0 1:-1 2:1 3:-1 4:-1 5:-1 6:-1 7:-1 9:-1 10:-1 11:1 12:-1 13:-1 14:-1 15:-1 17:-1 18:1 19:-1 20:-1 
-0 -0 -32 -0 0 0 0 1:-1 2:1 3:-1 4:-1 5:-1 6:-1 7:-1 9:-1 10:-1 11:1 12:-1 13:-1 14:-1 15:-1 17:-1 18:1 19:-1 20:-1 
-32 -3.250064651962989 -32 -32 32 32 0 1:1 2:-1 3:-1 4:-1 5:-1 6:-1 7:-1 9:1 10:-1 11:-1 12:-1 13:-1 14:-1 15:-1 17:1 18:-1 19:-1 20:-1 
-17.96213095065857 -0.1003056904832483 -32 -0 0 0.6724647881331092 0 1:1 2:-1 3:-1 4:-1 5:-1 6:-1 7:-1 9:-1 10:-1 11:1 12:-1 13:-1 14:-1 15:-1 17:-1 18:1 19:-1 20:-1 
-0 -0.02262742569346113 -32 -0 0 0.3604030215858048 0 1:-1 2:1 3:-1 4:-1 5:-1 6:-1 7:-1 9:-1 10:-1 11:1 12:-1 13:-1 14:-1 15:-1 17:-1 18:1 19:-1 20:-1 
-32 -32 -32 -32 32 32 0 1:1 2:-1 3:-1 4:-1 5:-1 6:-1 7:-1 9:1 10:-1 11:-1 12:-1 13:-1 14:-1 15:-1 17:1 18:-1 19:-1 20:-1 
-32 -32 -32 -32 32 32 0 1:1 2:-1 3:-1 4:-1 5:-1 6:-1 7:-1 9:1 10:-1 11:-1 12:-1 13:-1 14:-1 15:-1 17:1 18:-1 19:-1 20:-1 
-31.79734422809065 -2.836986882574138 -26.09098688560817 -11.73863690253797 11.32932713204306 2.317388413205925 0 1:1 2:-1 3:-1 4:-1 5:-1 6:-1 7:-1 9:-1 10:1 11:-1 12:-1 13:-1 14:-1 15:-1 17:1 18:-1 19:-1 20:-1 
-6.711519488616175 -0.1105133764538683 -0 -0 0 0.1728247710916277 0 1:-1 2:1 3:-1 4:-1 5:-1 6:-1 7:-1 9:1 10:-1 11:-1 12:-1 13:-1 14:-1 15:-1 17:-1 18:1 19:-1 20:-1 
-32 -32 -32 -32 32 32 0 1:1 2:-1 3:-1 4:-1 5:-1 6:-1 7:-1 9:1 10:-1 11:-1 12:-1 13:-1 14:-1 15:-1 17:1 18:-1 19:-1 20:-1 
-32 -32 -32 -32 32 32 0 1:1 2:-1 3:-1 4:-1 5:-1 6:-1 7:-1 9:1 10:-1 11:-1 12:-1 13:-1 14:-1 15:-1 17:1 18:-1 19:-1 20:-1 
-32 -31.1495660625376 -32 -32 32 32 32 1:1 2:-1 3:-1 4:-1 5:-1 6:-1 7:-1 9:1 10:-1 11:-1 12:-1 13:-1 14:-1 15:-1 17:1 18:-1 19:-1 20:-1 
-0 -0.06235508966116575 -0 -0 0 0.9515077318101656 0 1:1 2:-1 3:-1 4:-1 5:-1 6:-1 7:-1 9:-1 10:1 11:-1 12:-1 13:-1 14:-1 15:-1 17:-1 18:1 19:-1 20:-1 
-32 -0 -10.05778312567596 -0 0 0 0 1:1 2:-1 3:-1 4:-1 5:-1 6:-1 7:-1 9:1 10:-1 11:-1 12:-1 13:-1 14:-1 15:-1 17:-1 18:1 19:-1 20:-1 
-32 -0 -32 -0 0 0.8395478782716912 0 1:1 2:-1 3:-1 4:-1 5:-1 6:-1 7:-1 9:1 10:-1 11:-1 12:-1 13:-1 14:-1 15:-1 17:-1 18:1 19:-1 20:-1 
-32 -0.01819045641420076 -32 -2.77207108276468 4.117164073585247 31.98425256757942 0 1:1 2:-1 3:-1 4:-1 5:-1 6:-1 7:-1 9:1 10:-1 11:-1 12:-1 13:-1 14:-1 15:-1 17:-1 18:1 19:-1 20:-1 
-0 -0 -32 -0 0 0 0 1:-1 2:1 3:-1 4:-1 5:-1 6:-1 7:-1 9:-1 10:1 11:-1 12:-1 13:-1 14:-1 15:-1 17:1 18:-1 19:-1 20:-1 
-21.99950256629661 -0.8277157989313314 -1.960215485908437 -0 0 0 0 1:-1 2:1 3:-1 4:-1 5:-1 6:-1 7:-1 9:-1 10:1 11:-1 12:-1 13:-1 14:-1 15:-1 17:1 18:-1 19:-1 20:-1 
-0 -0.06776370966439776 -24.69883779904044 -0 0 0 0 1:-1 2:1 3:-1 4:-1 5:-1 6:-1 7:-1 9:-1 10:1 11:-1 12:-1 13:-1 14:-1 15:-1 17:-1 18:-1 19:1 20:-1 
-0 -0 -32 -0 0 0 0 1:-1 2:1 3:-1 4:-1 5:-1 6:-1 7:-1 9:-1 10:1 11:-1 12:-1 13:-1 14:-1 15:-1 17:-1 18:1 19:-1 20:-1 
-0 -0 -32 -0 0 0 0 1:-1 2:1 3:-1 4:-1 5:-1 6:-1 7:-1 9:-1 10:1 11:-1 12:-1 13:-1 14:-1 15:-1 17:-1 18:1 19:-1 20:-1 
-25.58894937796214 -0.05490348988572721 -26.61883832433623 -0 0 0 0 1:-1 2:1 3:-1 4:-1 5:-1 6:-1 7:-1 9:-1 10:1 11:-1 12:-1 13:-1 14:-1 15:-1 17:-1 18:1 19:-1 20:-1 
-32 -0 -0 -32 -0 0 0 1:1 2:-1 3:-1 4:-1 5:-1 6:-1 7:-1 9:1 10:-1 11:-1 12:-1 13:-1 14:-1 15:-1 17:1 18:-1 19:-1 20:-1 
-32 -0 -0 -32 -0 0 0 1:1 2:-1 3:-1 4:-1 5:-1 6:-1 7:-1 9:1 10:-1 11:-1 12:-1 13:-1 14:-1 15:-1 17:1 18:-1 19:-1 20:-1 
-32 -0 -0 -32 -0 0 0 1:1 2:-1 3:-1 4:-1 5:-1 6:-1 7:-1 9:1 10:-1 11:-1 12:-1 13:-1 14:-1 15:-1 17:1 18:-1 19:-1 20:-1 
-32 -0 -0 -32 -0 0 0 1:1 2:-1 3:-1 4:-1 5:-1 6:-1 7:-1 9:1 10:-1 11:-1 12:-1 13:-1 14:-1 15:-1 17:1 18:-1 19:-1 20:-1 
-32 -0 -0 -32 -0 0 0 1:1 2:-1 3:-1 4:-1 5:-1 6:-1 7:-1 9:1 10:-1 11:-1 12:-1 13:-1 14:-1 15:-1 17:1 18:-1 19:-1 20:-1 
-32 -0 -0 -32 -0 0 0 1:1 2:-1 3:-1 4:-1 5:-1 6:-1 7:-1 9:1 10:-1 11:-1 12:-1 13:-1 14:-1 15:-1 17:1 18:-1 19:-1 20:-1 
-32 -0 -0 -32 -0 0 0 1:1 2:-1 3:-1 4:-1 5:-1 6:-1 7:-1 9:1 10:-1 11:-1 12:-1 13:-1 14:-1 15:-1 17:1 18:-1 19:-1 20:-1 
-32 -0 -0 -32 -0 0 0 1:1 2:-1 3:-1 4:-1 5:-1 6:-1 7:-1 9:1 10:-1 11:-1 12:-1 13:-1 14:-1 15:-1 17:1 18:-1 19:-1 20:-1 
-0.7600791384316021 -0.3844356803961738 -3.86781533932907 -0 -2.104435068326648 4.170584009735522 0 1:-1 2:-1 3:-1 4:-1 5:-1 6:-1 7:1 9:-1 10:-1 11:-1 12:-1 13:-1 14:-1 15:1 17:-1 18:1 19:-1 20:-1 
-32 -0 -0 -32 -0 0 0 1:1 2:-1 3:-1 4:-1 5:-1 6:-1 7:-1 9:1 10:-1 11:-1 12:-1 13:-1 14:-1 15:-1 17:1 18:-1 19:-1 20:-1 
-32 -0 -0 -32 -0 0 0 1:1 2:-1 3:-1 4:-1 5:-1 6:-1 7:-1 9:1 10:-1 11:-1 12:-1 13:-1 14:-1 15:-1 17:1 18:-1 19:-1 20:-1 
-32 -0 -0 -32 -0 0 0 1:1 2:-1 3:-1 4:-1 5:-1 6:-1 7:-1 9:1 10:-1 11:-1 12:-1 13:-1 14:-1 15:-1 17:1 18:-1 19:-1 20:-1 
-32 -0 -0 -32 -0 0 0 1:1 2:-1 3:-1 4:-1 5:-1 6:-1 7:-1 9:1 10:-1 11:-1 12:-1 13:-1 14:-1 15:-1 17:1 18:-1 19:-1 20:-1 
-32 -0 -0 -32 -0 0 0 1:1 2:-1 3:-1 4:-1 5:-1 6:-1 7:-1 9:1 10:-1 11:-1 12:-1 13:-1 14:-1 15:-1 17:1 18:-1 19:-1 20:-1 
-32 -0 -0 -32 -0 0 0 1:1 2:-1 3:-1 4:-1 5:-1 6:-1 7:-1 9:1 10:-1 11:-1 12:-1 13:-1 14:-1 15:-1 17:1 18:-1 19:-1 20:-1 
-32 -0 -0 -32 -0 0 0 1:1 2:-1 3:-1 4:-1 5:-1 6:-1 7:-1 9:1 10:-1 11:-1 12:-1 13:-1 14:-1 15:-1 17:1 18:-1 19:-1 20:-1 
-0 -11.56641249079877 -0 -0 -0 0 0 1:1 2:-1 3:-1 4:-1 5:-1 6:-1 7:-1 9:-1 10:-1 11:-1 12:-1 13:-1 14:1 15:-1 17:1 18:-1 19:-1 20:-1 
-32 -0 -0 -32 -0 0 0 1:1 2:-1 3:-1 4:-1 5:-1 6:-1 7:-1 9:1 10:-1 11:-1 12:-1 13:-1 14:-1 15:-1 17:1 18:-1 19:-1 20:-1 
-32 -0 -0 -32 -0 0 0 1:1 2:-1 3:-1 4:-1 5:-1 6:-1 7:-1 9:1 10:-1 11:-1 12:-1 13:-1 14:-1 15:-1 17:1 18:-1 19:-1 20:-1 
-32 -0 -0 -32 -0 0 0 1:1 2:-1 3:-1 4:-1 5:-1 6:-1 7:-1 9:1 10:-1 11:-1 12:-1 13:-1 14:-1 15:-1 17:1 18:-1 19:-1 20:-1 
-0 -32 -0 -0 -0 0 0 1:1 2:-1 3:-1 4:-1 5:-1 6:-1 7:-1 9:-1 10:-1 11:-1 12:-1 13:-1 14:1 15:-1 17:1 18:-1 19:-1 20:-1 
-32 -0 -0 -32 -0 0 0 1:1 2:-1 3:-1 4:-1 5:-1 6:-1 7:-1 9:1 10:-1 11:-1 12:-1 13:-1 14:-1 15:-1 17:1 18:-1 19:-1 20:-1 
-32 -0 -0 -32 -0 0 0 1:1 2:-1 3:-1 4:-1 5:-1 6:-1 7:-1 9:1 10:-1 11:-1 12:-1 13:-1 14:-1 15:-1 17:1 18:-1 19:-1 20:-1 
-32 -0 -0 -32 -0 0 0 1:1 2:-1 3:-1 4:-1 5:-1 6:-1 7:-1 9:1 10:-1 11:-1 12:-1 13:-1 14:-1 15:-1 17:1 18:-1 19:-1 20:-1 
-32 -0 -0 -32 -0 0 0 1:1 2:-1 3:-1 4:-1 5:-1 6:-1 7:-1 9:1 10:-1 11:-1 12:-1 13:-1 14:-1 15:-1 17:1 18:-1 19:-1 20:-1 
-32 -0 -0 -32 -0 0 0 1:1 2:-1 3:-1 4:-1 5:-1 6:-1 7:-1 9:-1 10:-1 11:-1 12:-1 13:1 14:-1 15:-1 17:1 18:-1 19:-1 20:-1 
-32 -0 -0 -32 -0 0 0 1:1 2:-1 3:-1 4:-1 5:-1 6:-1 7:-1 9:1 10:-1 11:-1 12:-1 13:-1 14:-1 15:-1 17:1 18:-1 19:-1 20:-1 
-32 -0 -0 -32 -0 0 0 1:1 2:-1 3:-1 4:-1 5:-1 6:-1 7:-1 9:1 10:-1 11:-1 12:-1 13:-1 14:-1 15:-1 17:1 18:-1 19:-1 20:-1 
-32 -0 -0 -32 -0 0 0 1:1 2:-1 3:-1 4:-1 5:-1 6:-1 7:-1 9:1 10:-1 11:-1 12:-1 13:-1 14:-1 15:-1 17:1 18:-1 19:-1 20:-1 
-32 -0 -0 -32 -0 0 0 1:1 2:-1 3:-1 4:-1 5:-1 6:-1 7:-1 9:1 10:-1 11:-1 12:-1 13:-1 14:-1 15:-1 17:1 18:-1 19:-1 20:-1 
-32 -0 -0 -32 -0 0 0 1:1 2:-1 3:-1 4:-1 5:-1 6:-1 7:-1 9:1 10:-1 11:-1 12:-1 13:-1 14:-1 15:-1 17:1 18:-1 19:-1 20:-1 
-32 -0 -0 -32 -0 0 0 1:1 2:-1 3:-1 4:-1 5:-1 6:-1 7:-1 9:1 10:-1 11:-1 12:-1 13:-1 14:-1 15:-1 17:1 18:-1 19:-1 20:-1 
-32 -0 -13.14751391626865 -32 -0 0 0 1:1 2:-1 3:-1 4:-1 5:-1 6:-1 7:-1 9:1 10:-1 11:-1 12:-1 13:-1 14:-1 15:-1 17:1 18:-1 19:-1 20:-1 
-32 -0 -2.074892909240377 -32 -3.240996561371118 4.611079497768191 0 1:1 2:-1 3:-1 4:-1 5:-1 6:-1 7:-1 9:-1 10:-1 11:-1 12:-1 13:1 14:-1 15:-1 17:1 18:-1 19:-1 20:-1 
-32 -0 -32 -32 -0 0 0 1:1 2:-1 3:-1 4:-1 5:-1 6:-1 7:-1 9:1 10:-1 11:-1 12:-1 13:-1 14:-1 15:-1 17:1 18:-1 19:-1 20:-1 
-32 -0 -32 -32 -0 0 0 1:1 2:-1 3:-1 4:-1 5:-1 6:-1 7:-1 9:1 10:-1 11:-1 12:-1 13:-1 14:-1 15:-1 17:1 18:-1 19:-1 20:-1 
-7.076197792801905 -32 -2.074892909240378 -4.892581166204331 -3.240996561371117 2.342468133336302 0 1:1 2:-1 3:-1 4:-1 5:-1 6:-1 7:-1 9:-1 10:-1 11:-1 12:-1 13:-1 14:1 15:-1 17:1 18:-1 19:-1 20:-1 
-32 -0 -0 -4.892711931497305 -1.963250978541432 0 0 1:1 2:-1 3:-1 4:-1 5:-1 6:-1 7:-1 9:-1 10:-1 11:-1 12:-1 13:-1 14:-1 15:1 17:1 18:-1 19:-1 20:-1 
-32 -0 -32 -32 -16.45956166728582 0 0 1:1 2:-1 3:-1 4:-1 5:-1 6:-1 7:-1 9:1 10:-1 11:-1 12:-1 13:-1 14:-1 15:-1 17:1 18:-1 19:-1 20:-1 
-32 -0 -32 -32 -32 0 0 1:1 2:-1 3:-1 4:-1 5:-1 6:-1 7:-1 9:1 10:-1 11:-1 12:-1 13:-1 14:-1 15:-1 17:1 18:-1 19:-1 20:-1 
-32 -0 -32 -32 -32 0 0 1:1 2:-1 3:-1 4:-1 5:-1 6:-1 7:-1 9:1 10:-1 11:-1 12:-1 13:-1 14:-1 15:-1 17:1 18:-1 19:-1 20:-1 
-32 -0 -32 -32 -32 0 0 1:1 2:-1 3:-1 4:-1 5:-1 6:-1 7:-1 9:1 10:-1 11:-1 12:-1 13:-1 14:-1 15:-1 17:1 18:-1 19:-1 20:-1 
-32 -0 -32 -32 -32 0 0 1:1 2:-1 3:-1 4:-1 5:-1 6:-1 7:-1 9:1 10:-1 11:-1 12:-1 13:-1 14:-1 15:-1 17:1 18:-1 19:-1 20:-1 
-32 -0 -32 -32 -32 0 0 1:1 2:-1 3:-1 4:-1 5:-1 6:-1 7:-1 9:1 10:-1 11:-1 12:-1 13:-1 14:-1 15:-1 17:1 18:-1 19:-1 20:-1 
-32 -0 -32 -32 -32 0 0 1:1 2:-1 3:-1 4:-1 5:-1 6:-1 7:-1 9:1 10:-1 11:-1 12:-1 13:-1 14:-1 15:-1 17:1 18:-1 19:-1 20:-1 
-32 -32 -4.668658053497938 -5.008188299392508 -4.277269553569035 2.992529325411169 0 1:-1 2:-1 3:-1 4:-1 5:-1 6:1 7:-1 9:1 10:-1 11:-1 12:-1 13:-1 14:-1 15:-1 17:1 18:-1 19:-1 20:-1 
-32 -0 -32 -32 -32 0 0 1:1 2:-1 3:-1 4:-1 5:-1 6:-1 7:-1 9:1 10:-1 11:-1 12:-1 13:-1 14:-1 15:-1 17:1 18:-1 19:-1 20:-1 
-32 -0 -32 -32 -32 0 0 1:1 2:-1 3:-1 4:-1 5:-1 6:-1 7:-1 9:1 10:-1 11:-1 12:-1 13:-1 14:-1 15:-1 17:1 18:-1 19:-1 20:-1 
-32 -0 -32 -32 -32 0 0 1:1 2:-1 3:-1 4:-1 5:-1 6:-1 7:-1 9:1 10:-1 11:-1 12:-1 13:-1 14:-1 15:-1 17:1 18:-1 19:-1 20:-1 
-32 -0 -32 -32 -32 0 0 1:1 2:-1 3:-1 4:-1 5:-1 6:-1 7:-1 9:1 10:-1 11:-1 12:-1 13:-1 14:-1 15:-1 17:1 18:-1 19:-1 20:-1 
-32 -0 -32 -32 -32 0 0 1:1 2:-1 3:-1 4:-1 5:-1 6:-1 7:-1 9:1 10:-1 11:-1 12:-1 13:-1 14:-1 15:-1 17:1 18:-1 19:-1 20:-1 
-32 -0 -32 -32 -32 0 0 1:1 2:-1 3:-1 4:-1 5:-1 6:-1 7:-1 9:1 10:-1 11:-1 12:-1 13:-1 14:-1 15:-1 17:1 18:-1 19:-1 20:-1 
-32 -0 -32 -32 -32 0 0 1:1 2:-1 3:-1 4:-1 5:-1 6:-1 7:-1 9:1 10:-1 11:-1 12:-1 13:-1 14:-1 15:-1 17:1 18:-1 19:-1 20:-1 
-2.368004362090834 -4.505744091895666 -0 -4.362448984850374 -0 0 0 1:-1 2:-1 3:-1 4:-1 5:-1 6:-1 7:1 9:-1 10:-1 11:-1 12:-1 13:1 14:-1 15:-1 17:1 18:-1 19:-1 20:-1 
-2.36659856980364 -4.502621541693012 -2.202075321861837 -0.2063071094153459 -7.095499653003762 0.9892025778026033 0 1:-1 2:-1 3:-1 4:-1 5:-1 6:-1 7:1 9:-1 10:1 11:-1 12:-1 13:-1 14:-1 15:-1 17:1 18:-1 19:-1 20:-1 
-32 -0 -32 -32 -32 9.347800134803482 0 1:1 2:-1 3:-1 4:-1 5:-1 6:-1 7:-1 9:1 10:-1 11:-1 12:-1 13:-1 14:-1 15:-1 17:1 18:-1 19:-1 20:-1 
-32 -0 -32 -32 -32 32 0 1:1 2:-1 3:-1 4:-1 5:-1 6:-1 7:-1 9:1 10:-1 11:-1 12:-1 13:-1 14:-1 15:-1 17:1 18:-1 19:-1 20:-1 
-32 -32 -32 -32 -32 32 0 1:1 2:-1 3:-1 4:-1 5:-1 6:-1 7:-1 9:1 10:-1 11:-1 12:-1 13:-1 14:-1 15:-1 17:1 18:-1 19:-1 20:-1 
-32 -32 -32 -32 -32 32 0 1:1 2:-1 3:-1 4:-1 5:-1 6:-1 7:-1 9:1 10:-1 11:-1 12:-1 13:-1 14:-1 15:-1 17:1 18:-1 19:-1 20:-1 
-32 -32 -32 -32 -32 32 0 1:1 2:-1 3:-1 4:-1 5:-1 6:-1 7:-1 9:1 10:-1 11:-1 12:-1 13:-1 14:-1 15:-1 17:1 18:-1 19:-1 20:-1 
-32 -32 -32 -32 -32 32 0 1:1 2:-1 3:-1 4:-1 5:-1 6:-1 7:-1 9:1 10:-1 11:-1 12:-1 13:-1 14:-1 15:-1 17:1 18:-1 19:-1 20:-1 
-32 -26.01367250196155 -32 -32 -32 32 32 1:1 2:-1 3:-1 4:-1 5:-1 6:-1 7:-1 9:1 10:-1 11:-1 12:-1 13:-1 14:-1 15:-1 17:1 18:-1 19:-1 20:-1 
-3.016721115673273 -7.138972349570441 -0.6060359748959044 -1.45273030938152 -0 0 0 1:-1 2:-1 3:-1 4:-1 5:-1 6:-1 7:1 9:1 10:-1 11:-1 12:-1 13:-1 14:-1 15:-1 17:1 18:-1 19:-1 20:-1 
-0 -1.577968562969379 -0 -0 -0 0 0 1:-1 2:-1 3:-1 4:-1 5:-1 6:-1 7:1 9:-1 10:-1 11:-1 12:-1 13:-1 14:-1 15:1 17:1 18:-1 19:-1 20:-1 
-32 -4.57412815274807 -32 -32 -32 -32 0 1:1 2:-1 3:-1 4:-1 5:-1 6:-1 7:-1 9:1 10:-1 11:-1 12:-1 13:-1 14:-1 15:-1 17:1 18:-1 19:-1 20:-1 
-32 -32 -32 -32 -32 -32 0 1:1 2:-1 3:-1 4:-1 5:-1 6:-1 7:-1 9:1 10:-1 11:-1 12:-1 13:-1 14:-1 15:-1 17:1 18:-1 19:-1 20:-1 
-32 -0 -32 -2.733634840308916 -32 -5.370099475009154 0 1:1 2:-1 3:-1 4:-1 5:-1 6:-1 7:-1 9:1 10:-1 11:-1 12:-1 13:-1 14:-1 15:-1 17:-1 18:1 19:-1 20:-1 
-32 -32 -32 -32 -32 -32 0 1:1 2:-1 3:-1 4:-1 5:-1 6:-1 7:-1 9:1 10:-1 11:-1 12:-1 13:-1 14:-1 15:-1 17:1 18:-1 19:-1 20:-1 
-7.404675658651151 -2.299651941297197 -9.106940255925641 -5.137205173544622 -6.598870067764834 -6.698764244953524 0 1:1 2:-1 3:-1 4:-1 5:-1 6:-1 7:-1 9:-1 10:-1 11:-1 12:1 13:-1 14:-1 15:-1 17:1 18:-1 19:-1 20:-1 
-0 -0 -0.06721551141544584 -0 -1.137615838281043 -0 0 1:1 2:-1 3:-1 4:-1 5:-1 6:-1 7:-1 9:-1 10:-1 11:1 12:-1 13:-1 14:-1 15:-1 17:-1 18:-1 19:-1 20:1 
-2.685371160926022 -0 -5.071861180511847 -0 -1.858425514728318 -0 0 1:-1 2:-1 3:1 4:-1 5:-1 6:-1 7:-1 9:-1 10:-1 11:1 12:-1 13:-1 14:-1 15:-1 17:-1 18:-1 19:-1 20:1 
-1.662200346753416 -0.4928760140015555 -0.8822209905637226 -0 -2.575527522558619 -0 0 1:1 2:-1 3:-1 4:-1 5:-1 6:-1 7:-1 9:-1 10:1 11:-1 12:-1 13:-1 14:-1 15:-1 17:-1 18:-1 19:-1 20:1 
-32 -0.582790290565909 -32 -0 -32 -0.266053386369805 0 1:1 2:-1 3:-1 4:-1 5:-1 6:-1 7:-1 9:-1 10:-1 11:1 12:-1 13:-1 14:-1 15:-1 17:-1 18:-1 19:1 20:-1 
-32 -32 -32 -32 -32 -32 0 1:1 2:-1 3:-1 4:-1 5:-1 6:-1 7:-1 9:1 10:-1 11:-1 12:-1 13:-1 14:-1 15:-1 17:1 18:-1 19:-1 20:-1 
-0 -0.2634857805594034 -0 -0 -0 -0 0 1:-1 2:1 3:-1 4:-1 5:-1 6:-1 7:-1 9:-1 10:-1 11:-1 12:1 13:-1 14:-1 15:-1 17:-1 18:-1 19:-1 20:1 
-32 -2.887663392026341 -32 -4.064139310835013 -32 -2.582449283869237 0 1:-1 2:-1 3:1 4:-1 5:-1 6:-1 7:-1 9:-1 10:-1 11:1 12:-1 13:-1 14:-1 15:-1 17:1 18:-1 19:-1 20:-1 
-7.405086611425192 -2.284373274863853 -10.02082565728113 -5.691158477721966 -7.061375066351295 -6.049889433924275 0 1:-1 2:-1 3:-1 4:1 5:-1 6:-1 7:-1 9:1 10:-1 11:-1 12:-1 13:-1 14:-1 15:-1 17:1 18:-1 19:-1 20:-1 
-1.357244728392807 -0.492876014001555 -0 -2.214543868860646 -0 -2.91636409521467 0 1:1 2:-1 3:-1 4:-1 5:-1 6:-1 7:-1 9:-1 10:-1 11:-1 12:-1 13:1 14:-1 15:-1 17:-1 18:-1 19:-1 20:1 
-2.662612416072159 -0 -2.923863811537023 -1.010607346313806 -2.581377275814499 -0.5700437595166059 0 1:1 2:-1 3:-1 4:-1 5:-1 6:-1 7:-1 9:1 10:-1 11:-1 12:-1 13:-1 14:-1 15:-1 17:-1 18:-1 19:-1 20:1 
-32 -32 -32 -32 -32 -32 0 1:1 2:-1 3:-1 4:-1 5:-1 6:-1 7:-1 9:1 10:-1 11:-1 12:-1 13:-1 14:-1 15:-1 17:1 18:-1 19:-1 20:-1 
-32 -32 -32 -32 -32 -32 32 1:1 2:-1 3:-1 4:-1 5:-1 6:-1 7:-1 9:1 10:-1 11:-1 12:-1 13:-1 14:-1 15:-1 17:1 18:-1 19:-1 20:-1 
-32 -32 -32 -32 -32 -32 -32 1:1 2:-1 3:-1 4:-1 5:-1 6:-1 7:-1 9:1 10:-1 11:-1 12:-1 13:-1 14:-1 15:-1 17:1 18:-1 19:-1 20:-1 
