svm_type c_svc
kernel_type rbf
gamma 0.03125
nr_class 7
total_sv 159
rho 0.18471 0.230496 -0.297972 0.236988 0.240107 -0.168691 0.201618 0.0272296 0.0750242 0.470776 -0.559252 -0.227578 0.186787 0.11243 -0.371235 0.341624 0.548456 0.0723157 0.227052 -0.582076 -0.699022
label 0 5 2 4 1 3 6
nr_sv 33 18 23 17 34 15 19
SV
0 0 0 32 0 0 1:1 2:-1 3:-1 4:-1 5:-1 6:-1 7:-1 9:-1 10:1 11:-1 12:-1 13:-1 14:-1 17:1 18:-1 19:-1 20:-1 
0 0 0 32 0 0 1:1 2:-1 3:-1 4:-1 5:-1 6:-1 7:-1 9:-1 10:1 11:-1 12:-1 13:-1 14:-1 17:1 18:-1 19:-1 20:-1 
0 0 0 32 0 0 1:-1 2:1 3:-1 4:-1 5:-1 6:-1 7:-1 9:1 10:-1 11:-1 12:-1 13:-1 14:-1 17:1 18:-1 19:-1 20:-1 
14.30889673920668 2.533480301777535 1.697605063802848 32 3.716798881797147 3.11907755259755 1:-1 2:1 3:-1 4:-1 5:-1 6:-1 7:-1 9:1 10:-1 11:-1 12:-1 13:-1 14:-1 17:1 18:-1 19:-1 20:-1 
32 2.827380846087688 1.705698435034082 32 32 1.734172532903954 1:-1 2:1 3:-1 4:-1 5:-1 6:-1 7:-1 9:-1 10:1 11:-1 12:-1 13:-1 14:-1 17:1 18:-1 19:-1 20:-1 
9.793733583124595 4.948640005836409 31.92198805622285 32 0 0 1:1 2:-1 3:-1 4:-1 5:-1 6:-1 7:-1 9:-1 10:1 11:-1 12:-1 13:-1 14:-1 17:1 18:-1 19:-1 20:-1 
0.44023217551084 32 0.8082430999600144 32 32 0.2665524183146559 1:1 2:-1 3:-1 4:-1 5:-1 6:-1 7:-1 9:-1 10:1 11:-1 12:-1 13:-1 14:-1 17:-1 18:1 19:-1 20:-1 
32 32 32 32 3.785591723168109 1.298158287077225 1:1 2:-1 3:-1 4:-1 5:-1 6:-1 7:-1 9:-1 10:1 11:-1 12:-1 13:-1 14:-1 17:1 18:-1 19:-1 20:-1 
0 9.208748980621962 0 0 0 0 1:1 2:-1 3:-1 4:-1 5:-1 6:-1 7:-1 9:-1 10:-1 11:1 12:-1 13:-1 14:-1 17:1 18:-1 19:-1 20:-1 
0 0 0 4.535369916550822 0 0 1:1 2:-1 3:-1 4:-1 5:-1 6:-1 7:-1 9:1 10:-1 11:-1 12:-1 13:-1 14:-1 17:-1 18:1 19:-1 20:-1 
0 0 0 32 0 0 1:1 2:-1 3:-1 4:-1 5:-1 6:-1 7:-1 9:1 10:-1 11:-1 12:-1 13:-1 14:-1 17:-1 18:1 19:-1 20:-1 
0 32 0 0 0 0 1:1 2:-1 3:-1 4:-1 5:-1 6:-1 7:-1 9:-1 10:-1 11:1 12:-1 13:-1 14:-1 17:1 18:-1 19:-1 20:-1 
0 32 0 0 0 0 1:1 2:-1 3:-1 4:-1 5:-1 6:-1 7:-1 9:-1 10:-1 11:1 12:-1 13:-1 14:-1 17:1 18:-1 19:-1 20:-1 
0.3837660358450932 32 1.299239411205631 8.056079804725242 0.3706131395053927 0.2494513150691008 1:1 2:-1 3:-1 4:-1 5:-1 6:-1 7:-1 9:-1 10:-1 11:1 12:-1 13:-1 14:-1 17:1 18:-1 19:-1 20:-1 
0 0 0 32 0 0 1:1 2:-1 3:-1 4:-1 5:-1 6:-1 7:-1 9:1 10:-1 11:-1 12:-1 13:-1 14:-1 17:-1 18:1 19:-1 20:-1 
0 0 0 32 0 0 1:1 2:-1 3:-1 4:-1 5:-1 6:-1 7:-1 9:1 10:-1 11:-1 12:-1 13:-1 14:-1 17:-1 18:1 19:-1 20:-1 
0 0 0 32 0 0 1:1 2:-1 3:-1 4:-1 5:-1 6:-1 7:-1 9:1 10:-1 11:-1 12:-1 13:-1 14:-1 17:-1 18:1 19:-1 20:-1 
0.3708669124257714 14.26036617628569 0.7964048263489336 32 3.716620487715355 0.2590091069187753 1:1 2:-1 3:-1 4:-1 5:-1 6:-1 7:-1 9:1 10:-1 11:-1 12:-1 13:-1 14:-1 17:-1 18:1 19:-1 20:-1 
0.3852407254987587 0.369413179800765 1.311587467244571 2.480769786638368 0.3733820289130449 0.2485933415993171 1:1 2:-1 3:-1 4:-1 5:-1 6:-1 7:-1 9:-1 10:-1 11:-1 12:-1 13:1 14:-1 17:1 18:-1 19:-1 20:-1 
0 0 0 0 0 4.52081171467166 1:1 2:-1 3:-1 4:-1 5:-1 6:-1 7:-1 9:1 10:-1 11:-1 12:-1 13:-1 14:-1 17:1 18:-1 19:-1 20:-1 
0 0 0 0 0 32 1:1 2:-1 3:-1 4:-1 5:-1 6:-1 7:-1 9:1 10:-1 11:-1 12:-1 13:-1 14:-1 17:1 18:-1 19:-1 20:-1 
0 0 0 0 0 32 1:1 2:-1 3:-1 4:-1 5:-1 6:-1 7:-1 9:1 10:-1 11:-1 12:-1 13:-1 14:-1 17:1 18:-1 19:-1 20:-1 
0 0 0 0 0 32 1:1 2:-1 3:-1 4:-1 5:-1 6:-1 7:-1 9:1 10:-1 11:-1 12:-1 13:-1 14:-1 17:1 18:-1 19:-1 20:-1 
0 0 4.52081171467166 0 0 32 1:1 2:-1 3:-1 4:-1 5:-1 6:-1 7:-1 9:1 10:-1 11:-1 12:-1 13:-1 14:-1 17:1 18:-1 19:-1 20:-1 
0 4.52081171467166 32 4.533410425521748 0 32 1:1 2:-1 3:-1 4:-1 5:-1 6:-1 7:-1 9:1 10:-1 11:-1 12:-1 13:-1 14:-1 17:1 18:-1 19:-1 20:-1 
0 32 32 32 0 32 1:1 2:-1 3:-1 4:-1 5:-1 6:-1 7:-1 9:1 10:-1 11:-1 12:-1 13:-1 14:-1 17:1 18:-1 19:-1 20:-1 
0 32 32 32 4.52081171467166 32 1:1 2:-1 3:-1 4:-1 5:-1 6:-1 7:-1 9:1 10:-1 11:-1 12:-1 13:-1 14:-1 17:1 18:-1 19:-1 20:-1 
0 32 32 32 32 32 1:1 2:-1 3:-1 4:-1 5:-1 6:-1 7:-1 9:1 10:-1 11:-1 12:-1 13:-1 14:-1 17:1 18:-1 19:-1 20:-1 
4.52081171467166 32 32 32 32 32 1:1 2:-1 3:-1 4:-1 5:-1 6:-1 7:-1 9:1 10:-1 11:-1 12:-1 13:-1 14:-1 17:1 18:-1 19:-1 20:-1 
32 32 32 32 32 32 1:1 2:-1 3:-1 4:-1 5:-1 6:-1 7:-1 9:1 10:-1 11:-1 12:-1 13:-1 14:-1 17:1 18:-1 19:-1 20:-1 
32 32 32 32 32 32 1:1 2:-1 3:-1 4:-1 5:-1 6:-1 7:-1 9:1 10:-1 11:-1 12:-1 13:-1 14:-1 17:1 18:-1 19:-1 20:-1 
32 32 32 32 32 32 1:1 2:-1 3:-1 4:-1 5:-1 6:-1 7:-1 9:1 10:-1 11:-1 12:-1 13:-1 14:-1 17:1 18:-1 19:-1 20:-1 
23.27421359064091 17.69418194394351 27.42600137331389 31.99782818746218 28.44416984831361 30.18787650860794 1:1 2:-1 3:-1 4:-1 5:-1 6:-1 7:-1 9:1 10:-1 11:-1 12:-1 13:-1 14:-1 17:1 18:-1 19:-1 20:-1 
-32 32 32 32 32 32 1:1 2:-1 3:-1 4:-1 5:-1 6:-1 7:-1 9:1 10:-1 11:-1 12:-1 13:-1 14:-1 17:1 18:-1 19:-1 20:-1 
-32 32 32 32 32 32 1:1 2:-1 3:-1 4:-1 5:-1 6:-1 7:-1 9:1 10:-1 11:-1 12:-1 13:-1 14:-1 17:1 18:-1 19:-1 20:-1 
-12.49789283623175 0 0 32 3.515289605271406 0 1:-1 2:1 3:-1 4:-1 5:-1 6:-1 7:-1 9:-1 10:1 11:-1 12:-1 13:-1 14:-1 17:1 18:-1 19:-1 20:-1 
-32 32 32 32 13.87551458236727 10.07504018234014 1:1 2:-1 3:-1 4:-1 5:-1 6:-1 7:-1 9:-1 10:1 11:-1 12:-1 13:-1 14:-1 17:1 18:-1 19:-1 20:-1 
-32 6.624736810250231 4.496377343953617 32 31.44854997200371 0.2764343410120873 1:-1 2:1 3:-1 4:-1 5:-1 6:-1 7:-1 9:-1 10:1 11:-1 12:-1 13:-1 14:-1 17:1 18:-1 19:-1 20:-1 
-32 32 32 32 32 32 1:1 2:-1 3:-1 4:-1 5:-1 6:-1 7:-1 9:1 10:-1 11:-1 12:-1 13:-1 14:-1 17:1 18:-1 19:-1 20:-1 
-32 32 32 32 32 32 1:1 2:-1 3:-1 4:-1 5:-1 6:-1 7:-1 9:1 10:-1 11:-1 12:-1 13:-1 14:-1 17:1 18:-1 19:-1 20:-1 
-0.0398152545349893 0 1.224454559335292 0.2486998747975627 0 0.107429881364889 1:-1 2:-1 3:-1 4:-1 5:-1 6:1 7:-1 9:-1 10:-1 11:-1 12:-1 13:1 14:-1 17:1 18:-1 19:-1 20:-1 
-0.03736203893035032 1.663111228601369 1.218337104195508 1.581418169394826 0 0.1071267942655429 1:-1 2:-1 3:-1 4:-1 5:-1 6:1 7:-1 9:-1 10:-1 11:1 12:-1 13:-1 14:-1 17:1 18:-1 19:-1 20:-1 
-0 0 0 0 0 23.85297905075031 1:-1 2:-1 3:-1 4:-1 5:-1 6:1 7:-1 9:-1 10:1 11:-1 12:-1 13:-1 14:-1 17:1 18:-1 19:-1 20:-1 
-0.08054428729775692 4.857528413134287 1.338117106126783 3.24555943450728 5.163129829753429 0.2474705938325203 1:-1 2:-1 3:-1 4:-1 5:-1 6:1 7:-1 9:-1 10:1 11:-1 12:-1 13:-1 14:-1 17:-1 18:1 19:-1 20:-1 
-0 0 0.221788723067772 0.2486998747975628 0 0.1058910595471334 1:-1 2:-1 3:-1 4:-1 5:-1 6:1 7:-1 9:-1 10:-1 11:-1 12:-1 13:-1 14:1 17:1 18:-1 19:-1 20:-1 
-0 0 0 0 0 10.2467405112932 1:-1 2:-1 3:-1 4:-1 5:-1 6:1 7:-1 9:1 10:-1 11:-1 12:-1 13:-1 14:-1 17:1 18:-1 19:-1 20:-1 
-0 0 0 0 0 32 1:-1 2:-1 3:-1 4:-1 5:-1 6:1 7:-1 9:1 10:-1 11:-1 12:-1 13:-1 14:-1 17:1 18:-1 19:-1 20:-1 
-4.464880492291026 4.532615931382168 32 4.542242568470362 5.3178103734503 4.304228059701989 1:-1 2:-1 3:-1 4:-1 5:1 6:-1 7:-1 9:1 10:-1 11:-1 12:-1 13:-1 14:-1 17:1 18:-1 19:-1 20:-1 
-0 0 0 0 0 32 1:-1 2:-1 3:-1 4:-1 5:-1 6:1 7:-1 9:1 10:-1 11:-1 12:-1 13:-1 14:-1 17:1 18:-1 19:-1 20:-1 
-0 0 0 0 0 32 1:-1 2:-1 3:-1 4:-1 5:-1 6:1 7:-1 9:1 10:-1 11:-1 12:-1 13:-1 14:-1 17:1 18:-1 19:-1 20:-1 
-4.357266567638431 0.2918386786281104 1.955673330452921 0.95718276404827 2.187909085686849 32 1:-1 2:-1 3:-1 4:-1 5:-1 6:1 7:-1 9:1 10:-1 11:-1 12:-1 13:-1 14:-1 17:1 18:-1 19:-1 20:-1 
-32 -0 32 32 0 32 1:1 2:-1 3:-1 4:-1 5:-1 6:-1 7:-1 9:1 10:-1 11:-1 12:-1 13:-1 14:-1 17:1 18:-1 19:-1 20:-1 
-32 -0 32 32 5.258824780901558 32 1:1 2:-1 3:-1 4:-1 5:-1 6:-1 7:-1 9:1 10:-1 11:-1 12:-1 13:-1 14:-1 17:1 18:-1 19:-1 20:-1 
-0 -0 0 32 0 0 1:-1 2:1 3:-1 4:-1 5:-1 6:-1 7:-1 9:-1 10:1 11:-1 12:-1 13:-1 14:-1 17:-1 18:1 19:-1 20:-1 
-0 -0 0 32 0 0 1:-1 2:1 3:-1 4:-1 5:-1 6:-1 7:-1 9:-1 10:1 11:-1 12:-1 13:-1 14:-1 17:-1 18:1 19:-1 20:-1 
-0 -0 0 32 0 0 1:-1 2:1 3:-1 4:-1 5:-1 6:-1 7:-1 9:-1 10:1 11:-1 12:-1 13:-1 14:-1 17:-1 18:1 19:-1 20:-1 
-2.474598543955563 -8.156446313771641 0.997104527814488 32 12.74180261630003 0.965221859103527 1:-1 2:1 3:-1 4:-1 5:-1 6:-1 7:-1 9:-1 10:1 11:-1 12:-1 13:-1 14:-1 17:-1 18:1 19:-1 20:-1 
-0 -0 0 32 0 0 1:1 2:-1 3:-1 4:-1 5:-1 6:-1 7:-1 9:-1 10:1 11:-1 12:-1 13:-1 14:-1 17:-1 18:1 19:-1 20:-1 
-6.7837128482295 -0 0 32 3.114944639024681 0 1:1 2:-1 3:-1 4:-1 5:-1 6:-1 7:-1 9:-1 10:1 11:-1 12:-1 13:-1 14:-1 17:-1 18:1 19:-1 20:-1 
-32 -32 32 32 11.41011806701966 7.778478852875232 1:1 2:-1 3:-1 4:-1 5:-1 6:-1 7:-1 9:-1 10:1 11:-1 12:-1 13:-1 14:-1 17:1 18:-1 19:-1 20:-1 
-32 -0.04210814654067718 5.078043756425743 32 26.39792734943715 0 1:1 2:-1 3:-1 4:-1 5:-1 6:-1 7:-1 9:-1 10:1 11:-1 12:-1 13:-1 14:-1 17:-1 18:1 19:-1 20:-1 
-2.637684119769592 -1.758566908228075 0 0 0.206125952062489 0 1:-1 2:-1 3:1 4:-1 5:-1 6:-1 7:-1 9:-1 10:-1 11:1 12:-1 13:-1 14:-1 17:1 18:-1 19:-1 20:-1 
-3.753873956522549 -3.141138844898942 6.727030672497985 5.132555245598128 3.112120701923599 7.207137828795745 1:-1 2:-1 3:1 4:-1 5:-1 6:-1 7:-1 9:1 10:-1 11:-1 12:-1 13:-1 14:-1 17:1 18:-1 19:-1 20:-1 
-32 -0 32 32 32 32 1:1 2:-1 3:-1 4:-1 5:-1 6:-1 7:-1 9:1 10:-1 11:-1 12:-1 13:-1 14:-1 17:1 18:-1 19:-1 20:-1 
-32 -4.520811714671659 32 32 32 32 1:1 2:-1 3:-1 4:-1 5:-1 6:-1 7:-1 9:1 10:-1 11:-1 12:-1 13:-1 14:-1 17:1 18:-1 19:-1 20:-1 
-32 -32 32 32 32 32 1:1 2:-1 3:-1 4:-1 5:-1 6:-1 7:-1 9:1 10:-1 11:-1 12:-1 13:-1 14:-1 17:1 18:-1 19:-1 20:-1 
-32 -0 0 0 0 0 1:1 2:-1 3:-1 4:-1 5:-1 6:-1 7:-1 9:-1 10:-1 11:1 12:-1 13:-1 14:-1 17:1 18:-1 19:-1 20:-1 
-32 -0 0 0 0 0 1:1 2:-1 3:-1 4:-1 5:-1 6:-1 7:-1 9:-1 10:-1 11:1 12:-1 13:-1 14:-1 17:1 18:-1 19:-1 20:-1 
-32 -1.742354202809691 10.72637093119927 7.089652670322073 0 3.000091933224731 1:1 2:-1 3:-1 4:-1 5:-1 6:-1 7:-1 9:-1 10:-1 11:1 12:-1 13:-1 14:-1 17:1 18:-1 19:-1 20:-1 
-32 -32 32 32 32 32 1:1 2:-1 3:-1 4:-1 5:-1 6:-1 7:-1 9:1 10:-1 11:-1 12:-1 13:-1 14:-1 17:1 18:-1 19:-1 20:-1 
-32 -32 32 32 32 32 1:1 2:-1 3:-1 4:-1 5:-1 6:-1 7:-1 9:1 10:-1 11:-1 12:-1 13:-1 14:-1 17:1 18:-1 19:-1 20:-1 
-8.713153680548015 -0 0 5.302077830887761 0 0 1:1 2:-1 3:-1 4:-1 5:-1 6:-1 7:-1 9:-1 10:-1 11:1 12:-1 13:-1 14:-1 17:-1 18:1 19:-1 20:-1 
-32 -30.60840493107548 32 32 27.87125219701831 32 1:1 2:-1 3:-1 4:-1 5:-1 6:-1 7:-1 9:1 10:-1 11:-1 12:-1 13:-1 14:-1 17:1 18:-1 19:-1 20:-1 
-0 -0 0 0 1.197974359786507 0 1:-1 2:-1 3:1 4:-1 5:-1 6:-1 7:-1 9:-1 10:-1 11:1 12:-1 13:-1 14:-1 17:-1 18:-1 19:1 20:-1 
-32 -4.520811714671659 -7.348761873440885 32 0 0 1:1 2:-1 3:-1 4:-1 5:-1 6:-1 7:-1 9:-1 10:1 11:-1 12:-1 13:-1 14:-1 17:1 18:-1 19:-1 20:-1 
-32 -30.72617615106737 -32 32 7.68480001640472 9.577617394315711 1:1 2:-1 3:-1 4:-1 5:-1 6:-1 7:-1 9:-1 10:1 11:-1 12:-1 13:-1 14:-1 17:1 18:-1 19:-1 20:-1 
-32 -0 -8.025626066111959 14.00373066928357 0 32 1:1 2:-1 3:-1 4:-1 5:-1 6:-1 7:-1 9:1 10:-1 11:-1 12:-1 13:-1 14:-1 17:1 18:-1 19:-1 20:-1 
-32 -0 -32 32 0 32 1:1 2:-1 3:-1 4:-1 5:-1 6:-1 7:-1 9:1 10:-1 11:-1 12:-1 13:-1 14:-1 17:1 18:-1 19:-1 20:-1 
-32 -0 -32 32 4.739723344416623 32 1:1 2:-1 3:-1 4:-1 5:-1 6:-1 7:-1 9:1 10:-1 11:-1 12:-1 13:-1 14:-1 17:1 18:-1 19:-1 20:-1 
-1.701696210127458 -1.358517469786774 -2.410417611304022 2.672768604175563 3.543686506115858 0.1582178118333581 1:-1 2:-1 3:-1 4:-1 5:1 6:-1 7:-1 9:-1 10:-1 11:-1 12:-1 13:1 14:-1 17:-1 18:1 19:-1 20:-1 
-2.145498158791419 -2.116201816324346 -0 5.441142002534305 2.011395521557768 0 1:-1 2:-1 3:-1 4:-1 5:1 6:-1 7:-1 9:-1 10:1 11:-1 12:-1 13:-1 14:-1 17:1 18:-1 19:-1 20:-1 
-32 -0 -32 32 32 32 1:1 2:-1 3:-1 4:-1 5:-1 6:-1 7:-1 9:1 10:-1 11:-1 12:-1 13:-1 14:-1 17:1 18:-1 19:-1 20:-1 
-32 -1.670290412190564 -32 32 32 32 1:1 2:-1 3:-1 4:-1 5:-1 6:-1 7:-1 9:1 10:-1 11:-1 12:-1 13:-1 14:-1 17:1 18:-1 19:-1 20:-1 
-32 -32 -32 32 32 32 1:1 2:-1 3:-1 4:-1 5:-1 6:-1 7:-1 9:1 10:-1 11:-1 12:-1 13:-1 14:-1 17:1 18:-1 19:-1 20:-1 
-32 -32 -32 32 32 32 1:1 2:-1 3:-1 4:-1 5:-1 6:-1 7:-1 9:1 10:-1 11:-1 12:-1 13:-1 14:-1 17:1 18:-1 19:-1 20:-1 
-32 -32 -32 32 32 32 1:1 2:-1 3:-1 4:-1 5:-1 6:-1 7:-1 9:1 10:-1 11:-1 12:-1 13:-1 14:-1 17:1 18:-1 19:-1 20:-1 
-1.400511239208129 -1.279789633156161 -5.743744337080621 0 0 0 1:-1 2:-1 3:-1 4:-1 5:1 6:-1 7:-1 9:-1 10:-1 11:1 12:-1 13:-1 14:-1 17:1 18:-1 19:-1 20:-1 
-32 -32 -32 32 31.41330600366638 32 1:1 2:-1 3:-1 4:-1 5:-1 6:-1 7:-1 9:1 10:-1 11:-1 12:-1 13:-1 14:-1 17:1 18:-1 19:-1 20:-1 
-0 -4.520811714671659 -0 0 0 0 1:-1 2:-1 3:-1 4:-1 5:1 6:-1 7:-1 9:1 10:-1 11:-1 12:-1 13:-1 14:-1 17:1 18:-1 19:-1 20:-1 
-2.152952513458541 -28.0336262579866 -0 0 0.6748182557052564 7.370026659911701 1:-1 2:-1 3:-1 4:-1 5:1 6:-1 7:-1 9:1 10:-1 11:-1 12:-1 13:-1 14:-1 17:1 18:-1 19:-1 20:-1 
-0.08692132621893413 -0.2285229972767547 -0 0 0 0 1:-1 2:-1 3:-1 4:-1 5:1 6:-1 7:-1 9:-1 10:-1 11:-1 12:-1 13:1 14:-1 17:1 18:-1 19:-1 20:-1 
-32 -0 -0 -0 0 0 1:1 2:-1 3:-1 4:-1 5:-1 6:-1 7:-1 9:1 10:-1 11:-1 12:-1 13:-1 14:-1 17:-1 18:1 19:-1 20:-1 
-32 -0 -0 -0 0 0 1:1 2:-1 3:-1 4:-1 5:-1 6:-1 7:-1 9:1 10:-1 11:-1 12:-1 13:-1 14:-1 17:-1 18:1 19:-1 20:-1 
-0 -0.3608717304221203 -0 -0 32 0 1:-1 2:1 3:-1 4:-1 5:-1 6:-1 7:-1 9:-1 10:1 11:-1 12:-1 13:-1 14:-1 17:-1 18:-1 19:-1 20:1 
-12.99573082129052 -0 -0 -0 0 0 1:1 2:-1 3:-1 4:-1 5:-1 6:-1 7:-1 9:-1 10:1 11:-1 12:-1 13:-1 14:-1 17:1 18:-1 19:-1 20:-1 
-32 -0 -0 -0 0 0 1:1 2:-1 3:-1 4:-1 5:-1 6:-1 7:-1 9:-1 10:1 11:-1 12:-1 13:-1 14:-1 17:1 18:-1 19:-1 20:-1 
-32 -0 -0 -9.276553849685868 0 0 1:1 2:-1 3:-1 4:-1 5:-1 6:-1 7:-1 9:-1 10:1 11:-1 12:-1 13:-1 14:-1 17:1 18:-1 19:-1 20:-1 
-32 -0 -0 -0 0 0 1:1 2:-1 3:-1 4:-1 5:-1 6:-1 7:-1 9:1 10:-1 11:-1 12:-1 13:-1 14:-1 17:-1 18:1 19:-1 20:-1 
-32 -0 -0 -0 0 0 1:1 2:-1 3:-1 4:-1 5:-1 6:-1 7:-1 9:1 10:-1 11:-1 12:-1 13:-1 14:-1 17:-1 18:1 19:-1 20:-1 
-32 -0.1870683193471346 -6.183553747456365 -5.948934988895872 1.669655169588339 4.193531140042578 1:1 2:-1 3:-1 4:-1 5:-1 6:-1 7:-1 9:1 10:-1 11:-1 12:-1 13:-1 14:-1 17:-1 18:1 19:-1 20:-1 
-32 -0 -32 -32 0 32 1:1 2:-1 3:-1 4:-1 5:-1 6:-1 7:-1 9:1 10:-1 11:-1 12:-1 13:-1 14:-1 17:1 18:-1 19:-1 20:-1 
-32 -0 -32 -32 3.05414371352676 32 1:1 2:-1 3:-1 4:-1 5:-1 6:-1 7:-1 9:1 10:-1 11:-1 12:-1 13:-1 14:-1 17:1 18:-1 19:-1 20:-1 
-32 -0 -32 -32 32 32 1:1 2:-1 3:-1 4:-1 5:-1 6:-1 7:-1 9:1 10:-1 11:-1 12:-1 13:-1 14:-1 17:1 18:-1 19:-1 20:-1 
-0 -0 -2.132768589960762 -0 0 0 1:1 2:-1 3:-1 4:-1 5:-1 6:-1 7:-1 9:-1 10:1 11:-1 12:-1 13:-1 14:-1 17:-1 18:1 19:-1 20:-1 
-0 -0 -32 -0 0 0 1:1 2:-1 3:-1 4:-1 5:-1 6:-1 7:-1 9:-1 10:1 11:-1 12:-1 13:-1 14:-1 17:-1 18:1 19:-1 20:-1 
-2.4638543756625 -0 -32 -0 1.939418844295835 0 1:1 2:-1 3:-1 4:-1 5:-1 6:-1 7:-1 9:-1 10:1 11:-1 12:-1 13:-1 14:-1 17:-1 18:1 19:-1 20:-1 
-32 -0.6218558652617057 -4.739723344416625 -32 0 0 1:1 2:-1 3:-1 4:-1 5:-1 6:-1 7:-1 9:-1 10:1 11:-1 12:-1 13:-1 14:-1 17:1 18:-1 19:-1 20:-1 
-32 -31.96304108391736 -31.49845919620567 -31.99810951382673 0.8719637276795146 9.423010874084218 1:1 2:-1 3:-1 4:-1 5:-1 6:-1 7:-1 9:-1 10:1 11:-1 12:-1 13:-1 14:-1 17:1 18:-1 19:-1 20:-1 
-32 -1.563566193352916 -32 -0 32 0 1:1 2:-1 3:-1 4:-1 5:-1 6:-1 7:-1 9:-1 10:1 11:-1 12:-1 13:-1 14:-1 17:-1 18:1 19:-1 20:-1 
-7.159491666229396 -1.7113974196962 -8.005481032231161 -0 0.4806429943310163 0 1:-1 2:1 3:-1 4:-1 5:-1 6:-1 7:-1 9:-1 10:-1 11:1 12:-1 13:-1 14:-1 17:1 18:-1 19:-1 20:-1 
-2.466712448648138 -0.1405968226324482 -0 -0 0.1974004692203148 0 1:-1 2:1 3:-1 4:-1 5:-1 6:-1 7:-1 9:1 10:-1 11:-1 12:-1 13:-1 14:-1 17:-1 18:1 19:-1 20:-1 
-32 -4.520811714671659 -32 -32 32 32 1:1 2:-1 3:-1 4:-1 5:-1 6:-1 7:-1 9:1 10:-1 11:-1 12:-1 13:-1 14:-1 17:1 18:-1 19:-1 20:-1 
-32 -32 -32 -32 32 32 1:1 2:-1 3:-1 4:-1 5:-1 6:-1 7:-1 9:1 10:-1 11:-1 12:-1 13:-1 14:-1 17:1 18:-1 19:-1 20:-1 
-32 -32 -32 -32 32 32 1:1 2:-1 3:-1 4:-1 5:-1 6:-1 7:-1 9:1 10:-1 11:-1 12:-1 13:-1 14:-1 17:1 18:-1 19:-1 20:-1 
-5.248647541765713 -0 -0 -0 0 0 1:-1 2:1 3:-1 4:-1 5:-1 6:-1 7:-1 9:1 10:-1 11:-1 12:-1 13:-1 14:-1 17:1 18:-1 19:-1 20:-1 
-32 -32 -32 -32 32 32 1:1 2:-1 3:-1 4:-1 5:-1 6:-1 7:-1 9:1 10:-1 11:-1 12:-1 13:-1 14:-1 17:1 18:-1 19:-1 20:-1 
-32 -30.42635352600139 -32 -32 32 32 1:1 2:-1 3:-1 4:-1 5:-1 6:-1 7:-1 9:1 10:-1 11:-1 12:-1 13:-1 14:-1 17:1 18:-1 19:-1 20:-1 
-32 -0 -0 -0 0 0 1:-1 2:1 3:-1 4:-1 5:-1 6:-1 7:-1 9:1 10:-1 11:-1 12:-1 13:-1 14:-1 17:1 18:-1 19:-1 20:-1 
-31.99643178139418 -2.245448063307889 -0 -6.894042923584961 1.457992426501397 7.261722661496306 1:-1 2:1 3:-1 4:-1 5:-1 6:-1 7:-1 9:1 10:-1 11:-1 12:-1 13:-1 14:-1 17:1 18:-1 19:-1 20:-1 
-0 -0 -32 -0 0 0 1:-1 2:1 3:-1 4:-1 5:-1 6:-1 7:-1 9:-1 10:1 11:-1 12:-1 13:-1 14:-1 17:-1 18:1 19:-1 20:-1 
-0 -0 -32 -0 0 0 1:-1 2:1 3:-1 4:-1 5:-1 6:-1 7:-1 9:-1 10:1 11:-1 12:-1 13:-1 14:-1 17:-1 18:1 19:-1 20:-1 
-0 -32 -0 -0 3.531152920044501 0 1:-1 2:1 3:-1 4:-1 5:-1 6:-1 7:-1 9:-1 10:1 11:-1 12:-1 13:-1 14:-1 17:1 18:-1 19:-1 20:-1 
-21.2725894859079 -31.63282015752105 -0 -0 30.20310108281161 0 1:-1 2:1 3:-1 4:-1 5:-1 6:-1 7:-1 9:-1 10:1 11:-1 12:-1 13:-1 14:-1 17:1 18:-1 19:-1 20:-1 
-0 -0 -32 -0 0 0 1:-1 2:1 3:-1 4:-1 5:-1 6:-1 7:-1 9:-1 10:1 11:-1 12:-1 13:-1 14:-1 17:-1 18:1 19:-1 20:-1 
-0 -1.449971789883991 -28.96429983653736 -0 3.099144353436669 0 1:-1 2:1 3:-1 4:-1 5:-1 6:-1 7:-1 9:-1 10:1 11:-1 12:-1 13:-1 14:-1 17:-1 18:1 19:-1 20:-1 
-32 -0 -32 -32 -32 32 1:1 2:-1 3:-1 4:-1 5:-1 6:-1 7:-1 9:1 10:-1 11:-1 12:-1 13:-1 14:-1 17:1 18:-1 19:-1 20:-1 
-32 -10.10186075837733 -32 -32 -32 32 1:1 2:-1 3:-1 4:-1 5:-1 6:-1 7:-1 9:1 10:-1 11:-1 12:-1 13:-1 14:-1 17:1 18:-1 19:-1 20:-1 
-32 -32 -32 -32 -32 32 1:1 2:-1 3:-1 4:-1 5:-1 6:-1 7:-1 9:1 10:-1 11:-1 12:-1 13:-1 14:-1 17:1 18:-1 19:-1 20:-1 
-0 -0 -0 -0 -4.520811714671659 0 1:-1 2:1 3:-1 4:-1 5:-1 6:-1 7:-1 9:-1 10:1 11:-1 12:-1 13:-1 14:-1 17:-1 18:-1 19:-1 20:1 
-0.7876634918773828 -3.387387577307326 -0 -0 -30.7470084741914 0 1:-1 2:1 3:-1 4:-1 5:-1 6:-1 7:-1 9:-1 10:1 11:-1 12:-1 13:-1 14:-1 17:-1 18:-1 19:-1 20:1 
-1.578309486162576 -0.3208925238350466 -3.976888886715952 -0.6694085110514917 -0.7177062836089571 0 1:1 2:-1 3:-1 4:-1 5:-1 6:-1 7:-1 9:-1 10:1 11:-1 12:-1 13:-1 14:-1 17:-1 18:-1 19:-1 20:1 
-4.098075263405986 -0 -2.691857459578537 -2.901345424558676 -3.266991629228622 3.568177262664638 1:1 2:-1 3:-1 4:-1 5:-1 6:-1 7:-1 9:1 10:-1 11:-1 12:-1 13:-1 14:-1 17:-1 18:-1 19:-1 20:1 
-32 -6.980327055749417 -32 -5.078579494079729 -32 1.64267393844533 1:1 2:-1 3:-1 4:-1 5:-1 6:-1 7:-1 9:-1 10:1 11:-1 12:-1 13:-1 14:-1 17:-1 18:1 19:-1 20:-1 
-0.7877286035571531 -0 -5.738249035254588 -0 -3.264024228619222 0 1:-1 2:-1 3:-1 4:1 5:-1 6:-1 7:-1 9:-1 10:1 11:-1 12:-1 13:-1 14:-1 17:-1 18:1 19:-1 20:-1 
-32 -32 -13.33966040837876 -4.356177747624869 -32 4.131645668277176 1:-1 2:1 3:-1 4:-1 5:-1 6:-1 7:-1 9:-1 10:1 11:-1 12:-1 13:-1 14:-1 17:1 18:-1 19:-1 20:-1 
-4.097523088772371 -0 -1.564434873546155 -3.19430748166222 -3.26281917668276 5.807285017869181 1:-1 2:-1 3:-1 4:1 5:-1 6:-1 7:-1 9:1 10:-1 11:-1 12:-1 13:-1 14:-1 17:1 18:-1 19:-1 20:-1 
-32 -32 -32 -32 -32 32 1:1 2:-1 3:-1 4:-1 5:-1 6:-1 7:-1 9:1 10:-1 11:-1 12:-1 13:-1 14:-1 17:1 18:-1 19:-1 20:-1 
-32 -32 -32 -32 -32 32 1:1 2:-1 3:-1 4:-1 5:-1 6:-1 7:-1 9:1 10:-1 11:-1 12:-1 13:-1 14:-1 17:1 18:-1 19:-1 20:-1 
-1.578687890308853 -8.717735533263854 -0 -1.867910988889623 -0.7252541944333305 0 1:-1 2:-1 3:-1 4:1 5:-1 6:-1 7:-1 9:-1 10:1 11:-1 12:-1 13:-1 14:-1 17:1 18:-1 19:-1 20:-1 
-32 -32 -32 -32 -32 32 1:1 2:-1 3:-1 4:-1 5:-1 6:-1 7:-1 9:1 10:-1 11:-1 12:-1 13:-1 14:-1 17:1 18:-1 19:-1 20:-1 
-3.350039284334004 -32 -6.889200320942384 -6.497088900306998 -6.717141718575058 -4.910567433175484 1:-1 2:-1 3:-1 4:-1 5:-1 6:1 7:-1 9:-1 10:1 11:-1 12:-1 13:-1 14:-1 17:1 18:-1 19:-1 20:-1 
-32 -0 -0 -0 -0 -0 1:1 2:-1 3:-1 4:-1 5:-1 6:-1 7:-1 9:1 10:-1 11:-1 12:-1 13:-1 14:-1 17:1 18:-1 19:-1 20:-1 
-32 -0 -0 -0 -0 -0 1:1 2:-1 3:-1 4:-1 5:-1 6:-1 7:-1 9:1 10:-1 11:-1 12:-1 13:-1 14:-1 17:1 18:-1 19:-1 20:-1 
-32 -0 -0 -0 -0 -0 1:1 2:-1 3:-1 4:-1 5:-1 6:-1 7:-1 9:1 10:-1 11:-1 12:-1 13:-1 14:-1 17:1 18:-1 19:-1 20:-1 
-0 -32 -0 -0 -0 -0 1:-1 2:-1 3:-1 4:-1 5:-1 6:1 7:-1 9:1 10:-1 11:-1 12:-1 13:-1 14:-1 17:1 18:-1 19:-1 20:-1 
-0 -32 -0 -0 -0 -0 1:-1 2:-1 3:-1 4:-1 5:-1 6:1 7:-1 9:1 10:-1 11:-1 12:-1 13:-1 14:-1 17:1 18:-1 19:-1 20:-1 
-32 -0 -0 -9.032089354620471 -0 -0 1:1 2:-1 3:-1 4:-1 5:-1 6:-1 7:-1 9:1 10:-1 11:-1 12:-1 13:-1 14:-1 17:1 18:-1 19:-1 20:-1 
-0 -32 -0 -0 -0 -0 1:-1 2:-1 3:-1 4:-1 5:-1 6:1 7:-1 9:1 10:-1 11:-1 12:-1 13:-1 14:-1 17:1 18:-1 19:-1 20:-1 
-32 -0 -10.23199583449616 -32 -12.38106693718004 -0 1:1 2:-1 3:-1 4:-1 5:-1 6:-1 7:-1 9:1 10:-1 11:-1 12:-1 13:-1 14:-1 17:1 18:-1 19:-1 20:-1 
-32 -0 -32 -32 -32 -0 1:1 2:-1 3:-1 4:-1 5:-1 6:-1 7:-1 9:1 10:-1 11:-1 12:-1 13:-1 14:-1 17:1 18:-1 19:-1 20:-1 
-4.570390554001197 -4.73812443412853 -1.834469634173925 -1.576683611133305 -1.780056019868004 -3.230949056535632 1:-1 2:-1 3:-1 4:-1 5:-1 6:-1 7:1 9:1 10:-1 11:-1 12:-1 13:-1 14:-1 17:1 18:-1 19:-1 20:-1 
-32 -0 -32 -32 -32 -7.045413406098987 1:1 2:-1 3:-1 4:-1 5:-1 6:-1 7:-1 9:1 10:-1 11:-1 12:-1 13:-1 14:-1 17:1 18:-1 19:-1 20:-1 
-32 -0 -32 -32 -32 -32 1:1 2:-1 3:-1 4:-1 5:-1 6:-1 7:-1 9:1 10:-1 11:-1 12:-1 13:-1 14:-1 17:1 18:-1 19:-1 20:-1 
-32 -12.58521603997928 -32 -32 -32 -32 1:1 2:-1 3:-1 4:-1 5:-1 6:-1 7:-1 9:1 10:-1 11:-1 12:-1 13:-1 14:-1 17:1 18:-1 19:-1 20:-1 
-32 -32 -32 -32 -32 -32 1:1 2:-1 3:-1 4:-1 5:-1 6:-1 7:-1 9:1 10:-1 11:-1 12:-1 13:-1 14:-1 17:1 18:-1 19:-1 20:-1 
-1.963272939424972 -32 -0 -0 -0 -0 1:-1 2:-1 3:-1 4:-1 5:-1 6:1 7:-1 9:1 10:-1 11:-1 12:-1 13:-1 14:-1 17:1 18:-1 19:-1 20:-1 
-32 -32 -32 -32 -32 -32 1:1 2:-1 3:-1 4:-1 5:-1 6:-1 7:-1 9:1 10:-1 11:-1 12:-1 13:-1 14:-1 17:1 18:-1 19:-1 20:-1 
-32 -32 -32 -32 -32 -32 1:1 2:-1 3:-1 4:-1 5:-1 6:-1 7:-1 9:1 10:-1 11:-1 12:-1 13:-1 14:-1 17:1 18:-1 19:-1 20:-1 
-32 -32 -31.99526468438677 -32 -32 -31.96285199144623 1:1 2:-1 3:-1 4:-1 5:-1 6:-1 7:-1 9:1 10:-1 11:-1 12:-1 13:-1 14:-1 17:1 18:-1 19:-1 20:-1 
