svm_type c_svc
kernel_type rbf
gamma 0.03125
nr_class 7
total_sv 324
rho -0.603737 0.289176 -0.405442 0.646539 -0.151687 -0.0984835 0.593807 0.471806 0.519228 0.472898 0.482022 -0.894353 0.436353 -0.335013 -0.371104 0.89183 0.224084 0.06335 -0.478016 -0.615535 -0.0823175
label 0 5 2 4 1 3 6
nr_sv 105 17 50 67 52 13 20
SV
0 32 2.488075534477307 32 3.131912165225355 0 1:-1 2:1 3:-1 4:-1 5:-1 6:-1 7:-1 9:-1 10:1 11:-1 12:-1 13:-1 14:-1 15:-1 17:1 18:-1 19:-1 20:-1 
0 0 32 0 0 0 1:1 2:-1 3:-1 4:-1 5:-1 6:-1 7:-1 9:-1 10:-1 11:-1 12:-1 13:1 14:-1 15:-1 17:1 18:-1 19:-1 20:-1 
0 0 0 13.83843757801426 0 0 1:1 2:-1 3:-1 4:-1 5:-1 6:-1 7:-1 9:-1 10:1 11:-1 12:-1 13:-1 14:-1 15:-1 17:1 18:-1 19:-1 20:-1 
0 0 0 32 0 0 1:1 2:-1 3:-1 4:-1 5:-1 6:-1 7:-1 9:-1 10:1 11:-1 12:-1 13:-1 14:-1 15:-1 17:1 18:-1 19:-1 20:-1 
0 0 0 32 0 0 1:1 2:-1 3:-1 4:-1 5:-1 6:-1 7:-1 9:-1 10:1 11:-1 12:-1 13:-1 14:-1 15:-1 17:1 18:-1 19:-1 20:-1 
0 0 32 0 0 0 1:1 2:-1 3:-1 4:-1 5:-1 6:-1 7:-1 9:-1 10:-1 11:-1 12:-1 13:1 14:-1 15:-1 17:1 18:-1 19:-1 20:-1 
0 0 0 32 0 0 1:1 2:-1 3:-1 4:-1 5:-1 6:-1 7:-1 9:-1 10:1 11:-1 12:-1 13:-1 14:-1 15:-1 17:1 18:-1 19:-1 20:-1 
0 22.06657201574307 0 0 0 0 1:1 2:-1 3:-1 4:-1 5:-1 6:-1 7:-1 9:-1 10:-1 11:1 12:-1 13:-1 14:-1 15:-1 17:1 18:-1 19:-1 20:-1 
0 0 32 0 0 0 1:1 2:-1 3:-1 4:-1 5:-1 6:-1 7:-1 9:-1 10:-1 11:-1 12:-1 13:1 14:-1 15:-1 17:1 18:-1 19:-1 20:-1 
0 0 0 32 0 0 1:-1 2:1 3:-1 4:-1 5:-1 6:-1 7:-1 9:1 10:-1 11:-1 12:-1 13:-1 14:-1 15:-1 17:-1 18:1 19:-1 20:-1 
0.4682154623523314 2.77832923887342 1.969159343187681 32 0 1.031187226993145 1:1 2:-1 3:-1 4:-1 5:-1 6:-1 7:-1 9:-1 10:1 11:-1 12:-1 13:-1 14:-1 15:-1 17:1 18:-1 19:-1 20:-1 
0 32 0 0 0 0 1:1 2:-1 3:-1 4:-1 5:-1 6:-1 7:-1 9:-1 10:-1 11:1 12:-1 13:-1 14:-1 15:-1 17:1 18:-1 19:-1 20:-1 
0 0 32 0 0 0 1:-1 2:-1 3:-1 4:-1 5:1 6:-1 7:-1 9:1 10:-1 11:-1 12:-1 13:-1 14:-1 15:-1 17:1 18:-1 19:-1 20:-1 
0 0 32 0 0 0 1:-1 2:-1 3:-1 4:-1 5:1 6:-1 7:-1 9:-1 10:-1 11:-1 12:-1 13:1 14:-1 15:-1 17:1 18:-1 19:-1 20:-1 
0 32 0 0 0 0 1:1 2:-1 3:-1 4:-1 5:-1 6:-1 7:-1 9:-1 10:-1 11:1 12:-1 13:-1 14:-1 15:-1 17:1 18:-1 19:-1 20:-1 
1.781032763445968 32 29.92349209997274 32 32 2.226492520074303 1:-1 2:1 3:-1 4:-1 5:-1 6:-1 7:-1 9:-1 10:1 11:-1 12:-1 13:-1 14:-1 15:-1 17:1 18:-1 19:-1 20:-1 
0 0 32 0 0 0 1:1 2:-1 3:-1 4:-1 5:-1 6:-1 7:-1 9:-1 10:-1 11:-1 12:-1 13:1 14:-1 15:-1 17:1 18:-1 19:-1 20:-1 
0 19.20151922324079 0 0 0 0 1:-1 2:-1 3:1 4:-1 5:-1 6:-1 7:-1 9:1 10:-1 11:-1 12:-1 13:-1 14:-1 15:-1 17:1 18:-1 19:-1 20:-1 
0 0 32 0 0 0 1:1 2:-1 3:-1 4:-1 5:-1 6:-1 7:-1 9:-1 10:-1 11:-1 12:-1 13:1 14:-1 15:-1 17:1 18:-1 19:-1 20:-1 
0 32 0 0 0 0 1:-1 2:-1 3:1 4:-1 5:-1 6:-1 7:-1 9:1 10:-1 11:-1 12:-1 13:-1 14:-1 15:-1 17:1 18:-1 19:-1 20:-1 
1.854559654857164 32 2.631871547457036 12.48061924386026 1.958178813876147 13.15183348800266 1:-1 2:-1 3:1 4:-1 5:-1 6:-1 7:-1 9:1 10:-1 11:-1 12:-1 13:-1 14:-1 15:-1 17:1 18:-1 19:-1 20:-1 
0 0 32 0 0 0 1:1 2:-1 3:-1 4:-1 5:-1 6:-1 7:-1 9:-1 10:-1 11:-1 12:-1 13:1 14:-1 15:-1 17:1 18:-1 19:-1 20:-1 
0 0 0 11.13332693709236 0 0 1:1 2:-1 3:-1 4:-1 5:-1 6:-1 7:-1 9:1 10:-1 11:-1 12:-1 13:-1 14:-1 15:-1 17:-1 18:1 19:-1 20:-1 
0 0 0 32 0 0 1:1 2:-1 3:-1 4:-1 5:-1 6:-1 7:-1 9:1 10:-1 11:-1 12:-1 13:-1 14:-1 15:-1 17:-1 18:1 19:-1 20:-1 
0 0 0 32 0 0 1:1 2:-1 3:-1 4:-1 5:-1 6:-1 7:-1 9:1 10:-1 11:-1 12:-1 13:-1 14:-1 15:-1 17:-1 18:1 19:-1 20:-1 
0 0 0 32 0 0 1:1 2:-1 3:-1 4:-1 5:-1 6:-1 7:-1 9:1 10:-1 11:-1 12:-1 13:-1 14:-1 15:-1 17:-1 18:1 19:-1 20:-1 
0 0 0 32 0 0 1:1 2:-1 3:-1 4:-1 5:-1 6:-1 7:-1 9:1 10:-1 11:-1 12:-1 13:-1 14:-1 15:-1 17:-1 18:1 19:-1 20:-1 
0 32 0 10.10705754134431 0 0 1:1 2:-1 3:-1 4:-1 5:-1 6:-1 7:-1 9:-1 10:-1 11:1 12:-1 13:-1 14:-1 15:-1 17:1 18:-1 19:-1 20:-1 
0 0 0 32 0 0 1:-1 2:1 3:-1 4:-1 5:-1 6:-1 7:-1 9:1 10:-1 11:-1 12:-1 13:-1 14:-1 15:-1 17:-1 18:1 19:-1 20:-1 
0.2867276000465983 4.720271831504055 1.08596434822447 32 1.603281351468675 1.55181106185386 1:-1 2:1 3:-1 4:-1 5:-1 6:-1 7:-1 9:1 10:-1 11:-1 12:-1 13:-1 14:-1 15:-1 17:-1 18:1 19:-1 20:-1 
0 0 32 0 0 0 1:-1 2:-1 3:-1 4:-1 5:1 6:-1 7:-1 9:1 10:-1 11:-1 12:-1 13:-1 14:-1 15:-1 17:1 18:-1 19:-1 20:-1 
0 0 0 32 0 0 1:1 2:-1 3:-1 4:-1 5:-1 6:-1 7:-1 9:1 10:-1 11:-1 12:-1 13:-1 14:-1 15:-1 17:-1 18:1 19:-1 20:-1 
0 0 0 32 0 0 1:1 2:-1 3:-1 4:-1 5:-1 6:-1 7:-1 9:1 10:-1 11:-1 12:-1 13:-1 14:-1 15:-1 17:-1 18:1 19:-1 20:-1 
0 0 0 32 0 0 1:1 2:-1 3:-1 4:-1 5:-1 6:-1 7:-1 9:1 10:-1 11:-1 12:-1 13:-1 14:-1 15:-1 17:-1 18:1 19:-1 20:-1 
0 32 0 32 0 0 1:1 2:-1 3:-1 4:-1 5:-1 6:-1 7:-1 9:-1 10:-1 11:1 12:-1 13:-1 14:-1 15:-1 17:1 18:-1 19:-1 20:-1 
0 0 32 0 0 0 1:1 2:-1 3:-1 4:-1 5:-1 6:-1 7:-1 9:-1 10:-1 11:-1 12:-1 13:1 14:-1 15:-1 17:1 18:-1 19:-1 20:-1 
0 0 0 32 0 0 1:1 2:-1 3:-1 4:-1 5:-1 6:-1 7:-1 9:1 10:-1 11:-1 12:-1 13:-1 14:-1 15:-1 17:-1 18:1 19:-1 20:-1 
0 32 0 32 0 0 1:1 2:-1 3:-1 4:-1 5:-1 6:-1 7:-1 9:-1 10:-1 11:1 12:-1 13:-1 14:-1 15:-1 17:1 18:-1 19:-1 20:-1 
0 0 0 32 0 0 1:1 2:-1 3:-1 4:-1 5:-1 6:-1 7:-1 9:1 10:-1 11:-1 12:-1 13:-1 14:-1 15:-1 17:-1 18:1 19:-1 20:-1 
0 17.2323526892366 0 0 0 0 1:1 2:-1 3:-1 4:-1 5:-1 6:-1 7:-1 9:1 10:-1 11:-1 12:-1 13:-1 14:-1 15:-1 17:-1 18:-1 19:1 20:-1 
0 32 0 0 0 0 1:1 2:-1 3:-1 4:-1 5:-1 6:-1 7:-1 9:1 10:-1 11:-1 12:-1 13:-1 14:-1 15:-1 17:-1 18:-1 19:1 20:-1 
0 32 0 32 0 0 1:1 2:-1 3:-1 4:-1 5:-1 6:-1 7:-1 9:-1 10:-1 11:1 12:-1 13:-1 14:-1 15:-1 17:1 18:-1 19:-1 20:-1 
0.6396841372129354 0 32 0 0.1690282785320191 0 1:1 2:-1 3:-1 4:-1 5:-1 6:-1 7:-1 9:-1 10:-1 11:-1 12:-1 13:1 14:-1 15:-1 17:1 18:-1 19:-1 20:-1 
0 32 0 9.314921884788291 0 0 1:1 2:-1 3:-1 4:-1 5:-1 6:-1 7:-1 9:1 10:-1 11:-1 12:-1 13:-1 14:-1 15:-1 17:-1 18:-1 19:1 20:-1 
0 32 0 32 0 0 1:1 2:-1 3:-1 4:-1 5:-1 6:-1 7:-1 9:1 10:-1 11:-1 12:-1 13:-1 14:-1 15:-1 17:-1 18:-1 19:1 20:-1 
0 0 0 32 0 0 1:1 2:-1 3:-1 4:-1 5:-1 6:-1 7:-1 9:1 10:-1 11:-1 12:-1 13:-1 14:-1 15:-1 17:-1 18:1 19:-1 20:-1 
0 0 0 32 0 0 1:1 2:-1 3:-1 4:-1 5:-1 6:-1 7:-1 9:1 10:-1 11:-1 12:-1 13:-1 14:-1 15:-1 17:-1 18:1 19:-1 20:-1 
0 0 32 0 0 0 1:-1 2:-1 3:-1 4:-1 5:1 6:-1 7:-1 9:1 10:-1 11:-1 12:-1 13:-1 14:-1 15:-1 17:1 18:-1 19:-1 20:-1 
1.253775716979148 32 2.28789566364441 32 0.4676811304620271 2.086020572226598 1:1 2:-1 3:-1 4:-1 5:-1 6:-1 7:-1 9:-1 10:-1 11:1 12:-1 13:-1 14:-1 15:-1 17:1 18:-1 19:-1 20:-1 
0 5.045256744042776 0 32 0 0 1:1 2:-1 3:-1 4:-1 5:-1 6:-1 7:-1 9:1 10:-1 11:-1 12:-1 13:-1 14:-1 15:-1 17:-1 18:1 19:-1 20:-1 
0 32 0 32 0 0 1:1 2:-1 3:-1 4:-1 5:-1 6:-1 7:-1 9:1 10:-1 11:-1 12:-1 13:-1 14:-1 15:-1 17:-1 18:1 19:-1 20:-1 
0 0 32 0 0 0 1:-1 2:-1 3:-1 4:-1 5:1 6:-1 7:-1 9:1 10:-1 11:-1 12:-1 13:-1 14:-1 15:-1 17:1 18:-1 19:-1 20:-1 
0.7612400533121276 0 32 1.245886492154809 1.65880814897233 2.508703615154066 1:-1 2:-1 3:-1 4:-1 5:1 6:-1 7:-1 9:1 10:-1 11:-1 12:-1 13:-1 14:-1 15:-1 17:1 18:-1 19:-1 20:-1 
0 32 0 32 1.115329095391052 0 1:1 2:-1 3:-1 4:-1 5:-1 6:-1 7:-1 9:1 10:-1 11:-1 12:-1 13:-1 14:-1 15:-1 17:-1 18:1 19:-1 20:-1 
0 0 8.24322265159222 0 0 0 1:1 2:-1 3:-1 4:-1 5:-1 6:-1 7:-1 9:1 10:-1 11:-1 12:-1 13:-1 14:-1 15:-1 17:1 18:-1 19:-1 20:-1 
0 0 32 0 0 0 1:1 2:-1 3:-1 4:-1 5:-1 6:-1 7:-1 9:1 10:-1 11:-1 12:-1 13:-1 14:-1 15:-1 17:1 18:-1 19:-1 20:-1 
0 0 32 0 0 0 1:1 2:-1 3:-1 4:-1 5:-1 6:-1 7:-1 9:1 10:-1 11:-1 12:-1 13:-1 14:-1 15:-1 17:1 18:-1 19:-1 20:-1 
0 0 32 0 0 0 1:1 2:-1 3:-1 4:-1 5:-1 6:-1 7:-1 9:1 10:-1 11:-1 12:-1 13:-1 14:-1 15:-1 17:1 18:-1 19:-1 20:-1 
0 0 32 0 0 0 1:1 2:-1 3:-1 4:-1 5:-1 6:-1 7:-1 9:1 10:-1 11:-1 12:-1 13:-1 14:-1 15:-1 17:1 18:-1 19:-1 20:-1 
0 0 32 0 0 0 1:1 2:-1 3:-1 4:-1 5:-1 6:-1 7:-1 9:1 10:-1 11:-1 12:-1 13:-1 14:-1 15:-1 17:1 18:-1 19:-1 20:-1 
0 0 32 0 0 0 1:1 2:-1 3:-1 4:-1 5:-1 6:-1 7:-1 9:1 10:-1 11:-1 12:-1 13:-1 14:-1 15:-1 17:1 18:-1 19:-1 20:-1 
0 0 32 0 0 0 1:1 2:-1 3:-1 4:-1 5:-1 6:-1 7:-1 9:1 10:-1 11:-1 12:-1 13:-1 14:-1 15:-1 17:1 18:-1 19:-1 20:-1 
0 0 32 0 0 0 1:1 2:-1 3:-1 4:-1 5:-1 6:-1 7:-1 9:1 10:-1 11:-1 12:-1 13:-1 14:-1 15:-1 17:1 18:-1 19:-1 20:-1 
0 0 32 0 0 0 1:1 2:-1 3:-1 4:-1 5:-1 6:-1 7:-1 9:1 10:-1 11:-1 12:-1 13:-1 14:-1 15:-1 17:1 18:-1 19:-1 20:-1 
0 0 32 0 0 0 1:1 2:-1 3:-1 4:-1 5:-1 6:-1 7:-1 9:1 10:-1 11:-1 12:-1 13:-1 14:-1 15:-1 17:1 18:-1 19:-1 20:-1 
0 0 32 0 0 0 1:1 2:-1 3:-1 4:-1 5:-1 6:-1 7:-1 9:1 10:-1 11:-1 12:-1 13:-1 14:-1 15:-1 17:1 18:-1 19:-1 20:-1 
0 0 32 0 0 0 1:1 2:-1 3:-1 4:-1 5:-1 6:-1 7:-1 9:1 10:-1 11:-1 12:-1 13:-1 14:-1 15:-1 17:1 18:-1 19:-1 20:-1 
0 0 32 0 0 0 1:1 2:-1 3:-1 4:-1 5:-1 6:-1 7:-1 9:1 10:-1 11:-1 12:-1 13:-1 14:-1 15:-1 17:1 18:-1 19:-1 20:-1 
0 0 32 0 0 0 1:1 2:-1 3:-1 4:-1 5:-1 6:-1 7:-1 9:1 10:-1 11:-1 12:-1 13:-1 14:-1 15:-1 17:1 18:-1 19:-1 20:-1 
0 0 32 0 0 0 1:1 2:-1 3:-1 4:-1 5:-1 6:-1 7:-1 9:1 10:-1 11:-1 12:-1 13:-1 14:-1 15:-1 17:1 18:-1 19:-1 20:-1 
0 0 32 0 0 0 1:1 2:-1 3:-1 4:-1 5:-1 6:-1 7:-1 9:1 10:-1 11:-1 12:-1 13:-1 14:-1 15:-1 17:1 18:-1 19:-1 20:-1 
0 0 32 0 0 0 1:1 2:-1 3:-1 4:-1 5:-1 6:-1 7:-1 9:1 10:-1 11:-1 12:-1 13:-1 14:-1 15:-1 17:1 18:-1 19:-1 20:-1 
0 0 32 0 0 0 1:1 2:-1 3:-1 4:-1 5:-1 6:-1 7:-1 9:1 10:-1 11:-1 12:-1 13:-1 14:-1 15:-1 17:1 18:-1 19:-1 20:-1 
0 0 32 0 0 0 1:1 2:-1 3:-1 4:-1 5:-1 6:-1 7:-1 9:1 10:-1 11:-1 12:-1 13:-1 14:-1 15:-1 17:1 18:-1 19:-1 20:-1 
0 0 32 0 0 0 1:1 2:-1 3:-1 4:-1 5:-1 6:-1 7:-1 9:1 10:-1 11:-1 12:-1 13:-1 14:-1 15:-1 17:1 18:-1 19:-1 20:-1 
0 0 32 0 0 0 1:1 2:-1 3:-1 4:-1 5:-1 6:-1 7:-1 9:1 10:-1 11:-1 12:-1 13:-1 14:-1 15:-1 17:1 18:-1 19:-1 20:-1 
0 0 32 0 0 0 1:1 2:-1 3:-1 4:-1 5:-1 6:-1 7:-1 9:1 10:-1 11:-1 12:-1 13:-1 14:-1 15:-1 17:1 18:-1 19:-1 20:-1 
0 0 32 0 0 0 1:1 2:-1 3:-1 4:-1 5:-1 6:-1 7:-1 9:1 10:-1 11:-1 12:-1 13:-1 14:-1 15:-1 17:1 18:-1 19:-1 20:-1 
0 0 32 0 0 0 1:1 2:-1 3:-1 4:-1 5:-1 6:-1 7:-1 9:1 10:-1 11:-1 12:-1 13:-1 14:-1 15:-1 17:1 18:-1 19:-1 20:-1 
0 25.47954061682099 32 0 0 0 1:1 2:-1 3:-1 4:-1 5:-1 6:-1 7:-1 9:1 10:-1 11:-1 12:-1 13:-1 14:-1 15:-1 17:1 18:-1 19:-1 20:-1 
0 32 32 0 0 0 1:1 2:-1 3:-1 4:-1 5:-1 6:-1 7:-1 9:1 10:-1 11:-1 12:-1 13:-1 14:-1 15:-1 17:1 18:-1 19:-1 20:-1 
0 32 32 0 0 0 1:1 2:-1 3:-1 4:-1 5:-1 6:-1 7:-1 9:1 10:-1 11:-1 12:-1 13:-1 14:-1 15:-1 17:1 18:-1 19:-1 20:-1 
0 32 32 0 0 0 1:1 2:-1 3:-1 4:-1 5:-1 6:-1 7:-1 9:1 10:-1 11:-1 12:-1 13:-1 14:-1 15:-1 17:1 18:-1 19:-1 20:-1 
0 32 32 0 0 0 1:1 2:-1 3:-1 4:-1 5:-1 6:-1 7:-1 9:1 10:-1 11:-1 12:-1 13:-1 14:-1 15:-1 17:1 18:-1 19:-1 20:-1 
0 32 32 0 0 0 1:1 2:-1 3:-1 4:-1 5:-1 6:-1 7:-1 9:1 10:-1 11:-1 12:-1 13:-1 14:-1 15:-1 17:1 18:-1 19:-1 20:-1 
0 32 32 0 0 0 1:1 2:-1 3:-1 4:-1 5:-1 6:-1 7:-1 9:1 10:-1 11:-1 12:-1 13:-1 14:-1 15:-1 17:1 18:-1 19:-1 20:-1 
0 32 32 0 0 0 1:1 2:-1 3:-1 4:-1 5:-1 6:-1 7:-1 9:1 10:-1 11:-1 12:-1 13:-1 14:-1 15:-1 17:1 18:-1 19:-1 20:-1 
0 32 32 0 0 0 1:1 2:-1 3:-1 4:-1 5:-1 6:-1 7:-1 9:1 10:-1 11:-1 12:-1 13:-1 14:-1 15:-1 17:1 18:-1 19:-1 20:-1 
0.1248329847374071 32 0.977905443805881 32 2.366142462496965 10.04400787015211 1:1 2:-1 3:-1 4:-1 5:-1 6:-1 7:-1 9:1 10:-1 11:-1 12:-1 13:-1 14:-1 15:-1 17:-1 18:-1 19:1 20:-1 
0 32 32 0 0 0 1:1 2:-1 3:-1 4:-1 5:-1 6:-1 7:-1 9:1 10:-1 11:-1 12:-1 13:-1 14:-1 15:-1 17:1 18:-1 19:-1 20:-1 
0 32 32 0 0 0 1:1 2:-1 3:-1 4:-1 5:-1 6:-1 7:-1 9:1 10:-1 11:-1 12:-1 13:-1 14:-1 15:-1 17:1 18:-1 19:-1 20:-1 
0 32 32 0 0 0 1:1 2:-1 3:-1 4:-1 5:-1 6:-1 7:-1 9:1 10:-1 11:-1 12:-1 13:-1 14:-1 15:-1 17:1 18:-1 19:-1 20:-1 
1.400722331615104 1.241273250820816 32 1.743622621360094 0.3824072904268314 0.7395638431298283 1:-1 2:-1 3:-1 4:-1 5:1 6:-1 7:-1 9:-1 10:-1 11:-1 12:-1 13:1 14:-1 15:-1 17:1 18:-1 19:-1 20:-1 
0 32 32 0 0 0 1:1 2:-1 3:-1 4:-1 5:-1 6:-1 7:-1 9:1 10:-1 11:-1 12:-1 13:-1 14:-1 15:-1 17:1 18:-1 19:-1 20:-1 
0 32 32 0 0 0 1:1 2:-1 3:-1 4:-1 5:-1 6:-1 7:-1 9:1 10:-1 11:-1 12:-1 13:-1 14:-1 15:-1 17:1 18:-1 19:-1 20:-1 
0 32 32 0 0 0 1:1 2:-1 3:-1 4:-1 5:-1 6:-1 7:-1 9:1 10:-1 11:-1 12:-1 13:-1 14:-1 15:-1 17:1 18:-1 19:-1 20:-1 
0 32 32 0 0 4.52081171467166 1:1 2:-1 3:-1 4:-1 5:-1 6:-1 7:-1 9:1 10:-1 11:-1 12:-1 13:-1 14:-1 15:-1 17:1 18:-1 19:-1 20:-1 
0 32 32 4.52081171467166 0 32 1:1 2:-1 3:-1 4:-1 5:-1 6:-1 7:-1 9:1 10:-1 11:-1 12:-1 13:-1 14:-1 15:-1 17:1 18:-1 19:-1 20:-1 
0 32 32 32 4.52081171467166 32 1:1 2:-1 3:-1 4:-1 5:-1 6:-1 7:-1 9:1 10:-1 11:-1 12:-1 13:-1 14:-1 15:-1 17:1 18:-1 19:-1 20:-1 
4.52081171467166 32 32 32 32 32 1:1 2:-1 3:-1 4:-1 5:-1 6:-1 7:-1 9:1 10:-1 11:-1 12:-1 13:-1 14:-1 15:-1 17:1 18:-1 19:-1 20:-1 
32 32 32 32 32 32 1:1 2:-1 3:-1 4:-1 5:-1 6:-1 7:-1 9:1 10:-1 11:-1 12:-1 13:-1 14:-1 15:-1 17:1 18:-1 19:-1 20:-1 
32 32 32 32 32 32 1:1 2:-1 3:-1 4:-1 5:-1 6:-1 7:-1 9:1 10:-1 11:-1 12:-1 13:-1 14:-1 15:-1 17:1 18:-1 19:-1 20:-1 
32 32 32 32 32 32 1:1 2:-1 3:-1 4:-1 5:-1 6:-1 7:-1 9:1 10:-1 11:-1 12:-1 13:-1 14:-1 15:-1 17:1 18:-1 19:-1 20:-1 
32 32 32 32 32 32 1:1 2:-1 3:-1 4:-1 5:-1 6:-1 7:-1 9:1 10:-1 11:-1 12:-1 13:-1 14:-1 15:-1 17:1 18:-1 19:-1 20:-1 
27.39689241327918 11.31536764104398 32 10.97878917471911 29.91829031759426 20.31581641589813 1:1 2:-1 3:-1 4:-1 5:-1 6:-1 7:-1 9:1 10:-1 11:-1 12:-1 13:-1 14:-1 15:-1 17:1 18:-1 19:-1 20:-1 
-32 32 32 32 32 32 1:1 2:-1 3:-1 4:-1 5:-1 6:-1 7:-1 9:1 10:-1 11:-1 12:-1 13:-1 14:-1 15:-1 17:1 18:-1 19:-1 20:-1 
-32 32 32 32 32 32 1:1 2:-1 3:-1 4:-1 5:-1 6:-1 7:-1 9:1 10:-1 11:-1 12:-1 13:-1 14:-1 15:-1 17:1 18:-1 19:-1 20:-1 
-2.139837967833682 2.161671357492049 2.24713219394379 2.15615872662458 2.717772138692788 32 1:-1 2:-1 3:-1 4:-1 5:-1 6:1 7:-1 9:-1 10:1 11:-1 12:-1 13:-1 14:-1 15:-1 17:1 18:-1 19:-1 20:-1 
-32 32 32 32 32 32 1:1 2:-1 3:-1 4:-1 5:-1 6:-1 7:-1 9:1 10:-1 11:-1 12:-1 13:-1 14:-1 15:-1 17:1 18:-1 19:-1 20:-1 
-1.364288953359265 2.665567831344736 0.3582450301899593 2.848708535048257 0.4548602771843482 2.228820601730927 1:-1 2:-1 3:-1 4:-1 5:-1 6:1 7:-1 9:-1 10:-1 11:1 12:-1 13:-1 14:-1 15:-1 17:1 18:-1 19:-1 20:-1 
-1.980597363633208 0.3860046248608933 2.43945625557334 0.3693728663040007 0.4561859914675717 0.5279809335826698 1:-1 2:-1 3:-1 4:-1 5:-1 6:1 7:-1 9:-1 10:-1 11:-1 12:-1 13:1 14:-1 15:-1 17:1 18:-1 19:-1 20:-1 
-32 32 32 32 32 32 1:1 2:-1 3:-1 4:-1 5:-1 6:-1 7:-1 9:1 10:-1 11:-1 12:-1 13:-1 14:-1 15:-1 17:1 18:-1 19:-1 20:-1 
-32 32 32 32 32 32 1:1 2:-1 3:-1 4:-1 5:-1 6:-1 7:-1 9:1 10:-1 11:-1 12:-1 13:-1 14:-1 15:-1 17:1 18:-1 19:-1 20:-1 
-0 0 0 0 0 3.825042854059871 1:-1 2:-1 3:-1 4:-1 5:-1 6:1 7:-1 9:1 10:-1 11:-1 12:-1 13:-1 14:-1 15:-1 17:1 18:-1 19:-1 20:-1 
-0.3911812921313184 0.3889685083054139 0.358746636361911 0.3694516786496633 0.4558552515855736 0.5252868632181785 1:-1 2:-1 3:-1 4:-1 5:-1 6:1 7:-1 9:-1 10:-1 11:-1 12:-1 13:-1 14:1 15:-1 17:1 18:-1 19:-1 20:-1 
-0 0 0 0 0 32 1:-1 2:-1 3:-1 4:-1 5:-1 6:1 7:-1 9:1 10:-1 11:-1 12:-1 13:-1 14:-1 15:-1 17:1 18:-1 19:-1 20:-1 
-0 0 0 0 0 32 1:-1 2:-1 3:-1 4:-1 5:-1 6:1 7:-1 9:1 10:-1 11:-1 12:-1 13:-1 14:-1 15:-1 17:1 18:-1 19:-1 20:-1 
-0 0 0 0 0 32 1:-1 2:-1 3:-1 4:-1 5:-1 6:1 7:-1 9:1 10:-1 11:-1 12:-1 13:-1 14:-1 15:-1 17:1 18:-1 19:-1 20:-1 
-0 0 0 0 0 32 1:-1 2:-1 3:-1 4:-1 5:-1 6:1 7:-1 9:1 10:-1 11:-1 12:-1 13:-1 14:-1 15:-1 17:1 18:-1 19:-1 20:-1 
-0 0 0 0 0 32 1:-1 2:-1 3:-1 4:-1 5:-1 6:1 7:-1 9:1 10:-1 11:-1 12:-1 13:-1 14:-1 15:-1 17:1 18:-1 19:-1 20:-1 
-0 0 0 0 0 32 1:-1 2:-1 3:-1 4:-1 5:-1 6:1 7:-1 9:1 10:-1 11:-1 12:-1 13:-1 14:-1 15:-1 17:1 18:-1 19:-1 20:-1 
-2.612589255552155 2.469017511097224 2.450650796195911 2.1626026845251 3.501546452554442 31.96515979391381 1:-1 2:-1 3:-1 4:-1 5:-1 6:1 7:-1 9:1 10:-1 11:-1 12:-1 13:-1 14:-1 15:-1 17:1 18:-1 19:-1 20:-1 
-0 -0 0 32 0 0 1:-1 2:1 3:-1 4:-1 5:-1 6:-1 7:-1 9:-1 10:1 11:-1 12:-1 13:-1 14:-1 15:-1 17:-1 18:1 19:-1 20:-1 
-0 -0 0 32 0 0 1:-1 2:1 3:-1 4:-1 5:-1 6:-1 7:-1 9:-1 10:1 11:-1 12:-1 13:-1 14:-1 15:-1 17:-1 18:1 19:-1 20:-1 
-4.233224596020967 -0 0 32 1.474605488759799 0.01909978023791109 1:-1 2:1 3:-1 4:-1 5:-1 6:-1 7:-1 9:-1 10:1 11:-1 12:-1 13:-1 14:-1 15:-1 17:-1 18:1 19:-1 20:-1 
-32 -0 32 0 0 0 1:1 2:-1 3:-1 4:-1 5:-1 6:-1 7:-1 9:1 10:-1 11:-1 12:-1 13:-1 14:-1 15:-1 17:1 18:-1 19:-1 20:-1 
-32 -0 32 0 0 0 1:1 2:-1 3:-1 4:-1 5:-1 6:-1 7:-1 9:1 10:-1 11:-1 12:-1 13:-1 14:-1 15:-1 17:1 18:-1 19:-1 20:-1 
-32 -0 32 0 0 0 1:1 2:-1 3:-1 4:-1 5:-1 6:-1 7:-1 9:1 10:-1 11:-1 12:-1 13:-1 14:-1 15:-1 17:1 18:-1 19:-1 20:-1 
-32 -0 32 0 0 0 1:1 2:-1 3:-1 4:-1 5:-1 6:-1 7:-1 9:1 10:-1 11:-1 12:-1 13:-1 14:-1 15:-1 17:1 18:-1 19:-1 20:-1 
-32 -0 32 0 0 0 1:1 2:-1 3:-1 4:-1 5:-1 6:-1 7:-1 9:1 10:-1 11:-1 12:-1 13:-1 14:-1 15:-1 17:1 18:-1 19:-1 20:-1 
-32 -0 32 0 0 0 1:1 2:-1 3:-1 4:-1 5:-1 6:-1 7:-1 9:1 10:-1 11:-1 12:-1 13:-1 14:-1 15:-1 17:1 18:-1 19:-1 20:-1 
-32 -0 32 0 0 0 1:1 2:-1 3:-1 4:-1 5:-1 6:-1 7:-1 9:1 10:-1 11:-1 12:-1 13:-1 14:-1 15:-1 17:1 18:-1 19:-1 20:-1 
-32 -0 32 0 0 0 1:1 2:-1 3:-1 4:-1 5:-1 6:-1 7:-1 9:1 10:-1 11:-1 12:-1 13:-1 14:-1 15:-1 17:1 18:-1 19:-1 20:-1 
-32 -0 32 0 0 0 1:1 2:-1 3:-1 4:-1 5:-1 6:-1 7:-1 9:1 10:-1 11:-1 12:-1 13:-1 14:-1 15:-1 17:1 18:-1 19:-1 20:-1 
-32 -0 32 0 0 0 1:1 2:-1 3:-1 4:-1 5:-1 6:-1 7:-1 9:1 10:-1 11:-1 12:-1 13:-1 14:-1 15:-1 17:1 18:-1 19:-1 20:-1 
-32 -0 32 0 0 0 1:1 2:-1 3:-1 4:-1 5:-1 6:-1 7:-1 9:1 10:-1 11:-1 12:-1 13:-1 14:-1 15:-1 17:1 18:-1 19:-1 20:-1 
-32 -0 32 0 0 0 1:1 2:-1 3:-1 4:-1 5:-1 6:-1 7:-1 9:1 10:-1 11:-1 12:-1 13:-1 14:-1 15:-1 17:1 18:-1 19:-1 20:-1 
-32 -0 32 0 0 0 1:1 2:-1 3:-1 4:-1 5:-1 6:-1 7:-1 9:1 10:-1 11:-1 12:-1 13:-1 14:-1 15:-1 17:1 18:-1 19:-1 20:-1 
-32 -0 32 0 0 0 1:1 2:-1 3:-1 4:-1 5:-1 6:-1 7:-1 9:1 10:-1 11:-1 12:-1 13:-1 14:-1 15:-1 17:1 18:-1 19:-1 20:-1 
-32 -0 0 0 0 0 1:1 2:-1 3:-1 4:-1 5:-1 6:-1 7:-1 9:-1 10:-1 11:1 12:-1 13:-1 14:-1 15:-1 17:1 18:-1 19:-1 20:-1 
-7.25488098090505 -0 0 17.69285261751592 0 0 1:1 2:-1 3:-1 4:-1 5:-1 6:-1 7:-1 9:-1 10:-1 11:1 12:-1 13:-1 14:-1 15:-1 17:-1 18:1 19:-1 20:-1 
-32 -0 32 0 0 0 1:1 2:-1 3:-1 4:-1 5:-1 6:-1 7:-1 9:1 10:-1 11:-1 12:-1 13:-1 14:-1 15:-1 17:1 18:-1 19:-1 20:-1 
-32 -0 2.097158034976681 32 3.173494585081163 0 1:-1 2:1 3:-1 4:-1 5:-1 6:-1 7:-1 9:-1 10:1 11:-1 12:-1 13:-1 14:-1 15:-1 17:1 18:-1 19:-1 20:-1 
-32 -2.277385104374548 31.49553172043034 32 31.98850324132429 3.429891870771666 1:-1 2:1 3:-1 4:-1 5:-1 6:-1 7:-1 9:-1 10:1 11:-1 12:-1 13:-1 14:-1 15:-1 17:1 18:-1 19:-1 20:-1 
-32 -0 32 0 0 4.52081171467166 1:1 2:-1 3:-1 4:-1 5:-1 6:-1 7:-1 9:1 10:-1 11:-1 12:-1 13:-1 14:-1 15:-1 17:1 18:-1 19:-1 20:-1 
-32 -0 32 15.04156274495595 0 32 1:1 2:-1 3:-1 4:-1 5:-1 6:-1 7:-1 9:1 10:-1 11:-1 12:-1 13:-1 14:-1 15:-1 17:1 18:-1 19:-1 20:-1 
-32 -0 32 32 5.258824780901558 32 1:1 2:-1 3:-1 4:-1 5:-1 6:-1 7:-1 9:1 10:-1 11:-1 12:-1 13:-1 14:-1 15:-1 17:1 18:-1 19:-1 20:-1 
-0 -0.8767863099123647 0 1.789724224108853 3.471261794930735 1.606034543703556 1:-1 2:-1 3:-1 4:1 5:-1 6:-1 7:-1 9:-1 10:-1 11:1 12:-1 13:-1 14:-1 15:-1 17:-1 18:-1 19:1 20:-1 
-32 -1.656120579801514 32 32 32 32 1:1 2:-1 3:-1 4:-1 5:-1 6:-1 7:-1 9:1 10:-1 11:-1 12:-1 13:-1 14:-1 15:-1 17:1 18:-1 19:-1 20:-1 
-32 -32 32 32 32 32 1:1 2:-1 3:-1 4:-1 5:-1 6:-1 7:-1 9:1 10:-1 11:-1 12:-1 13:-1 14:-1 15:-1 17:1 18:-1 19:-1 20:-1 
-32 -32 32 32 32 32 1:1 2:-1 3:-1 4:-1 5:-1 6:-1 7:-1 9:1 10:-1 11:-1 12:-1 13:-1 14:-1 15:-1 17:1 18:-1 19:-1 20:-1 
-32 -0 0 0 0 0 1:1 2:-1 3:-1 4:-1 5:-1 6:-1 7:-1 9:1 10:-1 11:-1 12:-1 13:-1 14:-1 15:-1 17:-1 18:-1 19:1 20:-1 
-32 -0 0 8.416243526698022 0 0 1:1 2:-1 3:-1 4:-1 5:-1 6:-1 7:-1 9:1 10:-1 11:-1 12:-1 13:-1 14:-1 15:-1 17:-1 18:-1 19:1 20:-1 
-32 -0 0 32 0 0 1:1 2:-1 3:-1 4:-1 5:-1 6:-1 7:-1 9:1 10:-1 11:-1 12:-1 13:-1 14:-1 15:-1 17:-1 18:1 19:-1 20:-1 
-32 -0 2.794294816106579 32 1.416676193798023 0.1442007356092507 1:1 2:-1 3:-1 4:-1 5:-1 6:-1 7:-1 9:1 10:-1 11:-1 12:-1 13:-1 14:-1 15:-1 17:-1 18:1 19:-1 20:-1 
-32 -0 0 0 0 0 1:1 2:-1 3:-1 4:-1 5:-1 6:-1 7:-1 9:-1 10:-1 11:1 12:-1 13:-1 14:-1 15:-1 17:1 18:-1 19:-1 20:-1 
-32 -32 32 32 32 32 1:1 2:-1 3:-1 4:-1 5:-1 6:-1 7:-1 9:1 10:-1 11:-1 12:-1 13:-1 14:-1 15:-1 17:1 18:-1 19:-1 20:-1 
-32 -32 32 32 32 32 1:1 2:-1 3:-1 4:-1 5:-1 6:-1 7:-1 9:1 10:-1 11:-1 12:-1 13:-1 14:-1 15:-1 17:1 18:-1 19:-1 20:-1 
-32 -0 0 32 0 0 1:1 2:-1 3:-1 4:-1 5:-1 6:-1 7:-1 9:1 10:-1 11:-1 12:-1 13:-1 14:-1 15:-1 17:-1 18:-1 19:1 20:-1 
-32 -0 5.429150989821181 31.98301741738587 0.2031921615259395 0 1:1 2:-1 3:-1 4:-1 5:-1 6:-1 7:-1 9:1 10:-1 11:-1 12:-1 13:-1 14:-1 15:-1 17:-1 18:-1 19:1 20:-1 
-32 -31.6795760645885 32 32 31.51772403758467 29.92063681561687 1:1 2:-1 3:-1 4:-1 5:-1 6:-1 7:-1 9:1 10:-1 11:-1 12:-1 13:-1 14:-1 15:-1 17:1 18:-1 19:-1 20:-1 
-32 -0 0 0 0 0 1:-1 2:-1 3:1 4:-1 5:-1 6:-1 7:-1 9:1 10:-1 11:-1 12:-1 13:-1 14:-1 15:-1 17:1 18:-1 19:-1 20:-1 
-32 -1.335753825228942 5.169935828656823 1.543497047695748 2.758926430937656 3.067350381880027 1:-1 2:-1 3:1 4:-1 5:-1 6:-1 7:-1 9:1 10:-1 11:-1 12:-1 13:-1 14:-1 15:-1 17:1 18:-1 19:-1 20:-1 
-12.78085295832508 -0 0 0.4147035198759004 0 31.32736952744446 1:-1 2:-1 3:1 4:-1 5:-1 6:-1 7:-1 9:1 10:-1 11:-1 12:-1 13:-1 14:-1 15:-1 17:-1 18:-1 19:1 20:-1 
-32 -0 0 2.741671313092966 0 0 1:1 2:-1 3:-1 4:-1 5:-1 6:-1 7:-1 9:-1 10:-1 11:1 12:-1 13:-1 14:-1 15:-1 17:1 18:-1 19:-1 20:-1 
-32 -0 0 32 0 0 1:1 2:-1 3:-1 4:-1 5:-1 6:-1 7:-1 9:-1 10:-1 11:1 12:-1 13:-1 14:-1 15:-1 17:1 18:-1 19:-1 20:-1 
-32 -0 0 32 0 0 1:1 2:-1 3:-1 4:-1 5:-1 6:-1 7:-1 9:-1 10:-1 11:1 12:-1 13:-1 14:-1 15:-1 17:1 18:-1 19:-1 20:-1 
-32 -0 0 32 0 0 1:1 2:-1 3:-1 4:-1 5:-1 6:-1 7:-1 9:-1 10:-1 11:1 12:-1 13:-1 14:-1 15:-1 17:1 18:-1 19:-1 20:-1 
-32 -1.122866651531437 5.170495244833167 28.34975534193566 0 1.289212333425876 1:1 2:-1 3:-1 4:-1 5:-1 6:-1 7:-1 9:-1 10:-1 11:1 12:-1 13:-1 14:-1 15:-1 17:1 18:-1 19:-1 20:-1 
-8.699625380493803 -0 0 0 0 0 1:1 2:-1 3:-1 4:-1 5:-1 6:-1 7:-1 9:-1 10:-1 11:1 12:-1 13:-1 14:-1 15:-1 17:-1 18:-1 19:1 20:-1 
-0 -0 0 1.435303724035331 0 0 1:-1 2:-1 3:1 4:-1 5:-1 6:-1 7:-1 9:-1 10:-1 11:1 12:-1 13:-1 14:-1 15:-1 17:1 18:-1 19:-1 20:-1 
-12.11189933558156 -1.122741297663004 0 32 0 1.298495334344264 1:-1 2:-1 3:1 4:-1 5:-1 6:-1 7:-1 9:-1 10:-1 11:1 12:-1 13:-1 14:-1 15:-1 17:1 18:-1 19:-1 20:-1 
-32 -0 -0 0 0 0 1:1 2:-1 3:-1 4:-1 5:-1 6:-1 7:-1 9:1 10:-1 11:-1 12:-1 13:-1 14:-1 15:-1 17:1 18:-1 19:-1 20:-1 
-32 -0 -0 0 0 0 1:1 2:-1 3:-1 4:-1 5:-1 6:-1 7:-1 9:1 10:-1 11:-1 12:-1 13:-1 14:-1 15:-1 17:1 18:-1 19:-1 20:-1 
-32 -0 -0 0 0 0 1:1 2:-1 3:-1 4:-1 5:-1 6:-1 7:-1 9:1 10:-1 11:-1 12:-1 13:-1 14:-1 15:-1 17:1 18:-1 19:-1 20:-1 
-32 -0 -0 0 0 0 1:1 2:-1 3:-1 4:-1 5:-1 6:-1 7:-1 9:1 10:-1 11:-1 12:-1 13:-1 14:-1 15:-1 17:1 18:-1 19:-1 20:-1 
-32 -0 -0 0 0 0 1:1 2:-1 3:-1 4:-1 5:-1 6:-1 7:-1 9:1 10:-1 11:-1 12:-1 13:-1 14:-1 15:-1 17:1 18:-1 19:-1 20:-1 
-12.44255012173315 -0 -0 0 0 0 1:1 2:-1 3:-1 4:-1 5:-1 6:-1 7:-1 9:-1 10:-1 11:-1 12:-1 13:1 14:-1 15:-1 17:1 18:-1 19:-1 20:-1 
-32 -0 -0 0 0 0 1:1 2:-1 3:-1 4:-1 5:-1 6:-1 7:-1 9:1 10:-1 11:-1 12:-1 13:-1 14:-1 15:-1 17:1 18:-1 19:-1 20:-1 
-32 -0 -0 0 0 0 1:1 2:-1 3:-1 4:-1 5:-1 6:-1 7:-1 9:1 10:-1 11:-1 12:-1 13:-1 14:-1 15:-1 17:1 18:-1 19:-1 20:-1 
-32 -0 -0 0 0 0 1:1 2:-1 3:-1 4:-1 5:-1 6:-1 7:-1 9:1 10:-1 11:-1 12:-1 13:-1 14:-1 15:-1 17:1 18:-1 19:-1 20:-1 
-32 -0 -0 0 0 0 1:1 2:-1 3:-1 4:-1 5:-1 6:-1 7:-1 9:1 10:-1 11:-1 12:-1 13:-1 14:-1 15:-1 17:1 18:-1 19:-1 20:-1 
-32 -0 -0 0 0 0 1:1 2:-1 3:-1 4:-1 5:-1 6:-1 7:-1 9:1 10:-1 11:-1 12:-1 13:-1 14:-1 15:-1 17:1 18:-1 19:-1 20:-1 
-32 -0 -0 0 0 0 1:1 2:-1 3:-1 4:-1 5:-1 6:-1 7:-1 9:1 10:-1 11:-1 12:-1 13:-1 14:-1 15:-1 17:1 18:-1 19:-1 20:-1 
-32 -0 -0 0 0 0 1:1 2:-1 3:-1 4:-1 5:-1 6:-1 7:-1 9:1 10:-1 11:-1 12:-1 13:-1 14:-1 15:-1 17:1 18:-1 19:-1 20:-1 
-32 -0 -0 0 0 0 1:1 2:-1 3:-1 4:-1 5:-1 6:-1 7:-1 9:1 10:-1 11:-1 12:-1 13:-1 14:-1 15:-1 17:1 18:-1 19:-1 20:-1 
-32 -0 -0 0 0 0 1:1 2:-1 3:-1 4:-1 5:-1 6:-1 7:-1 9:1 10:-1 11:-1 12:-1 13:-1 14:-1 15:-1 17:1 18:-1 19:-1 20:-1 
-32 -0 -0 0 0 0 1:1 2:-1 3:-1 4:-1 5:-1 6:-1 7:-1 9:1 10:-1 11:-1 12:-1 13:-1 14:-1 15:-1 17:1 18:-1 19:-1 20:-1 
-32 -0 -0 0 0 0 1:1 2:-1 3:-1 4:-1 5:-1 6:-1 7:-1 9:1 10:-1 11:-1 12:-1 13:-1 14:-1 15:-1 17:1 18:-1 19:-1 20:-1 
-32 -0 -0 0 0 0 1:1 2:-1 3:-1 4:-1 5:-1 6:-1 7:-1 9:1 10:-1 11:-1 12:-1 13:-1 14:-1 15:-1 17:1 18:-1 19:-1 20:-1 
-32 -0 -0 0 0 0 1:1 2:-1 3:-1 4:-1 5:-1 6:-1 7:-1 9:-1 10:-1 11:-1 12:-1 13:1 14:-1 15:-1 17:1 18:-1 19:-1 20:-1 
-32 -2.426658969021961 -32 32 32 3.964890726864048 1:-1 2:1 3:-1 4:-1 5:-1 6:-1 7:-1 9:-1 10:1 11:-1 12:-1 13:-1 14:-1 15:-1 17:1 18:-1 19:-1 20:-1 
-32 -0 -0 0 0 0 1:1 2:-1 3:-1 4:-1 5:-1 6:-1 7:-1 9:1 10:-1 11:-1 12:-1 13:-1 14:-1 15:-1 17:1 18:-1 19:-1 20:-1 
-32 -0 -0 0 0 0 1:1 2:-1 3:-1 4:-1 5:-1 6:-1 7:-1 9:1 10:-1 11:-1 12:-1 13:-1 14:-1 15:-1 17:1 18:-1 19:-1 20:-1 
-32 -0 -0 0 0 0 1:1 2:-1 3:-1 4:-1 5:-1 6:-1 7:-1 9:1 10:-1 11:-1 12:-1 13:-1 14:-1 15:-1 17:1 18:-1 19:-1 20:-1 
-32 -0 -0 0 0 0 1:1 2:-1 3:-1 4:-1 5:-1 6:-1 7:-1 9:1 10:-1 11:-1 12:-1 13:-1 14:-1 15:-1 17:1 18:-1 19:-1 20:-1 
-32 -0 -0 0 0 0 1:1 2:-1 3:-1 4:-1 5:-1 6:-1 7:-1 9:1 10:-1 11:-1 12:-1 13:-1 14:-1 15:-1 17:1 18:-1 19:-1 20:-1 
-32 -0 -0 0 0 0 1:1 2:-1 3:-1 4:-1 5:-1 6:-1 7:-1 9:-1 10:-1 11:-1 12:-1 13:1 14:-1 15:-1 17:1 18:-1 19:-1 20:-1 
-32 -0 -0 0 0 0 1:1 2:-1 3:-1 4:-1 5:-1 6:-1 7:-1 9:-1 10:-1 11:-1 12:-1 13:1 14:-1 15:-1 17:1 18:-1 19:-1 20:-1 
-32 -0 -0 0 0 0 1:1 2:-1 3:-1 4:-1 5:-1 6:-1 7:-1 9:-1 10:-1 11:-1 12:-1 13:1 14:-1 15:-1 17:1 18:-1 19:-1 20:-1 
-32 -0 -0 0 0 0 1:1 2:-1 3:-1 4:-1 5:-1 6:-1 7:-1 9:1 10:-1 11:-1 12:-1 13:-1 14:-1 15:-1 17:1 18:-1 19:-1 20:-1 
-32 -0 -13.38679385180365 0 0 0 1:1 2:-1 3:-1 4:-1 5:-1 6:-1 7:-1 9:1 10:-1 11:-1 12:-1 13:-1 14:-1 15:-1 17:1 18:-1 19:-1 20:-1 
-32 -0 -32 0 0 0 1:1 2:-1 3:-1 4:-1 5:-1 6:-1 7:-1 9:1 10:-1 11:-1 12:-1 13:-1 14:-1 15:-1 17:1 18:-1 19:-1 20:-1 
-32 -0 -32 0 0 0 1:1 2:-1 3:-1 4:-1 5:-1 6:-1 7:-1 9:1 10:-1 11:-1 12:-1 13:-1 14:-1 15:-1 17:1 18:-1 19:-1 20:-1 
-32 -0 -32 0 0 0 1:1 2:-1 3:-1 4:-1 5:-1 6:-1 7:-1 9:1 10:-1 11:-1 12:-1 13:-1 14:-1 15:-1 17:1 18:-1 19:-1 20:-1 
-32 -0 -0 0 0 0 1:1 2:-1 3:-1 4:-1 5:-1 6:-1 7:-1 9:-1 10:-1 11:-1 12:-1 13:1 14:-1 15:-1 17:1 18:-1 19:-1 20:-1 
-32 -0 -0 0 0 0 1:1 2:-1 3:-1 4:-1 5:-1 6:-1 7:-1 9:-1 10:-1 11:-1 12:-1 13:1 14:-1 15:-1 17:1 18:-1 19:-1 20:-1 
-32 -0 -0 0 0 0 1:1 2:-1 3:-1 4:-1 5:-1 6:-1 7:-1 9:-1 10:-1 11:-1 12:-1 13:1 14:-1 15:-1 17:1 18:-1 19:-1 20:-1 
-32 -0 -32 0 0 0 1:1 2:-1 3:-1 4:-1 5:-1 6:-1 7:-1 9:1 10:-1 11:-1 12:-1 13:-1 14:-1 15:-1 17:1 18:-1 19:-1 20:-1 
-32 -0 -32 0 0 0 1:1 2:-1 3:-1 4:-1 5:-1 6:-1 7:-1 9:1 10:-1 11:-1 12:-1 13:-1 14:-1 15:-1 17:1 18:-1 19:-1 20:-1 
-32 -0 -32 0 0 0 1:1 2:-1 3:-1 4:-1 5:-1 6:-1 7:-1 9:1 10:-1 11:-1 12:-1 13:-1 14:-1 15:-1 17:1 18:-1 19:-1 20:-1 
-32 -0 -32 0 0 0 1:1 2:-1 3:-1 4:-1 5:-1 6:-1 7:-1 9:1 10:-1 11:-1 12:-1 13:-1 14:-1 15:-1 17:1 18:-1 19:-1 20:-1 
-32 -0 -32 0 0 0 1:1 2:-1 3:-1 4:-1 5:-1 6:-1 7:-1 9:1 10:-1 11:-1 12:-1 13:-1 14:-1 15:-1 17:1 18:-1 19:-1 20:-1 
-32 -0 -32 0 0 0 1:1 2:-1 3:-1 4:-1 5:-1 6:-1 7:-1 9:1 10:-1 11:-1 12:-1 13:-1 14:-1 15:-1 17:1 18:-1 19:-1 20:-1 
-1.671308454765762 -0.2961126393680253 -4.341641569480863 3.748654793173114 1.757098751093165 1.923968850695007 1:-1 2:-1 3:-1 4:-1 5:1 6:-1 7:-1 9:-1 10:-1 11:-1 12:-1 13:1 14:-1 15:-1 17:-1 18:-1 19:1 20:-1 
-32 -0 -32 0 0 0 1:1 2:-1 3:-1 4:-1 5:-1 6:-1 7:-1 9:1 10:-1 11:-1 12:-1 13:-1 14:-1 15:-1 17:1 18:-1 19:-1 20:-1 
-32 -0 -32 0 0 0 1:1 2:-1 3:-1 4:-1 5:-1 6:-1 7:-1 9:1 10:-1 11:-1 12:-1 13:-1 14:-1 15:-1 17:1 18:-1 19:-1 20:-1 
-32 -0 -32 0 0 0 1:1 2:-1 3:-1 4:-1 5:-1 6:-1 7:-1 9:1 10:-1 11:-1 12:-1 13:-1 14:-1 15:-1 17:1 18:-1 19:-1 20:-1 
-32 -0 -32 0 0 0 1:1 2:-1 3:-1 4:-1 5:-1 6:-1 7:-1 9:1 10:-1 11:-1 12:-1 13:-1 14:-1 15:-1 17:1 18:-1 19:-1 20:-1 
-32 -0 -32 0 0 0 1:1 2:-1 3:-1 4:-1 5:-1 6:-1 7:-1 9:1 10:-1 11:-1 12:-1 13:-1 14:-1 15:-1 17:1 18:-1 19:-1 20:-1 
-32 -0 -32 0 0 0 1:1 2:-1 3:-1 4:-1 5:-1 6:-1 7:-1 9:1 10:-1 11:-1 12:-1 13:-1 14:-1 15:-1 17:1 18:-1 19:-1 20:-1 
-32 -0 -32 0 0 4.52081171467166 1:1 2:-1 3:-1 4:-1 5:-1 6:-1 7:-1 9:1 10:-1 11:-1 12:-1 13:-1 14:-1 15:-1 17:1 18:-1 19:-1 20:-1 
-32 -0 -32 19.28379978000735 0 32 1:1 2:-1 3:-1 4:-1 5:-1 6:-1 7:-1 9:1 10:-1 11:-1 12:-1 13:-1 14:-1 15:-1 17:1 18:-1 19:-1 20:-1 
-32 -0 -32 32 6.998441924005794 32 1:1 2:-1 3:-1 4:-1 5:-1 6:-1 7:-1 9:1 10:-1 11:-1 12:-1 13:-1 14:-1 15:-1 17:1 18:-1 19:-1 20:-1 
-32 -1.656120579801514 -32 32 32 32 1:1 2:-1 3:-1 4:-1 5:-1 6:-1 7:-1 9:1 10:-1 11:-1 12:-1 13:-1 14:-1 15:-1 17:1 18:-1 19:-1 20:-1 
-32 -32 -32 32 32 32 1:1 2:-1 3:-1 4:-1 5:-1 6:-1 7:-1 9:1 10:-1 11:-1 12:-1 13:-1 14:-1 15:-1 17:1 18:-1 19:-1 20:-1 
-32 -32 -32 32 32 32 1:1 2:-1 3:-1 4:-1 5:-1 6:-1 7:-1 9:1 10:-1 11:-1 12:-1 13:-1 14:-1 15:-1 17:1 18:-1 19:-1 20:-1 
-32 -32 -32 32 32 32 1:1 2:-1 3:-1 4:-1 5:-1 6:-1 7:-1 9:1 10:-1 11:-1 12:-1 13:-1 14:-1 15:-1 17:1 18:-1 19:-1 20:-1 
-12.10247949086802 -0 -0 0 0 0 1:-1 2:-1 3:-1 4:-1 5:1 6:-1 7:-1 9:1 10:-1 11:-1 12:-1 13:-1 14:-1 15:-1 17:1 18:-1 19:-1 20:-1 
-32 -0 -0 0 0 0 1:-1 2:-1 3:-1 4:-1 5:1 6:-1 7:-1 9:1 10:-1 11:-1 12:-1 13:-1 14:-1 15:-1 17:1 18:-1 19:-1 20:-1 
-32 -0 -0 0 0 0 1:-1 2:-1 3:-1 4:-1 5:1 6:-1 7:-1 9:1 10:-1 11:-1 12:-1 13:-1 14:-1 15:-1 17:1 18:-1 19:-1 20:-1 
-32 -32 -32 32 32 32 1:1 2:-1 3:-1 4:-1 5:-1 6:-1 7:-1 9:1 10:-1 11:-1 12:-1 13:-1 14:-1 15:-1 17:1 18:-1 19:-1 20:-1 
-32 -31.68588661086798 -31.95252264987113 32 31.93942805223077 31.80878520745935 1:1 2:-1 3:-1 4:-1 5:-1 6:-1 7:-1 9:1 10:-1 11:-1 12:-1 13:-1 14:-1 15:-1 17:1 18:-1 19:-1 20:-1 
-32 -0 -0 0 0 0 1:-1 2:-1 3:-1 4:-1 5:1 6:-1 7:-1 9:1 10:-1 11:-1 12:-1 13:-1 14:-1 15:-1 17:1 18:-1 19:-1 20:-1 
-32 -0 -0 0 0 0 1:-1 2:-1 3:-1 4:-1 5:1 6:-1 7:-1 9:-1 10:-1 11:-1 12:-1 13:1 14:-1 15:-1 17:1 18:-1 19:-1 20:-1 
-32 -1.339393455994567 -1.237264747713386 2.515445568692944 0 0 1:1 2:-1 3:-1 4:-1 5:-1 6:-1 7:-1 9:-1 10:-1 11:-1 12:-1 13:1 14:-1 15:-1 17:1 18:-1 19:-1 20:-1 
-32 -0 -0 0 0 0 1:-1 2:-1 3:-1 4:-1 5:1 6:-1 7:-1 9:1 10:-1 11:-1 12:-1 13:-1 14:-1 15:-1 17:1 18:-1 19:-1 20:-1 
-32 -1.34367707396364 -1.238343815955736 1.256322359549284 2.217665004219337 3.160167205945821 1:-1 2:-1 3:-1 4:-1 5:1 6:-1 7:-1 9:1 10:-1 11:-1 12:-1 13:-1 14:-1 15:-1 17:1 18:-1 19:-1 20:-1 
-23.39124856499481 -1.106381583247225 -0 0 0 0 1:-1 2:-1 3:-1 4:-1 5:1 6:-1 7:-1 9:-1 10:-1 11:-1 12:-1 13:1 14:-1 15:-1 17:1 18:-1 19:-1 20:-1 
-0 -0.0656567255965952 -7.654142139962337 -0 0 0 1:-1 2:1 3:-1 4:-1 5:-1 6:-1 7:-1 9:-1 10:-1 11:1 12:-1 13:-1 14:-1 15:-1 17:-1 18:1 19:-1 20:-1 
-32 -0 -32 -32 4.00939697567116 32 1:1 2:-1 3:-1 4:-1 5:-1 6:-1 7:-1 9:1 10:-1 11:-1 12:-1 13:-1 14:-1 15:-1 17:1 18:-1 19:-1 20:-1 
-32 -0 -0 -0 0 0 1:1 2:-1 3:-1 4:-1 5:-1 6:-1 7:-1 9:1 10:-1 11:-1 12:-1 13:-1 14:-1 15:-1 17:-1 18:1 19:-1 20:-1 
-6.436575257615577 -0.03439785224563006 -0 -2.141637011068133 32 2.225473240127443 1:1 2:-1 3:-1 4:-1 5:-1 6:-1 7:-1 9:1 10:-1 11:-1 12:-1 13:-1 14:-1 15:-1 17:-1 18:-1 19:-1 20:1 
-32 -4.520811714671659 -32 -32 32 32 1:1 2:-1 3:-1 4:-1 5:-1 6:-1 7:-1 9:1 10:-1 11:-1 12:-1 13:-1 14:-1 15:-1 17:1 18:-1 19:-1 20:-1 
-0 -0 -0 -0 6.520762734576332 0 1:1 2:-1 3:-1 4:-1 5:-1 6:-1 7:-1 9:-1 10:1 11:-1 12:-1 13:-1 14:-1 15:-1 17:-1 18:-1 19:-1 20:1 
-32 -0 -0 -0 0 0 1:1 2:-1 3:-1 4:-1 5:-1 6:-1 7:-1 9:-1 10:1 11:-1 12:-1 13:-1 14:-1 15:-1 17:1 18:-1 19:-1 20:-1 
-0 -0.08465781295649186 -6.728195211476923 -0 3.293422792743156 0 1:1 2:-1 3:-1 4:-1 5:-1 6:-1 7:-1 9:-1 10:-1 11:1 12:-1 13:-1 14:-1 15:-1 17:-1 18:-1 19:-1 20:1 
-32 -0 -32 -0 0 0 1:1 2:-1 3:-1 4:-1 5:-1 6:-1 7:-1 9:-1 10:-1 11:1 12:-1 13:-1 14:-1 15:-1 17:1 18:-1 19:-1 20:-1 
-32 -0 -0 -0 0 0 1:1 2:-1 3:-1 4:-1 5:-1 6:-1 7:-1 9:1 10:-1 11:-1 12:-1 13:-1 14:-1 15:-1 17:-1 18:1 19:-1 20:-1 
-32 -0 -0 -0 0 0 1:1 2:-1 3:-1 4:-1 5:-1 6:-1 7:-1 9:-1 10:1 11:-1 12:-1 13:-1 14:-1 15:-1 17:1 18:-1 19:-1 20:-1 
-32 -32 -32 -32 32 32 1:1 2:-1 3:-1 4:-1 5:-1 6:-1 7:-1 9:1 10:-1 11:-1 12:-1 13:-1 14:-1 15:-1 17:1 18:-1 19:-1 20:-1 
-32 -0 -0 -0 0 0 1:1 2:-1 3:-1 4:-1 5:-1 6:-1 7:-1 9:1 10:-1 11:-1 12:-1 13:-1 14:-1 15:-1 17:-1 18:1 19:-1 20:-1 
-32 -0 -0 -0 0 0 1:1 2:-1 3:-1 4:-1 5:-1 6:-1 7:-1 9:1 10:-1 11:-1 12:-1 13:-1 14:-1 15:-1 17:-1 18:1 19:-1 20:-1 
-32 -0 -0 -0 0 0 1:1 2:-1 3:-1 4:-1 5:-1 6:-1 7:-1 9:1 10:-1 11:-1 12:-1 13:-1 14:-1 15:-1 17:-1 18:1 19:-1 20:-1 
-32 -0 -0 -0 0 0 1:1 2:-1 3:-1 4:-1 5:-1 6:-1 7:-1 9:1 10:-1 11:-1 12:-1 13:-1 14:-1 15:-1 17:-1 18:1 19:-1 20:-1 
-0 -0.07033146024812 -0 -0 32 0 1:-1 2:1 3:-1 4:-1 5:-1 6:-1 7:-1 9:-1 10:1 11:-1 12:-1 13:-1 14:-1 15:-1 17:-1 18:-1 19:-1 20:1 
-4.438243522011284 -1.105217247613382 -7.935756051746644 -11.17072766404648 4.650137329177871 9.014274136905845 1:-1 2:1 3:-1 4:-1 5:-1 6:-1 7:-1 9:1 10:-1 11:-1 12:-1 13:-1 14:-1 15:-1 17:1 18:-1 19:-1 20:-1 
-32 -0 -32 -0 0 0 1:1 2:-1 3:-1 4:-1 5:-1 6:-1 7:-1 9:-1 10:-1 11:1 12:-1 13:-1 14:-1 15:-1 17:1 18:-1 19:-1 20:-1 
-32 -0 -32 -0 0 0 1:1 2:-1 3:-1 4:-1 5:-1 6:-1 7:-1 9:-1 10:-1 11:1 12:-1 13:-1 14:-1 15:-1 17:1 18:-1 19:-1 20:-1 
-32 -0 -0 -0 0 0 1:1 2:-1 3:-1 4:-1 5:-1 6:-1 7:-1 9:1 10:-1 11:-1 12:-1 13:-1 14:-1 15:-1 17:-1 18:1 19:-1 20:-1 
-32 -0 -32 -0 0 0 1:1 2:-1 3:-1 4:-1 5:-1 6:-1 7:-1 9:1 10:-1 11:-1 12:-1 13:-1 14:-1 15:-1 17:-1 18:-1 19:1 20:-1 
-32 -0.08567267116449298 -32 -4.41642037862096 2.266240672680313 9.454231950952439 1:1 2:-1 3:-1 4:-1 5:-1 6:-1 7:-1 9:1 10:-1 11:-1 12:-1 13:-1 14:-1 15:-1 17:-1 18:-1 19:1 20:-1 
-32 -0 -0 -0 0 0 1:1 2:-1 3:-1 4:-1 5:-1 6:-1 7:-1 9:-1 10:1 11:-1 12:-1 13:-1 14:-1 15:-1 17:1 18:-1 19:-1 20:-1 
-32 -1.09109773711752 -10.01540658338824 -9.911963641159613 0 7.392183997914831 1:1 2:-1 3:-1 4:-1 5:-1 6:-1 7:-1 9:-1 10:1 11:-1 12:-1 13:-1 14:-1 15:-1 17:1 18:-1 19:-1 20:-1 
-8.618593042114041 -0.01056281627100608 -5.274342264349673 -0 0 0 1:1 2:-1 3:-1 4:-1 5:-1 6:-1 7:-1 9:-1 10:1 11:-1 12:-1 13:-1 14:-1 15:-1 17:-1 18:-1 19:1 20:-1 
-32 -0 -0 -0 0 0 1:1 2:-1 3:-1 4:-1 5:-1 6:-1 7:-1 9:1 10:-1 11:-1 12:-1 13:-1 14:-1 15:-1 17:-1 18:1 19:-1 20:-1 
-8.619553049423262 -0.06287501467745371 -0 -0 0 0 1:1 2:-1 3:-1 4:-1 5:-1 6:-1 7:-1 9:-1 10:1 11:-1 12:-1 13:-1 14:-1 15:-1 17:-1 18:1 19:-1 20:-1 
-12.68191017891745 -2.254642347883346 -32 -0.152963607142113 0 7.762749580146759 1:-1 2:-1 3:1 4:-1 5:-1 6:-1 7:-1 9:-1 10:-1 11:1 12:-1 13:-1 14:-1 15:-1 17:1 18:-1 19:-1 20:-1 
-0.2365375491529294 -0 -0 -0 0 0 1:-1 2:1 3:-1 4:-1 5:-1 6:-1 7:-1 9:-1 10:1 11:-1 12:-1 13:-1 14:-1 15:-1 17:1 18:-1 19:-1 20:-1 
-32 -0 -32 -0 0 0 1:-1 2:1 3:-1 4:-1 5:-1 6:-1 7:-1 9:-1 10:1 11:-1 12:-1 13:-1 14:-1 15:-1 17:1 18:-1 19:-1 20:-1 
-32 -1.02686657013445 -25.49912487864084 -24.7331822948998 29.34659436123693 0 1:-1 2:1 3:-1 4:-1 5:-1 6:-1 7:-1 9:-1 10:1 11:-1 12:-1 13:-1 14:-1 15:-1 17:1 18:-1 19:-1 20:-1 
-32 -32 -32 -32 32 32 1:1 2:-1 3:-1 4:-1 5:-1 6:-1 7:-1 9:1 10:-1 11:-1 12:-1 13:-1 14:-1 15:-1 17:1 18:-1 19:-1 20:-1 
-32 -32 -32 -32 32 32 1:1 2:-1 3:-1 4:-1 5:-1 6:-1 7:-1 9:1 10:-1 11:-1 12:-1 13:-1 14:-1 15:-1 17:1 18:-1 19:-1 20:-1 
-32 -0.3935950115988734 -32 -4.134103555420081 0 2.239162716383218 1:1 2:-1 3:-1 4:-1 5:-1 6:-1 7:-1 9:-1 10:-1 11:1 12:-1 13:-1 14:-1 15:-1 17:1 18:-1 19:-1 20:-1 
-0 -0.4182725416696775 -2.407318801501221 -0 0 0 1:-1 2:1 3:-1 4:-1 5:-1 6:-1 7:-1 9:-1 10:-1 11:1 12:-1 13:-1 14:-1 15:-1 17:1 18:-1 19:-1 20:-1 
-32 -0 -0 -0 0 0 1:1 2:-1 3:-1 4:-1 5:-1 6:-1 7:-1 9:1 10:-1 11:-1 12:-1 13:-1 14:-1 15:-1 17:-1 18:1 19:-1 20:-1 
-32 -0 -0 -0 0 0 1:1 2:-1 3:-1 4:-1 5:-1 6:-1 7:-1 9:1 10:-1 11:-1 12:-1 13:-1 14:-1 15:-1 17:-1 18:1 19:-1 20:-1 
-32 -32 -32 -32 32 32 1:1 2:-1 3:-1 4:-1 5:-1 6:-1 7:-1 9:1 10:-1 11:-1 12:-1 13:-1 14:-1 15:-1 17:1 18:-1 19:-1 20:-1 
-32 -0 -0 -0 0 0 1:1 2:-1 3:-1 4:-1 5:-1 6:-1 7:-1 9:1 10:-1 11:-1 12:-1 13:-1 14:-1 15:-1 17:-1 18:1 19:-1 20:-1 
-32 -0 -17.38967415994854 -0 0 0 1:1 2:-1 3:-1 4:-1 5:-1 6:-1 7:-1 9:1 10:-1 11:-1 12:-1 13:-1 14:-1 15:-1 17:-1 18:1 19:-1 20:-1 
-32 -0 -32 -0 0 0 1:1 2:-1 3:-1 4:-1 5:-1 6:-1 7:-1 9:1 10:-1 11:-1 12:-1 13:-1 14:-1 15:-1 17:-1 18:1 19:-1 20:-1 
-32 -28.53155416024816 -32 -32 32 32 1:1 2:-1 3:-1 4:-1 5:-1 6:-1 7:-1 9:1 10:-1 11:-1 12:-1 13:-1 14:-1 15:-1 17:1 18:-1 19:-1 20:-1 
-32 -0.01289779058031506 -32 -2.14322434906552 1.893460454199935 2.225835408425189 1:1 2:-1 3:-1 4:-1 5:-1 6:-1 7:-1 9:1 10:-1 11:-1 12:-1 13:-1 14:-1 15:-1 17:-1 18:1 19:-1 20:-1 
-2.33206058877061 -0 -0 -0 0 0 1:-1 2:1 3:-1 4:-1 5:-1 6:-1 7:-1 9:1 10:-1 11:-1 12:-1 13:-1 14:-1 15:-1 17:-1 18:1 19:-1 20:-1 
-32 -0 -0 -0 0 0 1:-1 2:1 3:-1 4:-1 5:-1 6:-1 7:-1 9:1 10:-1 11:-1 12:-1 13:-1 14:-1 15:-1 17:-1 18:1 19:-1 20:-1 
-32 -0 -0 -0 0 0 1:-1 2:1 3:-1 4:-1 5:-1 6:-1 7:-1 9:1 10:-1 11:-1 12:-1 13:-1 14:-1 15:-1 17:-1 18:1 19:-1 20:-1 
-32 -0.05346019937841594 -0 -0 0.4786592816045259 0 1:-1 2:1 3:-1 4:-1 5:-1 6:-1 7:-1 9:1 10:-1 11:-1 12:-1 13:-1 14:-1 15:-1 17:-1 18:1 19:-1 20:-1 
-0 -0.08372481709601617 -1.302723883978369 -0 0 0 1:-1 2:1 3:-1 4:-1 5:-1 6:-1 7:-1 9:-1 10:1 11:-1 12:-1 13:-1 14:-1 15:-1 17:-1 18:-1 19:1 20:-1 
-0 -0 -32 -0 0 0 1:-1 2:1 3:-1 4:-1 5:-1 6:-1 7:-1 9:-1 10:1 11:-1 12:-1 13:-1 14:-1 15:-1 17:-1 18:1 19:-1 20:-1 
-0 -0 -32 -0 0 0 1:-1 2:1 3:-1 4:-1 5:-1 6:-1 7:-1 9:-1 10:1 11:-1 12:-1 13:-1 14:-1 15:-1 17:-1 18:1 19:-1 20:-1 
-0 -0 -25.20164750230742 -0 0 0 1:-1 2:1 3:-1 4:-1 5:-1 6:-1 7:-1 9:-1 10:1 11:-1 12:-1 13:-1 14:-1 15:-1 17:-1 18:1 19:-1 20:-1 
-32 -2.530221009053026 -32 -32 -32 5.010109907128965 1:-1 2:1 3:-1 4:-1 5:-1 6:-1 7:-1 9:-1 10:1 11:-1 12:-1 13:-1 14:-1 15:-1 17:1 18:-1 19:-1 20:-1 
-3.204922114820983 -0 -4.150937672766873 -0.2770396722810522 -32 0 1:-1 2:1 3:-1 4:-1 5:-1 6:-1 7:-1 9:-1 10:1 11:-1 12:-1 13:-1 14:-1 15:-1 17:-1 18:-1 19:-1 20:1 
-32 -2.693136135051328 -32 -32 -32 32 1:1 2:-1 3:-1 4:-1 5:-1 6:-1 7:-1 9:1 10:-1 11:-1 12:-1 13:-1 14:-1 15:-1 17:1 18:-1 19:-1 20:-1 
-32 -32 -32 -32 -32 32 1:1 2:-1 3:-1 4:-1 5:-1 6:-1 7:-1 9:1 10:-1 11:-1 12:-1 13:-1 14:-1 15:-1 17:1 18:-1 19:-1 20:-1 
-0 -0.4823675567289786 -0 -0 -2.077511854843252 0 1:-1 2:-1 3:-1 4:1 5:-1 6:-1 7:-1 9:-1 10:1 11:-1 12:-1 13:-1 14:-1 15:-1 17:-1 18:-1 19:-1 20:1 
-32 -32 -32 -32 -32 32 1:1 2:-1 3:-1 4:-1 5:-1 6:-1 7:-1 9:1 10:-1 11:-1 12:-1 13:-1 14:-1 15:-1 17:1 18:-1 19:-1 20:-1 
-32 -32 -32 -32 -32 32 1:1 2:-1 3:-1 4:-1 5:-1 6:-1 7:-1 9:1 10:-1 11:-1 12:-1 13:-1 14:-1 15:-1 17:1 18:-1 19:-1 20:-1 
-32 -32 -32 -32 -32 32 1:1 2:-1 3:-1 4:-1 5:-1 6:-1 7:-1 9:1 10:-1 11:-1 12:-1 13:-1 14:-1 15:-1 17:1 18:-1 19:-1 20:-1 
-32 -31.66213396602889 -32 -32 -32 32 1:1 2:-1 3:-1 4:-1 5:-1 6:-1 7:-1 9:1 10:-1 11:-1 12:-1 13:-1 14:-1 15:-1 17:1 18:-1 19:-1 20:-1 
-0 -0 -0 -0 -13.15598956546492 0 1:1 2:-1 3:-1 4:-1 5:-1 6:-1 7:-1 9:1 10:-1 11:-1 12:-1 13:-1 14:-1 15:-1 17:-1 18:-1 19:-1 20:1 
-4.73381472168508 -0.004431602171404087 -4.213461484628952 -4.692433137524111 -32 5.403851390519825 1:1 2:-1 3:-1 4:-1 5:-1 6:-1 7:-1 9:1 10:-1 11:-1 12:-1 13:-1 14:-1 15:-1 17:-1 18:-1 19:-1 20:1 
-1.210524343248173 -0.6609076139254374 -2.300881090739849 -0.8294640887222401 -1.824041139446397 0.7488548631727204 1:-1 2:-1 3:-1 4:1 5:-1 6:-1 7:-1 9:-1 10:-1 11:-1 12:1 13:-1 14:-1 15:-1 17:1 18:-1 19:-1 20:-1 
-6.142609589363083 -1.553022228525655 -6.59792846670816 -5.11369683302167 -3.401132042135651 5.697010434122769 1:-1 2:-1 3:-1 4:1 5:-1 6:-1 7:-1 9:1 10:-1 11:-1 12:-1 13:-1 14:-1 15:-1 17:1 18:-1 19:-1 20:-1 
-32 -0 -32 -32 -18.3568647176054 -0 1:1 2:-1 3:-1 4:-1 5:-1 6:-1 7:-1 9:1 10:-1 11:-1 12:-1 13:-1 14:-1 15:-1 17:1 18:-1 19:-1 20:-1 
-3.130560468526122 -32 -3.364178024477903 -3.568893714142473 -5.765839337436968 -4.032055065310083 1:-1 2:-1 3:-1 4:-1 5:-1 6:1 7:-1 9:-1 10:1 11:-1 12:-1 13:-1 14:-1 15:-1 17:1 18:-1 19:-1 20:-1 
-0 -32 -0 -0 -0 -0 1:-1 2:-1 3:-1 4:-1 5:-1 6:1 7:-1 9:1 10:-1 11:-1 12:-1 13:-1 14:-1 15:-1 17:1 18:-1 19:-1 20:-1 
-0 -32 -0 -0 -0 -0 1:-1 2:-1 3:-1 4:-1 5:-1 6:1 7:-1 9:1 10:-1 11:-1 12:-1 13:-1 14:-1 15:-1 17:1 18:-1 19:-1 20:-1 
-0 -32 -0 -0 -0 -0 1:-1 2:-1 3:-1 4:-1 5:-1 6:1 7:-1 9:1 10:-1 11:-1 12:-1 13:-1 14:-1 15:-1 17:1 18:-1 19:-1 20:-1 
-32 -0 -32 -32 -32 -6.97964663527361 1:1 2:-1 3:-1 4:-1 5:-1 6:-1 7:-1 9:1 10:-1 11:-1 12:-1 13:-1 14:-1 15:-1 17:1 18:-1 19:-1 20:-1 
-0 -32 -0 -0 -0 -0 1:-1 2:-1 3:-1 4:-1 5:-1 6:1 7:-1 9:1 10:-1 11:-1 12:-1 13:-1 14:-1 15:-1 17:1 18:-1 19:-1 20:-1 
-0 -32 -0 -0 -0 -0 1:-1 2:-1 3:-1 4:-1 5:-1 6:1 7:-1 9:1 10:-1 11:-1 12:-1 13:-1 14:-1 15:-1 17:1 18:-1 19:-1 20:-1 
-0 -32 -0 -0 -0 -0 1:-1 2:-1 3:-1 4:-1 5:-1 6:1 7:-1 9:1 10:-1 11:-1 12:-1 13:-1 14:-1 15:-1 17:1 18:-1 19:-1 20:-1 
-32 -3.812241188126009 -32 -32 -32 -32 1:1 2:-1 3:-1 4:-1 5:-1 6:-1 7:-1 9:1 10:-1 11:-1 12:-1 13:-1 14:-1 15:-1 17:1 18:-1 19:-1 20:-1 
-32 -32 -32 -32 -32 -32 1:1 2:-1 3:-1 4:-1 5:-1 6:-1 7:-1 9:1 10:-1 11:-1 12:-1 13:-1 14:-1 15:-1 17:1 18:-1 19:-1 20:-1 
-32 -32 -32 -32 -32 -32 1:1 2:-1 3:-1 4:-1 5:-1 6:-1 7:-1 9:1 10:-1 11:-1 12:-1 13:-1 14:-1 15:-1 17:1 18:-1 19:-1 20:-1 
-32 -32 -32 -32 -32 -32 1:1 2:-1 3:-1 4:-1 5:-1 6:-1 7:-1 9:1 10:-1 11:-1 12:-1 13:-1 14:-1 15:-1 17:1 18:-1 19:-1 20:-1 
-32 -32 -32 -32 -32 -32 1:1 2:-1 3:-1 4:-1 5:-1 6:-1 7:-1 9:1 10:-1 11:-1 12:-1 13:-1 14:-1 15:-1 17:1 18:-1 19:-1 20:-1 
-2.258066190636514 -2.186681207549117 -3.544228399301992 -0.8162272761769515 -6.908886574082982 -0.8325796085777351 1:-1 2:-1 3:-1 4:-1 5:-1 6:-1 7:1 9:-1 10:-1 11:1 12:-1 13:-1 14:-1 15:-1 17:1 18:-1 19:-1 20:-1 
-3.520731924207652 -32 -2.866344868209504 -1.934209038838793 -0 -0 1:-1 2:-1 3:-1 4:-1 5:-1 6:1 7:-1 9:1 10:-1 11:-1 12:-1 13:-1 14:-1 15:-1 17:1 18:-1 19:-1 20:-1 
-12.92723712908166 -1.097488615376506 -32 -2.80192768720279 -9.282320401730365 -2.729211061619441 1:-1 2:-1 3:1 4:-1 5:-1 6:-1 7:-1 9:1 10:-1 11:-1 12:-1 13:-1 14:-1 15:-1 17:-1 18:-1 19:1 20:-1 
-0.635417369582151 -0.4513108842364426 -0.5557347096901443 -0.8153424943914734 -0 -0.8313867446879104 1:-1 2:-1 3:-1 4:-1 5:-1 6:-1 7:1 9:-1 10:-1 11:-1 12:-1 13:-1 14:-1 15:1 17:1 18:-1 19:-1 20:-1 
-3.704235246122242 -0.6411700296479984 -2.292617036025996 -3.442023494883407 -0 -1.465505966933309 1:-1 2:-1 3:-1 4:-1 5:-1 6:-1 7:1 9:1 10:-1 11:-1 12:-1 13:-1 14:-1 15:-1 17:1 18:-1 19:-1 20:-1 
-32 -30.88339912156938 -32 -32 -32 -31.98944151254219 1:1 2:-1 3:-1 4:-1 5:-1 6:-1 7:-1 9:1 10:-1 11:-1 12:-1 13:-1 14:-1 15:-1 17:1 18:-1 19:-1 20:-1 
