svm_type c_svc
kernel_type rbf
gamma 0.03125
nr_class 7
total_sv 471
rho -0.274241 -0.0535088 -0.481921 0.0586076 0.0193325 -1 0.202426 -0.538141 -0.0345883 0.242132 -1 0.110936 0.314545 -0.0722346 -0.418327 0.348465 6.92413e-05 -1 -0.314442 -1 -0.80101
label 0 5 2 4 1 3 6
nr_sv 152 134 29 58 61 18 19
SV
0 8.499735843431218 0 0 0 0 1:-1 2:-1 3:1 4:-1 5:-1 6:-1 9:1 10:-1 11:-1 12:-1 
0 32 0 0 0 0 1:-1 2:-1 3:1 4:-1 5:-1 6:-1 9:1 10:-1 11:-1 12:-1 
32 0 0 32 0 0 1:-1 2:1 3:-1 4:-1 5:-1 6:-1 9:1 10:-1 11:-1 12:-1 
32 0 2.260405857335831 32 10.11023485260537 0 1:-1 2:1 3:-1 4:-1 5:-1 6:-1 9:1 10:-1 11:-1 12:-1 
0 0 0 32 0 0 1:1 2:-1 3:-1 4:-1 5:-1 6:-1 9:-1 10:1 11:-1 12:-1 
3.602119597935267 32 0 0 0 0 1:-1 2:-1 3:1 4:-1 5:-1 6:-1 9:1 10:-1 11:-1 12:-1 
0 0 0 32 0 0 1:1 2:-1 3:-1 4:-1 5:-1 6:-1 9:-1 10:1 11:-1 12:-1 
0 0 0 32 0 0 1:1 2:-1 3:-1 4:-1 5:-1 6:-1 9:-1 10:1 11:-1 12:-1 
32 32 0 0 0 0 1:-1 2:-1 3:1 4:-1 5:-1 6:-1 9:1 10:-1 11:-1 12:-1 
0 0 32 0 0 0 1:-1 2:-1 3:-1 4:-1 5:1 6:-1 9:1 10:-1 11:-1 12:-1 
32 0 32 32 32 0 1:-1 2:1 3:-1 4:-1 5:-1 6:-1 9:1 10:-1 11:-1 12:-1 
0 0 0 32 0 0 1:1 2:-1 3:-1 4:-1 5:-1 6:-1 9:-1 10:1 11:-1 12:-1 
0 0 0 32 0 0 1:1 2:-1 3:-1 4:-1 5:-1 6:-1 9:-1 10:1 11:-1 12:-1 
32 7.116793033533312 32 32 32 0 1:-1 2:1 3:-1 4:-1 5:-1 6:-1 9:1 10:-1 11:-1 12:-1 
32 32 1.657556050695578 32 32 0 1:-1 2:1 3:-1 4:-1 5:-1 6:-1 9:-1 10:1 11:-1 12:-1 
32 32 0 0 0 0 1:-1 2:-1 3:1 4:-1 5:-1 6:-1 9:1 10:-1 11:-1 12:-1 
0 0 0 32 0 0 1:1 2:-1 3:-1 4:-1 5:-1 6:-1 9:-1 10:1 11:-1 12:-1 
0 0 0 32 0 0 1:1 2:-1 3:-1 4:-1 5:-1 6:-1 9:-1 10:1 11:-1 12:-1 
32 32 30.71567525355635 32 32 32 1:-1 2:1 3:-1 4:-1 5:-1 6:-1 9:1 10:-1 11:-1 12:-1 
32 32 0 0 0 0 1:-1 2:-1 3:1 4:-1 5:-1 6:-1 9:1 10:-1 11:-1 12:-1 
0 0 0 32 0 0 1:1 2:-1 3:-1 4:-1 5:-1 6:-1 9:-1 10:1 11:-1 12:-1 
32 32 0 0 0 0 1:-1 2:-1 3:1 4:-1 5:-1 6:-1 9:1 10:-1 11:-1 12:-1 
32 32 0 0 0 0 1:-1 2:-1 3:1 4:-1 5:-1 6:-1 9:1 10:-1 11:-1 12:-1 
4.52081171467166 0 32 0 0 0 1:-1 2:-1 3:-1 4:-1 5:1 6:-1 9:1 10:-1 11:-1 12:-1 
0 0 0 32 0 0 1:1 2:-1 3:-1 4:-1 5:-1 6:-1 9:-1 10:1 11:-1 12:-1 
0 0 0 32 0 0 1:1 2:-1 3:-1 4:-1 5:-1 6:-1 9:-1 10:1 11:-1 12:-1 
0 0 0 32 0 0 1:1 2:-1 3:-1 4:-1 5:-1 6:-1 9:-1 10:1 11:-1 12:-1 
0 0 0 32 0 0 1:1 2:-1 3:-1 4:-1 5:-1 6:-1 9:-1 10:1 11:-1 12:-1 
32 32 0 2.429271023448253 0 0 1:-1 2:-1 3:1 4:-1 5:-1 6:-1 9:1 10:-1 11:-1 12:-1 
32 32 4.52081171467166 32 0 0 1:-1 2:-1 3:1 4:-1 5:-1 6:-1 9:1 10:-1 11:-1 12:-1 
31.9973786684517 32 29.74551594143025 32 0.3061337097946649 0 1:-1 2:-1 3:1 4:-1 5:-1 6:-1 9:1 10:-1 11:-1 12:-1 
0 0 0 32 0 0 1:1 2:-1 3:-1 4:-1 5:-1 6:-1 9:-1 10:1 11:-1 12:-1 
0 0 0 32 0 0 1:1 2:-1 3:-1 4:-1 5:-1 6:-1 9:-1 10:1 11:-1 12:-1 
0 0 0 32 0 0 1:1 2:-1 3:-1 4:-1 5:-1 6:-1 9:-1 10:1 11:-1 12:-1 
0.407587645312418 14.19674055165629 1.660558843189147 32 12.95755104812981 0 1:1 2:-1 3:-1 4:-1 5:-1 6:-1 9:-1 10:1 11:-1 12:-1 
31.076065220167 0.2839314431000284 32 2.427365380838154 0.3055257771949151 0 1:-1 2:-1 3:-1 4:-1 5:1 6:-1 9:1 10:-1 11:-1 12:-1 
4.52081171467166 0 0 0 0 0 1:1 2:-1 3:-1 4:-1 5:-1 6:-1 9:1 10:-1 11:-1 12:-1 
32 0 0 0 0 0 1:1 2:-1 3:-1 4:-1 5:-1 6:-1 9:1 10:-1 11:-1 12:-1 
32 0 0 0 0 0 1:1 2:-1 3:-1 4:-1 5:-1 6:-1 9:1 10:-1 11:-1 12:-1 
32 0 0 0 0 0 1:1 2:-1 3:-1 4:-1 5:-1 6:-1 9:1 10:-1 11:-1 12:-1 
32 0 0 0 0 0 1:1 2:-1 3:-1 4:-1 5:-1 6:-1 9:1 10:-1 11:-1 12:-1 
32 0 0 0 0 0 1:1 2:-1 3:-1 4:-1 5:-1 6:-1 9:1 10:-1 11:-1 12:-1 
32 0 0 0 0 0 1:1 2:-1 3:-1 4:-1 5:-1 6:-1 9:1 10:-1 11:-1 12:-1 
32 0 0 0 0 0 1:1 2:-1 3:-1 4:-1 5:-1 6:-1 9:1 10:-1 11:-1 12:-1 
32 0 0 0 0 0 1:1 2:-1 3:-1 4:-1 5:-1 6:-1 9:1 10:-1 11:-1 12:-1 
32 0 0 0 0 0 1:1 2:-1 3:-1 4:-1 5:-1 6:-1 9:1 10:-1 11:-1 12:-1 
32 0 0 0 0 0 1:1 2:-1 3:-1 4:-1 5:-1 6:-1 9:1 10:-1 11:-1 12:-1 
32 0 0 0 0 0 1:1 2:-1 3:-1 4:-1 5:-1 6:-1 9:1 10:-1 11:-1 12:-1 
32 0 0 0 0 0 1:1 2:-1 3:-1 4:-1 5:-1 6:-1 9:1 10:-1 11:-1 12:-1 
32 0 0 0 0 0 1:1 2:-1 3:-1 4:-1 5:-1 6:-1 9:1 10:-1 11:-1 12:-1 
32 0 0 0 0 0 1:1 2:-1 3:-1 4:-1 5:-1 6:-1 9:1 10:-1 11:-1 12:-1 
32 0 0 0 0 0 1:1 2:-1 3:-1 4:-1 5:-1 6:-1 9:1 10:-1 11:-1 12:-1 
32 0 0 0 0 0 1:1 2:-1 3:-1 4:-1 5:-1 6:-1 9:1 10:-1 11:-1 12:-1 
32 0 0 0 0 0 1:1 2:-1 3:-1 4:-1 5:-1 6:-1 9:1 10:-1 11:-1 12:-1 
32 0 0 0 0 0 1:1 2:-1 3:-1 4:-1 5:-1 6:-1 9:1 10:-1 11:-1 12:-1 
32 0 0 0 0 0 1:1 2:-1 3:-1 4:-1 5:-1 6:-1 9:1 10:-1 11:-1 12:-1 
32 0 0 0 0 0 1:1 2:-1 3:-1 4:-1 5:-1 6:-1 9:1 10:-1 11:-1 12:-1 
32 0 0 0 0 0 1:1 2:-1 3:-1 4:-1 5:-1 6:-1 9:1 10:-1 11:-1 12:-1 
32 0 0 0 0 0 1:1 2:-1 3:-1 4:-1 5:-1 6:-1 9:1 10:-1 11:-1 12:-1 
32 0 0 0 0 0 1:1 2:-1 3:-1 4:-1 5:-1 6:-1 9:1 10:-1 11:-1 12:-1 
32 0 0 0 0 0 1:1 2:-1 3:-1 4:-1 5:-1 6:-1 9:1 10:-1 11:-1 12:-1 
32 0 0 0 0 0 1:1 2:-1 3:-1 4:-1 5:-1 6:-1 9:1 10:-1 11:-1 12:-1 
32 0 0 0 0 0 1:1 2:-1 3:-1 4:-1 5:-1 6:-1 9:1 10:-1 11:-1 12:-1 
32 0 0 0 0 0 1:1 2:-1 3:-1 4:-1 5:-1 6:-1 9:1 10:-1 11:-1 12:-1 
32 0 0 0 0 0 1:1 2:-1 3:-1 4:-1 5:-1 6:-1 9:1 10:-1 11:-1 12:-1 
32 0 0 0 0 0 1:1 2:-1 3:-1 4:-1 5:-1 6:-1 9:1 10:-1 11:-1 12:-1 
32 0 0 0 0 0 1:1 2:-1 3:-1 4:-1 5:-1 6:-1 9:1 10:-1 11:-1 12:-1 
32 0 0 0 0 0 1:1 2:-1 3:-1 4:-1 5:-1 6:-1 9:1 10:-1 11:-1 12:-1 
32 0 0 0 0 0 1:1 2:-1 3:-1 4:-1 5:-1 6:-1 9:1 10:-1 11:-1 12:-1 
32 0 0 0 0 0 1:1 2:-1 3:-1 4:-1 5:-1 6:-1 9:1 10:-1 11:-1 12:-1 
32 0 0 0 0 0 1:1 2:-1 3:-1 4:-1 5:-1 6:-1 9:1 10:-1 11:-1 12:-1 
32 0 0 0 0 0 1:1 2:-1 3:-1 4:-1 5:-1 6:-1 9:1 10:-1 11:-1 12:-1 
32 0 0 0 0 0 1:1 2:-1 3:-1 4:-1 5:-1 6:-1 9:1 10:-1 11:-1 12:-1 
32 0 0 0 0 0 1:1 2:-1 3:-1 4:-1 5:-1 6:-1 9:1 10:-1 11:-1 12:-1 
32 0 0 0 0 0 1:1 2:-1 3:-1 4:-1 5:-1 6:-1 9:1 10:-1 11:-1 12:-1 
32 0 0 0 0 0 1:1 2:-1 3:-1 4:-1 5:-1 6:-1 9:1 10:-1 11:-1 12:-1 
32 0 0 0 0 0 1:1 2:-1 3:-1 4:-1 5:-1 6:-1 9:1 10:-1 11:-1 12:-1 
32 0 0 0 0 0 1:1 2:-1 3:-1 4:-1 5:-1 6:-1 9:1 10:-1 11:-1 12:-1 
32 0 0 0 0 0 1:1 2:-1 3:-1 4:-1 5:-1 6:-1 9:1 10:-1 11:-1 12:-1 
32 0 0 0 0 0 1:1 2:-1 3:-1 4:-1 5:-1 6:-1 9:1 10:-1 11:-1 12:-1 
32 0 0 0 0 0 1:1 2:-1 3:-1 4:-1 5:-1 6:-1 9:1 10:-1 11:-1 12:-1 
32 0 0 0 0 0 1:1 2:-1 3:-1 4:-1 5:-1 6:-1 9:1 10:-1 11:-1 12:-1 
32 0 0 0 0 0 1:1 2:-1 3:-1 4:-1 5:-1 6:-1 9:1 10:-1 11:-1 12:-1 
32 0 0 0 0 0 1:1 2:-1 3:-1 4:-1 5:-1 6:-1 9:1 10:-1 11:-1 12:-1 
32 0 0 0 0 0 1:1 2:-1 3:-1 4:-1 5:-1 6:-1 9:1 10:-1 11:-1 12:-1 
32 0 0 0 0 0 1:1 2:-1 3:-1 4:-1 5:-1 6:-1 9:1 10:-1 11:-1 12:-1 
32 0 0 0 0 0 1:1 2:-1 3:-1 4:-1 5:-1 6:-1 9:1 10:-1 11:-1 12:-1 
32 0 0 0 0 0 1:1 2:-1 3:-1 4:-1 5:-1 6:-1 9:1 10:-1 11:-1 12:-1 
32 0 0 0 0 0 1:1 2:-1 3:-1 4:-1 5:-1 6:-1 9:1 10:-1 11:-1 12:-1 
32 0 0 0 0 0 1:1 2:-1 3:-1 4:-1 5:-1 6:-1 9:1 10:-1 11:-1 12:-1 
32 0 0 0 0 0 1:1 2:-1 3:-1 4:-1 5:-1 6:-1 9:1 10:-1 11:-1 12:-1 
32 0 0 0 0 0 1:1 2:-1 3:-1 4:-1 5:-1 6:-1 9:1 10:-1 11:-1 12:-1 
32 0 0 0 0 0 1:1 2:-1 3:-1 4:-1 5:-1 6:-1 9:1 10:-1 11:-1 12:-1 
32 0 0 0 0 0 1:1 2:-1 3:-1 4:-1 5:-1 6:-1 9:1 10:-1 11:-1 12:-1 
32 0 0 0 0 0 1:1 2:-1 3:-1 4:-1 5:-1 6:-1 9:1 10:-1 11:-1 12:-1 
32 0 0 0 0 0 1:1 2:-1 3:-1 4:-1 5:-1 6:-1 9:1 10:-1 11:-1 12:-1 
32 0 0 0 0 0 1:1 2:-1 3:-1 4:-1 5:-1 6:-1 9:1 10:-1 11:-1 12:-1 
32 0 0 0 0 0 1:1 2:-1 3:-1 4:-1 5:-1 6:-1 9:1 10:-1 11:-1 12:-1 
32 0 0 0 0 0 1:1 2:-1 3:-1 4:-1 5:-1 6:-1 9:1 10:-1 11:-1 12:-1 
32 0 0 0 0 0 1:1 2:-1 3:-1 4:-1 5:-1 6:-1 9:1 10:-1 11:-1 12:-1 
32 0 0 0 0 0 1:1 2:-1 3:-1 4:-1 5:-1 6:-1 9:1 10:-1 11:-1 12:-1 
32 0 0 0 0 0 1:1 2:-1 3:-1 4:-1 5:-1 6:-1 9:1 10:-1 11:-1 12:-1 
32 0 4.52081171467166 0 0 0 1:1 2:-1 3:-1 4:-1 5:-1 6:-1 9:1 10:-1 11:-1 12:-1 
32 0 32 0 0 0 1:1 2:-1 3:-1 4:-1 5:-1 6:-1 9:1 10:-1 11:-1 12:-1 
32 0 32 0 0 0 1:1 2:-1 3:-1 4:-1 5:-1 6:-1 9:1 10:-1 11:-1 12:-1 
32 0 32 0 0 0 1:1 2:-1 3:-1 4:-1 5:-1 6:-1 9:1 10:-1 11:-1 12:-1 
32 0 32 0 0 0 1:1 2:-1 3:-1 4:-1 5:-1 6:-1 9:1 10:-1 11:-1 12:-1 
32 0 32 0 0 0 1:1 2:-1 3:-1 4:-1 5:-1 6:-1 9:1 10:-1 11:-1 12:-1 
32 0 32 0 0 0 1:1 2:-1 3:-1 4:-1 5:-1 6:-1 9:1 10:-1 11:-1 12:-1 
32 0 32 0 0 0 1:1 2:-1 3:-1 4:-1 5:-1 6:-1 9:1 10:-1 11:-1 12:-1 
32 0 32 0 0 0 1:1 2:-1 3:-1 4:-1 5:-1 6:-1 9:1 10:-1 11:-1 12:-1 
32 0 32 0 0 0 1:1 2:-1 3:-1 4:-1 5:-1 6:-1 9:1 10:-1 11:-1 12:-1 
32 0 32 0 0 0 1:1 2:-1 3:-1 4:-1 5:-1 6:-1 9:1 10:-1 11:-1 12:-1 
32 0 32 0 0 0 1:1 2:-1 3:-1 4:-1 5:-1 6:-1 9:1 10:-1 11:-1 12:-1 
32 0 32 0 0 0 1:1 2:-1 3:-1 4:-1 5:-1 6:-1 9:1 10:-1 11:-1 12:-1 
32 0 32 0 0 0 1:1 2:-1 3:-1 4:-1 5:-1 6:-1 9:1 10:-1 11:-1 12:-1 
32 0 32 0 0 0 1:1 2:-1 3:-1 4:-1 5:-1 6:-1 9:1 10:-1 11:-1 12:-1 
32 0 32 0 0 0 1:1 2:-1 3:-1 4:-1 5:-1 6:-1 9:1 10:-1 11:-1 12:-1 
32 0 32 0 0 0 1:1 2:-1 3:-1 4:-1 5:-1 6:-1 9:1 10:-1 11:-1 12:-1 
32 0 32 0 0 0 1:1 2:-1 3:-1 4:-1 5:-1 6:-1 9:1 10:-1 11:-1 12:-1 
32 0 32 0 0 0 1:1 2:-1 3:-1 4:-1 5:-1 6:-1 9:1 10:-1 11:-1 12:-1 
32 0 32 0 0 0 1:1 2:-1 3:-1 4:-1 5:-1 6:-1 9:1 10:-1 11:-1 12:-1 
32 0 32 0 0 0 1:1 2:-1 3:-1 4:-1 5:-1 6:-1 9:1 10:-1 11:-1 12:-1 
32 0 32 0 0 0 1:1 2:-1 3:-1 4:-1 5:-1 6:-1 9:1 10:-1 11:-1 12:-1 
32 0 32 0 0 0 1:1 2:-1 3:-1 4:-1 5:-1 6:-1 9:1 10:-1 11:-1 12:-1 
32 0 32 0 0 0 1:1 2:-1 3:-1 4:-1 5:-1 6:-1 9:1 10:-1 11:-1 12:-1 
32 0 32 0 0 0 1:1 2:-1 3:-1 4:-1 5:-1 6:-1 9:1 10:-1 11:-1 12:-1 
32 0 32 10.48914321861045 0 0 1:1 2:-1 3:-1 4:-1 5:-1 6:-1 9:1 10:-1 11:-1 12:-1 
32 0 32 32 0 0 1:1 2:-1 3:-1 4:-1 5:-1 6:-1 9:1 10:-1 11:-1 12:-1 
32 0 32 32 0 0 1:1 2:-1 3:-1 4:-1 5:-1 6:-1 9:1 10:-1 11:-1 12:-1 
32 0 32 32 0 0 1:1 2:-1 3:-1 4:-1 5:-1 6:-1 9:1 10:-1 11:-1 12:-1 
32 0 32 32 0 0 1:1 2:-1 3:-1 4:-1 5:-1 6:-1 9:1 10:-1 11:-1 12:-1 
32 0 32 32 0 0 1:1 2:-1 3:-1 4:-1 5:-1 6:-1 9:1 10:-1 11:-1 12:-1 
32 0 32 32 0 4.52081171467166 1:1 2:-1 3:-1 4:-1 5:-1 6:-1 9:1 10:-1 11:-1 12:-1 
32 0 32 32 0 32 1:1 2:-1 3:-1 4:-1 5:-1 6:-1 9:1 10:-1 11:-1 12:-1 
32 0 32 32 0 32 1:1 2:-1 3:-1 4:-1 5:-1 6:-1 9:1 10:-1 11:-1 12:-1 
32 0 32 32 0 32 1:1 2:-1 3:-1 4:-1 5:-1 6:-1 9:1 10:-1 11:-1 12:-1 
32 0 32 32 0 32 1:1 2:-1 3:-1 4:-1 5:-1 6:-1 9:1 10:-1 11:-1 12:-1 
32 0 32 32 0 32 1:1 2:-1 3:-1 4:-1 5:-1 6:-1 9:1 10:-1 11:-1 12:-1 
32 0 32 32 0 32 1:1 2:-1 3:-1 4:-1 5:-1 6:-1 9:1 10:-1 11:-1 12:-1 
32 0 32 32 0 32 1:1 2:-1 3:-1 4:-1 5:-1 6:-1 9:1 10:-1 11:-1 12:-1 
32 0 32 32 0 32 1:1 2:-1 3:-1 4:-1 5:-1 6:-1 9:1 10:-1 11:-1 12:-1 
32 4.52081171467166 32 32 4.52081171467166 32 1:1 2:-1 3:-1 4:-1 5:-1 6:-1 9:1 10:-1 11:-1 12:-1 
32 32 32 32 32 32 1:1 2:-1 3:-1 4:-1 5:-1 6:-1 9:1 10:-1 11:-1 12:-1 
32 32 32 32 32 32 1:1 2:-1 3:-1 4:-1 5:-1 6:-1 9:1 10:-1 11:-1 12:-1 
32 32 32 32 32 32 1:1 2:-1 3:-1 4:-1 5:-1 6:-1 9:1 10:-1 11:-1 12:-1 
32 32 32 32 32 32 1:1 2:-1 3:-1 4:-1 5:-1 6:-1 9:1 10:-1 11:-1 12:-1 
32 32 32 32 32 32 1:1 2:-1 3:-1 4:-1 5:-1 6:-1 9:1 10:-1 11:-1 12:-1 
32 32 32 32 32 32 1:1 2:-1 3:-1 4:-1 5:-1 6:-1 9:1 10:-1 11:-1 12:-1 
32 32 32 32 32 32 1:1 2:-1 3:-1 4:-1 5:-1 6:-1 9:1 10:-1 11:-1 12:-1 
32 32 32 32 32 32 1:1 2:-1 3:-1 4:-1 5:-1 6:-1 9:1 10:-1 11:-1 12:-1 
30.76036637160757 16.70879806955052 28.45318066988063 32 22.28208641231835 27.47918828532834 1:1 2:-1 3:-1 4:-1 5:-1 6:-1 9:1 10:-1 11:-1 12:-1 
-32 0 0 0 0 0 1:1 2:-1 3:-1 4:-1 5:-1 6:-1 9:1 10:-1 11:-1 12:-1 
-32 0 0 0 0 0 1:1 2:-1 3:-1 4:-1 5:-1 6:-1 9:1 10:-1 11:-1 12:-1 
-32 0 0 0 0 0 1:1 2:-1 3:-1 4:-1 5:-1 6:-1 9:1 10:-1 11:-1 12:-1 
-32 0 0 0 0 0 1:1 2:-1 3:-1 4:-1 5:-1 6:-1 9:1 10:-1 11:-1 12:-1 
-32 0 0 0 0 0 1:1 2:-1 3:-1 4:-1 5:-1 6:-1 9:1 10:-1 11:-1 12:-1 
-32 0 0 0 0 0 1:1 2:-1 3:-1 4:-1 5:-1 6:-1 9:1 10:-1 11:-1 12:-1 
-32 0 0 0 0 0 1:1 2:-1 3:-1 4:-1 5:-1 6:-1 9:1 10:-1 11:-1 12:-1 
-32 32 0 0 0 0 1:-1 2:-1 3:1 4:-1 5:-1 6:-1 9:1 10:-1 11:-1 12:-1 
-32 0 0 0 0 0 1:1 2:-1 3:-1 4:-1 5:-1 6:-1 9:1 10:-1 11:-1 12:-1 
-32 0 0 0 0 0 1:1 2:-1 3:-1 4:-1 5:-1 6:-1 9:1 10:-1 11:-1 12:-1 
-32 0 0 0 0 0 1:1 2:-1 3:-1 4:-1 5:-1 6:-1 9:1 10:-1 11:-1 12:-1 
-32 0 0 0 0 0 1:1 2:-1 3:-1 4:-1 5:-1 6:-1 9:1 10:-1 11:-1 12:-1 
-32 0 0 0 0 0 1:1 2:-1 3:-1 4:-1 5:-1 6:-1 9:1 10:-1 11:-1 12:-1 
-32 0 0 0 0 0 1:1 2:-1 3:-1 4:-1 5:-1 6:-1 9:1 10:-1 11:-1 12:-1 
-32 0 0 0 0 0 1:1 2:-1 3:-1 4:-1 5:-1 6:-1 9:1 10:-1 11:-1 12:-1 
-32 0 0 0 0 0 1:1 2:-1 3:-1 4:-1 5:-1 6:-1 9:1 10:-1 11:-1 12:-1 
-32 0 0 0 0 0 1:1 2:-1 3:-1 4:-1 5:-1 6:-1 9:1 10:-1 11:-1 12:-1 
-32 0 0 0 0 0 1:1 2:-1 3:-1 4:-1 5:-1 6:-1 9:1 10:-1 11:-1 12:-1 
-32 0 0 0 0 0 1:1 2:-1 3:-1 4:-1 5:-1 6:-1 9:1 10:-1 11:-1 12:-1 
-32 0 0 0 0 0 1:1 2:-1 3:-1 4:-1 5:-1 6:-1 9:1 10:-1 11:-1 12:-1 
-32 0 0 0 0 0 1:1 2:-1 3:-1 4:-1 5:-1 6:-1 9:1 10:-1 11:-1 12:-1 
-32 0 0 0 0 0 1:1 2:-1 3:-1 4:-1 5:-1 6:-1 9:1 10:-1 11:-1 12:-1 
-32 0 0 0 0 0 1:1 2:-1 3:-1 4:-1 5:-1 6:-1 9:1 10:-1 11:-1 12:-1 
-32 0 0 0 0 0 1:1 2:-1 3:-1 4:-1 5:-1 6:-1 9:1 10:-1 11:-1 12:-1 
-32 0 0 0 0 0 1:1 2:-1 3:-1 4:-1 5:-1 6:-1 9:1 10:-1 11:-1 12:-1 
-32 32 0 0 0 0 1:-1 2:-1 3:1 4:-1 5:-1 6:-1 9:1 10:-1 11:-1 12:-1 
-32 0 0 0 0 0 1:1 2:-1 3:-1 4:-1 5:-1 6:-1 9:1 10:-1 11:-1 12:-1 
-32 0 0 0 0 0 1:1 2:-1 3:-1 4:-1 5:-1 6:-1 9:1 10:-1 11:-1 12:-1 
-32 0 0 0 0 0 1:1 2:-1 3:-1 4:-1 5:-1 6:-1 9:1 10:-1 11:-1 12:-1 
-32 0 0 0 0 0 1:1 2:-1 3:-1 4:-1 5:-1 6:-1 9:1 10:-1 11:-1 12:-1 
-32 0 0 0 0 0 1:1 2:-1 3:-1 4:-1 5:-1 6:-1 9:1 10:-1 11:-1 12:-1 
-32 0 0 0 0 0 1:1 2:-1 3:-1 4:-1 5:-1 6:-1 9:1 10:-1 11:-1 12:-1 
-0 0 0 32 0 0 1:-1 2:1 3:-1 4:-1 5:-1 6:-1 9:1 10:-1 11:-1 12:-1 
-32 0 0 0 0 0 1:1 2:-1 3:-1 4:-1 5:-1 6:-1 9:1 10:-1 11:-1 12:-1 
-32 0 0 0 0 0 1:1 2:-1 3:-1 4:-1 5:-1 6:-1 9:1 10:-1 11:-1 12:-1 
-32 0 0 0 0 0 1:1 2:-1 3:-1 4:-1 5:-1 6:-1 9:1 10:-1 11:-1 12:-1 
-32 0 0 0 0 0 1:1 2:-1 3:-1 4:-1 5:-1 6:-1 9:1 10:-1 11:-1 12:-1 
-32 0 0 0 0 0 1:1 2:-1 3:-1 4:-1 5:-1 6:-1 9:1 10:-1 11:-1 12:-1 
-32 0 0 0 0 0 1:1 2:-1 3:-1 4:-1 5:-1 6:-1 9:1 10:-1 11:-1 12:-1 
-32 0 0 0 0 0 1:1 2:-1 3:-1 4:-1 5:-1 6:-1 9:1 10:-1 11:-1 12:-1 
-32 0 0 0 0 0 1:1 2:-1 3:-1 4:-1 5:-1 6:-1 9:1 10:-1 11:-1 12:-1 
-0 0 0 32 0 0 1:-1 2:1 3:-1 4:-1 5:-1 6:-1 9:1 10:-1 11:-1 12:-1 
-32 0 0 0 0 0 1:1 2:-1 3:-1 4:-1 5:-1 6:-1 9:1 10:-1 11:-1 12:-1 
-32 0 0 0 0 0 1:1 2:-1 3:-1 4:-1 5:-1 6:-1 9:1 10:-1 11:-1 12:-1 
-32 0 0 0 0 0 1:1 2:-1 3:-1 4:-1 5:-1 6:-1 9:1 10:-1 11:-1 12:-1 
-32 0 0 0 0 0 1:1 2:-1 3:-1 4:-1 5:-1 6:-1 9:1 10:-1 11:-1 12:-1 
-32 0 0 0 0 0 1:1 2:-1 3:-1 4:-1 5:-1 6:-1 9:1 10:-1 11:-1 12:-1 
-32 0 0 0 0 0 1:1 2:-1 3:-1 4:-1 5:-1 6:-1 9:1 10:-1 11:-1 12:-1 
-32 0 0 0 0 0 1:1 2:-1 3:-1 4:-1 5:-1 6:-1 9:1 10:-1 11:-1 12:-1 
-32 0 0 0 0 0 1:1 2:-1 3:-1 4:-1 5:-1 6:-1 9:1 10:-1 11:-1 12:-1 
-32 0 0 0 0 0 1:1 2:-1 3:-1 4:-1 5:-1 6:-1 9:1 10:-1 11:-1 12:-1 
-5.651014643339574 0 0 32 0 0 1:-1 2:1 3:-1 4:-1 5:-1 6:-1 9:1 10:-1 11:-1 12:-1 
-32 0 0 0 0 0 1:1 2:-1 3:-1 4:-1 5:-1 6:-1 9:1 10:-1 11:-1 12:-1 
-32 0 0 0 0 0 1:1 2:-1 3:-1 4:-1 5:-1 6:-1 9:1 10:-1 11:-1 12:-1 
-32 0 0 0 0 0 1:1 2:-1 3:-1 4:-1 5:-1 6:-1 9:1 10:-1 11:-1 12:-1 
-32 0 0 0 0 0 1:1 2:-1 3:-1 4:-1 5:-1 6:-1 9:1 10:-1 11:-1 12:-1 
-32 0 0 0 0 0 1:1 2:-1 3:-1 4:-1 5:-1 6:-1 9:1 10:-1 11:-1 12:-1 
-32 0 0 0 0 0 1:1 2:-1 3:-1 4:-1 5:-1 6:-1 9:1 10:-1 11:-1 12:-1 
-32 0 0 0 0 0 1:1 2:-1 3:-1 4:-1 5:-1 6:-1 9:1 10:-1 11:-1 12:-1 
-32 0 0 0 0 0 1:1 2:-1 3:-1 4:-1 5:-1 6:-1 9:1 10:-1 11:-1 12:-1 
-32 0 0 0 0 0 1:1 2:-1 3:-1 4:-1 5:-1 6:-1 9:1 10:-1 11:-1 12:-1 
-32 0 0 0 0 0 1:1 2:-1 3:-1 4:-1 5:-1 6:-1 9:1 10:-1 11:-1 12:-1 
-32 0 0 0 0 0 1:1 2:-1 3:-1 4:-1 5:-1 6:-1 9:1 10:-1 11:-1 12:-1 
-32 0 0 0 0 0 1:1 2:-1 3:-1 4:-1 5:-1 6:-1 9:1 10:-1 11:-1 12:-1 
-32 0 0 0 0 0 1:1 2:-1 3:-1 4:-1 5:-1 6:-1 9:1 10:-1 11:-1 12:-1 
-32 0 0 0 0 0 1:1 2:-1 3:-1 4:-1 5:-1 6:-1 9:1 10:-1 11:-1 12:-1 
-32 0 0 0 0 0 1:1 2:-1 3:-1 4:-1 5:-1 6:-1 9:1 10:-1 11:-1 12:-1 
-32 0 0 0 0 0 1:1 2:-1 3:-1 4:-1 5:-1 6:-1 9:1 10:-1 11:-1 12:-1 
-32 0 0 0 0 0 1:1 2:-1 3:-1 4:-1 5:-1 6:-1 9:1 10:-1 11:-1 12:-1 
-32 0 0 0 0 0 1:1 2:-1 3:-1 4:-1 5:-1 6:-1 9:1 10:-1 11:-1 12:-1 
-32 0 2.260405857335831 0 0 0 1:1 2:-1 3:-1 4:-1 5:-1 6:-1 9:1 10:-1 11:-1 12:-1 
-32 0 32 0 0 0 1:1 2:-1 3:-1 4:-1 5:-1 6:-1 9:1 10:-1 11:-1 12:-1 
-32 0 32 0 0 0 1:1 2:-1 3:-1 4:-1 5:-1 6:-1 9:1 10:-1 11:-1 12:-1 
-32 0 32 0 0 0 1:1 2:-1 3:-1 4:-1 5:-1 6:-1 9:1 10:-1 11:-1 12:-1 
-32 32 0 0 0 0 1:-1 2:-1 3:1 4:-1 5:-1 6:-1 9:1 10:-1 11:-1 12:-1 
-32 0 32 0 0 0 1:1 2:-1 3:-1 4:-1 5:-1 6:-1 9:1 10:-1 11:-1 12:-1 
-32 0 0 32 0 0 1:-1 2:1 3:-1 4:-1 5:-1 6:-1 9:1 10:-1 11:-1 12:-1 
-32 0 32 0 0 0 1:1 2:-1 3:-1 4:-1 5:-1 6:-1 9:1 10:-1 11:-1 12:-1 
-32 0 32 0 0 0 1:1 2:-1 3:-1 4:-1 5:-1 6:-1 9:1 10:-1 11:-1 12:-1 
-32 0 32 0 0 0 1:1 2:-1 3:-1 4:-1 5:-1 6:-1 9:1 10:-1 11:-1 12:-1 
-32 0 32 0 0 0 1:1 2:-1 3:-1 4:-1 5:-1 6:-1 9:1 10:-1 11:-1 12:-1 
-32 0 0 32 3.744894049276569 0 1:-1 2:1 3:-1 4:-1 5:-1 6:-1 9:1 10:-1 11:-1 12:-1 
-32 0 32 0 0 0 1:1 2:-1 3:-1 4:-1 5:-1 6:-1 9:1 10:-1 11:-1 12:-1 
-32 0 32 0 0 0 1:1 2:-1 3:-1 4:-1 5:-1 6:-1 9:1 10:-1 11:-1 12:-1 
-32 32 0 0 0 0 1:-1 2:-1 3:1 4:-1 5:-1 6:-1 9:1 10:-1 11:-1 12:-1 
-32 0 32 0 0 0 1:1 2:-1 3:-1 4:-1 5:-1 6:-1 9:1 10:-1 11:-1 12:-1 
-32 0 31.96902722494867 32 32 0 1:-1 2:1 3:-1 4:-1 5:-1 6:-1 9:1 10:-1 11:-1 12:-1 
-32 0 32 0 0 0 1:1 2:-1 3:-1 4:-1 5:-1 6:-1 9:1 10:-1 11:-1 12:-1 
-32 0 32 0 0 0 1:1 2:-1 3:-1 4:-1 5:-1 6:-1 9:1 10:-1 11:-1 12:-1 
-32 0 32 0 0 0 1:1 2:-1 3:-1 4:-1 5:-1 6:-1 9:1 10:-1 11:-1 12:-1 
-32 32 0 0 0 0 1:-1 2:-1 3:1 4:-1 5:-1 6:-1 9:1 10:-1 11:-1 12:-1 
-32 0 32 0 0 0 1:1 2:-1 3:-1 4:-1 5:-1 6:-1 9:1 10:-1 11:-1 12:-1 
-32 0 32 0 0 0 1:1 2:-1 3:-1 4:-1 5:-1 6:-1 9:1 10:-1 11:-1 12:-1 
-32 0 32 0 0 0 1:1 2:-1 3:-1 4:-1 5:-1 6:-1 9:1 10:-1 11:-1 12:-1 
-32 0 32 0 0 0 1:1 2:-1 3:-1 4:-1 5:-1 6:-1 9:1 10:-1 11:-1 12:-1 
-32 32 0 1.948252001816389 0 0 1:-1 2:-1 3:1 4:-1 5:-1 6:-1 9:1 10:-1 11:-1 12:-1 
-32 2.00302126025793 32 1.947054871037792 0.3879588326975452 0 1:-1 2:-1 3:-1 4:-1 5:1 6:-1 9:1 10:-1 11:-1 12:-1 
-32 0 32 0 0 0 1:1 2:-1 3:-1 4:-1 5:-1 6:-1 9:1 10:-1 11:-1 12:-1 
-32 0 32 0 0 0 1:1 2:-1 3:-1 4:-1 5:-1 6:-1 9:1 10:-1 11:-1 12:-1 
-32 0 32 0 0 0 1:1 2:-1 3:-1 4:-1 5:-1 6:-1 9:1 10:-1 11:-1 12:-1 
-32 0 32 0 0 0 1:1 2:-1 3:-1 4:-1 5:-1 6:-1 9:1 10:-1 11:-1 12:-1 
-32 0 32 0 0 0 1:1 2:-1 3:-1 4:-1 5:-1 6:-1 9:1 10:-1 11:-1 12:-1 
-32 0 32 0 0 0 1:1 2:-1 3:-1 4:-1 5:-1 6:-1 9:1 10:-1 11:-1 12:-1 
-32 0 32 10.02807415947002 0 0 1:1 2:-1 3:-1 4:-1 5:-1 6:-1 9:1 10:-1 11:-1 12:-1 
-32 0 32 32 0 0 1:1 2:-1 3:-1 4:-1 5:-1 6:-1 9:1 10:-1 11:-1 12:-1 
-32 0 32 32 0 0 1:1 2:-1 3:-1 4:-1 5:-1 6:-1 9:1 10:-1 11:-1 12:-1 
-32 0 32 32 0 0 1:1 2:-1 3:-1 4:-1 5:-1 6:-1 9:1 10:-1 11:-1 12:-1 
-32 0 32 32 0 0 1:1 2:-1 3:-1 4:-1 5:-1 6:-1 9:1 10:-1 11:-1 12:-1 
-32 0 32 32 0 0 1:1 2:-1 3:-1 4:-1 5:-1 6:-1 9:1 10:-1 11:-1 12:-1 
-32 5.43741348813759 32 32 32 0 1:-1 2:1 3:-1 4:-1 5:-1 6:-1 9:1 10:-1 11:-1 12:-1 
-32 0 32 32 0 0 1:1 2:-1 3:-1 4:-1 5:-1 6:-1 9:1 10:-1 11:-1 12:-1 
-32 0 32 32 0 32 1:1 2:-1 3:-1 4:-1 5:-1 6:-1 9:1 10:-1 11:-1 12:-1 
-32 32 4.52081171467166 32 0 0 1:-1 2:-1 3:1 4:-1 5:-1 6:-1 9:1 10:-1 11:-1 12:-1 
-32 0 32 32 0 32 1:1 2:-1 3:-1 4:-1 5:-1 6:-1 9:1 10:-1 11:-1 12:-1 
-32 0 32 32 0 32 1:1 2:-1 3:-1 4:-1 5:-1 6:-1 9:1 10:-1 11:-1 12:-1 
-32 0 32 32 0 32 1:1 2:-1 3:-1 4:-1 5:-1 6:-1 9:1 10:-1 11:-1 12:-1 
-32 0 32 32 0 32 1:1 2:-1 3:-1 4:-1 5:-1 6:-1 9:1 10:-1 11:-1 12:-1 
-32 32 29.30308214606954 31.99645904760052 0.3873965862454282 0 1:-1 2:-1 3:1 4:-1 5:-1 6:-1 9:1 10:-1 11:-1 12:-1 
-32 0 32 32 0 32 1:1 2:-1 3:-1 4:-1 5:-1 6:-1 9:1 10:-1 11:-1 12:-1 
-31.79200112652134 32 32 32 31.70464510000264 32 1:-1 2:1 3:-1 4:-1 5:-1 6:-1 9:1 10:-1 11:-1 12:-1 
-32 0 32 32 0 32 1:1 2:-1 3:-1 4:-1 5:-1 6:-1 9:1 10:-1 11:-1 12:-1 
-32 0 32 32 0 32 1:1 2:-1 3:-1 4:-1 5:-1 6:-1 9:1 10:-1 11:-1 12:-1 
-32 4.52081171467166 32 32 2.104592070879719 32 1:1 2:-1 3:-1 4:-1 5:-1 6:-1 9:1 10:-1 11:-1 12:-1 
-32 32 32 32 32 32 1:1 2:-1 3:-1 4:-1 5:-1 6:-1 9:1 10:-1 11:-1 12:-1 
-32 32 2.378555186292801 32 32 0 1:-1 2:1 3:-1 4:-1 5:-1 6:-1 9:-1 10:1 11:-1 12:-1 
-5.442125162956358 2.002935159430645 1.823109892015892 1.947054871037792 0.3843954684950617 8.881784197001252e-16 1:-1 2:-1 3:-1 4:-1 5:-1 6:1 9:1 10:-1 11:-1 12:-1 
-32 32 32 32 32 32 1:1 2:-1 3:-1 4:-1 5:-1 6:-1 9:1 10:-1 11:-1 12:-1 
-32 32 32 32 32 32 1:1 2:-1 3:-1 4:-1 5:-1 6:-1 9:1 10:-1 11:-1 12:-1 
-32 32 32 32 32 32 1:1 2:-1 3:-1 4:-1 5:-1 6:-1 9:1 10:-1 11:-1 12:-1 
-32 32 32 32 32 32 1:1 2:-1 3:-1 4:-1 5:-1 6:-1 9:1 10:-1 11:-1 12:-1 
-32 32 32 32 32 32 1:1 2:-1 3:-1 4:-1 5:-1 6:-1 9:1 10:-1 11:-1 12:-1 
-32 32 32 32 32 32 1:1 2:-1 3:-1 4:-1 5:-1 6:-1 9:1 10:-1 11:-1 12:-1 
-32 32 32 32 32 32 1:1 2:-1 3:-1 4:-1 5:-1 6:-1 9:1 10:-1 11:-1 12:-1 
-32 29.48225499846611 31.56299739547761 32 32 32 1:1 2:-1 3:-1 4:-1 5:-1 6:-1 9:1 10:-1 11:-1 12:-1 
-32 -0 0 0 0 0 1:-1 2:-1 3:1 4:-1 5:-1 6:-1 9:1 10:-1 11:-1 12:-1 
-32 -32 32 32 32 32 1:1 2:-1 3:-1 4:-1 5:-1 6:-1 9:1 10:-1 11:-1 12:-1 
-32 -32 32 32 32 32 1:1 2:-1 3:-1 4:-1 5:-1 6:-1 9:1 10:-1 11:-1 12:-1 
-0 -0 0 32 0 0 1:-1 2:1 3:-1 4:-1 5:-1 6:-1 9:-1 10:1 11:-1 12:-1 
-0 -0 0 32 0 0 1:-1 2:1 3:-1 4:-1 5:-1 6:-1 9:-1 10:1 11:-1 12:-1 
-0 -0 0 32 0 0 1:-1 2:1 3:-1 4:-1 5:-1 6:-1 9:-1 10:1 11:-1 12:-1 
-0 -0 0 32 0 0 1:-1 2:1 3:-1 4:-1 5:-1 6:-1 9:-1 10:1 11:-1 12:-1 
-32 -8.541623400820338 0 0 0 0 1:-1 2:-1 3:1 4:-1 5:-1 6:-1 9:1 10:-1 11:-1 12:-1 
-32 -32 0 0 0 0 1:-1 2:-1 3:1 4:-1 5:-1 6:-1 9:1 10:-1 11:-1 12:-1 
-32 -32 0 0 0 0 1:-1 2:-1 3:1 4:-1 5:-1 6:-1 9:1 10:-1 11:-1 12:-1 
-0 -0 0 32 6.043323307274946 0 1:-1 2:1 3:-1 4:-1 5:-1 6:-1 9:-1 10:1 11:-1 12:-1 
-8.776449154753312 -4.520811714671659 0 32 32 0 1:-1 2:1 3:-1 4:-1 5:-1 6:-1 9:-1 10:1 11:-1 12:-1 
-32 -32 32 32 32 32 1:-1 2:1 3:-1 4:-1 5:-1 6:-1 9:1 10:-1 11:-1 12:-1 
-31.99797172582556 -31.8869366363796 9.625623249385892 32 31.8255784793156 1.479345172301685 1:-1 2:1 3:-1 4:-1 5:-1 6:-1 9:-1 10:1 11:-1 12:-1 
-32 -32 0 0 0 0 1:-1 2:-1 3:1 4:-1 5:-1 6:-1 9:1 10:-1 11:-1 12:-1 
-32 -32 0 0 0 0 1:-1 2:-1 3:1 4:-1 5:-1 6:-1 9:1 10:-1 11:-1 12:-1 
-32 -32 0 0 0 0 1:-1 2:-1 3:1 4:-1 5:-1 6:-1 9:1 10:-1 11:-1 12:-1 
-32 -32 32 32 32 32 1:1 2:-1 3:-1 4:-1 5:-1 6:-1 9:1 10:-1 11:-1 12:-1 
-32 -32 32 32 32 32 1:1 2:-1 3:-1 4:-1 5:-1 6:-1 9:1 10:-1 11:-1 12:-1 
-32 -32 32 32 32 32 1:1 2:-1 3:-1 4:-1 5:-1 6:-1 9:1 10:-1 11:-1 12:-1 
-32 -32 32 32 32 32 1:1 2:-1 3:-1 4:-1 5:-1 6:-1 9:1 10:-1 11:-1 12:-1 
-32 -32 0 3.11261535272919 0 0 1:-1 2:-1 3:1 4:-1 5:-1 6:-1 9:1 10:-1 11:-1 12:-1 
-32 -32 7.474927632585112 32 0 0 1:-1 2:-1 3:1 4:-1 5:-1 6:-1 9:1 10:-1 11:-1 12:-1 
-32 -30.49706486909234 32 32 5.68457471672116 3.781139128520819 1:-1 2:-1 3:1 4:-1 5:-1 6:-1 9:1 10:-1 11:-1 12:-1 
-32 -32 32 32 32 32 1:1 2:-1 3:-1 4:-1 5:-1 6:-1 9:1 10:-1 11:-1 12:-1 
-32 -32 32 32 32 32 1:1 2:-1 3:-1 4:-1 5:-1 6:-1 9:1 10:-1 11:-1 12:-1 
-7.388193237744072 -0 0 3.118054407837858 0 0 1:-1 2:-1 3:1 4:-1 5:-1 6:-1 9:-1 10:1 11:-1 12:-1 
-32 -32 32 32 32 32 1:1 2:-1 3:-1 4:-1 5:-1 6:-1 9:1 10:-1 11:-1 12:-1 
-3.164196537620076 -0 0 0.613165363874474 0 0 1:-1 2:-1 3:1 4:-1 5:-1 6:-1 9:-1 10:-1 11:1 12:-1 
-32 -32 -0 32 32 0 1:-1 2:1 3:-1 4:-1 5:-1 6:-1 9:1 10:-1 11:-1 12:-1 
-32 -32 -9.065665661656862 32 32 0 1:-1 2:1 3:-1 4:-1 5:-1 6:-1 9:1 10:-1 11:-1 12:-1 
-32 -32 -0 0 0 0 1:1 2:-1 3:-1 4:-1 5:-1 6:-1 9:1 10:-1 11:-1 12:-1 
-32 -32 -0 0 0 0 1:1 2:-1 3:-1 4:-1 5:-1 6:-1 9:1 10:-1 11:-1 12:-1 
-32 -32 -0 0 0 0 1:1 2:-1 3:-1 4:-1 5:-1 6:-1 9:1 10:-1 11:-1 12:-1 
-32 -32 -0 0 0 0 1:1 2:-1 3:-1 4:-1 5:-1 6:-1 9:1 10:-1 11:-1 12:-1 
-32 -32 -0 0 0 0 1:1 2:-1 3:-1 4:-1 5:-1 6:-1 9:1 10:-1 11:-1 12:-1 
-32 -32 -0 0 0 0 1:1 2:-1 3:-1 4:-1 5:-1 6:-1 9:1 10:-1 11:-1 12:-1 
-32 -32 -0 0 0 0 1:1 2:-1 3:-1 4:-1 5:-1 6:-1 9:1 10:-1 11:-1 12:-1 
-32 -32 -0 0 0 0 1:1 2:-1 3:-1 4:-1 5:-1 6:-1 9:1 10:-1 11:-1 12:-1 
-32 -32 -0 0 0 0 1:1 2:-1 3:-1 4:-1 5:-1 6:-1 9:1 10:-1 11:-1 12:-1 
-32 -32 -0 0 0 0 1:1 2:-1 3:-1 4:-1 5:-1 6:-1 9:1 10:-1 11:-1 12:-1 
-32 -32 -0 0 0 0 1:1 2:-1 3:-1 4:-1 5:-1 6:-1 9:1 10:-1 11:-1 12:-1 
-32 -32 -0 0 0 0 1:1 2:-1 3:-1 4:-1 5:-1 6:-1 9:1 10:-1 11:-1 12:-1 
-32 -32 -0 0 0 0 1:1 2:-1 3:-1 4:-1 5:-1 6:-1 9:1 10:-1 11:-1 12:-1 
-32 -32 -0 0 0 0 1:1 2:-1 3:-1 4:-1 5:-1 6:-1 9:1 10:-1 11:-1 12:-1 
-32 -32 -0 0 0 0 1:1 2:-1 3:-1 4:-1 5:-1 6:-1 9:1 10:-1 11:-1 12:-1 
-32 -32 -0 0 0 0 1:1 2:-1 3:-1 4:-1 5:-1 6:-1 9:1 10:-1 11:-1 12:-1 
-32 -32 -0 0 0 0 1:1 2:-1 3:-1 4:-1 5:-1 6:-1 9:1 10:-1 11:-1 12:-1 
-32 -32 -0 0 0 0 1:1 2:-1 3:-1 4:-1 5:-1 6:-1 9:1 10:-1 11:-1 12:-1 
-32 -32 -0 0 0 0 1:1 2:-1 3:-1 4:-1 5:-1 6:-1 9:1 10:-1 11:-1 12:-1 
-3.416199804884676 -2.71795394147229 -6.474652580902859 8.07401778979688 4.520811714671662 0 1:-1 2:-1 3:-1 4:-1 5:1 6:-1 9:-1 10:1 11:-1 12:-1 
-32 -32 -0 0 0 0 1:1 2:-1 3:-1 4:-1 5:-1 6:-1 9:1 10:-1 11:-1 12:-1 
-32 -32 -0 0 0 0 1:1 2:-1 3:-1 4:-1 5:-1 6:-1 9:1 10:-1 11:-1 12:-1 
-32 -32 -0 0 0 0 1:1 2:-1 3:-1 4:-1 5:-1 6:-1 9:1 10:-1 11:-1 12:-1 
-32 -32 -31.99550490212093 32 32 32 1:-1 2:1 3:-1 4:-1 5:-1 6:-1 9:1 10:-1 11:-1 12:-1 
-32 -32 -0 0 0 0 1:1 2:-1 3:-1 4:-1 5:-1 6:-1 9:1 10:-1 11:-1 12:-1 
-32 -32 -0 0 0 0 1:1 2:-1 3:-1 4:-1 5:-1 6:-1 9:1 10:-1 11:-1 12:-1 
-32 -32 -0 12.38372127610795 0 0 1:1 2:-1 3:-1 4:-1 5:-1 6:-1 9:1 10:-1 11:-1 12:-1 
-32 -32 -0 32 0 0 1:1 2:-1 3:-1 4:-1 5:-1 6:-1 9:1 10:-1 11:-1 12:-1 
-32 -32 -0 32 0 0 1:1 2:-1 3:-1 4:-1 5:-1 6:-1 9:1 10:-1 11:-1 12:-1 
-32 -32 -0 32 0 0 1:1 2:-1 3:-1 4:-1 5:-1 6:-1 9:1 10:-1 11:-1 12:-1 
-32 -32 -0 32 0 0 1:1 2:-1 3:-1 4:-1 5:-1 6:-1 9:1 10:-1 11:-1 12:-1 
-32 -32 -0 32 0 0 1:1 2:-1 3:-1 4:-1 5:-1 6:-1 9:1 10:-1 11:-1 12:-1 
-32 -32 -0 32 0 0 1:1 2:-1 3:-1 4:-1 5:-1 6:-1 9:1 10:-1 11:-1 12:-1 
-32 -32 -0 32 0 32 1:1 2:-1 3:-1 4:-1 5:-1 6:-1 9:1 10:-1 11:-1 12:-1 
-32 -32 -0 32 0 32 1:1 2:-1 3:-1 4:-1 5:-1 6:-1 9:1 10:-1 11:-1 12:-1 
-32 -32 -0 32 0 32 1:1 2:-1 3:-1 4:-1 5:-1 6:-1 9:1 10:-1 11:-1 12:-1 
-32 -32 -0 32 0 32 1:1 2:-1 3:-1 4:-1 5:-1 6:-1 9:1 10:-1 11:-1 12:-1 
-32 -32 -0 32 0 32 1:1 2:-1 3:-1 4:-1 5:-1 6:-1 9:1 10:-1 11:-1 12:-1 
-32 -32 -0 32 0 32 1:1 2:-1 3:-1 4:-1 5:-1 6:-1 9:1 10:-1 11:-1 12:-1 
-32 -32 -0 32 0 32 1:1 2:-1 3:-1 4:-1 5:-1 6:-1 9:1 10:-1 11:-1 12:-1 
-32 -32 -32 32 0.8510632633019372 0 1:-1 2:-1 3:1 4:-1 5:-1 6:-1 9:1 10:-1 11:-1 12:-1 
-32 -32 -0 32 0 32 1:1 2:-1 3:-1 4:-1 5:-1 6:-1 9:1 10:-1 11:-1 12:-1 
-32 -32 -2.614691120608656 32 3.858269710357288 32 1:1 2:-1 3:-1 4:-1 5:-1 6:-1 9:1 10:-1 11:-1 12:-1 
-32 -32 -32 32 32 32 1:1 2:-1 3:-1 4:-1 5:-1 6:-1 9:1 10:-1 11:-1 12:-1 
-32 -32 -32 32 32 32 1:1 2:-1 3:-1 4:-1 5:-1 6:-1 9:1 10:-1 11:-1 12:-1 
-32 -32 -32 32 32 32 1:1 2:-1 3:-1 4:-1 5:-1 6:-1 9:1 10:-1 11:-1 12:-1 
-32 -32 -32 32 32 32 1:1 2:-1 3:-1 4:-1 5:-1 6:-1 9:1 10:-1 11:-1 12:-1 
-32 -32 -32 32 32 32 1:1 2:-1 3:-1 4:-1 5:-1 6:-1 9:1 10:-1 11:-1 12:-1 
-32 -32 -32 32 32 32 1:1 2:-1 3:-1 4:-1 5:-1 6:-1 9:1 10:-1 11:-1 12:-1 
-32 -32 -32 32 32 32 1:1 2:-1 3:-1 4:-1 5:-1 6:-1 9:1 10:-1 11:-1 12:-1 
-32 -32 -32 32 32 32 1:1 2:-1 3:-1 4:-1 5:-1 6:-1 9:1 10:-1 11:-1 12:-1 
-32 -32 -30.9500366166817 32 32 32 1:1 2:-1 3:-1 4:-1 5:-1 6:-1 9:1 10:-1 11:-1 12:-1 
-9.041623429343318 -0 -0 0 0 0 1:-1 2:-1 3:-1 4:-1 5:1 6:-1 9:1 10:-1 11:-1 12:-1 
-32 -0 -0 0 0 0 1:-1 2:-1 3:-1 4:-1 5:1 6:-1 9:1 10:-1 11:-1 12:-1 
-32 -5.100035475339707 -0 0 0 0 1:-1 2:-1 3:-1 4:-1 5:1 6:-1 9:1 10:-1 11:-1 12:-1 
-27.07669281120311 -32 -0 0 0 8.881784197001252e-16 1:-1 2:-1 3:-1 4:-1 5:1 6:-1 9:1 10:-1 11:-1 12:-1 
-0.369068006125656 -0.403398495277779 -0.4141772771344172 -0 32 0 1:-1 2:1 3:-1 4:-1 5:-1 6:-1 9:-1 10:-1 11:-1 12:1 
-10.3541931764952 -0 -0 -0 0 0 1:1 2:-1 3:-1 4:-1 5:-1 6:-1 9:-1 10:1 11:-1 12:-1 
-32 -0 -0 -0 0 0 1:1 2:-1 3:-1 4:-1 5:-1 6:-1 9:-1 10:1 11:-1 12:-1 
-32 -0 -0 -0 0 0 1:1 2:-1 3:-1 4:-1 5:-1 6:-1 9:-1 10:1 11:-1 12:-1 
-32 -0 -0 -0 0 0 1:1 2:-1 3:-1 4:-1 5:-1 6:-1 9:-1 10:1 11:-1 12:-1 
-32 -0 -0 -0 0 0 1:1 2:-1 3:-1 4:-1 5:-1 6:-1 9:-1 10:1 11:-1 12:-1 
-32 -0 -0 -0 0 0 1:1 2:-1 3:-1 4:-1 5:-1 6:-1 9:-1 10:1 11:-1 12:-1 
-32 -0 -0 -0 0 0 1:1 2:-1 3:-1 4:-1 5:-1 6:-1 9:-1 10:1 11:-1 12:-1 
-32 -0 -0 -0 0 0 1:1 2:-1 3:-1 4:-1 5:-1 6:-1 9:-1 10:1 11:-1 12:-1 
-32 -0 -0 -0 0 0 1:1 2:-1 3:-1 4:-1 5:-1 6:-1 9:-1 10:1 11:-1 12:-1 
-32 -32 -0 -32 0 0 1:1 2:-1 3:-1 4:-1 5:-1 6:-1 9:1 10:-1 11:-1 12:-1 
-32 -32 -0 -32 0 0 1:1 2:-1 3:-1 4:-1 5:-1 6:-1 9:1 10:-1 11:-1 12:-1 
-32 -32 -0 -32 0 0 1:1 2:-1 3:-1 4:-1 5:-1 6:-1 9:1 10:-1 11:-1 12:-1 
-32 -32 -0 -32 0 0 1:1 2:-1 3:-1 4:-1 5:-1 6:-1 9:1 10:-1 11:-1 12:-1 
-32 -32 -0 -32 0 0 1:1 2:-1 3:-1 4:-1 5:-1 6:-1 9:1 10:-1 11:-1 12:-1 
-32 -32 -0 -32 0 0 1:1 2:-1 3:-1 4:-1 5:-1 6:-1 9:1 10:-1 11:-1 12:-1 
-32 -32 -0 -32 0 32 1:1 2:-1 3:-1 4:-1 5:-1 6:-1 9:1 10:-1 11:-1 12:-1 
-32 -32 -0 -32 0 32 1:1 2:-1 3:-1 4:-1 5:-1 6:-1 9:1 10:-1 11:-1 12:-1 
-32 -32 -0 -32 0 32 1:1 2:-1 3:-1 4:-1 5:-1 6:-1 9:1 10:-1 11:-1 12:-1 
-32 -32 -0 -32 0 32 1:1 2:-1 3:-1 4:-1 5:-1 6:-1 9:1 10:-1 11:-1 12:-1 
-32 -32 -0 -32 0 32 1:1 2:-1 3:-1 4:-1 5:-1 6:-1 9:1 10:-1 11:-1 12:-1 
-32 -32 -0 -32 0 32 1:1 2:-1 3:-1 4:-1 5:-1 6:-1 9:1 10:-1 11:-1 12:-1 
-32 -32 -0 -32 0 32 1:1 2:-1 3:-1 4:-1 5:-1 6:-1 9:1 10:-1 11:-1 12:-1 
-32 -32 -0 -32 0 32 1:1 2:-1 3:-1 4:-1 5:-1 6:-1 9:1 10:-1 11:-1 12:-1 
-32 -32 -3.114691149131638 -32 1.513991091121165 32 1:1 2:-1 3:-1 4:-1 5:-1 6:-1 9:1 10:-1 11:-1 12:-1 
-32 -0 -0 -0 0 0 1:1 2:-1 3:-1 4:-1 5:-1 6:-1 9:-1 10:1 11:-1 12:-1 
-32 -32 -32 -4.927784120249762 0 0 1:-1 2:-1 3:1 4:-1 5:-1 6:-1 9:1 10:-1 11:-1 12:-1 
-32 -32 -32 -31.99582725077754 0.4115428643648489 0 1:-1 2:-1 3:1 4:-1 5:-1 6:-1 9:1 10:-1 11:-1 12:-1 
-32 -0 -0 -0 0 0 1:1 2:-1 3:-1 4:-1 5:-1 6:-1 9:-1 10:1 11:-1 12:-1 
-32 -0 -0 -0 0 0 1:1 2:-1 3:-1 4:-1 5:-1 6:-1 9:-1 10:1 11:-1 12:-1 
-32 -0 -0 -0 0 0 1:1 2:-1 3:-1 4:-1 5:-1 6:-1 9:-1 10:1 11:-1 12:-1 
-32 -0 -0 -0 0 0 1:1 2:-1 3:-1 4:-1 5:-1 6:-1 9:-1 10:1 11:-1 12:-1 
-32 -0 -0 -0 0 0 1:1 2:-1 3:-1 4:-1 5:-1 6:-1 9:-1 10:1 11:-1 12:-1 
-32 -0 -0 -0 0 0 1:1 2:-1 3:-1 4:-1 5:-1 6:-1 9:-1 10:1 11:-1 12:-1 
-32 -10.38117362157353 -1.694503112151633 -10.61338086089578 1.695298099565231 0 1:1 2:-1 3:-1 4:-1 5:-1 6:-1 9:-1 10:1 11:-1 12:-1 
-32 -32 -32 -32 32 32 1:1 2:-1 3:-1 4:-1 5:-1 6:-1 9:1 10:-1 11:-1 12:-1 
-32 -32 -32 -32 32 32 1:1 2:-1 3:-1 4:-1 5:-1 6:-1 9:1 10:-1 11:-1 12:-1 
-32 -32 -32 -32 32 32 1:1 2:-1 3:-1 4:-1 5:-1 6:-1 9:1 10:-1 11:-1 12:-1 
-0 -12.76141799793108 -0 -0 0 0 1:-1 2:1 3:-1 4:-1 5:-1 6:-1 9:1 10:-1 11:-1 12:-1 
-0 -32 -0 -0 0 0 1:-1 2:1 3:-1 4:-1 5:-1 6:-1 9:1 10:-1 11:-1 12:-1 
-0 -32 -0 -0 0 0 1:-1 2:1 3:-1 4:-1 5:-1 6:-1 9:1 10:-1 11:-1 12:-1 
-12.31789366613964 -32 -0 -0 0 0 1:-1 2:1 3:-1 4:-1 5:-1 6:-1 9:1 10:-1 11:-1 12:-1 
-32 -32 -32 -32 32 32 1:1 2:-1 3:-1 4:-1 5:-1 6:-1 9:1 10:-1 11:-1 12:-1 
-32 -32 -32 -32 32 32 1:1 2:-1 3:-1 4:-1 5:-1 6:-1 9:1 10:-1 11:-1 12:-1 
-32 -32 -32 -32 32 32 1:1 2:-1 3:-1 4:-1 5:-1 6:-1 9:1 10:-1 11:-1 12:-1 
-32 -32 -32 -32 32 32 1:1 2:-1 3:-1 4:-1 5:-1 6:-1 9:1 10:-1 11:-1 12:-1 
-32 -32 -32 -32 32 32 1:1 2:-1 3:-1 4:-1 5:-1 6:-1 9:1 10:-1 11:-1 12:-1 
-32 -32 -30.58702682564543 -32 32 32 1:1 2:-1 3:-1 4:-1 5:-1 6:-1 9:1 10:-1 11:-1 12:-1 
-32 -32 -0 -0 0 0 1:-1 2:1 3:-1 4:-1 5:-1 6:-1 9:1 10:-1 11:-1 12:-1 
-32 -32 -0 -4.920746833981746 4.52081171467166 0 1:-1 2:1 3:-1 4:-1 5:-1 6:-1 9:1 10:-1 11:-1 12:-1 
-32 -32 -0 -32 32 0 1:-1 2:1 3:-1 4:-1 5:-1 6:-1 9:1 10:-1 11:-1 12:-1 
-0 -0 -3.812241188126009 -0 0 0 1:-1 2:1 3:-1 4:-1 5:-1 6:-1 9:-1 10:1 11:-1 12:-1 
-0 -0 -32 -0 0 0 1:-1 2:1 3:-1 4:-1 5:-1 6:-1 9:-1 10:1 11:-1 12:-1 
-0 -0 -32 -0 0 0 1:-1 2:1 3:-1 4:-1 5:-1 6:-1 9:-1 10:1 11:-1 12:-1 
-0 -0 -32 -0 0 0 1:-1 2:1 3:-1 4:-1 5:-1 6:-1 9:-1 10:1 11:-1 12:-1 
-0 -0 -32 -0 0 0 1:-1 2:1 3:-1 4:-1 5:-1 6:-1 9:-1 10:1 11:-1 12:-1 
-0 -0 -32 -0 4.52081171467166 0 1:-1 2:1 3:-1 4:-1 5:-1 6:-1 9:-1 10:1 11:-1 12:-1 
-32 -32 -1.510268497225269 -32 32 0 1:-1 2:1 3:-1 4:-1 5:-1 6:-1 9:1 10:-1 11:-1 12:-1 
-32 -32 -32 -32 29.00176699459173 32 1:-1 2:1 3:-1 4:-1 5:-1 6:-1 9:1 10:-1 11:-1 12:-1 
-0 -0 -32 -0 32 0 1:-1 2:1 3:-1 4:-1 5:-1 6:-1 9:-1 10:1 11:-1 12:-1 
-24.30462477413637 -24.32090483618012 -29.71092707502712 -0 29.18048731865715 8.881784197001252e-16 1:-1 2:1 3:-1 4:-1 5:-1 6:-1 9:-1 10:1 11:-1 12:-1 
-32 -32 -32 -32 -32 32 1:1 2:-1 3:-1 4:-1 5:-1 6:-1 9:1 10:-1 11:-1 12:-1 
-32 -32 -32 -32 -32 32 1:1 2:-1 3:-1 4:-1 5:-1 6:-1 9:1 10:-1 11:-1 12:-1 
-32 -32 -32 -32 -32 32 1:1 2:-1 3:-1 4:-1 5:-1 6:-1 9:1 10:-1 11:-1 12:-1 
-32 -32 -32 -32 -32 32 1:1 2:-1 3:-1 4:-1 5:-1 6:-1 9:1 10:-1 11:-1 12:-1 
-0 -0.5722313602626168 -1.766969123849729 -0.8534748716522896 -0.6113364915770956 0 1:-1 2:-1 3:-1 4:1 5:-1 6:-1 9:-1 10:-1 11:-1 12:1 
-12.59196355151199 -3.048913926397964 -32 -0 -32 0 1:-1 2:1 3:-1 4:-1 5:-1 6:-1 9:-1 10:1 11:-1 12:-1 
-32 -32 -32 -4.520811714671662 -32 0 1:-1 2:1 3:-1 4:-1 5:-1 6:-1 9:-1 10:1 11:-1 12:-1 
-32 -32 -32 -32 -32 32 1:1 2:-1 3:-1 4:-1 5:-1 6:-1 9:1 10:-1 11:-1 12:-1 
-32 -32 -0 -32 -32 0 1:-1 2:1 3:-1 4:-1 5:-1 6:-1 9:1 10:-1 11:-1 12:-1 
-32 -32 -7.59856612341745 -32 -32 4.070375638521136 1:-1 2:1 3:-1 4:-1 5:-1 6:-1 9:1 10:-1 11:-1 12:-1 
-32 -32 -32 -32 -32 32 1:1 2:-1 3:-1 4:-1 5:-1 6:-1 9:1 10:-1 11:-1 12:-1 
-32 -32 -32 -32 -32 32 1:1 2:-1 3:-1 4:-1 5:-1 6:-1 9:1 10:-1 11:-1 12:-1 
-32 -32 -32 -32 -32 32 1:1 2:-1 3:-1 4:-1 5:-1 6:-1 9:1 10:-1 11:-1 12:-1 
-5.890379963202797 -2.208776187943907 -1.76693354039513 -3.855858102006934 -3.11100586528314 4.072673147214474 1:1 2:-1 3:-1 4:-1 5:-1 6:-1 9:-1 10:-1 11:-1 12:1 
-0 -0 -0 -0 -8.051964634716159 0 1:-1 2:1 3:-1 4:-1 5:-1 6:-1 9:-1 10:-1 11:-1 12:1 
-0 -0.883960632992481 -0.4210077156493948 -0 -27.07040280606705 0 1:-1 2:1 3:-1 4:-1 5:-1 6:-1 9:-1 10:-1 11:-1 12:1 
-32 -32 -32 -32 -32 32 1:-1 2:1 3:-1 4:-1 5:-1 6:-1 9:1 10:-1 11:-1 12:-1 
-32 -32 -32 -32 -32 32 1:1 2:-1 3:-1 4:-1 5:-1 6:-1 9:1 10:-1 11:-1 12:-1 
-32 -32 -32 -32 -32 -32 1:-1 2:1 3:-1 4:-1 5:-1 6:-1 9:1 10:-1 11:-1 12:-1 
-32 -32 -0 -32 -32 -0 1:1 2:-1 3:-1 4:-1 5:-1 6:-1 9:1 10:-1 11:-1 12:-1 
-32 -32 -0 -32 -32 -0 1:1 2:-1 3:-1 4:-1 5:-1 6:-1 9:1 10:-1 11:-1 12:-1 
-32 -32 -0 -32 -32 -0 1:1 2:-1 3:-1 4:-1 5:-1 6:-1 9:1 10:-1 11:-1 12:-1 
-32 -32 -0 -32 -32 -0 1:1 2:-1 3:-1 4:-1 5:-1 6:-1 9:1 10:-1 11:-1 12:-1 
-32 -32 -0 -32 -32 -0 1:1 2:-1 3:-1 4:-1 5:-1 6:-1 9:1 10:-1 11:-1 12:-1 
-32 -32 -0 -32 -32 -0 1:1 2:-1 3:-1 4:-1 5:-1 6:-1 9:1 10:-1 11:-1 12:-1 
-32 -32 -0 -32 -32 -0 1:1 2:-1 3:-1 4:-1 5:-1 6:-1 9:1 10:-1 11:-1 12:-1 
-32 -32 -0 -32 -32 -0 1:1 2:-1 3:-1 4:-1 5:-1 6:-1 9:1 10:-1 11:-1 12:-1 
-32 -32 -5.403599944682785 -32 -32 -8.291623386558847 1:1 2:-1 3:-1 4:-1 5:-1 6:-1 9:1 10:-1 11:-1 12:-1 
-32 -32 -32 -32 -32 -32 1:1 2:-1 3:-1 4:-1 5:-1 6:-1 9:1 10:-1 11:-1 12:-1 
-32 -32 -32 -32 -32 -32 1:1 2:-1 3:-1 4:-1 5:-1 6:-1 9:1 10:-1 11:-1 12:-1 
-32 -32 -32 -32 -32 -32 1:1 2:-1 3:-1 4:-1 5:-1 6:-1 9:1 10:-1 11:-1 12:-1 
-32 -32 -32 -32 -32 -32 1:1 2:-1 3:-1 4:-1 5:-1 6:-1 9:1 10:-1 11:-1 12:-1 
-32 -32 -32 -32 -32 -32 1:1 2:-1 3:-1 4:-1 5:-1 6:-1 9:1 10:-1 11:-1 12:-1 
-32 -32 -32 -32 -32 -32 1:1 2:-1 3:-1 4:-1 5:-1 6:-1 9:1 10:-1 11:-1 12:-1 
-32 -32 -32 -32 -32 -32 1:1 2:-1 3:-1 4:-1 5:-1 6:-1 9:1 10:-1 11:-1 12:-1 
-32 -32 -32 -32 -32 -32 1:1 2:-1 3:-1 4:-1 5:-1 6:-1 9:1 10:-1 11:-1 12:-1 
-32 -32 -31.85688435613972 -32 -32 -31.85142539917677 1:1 2:-1 3:-1 4:-1 5:-1 6:-1 9:1 10:-1 11:-1 12:-1 
