svm_type c_svc
kernel_type rbf
gamma 0.03125
nr_class 8
total_sv 591
rho -0.436129 1.14489 -0.343287 0.986679 -0.363267 0.278182 -1 0.49445 0.16315 0.395446 0.317364 0.733939 -1 -0.971415 -0.112114 -1.27762 -0.412979 -1 1.24832 0.252732 0.676203 -1 -1.45429 -0.508501 -1 0.598457 -1 -1
label 0 5 2 4 1 6 3 7
nr_sv 184 14 82 131 97 64 18 1
SV
0.1869425424611618 32 0.2322743133438492 32 0.4944490667753302 0.8648750817698508 0 1:-1 2:1 3:-1 4:-1 5:-1 6:-1 7:-1 9:-1 10:1 11:-1 12:-1 13:-1 14:-1 15:-1 17:-1 18:1 19:-1 20:-1 25:1 26:-1 27:-1 28:-1 
0 0 32 0 0 0 0 1:-1 2:-1 3:-1 4:-1 5:1 6:-1 7:-1 9:1 10:-1 11:-1 12:-1 13:-1 14:-1 15:-1 17:1 18:-1 19:-1 20:-1 25:1 26:-1 27:-1 28:-1 
0 0 32 0 0 0 0 1:-1 2:-1 3:-1 4:-1 5:1 6:-1 7:-1 9:1 10:-1 11:-1 12:-1 13:-1 14:-1 15:-1 17:1 18:-1 19:-1 20:-1 25:1 26:-1 27:-1 28:-1 
0 0 0 32 0 0 0 1:-1 2:1 3:-1 4:-1 5:-1 6:-1 7:-1 9:1 10:-1 11:-1 12:-1 13:-1 14:-1 15:-1 17:1 18:-1 19:-1 20:-1 25:1 26:-1 27:-1 28:-1 
0 0 32 0 0 0 0 1:-1 2:-1 3:-1 4:-1 5:1 6:-1 7:-1 9:1 10:-1 11:-1 12:-1 13:-1 14:-1 15:-1 17:1 18:-1 19:-1 20:-1 25:1 26:-1 27:-1 28:-1 
0 0 32 0 0 0 0 1:-1 2:-1 3:-1 4:-1 5:1 6:-1 7:-1 9:1 10:-1 11:-1 12:-1 13:-1 14:-1 15:-1 17:1 18:-1 19:-1 20:-1 25:1 26:-1 27:-1 28:-1 
0 0 32 0 0 0 0 1:-1 2:-1 3:-1 4:-1 5:1 6:-1 7:-1 9:1 10:-1 11:-1 12:-1 13:-1 14:-1 15:-1 17:1 18:-1 19:-1 20:-1 25:1 26:-1 27:-1 28:-1 
0 0 32 0 0 0 0 1:-1 2:-1 3:-1 4:-1 5:1 6:-1 7:-1 9:1 10:-1 11:-1 12:-1 13:-1 14:-1 15:-1 17:1 18:-1 19:-1 20:-1 25:1 26:-1 27:-1 28:-1 
0 0 32 0 0 0 0 1:-1 2:-1 3:-1 4:-1 5:1 6:-1 7:-1 9:1 10:-1 11:-1 12:-1 13:-1 14:-1 15:-1 17:1 18:-1 19:-1 20:-1 25:1 26:-1 27:-1 28:-1 
0 0 32 0 0 0 0 1:-1 2:-1 3:-1 4:-1 5:1 6:-1 7:-1 9:1 10:-1 11:-1 12:-1 13:-1 14:-1 15:-1 17:1 18:-1 19:-1 20:-1 25:1 26:-1 27:-1 28:-1 
0 32 0 0 0 0 0 1:-1 2:-1 3:1 4:-1 5:-1 6:-1 7:-1 9:-1 10:-1 11:1 12:-1 13:-1 14:-1 15:-1 17:1 18:-1 19:-1 20:-1 25:1 26:-1 27:-1 28:-1 
0 0 32 0 0 0 0 1:-1 2:-1 3:-1 4:-1 5:1 6:-1 7:-1 9:1 10:-1 11:-1 12:-1 13:-1 14:-1 15:-1 17:1 18:-1 19:-1 20:-1 25:1 26:-1 27:-1 28:-1 
32 0.52114991022949 1.871472336606916 2.193781753109985 32 0.4895342190393777 0 1:-1 2:-1 3:-1 4:-1 5:-1 6:1 7:-1 9:1 10:-1 11:-1 12:-1 13:-1 14:-1 15:-1 17:1 18:-1 19:-1 20:-1 25:1 26:-1 27:-1 28:-1 
0 0 32 0 0 0 0 1:-1 2:-1 3:-1 4:-1 5:1 6:-1 7:-1 9:1 10:-1 11:-1 12:-1 13:-1 14:-1 15:-1 17:1 18:-1 19:-1 20:-1 25:1 26:-1 27:-1 28:-1 
0 11.32751539020464 0 32 0 0 0 1:-1 2:1 3:-1 4:-1 5:-1 6:-1 7:-1 9:1 10:-1 11:-1 12:-1 13:-1 14:-1 15:-1 17:1 18:-1 19:-1 20:-1 25:1 26:-1 27:-1 28:-1 
0 32 0 0 0 0 0 1:-1 2:-1 3:1 4:-1 5:-1 6:-1 7:-1 9:-1 10:-1 11:1 12:-1 13:-1 14:-1 15:-1 17:1 18:-1 19:-1 20:-1 25:1 26:-1 27:-1 28:-1 
0 32 0 0 0 0 0 1:-1 2:-1 3:1 4:-1 5:-1 6:-1 7:-1 9:-1 10:-1 11:1 12:-1 13:-1 14:-1 15:-1 17:1 18:-1 19:-1 20:-1 25:1 26:-1 27:-1 28:-1 
1.182551909689951 32 1.92790313200632 32 1.019806686603254 0 0 1:-1 2:1 3:-1 4:-1 5:-1 6:-1 7:-1 9:-1 10:1 11:-1 12:-1 13:-1 14:-1 15:-1 17:1 18:-1 19:-1 20:-1 25:1 26:-1 27:-1 28:-1 
0 0 32 0 0 0 0 1:-1 2:-1 3:-1 4:-1 5:1 6:-1 7:-1 9:1 10:-1 11:-1 12:-1 13:-1 14:-1 15:-1 17:1 18:-1 19:-1 20:-1 25:1 26:-1 27:-1 28:-1 
0 0 0 23.95328402619547 0 0 0 1:1 2:-1 3:-1 4:-1 5:-1 6:-1 7:-1 9:1 10:-1 11:-1 12:-1 13:-1 14:-1 15:-1 17:1 18:-1 19:-1 20:-1 25:-1 26:1 27:-1 28:-1 
0 0 3.436277406527208 0 0 0 0 1:1 2:-1 3:-1 4:-1 5:-1 6:-1 7:-1 9:-1 10:-1 11:-1 12:-1 13:1 14:-1 15:-1 17:1 18:-1 19:-1 20:-1 25:1 26:-1 27:-1 28:-1 
0 0 32 0 0 0 0 1:1 2:-1 3:-1 4:-1 5:-1 6:-1 7:-1 9:-1 10:-1 11:-1 12:-1 13:1 14:-1 15:-1 17:1 18:-1 19:-1 20:-1 25:1 26:-1 27:-1 28:-1 
0 0 32 0 0 0 0 1:1 2:-1 3:-1 4:-1 5:-1 6:-1 7:-1 9:-1 10:-1 11:-1 12:-1 13:1 14:-1 15:-1 17:1 18:-1 19:-1 20:-1 25:1 26:-1 27:-1 28:-1 
0 0 32 0 0 0 0 1:1 2:-1 3:-1 4:-1 5:-1 6:-1 7:-1 9:-1 10:-1 11:-1 12:-1 13:1 14:-1 15:-1 17:1 18:-1 19:-1 20:-1 25:1 26:-1 27:-1 28:-1 
0 0 32 0 0 0 0 1:1 2:-1 3:-1 4:-1 5:-1 6:-1 7:-1 9:-1 10:-1 11:-1 12:-1 13:1 14:-1 15:-1 17:1 18:-1 19:-1 20:-1 25:1 26:-1 27:-1 28:-1 
0 16.96550999218597 0 4.948983586027672 0 0 0 1:-1 2:-1 3:1 4:-1 5:-1 6:-1 7:-1 9:1 10:-1 11:-1 12:-1 13:-1 14:-1 15:-1 17:1 18:-1 19:-1 20:-1 25:1 26:-1 27:-1 28:-1 
0 0 0 32 0 0 0 1:1 2:-1 3:-1 4:-1 5:-1 6:-1 7:-1 9:-1 10:1 11:-1 12:-1 13:-1 14:-1 15:-1 17:1 18:-1 19:-1 20:-1 25:1 26:-1 27:-1 28:-1 
0 0 0 32 0 0 0 1:1 2:-1 3:-1 4:-1 5:-1 6:-1 7:-1 9:-1 10:1 11:-1 12:-1 13:-1 14:-1 15:-1 17:1 18:-1 19:-1 20:-1 25:1 26:-1 27:-1 28:-1 
0 0 0 32 0 0 0 1:1 2:-1 3:-1 4:-1 5:-1 6:-1 7:-1 9:-1 10:1 11:-1 12:-1 13:-1 14:-1 15:-1 17:1 18:-1 19:-1 20:-1 25:1 26:-1 27:-1 28:-1 
0 0 0 32 0 0 0 1:1 2:-1 3:-1 4:-1 5:-1 6:-1 7:-1 9:-1 10:1 11:-1 12:-1 13:-1 14:-1 15:-1 17:1 18:-1 19:-1 20:-1 25:1 26:-1 27:-1 28:-1 
0 22.65153780072043 0 32 0 0 0 1:1 2:-1 3:-1 4:-1 5:-1 6:-1 7:-1 9:1 10:-1 11:-1 12:-1 13:-1 14:-1 15:-1 17:1 18:-1 19:-1 20:-1 25:-1 26:1 27:-1 28:-1 
0 0 32 0 0 0 0 1:-1 2:-1 3:-1 4:-1 5:1 6:-1 7:-1 9:1 10:-1 11:-1 12:-1 13:-1 14:-1 15:-1 17:1 18:-1 19:-1 20:-1 25:1 26:-1 27:-1 28:-1 
0 0 32 0 0 0 0 1:1 2:-1 3:-1 4:-1 5:-1 6:-1 7:-1 9:-1 10:-1 11:-1 12:-1 13:1 14:-1 15:-1 17:1 18:-1 19:-1 20:-1 25:1 26:-1 27:-1 28:-1 
0 32 0 32 0 0 0 1:-1 2:-1 3:1 4:-1 5:-1 6:-1 7:-1 9:1 10:-1 11:-1 12:-1 13:-1 14:-1 15:-1 17:1 18:-1 19:-1 20:-1 25:1 26:-1 27:-1 28:-1 
0 32 0 32 0 0 0 1:-1 2:-1 3:1 4:-1 5:-1 6:-1 7:-1 9:1 10:-1 11:-1 12:-1 13:-1 14:-1 15:-1 17:1 18:-1 19:-1 20:-1 25:1 26:-1 27:-1 28:-1 
0 0 32 0 0 0 0 1:1 2:-1 3:-1 4:-1 5:-1 6:-1 7:-1 9:-1 10:-1 11:-1 12:-1 13:1 14:-1 15:-1 17:1 18:-1 19:-1 20:-1 25:1 26:-1 27:-1 28:-1 
0 0 32 0 0 0 0 1:1 2:-1 3:-1 4:-1 5:-1 6:-1 7:-1 9:-1 10:-1 11:-1 12:-1 13:1 14:-1 15:-1 17:1 18:-1 19:-1 20:-1 25:1 26:-1 27:-1 28:-1 
0.8234894320712813 32 4.323517952604595 32 1.336292936207856 0.2676186446721378 0 1:-1 2:-1 3:1 4:-1 5:-1 6:-1 7:-1 9:1 10:-1 11:-1 12:-1 13:-1 14:-1 15:-1 17:1 18:-1 19:-1 20:-1 25:1 26:-1 27:-1 28:-1 
0 32 0 0 0 0 0 1:1 2:-1 3:-1 4:-1 5:-1 6:-1 7:-1 9:-1 10:-1 11:1 12:-1 13:-1 14:-1 15:-1 17:-1 18:-1 19:1 20:-1 25:1 26:-1 27:-1 28:-1 
0 0 32 0 0 0 0 1:1 2:-1 3:-1 4:-1 5:-1 6:-1 7:-1 9:-1 10:-1 11:-1 12:-1 13:1 14:-1 15:-1 17:1 18:-1 19:-1 20:-1 25:1 26:-1 27:-1 28:-1 
0 0 32 0 0 0 0 1:-1 2:-1 3:-1 4:-1 5:1 6:-1 7:-1 9:1 10:-1 11:-1 12:-1 13:-1 14:-1 15:-1 17:1 18:-1 19:-1 20:-1 25:1 26:-1 27:-1 28:-1 
0 0 32 0 0 0 0 1:1 2:-1 3:-1 4:-1 5:-1 6:-1 7:-1 9:-1 10:-1 11:-1 12:-1 13:1 14:-1 15:-1 17:1 18:-1 19:-1 20:-1 25:1 26:-1 27:-1 28:-1 
0 0 32 0 0 0 0 1:-1 2:-1 3:-1 4:-1 5:1 6:-1 7:-1 9:1 10:-1 11:-1 12:-1 13:-1 14:-1 15:-1 17:1 18:-1 19:-1 20:-1 25:1 26:-1 27:-1 28:-1 
0 0 32 0 0 0 0 1:1 2:-1 3:-1 4:-1 5:-1 6:-1 7:-1 9:-1 10:-1 11:-1 12:-1 13:1 14:-1 15:-1 17:1 18:-1 19:-1 20:-1 25:1 26:-1 27:-1 28:-1 
0 0 32 0 0 0 0 1:1 2:-1 3:-1 4:-1 5:-1 6:-1 7:-1 9:-1 10:-1 11:-1 12:-1 13:1 14:-1 15:-1 17:1 18:-1 19:-1 20:-1 25:1 26:-1 27:-1 28:-1 
1.55326894200537 0.1367410194286726 0 2.195423873099789 32 0.3713797956803055 0 1:1 2:-1 3:-1 4:-1 5:-1 6:-1 7:-1 9:-1 10:-1 11:-1 12:-1 13:-1 14:-1 15:1 17:1 18:-1 19:-1 20:-1 25:1 26:-1 27:-1 28:-1 
0 31.34886281878569 0 0 0 0 0 1:1 2:-1 3:-1 4:-1 5:-1 6:-1 7:-1 9:-1 10:-1 11:1 12:-1 13:-1 14:-1 15:-1 17:1 18:-1 19:-1 20:-1 25:1 26:-1 27:-1 28:-1 
0 0 32 0 0 0 0 1:1 2:-1 3:-1 4:-1 5:-1 6:-1 7:-1 9:-1 10:-1 11:-1 12:-1 13:1 14:-1 15:-1 17:1 18:-1 19:-1 20:-1 25:1 26:-1 27:-1 28:-1 
0 0 32 0 0 0 0 1:1 2:-1 3:-1 4:-1 5:-1 6:-1 7:-1 9:-1 10:-1 11:-1 12:-1 13:1 14:-1 15:-1 17:1 18:-1 19:-1 20:-1 25:1 26:-1 27:-1 28:-1 
0 32 0 0 0 0 0 1:1 2:-1 3:-1 4:-1 5:-1 6:-1 7:-1 9:-1 10:-1 11:1 12:-1 13:-1 14:-1 15:-1 17:1 18:-1 19:-1 20:-1 25:1 26:-1 27:-1 28:-1 
0 0 32 0 0 0 0 1:1 2:-1 3:-1 4:-1 5:-1 6:-1 7:-1 9:-1 10:-1 11:-1 12:-1 13:1 14:-1 15:-1 17:1 18:-1 19:-1 20:-1 25:1 26:-1 27:-1 28:-1 
0.3164483025646228 32 4.338658741546632 32 0.3575712824411876 7.710669142311745 0 1:1 2:-1 3:-1 4:-1 5:-1 6:-1 7:-1 9:1 10:-1 11:-1 12:-1 13:-1 14:-1 15:-1 17:1 18:-1 19:-1 20:-1 25:-1 26:1 27:-1 28:-1 
0.8323684488701034 32 0.2294038295789869 32 0.7718129964382612 0 0 1:-1 2:1 3:-1 4:-1 5:-1 6:-1 7:-1 9:1 10:-1 11:-1 12:-1 13:-1 14:-1 15:-1 17:1 18:-1 19:-1 20:-1 25:1 26:-1 27:-1 28:-1 
0 0 32 0 0 0 0 1:1 2:-1 3:-1 4:-1 5:-1 6:-1 7:-1 9:-1 10:-1 11:-1 12:-1 13:1 14:-1 15:-1 17:1 18:-1 19:-1 20:-1 25:1 26:-1 27:-1 28:-1 
0 0 32 0 0 0 0 1:1 2:-1 3:-1 4:-1 5:-1 6:-1 7:-1 9:-1 10:-1 11:-1 12:-1 13:1 14:-1 15:-1 17:1 18:-1 19:-1 20:-1 25:1 26:-1 27:-1 28:-1 
0 0 32 0 0 0 0 1:1 2:-1 3:-1 4:-1 5:-1 6:-1 7:-1 9:-1 10:-1 11:-1 12:-1 13:1 14:-1 15:-1 17:1 18:-1 19:-1 20:-1 25:1 26:-1 27:-1 28:-1 
1.336407200881397 32 1.209921260690593 7.527152791698254 0.6811604560378063 1.385024154279011 0 1:-1 2:-1 3:1 4:-1 5:-1 6:-1 7:-1 9:-1 10:-1 11:1 12:-1 13:-1 14:-1 15:-1 17:1 18:-1 19:-1 20:-1 25:1 26:-1 27:-1 28:-1 
0 0 32 0 0 0 0 1:-1 2:-1 3:-1 4:-1 5:1 6:-1 7:-1 9:1 10:-1 11:-1 12:-1 13:-1 14:-1 15:-1 17:1 18:-1 19:-1 20:-1 25:1 26:-1 27:-1 28:-1 
0 0 32 0 0 0 0 1:-1 2:-1 3:-1 4:-1 5:1 6:-1 7:-1 9:1 10:-1 11:-1 12:-1 13:-1 14:-1 15:-1 17:1 18:-1 19:-1 20:-1 25:1 26:-1 27:-1 28:-1 
0 0 32 0 0 0 0 1:-1 2:-1 3:-1 4:-1 5:1 6:-1 7:-1 9:1 10:-1 11:-1 12:-1 13:-1 14:-1 15:-1 17:1 18:-1 19:-1 20:-1 25:1 26:-1 27:-1 28:-1 
0 0 32 0 0 0 0 1:-1 2:-1 3:-1 4:-1 5:1 6:-1 7:-1 9:1 10:-1 11:-1 12:-1 13:-1 14:-1 15:-1 17:1 18:-1 19:-1 20:-1 25:1 26:-1 27:-1 28:-1 
0 0 32 0 0 0 0 1:-1 2:-1 3:-1 4:-1 5:1 6:-1 7:-1 9:1 10:-1 11:-1 12:-1 13:-1 14:-1 15:-1 17:1 18:-1 19:-1 20:-1 25:1 26:-1 27:-1 28:-1 
0 32 0 0 0 0 0 1:1 2:-1 3:-1 4:-1 5:-1 6:-1 7:-1 9:-1 10:-1 11:1 12:-1 13:-1 14:-1 15:-1 17:1 18:-1 19:-1 20:-1 25:1 26:-1 27:-1 28:-1 
0 0 32 0 0 0 0 1:1 2:-1 3:-1 4:-1 5:-1 6:-1 7:-1 9:-1 10:-1 11:-1 12:-1 13:1 14:-1 15:-1 17:1 18:-1 19:-1 20:-1 25:1 26:-1 27:-1 28:-1 
0 0 0 32 0 0 0 1:1 2:-1 3:-1 4:-1 5:-1 6:-1 7:-1 9:-1 10:1 11:-1 12:-1 13:-1 14:-1 15:-1 17:1 18:-1 19:-1 20:-1 25:1 26:-1 27:-1 28:-1 
0 0 0 32 0 0 0 1:1 2:-1 3:-1 4:-1 5:-1 6:-1 7:-1 9:-1 10:1 11:-1 12:-1 13:-1 14:-1 15:-1 17:1 18:-1 19:-1 20:-1 25:1 26:-1 27:-1 28:-1 
0 0 32 0 0 0 0 1:1 2:-1 3:-1 4:-1 5:-1 6:-1 7:-1 9:-1 10:-1 11:-1 12:-1 13:1 14:-1 15:-1 17:1 18:-1 19:-1 20:-1 25:1 26:-1 27:-1 28:-1 
0 0 32 0 0 0 0 1:1 2:-1 3:-1 4:-1 5:-1 6:-1 7:-1 9:-1 10:-1 11:-1 12:-1 13:1 14:-1 15:-1 17:1 18:-1 19:-1 20:-1 25:1 26:-1 27:-1 28:-1 
0 0 32 0 0 0 0 1:1 2:-1 3:-1 4:-1 5:-1 6:-1 7:-1 9:-1 10:-1 11:-1 12:-1 13:1 14:-1 15:-1 17:1 18:-1 19:-1 20:-1 25:1 26:-1 27:-1 28:-1 
0 32 0 0 0 0 0 1:1 2:-1 3:-1 4:-1 5:-1 6:-1 7:-1 9:-1 10:-1 11:1 12:-1 13:-1 14:-1 15:-1 17:1 18:-1 19:-1 20:-1 25:1 26:-1 27:-1 28:-1 
0 0 32 0 0 0 0 1:1 2:-1 3:-1 4:-1 5:-1 6:-1 7:-1 9:-1 10:-1 11:-1 12:-1 13:1 14:-1 15:-1 17:1 18:-1 19:-1 20:-1 25:1 26:-1 27:-1 28:-1 
0 0 32 0 0 0 0 1:1 2:-1 3:-1 4:-1 5:-1 6:-1 7:-1 9:-1 10:-1 11:-1 12:-1 13:1 14:-1 15:-1 17:1 18:-1 19:-1 20:-1 25:1 26:-1 27:-1 28:-1 
0 0 32 0 0 0 0 1:-1 2:-1 3:-1 4:-1 5:1 6:-1 7:-1 9:1 10:-1 11:-1 12:-1 13:-1 14:-1 15:-1 17:1 18:-1 19:-1 20:-1 25:1 26:-1 27:-1 28:-1 
0 0 32 0 0 0 0 1:-1 2:-1 3:-1 4:-1 5:1 6:-1 7:-1 9:1 10:-1 11:-1 12:-1 13:-1 14:-1 15:-1 17:1 18:-1 19:-1 20:-1 25:1 26:-1 27:-1 28:-1 
0 0 32 0 0 0 0 1:1 2:-1 3:-1 4:-1 5:-1 6:-1 7:-1 9:-1 10:-1 11:-1 12:-1 13:1 14:-1 15:-1 17:1 18:-1 19:-1 20:-1 25:1 26:-1 27:-1 28:-1 
0 0 0 32 0 0 0 1:1 2:-1 3:-1 4:-1 5:-1 6:-1 7:-1 9:1 10:-1 11:-1 12:-1 13:-1 14:-1 15:-1 17:-1 18:-1 19:1 20:-1 25:1 26:-1 27:-1 28:-1 
0 0 32 0 0 0 0 1:1 2:-1 3:-1 4:-1 5:-1 6:-1 7:-1 9:-1 10:-1 11:-1 12:-1 13:1 14:-1 15:-1 17:1 18:-1 19:-1 20:-1 25:1 26:-1 27:-1 28:-1 
0 0 32 0 0 0 0 1:-1 2:-1 3:-1 4:-1 5:1 6:-1 7:-1 9:1 10:-1 11:-1 12:-1 13:-1 14:-1 15:-1 17:1 18:-1 19:-1 20:-1 25:1 26:-1 27:-1 28:-1 
0 0 0 25.33237291928687 0 0 0 1:1 2:-1 3:-1 4:-1 5:-1 6:-1 7:-1 9:1 10:-1 11:-1 12:-1 13:-1 14:-1 15:-1 17:-1 18:1 19:-1 20:-1 25:1 26:-1 27:-1 28:-1 
0 0 0 32 0 0 0 1:1 2:-1 3:-1 4:-1 5:-1 6:-1 7:-1 9:1 10:-1 11:-1 12:-1 13:-1 14:-1 15:-1 17:-1 18:1 19:-1 20:-1 25:1 26:-1 27:-1 28:-1 
0 0 0 32 0 0 0 1:1 2:-1 3:-1 4:-1 5:-1 6:-1 7:-1 9:1 10:-1 11:-1 12:-1 13:-1 14:-1 15:-1 17:-1 18:1 19:-1 20:-1 25:1 26:-1 27:-1 28:-1 
0 0 32 0 0 0 0 1:-1 2:-1 3:-1 4:-1 5:1 6:-1 7:-1 9:1 10:-1 11:-1 12:-1 13:-1 14:-1 15:-1 17:1 18:-1 19:-1 20:-1 25:1 26:-1 27:-1 28:-1 
0 0 32 0 0 0 0 1:-1 2:-1 3:-1 4:-1 5:1 6:-1 7:-1 9:1 10:-1 11:-1 12:-1 13:-1 14:-1 15:-1 17:1 18:-1 19:-1 20:-1 25:1 26:-1 27:-1 28:-1 
0 0 32 1.976024197730611 0 0 0 1:-1 2:-1 3:-1 4:-1 5:1 6:-1 7:-1 9:1 10:-1 11:-1 12:-1 13:-1 14:-1 15:-1 17:1 18:-1 19:-1 20:-1 25:1 26:-1 27:-1 28:-1 
0.8224974795887738 30.35439412725065 32 32 0.7644783842411746 0.2658648520933407 0 1:-1 2:-1 3:-1 4:-1 5:1 6:-1 7:-1 9:1 10:-1 11:-1 12:-1 13:-1 14:-1 15:-1 17:1 18:-1 19:-1 20:-1 25:1 26:-1 27:-1 28:-1 
0 32 0 11.73222426325657 0 0 0 1:1 2:-1 3:-1 4:-1 5:-1 6:-1 7:-1 9:-1 10:-1 11:1 12:-1 13:-1 14:-1 15:-1 17:-1 18:-1 19:1 20:-1 25:1 26:-1 27:-1 28:-1 
0 0 32 0 0 0 0 1:1 2:-1 3:-1 4:-1 5:-1 6:-1 7:-1 9:-1 10:-1 11:-1 12:-1 13:1 14:-1 15:-1 17:1 18:-1 19:-1 20:-1 25:1 26:-1 27:-1 28:-1 
0 32 0 0 0 0 0 1:1 2:-1 3:-1 4:-1 5:-1 6:-1 7:-1 9:-1 10:-1 11:1 12:-1 13:-1 14:-1 15:-1 17:1 18:-1 19:-1 20:-1 25:1 26:-1 27:-1 28:-1 
0 0 32 0 0 0 0 1:1 2:-1 3:-1 4:-1 5:-1 6:-1 7:-1 9:-1 10:-1 11:-1 12:-1 13:1 14:-1 15:-1 17:1 18:-1 19:-1 20:-1 25:1 26:-1 27:-1 28:-1 
0 32 0 0 0 0 0 1:1 2:-1 3:-1 4:-1 5:-1 6:-1 7:-1 9:-1 10:-1 11:1 12:-1 13:-1 14:-1 15:-1 17:1 18:-1 19:-1 20:-1 25:1 26:-1 27:-1 28:-1 
0 0 32 0 0 0 0 1:1 2:-1 3:-1 4:-1 5:-1 6:-1 7:-1 9:-1 10:-1 11:-1 12:-1 13:1 14:-1 15:-1 17:1 18:-1 19:-1 20:-1 25:1 26:-1 27:-1 28:-1 
0 0 32 0 0 0 0 1:1 2:-1 3:-1 4:-1 5:-1 6:-1 7:-1 9:-1 10:-1 11:-1 12:-1 13:1 14:-1 15:-1 17:1 18:-1 19:-1 20:-1 25:1 26:-1 27:-1 28:-1 
1.339025980958685 2.782471987936905 32 0.2785835714130577 1.413685436366415 0.2873959077620291 0 1:-1 2:-1 3:-1 4:-1 5:1 6:-1 7:-1 9:-1 10:-1 11:-1 12:-1 13:1 14:-1 15:-1 17:1 18:-1 19:-1 20:-1 25:1 26:-1 27:-1 28:-1 
0 32 0 0 0 0 0 1:1 2:-1 3:-1 4:-1 5:-1 6:-1 7:-1 9:-1 10:-1 11:1 12:-1 13:-1 14:-1 15:-1 17:1 18:-1 19:-1 20:-1 25:1 26:-1 27:-1 28:-1 
0 0 32 0 0 0 0 1:1 2:-1 3:-1 4:-1 5:-1 6:-1 7:-1 9:-1 10:-1 11:-1 12:-1 13:1 14:-1 15:-1 17:1 18:-1 19:-1 20:-1 25:1 26:-1 27:-1 28:-1 
0 32 0 0 0 0 0 1:1 2:-1 3:-1 4:-1 5:-1 6:-1 7:-1 9:-1 10:-1 11:1 12:-1 13:-1 14:-1 15:-1 17:1 18:-1 19:-1 20:-1 25:1 26:-1 27:-1 28:-1 
2.075727781810494 14.60296681319487 0.6064916388805364 32 2.703744372263738 1.328333239806822 0 1:1 2:-1 3:-1 4:-1 5:-1 6:-1 7:-1 9:-1 10:1 11:-1 12:-1 13:-1 14:-1 15:-1 17:1 18:-1 19:-1 20:-1 25:1 26:-1 27:-1 28:-1 
0 32 0 0 0 0 0 1:1 2:-1 3:-1 4:-1 5:-1 6:-1 7:-1 9:-1 10:-1 11:1 12:-1 13:-1 14:-1 15:-1 17:1 18:-1 19:-1 20:-1 25:1 26:-1 27:-1 28:-1 
0 0 0 32 0 0 0 1:1 2:-1 3:-1 4:-1 5:-1 6:-1 7:-1 9:1 10:-1 11:-1 12:-1 13:-1 14:-1 15:-1 17:-1 18:1 19:-1 20:-1 25:1 26:-1 27:-1 28:-1 
0 32 0 0 0 0 0 1:1 2:-1 3:-1 4:-1 5:-1 6:-1 7:-1 9:-1 10:-1 11:1 12:-1 13:-1 14:-1 15:-1 17:1 18:-1 19:-1 20:-1 25:1 26:-1 27:-1 28:-1 
0 32 0 18.38471473626977 0 0 0 1:1 2:-1 3:-1 4:-1 5:-1 6:-1 7:-1 9:-1 10:-1 11:1 12:-1 13:-1 14:-1 15:-1 17:1 18:-1 19:-1 20:-1 25:1 26:-1 27:-1 28:-1 
0 32 0 32 0 0 0 1:1 2:-1 3:-1 4:-1 5:-1 6:-1 7:-1 9:-1 10:-1 11:1 12:-1 13:-1 14:-1 15:-1 17:1 18:-1 19:-1 20:-1 25:1 26:-1 27:-1 28:-1 
1.94464455291464 32 0 32 1.237047834034376 0.635931768655796 0 1:1 2:-1 3:-1 4:-1 5:-1 6:-1 7:-1 9:-1 10:-1 11:1 12:-1 13:-1 14:-1 15:-1 17:1 18:-1 19:-1 20:-1 25:1 26:-1 27:-1 28:-1 
0 0 32 0 2.698298970553366 0 0 1:1 2:-1 3:-1 4:-1 5:-1 6:-1 7:-1 9:-1 10:-1 11:-1 12:-1 13:1 14:-1 15:-1 17:1 18:-1 19:-1 20:-1 25:1 26:-1 27:-1 28:-1 
0 0 32 0 32 0 0 1:1 2:-1 3:-1 4:-1 5:-1 6:-1 7:-1 9:-1 10:-1 11:-1 12:-1 13:1 14:-1 15:-1 17:1 18:-1 19:-1 20:-1 25:1 26:-1 27:-1 28:-1 
2.071396762166561 0 32 1.976317887774149 32 0.147802557845533 0 1:1 2:-1 3:-1 4:-1 5:-1 6:-1 7:-1 9:-1 10:-1 11:-1 12:-1 13:1 14:-1 15:-1 17:1 18:-1 19:-1 20:-1 25:1 26:-1 27:-1 28:-1 
0 0 0 32 0 0 0 1:1 2:-1 3:-1 4:-1 5:-1 6:-1 7:-1 9:1 10:-1 11:-1 12:-1 13:-1 14:-1 15:-1 17:-1 18:1 19:-1 20:-1 25:1 26:-1 27:-1 28:-1 
0 0 0 32 0 0 0 1:1 2:-1 3:-1 4:-1 5:-1 6:-1 7:-1 9:1 10:-1 11:-1 12:-1 13:-1 14:-1 15:-1 17:-1 18:1 19:-1 20:-1 25:1 26:-1 27:-1 28:-1 
0 0 0 32 0 0 0 1:1 2:-1 3:-1 4:-1 5:-1 6:-1 7:-1 9:1 10:-1 11:-1 12:-1 13:-1 14:-1 15:-1 17:-1 18:1 19:-1 20:-1 25:1 26:-1 27:-1 28:-1 
0 0 0 32 0 0 0 1:1 2:-1 3:-1 4:-1 5:-1 6:-1 7:-1 9:1 10:-1 11:-1 12:-1 13:-1 14:-1 15:-1 17:-1 18:1 19:-1 20:-1 25:1 26:-1 27:-1 28:-1 
0 0 0 32 0 0 0 1:1 2:-1 3:-1 4:-1 5:-1 6:-1 7:-1 9:1 10:-1 11:-1 12:-1 13:-1 14:-1 15:-1 17:-1 18:1 19:-1 20:-1 25:1 26:-1 27:-1 28:-1 
0 0 0 32 0 1.968755360030394 0 1:1 2:-1 3:-1 4:-1 5:-1 6:-1 7:-1 9:1 10:-1 11:-1 12:-1 13:-1 14:-1 15:-1 17:-1 18:1 19:-1 20:-1 25:1 26:-1 27:-1 28:-1 
0.1062910067555124 7.972665884334526 0.1161639807122603 32 0.4167383261434385 32 0 1:1 2:-1 3:-1 4:-1 5:-1 6:-1 7:-1 9:1 10:-1 11:-1 12:-1 13:-1 14:-1 15:-1 17:-1 18:1 19:-1 20:-1 25:1 26:-1 27:-1 28:-1 
0 0 0 32 0 0 0 1:1 2:-1 3:-1 4:-1 5:-1 6:-1 7:-1 9:1 10:-1 11:-1 12:-1 13:-1 14:-1 15:-1 17:-1 18:-1 19:1 20:-1 25:1 26:-1 27:-1 28:-1 
0 11.71428581614374 0 32 0 0 0 1:1 2:-1 3:-1 4:-1 5:-1 6:-1 7:-1 9:1 10:-1 11:-1 12:-1 13:-1 14:-1 15:-1 17:-1 18:-1 19:1 20:-1 25:1 26:-1 27:-1 28:-1 
0.09742718303300839 32 0.2559219411356352 29.32250455478002 0.06189628781976734 1.142201226858022 0 1:1 2:-1 3:-1 4:-1 5:-1 6:-1 7:-1 9:1 10:-1 11:-1 12:-1 13:-1 14:-1 15:-1 17:-1 18:-1 19:1 20:-1 25:1 26:-1 27:-1 28:-1 
0.1561372505089952 32 0 31.77934074472896 0.2413617542614812 7.46070263202536 0 1:1 2:-1 3:-1 4:-1 5:-1 6:-1 7:-1 9:-1 10:-1 11:1 12:-1 13:-1 14:-1 15:-1 17:-1 18:-1 19:1 20:-1 25:1 26:-1 27:-1 28:-1 
0 0 4.52081171467166 0 0 0 0 1:1 2:-1 3:-1 4:-1 5:-1 6:-1 7:-1 9:1 10:-1 11:-1 12:-1 13:-1 14:-1 15:-1 17:1 18:-1 19:-1 20:-1 25:1 26:-1 27:-1 28:-1 
0 0 32 0 0 0 0 1:1 2:-1 3:-1 4:-1 5:-1 6:-1 7:-1 9:1 10:-1 11:-1 12:-1 13:-1 14:-1 15:-1 17:1 18:-1 19:-1 20:-1 25:1 26:-1 27:-1 28:-1 
0 0 32 0 0 0 0 1:1 2:-1 3:-1 4:-1 5:-1 6:-1 7:-1 9:1 10:-1 11:-1 12:-1 13:-1 14:-1 15:-1 17:1 18:-1 19:-1 20:-1 25:1 26:-1 27:-1 28:-1 
0 0 32 0 0 0 0 1:1 2:-1 3:-1 4:-1 5:-1 6:-1 7:-1 9:1 10:-1 11:-1 12:-1 13:-1 14:-1 15:-1 17:1 18:-1 19:-1 20:-1 25:1 26:-1 27:-1 28:-1 
0 0 32 0 0 0 0 1:1 2:-1 3:-1 4:-1 5:-1 6:-1 7:-1 9:1 10:-1 11:-1 12:-1 13:-1 14:-1 15:-1 17:1 18:-1 19:-1 20:-1 25:1 26:-1 27:-1 28:-1 
0 0 32 0 0 0 0 1:1 2:-1 3:-1 4:-1 5:-1 6:-1 7:-1 9:1 10:-1 11:-1 12:-1 13:-1 14:-1 15:-1 17:1 18:-1 19:-1 20:-1 25:1 26:-1 27:-1 28:-1 
0 0 32 0 0 0 0 1:1 2:-1 3:-1 4:-1 5:-1 6:-1 7:-1 9:1 10:-1 11:-1 12:-1 13:-1 14:-1 15:-1 17:1 18:-1 19:-1 20:-1 25:1 26:-1 27:-1 28:-1 
0 0 32 0 0 0 0 1:1 2:-1 3:-1 4:-1 5:-1 6:-1 7:-1 9:1 10:-1 11:-1 12:-1 13:-1 14:-1 15:-1 17:1 18:-1 19:-1 20:-1 25:1 26:-1 27:-1 28:-1 
0 0 32 0 0 0 0 1:1 2:-1 3:-1 4:-1 5:-1 6:-1 7:-1 9:1 10:-1 11:-1 12:-1 13:-1 14:-1 15:-1 17:1 18:-1 19:-1 20:-1 25:1 26:-1 27:-1 28:-1 
0 0 32 0 0 0 0 1:1 2:-1 3:-1 4:-1 5:-1 6:-1 7:-1 9:1 10:-1 11:-1 12:-1 13:-1 14:-1 15:-1 17:1 18:-1 19:-1 20:-1 25:1 26:-1 27:-1 28:-1 
0 0 32 0 0 0 0 1:1 2:-1 3:-1 4:-1 5:-1 6:-1 7:-1 9:1 10:-1 11:-1 12:-1 13:-1 14:-1 15:-1 17:1 18:-1 19:-1 20:-1 25:1 26:-1 27:-1 28:-1 
0 0 32 0 0 0 0 1:1 2:-1 3:-1 4:-1 5:-1 6:-1 7:-1 9:1 10:-1 11:-1 12:-1 13:-1 14:-1 15:-1 17:1 18:-1 19:-1 20:-1 25:1 26:-1 27:-1 28:-1 
0 0 32 0 0 0 0 1:1 2:-1 3:-1 4:-1 5:-1 6:-1 7:-1 9:1 10:-1 11:-1 12:-1 13:-1 14:-1 15:-1 17:1 18:-1 19:-1 20:-1 25:1 26:-1 27:-1 28:-1 
0 0 32 0 0 0 0 1:1 2:-1 3:-1 4:-1 5:-1 6:-1 7:-1 9:1 10:-1 11:-1 12:-1 13:-1 14:-1 15:-1 17:1 18:-1 19:-1 20:-1 25:1 26:-1 27:-1 28:-1 
0 0 32 0 4.52081171467166 0 0 1:1 2:-1 3:-1 4:-1 5:-1 6:-1 7:-1 9:1 10:-1 11:-1 12:-1 13:-1 14:-1 15:-1 17:1 18:-1 19:-1 20:-1 25:1 26:-1 27:-1 28:-1 
0 0 32 0 32 0 0 1:1 2:-1 3:-1 4:-1 5:-1 6:-1 7:-1 9:1 10:-1 11:-1 12:-1 13:-1 14:-1 15:-1 17:1 18:-1 19:-1 20:-1 25:1 26:-1 27:-1 28:-1 
0 0 32 0 32 0 0 1:1 2:-1 3:-1 4:-1 5:-1 6:-1 7:-1 9:1 10:-1 11:-1 12:-1 13:-1 14:-1 15:-1 17:1 18:-1 19:-1 20:-1 25:1 26:-1 27:-1 28:-1 
0 0 32 0 32 0 0 1:1 2:-1 3:-1 4:-1 5:-1 6:-1 7:-1 9:1 10:-1 11:-1 12:-1 13:-1 14:-1 15:-1 17:1 18:-1 19:-1 20:-1 25:1 26:-1 27:-1 28:-1 
0 0 32 0 32 0 0 1:1 2:-1 3:-1 4:-1 5:-1 6:-1 7:-1 9:1 10:-1 11:-1 12:-1 13:-1 14:-1 15:-1 17:1 18:-1 19:-1 20:-1 25:1 26:-1 27:-1 28:-1 
0 0 32 0 32 0 0 1:1 2:-1 3:-1 4:-1 5:-1 6:-1 7:-1 9:1 10:-1 11:-1 12:-1 13:-1 14:-1 15:-1 17:1 18:-1 19:-1 20:-1 25:1 26:-1 27:-1 28:-1 
0 0 32 0 32 0 0 1:1 2:-1 3:-1 4:-1 5:-1 6:-1 7:-1 9:1 10:-1 11:-1 12:-1 13:-1 14:-1 15:-1 17:1 18:-1 19:-1 20:-1 25:1 26:-1 27:-1 28:-1 
0 0 32 0 32 0 0 1:1 2:-1 3:-1 4:-1 5:-1 6:-1 7:-1 9:1 10:-1 11:-1 12:-1 13:-1 14:-1 15:-1 17:1 18:-1 19:-1 20:-1 25:1 26:-1 27:-1 28:-1 
0 0 32 0 32 0 0 1:1 2:-1 3:-1 4:-1 5:-1 6:-1 7:-1 9:1 10:-1 11:-1 12:-1 13:-1 14:-1 15:-1 17:1 18:-1 19:-1 20:-1 25:1 26:-1 27:-1 28:-1 
0 0 32 0 32 0 0 1:1 2:-1 3:-1 4:-1 5:-1 6:-1 7:-1 9:1 10:-1 11:-1 12:-1 13:-1 14:-1 15:-1 17:1 18:-1 19:-1 20:-1 25:1 26:-1 27:-1 28:-1 
0 0 32 0 32 0 0 1:1 2:-1 3:-1 4:-1 5:-1 6:-1 7:-1 9:1 10:-1 11:-1 12:-1 13:-1 14:-1 15:-1 17:1 18:-1 19:-1 20:-1 25:1 26:-1 27:-1 28:-1 
0 0 32 0 32 0 0 1:1 2:-1 3:-1 4:-1 5:-1 6:-1 7:-1 9:1 10:-1 11:-1 12:-1 13:-1 14:-1 15:-1 17:1 18:-1 19:-1 20:-1 25:1 26:-1 27:-1 28:-1 
0 0 32 0 32 0 0 1:1 2:-1 3:-1 4:-1 5:-1 6:-1 7:-1 9:1 10:-1 11:-1 12:-1 13:-1 14:-1 15:-1 17:1 18:-1 19:-1 20:-1 25:1 26:-1 27:-1 28:-1 
0 0 32 0 32 0 0 1:1 2:-1 3:-1 4:-1 5:-1 6:-1 7:-1 9:1 10:-1 11:-1 12:-1 13:-1 14:-1 15:-1 17:1 18:-1 19:-1 20:-1 25:1 26:-1 27:-1 28:-1 
0 0 32 0 32 0 0 1:1 2:-1 3:-1 4:-1 5:-1 6:-1 7:-1 9:1 10:-1 11:-1 12:-1 13:-1 14:-1 15:-1 17:1 18:-1 19:-1 20:-1 25:1 26:-1 27:-1 28:-1 
0 0 32 0 32 0 0 1:1 2:-1 3:-1 4:-1 5:-1 6:-1 7:-1 9:1 10:-1 11:-1 12:-1 13:-1 14:-1 15:-1 17:1 18:-1 19:-1 20:-1 25:1 26:-1 27:-1 28:-1 
0 0 32 0 32 0 0 1:1 2:-1 3:-1 4:-1 5:-1 6:-1 7:-1 9:1 10:-1 11:-1 12:-1 13:-1 14:-1 15:-1 17:1 18:-1 19:-1 20:-1 25:1 26:-1 27:-1 28:-1 
0 0 32 0 32 0 0 1:1 2:-1 3:-1 4:-1 5:-1 6:-1 7:-1 9:1 10:-1 11:-1 12:-1 13:-1 14:-1 15:-1 17:1 18:-1 19:-1 20:-1 25:1 26:-1 27:-1 28:-1 
0 0 32 0 32 0 0 1:1 2:-1 3:-1 4:-1 5:-1 6:-1 7:-1 9:1 10:-1 11:-1 12:-1 13:-1 14:-1 15:-1 17:1 18:-1 19:-1 20:-1 25:1 26:-1 27:-1 28:-1 
0 0 32 0 32 0 0 1:1 2:-1 3:-1 4:-1 5:-1 6:-1 7:-1 9:1 10:-1 11:-1 12:-1 13:-1 14:-1 15:-1 17:1 18:-1 19:-1 20:-1 25:1 26:-1 27:-1 28:-1 
0 0 32 0 32 0 0 1:1 2:-1 3:-1 4:-1 5:-1 6:-1 7:-1 9:1 10:-1 11:-1 12:-1 13:-1 14:-1 15:-1 17:1 18:-1 19:-1 20:-1 25:1 26:-1 27:-1 28:-1 
0 0 32 0 32 0 0 1:1 2:-1 3:-1 4:-1 5:-1 6:-1 7:-1 9:1 10:-1 11:-1 12:-1 13:-1 14:-1 15:-1 17:1 18:-1 19:-1 20:-1 25:1 26:-1 27:-1 28:-1 
0 0 32 0 32 0 0 1:1 2:-1 3:-1 4:-1 5:-1 6:-1 7:-1 9:1 10:-1 11:-1 12:-1 13:-1 14:-1 15:-1 17:1 18:-1 19:-1 20:-1 25:1 26:-1 27:-1 28:-1 
0 0 32 0 32 0 0 1:1 2:-1 3:-1 4:-1 5:-1 6:-1 7:-1 9:1 10:-1 11:-1 12:-1 13:-1 14:-1 15:-1 17:1 18:-1 19:-1 20:-1 25:1 26:-1 27:-1 28:-1 
0 0 32 0 32 0 0 1:1 2:-1 3:-1 4:-1 5:-1 6:-1 7:-1 9:1 10:-1 11:-1 12:-1 13:-1 14:-1 15:-1 17:1 18:-1 19:-1 20:-1 25:1 26:-1 27:-1 28:-1 
0 0 32 0 32 0 0 1:1 2:-1 3:-1 4:-1 5:-1 6:-1 7:-1 9:1 10:-1 11:-1 12:-1 13:-1 14:-1 15:-1 17:1 18:-1 19:-1 20:-1 25:1 26:-1 27:-1 28:-1 
0 0 32 0 32 0 0 1:1 2:-1 3:-1 4:-1 5:-1 6:-1 7:-1 9:1 10:-1 11:-1 12:-1 13:-1 14:-1 15:-1 17:1 18:-1 19:-1 20:-1 25:1 26:-1 27:-1 28:-1 
0 0 32 0 32 0 0 1:1 2:-1 3:-1 4:-1 5:-1 6:-1 7:-1 9:1 10:-1 11:-1 12:-1 13:-1 14:-1 15:-1 17:1 18:-1 19:-1 20:-1 25:1 26:-1 27:-1 28:-1 
0 0 32 0 32 0 0 1:1 2:-1 3:-1 4:-1 5:-1 6:-1 7:-1 9:1 10:-1 11:-1 12:-1 13:-1 14:-1 15:-1 17:1 18:-1 19:-1 20:-1 25:1 26:-1 27:-1 28:-1 
0 0 32 0 32 0 0 1:1 2:-1 3:-1 4:-1 5:-1 6:-1 7:-1 9:1 10:-1 11:-1 12:-1 13:-1 14:-1 15:-1 17:1 18:-1 19:-1 20:-1 25:1 26:-1 27:-1 28:-1 
0 0 32 0 32 0 0 1:1 2:-1 3:-1 4:-1 5:-1 6:-1 7:-1 9:1 10:-1 11:-1 12:-1 13:-1 14:-1 15:-1 17:1 18:-1 19:-1 20:-1 25:1 26:-1 27:-1 28:-1 
0 0 32 0 32 0 0 1:1 2:-1 3:-1 4:-1 5:-1 6:-1 7:-1 9:1 10:-1 11:-1 12:-1 13:-1 14:-1 15:-1 17:1 18:-1 19:-1 20:-1 25:1 26:-1 27:-1 28:-1 
0 0 32 0 32 0 0 1:1 2:-1 3:-1 4:-1 5:-1 6:-1 7:-1 9:1 10:-1 11:-1 12:-1 13:-1 14:-1 15:-1 17:1 18:-1 19:-1 20:-1 25:1 26:-1 27:-1 28:-1 
0 0 32 0 32 0 0 1:1 2:-1 3:-1 4:-1 5:-1 6:-1 7:-1 9:1 10:-1 11:-1 12:-1 13:-1 14:-1 15:-1 17:1 18:-1 19:-1 20:-1 25:1 26:-1 27:-1 28:-1 
0 4.52081171467166 32 0 32 0 0 1:1 2:-1 3:-1 4:-1 5:-1 6:-1 7:-1 9:1 10:-1 11:-1 12:-1 13:-1 14:-1 15:-1 17:1 18:-1 19:-1 20:-1 25:1 26:-1 27:-1 28:-1 
0 32 32 4.52081171467166 32 0 0 1:1 2:-1 3:-1 4:-1 5:-1 6:-1 7:-1 9:1 10:-1 11:-1 12:-1 13:-1 14:-1 15:-1 17:1 18:-1 19:-1 20:-1 25:1 26:-1 27:-1 28:-1 
0 32 32 32 32 0 0 1:1 2:-1 3:-1 4:-1 5:-1 6:-1 7:-1 9:1 10:-1 11:-1 12:-1 13:-1 14:-1 15:-1 17:1 18:-1 19:-1 20:-1 25:1 26:-1 27:-1 28:-1 
0 32 32 32 32 0 0 1:1 2:-1 3:-1 4:-1 5:-1 6:-1 7:-1 9:1 10:-1 11:-1 12:-1 13:-1 14:-1 15:-1 17:1 18:-1 19:-1 20:-1 25:1 26:-1 27:-1 28:-1 
0 32 32 32 32 0 0 1:1 2:-1 3:-1 4:-1 5:-1 6:-1 7:-1 9:1 10:-1 11:-1 12:-1 13:-1 14:-1 15:-1 17:1 18:-1 19:-1 20:-1 25:1 26:-1 27:-1 28:-1 
0 32 32 32 32 0 0 1:1 2:-1 3:-1 4:-1 5:-1 6:-1 7:-1 9:1 10:-1 11:-1 12:-1 13:-1 14:-1 15:-1 17:1 18:-1 19:-1 20:-1 25:1 26:-1 27:-1 28:-1 
0 32 32 32 32 0 0 1:1 2:-1 3:-1 4:-1 5:-1 6:-1 7:-1 9:1 10:-1 11:-1 12:-1 13:-1 14:-1 15:-1 17:1 18:-1 19:-1 20:-1 25:1 26:-1 27:-1 28:-1 
0 32 32 32 32 0 0 1:1 2:-1 3:-1 4:-1 5:-1 6:-1 7:-1 9:1 10:-1 11:-1 12:-1 13:-1 14:-1 15:-1 17:1 18:-1 19:-1 20:-1 25:1 26:-1 27:-1 28:-1 
0 32 32 32 32 0 0 1:1 2:-1 3:-1 4:-1 5:-1 6:-1 7:-1 9:1 10:-1 11:-1 12:-1 13:-1 14:-1 15:-1 17:1 18:-1 19:-1 20:-1 25:1 26:-1 27:-1 28:-1 
0 32 32 32 32 0 0 1:1 2:-1 3:-1 4:-1 5:-1 6:-1 7:-1 9:1 10:-1 11:-1 12:-1 13:-1 14:-1 15:-1 17:1 18:-1 19:-1 20:-1 25:1 26:-1 27:-1 28:-1 
0 32 32 32 32 0 0 1:1 2:-1 3:-1 4:-1 5:-1 6:-1 7:-1 9:1 10:-1 11:-1 12:-1 13:-1 14:-1 15:-1 17:1 18:-1 19:-1 20:-1 25:1 26:-1 27:-1 28:-1 
0 32 32 32 32 0 0 1:1 2:-1 3:-1 4:-1 5:-1 6:-1 7:-1 9:1 10:-1 11:-1 12:-1 13:-1 14:-1 15:-1 17:1 18:-1 19:-1 20:-1 25:1 26:-1 27:-1 28:-1 
0 32 32 32 32 0 0 1:1 2:-1 3:-1 4:-1 5:-1 6:-1 7:-1 9:1 10:-1 11:-1 12:-1 13:-1 14:-1 15:-1 17:1 18:-1 19:-1 20:-1 25:1 26:-1 27:-1 28:-1 
4.52081171467166 32 32 32 32 0 0 1:1 2:-1 3:-1 4:-1 5:-1 6:-1 7:-1 9:1 10:-1 11:-1 12:-1 13:-1 14:-1 15:-1 17:1 18:-1 19:-1 20:-1 25:1 26:-1 27:-1 28:-1 
32 32 32 32 32 4.52081171467166 0 1:1 2:-1 3:-1 4:-1 5:-1 6:-1 7:-1 9:1 10:-1 11:-1 12:-1 13:-1 14:-1 15:-1 17:1 18:-1 19:-1 20:-1 25:1 26:-1 27:-1 28:-1 
32 32 32 32 32 32 0 1:1 2:-1 3:-1 4:-1 5:-1 6:-1 7:-1 9:1 10:-1 11:-1 12:-1 13:-1 14:-1 15:-1 17:1 18:-1 19:-1 20:-1 25:1 26:-1 27:-1 28:-1 
32 32 32 32 32 32 0 1:1 2:-1 3:-1 4:-1 5:-1 6:-1 7:-1 9:1 10:-1 11:-1 12:-1 13:-1 14:-1 15:-1 17:1 18:-1 19:-1 20:-1 25:1 26:-1 27:-1 28:-1 
32 17.15183254558973 32 32 32 32 0 1:1 2:-1 3:-1 4:-1 5:-1 6:-1 7:-1 9:1 10:-1 11:-1 12:-1 13:-1 14:-1 15:-1 17:1 18:-1 19:-1 20:-1 25:1 26:-1 27:-1 28:-1 
28.65207629228595 0 22.53430067081839 6.613663305215859 28.89748199715097 24.7324902444908 32 1:1 2:-1 3:-1 4:-1 5:-1 6:-1 7:-1 9:1 10:-1 11:-1 12:-1 13:-1 14:-1 15:-1 17:1 18:-1 19:-1 20:-1 25:1 26:-1 27:-1 28:-1 
-32 32 32 32 32 8.273699638845516 0 1:1 2:-1 3:-1 4:-1 5:-1 6:-1 7:-1 9:1 10:-1 11:-1 12:-1 13:-1 14:-1 15:-1 17:1 18:-1 19:-1 20:-1 25:1 26:-1 27:-1 28:-1 
-32 32 32 32 32 32 0 1:1 2:-1 3:-1 4:-1 5:-1 6:-1 7:-1 9:1 10:-1 11:-1 12:-1 13:-1 14:-1 15:-1 17:1 18:-1 19:-1 20:-1 25:1 26:-1 27:-1 28:-1 
-32 32 32 32 32 32 0 1:1 2:-1 3:-1 4:-1 5:-1 6:-1 7:-1 9:1 10:-1 11:-1 12:-1 13:-1 14:-1 15:-1 17:1 18:-1 19:-1 20:-1 25:1 26:-1 27:-1 28:-1 
-0 0 0 0 32 0 0 1:1 2:-1 3:-1 4:-1 5:-1 6:-1 7:-1 9:-1 10:-1 11:-1 12:-1 13:-1 14:1 15:-1 17:1 18:-1 19:-1 20:-1 25:1 26:-1 27:-1 28:-1 
-32 32 32 32 32 32 0 1:1 2:-1 3:-1 4:-1 5:-1 6:-1 7:-1 9:1 10:-1 11:-1 12:-1 13:-1 14:-1 15:-1 17:1 18:-1 19:-1 20:-1 25:1 26:-1 27:-1 28:-1 
-7.393834059821153 6.286185155270863 6.346572299153482 6.652691900412963 32 0 0 1:1 2:-1 3:-1 4:-1 5:-1 6:-1 7:-1 9:-1 10:-1 11:-1 12:-1 13:-1 14:1 15:-1 17:1 18:-1 19:-1 20:-1 25:1 26:-1 27:-1 28:-1 
-0 0 0 0 0 2.147024615764368 0 1:-1 2:-1 3:-1 4:-1 5:-1 6:1 7:-1 9:-1 10:-1 11:-1 12:-1 13:-1 14:1 15:-1 17:-1 18:-1 19:1 20:-1 25:1 26:-1 27:-1 28:-1 
-32 32 32 32 32 32 32 1:1 2:-1 3:-1 4:-1 5:-1 6:-1 7:-1 9:1 10:-1 11:-1 12:-1 13:-1 14:-1 15:-1 17:1 18:-1 19:-1 20:-1 25:1 26:-1 27:-1 28:-1 
-1.998387173021883 1.166612287562459 0.954872035224607 2.711462299588366 3.374060946517854 0.2203988588686319 0 1:-1 2:-1 3:-1 4:-1 5:-1 6:1 7:-1 9:-1 10:1 11:-1 12:-1 13:-1 14:-1 15:-1 17:1 18:-1 19:-1 20:-1 25:1 26:-1 27:-1 28:-1 
-1.996164645708413 3.307792595841103 0 2.430473716691675 0 0.6272209920752382 0 1:-1 2:-1 3:-1 4:-1 5:-1 6:1 7:-1 9:-1 10:-1 11:1 12:-1 13:-1 14:-1 15:-1 17:1 18:-1 19:-1 20:-1 25:1 26:-1 27:-1 28:-1 
-0.1193347834073585 0.321417461252663 0 0.1257893116548401 16.17245347726498 0.3079306277908377 0 1:-1 2:-1 3:-1 4:-1 5:-1 6:-1 7:1 9:-1 10:-1 11:-1 12:-1 13:-1 14:1 15:-1 17:1 18:-1 19:-1 20:-1 25:1 26:-1 27:-1 28:-1 
-2.003324981006481 0 3.233382580737917 0 3.375244662599624 0 0 1:-1 2:-1 3:-1 4:-1 5:-1 6:1 7:-1 9:-1 10:-1 11:-1 12:-1 13:1 14:-1 15:-1 17:1 18:-1 19:-1 20:-1 25:1 26:-1 27:-1 28:-1 
-4.520811714671659 0 0 0 2.760405885858813 0 0 1:-1 2:-1 3:-1 4:-1 5:-1 6:1 7:-1 9:1 10:-1 11:-1 12:-1 13:-1 14:-1 15:-1 17:1 18:-1 19:-1 20:-1 25:1 26:-1 27:-1 28:-1 
-29.98565542560122 3.733560317480913 2.93067466317691 3.161721488720584 30.00766224704373 0 0 1:-1 2:-1 3:-1 4:-1 5:-1 6:1 7:-1 9:1 10:-1 11:-1 12:-1 13:-1 14:-1 15:-1 17:1 18:-1 19:-1 20:-1 25:1 26:-1 27:-1 28:-1 
-0 -0 0 32 0 0 0 1:-1 2:1 3:-1 4:-1 5:-1 6:-1 7:-1 9:-1 10:-1 11:1 12:-1 13:-1 14:-1 15:-1 17:1 18:-1 19:-1 20:-1 25:1 26:-1 27:-1 28:-1 
-4.994852412473704 -0.147800778649231 0 32 0 0 0 1:-1 2:1 3:-1 4:-1 5:-1 6:-1 7:-1 9:-1 10:-1 11:1 12:-1 13:-1 14:-1 15:-1 17:1 18:-1 19:-1 20:-1 25:1 26:-1 27:-1 28:-1 
-0 -0 0 32 0 0 0 1:-1 2:1 3:-1 4:-1 5:-1 6:-1 7:-1 9:-1 10:1 11:-1 12:-1 13:-1 14:-1 15:-1 17:-1 18:1 19:-1 20:-1 25:1 26:-1 27:-1 28:-1 
-0 -0 0 0 0 6.117298291750901 0 1:-1 2:-1 3:1 4:-1 5:-1 6:-1 7:-1 9:-1 10:-1 11:1 12:-1 13:-1 14:-1 15:-1 17:-1 18:-1 19:1 20:-1 25:-1 26:-1 27:-1 28:1 
-0 -0 0 15.20923454116321 0 0 0 1:-1 2:1 3:-1 4:-1 5:-1 6:-1 7:-1 9:-1 10:-1 11:1 12:-1 13:-1 14:-1 15:-1 17:-1 18:-1 19:1 20:-1 25:-1 26:-1 27:1 28:-1 
-32 -0 3.974409719152727 32 3.936033072333301 4.58373111099512 0 1:1 2:-1 3:-1 4:-1 5:-1 6:-1 7:-1 9:1 10:-1 11:-1 12:-1 13:-1 14:-1 15:-1 17:-1 18:-1 19:1 20:-1 25:1 26:-1 27:-1 28:-1 
-0 -0 0 32 0 0 0 1:-1 2:1 3:-1 4:-1 5:-1 6:-1 7:-1 9:-1 10:-1 11:1 12:-1 13:-1 14:-1 15:-1 17:-1 18:1 19:-1 20:-1 25:1 26:-1 27:-1 28:-1 
-0 -0 0 32 0 0 0 1:-1 2:1 3:-1 4:-1 5:-1 6:-1 7:-1 9:-1 10:-1 11:1 12:-1 13:-1 14:-1 15:-1 17:-1 18:1 19:-1 20:-1 25:-1 26:1 27:-1 28:-1 
-32 -0 32 32 32 0 0 1:1 2:-1 3:-1 4:-1 5:-1 6:-1 7:-1 9:1 10:-1 11:-1 12:-1 13:-1 14:-1 15:-1 17:1 18:-1 19:-1 20:-1 25:1 26:-1 27:-1 28:-1 
-32 -0 32 32 32 0 0 1:1 2:-1 3:-1 4:-1 5:-1 6:-1 7:-1 9:1 10:-1 11:-1 12:-1 13:-1 14:-1 15:-1 17:1 18:-1 19:-1 20:-1 25:1 26:-1 27:-1 28:-1 
-0 -0 0 17.39199086064026 0 0 0 1:-1 2:1 3:-1 4:-1 5:-1 6:-1 7:-1 9:-1 10:-1 11:1 12:-1 13:-1 14:-1 15:-1 17:-1 18:-1 19:1 20:-1 25:-1 26:1 27:-1 28:-1 
-0 -0 0 19.4480136689512 0 0 0 1:1 2:-1 3:-1 4:-1 5:-1 6:-1 7:-1 9:-1 10:-1 11:1 12:-1 13:-1 14:-1 15:-1 17:1 18:-1 19:-1 20:-1 25:-1 26:1 27:-1 28:-1 
-0 -0 0 32 0 0 0 1:1 2:-1 3:-1 4:-1 5:-1 6:-1 7:-1 9:-1 10:-1 11:1 12:-1 13:-1 14:-1 15:-1 17:1 18:-1 19:-1 20:-1 25:-1 26:1 27:-1 28:-1 
-32 -0 0 0 0 0 0 1:1 2:-1 3:-1 4:-1 5:-1 6:-1 7:-1 9:-1 10:-1 11:1 12:-1 13:-1 14:-1 15:-1 17:1 18:-1 19:-1 20:-1 25:1 26:-1 27:-1 28:-1 
-32 -0 0 0 0 0 0 1:1 2:-1 3:-1 4:-1 5:-1 6:-1 7:-1 9:-1 10:-1 11:1 12:-1 13:-1 14:-1 15:-1 17:1 18:-1 19:-1 20:-1 25:1 26:-1 27:-1 28:-1 
-0 -0 0 32 0 0 0 1:-1 2:1 3:-1 4:-1 5:-1 6:-1 7:-1 9:-1 10:1 11:-1 12:-1 13:-1 14:-1 15:-1 17:-1 18:1 19:-1 20:-1 25:-1 26:1 27:-1 28:-1 
-28.51661341850649 -0 0 32 0 1.76061820137637 0 1:-1 2:1 3:-1 4:-1 5:-1 6:-1 7:-1 9:-1 10:1 11:-1 12:-1 13:-1 14:-1 15:-1 17:-1 18:1 19:-1 20:-1 25:1 26:-1 27:-1 28:-1 
-0 -0 0 23.16866920082179 0 0 0 1:1 2:-1 3:-1 4:-1 5:-1 6:-1 7:-1 9:-1 10:-1 11:1 12:-1 13:-1 14:-1 15:-1 17:-1 18:1 19:-1 20:-1 25:1 26:-1 27:-1 28:-1 
-0 -0 0 32 0 0 0 1:1 2:-1 3:-1 4:-1 5:-1 6:-1 7:-1 9:-1 10:-1 11:1 12:-1 13:-1 14:-1 15:-1 17:-1 18:1 19:-1 20:-1 25:1 26:-1 27:-1 28:-1 
-0 -0 0 32 0 0 0 1:1 2:-1 3:-1 4:-1 5:-1 6:-1 7:-1 9:-1 10:1 11:-1 12:-1 13:-1 14:-1 15:-1 17:-1 18:-1 19:1 20:-1 25:1 26:-1 27:-1 28:-1 
-9.695147955924115 -0.5300613612858069 0 32 0.4896659510023279 0 0 1:1 2:-1 3:-1 4:-1 5:-1 6:-1 7:-1 9:-1 10:1 11:-1 12:-1 13:-1 14:-1 15:-1 17:-1 18:-1 19:1 20:-1 25:1 26:-1 27:-1 28:-1 
-0 -0.3993372703009349 0 2.279381020065515 0 0 0 1:-1 2:-1 3:1 4:-1 5:-1 6:-1 7:-1 9:-1 10:-1 11:-1 12:1 13:-1 14:-1 15:-1 17:-1 18:-1 19:1 20:-1 25:-1 26:-1 27:1 28:-1 
-11.59335716417251 -0 0 32 0 0 0 1:-1 2:1 3:-1 4:-1 5:-1 6:-1 7:-1 9:-1 10:1 11:-1 12:-1 13:-1 14:-1 15:-1 17:1 18:-1 19:-1 20:-1 25:1 26:-1 27:-1 28:-1 
-32 -2.274296711612004 2.031086081340339 32 1.681165356792901 0 0 1:-1 2:1 3:-1 4:-1 5:-1 6:-1 7:-1 9:-1 10:1 11:-1 12:-1 13:-1 14:-1 15:-1 17:1 18:-1 19:-1 20:-1 25:1 26:-1 27:-1 28:-1 
-32 -0 2.648996053289324 32 2.950235469555651 0 0 1:-1 2:1 3:-1 4:-1 5:-1 6:-1 7:-1 9:1 10:-1 11:-1 12:-1 13:-1 14:-1 15:-1 17:1 18:-1 19:-1 20:-1 25:1 26:-1 27:-1 28:-1 
-32 -0 32 32 32 0 0 1:1 2:-1 3:-1 4:-1 5:-1 6:-1 7:-1 9:1 10:-1 11:-1 12:-1 13:-1 14:-1 15:-1 17:1 18:-1 19:-1 20:-1 25:1 26:-1 27:-1 28:-1 
-32 -0 32 32 32 0 0 1:1 2:-1 3:-1 4:-1 5:-1 6:-1 7:-1 9:1 10:-1 11:-1 12:-1 13:-1 14:-1 15:-1 17:1 18:-1 19:-1 20:-1 25:1 26:-1 27:-1 28:-1 
-8.879478194396849 -0 0 0 0 0 0 1:-1 2:-1 3:1 4:-1 5:-1 6:-1 7:-1 9:-1 10:-1 11:1 12:-1 13:-1 14:-1 15:-1 17:1 18:-1 19:-1 20:-1 25:1 26:-1 27:-1 28:-1 
-0 -0 0 2.840176299420027 0 0 0 1:1 2:-1 3:-1 4:-1 5:-1 6:-1 7:-1 9:1 10:-1 11:-1 12:-1 13:-1 14:-1 15:-1 17:-1 18:1 19:-1 20:-1 25:-1 26:-1 27:1 28:-1 
-0 -0 0 6.776523293493352 0 0 0 1:1 2:-1 3:-1 4:-1 5:-1 6:-1 7:-1 9:-1 10:-1 11:1 12:-1 13:-1 14:-1 15:-1 17:1 18:-1 19:-1 20:-1 25:-1 26:-1 27:1 28:-1 
-32 -0 32 32 32 0 0 1:1 2:-1 3:-1 4:-1 5:-1 6:-1 7:-1 9:1 10:-1 11:-1 12:-1 13:-1 14:-1 15:-1 17:1 18:-1 19:-1 20:-1 25:1 26:-1 27:-1 28:-1 
-0 -0 0 32 0 0 0 1:-1 2:1 3:-1 4:-1 5:-1 6:-1 7:-1 9:-1 10:-1 11:1 12:-1 13:-1 14:-1 15:-1 17:-1 18:1 19:-1 20:-1 25:1 26:-1 27:-1 28:-1 
-0 -0 0 11.357815145741 0 0 0 1:-1 2:1 3:-1 4:-1 5:-1 6:-1 7:-1 9:-1 10:-1 11:1 12:-1 13:-1 14:-1 15:-1 17:-1 18:1 19:-1 20:-1 25:-1 26:-1 27:1 28:-1 
-32 -0 32 32 32 0 0 1:1 2:-1 3:-1 4:-1 5:-1 6:-1 7:-1 9:1 10:-1 11:-1 12:-1 13:-1 14:-1 15:-1 17:1 18:-1 19:-1 20:-1 25:1 26:-1 27:-1 28:-1 
-32 -0 0 31.298911802575 0 0 0 1:-1 2:-1 3:1 4:-1 5:-1 6:-1 7:-1 9:1 10:-1 11:-1 12:-1 13:-1 14:-1 15:-1 17:1 18:-1 19:-1 20:-1 25:1 26:-1 27:-1 28:-1 
-12.23636642159061 -0 1.086820477247628 26.57546419639156 0 1.494028978256417 0 1:-1 2:-1 3:1 4:-1 5:-1 6:-1 7:-1 9:1 10:-1 11:-1 12:-1 13:-1 14:-1 15:-1 17:1 18:-1 19:-1 20:-1 25:-1 26:1 27:-1 28:-1 
-32 -0 0 32 0 0 0 1:-1 2:-1 3:1 4:-1 5:-1 6:-1 7:-1 9:1 10:-1 11:-1 12:-1 13:-1 14:-1 15:-1 17:1 18:-1 19:-1 20:-1 25:1 26:-1 27:-1 28:-1 
-32 -0 32 32 32 0 0 1:1 2:-1 3:-1 4:-1 5:-1 6:-1 7:-1 9:1 10:-1 11:-1 12:-1 13:-1 14:-1 15:-1 17:1 18:-1 19:-1 20:-1 25:1 26:-1 27:-1 28:-1 
-4.904944847861068 -0 0 0 0 0 0 1:1 2:-1 3:-1 4:-1 5:-1 6:-1 7:-1 9:-1 10:-1 11:1 12:-1 13:-1 14:-1 15:-1 17:-1 18:-1 19:1 20:-1 25:1 26:-1 27:-1 28:-1 
-32 -0 0 0 0 0 0 1:1 2:-1 3:-1 4:-1 5:-1 6:-1 7:-1 9:-1 10:-1 11:1 12:-1 13:-1 14:-1 15:-1 17:-1 18:-1 19:1 20:-1 25:1 26:-1 27:-1 28:-1 
-0 -0 0 9.177305088594625 0 27.77935539588261 0 1:1 2:-1 3:-1 4:-1 5:-1 6:-1 7:-1 9:-1 10:-1 11:1 12:-1 13:-1 14:-1 15:-1 17:-1 18:-1 19:1 20:-1 25:-1 26:1 27:-1 28:-1 
-0 -0 0 32 0 0 0 1:1 2:-1 3:-1 4:-1 5:-1 6:-1 7:-1 9:-1 10:-1 11:1 12:-1 13:-1 14:-1 15:-1 17:-1 18:1 19:-1 20:-1 25:1 26:-1 27:-1 28:-1 
-9.69671004484459 -0 0 32 0 9.710502945040268 0 1:1 2:-1 3:-1 4:-1 5:-1 6:-1 7:-1 9:-1 10:-1 11:1 12:-1 13:-1 14:-1 15:-1 17:-1 18:1 19:-1 20:-1 25:1 26:-1 27:-1 28:-1 
-0 -0.4978725696669268 0 4.005313253468018 0 1.79116747720724 0 1:-1 2:-1 3:-1 4:1 5:-1 6:-1 7:-1 9:-1 10:-1 11:1 12:-1 13:-1 14:-1 15:-1 17:-1 18:1 19:-1 20:-1 25:-1 26:1 27:-1 28:-1 
-32 -0 0 0 0 0 0 1:1 2:-1 3:-1 4:-1 5:-1 6:-1 7:-1 9:-1 10:-1 11:1 12:-1 13:-1 14:-1 15:-1 17:1 18:-1 19:-1 20:-1 25:1 26:-1 27:-1 28:-1 
-32 -0 0 0 0 0 0 1:1 2:-1 3:-1 4:-1 5:-1 6:-1 7:-1 9:-1 10:-1 11:1 12:-1 13:-1 14:-1 15:-1 17:1 18:-1 19:-1 20:-1 25:1 26:-1 27:-1 28:-1 
-32 -0 0 0 0 0 0 1:1 2:-1 3:-1 4:-1 5:-1 6:-1 7:-1 9:-1 10:-1 11:1 12:-1 13:-1 14:-1 15:-1 17:1 18:-1 19:-1 20:-1 25:1 26:-1 27:-1 28:-1 
-32 -0 0 0 0 0 0 1:1 2:-1 3:-1 4:-1 5:-1 6:-1 7:-1 9:-1 10:-1 11:1 12:-1 13:-1 14:-1 15:-1 17:1 18:-1 19:-1 20:-1 25:1 26:-1 27:-1 28:-1 
-32 -0 0 0 0 0 0 1:1 2:-1 3:-1 4:-1 5:-1 6:-1 7:-1 9:-1 10:-1 11:1 12:-1 13:-1 14:-1 15:-1 17:1 18:-1 19:-1 20:-1 25:1 26:-1 27:-1 28:-1 
-32 -0 0 0 0 0 0 1:1 2:-1 3:-1 4:-1 5:-1 6:-1 7:-1 9:-1 10:-1 11:1 12:-1 13:-1 14:-1 15:-1 17:1 18:-1 19:-1 20:-1 25:1 26:-1 27:-1 28:-1 
-32 -0 32 32 32 0 0 1:1 2:-1 3:-1 4:-1 5:-1 6:-1 7:-1 9:1 10:-1 11:-1 12:-1 13:-1 14:-1 15:-1 17:1 18:-1 19:-1 20:-1 25:1 26:-1 27:-1 28:-1 
-32 -0.7342727927494888 7.262278649764857 22.38110434884528 4.259494427364308 0.4356232508354142 0 1:-1 2:-1 3:1 4:-1 5:-1 6:-1 7:-1 9:1 10:-1 11:-1 12:-1 13:-1 14:-1 15:-1 17:1 18:-1 19:-1 20:-1 25:1 26:-1 27:-1 28:-1 
-0 -0 0 32 0 0 0 1:1 2:-1 3:-1 4:-1 5:-1 6:-1 7:-1 9:-1 10:-1 11:1 12:-1 13:-1 14:-1 15:-1 17:1 18:-1 19:-1 20:-1 25:-1 26:1 27:-1 28:-1 
-12.23700271362158 -0 0 32 0 2.919024972462682 0 1:1 2:-1 3:-1 4:-1 5:-1 6:-1 7:-1 9:-1 10:-1 11:1 12:-1 13:-1 14:-1 15:-1 17:1 18:-1 19:-1 20:-1 25:-1 26:1 27:-1 28:-1 
-32 -0 0 0 0 0 0 1:1 2:-1 3:-1 4:-1 5:-1 6:-1 7:-1 9:-1 10:-1 11:1 12:-1 13:-1 14:-1 15:-1 17:1 18:-1 19:-1 20:-1 25:1 26:-1 27:-1 28:-1 
-32 -0 12.78566468111192 32 2.644600248225177 1.086213868452114 0 1:1 2:-1 3:-1 4:-1 5:-1 6:-1 7:-1 9:1 10:-1 11:-1 12:-1 13:-1 14:-1 15:-1 17:1 18:-1 19:-1 20:-1 25:-1 26:1 27:-1 28:-1 
-32 -0 32 32 32 0 0 1:1 2:-1 3:-1 4:-1 5:-1 6:-1 7:-1 9:1 10:-1 11:-1 12:-1 13:-1 14:-1 15:-1 17:1 18:-1 19:-1 20:-1 25:1 26:-1 27:-1 28:-1 
-32 -0 32 32 32 0 0 1:1 2:-1 3:-1 4:-1 5:-1 6:-1 7:-1 9:1 10:-1 11:-1 12:-1 13:-1 14:-1 15:-1 17:1 18:-1 19:-1 20:-1 25:1 26:-1 27:-1 28:-1 
-32 -1.825306209684967 32 32 4.259528348837351 0.1884534332825737 0 1:-1 2:-1 3:-1 4:-1 5:1 6:-1 7:-1 9:1 10:-1 11:-1 12:-1 13:-1 14:-1 15:-1 17:1 18:-1 19:-1 20:-1 25:1 26:-1 27:-1 28:-1 
-32 -0 32 32 32 0 0 1:1 2:-1 3:-1 4:-1 5:-1 6:-1 7:-1 9:1 10:-1 11:-1 12:-1 13:-1 14:-1 15:-1 17:1 18:-1 19:-1 20:-1 25:1 26:-1 27:-1 28:-1 
-32 -0 32 32 32 0 0 1:1 2:-1 3:-1 4:-1 5:-1 6:-1 7:-1 9:1 10:-1 11:-1 12:-1 13:-1 14:-1 15:-1 17:1 18:-1 19:-1 20:-1 25:1 26:-1 27:-1 28:-1 
-32 -4.567602158881394 32 32 32 0 0 1:1 2:-1 3:-1 4:-1 5:-1 6:-1 7:-1 9:1 10:-1 11:-1 12:-1 13:-1 14:-1 15:-1 17:1 18:-1 19:-1 20:-1 25:1 26:-1 27:-1 28:-1 
-3.755020540729281 -0 2.764774899012937 27.76181489477243 2.644011086878002 0 0 1:1 2:-1 3:-1 4:-1 5:-1 6:-1 7:-1 9:1 10:-1 11:-1 12:-1 13:-1 14:-1 15:-1 17:1 18:-1 19:-1 20:-1 25:-1 26:-1 27:1 28:-1 
-2.176732128503553 -0 0 32 0 6.256007222071795 0 1:1 2:-1 3:-1 4:-1 5:-1 6:-1 7:-1 9:1 10:-1 11:-1 12:-1 13:-1 14:-1 15:-1 17:-1 18:1 19:-1 20:-1 25:-1 26:-1 27:1 28:-1 
-0 -0 0 30.63013818879289 0 0 0 1:-1 2:1 3:-1 4:-1 5:-1 6:-1 7:-1 9:-1 10:-1 11:1 12:-1 13:-1 14:-1 15:-1 17:-1 18:-1 19:1 20:-1 25:1 26:-1 27:-1 28:-1 
-0 -0 0 32 0 0 0 1:-1 2:1 3:-1 4:-1 5:-1 6:-1 7:-1 9:-1 10:-1 11:1 12:-1 13:-1 14:-1 15:-1 17:-1 18:-1 19:1 20:-1 25:-1 26:1 27:-1 28:-1 
-0 -0 0 24.16672811492818 0 0 0 1:-1 2:1 3:-1 4:-1 5:-1 6:-1 7:-1 9:-1 10:-1 11:1 12:-1 13:-1 14:-1 15:-1 17:-1 18:-1 19:1 20:-1 25:1 26:-1 27:-1 28:-1 
-32 -0 0 9.512523363122279 0 0 0 1:1 2:-1 3:-1 4:-1 5:-1 6:-1 7:-1 9:-1 10:-1 11:1 12:-1 13:-1 14:-1 15:-1 17:-1 18:-1 19:1 20:-1 25:1 26:-1 27:-1 28:-1 
-32 -0 0 0 0 0 0 1:1 2:-1 3:-1 4:-1 5:-1 6:-1 7:-1 9:-1 10:-1 11:1 12:-1 13:-1 14:-1 15:-1 17:1 18:-1 19:-1 20:-1 25:1 26:-1 27:-1 28:-1 
-31.36451997805263 -0 0 32 0 0 0 1:1 2:-1 3:-1 4:-1 5:-1 6:-1 7:-1 9:-1 10:-1 11:1 12:-1 13:-1 14:-1 15:-1 17:-1 18:-1 19:1 20:-1 25:1 26:-1 27:-1 28:-1 
-32 -0 0 28.32931359009062 0 0 0 1:1 2:-1 3:-1 4:-1 5:-1 6:-1 7:-1 9:-1 10:-1 11:1 12:-1 13:-1 14:-1 15:-1 17:1 18:-1 19:-1 20:-1 25:1 26:-1 27:-1 28:-1 
-32 -3.825513756295823 6.016383847202305 2.193531541340912 6.859988996762159 0 0 1:1 2:-1 3:-1 4:-1 5:-1 6:-1 7:-1 9:-1 10:-1 11:1 12:-1 13:-1 14:-1 15:-1 17:1 18:-1 19:-1 20:-1 25:1 26:-1 27:-1 28:-1 
-32 -32 32 32 32 8.807769492073362 0 1:1 2:-1 3:-1 4:-1 5:-1 6:-1 7:-1 9:1 10:-1 11:-1 12:-1 13:-1 14:-1 15:-1 17:1 18:-1 19:-1 20:-1 25:1 26:-1 27:-1 28:-1 
-32 -32 32 32 32 32 0 1:1 2:-1 3:-1 4:-1 5:-1 6:-1 7:-1 9:1 10:-1 11:-1 12:-1 13:-1 14:-1 15:-1 17:1 18:-1 19:-1 20:-1 25:1 26:-1 27:-1 28:-1 
-32 -32 32 32 32 32 0 1:1 2:-1 3:-1 4:-1 5:-1 6:-1 7:-1 9:1 10:-1 11:-1 12:-1 13:-1 14:-1 15:-1 17:1 18:-1 19:-1 20:-1 25:1 26:-1 27:-1 28:-1 
-32 -32 32 32 32 32 0 1:1 2:-1 3:-1 4:-1 5:-1 6:-1 7:-1 9:1 10:-1 11:-1 12:-1 13:-1 14:-1 15:-1 17:1 18:-1 19:-1 20:-1 25:1 26:-1 27:-1 28:-1 
-32 -0 0 0 0 0 0 1:-1 2:-1 3:1 4:-1 5:-1 6:-1 7:-1 9:-1 10:-1 11:1 12:-1 13:-1 14:-1 15:-1 17:1 18:-1 19:-1 20:-1 25:1 26:-1 27:-1 28:-1 
-32 -0 0 0 0 0 0 1:-1 2:-1 3:1 4:-1 5:-1 6:-1 7:-1 9:-1 10:-1 11:1 12:-1 13:-1 14:-1 15:-1 17:1 18:-1 19:-1 20:-1 25:1 26:-1 27:-1 28:-1 
-32 -0 0 0 0 0 0 1:-1 2:-1 3:1 4:-1 5:-1 6:-1 7:-1 9:-1 10:-1 11:1 12:-1 13:-1 14:-1 15:-1 17:1 18:-1 19:-1 20:-1 25:1 26:-1 27:-1 28:-1 
-0 -0 0 10.74060058331309 0 0 0 1:-1 2:-1 3:1 4:-1 5:-1 6:-1 7:-1 9:-1 10:-1 11:1 12:-1 13:-1 14:-1 15:-1 17:-1 18:1 19:-1 20:-1 25:-1 26:1 27:-1 28:-1 
-32 -1.159785144560164 0 17.88585777910736 0 0.3651316581383581 0 1:-1 2:-1 3:1 4:-1 5:-1 6:-1 7:-1 9:-1 10:-1 11:1 12:-1 13:-1 14:-1 15:-1 17:1 18:-1 19:-1 20:-1 25:1 26:-1 27:-1 28:-1 
-32 -30.85371906372126 32 32 32 32 32 1:1 2:-1 3:-1 4:-1 5:-1 6:-1 7:-1 9:1 10:-1 11:-1 12:-1 13:-1 14:-1 15:-1 17:1 18:-1 19:-1 20:-1 25:1 26:-1 27:-1 28:-1 
-32 -0 -0 0 0 0 0 1:1 2:-1 3:-1 4:-1 5:-1 6:-1 7:-1 9:-1 10:-1 11:-1 12:-1 13:1 14:-1 15:-1 17:1 18:-1 19:-1 20:-1 25:1 26:-1 27:-1 28:-1 
-32 -0 -0 0 0 0 0 1:1 2:-1 3:-1 4:-1 5:-1 6:-1 7:-1 9:-1 10:-1 11:-1 12:-1 13:1 14:-1 15:-1 17:1 18:-1 19:-1 20:-1 25:1 26:-1 27:-1 28:-1 
-32 -0 -0 0 0 0 0 1:1 2:-1 3:-1 4:-1 5:-1 6:-1 7:-1 9:1 10:-1 11:-1 12:-1 13:-1 14:-1 15:-1 17:1 18:-1 19:-1 20:-1 25:1 26:-1 27:-1 28:-1 
-32 -0 -0 0 0 0 0 1:1 2:-1 3:-1 4:-1 5:-1 6:-1 7:-1 9:1 10:-1 11:-1 12:-1 13:-1 14:-1 15:-1 17:1 18:-1 19:-1 20:-1 25:1 26:-1 27:-1 28:-1 
-32 -0 -0 0 0 0 0 1:1 2:-1 3:-1 4:-1 5:-1 6:-1 7:-1 9:1 10:-1 11:-1 12:-1 13:-1 14:-1 15:-1 17:1 18:-1 19:-1 20:-1 25:1 26:-1 27:-1 28:-1 
-32 -0 -0 0 0 0 0 1:1 2:-1 3:-1 4:-1 5:-1 6:-1 7:-1 9:1 10:-1 11:-1 12:-1 13:-1 14:-1 15:-1 17:1 18:-1 19:-1 20:-1 25:1 26:-1 27:-1 28:-1 
-32 -0 -0 0 0 0 0 1:1 2:-1 3:-1 4:-1 5:-1 6:-1 7:-1 9:-1 10:-1 11:-1 12:-1 13:1 14:-1 15:-1 17:1 18:-1 19:-1 20:-1 25:1 26:-1 27:-1 28:-1 
-32 -0 -0 0 0 0 0 1:1 2:-1 3:-1 4:-1 5:-1 6:-1 7:-1 9:-1 10:-1 11:-1 12:-1 13:1 14:-1 15:-1 17:1 18:-1 19:-1 20:-1 25:1 26:-1 27:-1 28:-1 
-32 -0 -0 0 0 0 0 1:1 2:-1 3:-1 4:-1 5:-1 6:-1 7:-1 9:-1 10:-1 11:-1 12:-1 13:1 14:-1 15:-1 17:1 18:-1 19:-1 20:-1 25:1 26:-1 27:-1 28:-1 
-32 -0 -0 0 0 0 0 1:1 2:-1 3:-1 4:-1 5:-1 6:-1 7:-1 9:-1 10:-1 11:-1 12:-1 13:1 14:-1 15:-1 17:1 18:-1 19:-1 20:-1 25:1 26:-1 27:-1 28:-1 
-32 -0 -0 0 0 0 0 1:1 2:-1 3:-1 4:-1 5:-1 6:-1 7:-1 9:-1 10:-1 11:-1 12:-1 13:1 14:-1 15:-1 17:1 18:-1 19:-1 20:-1 25:1 26:-1 27:-1 28:-1 
-32 -0 -0 0 0 0 0 1:1 2:-1 3:-1 4:-1 5:-1 6:-1 7:-1 9:1 10:-1 11:-1 12:-1 13:-1 14:-1 15:-1 17:1 18:-1 19:-1 20:-1 25:1 26:-1 27:-1 28:-1 
-32 -0 -0 0 0 0 0 1:1 2:-1 3:-1 4:-1 5:-1 6:-1 7:-1 9:1 10:-1 11:-1 12:-1 13:-1 14:-1 15:-1 17:1 18:-1 19:-1 20:-1 25:1 26:-1 27:-1 28:-1 
-32 -0 -0 0 0 0 0 1:1 2:-1 3:-1 4:-1 5:-1 6:-1 7:-1 9:1 10:-1 11:-1 12:-1 13:-1 14:-1 15:-1 17:1 18:-1 19:-1 20:-1 25:1 26:-1 27:-1 28:-1 
-32 -0 -0 0 0 0 0 1:1 2:-1 3:-1 4:-1 5:-1 6:-1 7:-1 9:1 10:-1 11:-1 12:-1 13:-1 14:-1 15:-1 17:1 18:-1 19:-1 20:-1 25:1 26:-1 27:-1 28:-1 
-32 -0 -0 0 0 0 0 1:1 2:-1 3:-1 4:-1 5:-1 6:-1 7:-1 9:1 10:-1 11:-1 12:-1 13:-1 14:-1 15:-1 17:1 18:-1 19:-1 20:-1 25:1 26:-1 27:-1 28:-1 
-32 -0 -0 0 0 0 0 1:1 2:-1 3:-1 4:-1 5:-1 6:-1 7:-1 9:1 10:-1 11:-1 12:-1 13:-1 14:-1 15:-1 17:1 18:-1 19:-1 20:-1 25:1 26:-1 27:-1 28:-1 
-32 -0 -0 0 0 0 0 1:1 2:-1 3:-1 4:-1 5:-1 6:-1 7:-1 9:1 10:-1 11:-1 12:-1 13:-1 14:-1 15:-1 17:1 18:-1 19:-1 20:-1 25:1 26:-1 27:-1 28:-1 
-32 -0 -0 0 0 0 0 1:1 2:-1 3:-1 4:-1 5:-1 6:-1 7:-1 9:1 10:-1 11:-1 12:-1 13:-1 14:-1 15:-1 17:1 18:-1 19:-1 20:-1 25:1 26:-1 27:-1 28:-1 
-32 -0 -0 0 0 0 0 1:1 2:-1 3:-1 4:-1 5:-1 6:-1 7:-1 9:1 10:-1 11:-1 12:-1 13:-1 14:-1 15:-1 17:1 18:-1 19:-1 20:-1 25:1 26:-1 27:-1 28:-1 
-32 -0 -0 0 7.601389626637509 0 0 1:1 2:-1 3:-1 4:-1 5:-1 6:-1 7:-1 9:1 10:-1 11:-1 12:-1 13:-1 14:-1 15:-1 17:1 18:-1 19:-1 20:-1 25:1 26:-1 27:-1 28:-1 
-32 -0 -0 0 32 0 0 1:1 2:-1 3:-1 4:-1 5:-1 6:-1 7:-1 9:1 10:-1 11:-1 12:-1 13:-1 14:-1 15:-1 17:1 18:-1 19:-1 20:-1 25:1 26:-1 27:-1 28:-1 
-32 -0 -0 0 32 0 0 1:1 2:-1 3:-1 4:-1 5:-1 6:-1 7:-1 9:1 10:-1 11:-1 12:-1 13:-1 14:-1 15:-1 17:1 18:-1 19:-1 20:-1 25:1 26:-1 27:-1 28:-1 
-32 -0 -0 0 32 0 0 1:1 2:-1 3:-1 4:-1 5:-1 6:-1 7:-1 9:1 10:-1 11:-1 12:-1 13:-1 14:-1 15:-1 17:1 18:-1 19:-1 20:-1 25:1 26:-1 27:-1 28:-1 
-32 -0 -0 0 32 0 0 1:1 2:-1 3:-1 4:-1 5:-1 6:-1 7:-1 9:1 10:-1 11:-1 12:-1 13:-1 14:-1 15:-1 17:1 18:-1 19:-1 20:-1 25:1 26:-1 27:-1 28:-1 
-32 -0 -0 0 32 0 0 1:1 2:-1 3:-1 4:-1 5:-1 6:-1 7:-1 9:1 10:-1 11:-1 12:-1 13:-1 14:-1 15:-1 17:1 18:-1 19:-1 20:-1 25:1 26:-1 27:-1 28:-1 
-32 -0 -0 0 0 0 0 1:1 2:-1 3:-1 4:-1 5:-1 6:-1 7:-1 9:-1 10:-1 11:-1 12:-1 13:1 14:-1 15:-1 17:1 18:-1 19:-1 20:-1 25:1 26:-1 27:-1 28:-1 
-32 -0 -0 0 0 0 0 1:1 2:-1 3:-1 4:-1 5:-1 6:-1 7:-1 9:-1 10:-1 11:-1 12:-1 13:1 14:-1 15:-1 17:1 18:-1 19:-1 20:-1 25:1 26:-1 27:-1 28:-1 
-32 -0 -0 0 32 0 0 1:1 2:-1 3:-1 4:-1 5:-1 6:-1 7:-1 9:1 10:-1 11:-1 12:-1 13:-1 14:-1 15:-1 17:1 18:-1 19:-1 20:-1 25:1 26:-1 27:-1 28:-1 
-32 -0 -0 0 0 0 0 1:1 2:-1 3:-1 4:-1 5:-1 6:-1 7:-1 9:-1 10:-1 11:-1 12:-1 13:1 14:-1 15:-1 17:1 18:-1 19:-1 20:-1 25:1 26:-1 27:-1 28:-1 
-32 -0 -0 0 32 0 0 1:1 2:-1 3:-1 4:-1 5:-1 6:-1 7:-1 9:1 10:-1 11:-1 12:-1 13:-1 14:-1 15:-1 17:1 18:-1 19:-1 20:-1 25:1 26:-1 27:-1 28:-1 
-32 -0 -0 0 32 0 0 1:1 2:-1 3:-1 4:-1 5:-1 6:-1 7:-1 9:1 10:-1 11:-1 12:-1 13:-1 14:-1 15:-1 17:1 18:-1 19:-1 20:-1 25:1 26:-1 27:-1 28:-1 
-32 -0 -0 0 32 0 0 1:1 2:-1 3:-1 4:-1 5:-1 6:-1 7:-1 9:1 10:-1 11:-1 12:-1 13:-1 14:-1 15:-1 17:1 18:-1 19:-1 20:-1 25:1 26:-1 27:-1 28:-1 
-32 -0 -0 0 32 0 0 1:1 2:-1 3:-1 4:-1 5:-1 6:-1 7:-1 9:1 10:-1 11:-1 12:-1 13:-1 14:-1 15:-1 17:1 18:-1 19:-1 20:-1 25:1 26:-1 27:-1 28:-1 
-32 -0 -0 0 0 0 0 1:1 2:-1 3:-1 4:-1 5:-1 6:-1 7:-1 9:-1 10:-1 11:-1 12:-1 13:1 14:-1 15:-1 17:1 18:-1 19:-1 20:-1 25:1 26:-1 27:-1 28:-1 
-32 -0 -0 0 0 0 0 1:1 2:-1 3:-1 4:-1 5:-1 6:-1 7:-1 9:-1 10:-1 11:-1 12:-1 13:1 14:-1 15:-1 17:1 18:-1 19:-1 20:-1 25:1 26:-1 27:-1 28:-1 
-32 -0 -0 0 32 0 0 1:1 2:-1 3:-1 4:-1 5:-1 6:-1 7:-1 9:1 10:-1 11:-1 12:-1 13:-1 14:-1 15:-1 17:1 18:-1 19:-1 20:-1 25:1 26:-1 27:-1 28:-1 
-32 -0 -0 0 32 0 0 1:1 2:-1 3:-1 4:-1 5:-1 6:-1 7:-1 9:1 10:-1 11:-1 12:-1 13:-1 14:-1 15:-1 17:1 18:-1 19:-1 20:-1 25:1 26:-1 27:-1 28:-1 
-32 -0 -0 0 32 0 0 1:1 2:-1 3:-1 4:-1 5:-1 6:-1 7:-1 9:1 10:-1 11:-1 12:-1 13:-1 14:-1 15:-1 17:1 18:-1 19:-1 20:-1 25:1 26:-1 27:-1 28:-1 
-32 -0 -0 0 0 0 0 1:1 2:-1 3:-1 4:-1 5:-1 6:-1 7:-1 9:-1 10:-1 11:-1 12:-1 13:1 14:-1 15:-1 17:1 18:-1 19:-1 20:-1 25:1 26:-1 27:-1 28:-1 
-32 -0 -0 0 0 0 0 1:1 2:-1 3:-1 4:-1 5:-1 6:-1 7:-1 9:-1 10:-1 11:-1 12:-1 13:1 14:-1 15:-1 17:1 18:-1 19:-1 20:-1 25:1 26:-1 27:-1 28:-1 
-32 -0 -0 0 32 0 0 1:1 2:-1 3:-1 4:-1 5:-1 6:-1 7:-1 9:1 10:-1 11:-1 12:-1 13:-1 14:-1 15:-1 17:1 18:-1 19:-1 20:-1 25:1 26:-1 27:-1 28:-1 
-32 -0 -0 0 32 0 0 1:1 2:-1 3:-1 4:-1 5:-1 6:-1 7:-1 9:1 10:-1 11:-1 12:-1 13:-1 14:-1 15:-1 17:1 18:-1 19:-1 20:-1 25:1 26:-1 27:-1 28:-1 
-32 -0 -0 0 0 0 0 1:1 2:-1 3:-1 4:-1 5:-1 6:-1 7:-1 9:-1 10:-1 11:-1 12:-1 13:1 14:-1 15:-1 17:1 18:-1 19:-1 20:-1 25:1 26:-1 27:-1 28:-1 
-32 -0 -0 0 0 0 0 1:1 2:-1 3:-1 4:-1 5:-1 6:-1 7:-1 9:-1 10:-1 11:-1 12:-1 13:1 14:-1 15:-1 17:1 18:-1 19:-1 20:-1 25:1 26:-1 27:-1 28:-1 
-32 -0 -0 0 0 0 0 1:1 2:-1 3:-1 4:-1 5:-1 6:-1 7:-1 9:-1 10:-1 11:-1 12:-1 13:1 14:-1 15:-1 17:1 18:-1 19:-1 20:-1 25:1 26:-1 27:-1 28:-1 
-32 -0 -0 0 32 0 0 1:1 2:-1 3:-1 4:-1 5:-1 6:-1 7:-1 9:1 10:-1 11:-1 12:-1 13:-1 14:-1 15:-1 17:1 18:-1 19:-1 20:-1 25:1 26:-1 27:-1 28:-1 
-32 -0 -0 0 32 0 0 1:1 2:-1 3:-1 4:-1 5:-1 6:-1 7:-1 9:1 10:-1 11:-1 12:-1 13:-1 14:-1 15:-1 17:1 18:-1 19:-1 20:-1 25:1 26:-1 27:-1 28:-1 
-32 -0 -0 0 32 0 0 1:1 2:-1 3:-1 4:-1 5:-1 6:-1 7:-1 9:1 10:-1 11:-1 12:-1 13:-1 14:-1 15:-1 17:1 18:-1 19:-1 20:-1 25:1 26:-1 27:-1 28:-1 
-32 -0 -0 0 0 0 0 1:1 2:-1 3:-1 4:-1 5:-1 6:-1 7:-1 9:-1 10:-1 11:-1 12:-1 13:1 14:-1 15:-1 17:1 18:-1 19:-1 20:-1 25:1 26:-1 27:-1 28:-1 
-32 -0 -0 0 32 0 0 1:1 2:-1 3:-1 4:-1 5:-1 6:-1 7:-1 9:1 10:-1 11:-1 12:-1 13:-1 14:-1 15:-1 17:1 18:-1 19:-1 20:-1 25:1 26:-1 27:-1 28:-1 
-32 -0 -0 0 32 0 0 1:1 2:-1 3:-1 4:-1 5:-1 6:-1 7:-1 9:1 10:-1 11:-1 12:-1 13:-1 14:-1 15:-1 17:1 18:-1 19:-1 20:-1 25:1 26:-1 27:-1 28:-1 
-32 -0 -0 0 32 0 0 1:1 2:-1 3:-1 4:-1 5:-1 6:-1 7:-1 9:1 10:-1 11:-1 12:-1 13:-1 14:-1 15:-1 17:1 18:-1 19:-1 20:-1 25:1 26:-1 27:-1 28:-1 
-32 -0 -0 0 0 0 0 1:1 2:-1 3:-1 4:-1 5:-1 6:-1 7:-1 9:-1 10:-1 11:-1 12:-1 13:1 14:-1 15:-1 17:1 18:-1 19:-1 20:-1 25:1 26:-1 27:-1 28:-1 
-32 -0 -0 0 0 0 0 1:1 2:-1 3:-1 4:-1 5:-1 6:-1 7:-1 9:-1 10:-1 11:-1 12:-1 13:1 14:-1 15:-1 17:1 18:-1 19:-1 20:-1 25:1 26:-1 27:-1 28:-1 
-32 -0 -0 0 0 0 0 1:1 2:-1 3:-1 4:-1 5:-1 6:-1 7:-1 9:-1 10:-1 11:-1 12:-1 13:1 14:-1 15:-1 17:1 18:-1 19:-1 20:-1 25:1 26:-1 27:-1 28:-1 
-32 -0 -0 0 0 0 0 1:1 2:-1 3:-1 4:-1 5:-1 6:-1 7:-1 9:-1 10:-1 11:-1 12:-1 13:1 14:-1 15:-1 17:1 18:-1 19:-1 20:-1 25:1 26:-1 27:-1 28:-1 
-32 -0 -0 0 0 0 0 1:1 2:-1 3:-1 4:-1 5:-1 6:-1 7:-1 9:-1 10:-1 11:-1 12:-1 13:1 14:-1 15:-1 17:1 18:-1 19:-1 20:-1 25:1 26:-1 27:-1 28:-1 
-32 -0 -0 0 0 0 0 1:1 2:-1 3:-1 4:-1 5:-1 6:-1 7:-1 9:-1 10:-1 11:-1 12:-1 13:1 14:-1 15:-1 17:1 18:-1 19:-1 20:-1 25:1 26:-1 27:-1 28:-1 
-32 -0 -0 0 0 0 0 1:1 2:-1 3:-1 4:-1 5:-1 6:-1 7:-1 9:-1 10:-1 11:-1 12:-1 13:1 14:-1 15:-1 17:1 18:-1 19:-1 20:-1 25:1 26:-1 27:-1 28:-1 
-32 -0 -0 0 0 0 0 1:1 2:-1 3:-1 4:-1 5:-1 6:-1 7:-1 9:-1 10:-1 11:-1 12:-1 13:1 14:-1 15:-1 17:1 18:-1 19:-1 20:-1 25:1 26:-1 27:-1 28:-1 
-32 -0 -0 0 32 0 0 1:1 2:-1 3:-1 4:-1 5:-1 6:-1 7:-1 9:1 10:-1 11:-1 12:-1 13:-1 14:-1 15:-1 17:1 18:-1 19:-1 20:-1 25:1 26:-1 27:-1 28:-1 
-32 -0 -0 0 32 0 0 1:1 2:-1 3:-1 4:-1 5:-1 6:-1 7:-1 9:1 10:-1 11:-1 12:-1 13:-1 14:-1 15:-1 17:1 18:-1 19:-1 20:-1 25:1 26:-1 27:-1 28:-1 
-32 -0 -0 0 32 0 0 1:1 2:-1 3:-1 4:-1 5:-1 6:-1 7:-1 9:1 10:-1 11:-1 12:-1 13:-1 14:-1 15:-1 17:1 18:-1 19:-1 20:-1 25:1 26:-1 27:-1 28:-1 
-32 -0 -0 0 32 0 0 1:1 2:-1 3:-1 4:-1 5:-1 6:-1 7:-1 9:1 10:-1 11:-1 12:-1 13:-1 14:-1 15:-1 17:1 18:-1 19:-1 20:-1 25:1 26:-1 27:-1 28:-1 
-32 -0 -0 0 32 0 0 1:1 2:-1 3:-1 4:-1 5:-1 6:-1 7:-1 9:1 10:-1 11:-1 12:-1 13:-1 14:-1 15:-1 17:1 18:-1 19:-1 20:-1 25:1 26:-1 27:-1 28:-1 
-32 -0 -0 0 32 0 0 1:1 2:-1 3:-1 4:-1 5:-1 6:-1 7:-1 9:1 10:-1 11:-1 12:-1 13:-1 14:-1 15:-1 17:1 18:-1 19:-1 20:-1 25:1 26:-1 27:-1 28:-1 
-32 -0 -0 0 32 0 0 1:1 2:-1 3:-1 4:-1 5:-1 6:-1 7:-1 9:1 10:-1 11:-1 12:-1 13:-1 14:-1 15:-1 17:1 18:-1 19:-1 20:-1 25:1 26:-1 27:-1 28:-1 
-32 -0 -0 0 32 0 0 1:1 2:-1 3:-1 4:-1 5:-1 6:-1 7:-1 9:1 10:-1 11:-1 12:-1 13:-1 14:-1 15:-1 17:1 18:-1 19:-1 20:-1 25:1 26:-1 27:-1 28:-1 
-32 -0 -0 0 0 0 0 1:1 2:-1 3:-1 4:-1 5:-1 6:-1 7:-1 9:-1 10:-1 11:-1 12:-1 13:1 14:-1 15:-1 17:1 18:-1 19:-1 20:-1 25:1 26:-1 27:-1 28:-1 
-32 -0 -0 0 0 0 0 1:1 2:-1 3:-1 4:-1 5:-1 6:-1 7:-1 9:-1 10:-1 11:-1 12:-1 13:1 14:-1 15:-1 17:1 18:-1 19:-1 20:-1 25:1 26:-1 27:-1 28:-1 
-32 -0 -0 0 0 0 0 1:1 2:-1 3:-1 4:-1 5:-1 6:-1 7:-1 9:-1 10:-1 11:-1 12:-1 13:1 14:-1 15:-1 17:1 18:-1 19:-1 20:-1 25:1 26:-1 27:-1 28:-1 
-32 -0 -0 0 32 0 0 1:1 2:-1 3:-1 4:-1 5:-1 6:-1 7:-1 9:1 10:-1 11:-1 12:-1 13:-1 14:-1 15:-1 17:1 18:-1 19:-1 20:-1 25:1 26:-1 27:-1 28:-1 
-32 -0 -0 0 32 0 0 1:1 2:-1 3:-1 4:-1 5:-1 6:-1 7:-1 9:1 10:-1 11:-1 12:-1 13:-1 14:-1 15:-1 17:1 18:-1 19:-1 20:-1 25:1 26:-1 27:-1 28:-1 
-32 -0 -0 0 32 0 0 1:1 2:-1 3:-1 4:-1 5:-1 6:-1 7:-1 9:1 10:-1 11:-1 12:-1 13:-1 14:-1 15:-1 17:1 18:-1 19:-1 20:-1 25:1 26:-1 27:-1 28:-1 
-32 -0 -0 0 32 0 0 1:1 2:-1 3:-1 4:-1 5:-1 6:-1 7:-1 9:1 10:-1 11:-1 12:-1 13:-1 14:-1 15:-1 17:1 18:-1 19:-1 20:-1 25:1 26:-1 27:-1 28:-1 
-32 -0 -24.70224682612311 0.4669719394109612 32 0 0 1:1 2:-1 3:-1 4:-1 5:-1 6:-1 7:-1 9:1 10:-1 11:-1 12:-1 13:-1 14:-1 15:-1 17:1 18:-1 19:-1 20:-1 25:1 26:-1 27:-1 28:-1 
-32 -0 -0 0 0 0 0 1:1 2:-1 3:-1 4:-1 5:-1 6:-1 7:-1 9:-1 10:-1 11:-1 12:-1 13:1 14:-1 15:-1 17:1 18:-1 19:-1 20:-1 25:1 26:-1 27:-1 28:-1 
-32 -0 -0 0 5.725390054234894 0 0 1:1 2:-1 3:-1 4:-1 5:-1 6:-1 7:-1 9:-1 10:-1 11:-1 12:-1 13:1 14:-1 15:-1 17:1 18:-1 19:-1 20:-1 25:1 26:-1 27:-1 28:-1 
-32 -0 -32 32 32 0 0 1:1 2:-1 3:-1 4:-1 5:-1 6:-1 7:-1 9:1 10:-1 11:-1 12:-1 13:-1 14:-1 15:-1 17:1 18:-1 19:-1 20:-1 25:1 26:-1 27:-1 28:-1 
-32 -0 -32 32 32 0 0 1:1 2:-1 3:-1 4:-1 5:-1 6:-1 7:-1 9:1 10:-1 11:-1 12:-1 13:-1 14:-1 15:-1 17:1 18:-1 19:-1 20:-1 25:1 26:-1 27:-1 28:-1 
-32 -0 -32 32 32 0 0 1:1 2:-1 3:-1 4:-1 5:-1 6:-1 7:-1 9:1 10:-1 11:-1 12:-1 13:-1 14:-1 15:-1 17:1 18:-1 19:-1 20:-1 25:1 26:-1 27:-1 28:-1 
-32 -0 -32 32 32 0 0 1:1 2:-1 3:-1 4:-1 5:-1 6:-1 7:-1 9:1 10:-1 11:-1 12:-1 13:-1 14:-1 15:-1 17:1 18:-1 19:-1 20:-1 25:1 26:-1 27:-1 28:-1 
-32 -0 -32 32 32 0 0 1:1 2:-1 3:-1 4:-1 5:-1 6:-1 7:-1 9:1 10:-1 11:-1 12:-1 13:-1 14:-1 15:-1 17:1 18:-1 19:-1 20:-1 25:1 26:-1 27:-1 28:-1 
-32 -0 -32 32 32 0 0 1:1 2:-1 3:-1 4:-1 5:-1 6:-1 7:-1 9:1 10:-1 11:-1 12:-1 13:-1 14:-1 15:-1 17:1 18:-1 19:-1 20:-1 25:1 26:-1 27:-1 28:-1 
-32 -0 -32 32 32 0 0 1:1 2:-1 3:-1 4:-1 5:-1 6:-1 7:-1 9:1 10:-1 11:-1 12:-1 13:-1 14:-1 15:-1 17:1 18:-1 19:-1 20:-1 25:1 26:-1 27:-1 28:-1 
-32 -0 -32 32 32 0 0 1:1 2:-1 3:-1 4:-1 5:-1 6:-1 7:-1 9:1 10:-1 11:-1 12:-1 13:-1 14:-1 15:-1 17:1 18:-1 19:-1 20:-1 25:1 26:-1 27:-1 28:-1 
-32 -0 -32 32 32 0 0 1:1 2:-1 3:-1 4:-1 5:-1 6:-1 7:-1 9:1 10:-1 11:-1 12:-1 13:-1 14:-1 15:-1 17:1 18:-1 19:-1 20:-1 25:1 26:-1 27:-1 28:-1 
-32 -0 -32 32 32 0 0 1:1 2:-1 3:-1 4:-1 5:-1 6:-1 7:-1 9:1 10:-1 11:-1 12:-1 13:-1 14:-1 15:-1 17:1 18:-1 19:-1 20:-1 25:1 26:-1 27:-1 28:-1 
-32 -0 -0 0 32 0 0 1:1 2:-1 3:-1 4:-1 5:-1 6:-1 7:-1 9:-1 10:-1 11:-1 12:-1 13:1 14:-1 15:-1 17:1 18:-1 19:-1 20:-1 25:1 26:-1 27:-1 28:-1 
-32 -0 -32 32 32 0 0 1:1 2:-1 3:-1 4:-1 5:-1 6:-1 7:-1 9:1 10:-1 11:-1 12:-1 13:-1 14:-1 15:-1 17:1 18:-1 19:-1 20:-1 25:1 26:-1 27:-1 28:-1 
-32 -0 -32 32 32 0 0 1:1 2:-1 3:-1 4:-1 5:-1 6:-1 7:-1 9:1 10:-1 11:-1 12:-1 13:-1 14:-1 15:-1 17:1 18:-1 19:-1 20:-1 25:1 26:-1 27:-1 28:-1 
-32 -4.535313286960278 -32 32 32 0 0 1:1 2:-1 3:-1 4:-1 5:-1 6:-1 7:-1 9:1 10:-1 11:-1 12:-1 13:-1 14:-1 15:-1 17:1 18:-1 19:-1 20:-1 25:1 26:-1 27:-1 28:-1 
-32 -4.207897728206478 -0 0.914076753603701 31.99475314298592 0.3676673663164273 0 1:1 2:-1 3:-1 4:-1 5:-1 6:-1 7:-1 9:-1 10:-1 11:-1 12:-1 13:1 14:-1 15:-1 17:1 18:-1 19:-1 20:-1 25:1 26:-1 27:-1 28:-1 
-6.781217572007488 -0 -0 0 0 0 0 1:-1 2:-1 3:-1 4:-1 5:1 6:-1 7:-1 9:1 10:-1 11:-1 12:-1 13:-1 14:-1 15:-1 17:1 18:-1 19:-1 20:-1 25:1 26:-1 27:-1 28:-1 
-32 -0 -0 0 0 0 0 1:-1 2:-1 3:-1 4:-1 5:1 6:-1 7:-1 9:1 10:-1 11:-1 12:-1 13:-1 14:-1 15:-1 17:1 18:-1 19:-1 20:-1 25:1 26:-1 27:-1 28:-1 
-32 -0 -0 0 0 0 0 1:-1 2:-1 3:-1 4:-1 5:1 6:-1 7:-1 9:1 10:-1 11:-1 12:-1 13:-1 14:-1 15:-1 17:1 18:-1 19:-1 20:-1 25:1 26:-1 27:-1 28:-1 
-32 -0 -0 0 0 0 0 1:-1 2:-1 3:-1 4:-1 5:1 6:-1 7:-1 9:1 10:-1 11:-1 12:-1 13:-1 14:-1 15:-1 17:1 18:-1 19:-1 20:-1 25:1 26:-1 27:-1 28:-1 
-32 -0 -0 0 0 0 0 1:-1 2:-1 3:-1 4:-1 5:1 6:-1 7:-1 9:1 10:-1 11:-1 12:-1 13:-1 14:-1 15:-1 17:1 18:-1 19:-1 20:-1 25:1 26:-1 27:-1 28:-1 
-32 -0 -0 0 0 0 0 1:-1 2:-1 3:-1 4:-1 5:1 6:-1 7:-1 9:1 10:-1 11:-1 12:-1 13:-1 14:-1 15:-1 17:1 18:-1 19:-1 20:-1 25:1 26:-1 27:-1 28:-1 
-2.926607209840863 -2.57552409141276 -3.042293281228488 10.20862926510072 3.139693897356597 0.7307318178986337 0 1:-1 2:-1 3:-1 4:-1 5:1 6:-1 7:-1 9:-1 10:1 11:-1 12:-1 13:-1 14:-1 15:-1 17:1 18:-1 19:-1 20:-1 25:1 26:-1 27:-1 28:-1 
-32 -0 -0 0 0 0 0 1:-1 2:-1 3:-1 4:-1 5:1 6:-1 7:-1 9:1 10:-1 11:-1 12:-1 13:-1 14:-1 15:-1 17:1 18:-1 19:-1 20:-1 25:1 26:-1 27:-1 28:-1 
-32 -0 -0 0 0 0 0 1:-1 2:-1 3:-1 4:-1 5:1 6:-1 7:-1 9:1 10:-1 11:-1 12:-1 13:-1 14:-1 15:-1 17:1 18:-1 19:-1 20:-1 25:1 26:-1 27:-1 28:-1 
-32 -0 -0 0 0 0 0 1:-1 2:-1 3:-1 4:-1 5:1 6:-1 7:-1 9:1 10:-1 11:-1 12:-1 13:-1 14:-1 15:-1 17:1 18:-1 19:-1 20:-1 25:1 26:-1 27:-1 28:-1 
-32 -32 -32 32 32 7.557026157033916 0 1:1 2:-1 3:-1 4:-1 5:-1 6:-1 7:-1 9:1 10:-1 11:-1 12:-1 13:-1 14:-1 15:-1 17:1 18:-1 19:-1 20:-1 25:1 26:-1 27:-1 28:-1 
-32 -0 -0 0 0 0 0 1:-1 2:-1 3:-1 4:-1 5:1 6:-1 7:-1 9:1 10:-1 11:-1 12:-1 13:-1 14:-1 15:-1 17:1 18:-1 19:-1 20:-1 25:1 26:-1 27:-1 28:-1 
-32 -0 -0 0 0 0 0 1:-1 2:-1 3:-1 4:-1 5:1 6:-1 7:-1 9:1 10:-1 11:-1 12:-1 13:-1 14:-1 15:-1 17:1 18:-1 19:-1 20:-1 25:1 26:-1 27:-1 28:-1 
-32 -32 -32 32 32 32 0 1:1 2:-1 3:-1 4:-1 5:-1 6:-1 7:-1 9:1 10:-1 11:-1 12:-1 13:-1 14:-1 15:-1 17:1 18:-1 19:-1 20:-1 25:1 26:-1 27:-1 28:-1 
-32 -0 -0 0 0 0 0 1:-1 2:-1 3:-1 4:-1 5:1 6:-1 7:-1 9:1 10:-1 11:-1 12:-1 13:-1 14:-1 15:-1 17:1 18:-1 19:-1 20:-1 25:1 26:-1 27:-1 28:-1 
-32 -32 -32 32 32 32 0 1:1 2:-1 3:-1 4:-1 5:-1 6:-1 7:-1 9:1 10:-1 11:-1 12:-1 13:-1 14:-1 15:-1 17:1 18:-1 19:-1 20:-1 25:1 26:-1 27:-1 28:-1 
-32 -32 -32 32 32 32 0 1:1 2:-1 3:-1 4:-1 5:-1 6:-1 7:-1 9:1 10:-1 11:-1 12:-1 13:-1 14:-1 15:-1 17:1 18:-1 19:-1 20:-1 25:1 26:-1 27:-1 28:-1 
-32 -0 -0 0 0 0 0 1:-1 2:-1 3:-1 4:-1 5:1 6:-1 7:-1 9:1 10:-1 11:-1 12:-1 13:-1 14:-1 15:-1 17:1 18:-1 19:-1 20:-1 25:1 26:-1 27:-1 28:-1 
-32 -31.97940661146722 -32 32 31.98713250955122 32 32 1:1 2:-1 3:-1 4:-1 5:-1 6:-1 7:-1 9:1 10:-1 11:-1 12:-1 13:-1 14:-1 15:-1 17:1 18:-1 19:-1 20:-1 25:1 26:-1 27:-1 28:-1 
-32 -0 -0 0 0 0 0 1:-1 2:-1 3:-1 4:-1 5:1 6:-1 7:-1 9:1 10:-1 11:-1 12:-1 13:-1 14:-1 15:-1 17:1 18:-1 19:-1 20:-1 25:1 26:-1 27:-1 28:-1 
-32 -0 -0 0 0 0 0 1:-1 2:-1 3:-1 4:-1 5:1 6:-1 7:-1 9:1 10:-1 11:-1 12:-1 13:-1 14:-1 15:-1 17:1 18:-1 19:-1 20:-1 25:1 26:-1 27:-1 28:-1 
-32 -0 -0 0 0 0 0 1:-1 2:-1 3:-1 4:-1 5:1 6:-1 7:-1 9:1 10:-1 11:-1 12:-1 13:-1 14:-1 15:-1 17:1 18:-1 19:-1 20:-1 25:1 26:-1 27:-1 28:-1 
-32 -0 -0 0 0 0 0 1:-1 2:-1 3:-1 4:-1 5:1 6:-1 7:-1 9:1 10:-1 11:-1 12:-1 13:-1 14:-1 15:-1 17:1 18:-1 19:-1 20:-1 25:1 26:-1 27:-1 28:-1 
-32 -0 -0 0 0 0 0 1:-1 2:-1 3:-1 4:-1 5:1 6:-1 7:-1 9:1 10:-1 11:-1 12:-1 13:-1 14:-1 15:-1 17:1 18:-1 19:-1 20:-1 25:1 26:-1 27:-1 28:-1 
-32 -0 -0 0 0 0 0 1:-1 2:-1 3:-1 4:-1 5:1 6:-1 7:-1 9:1 10:-1 11:-1 12:-1 13:-1 14:-1 15:-1 17:1 18:-1 19:-1 20:-1 25:1 26:-1 27:-1 28:-1 
-0.7363921078278769 -0 -8.975776940365741 8.95032148833781 0 1.583490402297461 0 1:-1 2:-1 3:-1 4:-1 5:1 6:-1 7:-1 9:1 10:-1 11:-1 12:-1 13:-1 14:-1 15:-1 17:1 18:-1 19:-1 20:-1 25:-1 26:1 27:-1 28:-1 
-32 -0 -0 0 0 0 0 1:-1 2:-1 3:-1 4:-1 5:1 6:-1 7:-1 9:1 10:-1 11:-1 12:-1 13:-1 14:-1 15:-1 17:1 18:-1 19:-1 20:-1 25:1 26:-1 27:-1 28:-1 
-32 -0 -0 0 0 0 0 1:-1 2:-1 3:-1 4:-1 5:1 6:-1 7:-1 9:1 10:-1 11:-1 12:-1 13:-1 14:-1 15:-1 17:1 18:-1 19:-1 20:-1 25:1 26:-1 27:-1 28:-1 
-32 -0 -0 0 0 0 0 1:-1 2:-1 3:-1 4:-1 5:1 6:-1 7:-1 9:1 10:-1 11:-1 12:-1 13:-1 14:-1 15:-1 17:1 18:-1 19:-1 20:-1 25:1 26:-1 27:-1 28:-1 
-32 -0 -0 0 0 0 0 1:-1 2:-1 3:-1 4:-1 5:1 6:-1 7:-1 9:1 10:-1 11:-1 12:-1 13:-1 14:-1 15:-1 17:1 18:-1 19:-1 20:-1 25:1 26:-1 27:-1 28:-1 
-5.599211782452161 -1.258746972215118 -6.395858806293128 6.563698913858492 1.807910618464831 1.853934655066085 0 1:-1 2:-1 3:1 4:-1 5:-1 6:-1 7:-1 9:-1 10:-1 11:-1 12:-1 13:1 14:-1 15:-1 17:1 18:-1 19:-1 20:-1 25:-1 26:1 27:-1 28:-1 
-32 -0 -0 0 0 0 0 1:-1 2:-1 3:-1 4:-1 5:1 6:-1 7:-1 9:1 10:-1 11:-1 12:-1 13:-1 14:-1 15:-1 17:1 18:-1 19:-1 20:-1 25:1 26:-1 27:-1 28:-1 
-32 -0 -0 0 0 0 0 1:-1 2:-1 3:-1 4:-1 5:1 6:-1 7:-1 9:1 10:-1 11:-1 12:-1 13:-1 14:-1 15:-1 17:1 18:-1 19:-1 20:-1 25:1 26:-1 27:-1 28:-1 
-32 -0 -0 0 0 0 0 1:-1 2:-1 3:-1 4:-1 5:1 6:-1 7:-1 9:1 10:-1 11:-1 12:-1 13:-1 14:-1 15:-1 17:1 18:-1 19:-1 20:-1 25:1 26:-1 27:-1 28:-1 
-29.4679634045101 -0.5979178417168625 -27.45423855411158 21.97379947148387 1.871810871019756 0 0 1:-1 2:-1 3:-1 4:-1 5:1 6:-1 7:-1 9:1 10:-1 11:-1 12:-1 13:-1 14:-1 15:-1 17:1 18:-1 19:-1 20:-1 25:1 26:-1 27:-1 28:-1 
-0.09172684248509069 -0 -0 0 0 0 0 1:-1 2:-1 3:-1 4:-1 5:1 6:-1 7:-1 9:-1 10:-1 11:-1 12:-1 13:1 14:-1 15:-1 17:1 18:-1 19:-1 20:-1 25:1 26:-1 27:-1 28:-1 
-32 -0.3106950463141975 -0 0 0.02827283456699162 0 0 1:-1 2:-1 3:-1 4:-1 5:1 6:-1 7:-1 9:-1 10:-1 11:-1 12:-1 13:1 14:-1 15:-1 17:1 18:-1 19:-1 20:-1 25:1 26:-1 27:-1 28:-1 
-6.902254290764935 -0 -0 -0 0 0 0 1:1 2:-1 3:-1 4:-1 5:-1 6:-1 7:-1 9:-1 10:1 11:-1 12:-1 13:-1 14:-1 15:-1 17:1 18:-1 19:-1 20:-1 25:1 26:-1 27:-1 28:-1 
-0 -0.00173377517776865 -0 -0 0 0 0 1:1 2:-1 3:-1 4:-1 5:-1 6:-1 7:-1 9:-1 10:1 11:-1 12:-1 13:-1 14:-1 15:-1 17:1 18:-1 19:-1 20:-1 25:-1 26:-1 27:1 28:-1 
-0 -0 -32 -0 0 0 0 1:-1 2:1 3:-1 4:-1 5:-1 6:-1 7:-1 9:-1 10:-1 11:1 12:-1 13:-1 14:-1 15:-1 17:-1 18:1 19:-1 20:-1 25:1 26:-1 27:-1 28:-1 
-32 -0 -32 -32 32 0 0 1:1 2:-1 3:-1 4:-1 5:-1 6:-1 7:-1 9:1 10:-1 11:-1 12:-1 13:-1 14:-1 15:-1 17:1 18:-1 19:-1 20:-1 25:1 26:-1 27:-1 28:-1 
-32 -0 -32 -32 32 0 0 1:1 2:-1 3:-1 4:-1 5:-1 6:-1 7:-1 9:1 10:-1 11:-1 12:-1 13:-1 14:-1 15:-1 17:1 18:-1 19:-1 20:-1 25:1 26:-1 27:-1 28:-1 
-32 -0 -0 -0 0 0 0 1:1 2:-1 3:-1 4:-1 5:-1 6:-1 7:-1 9:-1 10:1 11:-1 12:-1 13:-1 14:-1 15:-1 17:1 18:-1 19:-1 20:-1 25:1 26:-1 27:-1 28:-1 
-32 -0 -32 -32 32 0 0 1:1 2:-1 3:-1 4:-1 5:-1 6:-1 7:-1 9:1 10:-1 11:-1 12:-1 13:-1 14:-1 15:-1 17:1 18:-1 19:-1 20:-1 25:1 26:-1 27:-1 28:-1 
-32 -0 -32 -32 32 0 0 1:1 2:-1 3:-1 4:-1 5:-1 6:-1 7:-1 9:1 10:-1 11:-1 12:-1 13:-1 14:-1 15:-1 17:1 18:-1 19:-1 20:-1 25:1 26:-1 27:-1 28:-1 
-32 -0 -0 -0 0 0 0 1:1 2:-1 3:-1 4:-1 5:-1 6:-1 7:-1 9:1 10:-1 11:-1 12:-1 13:-1 14:-1 15:-1 17:-1 18:1 19:-1 20:-1 25:1 26:-1 27:-1 28:-1 
-12.28677098364681 -0.02415367639360658 -0 -0 0 0 0 1:1 2:-1 3:-1 4:-1 5:-1 6:-1 7:-1 9:1 10:-1 11:-1 12:-1 13:-1 14:-1 15:-1 17:-1 18:1 19:-1 20:-1 25:-1 26:1 27:-1 28:-1 
-32 -0 -0 -0 0 0 0 1:1 2:-1 3:-1 4:-1 5:-1 6:-1 7:-1 9:1 10:-1 11:-1 12:-1 13:-1 14:-1 15:-1 17:-1 18:1 19:-1 20:-1 25:1 26:-1 27:-1 28:-1 
-32 -0 -0 -0 0 0 0 1:1 2:-1 3:-1 4:-1 5:-1 6:-1 7:-1 9:1 10:-1 11:-1 12:-1 13:-1 14:-1 15:-1 17:-1 18:1 19:-1 20:-1 25:1 26:-1 27:-1 28:-1 
-0 -0 -32 -0 0 0 0 1:-1 2:1 3:-1 4:-1 5:-1 6:-1 7:-1 9:-1 10:-1 11:1 12:-1 13:-1 14:-1 15:-1 17:1 18:-1 19:-1 20:-1 25:1 26:-1 27:-1 28:-1 
-0 -0 -32 -0 0 0 0 1:-1 2:1 3:-1 4:-1 5:-1 6:-1 7:-1 9:-1 10:-1 11:1 12:-1 13:-1 14:-1 15:-1 17:-1 18:-1 19:1 20:-1 25:1 26:-1 27:-1 28:-1 
-9.777346025381565 -0 -0 -0 0 0 0 1:-1 2:1 3:-1 4:-1 5:-1 6:-1 7:-1 9:1 10:-1 11:-1 12:-1 13:-1 14:-1 15:-1 17:1 18:-1 19:-1 20:-1 25:1 26:-1 27:-1 28:-1 
-0 -0.05004470972393763 -8.129828020055145 -0 0 0 0 1:1 2:-1 3:-1 4:-1 5:-1 6:-1 7:-1 9:-1 10:1 11:-1 12:-1 13:-1 14:-1 15:-1 17:-1 18:1 19:-1 20:-1 25:-1 26:-1 27:1 28:-1 
-32 -0 -0 -0 0 0 0 1:1 2:-1 3:-1 4:-1 5:-1 6:-1 7:-1 9:1 10:-1 11:-1 12:-1 13:-1 14:-1 15:-1 17:-1 18:1 19:-1 20:-1 25:1 26:-1 27:-1 28:-1 
-0 -0.08969769842394593 -0.3342168289509357 -0 0 0 0 1:-1 2:1 3:-1 4:-1 5:-1 6:-1 7:-1 9:-1 10:1 11:-1 12:-1 13:-1 14:-1 15:-1 17:-1 18:1 19:-1 20:-1 25:-1 26:-1 27:-1 28:1 
-32 -0 -32 -32 32 0 0 1:1 2:-1 3:-1 4:-1 5:-1 6:-1 7:-1 9:1 10:-1 11:-1 12:-1 13:-1 14:-1 15:-1 17:1 18:-1 19:-1 20:-1 25:1 26:-1 27:-1 28:-1 
-32 -0 -32 -32 32 0 0 1:1 2:-1 3:-1 4:-1 5:-1 6:-1 7:-1 9:1 10:-1 11:-1 12:-1 13:-1 14:-1 15:-1 17:1 18:-1 19:-1 20:-1 25:1 26:-1 27:-1 28:-1 
-32 -0 -0 -0 0 0 0 1:1 2:-1 3:-1 4:-1 5:-1 6:-1 7:-1 9:1 10:-1 11:-1 12:-1 13:-1 14:-1 15:-1 17:-1 18:1 19:-1 20:-1 25:1 26:-1 27:-1 28:-1 
-0 -0 -32 -0 0 0 0 1:1 2:-1 3:-1 4:-1 5:-1 6:-1 7:-1 9:-1 10:-1 11:1 12:-1 13:-1 14:-1 15:-1 17:-1 18:1 19:-1 20:-1 25:1 26:-1 27:-1 28:-1 
-0 -0 -32 -0 0 0 0 1:1 2:-1 3:-1 4:-1 5:-1 6:-1 7:-1 9:-1 10:-1 11:1 12:-1 13:-1 14:-1 15:-1 17:-1 18:1 19:-1 20:-1 25:1 26:-1 27:-1 28:-1 
-17.78386486405333 -0.07542404458924924 -32 -0 0 0 0 1:1 2:-1 3:-1 4:-1 5:-1 6:-1 7:-1 9:-1 10:-1 11:1 12:-1 13:-1 14:-1 15:-1 17:-1 18:1 19:-1 20:-1 25:1 26:-1 27:-1 28:-1 
-32 -0 -0 -0 0 0 0 1:-1 2:1 3:-1 4:-1 5:-1 6:-1 7:-1 9:1 10:-1 11:-1 12:-1 13:-1 14:-1 15:-1 17:1 18:-1 19:-1 20:-1 25:1 26:-1 27:-1 28:-1 
-32 -0 -4.089278331718495 -0 0 0 0 1:-1 2:1 3:-1 4:-1 5:-1 6:-1 7:-1 9:1 10:-1 11:-1 12:-1 13:-1 14:-1 15:-1 17:1 18:-1 19:-1 20:-1 25:1 26:-1 27:-1 28:-1 
-32 -0 -32 -32 32 0 0 1:1 2:-1 3:-1 4:-1 5:-1 6:-1 7:-1 9:1 10:-1 11:-1 12:-1 13:-1 14:-1 15:-1 17:1 18:-1 19:-1 20:-1 25:1 26:-1 27:-1 28:-1 
-32 -0 -32 -32 32 0 0 1:1 2:-1 3:-1 4:-1 5:-1 6:-1 7:-1 9:1 10:-1 11:-1 12:-1 13:-1 14:-1 15:-1 17:1 18:-1 19:-1 20:-1 25:1 26:-1 27:-1 28:-1 
-32 -0 -32 -32 32 0 0 1:1 2:-1 3:-1 4:-1 5:-1 6:-1 7:-1 9:1 10:-1 11:-1 12:-1 13:-1 14:-1 15:-1 17:1 18:-1 19:-1 20:-1 25:1 26:-1 27:-1 28:-1 
-0 -0 -4.911355732277396 -0 0 0 0 1:1 2:-1 3:-1 4:-1 5:-1 6:-1 7:-1 9:-1 10:1 11:-1 12:-1 13:-1 14:-1 15:-1 17:-1 18:-1 19:1 20:-1 25:1 26:-1 27:-1 28:-1 
-0 -0 -32 -0 0 0 0 1:1 2:-1 3:-1 4:-1 5:-1 6:-1 7:-1 9:-1 10:1 11:-1 12:-1 13:-1 14:-1 15:-1 17:-1 18:-1 19:1 20:-1 25:1 26:-1 27:-1 28:-1 
-0 -0 -32 -0 0 0 0 1:1 2:-1 3:-1 4:-1 5:-1 6:-1 7:-1 9:-1 10:-1 11:1 12:-1 13:-1 14:-1 15:-1 17:1 18:-1 19:-1 20:-1 25:-1 26:1 27:-1 28:-1 
-10.98442034104264 -0 -32 -0 0 6.89723520477544 0 1:1 2:-1 3:-1 4:-1 5:-1 6:-1 7:-1 9:-1 10:-1 11:1 12:-1 13:-1 14:-1 15:-1 17:1 18:-1 19:-1 20:-1 25:-1 26:1 27:-1 28:-1 
-32 -0 -0 -0 0 0 0 1:1 2:-1 3:-1 4:-1 5:-1 6:-1 7:-1 9:-1 10:1 11:-1 12:-1 13:-1 14:-1 15:-1 17:1 18:-1 19:-1 20:-1 25:1 26:-1 27:-1 28:-1 
-2.230828403842325 -0.07655536410771452 -32 -0 0 0 0 1:-1 2:1 3:-1 4:-1 5:-1 6:-1 7:-1 9:-1 10:-1 11:1 12:-1 13:-1 14:-1 15:-1 17:-1 18:-1 19:1 20:-1 25:1 26:-1 27:-1 28:-1 
-0 -0 -32 -0 0 4.262223230577342 0 1:-1 2:1 3:-1 4:-1 5:-1 6:-1 7:-1 9:-1 10:-1 11:1 12:-1 13:-1 14:-1 15:-1 17:-1 18:-1 19:1 20:-1 25:-1 26:1 27:-1 28:-1 
-32 -0 -32 -0 0 0 0 1:1 2:-1 3:-1 4:-1 5:-1 6:-1 7:-1 9:1 10:-1 11:-1 12:-1 13:-1 14:-1 15:-1 17:1 18:-1 19:-1 20:-1 25:-1 26:1 27:-1 28:-1 
-5.510961058083093 -0.06546751809707621 -32 -2.656130829633067 2.573717905372593 0 0 1:1 2:-1 3:-1 4:-1 5:-1 6:-1 7:-1 9:1 10:-1 11:-1 12:-1 13:-1 14:-1 15:-1 17:1 18:-1 19:-1 20:-1 25:-1 26:-1 27:1 28:-1 
-0 -0.06014832148198145 -32 -0 0 4.551602111139582 0 1:1 2:-1 3:-1 4:-1 5:-1 6:-1 7:-1 9:-1 10:-1 11:1 12:-1 13:-1 14:-1 15:-1 17:-1 18:-1 19:1 20:-1 25:-1 26:-1 27:1 28:-1 
-32 -0 -32 -0 0 8.988795230360267 0 1:1 2:-1 3:-1 4:-1 5:-1 6:-1 7:-1 9:-1 10:-1 11:1 12:-1 13:-1 14:-1 15:-1 17:-1 18:-1 19:1 20:-1 25:1 26:-1 27:-1 28:-1 
-32 -1.87508274015179 -32 -32 4.634635609300764 0 0 1:-1 2:-1 3:-1 4:-1 5:1 6:-1 7:-1 9:1 10:-1 11:-1 12:-1 13:-1 14:-1 15:-1 17:1 18:-1 19:-1 20:-1 25:1 26:-1 27:-1 28:-1 
-32 -0 -0 -0 0 0 0 1:1 2:-1 3:-1 4:-1 5:-1 6:-1 7:-1 9:-1 10:1 11:-1 12:-1 13:-1 14:-1 15:-1 17:1 18:-1 19:-1 20:-1 25:1 26:-1 27:-1 28:-1 
-32 -0 -32 -32 32 0 0 1:1 2:-1 3:-1 4:-1 5:-1 6:-1 7:-1 9:1 10:-1 11:-1 12:-1 13:-1 14:-1 15:-1 17:1 18:-1 19:-1 20:-1 25:1 26:-1 27:-1 28:-1 
-32 -0 -0 -0 0 0 0 1:1 2:-1 3:-1 4:-1 5:-1 6:-1 7:-1 9:1 10:-1 11:-1 12:-1 13:-1 14:-1 15:-1 17:-1 18:1 19:-1 20:-1 25:1 26:-1 27:-1 28:-1 
-32 -0 -0 -0 0 0 0 1:1 2:-1 3:-1 4:-1 5:-1 6:-1 7:-1 9:1 10:-1 11:-1 12:-1 13:-1 14:-1 15:-1 17:-1 18:1 19:-1 20:-1 25:1 26:-1 27:-1 28:-1 
-32 -0 -32 -0 0 0 0 1:-1 2:-1 3:1 4:-1 5:-1 6:-1 7:-1 9:1 10:-1 11:-1 12:-1 13:-1 14:-1 15:-1 17:1 18:-1 19:-1 20:-1 25:1 26:-1 27:-1 28:-1 
-9.765485397639134 -1.188093343563947 -8.558020389815709 -0 0 0 0 1:-1 2:-1 3:1 4:-1 5:-1 6:-1 7:-1 9:-1 10:1 11:-1 12:-1 13:-1 14:-1 15:-1 17:1 18:-1 19:-1 20:-1 25:1 26:-1 27:-1 28:-1 
-0 -0 -1.547019420766237 -1.234411640134668 0 0 0 1:-1 2:-1 3:1 4:-1 5:-1 6:-1 7:-1 9:-1 10:1 11:-1 12:-1 13:-1 14:-1 15:-1 17:1 18:-1 19:-1 20:-1 25:-1 26:1 27:-1 28:-1 
-32 -0 -0 -0 0 0 0 1:1 2:-1 3:-1 4:-1 5:-1 6:-1 7:-1 9:1 10:-1 11:-1 12:-1 13:-1 14:-1 15:-1 17:-1 18:-1 19:1 20:-1 25:1 26:-1 27:-1 28:-1 
-32 -0 -0 -0 0 0 0 1:1 2:-1 3:-1 4:-1 5:-1 6:-1 7:-1 9:1 10:-1 11:-1 12:-1 13:-1 14:-1 15:-1 17:-1 18:-1 19:1 20:-1 25:1 26:-1 27:-1 28:-1 
-32 -0 -7.622655317745754 -0 0 0 0 1:1 2:-1 3:-1 4:-1 5:-1 6:-1 7:-1 9:1 10:-1 11:-1 12:-1 13:-1 14:-1 15:-1 17:-1 18:-1 19:1 20:-1 25:1 26:-1 27:-1 28:-1 
-32 -0 -32 -0 0 0 0 1:-1 2:-1 3:1 4:-1 5:-1 6:-1 7:-1 9:1 10:-1 11:-1 12:-1 13:-1 14:-1 15:-1 17:1 18:-1 19:-1 20:-1 25:1 26:-1 27:-1 28:-1 
-32 -0.7555417738210332 -32 -7.378554368436735 4.634635609300764 1.209903205058458 0 1:-1 2:-1 3:1 4:-1 5:-1 6:-1 7:-1 9:1 10:-1 11:-1 12:-1 13:-1 14:-1 15:-1 17:1 18:-1 19:-1 20:-1 25:1 26:-1 27:-1 28:-1 
-1.669085153456078 -0.3233863500798868 -32 -0 0 1.805057038148842 0 1:-1 2:-1 3:1 4:-1 5:-1 6:-1 7:-1 9:-1 10:-1 11:1 12:-1 13:-1 14:-1 15:-1 17:1 18:-1 19:-1 20:-1 25:-1 26:1 27:-1 28:-1 
-32 -0.08232219948474051 -31.85543489058781 -2.655137923719292 2.575855527573722 0.8303494709734353 0 1:1 2:-1 3:-1 4:-1 5:-1 6:-1 7:-1 9:1 10:-1 11:-1 12:-1 13:-1 14:-1 15:-1 17:-1 18:-1 19:1 20:-1 25:1 26:-1 27:-1 28:-1 
-32 -0 -0 -0 0 0 0 1:1 2:-1 3:-1 4:-1 5:-1 6:-1 7:-1 9:-1 10:1 11:-1 12:-1 13:-1 14:-1 15:-1 17:1 18:-1 19:-1 20:-1 25:1 26:-1 27:-1 28:-1 
-32 -0 -32 -32 32 0 0 1:1 2:-1 3:-1 4:-1 5:-1 6:-1 7:-1 9:1 10:-1 11:-1 12:-1 13:-1 14:-1 15:-1 17:1 18:-1 19:-1 20:-1 25:1 26:-1 27:-1 28:-1 
-32 -0 -32 -12.85808330016082 2.575317688899525 1.580057756698565 0 1:1 2:-1 3:-1 4:-1 5:-1 6:-1 7:-1 9:1 10:-1 11:-1 12:-1 13:-1 14:-1 15:-1 17:1 18:-1 19:-1 20:-1 25:-1 26:1 27:-1 28:-1 
-32 -0 -32 -0 0 0 0 1:1 2:-1 3:-1 4:-1 5:-1 6:-1 7:-1 9:-1 10:-1 11:1 12:-1 13:-1 14:-1 15:-1 17:1 18:-1 19:-1 20:-1 25:1 26:-1 27:-1 28:-1 
-32 -3.039733365117537 -32 -4.145698518057205 5.661743308855151 0 0 1:1 2:-1 3:-1 4:-1 5:-1 6:-1 7:-1 9:-1 10:-1 11:1 12:-1 13:-1 14:-1 15:-1 17:1 18:-1 19:-1 20:-1 25:1 26:-1 27:-1 28:-1 
-32 -0 -0 -0 0 0 0 1:1 2:-1 3:-1 4:-1 5:-1 6:-1 7:-1 9:-1 10:1 11:-1 12:-1 13:-1 14:-1 15:-1 17:1 18:-1 19:-1 20:-1 25:1 26:-1 27:-1 28:-1 
-32 -0 -0 -0 0 0 0 1:1 2:-1 3:-1 4:-1 5:-1 6:-1 7:-1 9:-1 10:1 11:-1 12:-1 13:-1 14:-1 15:-1 17:1 18:-1 19:-1 20:-1 25:1 26:-1 27:-1 28:-1 
-31.97284833407639 -2.77470775089694 -9.216903274020403 -11.34755883313171 11.24912418396153 0 0 1:1 2:-1 3:-1 4:-1 5:-1 6:-1 7:-1 9:-1 10:1 11:-1 12:-1 13:-1 14:-1 15:-1 17:1 18:-1 19:-1 20:-1 25:1 26:-1 27:-1 28:-1 
-0 -0 -16.32870489369504 -0 0 0 0 1:-1 2:1 3:-1 4:-1 5:-1 6:-1 7:-1 9:-1 10:-1 11:1 12:-1 13:-1 14:-1 15:-1 17:1 18:-1 19:-1 20:-1 25:-1 26:1 27:-1 28:-1 
-8.023502591426633 -1.031572513725556 -32 -0 0 0 0 1:-1 2:1 3:-1 4:-1 5:-1 6:-1 7:-1 9:-1 10:-1 11:1 12:-1 13:-1 14:-1 15:-1 17:1 18:-1 19:-1 20:-1 25:1 26:-1 27:-1 28:-1 
-26.83908214442108 -0.3079798692210942 -27.88566530728903 -4.14645304714735 4.634386381351375 0 0 1:-1 2:1 3:-1 4:-1 5:-1 6:-1 7:-1 9:1 10:-1 11:-1 12:-1 13:-1 14:-1 15:-1 17:1 18:-1 19:-1 20:-1 25:1 26:-1 27:-1 28:-1 
-1.655741554212408 -0 -0 -0 0 0 0 1:-1 2:1 3:-1 4:-1 5:-1 6:-1 7:-1 9:1 10:-1 11:-1 12:-1 13:-1 14:-1 15:-1 17:1 18:-1 19:-1 20:-1 25:-1 26:1 27:-1 28:-1 
-0 -0.03524520231541668 -0 -0 0 7.741186617240782 0 1:1 2:-1 3:-1 4:-1 5:-1 6:-1 7:-1 9:-1 10:1 11:-1 12:-1 13:-1 14:-1 15:-1 17:-1 18:-1 19:1 20:-1 25:-1 26:1 27:-1 28:-1 
-5.339757570622673 -0.01176741132147265 -15.59303874633511 -0 0 0 0 1:1 2:-1 3:-1 4:-1 5:-1 6:-1 7:-1 9:-1 10:1 11:-1 12:-1 13:-1 14:-1 15:-1 17:-1 18:-1 19:1 20:-1 25:1 26:-1 27:-1 28:-1 
-0 -0.003364202908316981 -14.67414240897794 -0 0 0 0 1:-1 2:1 3:-1 4:-1 5:-1 6:-1 7:-1 9:-1 10:1 11:-1 12:-1 13:-1 14:-1 15:-1 17:-1 18:-1 19:1 20:-1 25:-1 26:1 27:-1 28:-1 
-0 -0 -15.11523335361674 -0 0 0 0 1:-1 2:1 3:-1 4:-1 5:-1 6:-1 7:-1 9:-1 10:-1 11:1 12:-1 13:-1 14:-1 15:-1 17:-1 18:1 19:-1 20:-1 25:-1 26:1 27:-1 28:-1 
-0 -0 -32 -0 0 0 0 1:-1 2:1 3:-1 4:-1 5:-1 6:-1 7:-1 9:-1 10:-1 11:1 12:-1 13:-1 14:-1 15:-1 17:-1 18:1 19:-1 20:-1 25:-1 26:1 27:-1 28:-1 
-0 -0.002696350592348616 -0 -0 0 0 0 1:-1 2:1 3:-1 4:-1 5:-1 6:-1 7:-1 9:-1 10:1 11:-1 12:-1 13:-1 14:-1 15:-1 17:1 18:-1 19:-1 20:-1 25:-1 26:-1 27:1 28:-1 
-32 -2.541494125417341 -32 -32 32 0 0 1:1 2:-1 3:-1 4:-1 5:-1 6:-1 7:-1 9:1 10:-1 11:-1 12:-1 13:-1 14:-1 15:-1 17:1 18:-1 19:-1 20:-1 25:1 26:-1 27:-1 28:-1 
-0 -0.1039057585829698 -0 -0 0 2.284409558342578 0 1:-1 2:1 3:-1 4:-1 5:-1 6:-1 7:-1 9:1 10:-1 11:-1 12:-1 13:-1 14:-1 15:-1 17:-1 18:1 19:-1 20:-1 25:-1 26:-1 27:-1 28:1 
-0 -0 -32 -0 0 5.035888794722783 0 1:1 2:-1 3:-1 4:-1 5:-1 6:-1 7:-1 9:-1 10:-1 11:1 12:-1 13:-1 14:-1 15:-1 17:-1 18:1 19:-1 20:-1 25:-1 26:1 27:-1 28:-1 
-0 -0.007902592577466682 -32 -0 0 0 0 1:-1 2:1 3:-1 4:-1 5:-1 6:-1 7:-1 9:-1 10:-1 11:1 12:-1 13:-1 14:-1 15:-1 17:-1 18:1 19:-1 20:-1 25:1 26:-1 27:-1 28:-1 
-32 -32 -32 -32 32 1.514375145357047 0 1:1 2:-1 3:-1 4:-1 5:-1 6:-1 7:-1 9:1 10:-1 11:-1 12:-1 13:-1 14:-1 15:-1 17:1 18:-1 19:-1 20:-1 25:1 26:-1 27:-1 28:-1 
-32 -32 -32 -32 32 32 0 1:1 2:-1 3:-1 4:-1 5:-1 6:-1 7:-1 9:1 10:-1 11:-1 12:-1 13:-1 14:-1 15:-1 17:1 18:-1 19:-1 20:-1 25:1 26:-1 27:-1 28:-1 
-0 -0.02470111443745987 -18.48295838187252 -0 0 0 0 1:-1 2:1 3:-1 4:-1 5:-1 6:-1 7:-1 9:1 10:-1 11:-1 12:-1 13:-1 14:-1 15:-1 17:-1 18:1 19:-1 20:-1 25:-1 26:-1 27:1 28:-1 
-6.587805890480957 -0 -0 -0 0 0 0 1:-1 2:1 3:-1 4:-1 5:-1 6:-1 7:-1 9:1 10:-1 11:-1 12:-1 13:-1 14:-1 15:-1 17:-1 18:1 19:-1 20:-1 25:1 26:-1 27:-1 28:-1 
-0 -0 -32 -0 0 0 0 1:-1 2:1 3:-1 4:-1 5:-1 6:-1 7:-1 9:-1 10:1 11:-1 12:-1 13:-1 14:-1 15:-1 17:1 18:-1 19:-1 20:-1 25:1 26:-1 27:-1 28:-1 
-32 -32 -32 -32 32 32 0 1:1 2:-1 3:-1 4:-1 5:-1 6:-1 7:-1 9:1 10:-1 11:-1 12:-1 13:-1 14:-1 15:-1 17:1 18:-1 19:-1 20:-1 25:1 26:-1 27:-1 28:-1 
-32 -32 -32 -32 32 32 0 1:1 2:-1 3:-1 4:-1 5:-1 6:-1 7:-1 9:1 10:-1 11:-1 12:-1 13:-1 14:-1 15:-1 17:1 18:-1 19:-1 20:-1 25:1 26:-1 27:-1 28:-1 
-21.98777038637308 -0.7109609658698509 -19.28446733846644 -0 0 0 0 1:-1 2:1 3:-1 4:-1 5:-1 6:-1 7:-1 9:-1 10:1 11:-1 12:-1 13:-1 14:-1 15:-1 17:1 18:-1 19:-1 20:-1 25:1 26:-1 27:-1 28:-1 
-32 -31.73456044504645 -32 -32 32 32 32 1:1 2:-1 3:-1 4:-1 5:-1 6:-1 7:-1 9:1 10:-1 11:-1 12:-1 13:-1 14:-1 15:-1 17:1 18:-1 19:-1 20:-1 25:1 26:-1 27:-1 28:-1 
-0 -0.003847898907490583 -0 -0 0 0 0 1:1 2:-1 3:-1 4:-1 5:-1 6:-1 7:-1 9:-1 10:1 11:-1 12:-1 13:-1 14:-1 15:-1 17:-1 18:1 19:-1 20:-1 25:1 26:-1 27:-1 28:-1 
-32 -0 -0 -0 0 0 0 1:1 2:-1 3:-1 4:-1 5:-1 6:-1 7:-1 9:1 10:-1 11:-1 12:-1 13:-1 14:-1 15:-1 17:-1 18:1 19:-1 20:-1 25:1 26:-1 27:-1 28:-1 
-32 -0 -0 -0 0 0 0 1:1 2:-1 3:-1 4:-1 5:-1 6:-1 7:-1 9:1 10:-1 11:-1 12:-1 13:-1 14:-1 15:-1 17:-1 18:1 19:-1 20:-1 25:1 26:-1 27:-1 28:-1 
-32 -0 -22.83423170298701 -2.6554693713747 3.981449443485572 29.96866396745333 0 1:1 2:-1 3:-1 4:-1 5:-1 6:-1 7:-1 9:1 10:-1 11:-1 12:-1 13:-1 14:-1 15:-1 17:-1 18:1 19:-1 20:-1 25:1 26:-1 27:-1 28:-1 
-0 -0 -5.969216156558324 -0 0 0 0 1:-1 2:1 3:-1 4:-1 5:-1 6:-1 7:-1 9:-1 10:1 11:-1 12:-1 13:-1 14:-1 15:-1 17:-1 18:1 19:-1 20:-1 25:-1 26:-1 27:1 28:-1 
-0 -0.08004763503402702 -0 -0 0 0 0 1:-1 2:1 3:-1 4:-1 5:-1 6:-1 7:-1 9:-1 10:1 11:-1 12:-1 13:-1 14:-1 15:-1 17:-1 18:-1 19:1 20:-1 25:-1 26:-1 27:1 28:-1 
-0 -0 -2.09722339520969 -0 0 0 0 1:-1 2:1 3:-1 4:-1 5:-1 6:-1 7:-1 9:-1 10:1 11:-1 12:-1 13:-1 14:-1 15:-1 17:-1 18:-1 19:1 20:-1 25:1 26:-1 27:-1 28:-1 
-0 -0 -9.334673123746224 -0 0 0 0 1:-1 2:1 3:-1 4:-1 5:-1 6:-1 7:-1 9:-1 10:1 11:-1 12:-1 13:-1 14:-1 15:-1 17:-1 18:1 19:-1 20:-1 25:-1 26:1 27:-1 28:-1 
-0 -0 -3.266143760946657 -0 0 0 0 1:-1 2:1 3:-1 4:-1 5:-1 6:-1 7:-1 9:-1 10:1 11:-1 12:-1 13:-1 14:-1 15:-1 17:-1 18:1 19:-1 20:-1 25:1 26:-1 27:-1 28:-1 
-0 -0 -32 -0 0 0 0 1:-1 2:1 3:-1 4:-1 5:-1 6:-1 7:-1 9:-1 10:1 11:-1 12:-1 13:-1 14:-1 15:-1 17:-1 18:1 19:-1 20:-1 25:1 26:-1 27:-1 28:-1 
-25.41765893573553 -0 -32 -0 0 0 0 1:-1 2:1 3:-1 4:-1 5:-1 6:-1 7:-1 9:-1 10:1 11:-1 12:-1 13:-1 14:-1 15:-1 17:-1 18:1 19:-1 20:-1 25:1 26:-1 27:-1 28:-1 
-32 -0 -0 -32 -0 0 0 1:1 2:-1 3:-1 4:-1 5:-1 6:-1 7:-1 9:1 10:-1 11:-1 12:-1 13:-1 14:-1 15:-1 17:1 18:-1 19:-1 20:-1 25:1 26:-1 27:-1 28:-1 
-32 -0 -0 -32 -0 0 0 1:1 2:-1 3:-1 4:-1 5:-1 6:-1 7:-1 9:1 10:-1 11:-1 12:-1 13:-1 14:-1 15:-1 17:1 18:-1 19:-1 20:-1 25:1 26:-1 27:-1 28:-1 
-32 -0 -0 -32 -0 0 0 1:1 2:-1 3:-1 4:-1 5:-1 6:-1 7:-1 9:1 10:-1 11:-1 12:-1 13:-1 14:-1 15:-1 17:1 18:-1 19:-1 20:-1 25:1 26:-1 27:-1 28:-1 
-32 -0 -0 -32 -0 0 0 1:1 2:-1 3:-1 4:-1 5:-1 6:-1 7:-1 9:1 10:-1 11:-1 12:-1 13:-1 14:-1 15:-1 17:1 18:-1 19:-1 20:-1 25:1 26:-1 27:-1 28:-1 
-32 -0 -0 -32 -0 0 0 1:1 2:-1 3:-1 4:-1 5:-1 6:-1 7:-1 9:1 10:-1 11:-1 12:-1 13:-1 14:-1 15:-1 17:1 18:-1 19:-1 20:-1 25:1 26:-1 27:-1 28:-1 
-32 -0 -0 -32 -0 0 0 1:1 2:-1 3:-1 4:-1 5:-1 6:-1 7:-1 9:1 10:-1 11:-1 12:-1 13:-1 14:-1 15:-1 17:1 18:-1 19:-1 20:-1 25:1 26:-1 27:-1 28:-1 
-32 -0 -0 -32 -0 0 0 1:1 2:-1 3:-1 4:-1 5:-1 6:-1 7:-1 9:1 10:-1 11:-1 12:-1 13:-1 14:-1 15:-1 17:1 18:-1 19:-1 20:-1 25:1 26:-1 27:-1 28:-1 
-32 -0 -0 -32 -0 0 0 1:1 2:-1 3:-1 4:-1 5:-1 6:-1 7:-1 9:1 10:-1 11:-1 12:-1 13:-1 14:-1 15:-1 17:1 18:-1 19:-1 20:-1 25:1 26:-1 27:-1 28:-1 
-0.7719466925882682 -0.3844356803961738 -1.942791773797092 -0 -2.318003053674699 3.341597079890407 0 1:-1 2:-1 3:-1 4:-1 5:-1 6:-1 7:1 9:-1 10:-1 11:-1 12:-1 13:-1 14:-1 15:1 17:-1 18:1 19:-1 20:-1 25:1 26:-1 27:-1 28:-1 
-32 -0 -0 -32 -0 0 0 1:1 2:-1 3:-1 4:-1 5:-1 6:-1 7:-1 9:1 10:-1 11:-1 12:-1 13:-1 14:-1 15:-1 17:1 18:-1 19:-1 20:-1 25:1 26:-1 27:-1 28:-1 
-32 -0 -0 -32 -0 0 0 1:1 2:-1 3:-1 4:-1 5:-1 6:-1 7:-1 9:1 10:-1 11:-1 12:-1 13:-1 14:-1 15:-1 17:1 18:-1 19:-1 20:-1 25:1 26:-1 27:-1 28:-1 
-32 -0 -0 -32 -0 0 0 1:1 2:-1 3:-1 4:-1 5:-1 6:-1 7:-1 9:1 10:-1 11:-1 12:-1 13:-1 14:-1 15:-1 17:1 18:-1 19:-1 20:-1 25:1 26:-1 27:-1 28:-1 
-32 -0 -0 -32 -0 0 0 1:1 2:-1 3:-1 4:-1 5:-1 6:-1 7:-1 9:1 10:-1 11:-1 12:-1 13:-1 14:-1 15:-1 17:1 18:-1 19:-1 20:-1 25:1 26:-1 27:-1 28:-1 
-32 -0 -0 -32 -0 0 0 1:1 2:-1 3:-1 4:-1 5:-1 6:-1 7:-1 9:1 10:-1 11:-1 12:-1 13:-1 14:-1 15:-1 17:1 18:-1 19:-1 20:-1 25:1 26:-1 27:-1 28:-1 
-32 -0 -0 -32 -0 0 0 1:1 2:-1 3:-1 4:-1 5:-1 6:-1 7:-1 9:1 10:-1 11:-1 12:-1 13:-1 14:-1 15:-1 17:1 18:-1 19:-1 20:-1 25:1 26:-1 27:-1 28:-1 
-32 -0 -0 -32 -0 0 0 1:1 2:-1 3:-1 4:-1 5:-1 6:-1 7:-1 9:1 10:-1 11:-1 12:-1 13:-1 14:-1 15:-1 17:1 18:-1 19:-1 20:-1 25:1 26:-1 27:-1 28:-1 
-0 -11.56641249079877 -0 -0 -0 0 0 1:1 2:-1 3:-1 4:-1 5:-1 6:-1 7:-1 9:-1 10:-1 11:-1 12:-1 13:-1 14:1 15:-1 17:1 18:-1 19:-1 20:-1 25:1 26:-1 27:-1 28:-1 
-32 -0 -0 -32 -0 0 0 1:1 2:-1 3:-1 4:-1 5:-1 6:-1 7:-1 9:1 10:-1 11:-1 12:-1 13:-1 14:-1 15:-1 17:1 18:-1 19:-1 20:-1 25:1 26:-1 27:-1 28:-1 
-32 -0 -0 -32 -0 0 0 1:1 2:-1 3:-1 4:-1 5:-1 6:-1 7:-1 9:1 10:-1 11:-1 12:-1 13:-1 14:-1 15:-1 17:1 18:-1 19:-1 20:-1 25:1 26:-1 27:-1 28:-1 
-32 -0 -0 -32 -0 0 0 1:1 2:-1 3:-1 4:-1 5:-1 6:-1 7:-1 9:1 10:-1 11:-1 12:-1 13:-1 14:-1 15:-1 17:1 18:-1 19:-1 20:-1 25:1 26:-1 27:-1 28:-1 
-0 -32 -0 -0 -0 0 0 1:1 2:-1 3:-1 4:-1 5:-1 6:-1 7:-1 9:-1 10:-1 11:-1 12:-1 13:-1 14:1 15:-1 17:1 18:-1 19:-1 20:-1 25:1 26:-1 27:-1 28:-1 
-32 -0 -0 -32 -0 0 0 1:1 2:-1 3:-1 4:-1 5:-1 6:-1 7:-1 9:1 10:-1 11:-1 12:-1 13:-1 14:-1 15:-1 17:1 18:-1 19:-1 20:-1 25:1 26:-1 27:-1 28:-1 
-32 -0 -0 -32 -0 0 0 1:1 2:-1 3:-1 4:-1 5:-1 6:-1 7:-1 9:1 10:-1 11:-1 12:-1 13:-1 14:-1 15:-1 17:1 18:-1 19:-1 20:-1 25:1 26:-1 27:-1 28:-1 
-32 -0 -0 -32 -0 0 0 1:1 2:-1 3:-1 4:-1 5:-1 6:-1 7:-1 9:1 10:-1 11:-1 12:-1 13:-1 14:-1 15:-1 17:1 18:-1 19:-1 20:-1 25:1 26:-1 27:-1 28:-1 
-32 -0 -0 -32 -0 0 0 1:1 2:-1 3:-1 4:-1 5:-1 6:-1 7:-1 9:1 10:-1 11:-1 12:-1 13:-1 14:-1 15:-1 17:1 18:-1 19:-1 20:-1 25:1 26:-1 27:-1 28:-1 
-32 -0 -0 -32 -0 0 0 1:1 2:-1 3:-1 4:-1 5:-1 6:-1 7:-1 9:-1 10:-1 11:-1 12:-1 13:1 14:-1 15:-1 17:1 18:-1 19:-1 20:-1 25:1 26:-1 27:-1 28:-1 
-32 -0 -0 -32 -0 0 0 1:1 2:-1 3:-1 4:-1 5:-1 6:-1 7:-1 9:1 10:-1 11:-1 12:-1 13:-1 14:-1 15:-1 17:1 18:-1 19:-1 20:-1 25:1 26:-1 27:-1 28:-1 
-32 -0 -0 -32 -0 0 0 1:1 2:-1 3:-1 4:-1 5:-1 6:-1 7:-1 9:1 10:-1 11:-1 12:-1 13:-1 14:-1 15:-1 17:1 18:-1 19:-1 20:-1 25:1 26:-1 27:-1 28:-1 
-32 -0 -0 -32 -0 0 0 1:1 2:-1 3:-1 4:-1 5:-1 6:-1 7:-1 9:1 10:-1 11:-1 12:-1 13:-1 14:-1 15:-1 17:1 18:-1 19:-1 20:-1 25:1 26:-1 27:-1 28:-1 
-32 -0 -0 -32 -0 0 0 1:1 2:-1 3:-1 4:-1 5:-1 6:-1 7:-1 9:1 10:-1 11:-1 12:-1 13:-1 14:-1 15:-1 17:1 18:-1 19:-1 20:-1 25:1 26:-1 27:-1 28:-1 
-32 -0 -0 -32 -0 0 0 1:1 2:-1 3:-1 4:-1 5:-1 6:-1 7:-1 9:1 10:-1 11:-1 12:-1 13:-1 14:-1 15:-1 17:1 18:-1 19:-1 20:-1 25:1 26:-1 27:-1 28:-1 
-32 -0 -0 -32 -0 0 0 1:1 2:-1 3:-1 4:-1 5:-1 6:-1 7:-1 9:1 10:-1 11:-1 12:-1 13:-1 14:-1 15:-1 17:1 18:-1 19:-1 20:-1 25:1 26:-1 27:-1 28:-1 
-32 -0 -0 -32 -0 0 0 1:1 2:-1 3:-1 4:-1 5:-1 6:-1 7:-1 9:1 10:-1 11:-1 12:-1 13:-1 14:-1 15:-1 17:1 18:-1 19:-1 20:-1 25:1 26:-1 27:-1 28:-1 
-32 -0 -2.18163443258116 -32 -3.379880120488171 0.7075579565048881 0 1:1 2:-1 3:-1 4:-1 5:-1 6:-1 7:-1 9:-1 10:-1 11:-1 12:-1 13:1 14:-1 15:-1 17:1 18:-1 19:-1 20:-1 25:1 26:-1 27:-1 28:-1 
-32 -0 -0 -32 -0 0 0 1:1 2:-1 3:-1 4:-1 5:-1 6:-1 7:-1 9:1 10:-1 11:-1 12:-1 13:-1 14:-1 15:-1 17:1 18:-1 19:-1 20:-1 25:1 26:-1 27:-1 28:-1 
-32 -0 -0 -32 -0 0 0 1:1 2:-1 3:-1 4:-1 5:-1 6:-1 7:-1 9:1 10:-1 11:-1 12:-1 13:-1 14:-1 15:-1 17:1 18:-1 19:-1 20:-1 25:1 26:-1 27:-1 28:-1 
-7.088103272403542 -32 -2.181485393253193 -4.944522423333551 -3.378308489830187 0.7061789926458415 0 1:1 2:-1 3:-1 4:-1 5:-1 6:-1 7:-1 9:-1 10:-1 11:-1 12:-1 13:-1 14:1 15:-1 17:1 18:-1 19:-1 20:-1 25:1 26:-1 27:-1 28:-1 
-32 -0 -1.004374602844305 -4.944556285300561 -1.974720467840161 0 0 1:1 2:-1 3:-1 4:-1 5:-1 6:-1 7:-1 9:-1 10:-1 11:-1 12:-1 13:-1 14:-1 15:1 17:1 18:-1 19:-1 20:-1 25:1 26:-1 27:-1 28:-1 
-32 -0 -0 -32 -0 0 0 1:1 2:-1 3:-1 4:-1 5:-1 6:-1 7:-1 9:1 10:-1 11:-1 12:-1 13:-1 14:-1 15:-1 17:1 18:-1 19:-1 20:-1 25:1 26:-1 27:-1 28:-1 
-32 -0 -0 -32 -0 0 0 1:1 2:-1 3:-1 4:-1 5:-1 6:-1 7:-1 9:1 10:-1 11:-1 12:-1 13:-1 14:-1 15:-1 17:1 18:-1 19:-1 20:-1 25:1 26:-1 27:-1 28:-1 
-32 -0 -13.42447142058596 -32 -0 0 0 1:1 2:-1 3:-1 4:-1 5:-1 6:-1 7:-1 9:1 10:-1 11:-1 12:-1 13:-1 14:-1 15:-1 17:1 18:-1 19:-1 20:-1 25:1 26:-1 27:-1 28:-1 
-32 -0 -32 -32 -19.89038455713743 0 0 1:1 2:-1 3:-1 4:-1 5:-1 6:-1 7:-1 9:1 10:-1 11:-1 12:-1 13:-1 14:-1 15:-1 17:1 18:-1 19:-1 20:-1 25:1 26:-1 27:-1 28:-1 
-32 -0 -32 -32 -32 0 0 1:1 2:-1 3:-1 4:-1 5:-1 6:-1 7:-1 9:1 10:-1 11:-1 12:-1 13:-1 14:-1 15:-1 17:1 18:-1 19:-1 20:-1 25:1 26:-1 27:-1 28:-1 
-32 -0 -32 -32 -32 0 0 1:1 2:-1 3:-1 4:-1 5:-1 6:-1 7:-1 9:1 10:-1 11:-1 12:-1 13:-1 14:-1 15:-1 17:1 18:-1 19:-1 20:-1 25:1 26:-1 27:-1 28:-1 
-32 -0 -32 -32 -32 0 0 1:1 2:-1 3:-1 4:-1 5:-1 6:-1 7:-1 9:1 10:-1 11:-1 12:-1 13:-1 14:-1 15:-1 17:1 18:-1 19:-1 20:-1 25:1 26:-1 27:-1 28:-1 
-32 -32 -4.779926361459296 -4.701098729059577 -4.407448398104184 0.6386962715327625 0 1:-1 2:-1 3:-1 4:-1 5:-1 6:1 7:-1 9:1 10:-1 11:-1 12:-1 13:-1 14:-1 15:-1 17:1 18:-1 19:-1 20:-1 25:1 26:-1 27:-1 28:-1 
-32 -0 -32 -32 -32 0 0 1:1 2:-1 3:-1 4:-1 5:-1 6:-1 7:-1 9:1 10:-1 11:-1 12:-1 13:-1 14:-1 15:-1 17:1 18:-1 19:-1 20:-1 25:1 26:-1 27:-1 28:-1 
-32 -0 -32 -32 -32 0 0 1:1 2:-1 3:-1 4:-1 5:-1 6:-1 7:-1 9:1 10:-1 11:-1 12:-1 13:-1 14:-1 15:-1 17:1 18:-1 19:-1 20:-1 25:1 26:-1 27:-1 28:-1 
-32 -0 -32 -32 -32 0 0 1:1 2:-1 3:-1 4:-1 5:-1 6:-1 7:-1 9:1 10:-1 11:-1 12:-1 13:-1 14:-1 15:-1 17:1 18:-1 19:-1 20:-1 25:1 26:-1 27:-1 28:-1 
-32 -0 -32 -32 -32 0 0 1:1 2:-1 3:-1 4:-1 5:-1 6:-1 7:-1 9:1 10:-1 11:-1 12:-1 13:-1 14:-1 15:-1 17:1 18:-1 19:-1 20:-1 25:1 26:-1 27:-1 28:-1 
-32 -0 -32 -32 -32 0 0 1:1 2:-1 3:-1 4:-1 5:-1 6:-1 7:-1 9:1 10:-1 11:-1 12:-1 13:-1 14:-1 15:-1 17:1 18:-1 19:-1 20:-1 25:1 26:-1 27:-1 28:-1 
-32 -0 -32 -32 -32 0 0 1:1 2:-1 3:-1 4:-1 5:-1 6:-1 7:-1 9:1 10:-1 11:-1 12:-1 13:-1 14:-1 15:-1 17:1 18:-1 19:-1 20:-1 25:1 26:-1 27:-1 28:-1 
-32 -0 -32 -32 -32 0 0 1:1 2:-1 3:-1 4:-1 5:-1 6:-1 7:-1 9:1 10:-1 11:-1 12:-1 13:-1 14:-1 15:-1 17:1 18:-1 19:-1 20:-1 25:1 26:-1 27:-1 28:-1 
-2.370121653662027 -4.505744091895666 -0 -3.521805046409226 -0 0 0 1:-1 2:-1 3:-1 4:-1 5:-1 6:-1 7:1 9:-1 10:-1 11:-1 12:-1 13:1 14:-1 15:-1 17:1 18:-1 19:-1 20:-1 25:1 26:-1 27:-1 28:-1 
-2.368190056770056 -4.502621541693012 -2.731984579641687 -0.3914722817312953 -7.172120571026172 0 0 1:-1 2:-1 3:-1 4:-1 5:-1 6:-1 7:1 9:-1 10:1 11:-1 12:-1 13:-1 14:-1 15:-1 17:1 18:-1 19:-1 20:-1 25:1 26:-1 27:-1 28:-1 
-32 -0 -32 -32 -32 0 0 1:1 2:-1 3:-1 4:-1 5:-1 6:-1 7:-1 9:1 10:-1 11:-1 12:-1 13:-1 14:-1 15:-1 17:1 18:-1 19:-1 20:-1 25:1 26:-1 27:-1 28:-1 
-32 -0 -32 -32 -32 0 0 1:1 2:-1 3:-1 4:-1 5:-1 6:-1 7:-1 9:1 10:-1 11:-1 12:-1 13:-1 14:-1 15:-1 17:1 18:-1 19:-1 20:-1 25:1 26:-1 27:-1 28:-1 
-32 -32 -32 -32 -32 7.788010124184498 0 1:1 2:-1 3:-1 4:-1 5:-1 6:-1 7:-1 9:1 10:-1 11:-1 12:-1 13:-1 14:-1 15:-1 17:1 18:-1 19:-1 20:-1 25:1 26:-1 27:-1 28:-1 
-32 -32 -32 -32 -32 32 0 1:1 2:-1 3:-1 4:-1 5:-1 6:-1 7:-1 9:1 10:-1 11:-1 12:-1 13:-1 14:-1 15:-1 17:1 18:-1 19:-1 20:-1 25:1 26:-1 27:-1 28:-1 
-32 -32 -32 -32 -32 32 0 1:1 2:-1 3:-1 4:-1 5:-1 6:-1 7:-1 9:1 10:-1 11:-1 12:-1 13:-1 14:-1 15:-1 17:1 18:-1 19:-1 20:-1 25:1 26:-1 27:-1 28:-1 
-32 -32 -32 -32 -32 32 0 1:1 2:-1 3:-1 4:-1 5:-1 6:-1 7:-1 9:1 10:-1 11:-1 12:-1 13:-1 14:-1 15:-1 17:1 18:-1 19:-1 20:-1 25:1 26:-1 27:-1 28:-1 
-32 -26.01367250196155 -32 -32 -32 32 32 1:1 2:-1 3:-1 4:-1 5:-1 6:-1 7:-1 9:1 10:-1 11:-1 12:-1 13:-1 14:-1 15:-1 17:1 18:-1 19:-1 20:-1 25:1 26:-1 27:-1 28:-1 
-3.018276826586184 -7.138972349570441 -1.478054393588483 -1.652898788983511 -0 0 0 1:-1 2:-1 3:-1 4:-1 5:-1 6:-1 7:1 9:1 10:-1 11:-1 12:-1 13:-1 14:-1 15:-1 17:1 18:-1 19:-1 20:-1 25:1 26:-1 27:-1 28:-1 
-0 -1.577968562969379 -0 -0 -0 0 0 1:-1 2:-1 3:-1 4:-1 5:-1 6:-1 7:1 9:-1 10:-1 11:-1 12:-1 13:-1 14:-1 15:1 17:1 18:-1 19:-1 20:-1 25:1 26:-1 27:-1 28:-1 
-32 -32 -32 -32 -32 -32 0 1:1 2:-1 3:-1 4:-1 5:-1 6:-1 7:-1 9:1 10:-1 11:-1 12:-1 13:-1 14:-1 15:-1 17:1 18:-1 19:-1 20:-1 25:1 26:-1 27:-1 28:-1 
-0.4083001639212333 -0.4788535140164363 -0.1266226753278596 -0.1917212729170456 -0.04306880219156406 -0.6420402176378498 0 1:-1 2:-1 3:-1 4:1 5:-1 6:-1 7:-1 9:-1 10:-1 11:-1 12:1 13:-1 14:-1 15:-1 17:-1 18:-1 19:-1 20:1 25:1 26:-1 27:-1 28:-1 
-32 -32 -32 -32 -32 -32 0 1:1 2:-1 3:-1 4:-1 5:-1 6:-1 7:-1 9:1 10:-1 11:-1 12:-1 13:-1 14:-1 15:-1 17:1 18:-1 19:-1 20:-1 25:1 26:-1 27:-1 28:-1 
-32 -3.148242955335287 -18.47692344731179 -2.754339328052696 -32 -4.910407826984627 0 1:1 2:-1 3:-1 4:-1 5:-1 6:-1 7:-1 9:1 10:-1 11:-1 12:-1 13:-1 14:-1 15:-1 17:-1 18:1 19:-1 20:-1 25:1 26:-1 27:-1 28:-1 
-2.364009045355917 -0.1670931855273569 -5.620243606048634 -0 -2.953693022875671 -0.4566685233772732 0 1:1 2:-1 3:-1 4:-1 5:-1 6:-1 7:-1 9:-1 10:-1 11:1 12:-1 13:-1 14:-1 15:-1 17:-1 18:-1 19:-1 20:1 25:1 26:-1 27:-1 28:-1 
-0 -0 -0.6069942376353524 -0.2495239649277975 -1.336353037115918 -0 0 1:-1 2:-1 3:-1 4:1 5:-1 6:-1 7:-1 9:1 10:-1 11:-1 12:-1 13:-1 14:-1 15:-1 17:-1 18:-1 19:-1 20:1 25:-1 26:1 27:-1 28:-1 
-0.09847462266664229 -0.1241363295847945 -0.9635573260786269 -0.1807052459975141 -1.161873108746721 -0.4704439682344671 0 1:1 2:-1 3:-1 4:-1 5:-1 6:-1 7:-1 9:-1 10:-1 11:-1 12:1 13:-1 14:-1 15:-1 17:1 18:-1 19:-1 20:-1 25:-1 26:-1 27:-1 28:1 
-1.902318057238454 -0.5532563548035344 -0.7403880008471864 -0.6103944048726194 -4.782690164802518 -0.8697980023567745 0 1:1 2:-1 3:-1 4:-1 5:-1 6:-1 7:-1 9:-1 10:1 11:-1 12:-1 13:-1 14:-1 15:-1 17:-1 18:-1 19:-1 20:1 25:1 26:-1 27:-1 28:-1 
-7.34930550529868 -0.5745827302899633 -32 -0.6781473964328643 -24.55378824848537 -0.1418861186467896 0 1:1 2:-1 3:-1 4:-1 5:-1 6:-1 7:-1 9:-1 10:-1 11:1 12:-1 13:-1 14:-1 15:-1 17:-1 18:-1 19:1 20:-1 25:-1 26:1 27:-1 28:-1 
-2.497812560913707 -1.99808961118442 -0 -1.85249883809638 -0 -1.061211191846449 0 1:1 2:-1 3:-1 4:-1 5:-1 6:-1 7:-1 9:1 10:-1 11:-1 12:-1 13:-1 14:-1 15:-1 17:-1 18:-1 19:-1 20:1 25:1 26:-1 27:-1 28:-1 
-0 -0 -1.991489654886039 -0 -0 -0 0 1:-1 2:-1 3:-1 4:1 5:-1 6:-1 7:-1 9:-1 10:-1 11:1 12:-1 13:-1 14:-1 15:-1 17:-1 18:-1 19:-1 20:1 25:-1 26:1 27:-1 28:-1 
-0.6183856756512367 -0.383545055820097 -0 -0.2040151376322602 -0.258583640560893 -0.514765426769027 0 1:-1 2:-1 3:-1 4:1 5:-1 6:-1 7:-1 9:1 10:-1 11:-1 12:-1 13:-1 14:-1 15:-1 17:-1 18:-1 19:-1 20:1 25:1 26:-1 27:-1 28:-1 
-32 -32 -32 -32 -32 -32 0 1:1 2:-1 3:-1 4:-1 5:-1 6:-1 7:-1 9:1 10:-1 11:-1 12:-1 13:-1 14:-1 15:-1 17:1 18:-1 19:-1 20:-1 25:1 26:-1 27:-1 28:-1 
-0 -0 -0 -0 -0.4461930011033686 -0 0 1:-1 2:1 3:-1 4:-1 5:-1 6:-1 7:-1 9:-1 10:-1 11:-1 12:1 13:-1 14:-1 15:-1 17:-1 18:-1 19:-1 20:1 25:-1 26:-1 27:-1 28:1 
-1.410729590584012 -0.6050038117861111 -7.562308561250466 -1.118902693545806 -4.460682380386251 -0.6931223078395191 0 1:-1 2:-1 3:1 4:-1 5:-1 6:-1 7:-1 9:-1 10:-1 11:1 12:-1 13:-1 14:-1 15:-1 17:1 18:-1 19:-1 20:-1 25:-1 26:-1 27:-1 28:1 
-0.3277186625826987 -0.2371148627704908 -0.5002528300792192 -0.6615495495625917 -0.7721420246683416 -0.283203179148031 0 1:-1 2:-1 3:-1 4:1 5:-1 6:-1 7:-1 9:1 10:-1 11:-1 12:-1 13:-1 14:-1 15:-1 17:1 18:-1 19:-1 20:-1 25:-1 26:-1 27:-1 28:1 
-32 -32 -32 -32 -32 -32 32 1:1 2:-1 3:-1 4:-1 5:-1 6:-1 7:-1 9:1 10:-1 11:-1 12:-1 13:-1 14:-1 15:-1 17:1 18:-1 19:-1 20:-1 25:1 26:-1 27:-1 28:-1 
-4.602336657779604 -3.306356322226099 -4.70614595836004 -3.591052566574949 -3.900679899911836 -3.13849366191759 0 1:1 2:-1 3:-1 4:-1 5:-1 6:-1 7:-1 9:1 10:-1 11:-1 12:-1 13:-1 14:-1 15:-1 17:1 18:-1 19:-1 20:-1 25:-1 26:-1 27:-1 28:1 
-32 -32 -32 -32 -32 -32 -32 1:1 2:-1 3:-1 4:-1 5:-1 6:-1 7:-1 9:1 10:-1 11:-1 12:-1 13:-1 14:-1 15:-1 17:1 18:-1 19:-1 20:-1 25:1 26:-1 27:-1 28:-1 
