svm_type c_svc
kernel_type rbf
gamma 0.03125
nr_class 7
total_sv 166
rho 0.18471 0.751979 -0.297972 0.834335 0.395492 -0.168691 0.324317 0.0272296 0.19028 0.708106 -0.559252 -0.692343 0.25991 0.0642704 -0.9054 0.402638 0.653354 0.0723157 0.130645 -0.622348 -0.828601
label 0 5 2 4 1 3 6
nr_sv 32 18 24 17 40 16 19
SV
0 0 0 32 0 0 1:1 2:-1 3:-1 4:-1 5:-1 6:-1 7:-1 9:-1 10:1 11:-1 12:-1 13:-1 14:-1 17:1 18:-1 19:-1 20:-1 25:1 26:-1 27:-1 28:-1 
0 0 0 32 0 0 1:1 2:-1 3:-1 4:-1 5:-1 6:-1 7:-1 9:-1 10:1 11:-1 12:-1 13:-1 14:-1 17:1 18:-1 19:-1 20:-1 25:1 26:-1 27:-1 28:-1 
0 0 0 32 0 0 1:-1 2:1 3:-1 4:-1 5:-1 6:-1 7:-1 9:1 10:-1 11:-1 12:-1 13:-1 14:-1 17:1 18:-1 19:-1 20:-1 25:1 26:-1 27:-1 28:-1 
14.30889673920668 1.535847661397743 1.697605063802848 32 2.473167203712416 3.11907755259755 1:-1 2:1 3:-1 4:-1 5:-1 6:-1 7:-1 9:1 10:-1 11:-1 12:-1 13:-1 14:-1 17:1 18:-1 19:-1 20:-1 25:1 26:-1 27:-1 28:-1 
32 3.344052282471492 1.705698435034082 32 32 1.734172532903954 1:-1 2:1 3:-1 4:-1 5:-1 6:-1 7:-1 9:-1 10:1 11:-1 12:-1 13:-1 14:-1 17:1 18:-1 19:-1 20:-1 25:1 26:-1 27:-1 28:-1 
9.793733583124595 4.614953307480726 31.92198805622285 32 0 0 1:1 2:-1 3:-1 4:-1 5:-1 6:-1 7:-1 9:-1 10:1 11:-1 12:-1 13:-1 14:-1 17:1 18:-1 19:-1 20:-1 25:1 26:-1 27:-1 28:-1 
0.44023217551084 32 0.8082430999600144 32 32 0.2665524183146559 1:1 2:-1 3:-1 4:-1 5:-1 6:-1 7:-1 9:-1 10:1 11:-1 12:-1 13:-1 14:-1 17:-1 18:1 19:-1 20:-1 25:1 26:-1 27:-1 28:-1 
32 32 32 32 3.349271773911479 1.298158287077225 1:1 2:-1 3:-1 4:-1 5:-1 6:-1 7:-1 9:-1 10:1 11:-1 12:-1 13:-1 14:-1 17:1 18:-1 19:-1 20:-1 25:1 26:-1 27:-1 28:-1 
0 11.22888241506015 0 0 0 0 1:1 2:-1 3:-1 4:-1 5:-1 6:-1 7:-1 9:-1 10:-1 11:1 12:-1 13:-1 14:-1 17:1 18:-1 19:-1 20:-1 25:1 26:-1 27:-1 28:-1 
0 0 0 7.7265269440957 0 0 1:1 2:-1 3:-1 4:-1 5:-1 6:-1 7:-1 9:1 10:-1 11:-1 12:-1 13:-1 14:-1 17:-1 18:1 19:-1 20:-1 25:1 26:-1 27:-1 28:-1 
0 32 0 0 0 0 1:1 2:-1 3:-1 4:-1 5:-1 6:-1 7:-1 9:-1 10:-1 11:1 12:-1 13:-1 14:-1 17:1 18:-1 19:-1 20:-1 25:1 26:-1 27:-1 28:-1 
0 32 0 0 0 0 1:1 2:-1 3:-1 4:-1 5:-1 6:-1 7:-1 9:-1 10:-1 11:1 12:-1 13:-1 14:-1 17:1 18:-1 19:-1 20:-1 25:1 26:-1 27:-1 28:-1 
0.3837660358450932 32 1.299239411205631 8.13330785794339 0.4189185513722207 0.2494513150691008 1:1 2:-1 3:-1 4:-1 5:-1 6:-1 7:-1 9:-1 10:-1 11:1 12:-1 13:-1 14:-1 17:1 18:-1 19:-1 20:-1 25:1 26:-1 27:-1 28:-1 
0 0 0 32 0 0 1:1 2:-1 3:-1 4:-1 5:-1 6:-1 7:-1 9:1 10:-1 11:-1 12:-1 13:-1 14:-1 17:-1 18:1 19:-1 20:-1 25:1 26:-1 27:-1 28:-1 
0 0 0 32 0 0 1:1 2:-1 3:-1 4:-1 5:-1 6:-1 7:-1 9:1 10:-1 11:-1 12:-1 13:-1 14:-1 17:-1 18:1 19:-1 20:-1 25:1 26:-1 27:-1 28:-1 
0 0 0 32 0 0 1:1 2:-1 3:-1 4:-1 5:-1 6:-1 7:-1 9:1 10:-1 11:-1 12:-1 13:-1 14:-1 17:-1 18:1 19:-1 20:-1 25:1 26:-1 27:-1 28:-1 
0.3708669124257714 14.37388811475876 0.7964048263489336 32 5.026160731136404 0.2590091069187753 1:1 2:-1 3:-1 4:-1 5:-1 6:-1 7:-1 9:1 10:-1 11:-1 12:-1 13:-1 14:-1 17:-1 18:1 19:-1 20:-1 25:1 26:-1 27:-1 28:-1 
0.3852407254987587 0.5254213945080981 1.311587467244571 2.660320387876981 0.4172446833991504 0.2485933415993171 1:1 2:-1 3:-1 4:-1 5:-1 6:-1 7:-1 9:-1 10:-1 11:-1 12:-1 13:1 14:-1 17:1 18:-1 19:-1 20:-1 25:1 26:-1 27:-1 28:-1 
0 0 0 0 0 4.52081171467166 1:1 2:-1 3:-1 4:-1 5:-1 6:-1 7:-1 9:1 10:-1 11:-1 12:-1 13:-1 14:-1 17:1 18:-1 19:-1 20:-1 25:1 26:-1 27:-1 28:-1 
0 0 0 0 0 32 1:1 2:-1 3:-1 4:-1 5:-1 6:-1 7:-1 9:1 10:-1 11:-1 12:-1 13:-1 14:-1 17:1 18:-1 19:-1 20:-1 25:1 26:-1 27:-1 28:-1 
0 0 0 0 0 32 1:1 2:-1 3:-1 4:-1 5:-1 6:-1 7:-1 9:1 10:-1 11:-1 12:-1 13:-1 14:-1 17:1 18:-1 19:-1 20:-1 25:1 26:-1 27:-1 28:-1 
0 0 0 0 0 32 1:1 2:-1 3:-1 4:-1 5:-1 6:-1 7:-1 9:1 10:-1 11:-1 12:-1 13:-1 14:-1 17:1 18:-1 19:-1 20:-1 25:1 26:-1 27:-1 28:-1 
0 0 4.52081171467166 0 0 32 1:1 2:-1 3:-1 4:-1 5:-1 6:-1 7:-1 9:1 10:-1 11:-1 12:-1 13:-1 14:-1 17:1 18:-1 19:-1 20:-1 25:1 26:-1 27:-1 28:-1 
0 0 32 5.091599217176 0 32 1:1 2:-1 3:-1 4:-1 5:-1 6:-1 7:-1 9:1 10:-1 11:-1 12:-1 13:-1 14:-1 17:1 18:-1 19:-1 20:-1 25:1 26:-1 27:-1 28:-1 
0 4.52081171467166 32 32 0 32 1:1 2:-1 3:-1 4:-1 5:-1 6:-1 7:-1 9:1 10:-1 11:-1 12:-1 13:-1 14:-1 17:1 18:-1 19:-1 20:-1 25:1 26:-1 27:-1 28:-1 
0 32 32 32 4.52081171467166 32 1:1 2:-1 3:-1 4:-1 5:-1 6:-1 7:-1 9:1 10:-1 11:-1 12:-1 13:-1 14:-1 17:1 18:-1 19:-1 20:-1 25:1 26:-1 27:-1 28:-1 
0 32 32 32 32 32 1:1 2:-1 3:-1 4:-1 5:-1 6:-1 7:-1 9:1 10:-1 11:-1 12:-1 13:-1 14:-1 17:1 18:-1 19:-1 20:-1 25:1 26:-1 27:-1 28:-1 
4.52081171467166 32 32 32 32 32 1:1 2:-1 3:-1 4:-1 5:-1 6:-1 7:-1 9:1 10:-1 11:-1 12:-1 13:-1 14:-1 17:1 18:-1 19:-1 20:-1 25:1 26:-1 27:-1 28:-1 
32 32 32 32 32 32 1:1 2:-1 3:-1 4:-1 5:-1 6:-1 7:-1 9:1 10:-1 11:-1 12:-1 13:-1 14:-1 17:1 18:-1 19:-1 20:-1 25:1 26:-1 27:-1 28:-1 
32 32 32 32 32 32 1:1 2:-1 3:-1 4:-1 5:-1 6:-1 7:-1 9:1 10:-1 11:-1 12:-1 13:-1 14:-1 17:1 18:-1 19:-1 20:-1 25:1 26:-1 27:-1 28:-1 
32 32 32 32 32 32 1:1 2:-1 3:-1 4:-1 5:-1 6:-1 7:-1 9:1 10:-1 11:-1 12:-1 13:-1 14:-1 17:1 18:-1 19:-1 20:-1 25:1 26:-1 27:-1 28:-1 
23.27421359064091 18.80705070912593 27.42600137331389 31.49117164244198 26.76046328476248 30.18787650860794 1:1 2:-1 3:-1 4:-1 5:-1 6:-1 7:-1 9:1 10:-1 11:-1 12:-1 13:-1 14:-1 17:1 18:-1 19:-1 20:-1 25:1 26:-1 27:-1 28:-1 
-32 32 32 32 32 32 1:1 2:-1 3:-1 4:-1 5:-1 6:-1 7:-1 9:1 10:-1 11:-1 12:-1 13:-1 14:-1 17:1 18:-1 19:-1 20:-1 25:1 26:-1 27:-1 28:-1 
-32 32 32 32 32 32 1:1 2:-1 3:-1 4:-1 5:-1 6:-1 7:-1 9:1 10:-1 11:-1 12:-1 13:-1 14:-1 17:1 18:-1 19:-1 20:-1 25:1 26:-1 27:-1 28:-1 
-12.49789283623175 0 0 32 1.175727157342185 0 1:-1 2:1 3:-1 4:-1 5:-1 6:-1 7:-1 9:-1 10:1 11:-1 12:-1 13:-1 14:-1 17:1 18:-1 19:-1 20:-1 25:1 26:-1 27:-1 28:-1 
-32 32 32 32 10.45959626339681 10.07504018234014 1:1 2:-1 3:-1 4:-1 5:-1 6:-1 7:-1 9:-1 10:1 11:-1 12:-1 13:-1 14:-1 17:1 18:-1 19:-1 20:-1 25:1 26:-1 27:-1 28:-1 
-32 6.554774887587987 4.496377343953617 32 31.8868955762331 0.2764343410120873 1:-1 2:1 3:-1 4:-1 5:-1 6:-1 7:-1 9:-1 10:1 11:-1 12:-1 13:-1 14:-1 17:1 18:-1 19:-1 20:-1 25:1 26:-1 27:-1 28:-1 
-32 32 32 32 32 32 1:1 2:-1 3:-1 4:-1 5:-1 6:-1 7:-1 9:1 10:-1 11:-1 12:-1 13:-1 14:-1 17:1 18:-1 19:-1 20:-1 25:1 26:-1 27:-1 28:-1 
-32 32 32 32 32 32 1:1 2:-1 3:-1 4:-1 5:-1 6:-1 7:-1 9:1 10:-1 11:-1 12:-1 13:-1 14:-1 17:1 18:-1 19:-1 20:-1 25:1 26:-1 27:-1 28:-1 
-0.0398152545349893 0 1.224454559335292 0.2773079339613502 0 0.107429881364889 1:-1 2:-1 3:-1 4:-1 5:-1 6:1 7:-1 9:-1 10:-1 11:-1 12:-1 13:1 14:-1 17:1 18:-1 19:-1 20:-1 25:1 26:-1 27:-1 28:-1 
-0.03736203893035032 2.058619086591146 1.218337104195508 1.585102526800836 0 0.1071267942655429 1:-1 2:-1 3:-1 4:-1 5:-1 6:1 7:-1 9:-1 10:-1 11:1 12:-1 13:-1 14:-1 17:1 18:-1 19:-1 20:-1 25:1 26:-1 27:-1 28:-1 
-0 0 0 0 0 23.85297905075031 1:-1 2:-1 3:-1 4:-1 5:-1 6:1 7:-1 9:-1 10:1 11:-1 12:-1 13:-1 14:-1 17:1 18:-1 19:-1 20:-1 25:1 26:-1 27:-1 28:-1 
-0.08054428729775692 4.811785340920605 1.338117106126783 3.261879050420614 4.791920079236399 0.2474705938325203 1:-1 2:-1 3:-1 4:-1 5:-1 6:1 7:-1 9:-1 10:1 11:-1 12:-1 13:-1 14:-1 17:-1 18:1 19:-1 20:-1 25:1 26:-1 27:-1 28:-1 
-0 0 0.221788723067772 0.2760945501708872 0 0.1058910595471334 1:-1 2:-1 3:-1 4:-1 5:-1 6:1 7:-1 9:-1 10:-1 11:-1 12:-1 13:-1 14:1 17:1 18:-1 19:-1 20:-1 25:1 26:-1 27:-1 28:-1 
-0 0 0 0 0 10.2467405112932 1:-1 2:-1 3:-1 4:-1 5:-1 6:1 7:-1 9:1 10:-1 11:-1 12:-1 13:-1 14:-1 17:1 18:-1 19:-1 20:-1 25:1 26:-1 27:-1 28:-1 
-0 0 0 0 0 32 1:-1 2:-1 3:-1 4:-1 5:-1 6:1 7:-1 9:1 10:-1 11:-1 12:-1 13:-1 14:-1 17:1 18:-1 19:-1 20:-1 25:1 26:-1 27:-1 28:-1 
-4.464880492291026 4.153604738465912 32 4.577244003114109 4.546567978829129 4.304228059701989 1:-1 2:-1 3:-1 4:-1 5:1 6:-1 7:-1 9:1 10:-1 11:-1 12:-1 13:-1 14:-1 17:1 18:-1 19:-1 20:-1 25:1 26:-1 27:-1 28:-1 
-0 0 0 0 0 32 1:-1 2:-1 3:-1 4:-1 5:-1 6:1 7:-1 9:1 10:-1 11:-1 12:-1 13:-1 14:-1 17:1 18:-1 19:-1 20:-1 25:1 26:-1 27:-1 28:-1 
-0 0 0 0 0 32 1:-1 2:-1 3:-1 4:-1 5:-1 6:1 7:-1 9:1 10:-1 11:-1 12:-1 13:-1 14:-1 17:1 18:-1 19:-1 20:-1 25:1 26:-1 27:-1 28:-1 
-4.357266567638431 0 1.955673330452921 0.9346213337791083 1.64256643650489 32 1:-1 2:-1 3:-1 4:-1 5:-1 6:1 7:-1 9:1 10:-1 11:-1 12:-1 13:-1 14:-1 17:1 18:-1 19:-1 20:-1 25:1 26:-1 27:-1 28:-1 
-32 -0 32 32 3.157516521096988 32 1:1 2:-1 3:-1 4:-1 5:-1 6:-1 7:-1 9:1 10:-1 11:-1 12:-1 13:-1 14:-1 17:1 18:-1 19:-1 20:-1 25:1 26:-1 27:-1 28:-1 
-4.098374526258682 -0.0422880925190197 3.549983049678413 14.02154235697942 0.5392428751211992 3.369952867928979 1:1 2:-1 3:-1 4:-1 5:-1 6:-1 7:-1 9:1 10:-1 11:-1 12:-1 13:-1 14:-1 17:1 18:-1 19:-1 20:-1 25:-1 26:1 27:-1 28:-1 
-0 -0 0 32 0 0 1:-1 2:1 3:-1 4:-1 5:-1 6:-1 7:-1 9:-1 10:1 11:-1 12:-1 13:-1 14:-1 17:-1 18:1 19:-1 20:-1 25:1 26:-1 27:-1 28:-1 
-0 -0 0 32 0 0 1:-1 2:1 3:-1 4:-1 5:-1 6:-1 7:-1 9:-1 10:1 11:-1 12:-1 13:-1 14:-1 17:-1 18:1 19:-1 20:-1 25:1 26:-1 27:-1 28:-1 
-0 -0 0 32 0 0 1:-1 2:1 3:-1 4:-1 5:-1 6:-1 7:-1 9:-1 10:1 11:-1 12:-1 13:-1 14:-1 17:-1 18:1 19:-1 20:-1 25:1 26:-1 27:-1 28:-1 
-2.308851077881243 -8.085314410064408 1.554930375121616 32 12.93253828605246 1.007671491821638 1:-1 2:1 3:-1 4:-1 5:-1 6:-1 7:-1 9:-1 10:1 11:-1 12:-1 13:-1 14:-1 17:-1 18:1 19:-1 20:-1 25:1 26:-1 27:-1 28:-1 
-5.148835706095458 -3.463517442837049 1.548351300711931 1.548365756811892 1.688099898235317 0.7750645638582641 1:-1 2:-1 3:1 4:-1 5:-1 6:-1 7:-1 9:-1 10:-1 11:1 12:-1 13:-1 14:-1 17:1 18:-1 19:-1 20:-1 25:1 26:-1 27:-1 28:-1 
-0 -0 0 2.657432820911809 0 0 1:1 2:-1 3:-1 4:-1 5:-1 6:-1 7:-1 9:-1 10:-1 11:1 12:-1 13:-1 14:-1 17:-1 18:1 19:-1 20:-1 25:-1 26:-1 27:1 28:-1 
-0 -0 0 32 0 0 1:1 2:-1 3:-1 4:-1 5:-1 6:-1 7:-1 9:-1 10:1 11:-1 12:-1 13:-1 14:-1 17:-1 18:1 19:-1 20:-1 25:1 26:-1 27:-1 28:-1 
-6.798743961371757 -0 0 32 0 0 1:1 2:-1 3:-1 4:-1 5:-1 6:-1 7:-1 9:-1 10:1 11:-1 12:-1 13:-1 14:-1 17:-1 18:1 19:-1 20:-1 25:1 26:-1 27:-1 28:-1 
-32 -32 32 32 10.91517859086667 6.911922712360028 1:1 2:-1 3:-1 4:-1 5:-1 6:-1 7:-1 9:-1 10:1 11:-1 12:-1 13:-1 14:-1 17:1 18:-1 19:-1 20:-1 25:1 26:-1 27:-1 28:-1 
-32 -0 4.37863658272692 32 29.64843791586832 0 1:1 2:-1 3:-1 4:-1 5:-1 6:-1 7:-1 9:-1 10:1 11:-1 12:-1 13:-1 14:-1 17:-1 18:1 19:-1 20:-1 25:1 26:-1 27:-1 28:-1 
-0 -0.9874874886315231 1.708188658104633 2.80251694131965 1.370081086411632 1.881169323752489 1:-1 2:-1 3:1 4:-1 5:-1 6:-1 7:-1 9:1 10:-1 11:-1 12:-1 13:-1 14:-1 17:1 18:-1 19:-1 20:-1 25:-1 26:-1 27:1 28:-1 
-32 -0 32 32 32 32 1:1 2:-1 3:-1 4:-1 5:-1 6:-1 7:-1 9:1 10:-1 11:-1 12:-1 13:-1 14:-1 17:1 18:-1 19:-1 20:-1 25:1 26:-1 27:-1 28:-1 
-32 -4.520811714671659 32 32 32 32 1:1 2:-1 3:-1 4:-1 5:-1 6:-1 7:-1 9:1 10:-1 11:-1 12:-1 13:-1 14:-1 17:1 18:-1 19:-1 20:-1 25:1 26:-1 27:-1 28:-1 
-32 -32 32 32 32 32 1:1 2:-1 3:-1 4:-1 5:-1 6:-1 7:-1 9:1 10:-1 11:-1 12:-1 13:-1 14:-1 17:1 18:-1 19:-1 20:-1 25:1 26:-1 27:-1 28:-1 
-32 -0 0 0 0 0 1:1 2:-1 3:-1 4:-1 5:-1 6:-1 7:-1 9:-1 10:-1 11:1 12:-1 13:-1 14:-1 17:1 18:-1 19:-1 20:-1 25:1 26:-1 27:-1 28:-1 
-32 -0 0 0 0 0 1:1 2:-1 3:-1 4:-1 5:-1 6:-1 7:-1 9:-1 10:-1 11:1 12:-1 13:-1 14:-1 17:1 18:-1 19:-1 20:-1 25:1 26:-1 27:-1 28:-1 
-32 -0.6506655925363338 8.75636556804535 6.135879982983362 0 2.187362332878373 1:1 2:-1 3:-1 4:-1 5:-1 6:-1 7:-1 9:-1 10:-1 11:1 12:-1 13:-1 14:-1 17:1 18:-1 19:-1 20:-1 25:1 26:-1 27:-1 28:-1 
-32 -32 32 32 32 32 1:1 2:-1 3:-1 4:-1 5:-1 6:-1 7:-1 9:1 10:-1 11:-1 12:-1 13:-1 14:-1 17:1 18:-1 19:-1 20:-1 25:1 26:-1 27:-1 28:-1 
-32 -32 32 32 32 32 1:1 2:-1 3:-1 4:-1 5:-1 6:-1 7:-1 9:1 10:-1 11:-1 12:-1 13:-1 14:-1 17:1 18:-1 19:-1 20:-1 25:1 26:-1 27:-1 28:-1 
-8.596102327867435 -0 0 3.083744755298429 0 0 1:1 2:-1 3:-1 4:-1 5:-1 6:-1 7:-1 9:-1 10:-1 11:1 12:-1 13:-1 14:-1 17:-1 18:1 19:-1 20:-1 25:1 26:-1 27:-1 28:-1 
-32 -31.82869931230566 32 32 30.18646199291221 32 1:1 2:-1 3:-1 4:-1 5:-1 6:-1 7:-1 9:1 10:-1 11:-1 12:-1 13:-1 14:-1 17:1 18:-1 19:-1 20:-1 25:1 26:-1 27:-1 28:-1 
-0 -0 0 0 0.529474817499786 0 1:-1 2:-1 3:1 4:-1 5:-1 6:-1 7:-1 9:-1 10:-1 11:1 12:-1 13:-1 14:-1 17:-1 18:-1 19:1 20:-1 25:-1 26:-1 27:1 28:-1 
-32 -4.520811714671659 -7.323501602879778 32 0 0 1:1 2:-1 3:-1 4:-1 5:-1 6:-1 7:-1 9:-1 10:1 11:-1 12:-1 13:-1 14:-1 17:1 18:-1 19:-1 20:-1 25:1 26:-1 27:-1 28:-1 
-32 -30.72617615106737 -32 32 7.61119712902333 9.577617394315711 1:1 2:-1 3:-1 4:-1 5:-1 6:-1 7:-1 9:-1 10:1 11:-1 12:-1 13:-1 14:-1 17:1 18:-1 19:-1 20:-1 25:1 26:-1 27:-1 28:-1 
-32 -0 -0 13.99704263462849 0 32 1:1 2:-1 3:-1 4:-1 5:-1 6:-1 7:-1 9:1 10:-1 11:-1 12:-1 13:-1 14:-1 17:1 18:-1 19:-1 20:-1 25:1 26:-1 27:-1 28:-1 
-32 -0 -6.777848747953021 32 0 32 1:1 2:-1 3:-1 4:-1 5:-1 6:-1 7:-1 9:1 10:-1 11:-1 12:-1 13:-1 14:-1 17:1 18:-1 19:-1 20:-1 25:1 26:-1 27:-1 28:-1 
-32 -0 -32 32 3.094731870563992 32 1:1 2:-1 3:-1 4:-1 5:-1 6:-1 7:-1 9:1 10:-1 11:-1 12:-1 13:-1 14:-1 17:1 18:-1 19:-1 20:-1 25:1 26:-1 27:-1 28:-1 
-1.701696210127458 -1.358517469786774 -2.404196661081635 2.697495323269579 3.563298764568639 0.1582178118333581 1:-1 2:-1 3:-1 4:-1 5:1 6:-1 7:-1 9:-1 10:-1 11:-1 12:-1 13:1 14:-1 17:-1 18:1 19:-1 20:-1 25:1 26:-1 27:-1 28:-1 
-2.145498158791419 -2.116201816324346 -0 5.452767894479813 1.674688286981733 0 1:-1 2:-1 3:-1 4:-1 5:1 6:-1 7:-1 9:-1 10:1 11:-1 12:-1 13:-1 14:-1 17:1 18:-1 19:-1 20:-1 25:1 26:-1 27:-1 28:-1 
-32 -0 -32 32 32 32 1:1 2:-1 3:-1 4:-1 5:-1 6:-1 7:-1 9:1 10:-1 11:-1 12:-1 13:-1 14:-1 17:1 18:-1 19:-1 20:-1 25:1 26:-1 27:-1 28:-1 
-32 -1.670290412190564 -32 32 32 32 1:1 2:-1 3:-1 4:-1 5:-1 6:-1 7:-1 9:1 10:-1 11:-1 12:-1 13:-1 14:-1 17:1 18:-1 19:-1 20:-1 25:1 26:-1 27:-1 28:-1 
-32 -32 -32 32 32 32 1:1 2:-1 3:-1 4:-1 5:-1 6:-1 7:-1 9:1 10:-1 11:-1 12:-1 13:-1 14:-1 17:1 18:-1 19:-1 20:-1 25:1 26:-1 27:-1 28:-1 
-32 -32 -32 32 32 32 1:1 2:-1 3:-1 4:-1 5:-1 6:-1 7:-1 9:1 10:-1 11:-1 12:-1 13:-1 14:-1 17:1 18:-1 19:-1 20:-1 25:1 26:-1 27:-1 28:-1 
-32 -32 -32 32 32 32 1:1 2:-1 3:-1 4:-1 5:-1 6:-1 7:-1 9:1 10:-1 11:-1 12:-1 13:-1 14:-1 17:1 18:-1 19:-1 20:-1 25:1 26:-1 27:-1 28:-1 
-1.400511239208129 -1.279789633156161 -4.995475487149966 0 0 0 1:-1 2:-1 3:-1 4:-1 5:1 6:-1 7:-1 9:-1 10:-1 11:1 12:-1 13:-1 14:-1 17:1 18:-1 19:-1 20:-1 25:1 26:-1 27:-1 28:-1 
-32 -32 -31.99543303532446 32 32 32 1:1 2:-1 3:-1 4:-1 5:-1 6:-1 7:-1 9:1 10:-1 11:-1 12:-1 13:-1 14:-1 17:1 18:-1 19:-1 20:-1 25:1 26:-1 27:-1 28:-1 
-0 -4.520811714671659 -0 0 0 0 1:-1 2:-1 3:-1 4:-1 5:1 6:-1 7:-1 9:1 10:-1 11:-1 12:-1 13:-1 14:-1 17:1 18:-1 19:-1 20:-1 25:1 26:-1 27:-1 28:-1 
-2.152952513458541 -28.0336262579866 -0 0 0 7.370026659911701 1:-1 2:-1 3:-1 4:-1 5:1 6:-1 7:-1 9:1 10:-1 11:-1 12:-1 13:-1 14:-1 17:1 18:-1 19:-1 20:-1 25:1 26:-1 27:-1 28:-1 
-0.08692132621893413 -0.2285229972767547 -0 0 0 0 1:-1 2:-1 3:-1 4:-1 5:1 6:-1 7:-1 9:-1 10:-1 11:-1 12:-1 13:1 14:-1 17:1 18:-1 19:-1 20:-1 25:1 26:-1 27:-1 28:-1 
-0 -0.04973818719651105 -0 -0 0.01183051424783547 0 1:1 2:-1 3:-1 4:-1 5:-1 6:-1 7:-1 9:-1 10:1 11:-1 12:-1 13:-1 14:-1 17:-1 18:1 19:-1 20:-1 25:-1 26:1 27:-1 28:-1 
-32 -0 -0 -0 0 0 1:1 2:-1 3:-1 4:-1 5:-1 6:-1 7:-1 9:1 10:-1 11:-1 12:-1 13:-1 14:-1 17:-1 18:1 19:-1 20:-1 25:1 26:-1 27:-1 28:-1 
-4.051218374176695 -0.151786496832691 -7.402613403616876 -0.20598161882541 0.3743045573266717 0.1358674728599282 1:1 2:-1 3:-1 4:-1 5:-1 6:-1 7:-1 9:1 10:-1 11:-1 12:-1 13:-1 14:-1 17:-1 18:1 19:-1 20:-1 25:-1 26:1 27:-1 28:-1 
-0 -0.3156848055265006 -0 -0 32 0 1:-1 2:1 3:-1 4:-1 5:-1 6:-1 7:-1 9:-1 10:1 11:-1 12:-1 13:-1 14:-1 17:-1 18:-1 19:-1 20:1 25:1 26:-1 27:-1 28:-1 
-13.07869889467365 -0 -0 -0 0 0 1:1 2:-1 3:-1 4:-1 5:-1 6:-1 7:-1 9:-1 10:1 11:-1 12:-1 13:-1 14:-1 17:1 18:-1 19:-1 20:-1 25:1 26:-1 27:-1 28:-1 
-32 -0 -0 -0 0 0 1:1 2:-1 3:-1 4:-1 5:-1 6:-1 7:-1 9:-1 10:1 11:-1 12:-1 13:-1 14:-1 17:1 18:-1 19:-1 20:-1 25:1 26:-1 27:-1 28:-1 
-32 -0 -0 -9.255797534781921 0 0 1:1 2:-1 3:-1 4:-1 5:-1 6:-1 7:-1 9:-1 10:1 11:-1 12:-1 13:-1 14:-1 17:1 18:-1 19:-1 20:-1 25:1 26:-1 27:-1 28:-1 
-32 -0 -0 -0 0 0 1:1 2:-1 3:-1 4:-1 5:-1 6:-1 7:-1 9:1 10:-1 11:-1 12:-1 13:-1 14:-1 17:-1 18:1 19:-1 20:-1 25:1 26:-1 27:-1 28:-1 
-32 -0 -0 -0 0 0 1:1 2:-1 3:-1 4:-1 5:-1 6:-1 7:-1 9:1 10:-1 11:-1 12:-1 13:-1 14:-1 17:-1 18:1 19:-1 20:-1 25:1 26:-1 27:-1 28:-1 
-32 -0.05003881773518421 -0 -5.769379338184825 1.371981912928557 4.065024122205074 1:1 2:-1 3:-1 4:-1 5:-1 6:-1 7:-1 9:1 10:-1 11:-1 12:-1 13:-1 14:-1 17:-1 18:1 19:-1 20:-1 25:1 26:-1 27:-1 28:-1 
-0 -0.1866115879936814 -3.657229150027673 -0 0.4129872809385012 0 1:1 2:-1 3:-1 4:-1 5:-1 6:-1 7:-1 9:-1 10:1 11:-1 12:-1 13:-1 14:-1 17:-1 18:1 19:-1 20:-1 25:-1 26:-1 27:1 28:-1 
-0 -0.03883901726780063 -0 -0 0.2965252756671233 0 1:-1 2:1 3:-1 4:-1 5:-1 6:-1 7:-1 9:-1 10:1 11:-1 12:-1 13:-1 14:-1 17:1 18:-1 19:-1 20:-1 25:-1 26:1 27:-1 28:-1 
-32 -0 -10.04347134175697 -32 0 32 1:1 2:-1 3:-1 4:-1 5:-1 6:-1 7:-1 9:1 10:-1 11:-1 12:-1 13:-1 14:-1 17:1 18:-1 19:-1 20:-1 25:1 26:-1 27:-1 28:-1 
-32 -0 -32 -32 2.157677361621015 32 1:1 2:-1 3:-1 4:-1 5:-1 6:-1 7:-1 9:1 10:-1 11:-1 12:-1 13:-1 14:-1 17:1 18:-1 19:-1 20:-1 25:1 26:-1 27:-1 28:-1 
-32 -0 -32 -32 32 32 1:1 2:-1 3:-1 4:-1 5:-1 6:-1 7:-1 9:1 10:-1 11:-1 12:-1 13:-1 14:-1 17:1 18:-1 19:-1 20:-1 25:1 26:-1 27:-1 28:-1 
-0 -0 -0.1013997258217472 -0 0 0 1:1 2:-1 3:-1 4:-1 5:-1 6:-1 7:-1 9:-1 10:1 11:-1 12:-1 13:-1 14:-1 17:-1 18:1 19:-1 20:-1 25:1 26:-1 27:-1 28:-1 
-0 -0 -32 -0 0 0 1:1 2:-1 3:-1 4:-1 5:-1 6:-1 7:-1 9:-1 10:1 11:-1 12:-1 13:-1 14:-1 17:-1 18:1 19:-1 20:-1 25:1 26:-1 27:-1 28:-1 
-2.272255435760601 -0 -32 -0 3.5311529200445 0 1:1 2:-1 3:-1 4:-1 5:-1 6:-1 7:-1 9:-1 10:1 11:-1 12:-1 13:-1 14:-1 17:-1 18:1 19:-1 20:-1 25:1 26:-1 27:-1 28:-1 
-32 -0.6271163292817619 -3.184814652496442 -32 0 0 1:1 2:-1 3:-1 4:-1 5:-1 6:-1 7:-1 9:-1 10:1 11:-1 12:-1 13:-1 14:-1 17:1 18:-1 19:-1 20:-1 25:1 26:-1 27:-1 28:-1 
-31.99200929017066 -31.9500271630003 -31.90239203719028 -32 1.383360349346111 9.412870301740652 1:1 2:-1 3:-1 4:-1 5:-1 6:-1 7:-1 9:-1 10:1 11:-1 12:-1 13:-1 14:-1 17:1 18:-1 19:-1 20:-1 25:1 26:-1 27:-1 28:-1 
-32 -1.364135512120115 -31.831454591987 -0 31.70581804847938 0 1:1 2:-1 3:-1 4:-1 5:-1 6:-1 7:-1 9:-1 10:1 11:-1 12:-1 13:-1 14:-1 17:-1 18:1 19:-1 20:-1 25:1 26:-1 27:-1 28:-1 
-0 -0.08511789030556149 -1.861002586407274 -0.2118627688391636 0.5602687583752927 0.1290667444021811 1:-1 2:1 3:-1 4:-1 5:-1 6:-1 7:-1 9:1 10:-1 11:-1 12:-1 13:-1 14:-1 17:1 18:-1 19:-1 20:-1 25:-1 26:1 27:-1 28:-1 
-7.028691882145664 -1.539876514917251 -3.245312257378052 -0 0.2513158744104205 0 1:-1 2:1 3:-1 4:-1 5:-1 6:-1 7:-1 9:-1 10:-1 11:1 12:-1 13:-1 14:-1 17:1 18:-1 19:-1 20:-1 25:1 26:-1 27:-1 28:-1 
-0 -0.1816475276155156 -4.666333806789893 -0 0.2468004787260602 0 1:-1 2:1 3:-1 4:-1 5:-1 6:-1 7:-1 9:-1 10:-1 11:1 12:-1 13:-1 14:-1 17:1 18:-1 19:-1 20:-1 25:-1 26:1 27:-1 28:-1 
-2.274893188545815 -0.1197561750076585 -0 -0 0.1771324185490039 0 1:-1 2:1 3:-1 4:-1 5:-1 6:-1 7:-1 9:1 10:-1 11:-1 12:-1 13:-1 14:-1 17:-1 18:1 19:-1 20:-1 25:1 26:-1 27:-1 28:-1 
-0 -0.1682551150418432 -0 -0 0.5821686746431894 0 1:-1 2:1 3:-1 4:-1 5:-1 6:-1 7:-1 9:-1 10:1 11:-1 12:-1 13:-1 14:-1 17:-1 18:1 19:-1 20:-1 25:-1 26:-1 27:1 28:-1 
-32 -4.520811714671659 -32 -32 32 32 1:1 2:-1 3:-1 4:-1 5:-1 6:-1 7:-1 9:1 10:-1 11:-1 12:-1 13:-1 14:-1 17:1 18:-1 19:-1 20:-1 25:1 26:-1 27:-1 28:-1 
-32 -32 -32 -32 32 32 1:1 2:-1 3:-1 4:-1 5:-1 6:-1 7:-1 9:1 10:-1 11:-1 12:-1 13:-1 14:-1 17:1 18:-1 19:-1 20:-1 25:1 26:-1 27:-1 28:-1 
-32 -32 -32 -32 32 32 1:1 2:-1 3:-1 4:-1 5:-1 6:-1 7:-1 9:1 10:-1 11:-1 12:-1 13:-1 14:-1 17:1 18:-1 19:-1 20:-1 25:1 26:-1 27:-1 28:-1 
-5.759603237882283 -0 -0 -0 0 0 1:-1 2:1 3:-1 4:-1 5:-1 6:-1 7:-1 9:1 10:-1 11:-1 12:-1 13:-1 14:-1 17:1 18:-1 19:-1 20:-1 25:1 26:-1 27:-1 28:-1 
-32 -32 -32 -32 32 32 1:1 2:-1 3:-1 4:-1 5:-1 6:-1 7:-1 9:1 10:-1 11:-1 12:-1 13:-1 14:-1 17:1 18:-1 19:-1 20:-1 25:1 26:-1 27:-1 28:-1 
-32 -30.42225825977901 -32 -32 32 32 1:1 2:-1 3:-1 4:-1 5:-1 6:-1 7:-1 9:1 10:-1 11:-1 12:-1 13:-1 14:-1 17:1 18:-1 19:-1 20:-1 25:1 26:-1 27:-1 28:-1 
-32 -0 -0 -0 0 0 1:-1 2:1 3:-1 4:-1 5:-1 6:-1 7:-1 9:1 10:-1 11:-1 12:-1 13:-1 14:-1 17:1 18:-1 19:-1 20:-1 25:1 26:-1 27:-1 28:-1 
-31.50717752048456 -2.188187636757488 -0 -6.704284591746562 0.1351707766454298 7.150623265540657 1:-1 2:1 3:-1 4:-1 5:-1 6:-1 7:-1 9:1 10:-1 11:-1 12:-1 13:-1 14:-1 17:1 18:-1 19:-1 20:-1 25:1 26:-1 27:-1 28:-1 
-0 -0 -32 -0 0 0 1:-1 2:1 3:-1 4:-1 5:-1 6:-1 7:-1 9:-1 10:1 11:-1 12:-1 13:-1 14:-1 17:-1 18:1 19:-1 20:-1 25:1 26:-1 27:-1 28:-1 
-0 -0 -32 -0 0 0 1:-1 2:1 3:-1 4:-1 5:-1 6:-1 7:-1 9:-1 10:1 11:-1 12:-1 13:-1 14:-1 17:-1 18:1 19:-1 20:-1 25:1 26:-1 27:-1 28:-1 
-0 -32 -0 -0 0.1127104794881828 0 1:-1 2:1 3:-1 4:-1 5:-1 6:-1 7:-1 9:-1 10:1 11:-1 12:-1 13:-1 14:-1 17:1 18:-1 19:-1 20:-1 25:1 26:-1 27:-1 28:-1 
-21.13837822569412 -31.62692846088069 -0 -0 32 0 1:-1 2:1 3:-1 4:-1 5:-1 6:-1 7:-1 9:-1 10:1 11:-1 12:-1 13:-1 14:-1 17:1 18:-1 19:-1 20:-1 25:1 26:-1 27:-1 28:-1 
-0 -0 -32 -0 0 0 1:-1 2:1 3:-1 4:-1 5:-1 6:-1 7:-1 9:-1 10:1 11:-1 12:-1 13:-1 14:-1 17:-1 18:1 19:-1 20:-1 25:1 26:-1 27:-1 28:-1 
-0 -1.325432186315677 -28.35345906083234 -0 2.359863214289206 0 1:-1 2:1 3:-1 4:-1 5:-1 6:-1 7:-1 9:-1 10:1 11:-1 12:-1 13:-1 14:-1 17:-1 18:1 19:-1 20:-1 25:1 26:-1 27:-1 28:-1 
-32 -0 -32 -32 -32 32 1:1 2:-1 3:-1 4:-1 5:-1 6:-1 7:-1 9:1 10:-1 11:-1 12:-1 13:-1 14:-1 17:1 18:-1 19:-1 20:-1 25:1 26:-1 27:-1 28:-1 
-32 -8.942841914957393 -32 -32 -32 32 1:1 2:-1 3:-1 4:-1 5:-1 6:-1 7:-1 9:1 10:-1 11:-1 12:-1 13:-1 14:-1 17:1 18:-1 19:-1 20:-1 25:1 26:-1 27:-1 28:-1 
-32 -32 -32 -32 -32 32 1:1 2:-1 3:-1 4:-1 5:-1 6:-1 7:-1 9:1 10:-1 11:-1 12:-1 13:-1 14:-1 17:1 18:-1 19:-1 20:-1 25:1 26:-1 27:-1 28:-1 
-0.4562024483763179 -2.973764354113128 -0 -0 -32 0 1:-1 2:1 3:-1 4:-1 5:-1 6:-1 7:-1 9:-1 10:1 11:-1 12:-1 13:-1 14:-1 17:-1 18:-1 19:-1 20:1 25:1 26:-1 27:-1 28:-1 
-0 -0 -0 -0 -1.052757614353694 0 1:-1 2:1 3:-1 4:-1 5:-1 6:-1 7:-1 9:-1 10:1 11:-1 12:-1 13:-1 14:-1 17:-1 18:-1 19:-1 20:1 25:-1 26:-1 27:-1 28:1 
-1.085327776518708 -0.5512329237463592 -3.510277421664929 -0.659912170103753 -2.648898688031297 0 1:1 2:-1 3:-1 4:-1 5:-1 6:-1 7:-1 9:-1 10:1 11:-1 12:-1 13:-1 14:-1 17:-1 18:-1 19:-1 20:1 25:1 26:-1 27:-1 28:-1 
-0 -0 -0.5440349018652014 -0 -0 0 1:1 2:-1 3:-1 4:-1 5:-1 6:-1 7:-1 9:-1 10:1 11:-1 12:-1 13:-1 14:-1 17:-1 18:-1 19:-1 20:1 25:-1 26:-1 27:-1 28:1 
-4.62124429013325 -0 -2.587809866814478 -2.862333234524018 -3.285125555087739 3.61956089775525 1:1 2:-1 3:-1 4:-1 5:-1 6:-1 7:-1 9:1 10:-1 11:-1 12:-1 13:-1 14:-1 17:-1 18:-1 19:-1 20:1 25:1 26:-1 27:-1 28:-1 
-32 -5.544748774205658 -32 -5.049939897037182 -32 1.281141292314886 1:1 2:-1 3:-1 4:-1 5:-1 6:-1 7:-1 9:-1 10:1 11:-1 12:-1 13:-1 14:-1 17:-1 18:1 19:-1 20:-1 25:1 26:-1 27:-1 28:-1 
-2.848218672742402 -1.351684505278106 -5.939582308890306 -0 -5.09508642287383 0 1:-1 2:-1 3:-1 4:1 5:-1 6:-1 7:-1 9:-1 10:1 11:-1 12:-1 13:-1 14:-1 17:-1 18:1 19:-1 20:-1 25:1 26:-1 27:-1 28:-1 
-32 -32 -13.28885424709829 -5.204346714200256 -32 4.488716111074758 1:-1 2:1 3:-1 4:-1 5:-1 6:-1 7:-1 9:-1 10:1 11:-1 12:-1 13:-1 14:-1 17:1 18:-1 19:-1 20:-1 25:1 26:-1 27:-1 28:-1 
-1.818114496328266 -0 -1.096473237731388 -1.456928819333934 -1.58920061537993 2.424348434989628 1:-1 2:-1 3:-1 4:1 5:-1 6:-1 7:-1 9:1 10:-1 11:-1 12:-1 13:-1 14:-1 17:1 18:-1 19:-1 20:-1 25:-1 26:-1 27:-1 28:1 
-32 -32 -32 -32 -32 32 1:1 2:-1 3:-1 4:-1 5:-1 6:-1 7:-1 9:1 10:-1 11:-1 12:-1 13:-1 14:-1 17:1 18:-1 19:-1 20:-1 25:1 26:-1 27:-1 28:-1 
-32 -32 -32 -32 -32 32 1:1 2:-1 3:-1 4:-1 5:-1 6:-1 7:-1 9:1 10:-1 11:-1 12:-1 13:-1 14:-1 17:1 18:-1 19:-1 20:-1 25:1 26:-1 27:-1 28:-1 
-0.1369302588668647 -3.139001019241874 -0 -0.7104552159385481 -0 0 1:-1 2:-1 3:-1 4:1 5:-1 6:-1 7:-1 9:-1 10:1 11:-1 12:-1 13:-1 14:-1 17:1 18:-1 19:-1 20:-1 25:-1 26:-1 27:-1 28:1 
-32 -32 -32 -32 -32 32 1:1 2:-1 3:-1 4:-1 5:-1 6:-1 7:-1 9:1 10:-1 11:-1 12:-1 13:-1 14:-1 17:1 18:-1 19:-1 20:-1 25:1 26:-1 27:-1 28:-1 
-3.350039284334004 -32 -6.077747790998702 -6.497088900306998 -6.731123113311484 -4.55125832288716 1:-1 2:-1 3:-1 4:-1 5:-1 6:1 7:-1 9:-1 10:1 11:-1 12:-1 13:-1 14:-1 17:1 18:-1 19:-1 20:-1 25:1 26:-1 27:-1 28:-1 
-32 -0 -0 -0 -0 -0 1:1 2:-1 3:-1 4:-1 5:-1 6:-1 7:-1 9:1 10:-1 11:-1 12:-1 13:-1 14:-1 17:1 18:-1 19:-1 20:-1 25:1 26:-1 27:-1 28:-1 
-32 -0 -0 -0 -0 -0 1:1 2:-1 3:-1 4:-1 5:-1 6:-1 7:-1 9:1 10:-1 11:-1 12:-1 13:-1 14:-1 17:1 18:-1 19:-1 20:-1 25:1 26:-1 27:-1 28:-1 
-32 -0 -0 -0 -0 -0 1:1 2:-1 3:-1 4:-1 5:-1 6:-1 7:-1 9:1 10:-1 11:-1 12:-1 13:-1 14:-1 17:1 18:-1 19:-1 20:-1 25:1 26:-1 27:-1 28:-1 
-0 -32 -0 -0 -0 -0 1:-1 2:-1 3:-1 4:-1 5:-1 6:1 7:-1 9:1 10:-1 11:-1 12:-1 13:-1 14:-1 17:1 18:-1 19:-1 20:-1 25:1 26:-1 27:-1 28:-1 
-0 -32 -0 -0 -0 -0 1:-1 2:-1 3:-1 4:-1 5:-1 6:1 7:-1 9:1 10:-1 11:-1 12:-1 13:-1 14:-1 17:1 18:-1 19:-1 20:-1 25:1 26:-1 27:-1 28:-1 
-32 -0 -0 -9.032089354620471 -0 -0 1:1 2:-1 3:-1 4:-1 5:-1 6:-1 7:-1 9:1 10:-1 11:-1 12:-1 13:-1 14:-1 17:1 18:-1 19:-1 20:-1 25:1 26:-1 27:-1 28:-1 
-0 -32 -0 -0 -0 -0 1:-1 2:-1 3:-1 4:-1 5:-1 6:1 7:-1 9:1 10:-1 11:-1 12:-1 13:-1 14:-1 17:1 18:-1 19:-1 20:-1 25:1 26:-1 27:-1 28:-1 
-32 -0 -0 -32 -12.37767358226013 -0 1:1 2:-1 3:-1 4:-1 5:-1 6:-1 7:-1 9:1 10:-1 11:-1 12:-1 13:-1 14:-1 17:1 18:-1 19:-1 20:-1 25:1 26:-1 27:-1 28:-1 
-32 -0 -10.06927560141046 -32 -32 -0 1:1 2:-1 3:-1 4:-1 5:-1 6:-1 7:-1 9:1 10:-1 11:-1 12:-1 13:-1 14:-1 17:1 18:-1 19:-1 20:-1 25:1 26:-1 27:-1 28:-1 
-4.570390554001197 -4.73812443412853 -0.1728936626015148 -1.576683611133305 -1.791289108313566 -1.832206671949215 1:-1 2:-1 3:-1 4:-1 5:-1 6:-1 7:1 9:1 10:-1 11:-1 12:-1 13:-1 14:-1 17:1 18:-1 19:-1 20:-1 25:1 26:-1 27:-1 28:-1 
-32 -0 -32 -32 -32 -5.465650290925767 1:1 2:-1 3:-1 4:-1 5:-1 6:-1 7:-1 9:1 10:-1 11:-1 12:-1 13:-1 14:-1 17:1 18:-1 19:-1 20:-1 25:1 26:-1 27:-1 28:-1 
-32 -0 -32 -32 -32 -32 1:1 2:-1 3:-1 4:-1 5:-1 6:-1 7:-1 9:1 10:-1 11:-1 12:-1 13:-1 14:-1 17:1 18:-1 19:-1 20:-1 25:1 26:-1 27:-1 28:-1 
-32 -12.58521603997928 -32 -32 -32 -32 1:1 2:-1 3:-1 4:-1 5:-1 6:-1 7:-1 9:1 10:-1 11:-1 12:-1 13:-1 14:-1 17:1 18:-1 19:-1 20:-1 25:1 26:-1 27:-1 28:-1 
-32 -32 -32 -32 -32 -32 1:1 2:-1 3:-1 4:-1 5:-1 6:-1 7:-1 9:1 10:-1 11:-1 12:-1 13:-1 14:-1 17:1 18:-1 19:-1 20:-1 25:1 26:-1 27:-1 28:-1 
-1.963272939424972 -32 -0 -0 -0 -0 1:-1 2:-1 3:-1 4:-1 5:-1 6:1 7:-1 9:1 10:-1 11:-1 12:-1 13:-1 14:-1 17:1 18:-1 19:-1 20:-1 25:1 26:-1 27:-1 28:-1 
-32 -32 -32 -32 -32 -32 1:1 2:-1 3:-1 4:-1 5:-1 6:-1 7:-1 9:1 10:-1 11:-1 12:-1 13:-1 14:-1 17:1 18:-1 19:-1 20:-1 25:1 26:-1 27:-1 28:-1 
-32 -32 -32 -32 -32 -32 1:1 2:-1 3:-1 4:-1 5:-1 6:-1 7:-1 9:1 10:-1 11:-1 12:-1 13:-1 14:-1 17:1 18:-1 19:-1 20:-1 25:1 26:-1 27:-1 28:-1 
-32 -32 -31.8132262375891 -32 -31.99336610286332 -31.96465145037238 1:1 2:-1 3:-1 4:-1 5:-1 6:-1 7:-1 9:1 10:-1 11:-1 12:-1 13:-1 14:-1 17:1 18:-1 19:-1 20:-1 25:1 26:-1 27:-1 28:-1 
