svm_type c_svc
kernel_type rbf
gamma 0.03125
nr_class 7
total_sv 950
rho -0.65 -0.107775 -0.467162 0.45094 -0.142831 -0.649914 0.827089 -0.359113 0.726815 0.210501 0.202089 -0.618048 0.360369 -0.102493 -0.571688 0.754363 0.192808 0.348427 -0.529302 -1.14426 -0.0070082
label 0 5 2 4 1 3 6
nr_sv 324 274 56 196 65 14 21
SV
0 0 0 32 0 0 1:-1 2:1 3:-1 4:-1 5:-1 6:-1 7:-1 9:1 10:-1 11:-1 12:-1 
0 32 0 0 0 0 1:-1 2:-1 3:1 4:-1 5:-1 6:-1 7:-1 9:1 10:-1 11:-1 12:-1 
0 0 32 0 0 0 1:-1 2:-1 3:-1 4:-1 5:1 6:-1 7:-1 9:1 10:-1 11:-1 12:-1 
0 32 0 0 0 0 1:-1 2:-1 3:1 4:-1 5:-1 6:-1 7:-1 9:1 10:-1 11:-1 12:-1 
0 0 0 32 0 0 1:1 2:-1 3:-1 4:-1 5:-1 6:-1 7:-1 9:-1 10:1 11:-1 12:-1 
0 0 0 32 0 0 1:1 2:-1 3:-1 4:-1 5:-1 6:-1 7:-1 9:-1 10:1 11:-1 12:-1 
0 0 0 32 0 0 1:-1 2:1 3:-1 4:-1 5:-1 6:-1 7:-1 9:1 10:-1 11:-1 12:-1 
0 0 0 32 0 0 1:-1 2:1 3:-1 4:-1 5:-1 6:-1 7:-1 9:1 10:-1 11:-1 12:-1 
0 0 0 32 0 0 1:-1 2:1 3:-1 4:-1 5:-1 6:-1 7:-1 9:1 10:-1 11:-1 12:-1 
0 0 0 32 0 0 1:-1 2:1 3:-1 4:-1 5:-1 6:-1 7:-1 9:1 10:-1 11:-1 12:-1 
2.260405857335831 32 0 0 0 0 1:-1 2:-1 3:1 4:-1 5:-1 6:-1 7:-1 9:1 10:-1 11:-1 12:-1 
0 0 32 0 0 0 1:-1 2:-1 3:-1 4:-1 5:1 6:-1 7:-1 9:1 10:-1 11:-1 12:-1 
0 12.19013506268558 0 32 0 0 1:-1 2:1 3:-1 4:-1 5:-1 6:-1 7:-1 9:1 10:-1 11:-1 12:-1 
32 32 0 0 0 0 1:-1 2:-1 3:1 4:-1 5:-1 6:-1 7:-1 9:1 10:-1 11:-1 12:-1 
1.796787837426199 0 32 0 0 0 1:-1 2:-1 3:-1 4:-1 5:1 6:-1 7:-1 9:1 10:-1 11:-1 12:-1 
0 0 0 32 0 0 1:1 2:-1 3:-1 4:-1 5:-1 6:-1 7:-1 9:-1 10:1 11:-1 12:-1 
4.52081171467166 32 2.271060361272816 32 3.928492787691102 2.26040585733583 1:-1 2:1 3:-1 4:-1 5:-1 6:-1 7:-1 9:1 10:-1 11:-1 12:-1 
32 32 0 4.758291326303909 0 0 1:-1 2:-1 3:1 4:-1 5:-1 6:-1 7:-1 9:1 10:-1 11:-1 12:-1 
32 0 32 0 0 0 1:-1 2:-1 3:-1 4:-1 5:1 6:-1 7:-1 9:1 10:-1 11:-1 12:-1 
0 0 0 32 0 0 1:1 2:-1 3:-1 4:-1 5:-1 6:-1 7:-1 9:-1 10:1 11:-1 12:-1 
0 0 0 32 0 0 1:1 2:-1 3:-1 4:-1 5:-1 6:-1 7:-1 9:-1 10:1 11:-1 12:-1 
32 32 0 32 0 0 1:-1 2:-1 3:1 4:-1 5:-1 6:-1 7:-1 9:1 10:-1 11:-1 12:-1 
29.27597612275454 32 32 32 32 31.53800354737171 1:-1 2:1 3:-1 4:-1 5:-1 6:-1 7:-1 9:1 10:-1 11:-1 12:-1 
32 0 32 0 0 0 1:-1 2:-1 3:-1 4:-1 5:1 6:-1 7:-1 9:1 10:-1 11:-1 12:-1 
32 0 32 0 0 0 1:-1 2:-1 3:-1 4:-1 5:1 6:-1 7:-1 9:1 10:-1 11:-1 12:-1 
32 0 32 0 0 0 1:-1 2:-1 3:-1 4:-1 5:1 6:-1 7:-1 9:1 10:-1 11:-1 12:-1 
0 0 0 32 0 0 1:1 2:-1 3:-1 4:-1 5:-1 6:-1 7:-1 9:-1 10:1 11:-1 12:-1 
0 0 0 32 0 0 1:1 2:-1 3:-1 4:-1 5:-1 6:-1 7:-1 9:-1 10:1 11:-1 12:-1 
0 0 0 32 0 0 1:1 2:-1 3:-1 4:-1 5:-1 6:-1 7:-1 9:-1 10:1 11:-1 12:-1 
0 0 0 32 0 0 1:1 2:-1 3:-1 4:-1 5:-1 6:-1 7:-1 9:-1 10:1 11:-1 12:-1 
0 0 0 32 0 0 1:1 2:-1 3:-1 4:-1 5:-1 6:-1 7:-1 9:-1 10:1 11:-1 12:-1 
0 0 0 32 0 0 1:1 2:-1 3:-1 4:-1 5:-1 6:-1 7:-1 9:-1 10:1 11:-1 12:-1 
0 0 0 32 0 0 1:1 2:-1 3:-1 4:-1 5:-1 6:-1 7:-1 9:-1 10:1 11:-1 12:-1 
0 0 0 32 0 0 1:1 2:-1 3:-1 4:-1 5:-1 6:-1 7:-1 9:-1 10:1 11:-1 12:-1 
0 0 0 32 0 0 1:1 2:-1 3:-1 4:-1 5:-1 6:-1 7:-1 9:-1 10:1 11:-1 12:-1 
0 0 0 32 0 0 1:1 2:-1 3:-1 4:-1 5:-1 6:-1 7:-1 9:-1 10:1 11:-1 12:-1 
0 0 0 32 0 0 1:1 2:-1 3:-1 4:-1 5:-1 6:-1 7:-1 9:-1 10:1 11:-1 12:-1 
32 32 0 32 0 0 1:-1 2:-1 3:1 4:-1 5:-1 6:-1 7:-1 9:1 10:-1 11:-1 12:-1 
0 0 0 32 0 0 1:1 2:-1 3:-1 4:-1 5:-1 6:-1 7:-1 9:-1 10:1 11:-1 12:-1 
0 0 0 32 0 0 1:1 2:-1 3:-1 4:-1 5:-1 6:-1 7:-1 9:-1 10:1 11:-1 12:-1 
0 0 0 32 0 0 1:1 2:-1 3:-1 4:-1 5:-1 6:-1 7:-1 9:-1 10:1 11:-1 12:-1 
0 0 0 32 0 0 1:1 2:-1 3:-1 4:-1 5:-1 6:-1 7:-1 9:-1 10:1 11:-1 12:-1 
0 0.4710390092875374 0 0 0 0 1:1 2:-1 3:-1 4:-1 5:-1 6:-1 7:-1 9:-1 10:-1 11:1 12:-1 
0 0 0 32 0 0 1:1 2:-1 3:-1 4:-1 5:-1 6:-1 7:-1 9:-1 10:1 11:-1 12:-1 
32 32 0 32 0 0 1:-1 2:-1 3:1 4:-1 5:-1 6:-1 7:-1 9:1 10:-1 11:-1 12:-1 
32 0 32 0 0 0 1:-1 2:-1 3:-1 4:-1 5:1 6:-1 7:-1 9:1 10:-1 11:-1 12:-1 
0 0 0 32 0 0 1:1 2:-1 3:-1 4:-1 5:-1 6:-1 7:-1 9:-1 10:1 11:-1 12:-1 
0 32 0 0 0 0 1:1 2:-1 3:-1 4:-1 5:-1 6:-1 7:-1 9:-1 10:-1 11:1 12:-1 
32 32 0 32 0 0 1:-1 2:-1 3:1 4:-1 5:-1 6:-1 7:-1 9:1 10:-1 11:-1 12:-1 
0 0 0 32 0 0 1:1 2:-1 3:-1 4:-1 5:-1 6:-1 7:-1 9:-1 10:1 11:-1 12:-1 
0 32 0 0 0 0 1:1 2:-1 3:-1 4:-1 5:-1 6:-1 7:-1 9:-1 10:-1 11:1 12:-1 
0 32 0 0 0 0 1:1 2:-1 3:-1 4:-1 5:-1 6:-1 7:-1 9:-1 10:-1 11:1 12:-1 
0 32 0 0 0 0 1:1 2:-1 3:-1 4:-1 5:-1 6:-1 7:-1 9:-1 10:-1 11:1 12:-1 
0 32 0 0 0 0 1:1 2:-1 3:-1 4:-1 5:-1 6:-1 7:-1 9:-1 10:-1 11:1 12:-1 
32 32 0 32 0 2.260405857335831 1:-1 2:-1 3:1 4:-1 5:-1 6:-1 7:-1 9:1 10:-1 11:-1 12:-1 
32 0 32 0 0 0 1:-1 2:-1 3:-1 4:-1 5:1 6:-1 7:-1 9:1 10:-1 11:-1 12:-1 
0 32 0 6.091372158052042 0 0 1:1 2:-1 3:-1 4:-1 5:-1 6:-1 7:-1 9:-1 10:-1 11:1 12:-1 
0 32 0 32 0 0.137282504789146 1:1 2:-1 3:-1 4:-1 5:-1 6:-1 7:-1 9:-1 10:-1 11:1 12:-1 
0 0 0 32 0 0 1:1 2:-1 3:-1 4:-1 5:-1 6:-1 7:-1 9:-1 10:1 11:-1 12:-1 
0 0 0 32 0 0 1:1 2:-1 3:-1 4:-1 5:-1 6:-1 7:-1 9:-1 10:1 11:-1 12:-1 
31.53672316541346 32 2.270906188628369 32 1.920563726949883 31.53523075313335 1:-1 2:-1 3:1 4:-1 5:-1 6:-1 7:-1 9:1 10:-1 11:-1 12:-1 
0 10.16077749580889 0 32 0 0 1:1 2:-1 3:-1 4:-1 5:-1 6:-1 7:-1 9:-1 10:1 11:-1 12:-1 
0 32 0 32 0 0 1:1 2:-1 3:-1 4:-1 5:-1 6:-1 7:-1 9:-1 10:1 11:-1 12:-1 
0.1370253168712366 32 0.2074890462350707 32 2.367597769717336 0.136518558389794 1:1 2:-1 3:-1 4:-1 5:-1 6:-1 7:-1 9:-1 10:1 11:-1 12:-1 
2.260405857335832 0 0 0 0 0 1:1 2:-1 3:-1 4:-1 5:-1 6:-1 7:-1 9:1 10:-1 11:-1 12:-1 
32 0 0 0 0 0 1:1 2:-1 3:-1 4:-1 5:-1 6:-1 7:-1 9:1 10:-1 11:-1 12:-1 
32 0 0 0 0 0 1:1 2:-1 3:-1 4:-1 5:-1 6:-1 7:-1 9:1 10:-1 11:-1 12:-1 
32 0 0 0 0 0 1:1 2:-1 3:-1 4:-1 5:-1 6:-1 7:-1 9:1 10:-1 11:-1 12:-1 
32 0 0 0 0 0 1:1 2:-1 3:-1 4:-1 5:-1 6:-1 7:-1 9:1 10:-1 11:-1 12:-1 
32 0 0 0 0 0 1:1 2:-1 3:-1 4:-1 5:-1 6:-1 7:-1 9:1 10:-1 11:-1 12:-1 
32 0 0 0 0 0 1:1 2:-1 3:-1 4:-1 5:-1 6:-1 7:-1 9:1 10:-1 11:-1 12:-1 
32 0 0 0 0 0 1:1 2:-1 3:-1 4:-1 5:-1 6:-1 7:-1 9:1 10:-1 11:-1 12:-1 
32 0 0 0 0 0 1:1 2:-1 3:-1 4:-1 5:-1 6:-1 7:-1 9:1 10:-1 11:-1 12:-1 
32 0 0 0 0 0 1:1 2:-1 3:-1 4:-1 5:-1 6:-1 7:-1 9:1 10:-1 11:-1 12:-1 
32 0 0 0 0 0 1:1 2:-1 3:-1 4:-1 5:-1 6:-1 7:-1 9:1 10:-1 11:-1 12:-1 
32 0 0 0 0 0 1:1 2:-1 3:-1 4:-1 5:-1 6:-1 7:-1 9:1 10:-1 11:-1 12:-1 
32 0 0 0 0 0 1:1 2:-1 3:-1 4:-1 5:-1 6:-1 7:-1 9:1 10:-1 11:-1 12:-1 
32 0 0 0 0 0 1:1 2:-1 3:-1 4:-1 5:-1 6:-1 7:-1 9:1 10:-1 11:-1 12:-1 
32 0 0 0 0 0 1:1 2:-1 3:-1 4:-1 5:-1 6:-1 7:-1 9:1 10:-1 11:-1 12:-1 
32 0 0 0 0 0 1:1 2:-1 3:-1 4:-1 5:-1 6:-1 7:-1 9:1 10:-1 11:-1 12:-1 
32 0 0 0 0 0 1:1 2:-1 3:-1 4:-1 5:-1 6:-1 7:-1 9:1 10:-1 11:-1 12:-1 
32 0 0 0 0 0 1:1 2:-1 3:-1 4:-1 5:-1 6:-1 7:-1 9:1 10:-1 11:-1 12:-1 
32 0 0 0 0 0 1:1 2:-1 3:-1 4:-1 5:-1 6:-1 7:-1 9:1 10:-1 11:-1 12:-1 
32 0 0 0 0 0 1:1 2:-1 3:-1 4:-1 5:-1 6:-1 7:-1 9:1 10:-1 11:-1 12:-1 
32 0 0 0 0 0 1:1 2:-1 3:-1 4:-1 5:-1 6:-1 7:-1 9:1 10:-1 11:-1 12:-1 
32 0 0 0 0 0 1:1 2:-1 3:-1 4:-1 5:-1 6:-1 7:-1 9:1 10:-1 11:-1 12:-1 
32 0 0 0 0 0 1:1 2:-1 3:-1 4:-1 5:-1 6:-1 7:-1 9:1 10:-1 11:-1 12:-1 
32 0 0 0 0 0 1:1 2:-1 3:-1 4:-1 5:-1 6:-1 7:-1 9:1 10:-1 11:-1 12:-1 
32 0 0 0 0 0 1:1 2:-1 3:-1 4:-1 5:-1 6:-1 7:-1 9:1 10:-1 11:-1 12:-1 
32 0 0 0 0 0 1:1 2:-1 3:-1 4:-1 5:-1 6:-1 7:-1 9:1 10:-1 11:-1 12:-1 
32 0 0 0 0 0 1:1 2:-1 3:-1 4:-1 5:-1 6:-1 7:-1 9:1 10:-1 11:-1 12:-1 
32 0 0 0 0 0 1:1 2:-1 3:-1 4:-1 5:-1 6:-1 7:-1 9:1 10:-1 11:-1 12:-1 
32 0 0 0 0 0 1:1 2:-1 3:-1 4:-1 5:-1 6:-1 7:-1 9:1 10:-1 11:-1 12:-1 
32 0 0 0 0 0 1:1 2:-1 3:-1 4:-1 5:-1 6:-1 7:-1 9:1 10:-1 11:-1 12:-1 
32 0 0 0 0 0 1:1 2:-1 3:-1 4:-1 5:-1 6:-1 7:-1 9:1 10:-1 11:-1 12:-1 
32 0 0 0 0 0 1:1 2:-1 3:-1 4:-1 5:-1 6:-1 7:-1 9:1 10:-1 11:-1 12:-1 
32 0 0 0 0 0 1:1 2:-1 3:-1 4:-1 5:-1 6:-1 7:-1 9:1 10:-1 11:-1 12:-1 
32 0 0 0 0 0 1:1 2:-1 3:-1 4:-1 5:-1 6:-1 7:-1 9:1 10:-1 11:-1 12:-1 
32 0 0 0 0 0 1:1 2:-1 3:-1 4:-1 5:-1 6:-1 7:-1 9:1 10:-1 11:-1 12:-1 
32 0 0 0 0 0 1:1 2:-1 3:-1 4:-1 5:-1 6:-1 7:-1 9:1 10:-1 11:-1 12:-1 
32 0 0 0 0 0 1:1 2:-1 3:-1 4:-1 5:-1 6:-1 7:-1 9:1 10:-1 11:-1 12:-1 
32 0 0 0 0 0 1:1 2:-1 3:-1 4:-1 5:-1 6:-1 7:-1 9:1 10:-1 11:-1 12:-1 
32 0 0 0 0 0 1:1 2:-1 3:-1 4:-1 5:-1 6:-1 7:-1 9:1 10:-1 11:-1 12:-1 
32 0 0 0 0 0 1:1 2:-1 3:-1 4:-1 5:-1 6:-1 7:-1 9:1 10:-1 11:-1 12:-1 
32 0 0 0 0 0 1:1 2:-1 3:-1 4:-1 5:-1 6:-1 7:-1 9:1 10:-1 11:-1 12:-1 
32 0 0 0 0 0 1:1 2:-1 3:-1 4:-1 5:-1 6:-1 7:-1 9:1 10:-1 11:-1 12:-1 
32 0 0 0 0 0 1:1 2:-1 3:-1 4:-1 5:-1 6:-1 7:-1 9:1 10:-1 11:-1 12:-1 
32 0 0 0 0 0 1:1 2:-1 3:-1 4:-1 5:-1 6:-1 7:-1 9:1 10:-1 11:-1 12:-1 
32 0 0 0 0 0 1:1 2:-1 3:-1 4:-1 5:-1 6:-1 7:-1 9:1 10:-1 11:-1 12:-1 
32 0 0 0 0 0 1:1 2:-1 3:-1 4:-1 5:-1 6:-1 7:-1 9:1 10:-1 11:-1 12:-1 
32 0 0 0 0 0 1:1 2:-1 3:-1 4:-1 5:-1 6:-1 7:-1 9:1 10:-1 11:-1 12:-1 
32 0 0 0 0 0 1:1 2:-1 3:-1 4:-1 5:-1 6:-1 7:-1 9:1 10:-1 11:-1 12:-1 
32 0 0 0 0 0 1:1 2:-1 3:-1 4:-1 5:-1 6:-1 7:-1 9:1 10:-1 11:-1 12:-1 
32 0 0 0 0 0 1:1 2:-1 3:-1 4:-1 5:-1 6:-1 7:-1 9:1 10:-1 11:-1 12:-1 
32 0 0 0 0 0 1:1 2:-1 3:-1 4:-1 5:-1 6:-1 7:-1 9:1 10:-1 11:-1 12:-1 
32 0 0 0 0 0 1:1 2:-1 3:-1 4:-1 5:-1 6:-1 7:-1 9:1 10:-1 11:-1 12:-1 
32 0 0 0 0 0 1:1 2:-1 3:-1 4:-1 5:-1 6:-1 7:-1 9:1 10:-1 11:-1 12:-1 
32 0 0 0 0 0 1:1 2:-1 3:-1 4:-1 5:-1 6:-1 7:-1 9:1 10:-1 11:-1 12:-1 
32 0 0 0 0 0 1:1 2:-1 3:-1 4:-1 5:-1 6:-1 7:-1 9:1 10:-1 11:-1 12:-1 
32 0 0 0 0 0 1:1 2:-1 3:-1 4:-1 5:-1 6:-1 7:-1 9:1 10:-1 11:-1 12:-1 
32 0 0 0 0 0 1:1 2:-1 3:-1 4:-1 5:-1 6:-1 7:-1 9:1 10:-1 11:-1 12:-1 
32 0 0 0 0 0 1:1 2:-1 3:-1 4:-1 5:-1 6:-1 7:-1 9:1 10:-1 11:-1 12:-1 
32 0 0 0 0 0 1:1 2:-1 3:-1 4:-1 5:-1 6:-1 7:-1 9:1 10:-1 11:-1 12:-1 
32 0 0 0 0 0 1:1 2:-1 3:-1 4:-1 5:-1 6:-1 7:-1 9:1 10:-1 11:-1 12:-1 
32 0 0 0 0 0 1:1 2:-1 3:-1 4:-1 5:-1 6:-1 7:-1 9:1 10:-1 11:-1 12:-1 
32 0 0 0 0 0 1:1 2:-1 3:-1 4:-1 5:-1 6:-1 7:-1 9:1 10:-1 11:-1 12:-1 
32 0 0 0 0 0 1:1 2:-1 3:-1 4:-1 5:-1 6:-1 7:-1 9:1 10:-1 11:-1 12:-1 
32 0 0 0 0 0 1:1 2:-1 3:-1 4:-1 5:-1 6:-1 7:-1 9:1 10:-1 11:-1 12:-1 
32 0 0 0 0 0 1:1 2:-1 3:-1 4:-1 5:-1 6:-1 7:-1 9:1 10:-1 11:-1 12:-1 
32 0 0 0 0 0 1:1 2:-1 3:-1 4:-1 5:-1 6:-1 7:-1 9:1 10:-1 11:-1 12:-1 
32 0 0 0 0 0 1:1 2:-1 3:-1 4:-1 5:-1 6:-1 7:-1 9:1 10:-1 11:-1 12:-1 
32 0 0 0 0 0 1:1 2:-1 3:-1 4:-1 5:-1 6:-1 7:-1 9:1 10:-1 11:-1 12:-1 
32 0 0 0 0 0 1:1 2:-1 3:-1 4:-1 5:-1 6:-1 7:-1 9:1 10:-1 11:-1 12:-1 
32 0 0 0 0 0 1:1 2:-1 3:-1 4:-1 5:-1 6:-1 7:-1 9:1 10:-1 11:-1 12:-1 
32 0 0 0 0 0 1:1 2:-1 3:-1 4:-1 5:-1 6:-1 7:-1 9:1 10:-1 11:-1 12:-1 
32 0 0 0 0 0 1:1 2:-1 3:-1 4:-1 5:-1 6:-1 7:-1 9:1 10:-1 11:-1 12:-1 
32 0 0 0 0 0 1:1 2:-1 3:-1 4:-1 5:-1 6:-1 7:-1 9:1 10:-1 11:-1 12:-1 
32 0 0 0 0 0 1:1 2:-1 3:-1 4:-1 5:-1 6:-1 7:-1 9:1 10:-1 11:-1 12:-1 
32 0 0.3085592061743563 0 0 0 1:1 2:-1 3:-1 4:-1 5:-1 6:-1 7:-1 9:1 10:-1 11:-1 12:-1 
32 0 32 0 0 0 1:1 2:-1 3:-1 4:-1 5:-1 6:-1 7:-1 9:1 10:-1 11:-1 12:-1 
32 0 32 0 0 0 1:1 2:-1 3:-1 4:-1 5:-1 6:-1 7:-1 9:1 10:-1 11:-1 12:-1 
32 0 32 0 0 0 1:1 2:-1 3:-1 4:-1 5:-1 6:-1 7:-1 9:1 10:-1 11:-1 12:-1 
32 0 32 0 0 0 1:1 2:-1 3:-1 4:-1 5:-1 6:-1 7:-1 9:1 10:-1 11:-1 12:-1 
32 0 32 0 0 0 1:1 2:-1 3:-1 4:-1 5:-1 6:-1 7:-1 9:1 10:-1 11:-1 12:-1 
32 0 32 0 0 0 1:1 2:-1 3:-1 4:-1 5:-1 6:-1 7:-1 9:1 10:-1 11:-1 12:-1 
32 0 32 0 0 0 1:1 2:-1 3:-1 4:-1 5:-1 6:-1 7:-1 9:1 10:-1 11:-1 12:-1 
32 0 32 0 0 0 1:1 2:-1 3:-1 4:-1 5:-1 6:-1 7:-1 9:1 10:-1 11:-1 12:-1 
32 0 32 0 0 0 1:1 2:-1 3:-1 4:-1 5:-1 6:-1 7:-1 9:1 10:-1 11:-1 12:-1 
32 0 32 0 0 0 1:1 2:-1 3:-1 4:-1 5:-1 6:-1 7:-1 9:1 10:-1 11:-1 12:-1 
32 0 32 0 0 0 1:1 2:-1 3:-1 4:-1 5:-1 6:-1 7:-1 9:1 10:-1 11:-1 12:-1 
32 0 32 0 0 0 1:1 2:-1 3:-1 4:-1 5:-1 6:-1 7:-1 9:1 10:-1 11:-1 12:-1 
32 0 32 0 0 0 1:1 2:-1 3:-1 4:-1 5:-1 6:-1 7:-1 9:1 10:-1 11:-1 12:-1 
32 0 32 0 0 0 1:1 2:-1 3:-1 4:-1 5:-1 6:-1 7:-1 9:1 10:-1 11:-1 12:-1 
32 0 32 0 0 0 1:1 2:-1 3:-1 4:-1 5:-1 6:-1 7:-1 9:1 10:-1 11:-1 12:-1 
32 0 32 0 0 0 1:1 2:-1 3:-1 4:-1 5:-1 6:-1 7:-1 9:1 10:-1 11:-1 12:-1 
32 0 32 0 0 0 1:1 2:-1 3:-1 4:-1 5:-1 6:-1 7:-1 9:1 10:-1 11:-1 12:-1 
32 0 32 0 0 0 1:1 2:-1 3:-1 4:-1 5:-1 6:-1 7:-1 9:1 10:-1 11:-1 12:-1 
32 0 32 0 0 0 1:1 2:-1 3:-1 4:-1 5:-1 6:-1 7:-1 9:1 10:-1 11:-1 12:-1 
32 0 32 0 0 0 1:1 2:-1 3:-1 4:-1 5:-1 6:-1 7:-1 9:1 10:-1 11:-1 12:-1 
32 0 32 0 0 0 1:1 2:-1 3:-1 4:-1 5:-1 6:-1 7:-1 9:1 10:-1 11:-1 12:-1 
32 0 32 0 0 0 1:1 2:-1 3:-1 4:-1 5:-1 6:-1 7:-1 9:1 10:-1 11:-1 12:-1 
32 0 32 0 0 0 1:1 2:-1 3:-1 4:-1 5:-1 6:-1 7:-1 9:1 10:-1 11:-1 12:-1 
32 0 32 0 0 0 1:1 2:-1 3:-1 4:-1 5:-1 6:-1 7:-1 9:1 10:-1 11:-1 12:-1 
32 0 32 0 0 0 1:1 2:-1 3:-1 4:-1 5:-1 6:-1 7:-1 9:1 10:-1 11:-1 12:-1 
32 0 32 0 0 0 1:1 2:-1 3:-1 4:-1 5:-1 6:-1 7:-1 9:1 10:-1 11:-1 12:-1 
32 0 32 0 0 0 1:1 2:-1 3:-1 4:-1 5:-1 6:-1 7:-1 9:1 10:-1 11:-1 12:-1 
32 0 32 0 0 0 1:1 2:-1 3:-1 4:-1 5:-1 6:-1 7:-1 9:1 10:-1 11:-1 12:-1 
32 0 32 0 0 0 1:1 2:-1 3:-1 4:-1 5:-1 6:-1 7:-1 9:1 10:-1 11:-1 12:-1 
32 0 32 0 0 0 1:1 2:-1 3:-1 4:-1 5:-1 6:-1 7:-1 9:1 10:-1 11:-1 12:-1 
32 0 32 0 0 0 1:1 2:-1 3:-1 4:-1 5:-1 6:-1 7:-1 9:1 10:-1 11:-1 12:-1 
32 0 32 0 0 0 1:1 2:-1 3:-1 4:-1 5:-1 6:-1 7:-1 9:1 10:-1 11:-1 12:-1 
32 0 32 0 0 0 1:1 2:-1 3:-1 4:-1 5:-1 6:-1 7:-1 9:1 10:-1 11:-1 12:-1 
32 0 32 0 0 0 1:1 2:-1 3:-1 4:-1 5:-1 6:-1 7:-1 9:1 10:-1 11:-1 12:-1 
32 0 32 0 0 0 1:1 2:-1 3:-1 4:-1 5:-1 6:-1 7:-1 9:1 10:-1 11:-1 12:-1 
32 0 32 0 0 0 1:1 2:-1 3:-1 4:-1 5:-1 6:-1 7:-1 9:1 10:-1 11:-1 12:-1 
32 0 32 0 0 0 1:1 2:-1 3:-1 4:-1 5:-1 6:-1 7:-1 9:1 10:-1 11:-1 12:-1 
32 0 32 0 0 0 1:1 2:-1 3:-1 4:-1 5:-1 6:-1 7:-1 9:1 10:-1 11:-1 12:-1 
32 0 32 0 0 0 1:1 2:-1 3:-1 4:-1 5:-1 6:-1 7:-1 9:1 10:-1 11:-1 12:-1 
32 0 32 0 0 0 1:1 2:-1 3:-1 4:-1 5:-1 6:-1 7:-1 9:1 10:-1 11:-1 12:-1 
32 0 32 0 0 0 1:1 2:-1 3:-1 4:-1 5:-1 6:-1 7:-1 9:1 10:-1 11:-1 12:-1 
32 0 32 0 0 0 1:1 2:-1 3:-1 4:-1 5:-1 6:-1 7:-1 9:1 10:-1 11:-1 12:-1 
32 0 32 0 0 0 1:1 2:-1 3:-1 4:-1 5:-1 6:-1 7:-1 9:1 10:-1 11:-1 12:-1 
32 0 32 0 0 0 1:1 2:-1 3:-1 4:-1 5:-1 6:-1 7:-1 9:1 10:-1 11:-1 12:-1 
32 0 32 0 0 0 1:1 2:-1 3:-1 4:-1 5:-1 6:-1 7:-1 9:1 10:-1 11:-1 12:-1 
32 0 32 0 0 0 1:1 2:-1 3:-1 4:-1 5:-1 6:-1 7:-1 9:1 10:-1 11:-1 12:-1 
32 0 32 0 0 0 1:1 2:-1 3:-1 4:-1 5:-1 6:-1 7:-1 9:1 10:-1 11:-1 12:-1 
32 0 32 0 0 0 1:1 2:-1 3:-1 4:-1 5:-1 6:-1 7:-1 9:1 10:-1 11:-1 12:-1 
32 0 32 0 0 0 1:1 2:-1 3:-1 4:-1 5:-1 6:-1 7:-1 9:1 10:-1 11:-1 12:-1 
32 0 32 0 0 0 1:1 2:-1 3:-1 4:-1 5:-1 6:-1 7:-1 9:1 10:-1 11:-1 12:-1 
32 0 32 0 0 0 1:1 2:-1 3:-1 4:-1 5:-1 6:-1 7:-1 9:1 10:-1 11:-1 12:-1 
32 0 32 0 0 0 1:1 2:-1 3:-1 4:-1 5:-1 6:-1 7:-1 9:1 10:-1 11:-1 12:-1 
32 0 32 0 0 0 1:1 2:-1 3:-1 4:-1 5:-1 6:-1 7:-1 9:1 10:-1 11:-1 12:-1 
32 0 32 0 0 0 1:1 2:-1 3:-1 4:-1 5:-1 6:-1 7:-1 9:1 10:-1 11:-1 12:-1 
32 0 32 0 0 0 1:1 2:-1 3:-1 4:-1 5:-1 6:-1 7:-1 9:1 10:-1 11:-1 12:-1 
32 0 32 0 0 0 1:1 2:-1 3:-1 4:-1 5:-1 6:-1 7:-1 9:1 10:-1 11:-1 12:-1 
32 0 32 0 0 0 1:1 2:-1 3:-1 4:-1 5:-1 6:-1 7:-1 9:1 10:-1 11:-1 12:-1 
32 0 32 0 0 0 1:1 2:-1 3:-1 4:-1 5:-1 6:-1 7:-1 9:1 10:-1 11:-1 12:-1 
32 0 32 0 0 0 1:1 2:-1 3:-1 4:-1 5:-1 6:-1 7:-1 9:1 10:-1 11:-1 12:-1 
32 0 32 0 0 0 1:1 2:-1 3:-1 4:-1 5:-1 6:-1 7:-1 9:1 10:-1 11:-1 12:-1 
32 0 32 0 0 0 1:1 2:-1 3:-1 4:-1 5:-1 6:-1 7:-1 9:1 10:-1 11:-1 12:-1 
32 0 32 0 0 0 1:1 2:-1 3:-1 4:-1 5:-1 6:-1 7:-1 9:1 10:-1 11:-1 12:-1 
32 0 32 0 0 0 1:1 2:-1 3:-1 4:-1 5:-1 6:-1 7:-1 9:1 10:-1 11:-1 12:-1 
32 0 32 0 0 0 1:1 2:-1 3:-1 4:-1 5:-1 6:-1 7:-1 9:1 10:-1 11:-1 12:-1 
32 0 32 0 0 0 1:1 2:-1 3:-1 4:-1 5:-1 6:-1 7:-1 9:1 10:-1 11:-1 12:-1 
32 0 32 0 0 0 1:1 2:-1 3:-1 4:-1 5:-1 6:-1 7:-1 9:1 10:-1 11:-1 12:-1 
32 0 32 0 0 0 1:1 2:-1 3:-1 4:-1 5:-1 6:-1 7:-1 9:1 10:-1 11:-1 12:-1 
32 0 32 0 0 0 1:1 2:-1 3:-1 4:-1 5:-1 6:-1 7:-1 9:1 10:-1 11:-1 12:-1 
32 0 32 0 0 0 1:1 2:-1 3:-1 4:-1 5:-1 6:-1 7:-1 9:1 10:-1 11:-1 12:-1 
32 0 32 0 0 0 1:1 2:-1 3:-1 4:-1 5:-1 6:-1 7:-1 9:1 10:-1 11:-1 12:-1 
32 0 32 0 0 0 1:1 2:-1 3:-1 4:-1 5:-1 6:-1 7:-1 9:1 10:-1 11:-1 12:-1 
32 0 32 0 0 0 1:1 2:-1 3:-1 4:-1 5:-1 6:-1 7:-1 9:1 10:-1 11:-1 12:-1 
32 0 32 0 0 0 1:1 2:-1 3:-1 4:-1 5:-1 6:-1 7:-1 9:1 10:-1 11:-1 12:-1 
32 0 32 0 0 0 1:1 2:-1 3:-1 4:-1 5:-1 6:-1 7:-1 9:1 10:-1 11:-1 12:-1 
32 0 32 0 0 0 1:1 2:-1 3:-1 4:-1 5:-1 6:-1 7:-1 9:1 10:-1 11:-1 12:-1 
32 0 32 0 0 0 1:1 2:-1 3:-1 4:-1 5:-1 6:-1 7:-1 9:1 10:-1 11:-1 12:-1 
32 0 32 0 0 0 1:1 2:-1 3:-1 4:-1 5:-1 6:-1 7:-1 9:1 10:-1 11:-1 12:-1 
32 0 32 0 0 0 1:1 2:-1 3:-1 4:-1 5:-1 6:-1 7:-1 9:1 10:-1 11:-1 12:-1 
32 0 32 0 0 0 1:1 2:-1 3:-1 4:-1 5:-1 6:-1 7:-1 9:1 10:-1 11:-1 12:-1 
32 0 32 0 0 0 1:1 2:-1 3:-1 4:-1 5:-1 6:-1 7:-1 9:1 10:-1 11:-1 12:-1 
32 0 32 0 0 0 1:1 2:-1 3:-1 4:-1 5:-1 6:-1 7:-1 9:1 10:-1 11:-1 12:-1 
32 0 32 0 0 0 1:1 2:-1 3:-1 4:-1 5:-1 6:-1 7:-1 9:1 10:-1 11:-1 12:-1 
32 0 32 0 0 0 1:1 2:-1 3:-1 4:-1 5:-1 6:-1 7:-1 9:1 10:-1 11:-1 12:-1 
32 0 32 0 0 0 1:1 2:-1 3:-1 4:-1 5:-1 6:-1 7:-1 9:1 10:-1 11:-1 12:-1 
32 0 32 0 0 0 1:1 2:-1 3:-1 4:-1 5:-1 6:-1 7:-1 9:1 10:-1 11:-1 12:-1 
32 0 32 0 0 0 1:1 2:-1 3:-1 4:-1 5:-1 6:-1 7:-1 9:1 10:-1 11:-1 12:-1 
32 0 32 0 0 0 1:1 2:-1 3:-1 4:-1 5:-1 6:-1 7:-1 9:1 10:-1 11:-1 12:-1 
32 0 32 0 0 0 1:1 2:-1 3:-1 4:-1 5:-1 6:-1 7:-1 9:1 10:-1 11:-1 12:-1 
32 0 32 0 0 0 1:1 2:-1 3:-1 4:-1 5:-1 6:-1 7:-1 9:1 10:-1 11:-1 12:-1 
32 0 32 0 0 0 1:1 2:-1 3:-1 4:-1 5:-1 6:-1 7:-1 9:1 10:-1 11:-1 12:-1 
32 0 32 0 0 0 1:1 2:-1 3:-1 4:-1 5:-1 6:-1 7:-1 9:1 10:-1 11:-1 12:-1 
32 0 32 0 0 0 1:1 2:-1 3:-1 4:-1 5:-1 6:-1 7:-1 9:1 10:-1 11:-1 12:-1 
32 0 32 0 0 0 1:1 2:-1 3:-1 4:-1 5:-1 6:-1 7:-1 9:1 10:-1 11:-1 12:-1 
32 0 32 0 0 0 1:1 2:-1 3:-1 4:-1 5:-1 6:-1 7:-1 9:1 10:-1 11:-1 12:-1 
32 0 32 0 0 0 1:1 2:-1 3:-1 4:-1 5:-1 6:-1 7:-1 9:1 10:-1 11:-1 12:-1 
32 0 32 0 0 0 1:1 2:-1 3:-1 4:-1 5:-1 6:-1 7:-1 9:1 10:-1 11:-1 12:-1 
32 0 32 0 0 0 1:1 2:-1 3:-1 4:-1 5:-1 6:-1 7:-1 9:1 10:-1 11:-1 12:-1 
32 0 32 0 0 0 1:1 2:-1 3:-1 4:-1 5:-1 6:-1 7:-1 9:1 10:-1 11:-1 12:-1 
32 0 32 0 0 0 1:1 2:-1 3:-1 4:-1 5:-1 6:-1 7:-1 9:1 10:-1 11:-1 12:-1 
32 0 32 0 0 0 1:1 2:-1 3:-1 4:-1 5:-1 6:-1 7:-1 9:1 10:-1 11:-1 12:-1 
32 0 32 0 0 0 1:1 2:-1 3:-1 4:-1 5:-1 6:-1 7:-1 9:1 10:-1 11:-1 12:-1 
32 0 32 0 0 0 1:1 2:-1 3:-1 4:-1 5:-1 6:-1 7:-1 9:1 10:-1 11:-1 12:-1 
32 0 32 0 0 0 1:1 2:-1 3:-1 4:-1 5:-1 6:-1 7:-1 9:1 10:-1 11:-1 12:-1 
32 0 32 0 0 0 1:1 2:-1 3:-1 4:-1 5:-1 6:-1 7:-1 9:1 10:-1 11:-1 12:-1 
32 0 32 0 0 0 1:1 2:-1 3:-1 4:-1 5:-1 6:-1 7:-1 9:1 10:-1 11:-1 12:-1 
32 0 32 0 0 0 1:1 2:-1 3:-1 4:-1 5:-1 6:-1 7:-1 9:1 10:-1 11:-1 12:-1 
32 0 32 0 0 0 1:1 2:-1 3:-1 4:-1 5:-1 6:-1 7:-1 9:1 10:-1 11:-1 12:-1 
32 0 32 0 0 0 1:1 2:-1 3:-1 4:-1 5:-1 6:-1 7:-1 9:1 10:-1 11:-1 12:-1 
32 0 32 0 0 0 1:1 2:-1 3:-1 4:-1 5:-1 6:-1 7:-1 9:1 10:-1 11:-1 12:-1 
32 0 32 0 0 0 1:1 2:-1 3:-1 4:-1 5:-1 6:-1 7:-1 9:1 10:-1 11:-1 12:-1 
32 0 32 0 0 0 1:1 2:-1 3:-1 4:-1 5:-1 6:-1 7:-1 9:1 10:-1 11:-1 12:-1 
32 0 32 0 0 0 1:1 2:-1 3:-1 4:-1 5:-1 6:-1 7:-1 9:1 10:-1 11:-1 12:-1 
32 0 32 0 0 0 1:1 2:-1 3:-1 4:-1 5:-1 6:-1 7:-1 9:1 10:-1 11:-1 12:-1 
32 0 32 0 0 0 1:1 2:-1 3:-1 4:-1 5:-1 6:-1 7:-1 9:1 10:-1 11:-1 12:-1 
32 0 32 0 0 0 1:1 2:-1 3:-1 4:-1 5:-1 6:-1 7:-1 9:1 10:-1 11:-1 12:-1 
32 0 32 0 0 0 1:1 2:-1 3:-1 4:-1 5:-1 6:-1 7:-1 9:1 10:-1 11:-1 12:-1 
32 0 32 0 0 0 1:1 2:-1 3:-1 4:-1 5:-1 6:-1 7:-1 9:1 10:-1 11:-1 12:-1 
32 0 32 0 0 0 1:1 2:-1 3:-1 4:-1 5:-1 6:-1 7:-1 9:1 10:-1 11:-1 12:-1 
32 0 32 0 0 0 1:1 2:-1 3:-1 4:-1 5:-1 6:-1 7:-1 9:1 10:-1 11:-1 12:-1 
32 0 32 0 0 0 1:1 2:-1 3:-1 4:-1 5:-1 6:-1 7:-1 9:1 10:-1 11:-1 12:-1 
32 0 32 0 0 0 1:1 2:-1 3:-1 4:-1 5:-1 6:-1 7:-1 9:1 10:-1 11:-1 12:-1 
32 0 32 0 0 0 1:1 2:-1 3:-1 4:-1 5:-1 6:-1 7:-1 9:1 10:-1 11:-1 12:-1 
32 0 32 0 0 0 1:1 2:-1 3:-1 4:-1 5:-1 6:-1 7:-1 9:1 10:-1 11:-1 12:-1 
32 0 32 0 0 0 1:1 2:-1 3:-1 4:-1 5:-1 6:-1 7:-1 9:1 10:-1 11:-1 12:-1 
32 0 32 0 0 0 1:1 2:-1 3:-1 4:-1 5:-1 6:-1 7:-1 9:1 10:-1 11:-1 12:-1 
32 0 32 0 0 0 1:1 2:-1 3:-1 4:-1 5:-1 6:-1 7:-1 9:1 10:-1 11:-1 12:-1 
32 0 32 0 0 0 1:1 2:-1 3:-1 4:-1 5:-1 6:-1 7:-1 9:1 10:-1 11:-1 12:-1 
32 0 32 0 0 0 1:1 2:-1 3:-1 4:-1 5:-1 6:-1 7:-1 9:1 10:-1 11:-1 12:-1 
32 0 32 0 0 0 1:1 2:-1 3:-1 4:-1 5:-1 6:-1 7:-1 9:1 10:-1 11:-1 12:-1 
32 0 32 0 0 0 1:1 2:-1 3:-1 4:-1 5:-1 6:-1 7:-1 9:1 10:-1 11:-1 12:-1 
32 0 32 0 0 0 1:1 2:-1 3:-1 4:-1 5:-1 6:-1 7:-1 9:1 10:-1 11:-1 12:-1 
32 0 32 0 0 0 1:1 2:-1 3:-1 4:-1 5:-1 6:-1 7:-1 9:1 10:-1 11:-1 12:-1 
32 0 32 0 0 0 1:1 2:-1 3:-1 4:-1 5:-1 6:-1 7:-1 9:1 10:-1 11:-1 12:-1 
32 0 32 0 0 0 1:1 2:-1 3:-1 4:-1 5:-1 6:-1 7:-1 9:1 10:-1 11:-1 12:-1 
32 0 32 0 0 0 1:1 2:-1 3:-1 4:-1 5:-1 6:-1 7:-1 9:1 10:-1 11:-1 12:-1 
32 0 32 0 0 0 1:1 2:-1 3:-1 4:-1 5:-1 6:-1 7:-1 9:1 10:-1 11:-1 12:-1 
32 0 32 0 0 0 1:1 2:-1 3:-1 4:-1 5:-1 6:-1 7:-1 9:1 10:-1 11:-1 12:-1 
32 0 32 0 0 0 1:1 2:-1 3:-1 4:-1 5:-1 6:-1 7:-1 9:1 10:-1 11:-1 12:-1 
32 0 32 0 0 0 1:1 2:-1 3:-1 4:-1 5:-1 6:-1 7:-1 9:1 10:-1 11:-1 12:-1 
32 0 32 0 0 0 1:1 2:-1 3:-1 4:-1 5:-1 6:-1 7:-1 9:1 10:-1 11:-1 12:-1 
32 0 32 0 0 0 1:1 2:-1 3:-1 4:-1 5:-1 6:-1 7:-1 9:1 10:-1 11:-1 12:-1 
32 0 32 0 0 0 1:1 2:-1 3:-1 4:-1 5:-1 6:-1 7:-1 9:1 10:-1 11:-1 12:-1 
32 0 32 0 0 0 1:1 2:-1 3:-1 4:-1 5:-1 6:-1 7:-1 9:1 10:-1 11:-1 12:-1 
32 0 32 0 0 0 1:1 2:-1 3:-1 4:-1 5:-1 6:-1 7:-1 9:1 10:-1 11:-1 12:-1 
32 0 32 0 0 0 1:1 2:-1 3:-1 4:-1 5:-1 6:-1 7:-1 9:1 10:-1 11:-1 12:-1 
32 0 32 0 0 0 1:1 2:-1 3:-1 4:-1 5:-1 6:-1 7:-1 9:1 10:-1 11:-1 12:-1 
32 0 32 0 0 0 1:1 2:-1 3:-1 4:-1 5:-1 6:-1 7:-1 9:1 10:-1 11:-1 12:-1 
32 0 32 0 0 0 1:1 2:-1 3:-1 4:-1 5:-1 6:-1 7:-1 9:1 10:-1 11:-1 12:-1 
32 0 32 0 0 0 1:1 2:-1 3:-1 4:-1 5:-1 6:-1 7:-1 9:1 10:-1 11:-1 12:-1 
32 0 32 0 0 0 1:1 2:-1 3:-1 4:-1 5:-1 6:-1 7:-1 9:1 10:-1 11:-1 12:-1 
32 0 32 0 0 0 1:1 2:-1 3:-1 4:-1 5:-1 6:-1 7:-1 9:1 10:-1 11:-1 12:-1 
32 0 32 0 0 0 1:1 2:-1 3:-1 4:-1 5:-1 6:-1 7:-1 9:1 10:-1 11:-1 12:-1 
32 0 32 0 0 0 1:1 2:-1 3:-1 4:-1 5:-1 6:-1 7:-1 9:1 10:-1 11:-1 12:-1 
32 0 32 0 0 0 1:1 2:-1 3:-1 4:-1 5:-1 6:-1 7:-1 9:1 10:-1 11:-1 12:-1 
32 0 32 0 0 0 1:1 2:-1 3:-1 4:-1 5:-1 6:-1 7:-1 9:1 10:-1 11:-1 12:-1 
32 0 32 0 0 0 1:1 2:-1 3:-1 4:-1 5:-1 6:-1 7:-1 9:1 10:-1 11:-1 12:-1 
32 4.52081171467166 32 0 0 0 1:1 2:-1 3:-1 4:-1 5:-1 6:-1 7:-1 9:1 10:-1 11:-1 12:-1 
32 32 32 0 0 0 1:1 2:-1 3:-1 4:-1 5:-1 6:-1 7:-1 9:1 10:-1 11:-1 12:-1 
32 32 32 0 0 0 1:1 2:-1 3:-1 4:-1 5:-1 6:-1 7:-1 9:1 10:-1 11:-1 12:-1 
32 32 32 0 0 0 1:1 2:-1 3:-1 4:-1 5:-1 6:-1 7:-1 9:1 10:-1 11:-1 12:-1 
32 32 32 0 0 0 1:1 2:-1 3:-1 4:-1 5:-1 6:-1 7:-1 9:1 10:-1 11:-1 12:-1 
32 32 32 0 0 0 1:1 2:-1 3:-1 4:-1 5:-1 6:-1 7:-1 9:1 10:-1 11:-1 12:-1 
32 32 32 0 0 0 1:1 2:-1 3:-1 4:-1 5:-1 6:-1 7:-1 9:1 10:-1 11:-1 12:-1 
32 32 32 0 0 0 1:1 2:-1 3:-1 4:-1 5:-1 6:-1 7:-1 9:1 10:-1 11:-1 12:-1 
32 32 32 0 0 0 1:1 2:-1 3:-1 4:-1 5:-1 6:-1 7:-1 9:1 10:-1 11:-1 12:-1 
32 32 32 0 0 4.52081171467166 1:1 2:-1 3:-1 4:-1 5:-1 6:-1 7:-1 9:1 10:-1 11:-1 12:-1 
32 32 32 0 0 32 1:1 2:-1 3:-1 4:-1 5:-1 6:-1 7:-1 9:1 10:-1 11:-1 12:-1 
32 32 32 0 0 32 1:1 2:-1 3:-1 4:-1 5:-1 6:-1 7:-1 9:1 10:-1 11:-1 12:-1 
0.1378061999743131 32 2.307767470810215 32 2.367718909351538 32 1:1 2:-1 3:-1 4:-1 5:-1 6:-1 7:-1 9:-1 10:-1 11:1 12:-1 
32 32 32 0 0 32 1:1 2:-1 3:-1 4:-1 5:-1 6:-1 7:-1 9:1 10:-1 11:-1 12:-1 
32 32 32 0 0 32 1:1 2:-1 3:-1 4:-1 5:-1 6:-1 7:-1 9:1 10:-1 11:-1 12:-1 
32 32 32 0 0 32 1:1 2:-1 3:-1 4:-1 5:-1 6:-1 7:-1 9:1 10:-1 11:-1 12:-1 
32 2.378521199051721 32 2.545896490624778 1.919280429012462 1.79563661046918 1:-1 2:-1 3:-1 4:-1 5:1 6:-1 7:-1 9:1 10:-1 11:-1 12:-1 
32 32 32 0 0 32 1:1 2:-1 3:-1 4:-1 5:-1 6:-1 7:-1 9:1 10:-1 11:-1 12:-1 
32 32 32 0 0 32 1:1 2:-1 3:-1 4:-1 5:-1 6:-1 7:-1 9:1 10:-1 11:-1 12:-1 
32 32 32 4.52081171467166 0 32 1:1 2:-1 3:-1 4:-1 5:-1 6:-1 7:-1 9:1 10:-1 11:-1 12:-1 
32 32 32 32 4.52081171467166 32 1:1 2:-1 3:-1 4:-1 5:-1 6:-1 7:-1 9:1 10:-1 11:-1 12:-1 
32 32 32 32 32 32 1:1 2:-1 3:-1 4:-1 5:-1 6:-1 7:-1 9:1 10:-1 11:-1 12:-1 
32 32 32 32 32 32 1:1 2:-1 3:-1 4:-1 5:-1 6:-1 7:-1 9:1 10:-1 11:-1 12:-1 
32 32 32 32 32 32 1:1 2:-1 3:-1 4:-1 5:-1 6:-1 7:-1 9:1 10:-1 11:-1 12:-1 
32 32 32 32 32 32 1:1 2:-1 3:-1 4:-1 5:-1 6:-1 7:-1 9:1 10:-1 11:-1 12:-1 
32 32 32 32 32 32 1:1 2:-1 3:-1 4:-1 5:-1 6:-1 7:-1 9:1 10:-1 11:-1 12:-1 
32 32 32 32 32 32 1:1 2:-1 3:-1 4:-1 5:-1 6:-1 7:-1 9:1 10:-1 11:-1 12:-1 
32 32 32 32 32 32 1:1 2:-1 3:-1 4:-1 5:-1 6:-1 7:-1 9:1 10:-1 11:-1 12:-1 
31.32054381566976 21.57795185540298 32 30.38948857101326 29.3438447473381 29.06036486827797 1:1 2:-1 3:-1 4:-1 5:-1 6:-1 7:-1 9:1 10:-1 11:-1 12:-1 
-32 0 0 0 0 0 1:1 2:-1 3:-1 4:-1 5:-1 6:-1 7:-1 9:1 10:-1 11:-1 12:-1 
-32 0 0 0 0 0 1:1 2:-1 3:-1 4:-1 5:-1 6:-1 7:-1 9:1 10:-1 11:-1 12:-1 
-32 0 0 0 0 0 1:1 2:-1 3:-1 4:-1 5:-1 6:-1 7:-1 9:1 10:-1 11:-1 12:-1 
-32 0 0 0 0 0 1:1 2:-1 3:-1 4:-1 5:-1 6:-1 7:-1 9:1 10:-1 11:-1 12:-1 
-32 0 0 0 0 0 1:1 2:-1 3:-1 4:-1 5:-1 6:-1 7:-1 9:1 10:-1 11:-1 12:-1 
-32 0 0 0 0 0 1:1 2:-1 3:-1 4:-1 5:-1 6:-1 7:-1 9:1 10:-1 11:-1 12:-1 
-32 0 0 0 0 0 1:1 2:-1 3:-1 4:-1 5:-1 6:-1 7:-1 9:1 10:-1 11:-1 12:-1 
-32 0 0 0 0 0 1:1 2:-1 3:-1 4:-1 5:-1 6:-1 7:-1 9:1 10:-1 11:-1 12:-1 
-32 0 0 0 0 0 1:1 2:-1 3:-1 4:-1 5:-1 6:-1 7:-1 9:1 10:-1 11:-1 12:-1 
-32 0 0 0 0 0 1:1 2:-1 3:-1 4:-1 5:-1 6:-1 7:-1 9:1 10:-1 11:-1 12:-1 
-32 0 0 0 0 0 1:1 2:-1 3:-1 4:-1 5:-1 6:-1 7:-1 9:1 10:-1 11:-1 12:-1 
-32 0 0 0 0 0 1:1 2:-1 3:-1 4:-1 5:-1 6:-1 7:-1 9:1 10:-1 11:-1 12:-1 
-32 0 0 0 0 0 1:1 2:-1 3:-1 4:-1 5:-1 6:-1 7:-1 9:1 10:-1 11:-1 12:-1 
-32 32 0 0 0 0 1:-1 2:-1 3:1 4:-1 5:-1 6:-1 7:-1 9:1 10:-1 11:-1 12:-1 
-32 0 32 0 0 0 1:-1 2:-1 3:-1 4:-1 5:1 6:-1 7:-1 9:1 10:-1 11:-1 12:-1 
-32 0 0 0 0 0 1:1 2:-1 3:-1 4:-1 5:-1 6:-1 7:-1 9:1 10:-1 11:-1 12:-1 
-32 0 0 0 0 0 1:1 2:-1 3:-1 4:-1 5:-1 6:-1 7:-1 9:1 10:-1 11:-1 12:-1 
-32 0 0 0 0 0 1:1 2:-1 3:-1 4:-1 5:-1 6:-1 7:-1 9:1 10:-1 11:-1 12:-1 
-32 0 0 0 0 0 1:1 2:-1 3:-1 4:-1 5:-1 6:-1 7:-1 9:1 10:-1 11:-1 12:-1 
-32 0 0 0 0 0 1:1 2:-1 3:-1 4:-1 5:-1 6:-1 7:-1 9:1 10:-1 11:-1 12:-1 
-32 0 0 0 0 0 1:1 2:-1 3:-1 4:-1 5:-1 6:-1 7:-1 9:1 10:-1 11:-1 12:-1 
-32 0 0 0 0 0 1:1 2:-1 3:-1 4:-1 5:-1 6:-1 7:-1 9:1 10:-1 11:-1 12:-1 
-32 0 0 0 0 0 1:1 2:-1 3:-1 4:-1 5:-1 6:-1 7:-1 9:1 10:-1 11:-1 12:-1 
-32 0 0 0 0 0 1:1 2:-1 3:-1 4:-1 5:-1 6:-1 7:-1 9:1 10:-1 11:-1 12:-1 
-32 0 0 0 0 0 1:1 2:-1 3:-1 4:-1 5:-1 6:-1 7:-1 9:1 10:-1 11:-1 12:-1 
-32 32 0 4.664922585756409 0 0 1:-1 2:-1 3:1 4:-1 5:-1 6:-1 7:-1 9:1 10:-1 11:-1 12:-1 
-32 0 32 0 0 0 1:-1 2:-1 3:-1 4:-1 5:1 6:-1 7:-1 9:1 10:-1 11:-1 12:-1 
-32 0 0 0 0 0 1:1 2:-1 3:-1 4:-1 5:-1 6:-1 7:-1 9:1 10:-1 11:-1 12:-1 
-32 0 0 0 0 0 1:1 2:-1 3:-1 4:-1 5:-1 6:-1 7:-1 9:1 10:-1 11:-1 12:-1 
-32 0 0 0 0 0 1:1 2:-1 3:-1 4:-1 5:-1 6:-1 7:-1 9:1 10:-1 11:-1 12:-1 
-32 0 0 0 0 0 1:1 2:-1 3:-1 4:-1 5:-1 6:-1 7:-1 9:1 10:-1 11:-1 12:-1 
-32 0 0 0 0 0 1:1 2:-1 3:-1 4:-1 5:-1 6:-1 7:-1 9:1 10:-1 11:-1 12:-1 
-32 0 0 0 0 0 1:1 2:-1 3:-1 4:-1 5:-1 6:-1 7:-1 9:1 10:-1 11:-1 12:-1 
-32 0 0 0 0 0 1:1 2:-1 3:-1 4:-1 5:-1 6:-1 7:-1 9:1 10:-1 11:-1 12:-1 
-32 0 0 0 0 0 1:1 2:-1 3:-1 4:-1 5:-1 6:-1 7:-1 9:1 10:-1 11:-1 12:-1 
-32 0 0 0 0 0 1:1 2:-1 3:-1 4:-1 5:-1 6:-1 7:-1 9:1 10:-1 11:-1 12:-1 
-32 0 0 0 0 0 1:1 2:-1 3:-1 4:-1 5:-1 6:-1 7:-1 9:1 10:-1 11:-1 12:-1 
-32 0 0 0 0 0 1:1 2:-1 3:-1 4:-1 5:-1 6:-1 7:-1 9:1 10:-1 11:-1 12:-1 
-32 0 0 0 0 0 1:1 2:-1 3:-1 4:-1 5:-1 6:-1 7:-1 9:1 10:-1 11:-1 12:-1 
-32 0 0 0 0 0 1:1 2:-1 3:-1 4:-1 5:-1 6:-1 7:-1 9:1 10:-1 11:-1 12:-1 
-32 0 0 0 0 0 1:1 2:-1 3:-1 4:-1 5:-1 6:-1 7:-1 9:1 10:-1 11:-1 12:-1 
-32 0 0 0 0 0 1:1 2:-1 3:-1 4:-1 5:-1 6:-1 7:-1 9:1 10:-1 11:-1 12:-1 
-32 0 0 0 0 0 1:1 2:-1 3:-1 4:-1 5:-1 6:-1 7:-1 9:1 10:-1 11:-1 12:-1 
-32 0 0 0 0 0 1:1 2:-1 3:-1 4:-1 5:-1 6:-1 7:-1 9:1 10:-1 11:-1 12:-1 
-32 0 0 0 0 0 1:1 2:-1 3:-1 4:-1 5:-1 6:-1 7:-1 9:1 10:-1 11:-1 12:-1 
-32 0 0 0 0 0 1:1 2:-1 3:-1 4:-1 5:-1 6:-1 7:-1 9:1 10:-1 11:-1 12:-1 
-32 0 0 0 0 0 1:1 2:-1 3:-1 4:-1 5:-1 6:-1 7:-1 9:1 10:-1 11:-1 12:-1 
-32 0 0 0 0 0 1:1 2:-1 3:-1 4:-1 5:-1 6:-1 7:-1 9:1 10:-1 11:-1 12:-1 
-32 0 0 0 0 0 1:1 2:-1 3:-1 4:-1 5:-1 6:-1 7:-1 9:1 10:-1 11:-1 12:-1 
-32 0 0 0 0 0 1:1 2:-1 3:-1 4:-1 5:-1 6:-1 7:-1 9:1 10:-1 11:-1 12:-1 
-32 0 0 0 0 0 1:1 2:-1 3:-1 4:-1 5:-1 6:-1 7:-1 9:1 10:-1 11:-1 12:-1 
-32 32 0 32 0 0 1:-1 2:-1 3:1 4:-1 5:-1 6:-1 7:-1 9:1 10:-1 11:-1 12:-1 
-32 0 32 0 0 0 1:-1 2:-1 3:-1 4:-1 5:1 6:-1 7:-1 9:1 10:-1 11:-1 12:-1 
-32 0 0 0 0 0 1:1 2:-1 3:-1 4:-1 5:-1 6:-1 7:-1 9:1 10:-1 11:-1 12:-1 
-32 0 0 0 0 0 1:1 2:-1 3:-1 4:-1 5:-1 6:-1 7:-1 9:1 10:-1 11:-1 12:-1 
-32 0 0 0 0 0 1:1 2:-1 3:-1 4:-1 5:-1 6:-1 7:-1 9:1 10:-1 11:-1 12:-1 
-32 0 0 0 0 0 1:1 2:-1 3:-1 4:-1 5:-1 6:-1 7:-1 9:1 10:-1 11:-1 12:-1 
-32 0 0 0 0 0 1:1 2:-1 3:-1 4:-1 5:-1 6:-1 7:-1 9:1 10:-1 11:-1 12:-1 
-32 0 0 0 0 0 1:1 2:-1 3:-1 4:-1 5:-1 6:-1 7:-1 9:1 10:-1 11:-1 12:-1 
-32 0 0 0 0 0 1:1 2:-1 3:-1 4:-1 5:-1 6:-1 7:-1 9:1 10:-1 11:-1 12:-1 
-32 0 0 0 0 0 1:1 2:-1 3:-1 4:-1 5:-1 6:-1 7:-1 9:1 10:-1 11:-1 12:-1 
-32 0 0 0 0 0 1:1 2:-1 3:-1 4:-1 5:-1 6:-1 7:-1 9:1 10:-1 11:-1 12:-1 
-32 0 0 0 0 0 1:1 2:-1 3:-1 4:-1 5:-1 6:-1 7:-1 9:1 10:-1 11:-1 12:-1 
-32 0 0 0 0 0 1:1 2:-1 3:-1 4:-1 5:-1 6:-1 7:-1 9:1 10:-1 11:-1 12:-1 
-32 0 0 0 0 0 1:1 2:-1 3:-1 4:-1 5:-1 6:-1 7:-1 9:1 10:-1 11:-1 12:-1 
-32 0 0 0 0 0 1:1 2:-1 3:-1 4:-1 5:-1 6:-1 7:-1 9:1 10:-1 11:-1 12:-1 
-32 32 0 32 0 0 1:-1 2:-1 3:1 4:-1 5:-1 6:-1 7:-1 9:1 10:-1 11:-1 12:-1 
-32 0 0 0 0 0 1:1 2:-1 3:-1 4:-1 5:-1 6:-1 7:-1 9:1 10:-1 11:-1 12:-1 
-32 0 0 0 0 0 1:1 2:-1 3:-1 4:-1 5:-1 6:-1 7:-1 9:1 10:-1 11:-1 12:-1 
-32 0 0 0 0 0 1:1 2:-1 3:-1 4:-1 5:-1 6:-1 7:-1 9:1 10:-1 11:-1 12:-1 
-32 0 0 0 0 0 1:1 2:-1 3:-1 4:-1 5:-1 6:-1 7:-1 9:1 10:-1 11:-1 12:-1 
-32 0 0 0 0 0 1:1 2:-1 3:-1 4:-1 5:-1 6:-1 7:-1 9:1 10:-1 11:-1 12:-1 
-32 0 0 0 0 0 1:1 2:-1 3:-1 4:-1 5:-1 6:-1 7:-1 9:1 10:-1 11:-1 12:-1 
-32 0 0 0 0 0 1:1 2:-1 3:-1 4:-1 5:-1 6:-1 7:-1 9:1 10:-1 11:-1 12:-1 
-32 0 0 0 0 0 1:1 2:-1 3:-1 4:-1 5:-1 6:-1 7:-1 9:1 10:-1 11:-1 12:-1 
-32 0 0 0 0 0 1:1 2:-1 3:-1 4:-1 5:-1 6:-1 7:-1 9:1 10:-1 11:-1 12:-1 
-32 0 0 0 0 0 1:1 2:-1 3:-1 4:-1 5:-1 6:-1 7:-1 9:1 10:-1 11:-1 12:-1 
-32 0 0 0 0 0 1:1 2:-1 3:-1 4:-1 5:-1 6:-1 7:-1 9:1 10:-1 11:-1 12:-1 
-32 0 0 0 0 0 1:1 2:-1 3:-1 4:-1 5:-1 6:-1 7:-1 9:1 10:-1 11:-1 12:-1 
-32 0 0 0 0 0 1:1 2:-1 3:-1 4:-1 5:-1 6:-1 7:-1 9:1 10:-1 11:-1 12:-1 
-32 0 2.3044594764223 0 0 0 1:1 2:-1 3:-1 4:-1 5:-1 6:-1 7:-1 9:1 10:-1 11:-1 12:-1 
-32 0 32 0 0 0 1:1 2:-1 3:-1 4:-1 5:-1 6:-1 7:-1 9:1 10:-1 11:-1 12:-1 
-32 0 32 0 0 0 1:1 2:-1 3:-1 4:-1 5:-1 6:-1 7:-1 9:1 10:-1 11:-1 12:-1 
-32 0 32 0 0 0 1:1 2:-1 3:-1 4:-1 5:-1 6:-1 7:-1 9:1 10:-1 11:-1 12:-1 
-32 0 32 0 0 0 1:1 2:-1 3:-1 4:-1 5:-1 6:-1 7:-1 9:1 10:-1 11:-1 12:-1 
-32 0 32 0 0 0 1:1 2:-1 3:-1 4:-1 5:-1 6:-1 7:-1 9:1 10:-1 11:-1 12:-1 
-32 0 32 0 0 0 1:1 2:-1 3:-1 4:-1 5:-1 6:-1 7:-1 9:1 10:-1 11:-1 12:-1 
-32 0 32 0 0 0 1:1 2:-1 3:-1 4:-1 5:-1 6:-1 7:-1 9:1 10:-1 11:-1 12:-1 
-32 0 32 0 0 0 1:1 2:-1 3:-1 4:-1 5:-1 6:-1 7:-1 9:1 10:-1 11:-1 12:-1 
-32 0 32 0 0 0 1:1 2:-1 3:-1 4:-1 5:-1 6:-1 7:-1 9:1 10:-1 11:-1 12:-1 
-32 0 32 0 0 0 1:1 2:-1 3:-1 4:-1 5:-1 6:-1 7:-1 9:1 10:-1 11:-1 12:-1 
-32 0 32 0 0 0 1:1 2:-1 3:-1 4:-1 5:-1 6:-1 7:-1 9:1 10:-1 11:-1 12:-1 
-32 0 32 0 0 0 1:1 2:-1 3:-1 4:-1 5:-1 6:-1 7:-1 9:1 10:-1 11:-1 12:-1 
-32 0 32 0 0 0 1:1 2:-1 3:-1 4:-1 5:-1 6:-1 7:-1 9:1 10:-1 11:-1 12:-1 
-32 0 32 0 0 0 1:1 2:-1 3:-1 4:-1 5:-1 6:-1 7:-1 9:1 10:-1 11:-1 12:-1 
-32 0 32 0 0 0 1:1 2:-1 3:-1 4:-1 5:-1 6:-1 7:-1 9:1 10:-1 11:-1 12:-1 
-32 0 32 0 0 0 1:1 2:-1 3:-1 4:-1 5:-1 6:-1 7:-1 9:1 10:-1 11:-1 12:-1 
-32 0 32 0 0 0 1:1 2:-1 3:-1 4:-1 5:-1 6:-1 7:-1 9:1 10:-1 11:-1 12:-1 
-32 0 32 0 0 0 1:1 2:-1 3:-1 4:-1 5:-1 6:-1 7:-1 9:1 10:-1 11:-1 12:-1 
-32 0 32 0 0 0 1:1 2:-1 3:-1 4:-1 5:-1 6:-1 7:-1 9:1 10:-1 11:-1 12:-1 
-32 0 32 0 0 0 1:1 2:-1 3:-1 4:-1 5:-1 6:-1 7:-1 9:1 10:-1 11:-1 12:-1 
-32 0 32 0 0 0 1:1 2:-1 3:-1 4:-1 5:-1 6:-1 7:-1 9:1 10:-1 11:-1 12:-1 
-32 0 32 0 0 0 1:1 2:-1 3:-1 4:-1 5:-1 6:-1 7:-1 9:1 10:-1 11:-1 12:-1 
-32 0 32 0 0 0 1:1 2:-1 3:-1 4:-1 5:-1 6:-1 7:-1 9:1 10:-1 11:-1 12:-1 
-32 0 32 0 0 0 1:1 2:-1 3:-1 4:-1 5:-1 6:-1 7:-1 9:1 10:-1 11:-1 12:-1 
-32 0 32 0 0 0 1:1 2:-1 3:-1 4:-1 5:-1 6:-1 7:-1 9:1 10:-1 11:-1 12:-1 
-32 0 32 0 0 0 1:1 2:-1 3:-1 4:-1 5:-1 6:-1 7:-1 9:1 10:-1 11:-1 12:-1 
-32 0 32 0 0 0 1:1 2:-1 3:-1 4:-1 5:-1 6:-1 7:-1 9:1 10:-1 11:-1 12:-1 
-32 0 32 0 0 0 1:1 2:-1 3:-1 4:-1 5:-1 6:-1 7:-1 9:1 10:-1 11:-1 12:-1 
-32 32 32 32 32 32 1:-1 2:1 3:-1 4:-1 5:-1 6:-1 7:-1 9:1 10:-1 11:-1 12:-1 
-32 0 32 0 0 0 1:1 2:-1 3:-1 4:-1 5:-1 6:-1 7:-1 9:1 10:-1 11:-1 12:-1 
-32 0 32 0 0 0 1:1 2:-1 3:-1 4:-1 5:-1 6:-1 7:-1 9:1 10:-1 11:-1 12:-1 
-32 0 32 0 0 0 1:1 2:-1 3:-1 4:-1 5:-1 6:-1 7:-1 9:1 10:-1 11:-1 12:-1 
-32 0 32 0 0 0 1:1 2:-1 3:-1 4:-1 5:-1 6:-1 7:-1 9:1 10:-1 11:-1 12:-1 
-32 0 32 0 0 0 1:1 2:-1 3:-1 4:-1 5:-1 6:-1 7:-1 9:1 10:-1 11:-1 12:-1 
-32 0 32 0 0 0 1:1 2:-1 3:-1 4:-1 5:-1 6:-1 7:-1 9:1 10:-1 11:-1 12:-1 
-32 0 32 0 0 0 1:1 2:-1 3:-1 4:-1 5:-1 6:-1 7:-1 9:1 10:-1 11:-1 12:-1 
-32 0 32 0 0 0 1:1 2:-1 3:-1 4:-1 5:-1 6:-1 7:-1 9:1 10:-1 11:-1 12:-1 
-32 0 32 0 0 0 1:1 2:-1 3:-1 4:-1 5:-1 6:-1 7:-1 9:1 10:-1 11:-1 12:-1 
-32 0 32 0 0 0 1:1 2:-1 3:-1 4:-1 5:-1 6:-1 7:-1 9:1 10:-1 11:-1 12:-1 
-32 0 32 0 0 0 1:1 2:-1 3:-1 4:-1 5:-1 6:-1 7:-1 9:1 10:-1 11:-1 12:-1 
-32 0 32 0 0 0 1:1 2:-1 3:-1 4:-1 5:-1 6:-1 7:-1 9:1 10:-1 11:-1 12:-1 
-32 0 32 0 0 0 1:1 2:-1 3:-1 4:-1 5:-1 6:-1 7:-1 9:1 10:-1 11:-1 12:-1 
-32 0 32 0 0 0 1:1 2:-1 3:-1 4:-1 5:-1 6:-1 7:-1 9:1 10:-1 11:-1 12:-1 
-32 0 32 0 0 0 1:1 2:-1 3:-1 4:-1 5:-1 6:-1 7:-1 9:1 10:-1 11:-1 12:-1 
-32 0 32 0 0 0 1:1 2:-1 3:-1 4:-1 5:-1 6:-1 7:-1 9:1 10:-1 11:-1 12:-1 
-32 0 32 0 0 0 1:1 2:-1 3:-1 4:-1 5:-1 6:-1 7:-1 9:1 10:-1 11:-1 12:-1 
-32 0 32 0 0 0 1:1 2:-1 3:-1 4:-1 5:-1 6:-1 7:-1 9:1 10:-1 11:-1 12:-1 
-32 0 32 0 0 0 1:1 2:-1 3:-1 4:-1 5:-1 6:-1 7:-1 9:1 10:-1 11:-1 12:-1 
-32 0 32 0 0 0 1:1 2:-1 3:-1 4:-1 5:-1 6:-1 7:-1 9:1 10:-1 11:-1 12:-1 
-32 0 32 0 0 0 1:1 2:-1 3:-1 4:-1 5:-1 6:-1 7:-1 9:1 10:-1 11:-1 12:-1 
-32 0 32 0 0 0 1:1 2:-1 3:-1 4:-1 5:-1 6:-1 7:-1 9:1 10:-1 11:-1 12:-1 
-32 0 32 0 0 0 1:1 2:-1 3:-1 4:-1 5:-1 6:-1 7:-1 9:1 10:-1 11:-1 12:-1 
-32 0 32 0 0 0 1:1 2:-1 3:-1 4:-1 5:-1 6:-1 7:-1 9:1 10:-1 11:-1 12:-1 
-32 0 32 0 0 0 1:1 2:-1 3:-1 4:-1 5:-1 6:-1 7:-1 9:1 10:-1 11:-1 12:-1 
-32 0 32 0 0 0 1:1 2:-1 3:-1 4:-1 5:-1 6:-1 7:-1 9:1 10:-1 11:-1 12:-1 
-32 0 32 0 0 0 1:1 2:-1 3:-1 4:-1 5:-1 6:-1 7:-1 9:1 10:-1 11:-1 12:-1 
-32 0 32 0 0 0 1:1 2:-1 3:-1 4:-1 5:-1 6:-1 7:-1 9:1 10:-1 11:-1 12:-1 
-32 0 32 0 0 0 1:1 2:-1 3:-1 4:-1 5:-1 6:-1 7:-1 9:1 10:-1 11:-1 12:-1 
-32 0 32 0 0 0 1:1 2:-1 3:-1 4:-1 5:-1 6:-1 7:-1 9:1 10:-1 11:-1 12:-1 
-32 0 32 0 0 0 1:1 2:-1 3:-1 4:-1 5:-1 6:-1 7:-1 9:1 10:-1 11:-1 12:-1 
-32 0 32 0 0 0 1:1 2:-1 3:-1 4:-1 5:-1 6:-1 7:-1 9:1 10:-1 11:-1 12:-1 
-32 0 32 0 0 0 1:1 2:-1 3:-1 4:-1 5:-1 6:-1 7:-1 9:1 10:-1 11:-1 12:-1 
-32 0 32 0 0 0 1:1 2:-1 3:-1 4:-1 5:-1 6:-1 7:-1 9:1 10:-1 11:-1 12:-1 
-32 0 32 0 0 0 1:1 2:-1 3:-1 4:-1 5:-1 6:-1 7:-1 9:1 10:-1 11:-1 12:-1 
-32 0 32 0 0 0 1:1 2:-1 3:-1 4:-1 5:-1 6:-1 7:-1 9:1 10:-1 11:-1 12:-1 
-32 0 32 0 0 0 1:1 2:-1 3:-1 4:-1 5:-1 6:-1 7:-1 9:1 10:-1 11:-1 12:-1 
-32 0 32 0 0 0 1:1 2:-1 3:-1 4:-1 5:-1 6:-1 7:-1 9:1 10:-1 11:-1 12:-1 
-32 0 32 0 0 0 1:1 2:-1 3:-1 4:-1 5:-1 6:-1 7:-1 9:1 10:-1 11:-1 12:-1 
-32 0 32 0 0 0 1:1 2:-1 3:-1 4:-1 5:-1 6:-1 7:-1 9:1 10:-1 11:-1 12:-1 
-32 0 32 0 0 0 1:-1 2:-1 3:-1 4:-1 5:1 6:-1 7:-1 9:1 10:-1 11:-1 12:-1 
-32 0 32 0 0 0 1:1 2:-1 3:-1 4:-1 5:-1 6:-1 7:-1 9:1 10:-1 11:-1 12:-1 
-32 0 32 0 0 0 1:1 2:-1 3:-1 4:-1 5:-1 6:-1 7:-1 9:1 10:-1 11:-1 12:-1 
-32 0 32 0 0 0 1:1 2:-1 3:-1 4:-1 5:-1 6:-1 7:-1 9:1 10:-1 11:-1 12:-1 
-32 0 32 0 0 0 1:1 2:-1 3:-1 4:-1 5:-1 6:-1 7:-1 9:1 10:-1 11:-1 12:-1 
-32 0 32 0 0 0 1:1 2:-1 3:-1 4:-1 5:-1 6:-1 7:-1 9:1 10:-1 11:-1 12:-1 
-32 0 32 0 0 0 1:1 2:-1 3:-1 4:-1 5:-1 6:-1 7:-1 9:1 10:-1 11:-1 12:-1 
-32 0 32 0 0 0 1:1 2:-1 3:-1 4:-1 5:-1 6:-1 7:-1 9:1 10:-1 11:-1 12:-1 
-32 0 32 0 0 0 1:1 2:-1 3:-1 4:-1 5:-1 6:-1 7:-1 9:1 10:-1 11:-1 12:-1 
-32 0 32 0 0 0 1:1 2:-1 3:-1 4:-1 5:-1 6:-1 7:-1 9:1 10:-1 11:-1 12:-1 
-32 0 32 0 0 0 1:1 2:-1 3:-1 4:-1 5:-1 6:-1 7:-1 9:1 10:-1 11:-1 12:-1 
-32 0 32 0 0 0 1:1 2:-1 3:-1 4:-1 5:-1 6:-1 7:-1 9:1 10:-1 11:-1 12:-1 
-32 0 32 0 0 0 1:1 2:-1 3:-1 4:-1 5:-1 6:-1 7:-1 9:1 10:-1 11:-1 12:-1 
-32 0 32 0 0 0 1:1 2:-1 3:-1 4:-1 5:-1 6:-1 7:-1 9:1 10:-1 11:-1 12:-1 
-32 0 32 0 0 0 1:1 2:-1 3:-1 4:-1 5:-1 6:-1 7:-1 9:1 10:-1 11:-1 12:-1 
-32 0 32 0 0 0 1:1 2:-1 3:-1 4:-1 5:-1 6:-1 7:-1 9:1 10:-1 11:-1 12:-1 
-32 32 0 32 0 0 1:-1 2:-1 3:1 4:-1 5:-1 6:-1 7:-1 9:1 10:-1 11:-1 12:-1 
-32 0 32 0 0 0 1:1 2:-1 3:-1 4:-1 5:-1 6:-1 7:-1 9:1 10:-1 11:-1 12:-1 
-32 0 32 0 0 0 1:1 2:-1 3:-1 4:-1 5:-1 6:-1 7:-1 9:1 10:-1 11:-1 12:-1 
-32 0 32 0 0 0 1:1 2:-1 3:-1 4:-1 5:-1 6:-1 7:-1 9:1 10:-1 11:-1 12:-1 
-32 0 32 0 0 0 1:1 2:-1 3:-1 4:-1 5:-1 6:-1 7:-1 9:1 10:-1 11:-1 12:-1 
-32 0 32 0 0 0 1:1 2:-1 3:-1 4:-1 5:-1 6:-1 7:-1 9:1 10:-1 11:-1 12:-1 
-32 0 32 0 0 0 1:1 2:-1 3:-1 4:-1 5:-1 6:-1 7:-1 9:1 10:-1 11:-1 12:-1 
-32 0 32 0 0 0 1:1 2:-1 3:-1 4:-1 5:-1 6:-1 7:-1 9:1 10:-1 11:-1 12:-1 
-32 0 32 0 0 0 1:1 2:-1 3:-1 4:-1 5:-1 6:-1 7:-1 9:1 10:-1 11:-1 12:-1 
-32 0 32 0 0 0 1:1 2:-1 3:-1 4:-1 5:-1 6:-1 7:-1 9:1 10:-1 11:-1 12:-1 
-32 0 32 0 0 0 1:1 2:-1 3:-1 4:-1 5:-1 6:-1 7:-1 9:1 10:-1 11:-1 12:-1 
-32 0 32 0 0 0 1:1 2:-1 3:-1 4:-1 5:-1 6:-1 7:-1 9:1 10:-1 11:-1 12:-1 
-32 0 32 0 0 0 1:1 2:-1 3:-1 4:-1 5:-1 6:-1 7:-1 9:1 10:-1 11:-1 12:-1 
-32 0 32 0 0 0 1:1 2:-1 3:-1 4:-1 5:-1 6:-1 7:-1 9:1 10:-1 11:-1 12:-1 
-32 0 32 0 0 0 1:1 2:-1 3:-1 4:-1 5:-1 6:-1 7:-1 9:1 10:-1 11:-1 12:-1 
-32 0 32 0 0 0 1:1 2:-1 3:-1 4:-1 5:-1 6:-1 7:-1 9:1 10:-1 11:-1 12:-1 
-32 0 32 0 0 0 1:1 2:-1 3:-1 4:-1 5:-1 6:-1 7:-1 9:1 10:-1 11:-1 12:-1 
-32 0 32 0 0 0 1:1 2:-1 3:-1 4:-1 5:-1 6:-1 7:-1 9:1 10:-1 11:-1 12:-1 
-32 0 32 0 0 0 1:1 2:-1 3:-1 4:-1 5:-1 6:-1 7:-1 9:1 10:-1 11:-1 12:-1 
-32 0 32 0 0 0 1:1 2:-1 3:-1 4:-1 5:-1 6:-1 7:-1 9:1 10:-1 11:-1 12:-1 
-32 0 32 0 0 0 1:1 2:-1 3:-1 4:-1 5:-1 6:-1 7:-1 9:1 10:-1 11:-1 12:-1 
-32 0 32 0 0 0 1:1 2:-1 3:-1 4:-1 5:-1 6:-1 7:-1 9:1 10:-1 11:-1 12:-1 
-32 0 32 0 0 0 1:1 2:-1 3:-1 4:-1 5:-1 6:-1 7:-1 9:1 10:-1 11:-1 12:-1 
-32 0 32 0 0 0 1:1 2:-1 3:-1 4:-1 5:-1 6:-1 7:-1 9:1 10:-1 11:-1 12:-1 
-32 0 32 0 0 0 1:1 2:-1 3:-1 4:-1 5:-1 6:-1 7:-1 9:1 10:-1 11:-1 12:-1 
-32 0 32 0 0 0 1:1 2:-1 3:-1 4:-1 5:-1 6:-1 7:-1 9:1 10:-1 11:-1 12:-1 
-32 0 32 0 0 0 1:1 2:-1 3:-1 4:-1 5:-1 6:-1 7:-1 9:1 10:-1 11:-1 12:-1 
-32 32 0 32 0 0 1:-1 2:-1 3:1 4:-1 5:-1 6:-1 7:-1 9:1 10:-1 11:-1 12:-1 
-32 0 32 0 0 0 1:-1 2:-1 3:-1 4:-1 5:1 6:-1 7:-1 9:1 10:-1 11:-1 12:-1 
-32 0 32 0 0 0 1:1 2:-1 3:-1 4:-1 5:-1 6:-1 7:-1 9:1 10:-1 11:-1 12:-1 
-32 0 32 0 0 0 1:1 2:-1 3:-1 4:-1 5:-1 6:-1 7:-1 9:1 10:-1 11:-1 12:-1 
-32 0 32 0 0 0 1:1 2:-1 3:-1 4:-1 5:-1 6:-1 7:-1 9:1 10:-1 11:-1 12:-1 
-32 0 32 0 0 0 1:1 2:-1 3:-1 4:-1 5:-1 6:-1 7:-1 9:1 10:-1 11:-1 12:-1 
-32 0 32 0 0 0 1:1 2:-1 3:-1 4:-1 5:-1 6:-1 7:-1 9:1 10:-1 11:-1 12:-1 
-32 0 32 0 0 0 1:1 2:-1 3:-1 4:-1 5:-1 6:-1 7:-1 9:1 10:-1 11:-1 12:-1 
-32 0 32 0 0 0 1:1 2:-1 3:-1 4:-1 5:-1 6:-1 7:-1 9:1 10:-1 11:-1 12:-1 
-32 0 32 0 0 0 1:1 2:-1 3:-1 4:-1 5:-1 6:-1 7:-1 9:1 10:-1 11:-1 12:-1 
-32 0 32 0 0 0 1:1 2:-1 3:-1 4:-1 5:-1 6:-1 7:-1 9:1 10:-1 11:-1 12:-1 
-32 0 32 0 0 0 1:1 2:-1 3:-1 4:-1 5:-1 6:-1 7:-1 9:1 10:-1 11:-1 12:-1 
-32 0 32 0 0 0 1:1 2:-1 3:-1 4:-1 5:-1 6:-1 7:-1 9:1 10:-1 11:-1 12:-1 
-32 0 32 0 0 0 1:1 2:-1 3:-1 4:-1 5:-1 6:-1 7:-1 9:1 10:-1 11:-1 12:-1 
-32 0 32 0 0 0 1:1 2:-1 3:-1 4:-1 5:-1 6:-1 7:-1 9:1 10:-1 11:-1 12:-1 
-32 0 32 0 0 0 1:1 2:-1 3:-1 4:-1 5:-1 6:-1 7:-1 9:1 10:-1 11:-1 12:-1 
-32 0 32 0 0 0 1:1 2:-1 3:-1 4:-1 5:-1 6:-1 7:-1 9:1 10:-1 11:-1 12:-1 
-32 32 0 32 0 2.260405857335831 1:-1 2:-1 3:1 4:-1 5:-1 6:-1 7:-1 9:1 10:-1 11:-1 12:-1 
-32 0 32 0 0 0 1:1 2:-1 3:-1 4:-1 5:-1 6:-1 7:-1 9:1 10:-1 11:-1 12:-1 
-32 0 32 0 0 0 1:1 2:-1 3:-1 4:-1 5:-1 6:-1 7:-1 9:1 10:-1 11:-1 12:-1 
-32 0 32 0 0 0 1:1 2:-1 3:-1 4:-1 5:-1 6:-1 7:-1 9:1 10:-1 11:-1 12:-1 
-32 0 32 0 0 0 1:1 2:-1 3:-1 4:-1 5:-1 6:-1 7:-1 9:1 10:-1 11:-1 12:-1 
-32 0 32 0 0 0 1:1 2:-1 3:-1 4:-1 5:-1 6:-1 7:-1 9:1 10:-1 11:-1 12:-1 
-32 0 32 0 0 0 1:1 2:-1 3:-1 4:-1 5:-1 6:-1 7:-1 9:1 10:-1 11:-1 12:-1 
-32 0 32 0 0 0 1:1 2:-1 3:-1 4:-1 5:-1 6:-1 7:-1 9:1 10:-1 11:-1 12:-1 
-32 0 32 0 0 0 1:1 2:-1 3:-1 4:-1 5:-1 6:-1 7:-1 9:1 10:-1 11:-1 12:-1 
-32 0 32 0 0 0 1:1 2:-1 3:-1 4:-1 5:-1 6:-1 7:-1 9:1 10:-1 11:-1 12:-1 
-32 0 32 0 0 0 1:1 2:-1 3:-1 4:-1 5:-1 6:-1 7:-1 9:1 10:-1 11:-1 12:-1 
-32 0 32 0 0 0 1:1 2:-1 3:-1 4:-1 5:-1 6:-1 7:-1 9:1 10:-1 11:-1 12:-1 
-32 0 32 0 0 0 1:1 2:-1 3:-1 4:-1 5:-1 6:-1 7:-1 9:1 10:-1 11:-1 12:-1 
-32 0 32 0 0 0 1:1 2:-1 3:-1 4:-1 5:-1 6:-1 7:-1 9:1 10:-1 11:-1 12:-1 
-32 0 32 0 0 0 1:1 2:-1 3:-1 4:-1 5:-1 6:-1 7:-1 9:1 10:-1 11:-1 12:-1 
-32 0 32 0 0 0 1:1 2:-1 3:-1 4:-1 5:-1 6:-1 7:-1 9:1 10:-1 11:-1 12:-1 
-32 0 32 0 0 0 1:1 2:-1 3:-1 4:-1 5:-1 6:-1 7:-1 9:1 10:-1 11:-1 12:-1 
-32 0 32 0 0 0 1:1 2:-1 3:-1 4:-1 5:-1 6:-1 7:-1 9:1 10:-1 11:-1 12:-1 
-32 0 32 0 0 0 1:1 2:-1 3:-1 4:-1 5:-1 6:-1 7:-1 9:1 10:-1 11:-1 12:-1 
-32 0 32 0 0 0 1:1 2:-1 3:-1 4:-1 5:-1 6:-1 7:-1 9:1 10:-1 11:-1 12:-1 
-32 0 32 0 0 0 1:1 2:-1 3:-1 4:-1 5:-1 6:-1 7:-1 9:1 10:-1 11:-1 12:-1 
-32 0 32 0 0 0 1:1 2:-1 3:-1 4:-1 5:-1 6:-1 7:-1 9:1 10:-1 11:-1 12:-1 
-32 0 32 0 0 0 1:1 2:-1 3:-1 4:-1 5:-1 6:-1 7:-1 9:1 10:-1 11:-1 12:-1 
-32 0 32 0 0 0 1:1 2:-1 3:-1 4:-1 5:-1 6:-1 7:-1 9:1 10:-1 11:-1 12:-1 
-32 0 32 0 0 0 1:-1 2:-1 3:-1 4:-1 5:1 6:-1 7:-1 9:1 10:-1 11:-1 12:-1 
-32 0 32 0 0 0 1:1 2:-1 3:-1 4:-1 5:-1 6:-1 7:-1 9:1 10:-1 11:-1 12:-1 
-32 0 32 0 0 0 1:1 2:-1 3:-1 4:-1 5:-1 6:-1 7:-1 9:1 10:-1 11:-1 12:-1 
-32 0 32 0 0 0 1:1 2:-1 3:-1 4:-1 5:-1 6:-1 7:-1 9:1 10:-1 11:-1 12:-1 
-32 0 32 0 0 0 1:1 2:-1 3:-1 4:-1 5:-1 6:-1 7:-1 9:1 10:-1 11:-1 12:-1 
-32 0 32 0 0 0 1:1 2:-1 3:-1 4:-1 5:-1 6:-1 7:-1 9:1 10:-1 11:-1 12:-1 
-32 0 32 0 0 0 1:1 2:-1 3:-1 4:-1 5:-1 6:-1 7:-1 9:1 10:-1 11:-1 12:-1 
-32 0 32 0 0 0 1:1 2:-1 3:-1 4:-1 5:-1 6:-1 7:-1 9:1 10:-1 11:-1 12:-1 
-32 0 32 0 0 0 1:1 2:-1 3:-1 4:-1 5:-1 6:-1 7:-1 9:1 10:-1 11:-1 12:-1 
-32 0 32 0 0 0 1:1 2:-1 3:-1 4:-1 5:-1 6:-1 7:-1 9:1 10:-1 11:-1 12:-1 
-32 8.258103408167688 32 0 0 0 1:1 2:-1 3:-1 4:-1 5:-1 6:-1 7:-1 9:1 10:-1 11:-1 12:-1 
-32 32 32 0 0 0 1:1 2:-1 3:-1 4:-1 5:-1 6:-1 7:-1 9:1 10:-1 11:-1 12:-1 
-32 32 2.302491601614665 31.97277474977491 2.024179042857902 31.74357072857446 1:-1 2:-1 3:1 4:-1 5:-1 6:-1 7:-1 9:1 10:-1 11:-1 12:-1 
-32 3.866898260018958 32 2.131563353427515 2.024179042857903 2.004094423036002 1:-1 2:-1 3:-1 4:-1 5:1 6:-1 7:-1 9:1 10:-1 11:-1 12:-1 
-32 32 32 0 0 0 1:1 2:-1 3:-1 4:-1 5:-1 6:-1 7:-1 9:1 10:-1 11:-1 12:-1 
-32 32 32 0 0 0 1:1 2:-1 3:-1 4:-1 5:-1 6:-1 7:-1 9:1 10:-1 11:-1 12:-1 
-32 32 32 0 0 0 1:1 2:-1 3:-1 4:-1 5:-1 6:-1 7:-1 9:1 10:-1 11:-1 12:-1 
-32 32 32 0 0 0 1:1 2:-1 3:-1 4:-1 5:-1 6:-1 7:-1 9:1 10:-1 11:-1 12:-1 
-32 32 32 0 0 0 1:1 2:-1 3:-1 4:-1 5:-1 6:-1 7:-1 9:1 10:-1 11:-1 12:-1 
-32 32 32 0 0 0 1:1 2:-1 3:-1 4:-1 5:-1 6:-1 7:-1 9:1 10:-1 11:-1 12:-1 
-32 32 32 0 0 0 1:1 2:-1 3:-1 4:-1 5:-1 6:-1 7:-1 9:1 10:-1 11:-1 12:-1 
-32 32 32 0 0 5.431149537371473 1:1 2:-1 3:-1 4:-1 5:-1 6:-1 7:-1 9:1 10:-1 11:-1 12:-1 
-32 32 32 0 0 32 1:1 2:-1 3:-1 4:-1 5:-1 6:-1 7:-1 9:1 10:-1 11:-1 12:-1 
-32 32 32 0 0 32 1:1 2:-1 3:-1 4:-1 5:-1 6:-1 7:-1 9:1 10:-1 11:-1 12:-1 
-32 32 32 0 0 32 1:1 2:-1 3:-1 4:-1 5:-1 6:-1 7:-1 9:1 10:-1 11:-1 12:-1 
-32 32 32 0 0 32 1:1 2:-1 3:-1 4:-1 5:-1 6:-1 7:-1 9:1 10:-1 11:-1 12:-1 
-32 32 32 0 0 32 1:1 2:-1 3:-1 4:-1 5:-1 6:-1 7:-1 9:1 10:-1 11:-1 12:-1 
-32 32 32 0 0 32 1:1 2:-1 3:-1 4:-1 5:-1 6:-1 7:-1 9:1 10:-1 11:-1 12:-1 
-32 32 32 0 0 32 1:1 2:-1 3:-1 4:-1 5:-1 6:-1 7:-1 9:1 10:-1 11:-1 12:-1 
-32 32 32 5.298601615592089 0 32 1:1 2:-1 3:-1 4:-1 5:-1 6:-1 7:-1 9:1 10:-1 11:-1 12:-1 
-32 32 32 32 5.376583045367771 32 1:1 2:-1 3:-1 4:-1 5:-1 6:-1 7:-1 9:1 10:-1 11:-1 12:-1 
-32 32 32 32 32 32 1:1 2:-1 3:-1 4:-1 5:-1 6:-1 7:-1 9:1 10:-1 11:-1 12:-1 
-7.246485887452824 3.866898260018959 2.302491601614666 2.129569788597465 2.024179042857902 2.003935154920674 1:-1 2:-1 3:-1 4:-1 5:-1 6:1 7:-1 9:1 10:-1 11:-1 12:-1 
-32 32 32 32 32 32 1:1 2:-1 3:-1 4:-1 5:-1 6:-1 7:-1 9:1 10:-1 11:-1 12:-1 
-32 32 32 32 32 32 1:1 2:-1 3:-1 4:-1 5:-1 6:-1 7:-1 9:1 10:-1 11:-1 12:-1 
-32 32 32 32 32 32 1:1 2:-1 3:-1 4:-1 5:-1 6:-1 7:-1 9:1 10:-1 11:-1 12:-1 
-32 32 32 32 32 32 1:1 2:-1 3:-1 4:-1 5:-1 6:-1 7:-1 9:1 10:-1 11:-1 12:-1 
-32 32 32 32 32 32 1:1 2:-1 3:-1 4:-1 5:-1 6:-1 7:-1 9:1 10:-1 11:-1 12:-1 
-32 32 32 32 32 32 1:1 2:-1 3:-1 4:-1 5:-1 6:-1 7:-1 9:1 10:-1 11:-1 12:-1 
-32 32 32 32 32 32 1:1 2:-1 3:-1 4:-1 5:-1 6:-1 7:-1 9:1 10:-1 11:-1 12:-1 
-0 -0 0 32 0 0 1:-1 2:1 3:-1 4:-1 5:-1 6:-1 7:-1 9:-1 10:1 11:-1 12:-1 
-0 -0 0 32 0 0 1:-1 2:1 3:-1 4:-1 5:-1 6:-1 7:-1 9:-1 10:1 11:-1 12:-1 
-12.60110898045986 -0 0 32 1.657771805832129 0.09162930956008851 1:-1 2:1 3:-1 4:-1 5:-1 6:-1 7:-1 9:-1 10:1 11:-1 12:-1 
-32 -32 32 0 0 0 1:1 2:-1 3:-1 4:-1 5:-1 6:-1 7:-1 9:1 10:-1 11:-1 12:-1 
-32 -32 32 0 0 0 1:1 2:-1 3:-1 4:-1 5:-1 6:-1 7:-1 9:1 10:-1 11:-1 12:-1 
-32 -32 32 0 0 0 1:1 2:-1 3:-1 4:-1 5:-1 6:-1 7:-1 9:1 10:-1 11:-1 12:-1 
-32 -32 32 0 0 0 1:1 2:-1 3:-1 4:-1 5:-1 6:-1 7:-1 9:1 10:-1 11:-1 12:-1 
-32 -32 32 0 0 0 1:1 2:-1 3:-1 4:-1 5:-1 6:-1 7:-1 9:1 10:-1 11:-1 12:-1 
-32 -32 32 0 0 0 1:1 2:-1 3:-1 4:-1 5:-1 6:-1 7:-1 9:1 10:-1 11:-1 12:-1 
-32 -32 32 0 0 0 1:1 2:-1 3:-1 4:-1 5:-1 6:-1 7:-1 9:1 10:-1 11:-1 12:-1 
-32 -32 32 0 0 0 1:1 2:-1 3:-1 4:-1 5:-1 6:-1 7:-1 9:1 10:-1 11:-1 12:-1 
-32 -32 32 0 0 2.260405857335831 1:1 2:-1 3:-1 4:-1 5:-1 6:-1 7:-1 9:1 10:-1 11:-1 12:-1 
-32 -32 32 0 0 32 1:1 2:-1 3:-1 4:-1 5:-1 6:-1 7:-1 9:1 10:-1 11:-1 12:-1 
-32 -32 32 0 0 32 1:1 2:-1 3:-1 4:-1 5:-1 6:-1 7:-1 9:1 10:-1 11:-1 12:-1 
-32 -32 32 0 0 32 1:1 2:-1 3:-1 4:-1 5:-1 6:-1 7:-1 9:1 10:-1 11:-1 12:-1 
-32 -32 32 0 0 32 1:1 2:-1 3:-1 4:-1 5:-1 6:-1 7:-1 9:1 10:-1 11:-1 12:-1 
-32 -32 32 0 0 32 1:1 2:-1 3:-1 4:-1 5:-1 6:-1 7:-1 9:1 10:-1 11:-1 12:-1 
-0 -0 0 32 0 0 1:-1 2:-1 3:1 4:-1 5:-1 6:-1 7:-1 9:-1 10:1 11:-1 12:-1 
-0 -0 0 32 0 0.05697107138599878 1:-1 2:-1 3:1 4:-1 5:-1 6:-1 7:-1 9:-1 10:1 11:-1 12:-1 
-32 -32 32 0 0 32 1:1 2:-1 3:-1 4:-1 5:-1 6:-1 7:-1 9:1 10:-1 11:-1 12:-1 
-32 -5.401014629078083 4.935498590123339 32 5.679691667414491 3.250064651962989 1:-1 2:1 3:-1 4:-1 5:-1 6:-1 7:-1 9:1 10:-1 11:-1 12:-1 
-32 -31.77333951389688 31.90228482145854 32 30.07632444053035 30.91977406882323 1:-1 2:1 3:-1 4:-1 5:-1 6:-1 7:-1 9:1 10:-1 11:-1 12:-1 
-32 -32 32 0 0 32 1:1 2:-1 3:-1 4:-1 5:-1 6:-1 7:-1 9:1 10:-1 11:-1 12:-1 
-32 -32 32 7.970371015307524 0 32 1:1 2:-1 3:-1 4:-1 5:-1 6:-1 7:-1 9:1 10:-1 11:-1 12:-1 
-32 -32 32 32 3.168435351538466 32 1:1 2:-1 3:-1 4:-1 5:-1 6:-1 7:-1 9:1 10:-1 11:-1 12:-1 
-32 -32 32 32 32 32 1:1 2:-1 3:-1 4:-1 5:-1 6:-1 7:-1 9:1 10:-1 11:-1 12:-1 
-32 -32 32 32 32 32 1:1 2:-1 3:-1 4:-1 5:-1 6:-1 7:-1 9:1 10:-1 11:-1 12:-1 
-32 -32 32 32 32 32 1:1 2:-1 3:-1 4:-1 5:-1 6:-1 7:-1 9:1 10:-1 11:-1 12:-1 
-32 -0 0 0 0 0 1:1 2:-1 3:-1 4:-1 5:-1 6:-1 7:-1 9:-1 10:-1 11:1 12:-1 
-32 -0 0 0 0 0 1:1 2:-1 3:-1 4:-1 5:-1 6:-1 7:-1 9:-1 10:-1 11:1 12:-1 
-32 -0 0 32 0 0 1:1 2:-1 3:-1 4:-1 5:-1 6:-1 7:-1 9:-1 10:1 11:-1 12:-1 
-32 -2.820816171439521 2.901891400949059 32 1.090319648690249 0.0510164951441145 1:1 2:-1 3:-1 4:-1 5:-1 6:-1 7:-1 9:-1 10:1 11:-1 12:-1 
-32 -32 32 32 32 32 1:1 2:-1 3:-1 4:-1 5:-1 6:-1 7:-1 9:1 10:-1 11:-1 12:-1 
-32 -32 32 32 32 32 1:1 2:-1 3:-1 4:-1 5:-1 6:-1 7:-1 9:1 10:-1 11:-1 12:-1 
-32 -0 0 0 0 0 1:1 2:-1 3:-1 4:-1 5:-1 6:-1 7:-1 9:-1 10:-1 11:1 12:-1 
-32 -0 0 0 0 0 1:1 2:-1 3:-1 4:-1 5:-1 6:-1 7:-1 9:-1 10:-1 11:1 12:-1 
-32 -32 32 32 32 32 1:1 2:-1 3:-1 4:-1 5:-1 6:-1 7:-1 9:1 10:-1 11:-1 12:-1 
-32 -32 32 32 32 32 1:1 2:-1 3:-1 4:-1 5:-1 6:-1 7:-1 9:1 10:-1 11:-1 12:-1 
-32 -32 32 32 32 31.86805299837579 1:1 2:-1 3:-1 4:-1 5:-1 6:-1 7:-1 9:1 10:-1 11:-1 12:-1 
-32 -0 0 0 0 0 1:1 2:-1 3:-1 4:-1 5:-1 6:-1 7:-1 9:-1 10:-1 11:1 12:-1 
-32 -0 0 7.968594220997514 0 0 1:1 2:-1 3:-1 4:-1 5:-1 6:-1 7:-1 9:-1 10:-1 11:1 12:-1 
-32 -0 0 32 0 0.08995120978501542 1:1 2:-1 3:-1 4:-1 5:-1 6:-1 7:-1 9:-1 10:-1 11:1 12:-1 
-32 -2.821347164381466 9.262788851330869 32 1.890370020723043 32 1:1 2:-1 3:-1 4:-1 5:-1 6:-1 7:-1 9:-1 10:-1 11:1 12:-1 
-8.541623400820336 -0 0 0 0 0 1:-1 2:-1 3:1 4:-1 5:-1 6:-1 7:-1 9:1 10:-1 11:-1 12:-1 
-32 -0 0 0 0 0 1:-1 2:-1 3:1 4:-1 5:-1 6:-1 7:-1 9:1 10:-1 11:-1 12:-1 
-32 -0 0 0 0 0 1:-1 2:-1 3:1 4:-1 5:-1 6:-1 7:-1 9:1 10:-1 11:-1 12:-1 
-32 -6.281217543484506 0 0 0 0 1:-1 2:-1 3:1 4:-1 5:-1 6:-1 7:-1 9:1 10:-1 11:-1 12:-1 
-32 -32 0 0 0 0 1:-1 2:-1 3:1 4:-1 5:-1 6:-1 7:-1 9:1 10:-1 11:-1 12:-1 
-32 -32 0 5.510470509298821 0 0 1:-1 2:-1 3:1 4:-1 5:-1 6:-1 7:-1 9:1 10:-1 11:-1 12:-1 
-32 -32 0 32 0 0 1:-1 2:-1 3:1 4:-1 5:-1 6:-1 7:-1 9:1 10:-1 11:-1 12:-1 
-32 -32 0 32 0 0 1:-1 2:-1 3:1 4:-1 5:-1 6:-1 7:-1 9:1 10:-1 11:-1 12:-1 
-32 -32 0 32 0 0 1:-1 2:-1 3:1 4:-1 5:-1 6:-1 7:-1 9:1 10:-1 11:-1 12:-1 
-32 -32 0 32 0 0 1:-1 2:-1 3:1 4:-1 5:-1 6:-1 7:-1 9:1 10:-1 11:-1 12:-1 
-32 -32 0 32 0 2.115198139424034 1:-1 2:-1 3:1 4:-1 5:-1 6:-1 7:-1 9:1 10:-1 11:-1 12:-1 
-30.00001751914312 -30.89416490592515 4.840316169777954 30.41757480425001 1.890198533472802 32 1:-1 2:-1 3:1 4:-1 5:-1 6:-1 7:-1 9:1 10:-1 11:-1 12:-1 
-0.1564864364850543 -0 0 3.932454802529394 0.6253375620022288 0.09914264065522987 1:-1 2:-1 3:1 4:-1 5:-1 6:-1 7:-1 9:-1 10:-1 11:1 12:-1 
-32 -32 -0 0 0 0 1:1 2:-1 3:-1 4:-1 5:-1 6:-1 7:-1 9:1 10:-1 11:-1 12:-1 
-32 -32 -0 0 0 0 1:1 2:-1 3:-1 4:-1 5:-1 6:-1 7:-1 9:1 10:-1 11:-1 12:-1 
-32 -32 -0 0 0 0 1:1 2:-1 3:-1 4:-1 5:-1 6:-1 7:-1 9:1 10:-1 11:-1 12:-1 
-32 -32 -0 0 0 0 1:1 2:-1 3:-1 4:-1 5:-1 6:-1 7:-1 9:1 10:-1 11:-1 12:-1 
-32 -32 -0 0 0 0 1:1 2:-1 3:-1 4:-1 5:-1 6:-1 7:-1 9:1 10:-1 11:-1 12:-1 
-32 -32 -0 0 0 0 1:1 2:-1 3:-1 4:-1 5:-1 6:-1 7:-1 9:1 10:-1 11:-1 12:-1 
-32 -32 -0 0 0 0 1:1 2:-1 3:-1 4:-1 5:-1 6:-1 7:-1 9:1 10:-1 11:-1 12:-1 
-32 -32 -0 0 0 0 1:1 2:-1 3:-1 4:-1 5:-1 6:-1 7:-1 9:1 10:-1 11:-1 12:-1 
-32 -32 -0 0 0 0 1:1 2:-1 3:-1 4:-1 5:-1 6:-1 7:-1 9:1 10:-1 11:-1 12:-1 
-32 -32 -0 0 0 0 1:1 2:-1 3:-1 4:-1 5:-1 6:-1 7:-1 9:1 10:-1 11:-1 12:-1 
-32 -32 -0 0 0 0 1:1 2:-1 3:-1 4:-1 5:-1 6:-1 7:-1 9:1 10:-1 11:-1 12:-1 
-32 -32 -0 0 0 0 1:1 2:-1 3:-1 4:-1 5:-1 6:-1 7:-1 9:1 10:-1 11:-1 12:-1 
-32 -32 -0 0 0 0 1:1 2:-1 3:-1 4:-1 5:-1 6:-1 7:-1 9:1 10:-1 11:-1 12:-1 
-32 -32 -0 0 0 0 1:1 2:-1 3:-1 4:-1 5:-1 6:-1 7:-1 9:1 10:-1 11:-1 12:-1 
-32 -32 -0 0 0 0 1:1 2:-1 3:-1 4:-1 5:-1 6:-1 7:-1 9:1 10:-1 11:-1 12:-1 
-32 -32 -0 0 0 0 1:1 2:-1 3:-1 4:-1 5:-1 6:-1 7:-1 9:1 10:-1 11:-1 12:-1 
-32 -32 -0 0 0 0 1:1 2:-1 3:-1 4:-1 5:-1 6:-1 7:-1 9:1 10:-1 11:-1 12:-1 
-32 -32 -0 0 0 0 1:1 2:-1 3:-1 4:-1 5:-1 6:-1 7:-1 9:1 10:-1 11:-1 12:-1 
-32 -32 -0 0 0 0 1:1 2:-1 3:-1 4:-1 5:-1 6:-1 7:-1 9:1 10:-1 11:-1 12:-1 
-32 -32 -0 0 0 0 1:1 2:-1 3:-1 4:-1 5:-1 6:-1 7:-1 9:1 10:-1 11:-1 12:-1 
-32 -32 -0 0 0 0 1:1 2:-1 3:-1 4:-1 5:-1 6:-1 7:-1 9:1 10:-1 11:-1 12:-1 
-32 -32 -0 0 0 0 1:1 2:-1 3:-1 4:-1 5:-1 6:-1 7:-1 9:1 10:-1 11:-1 12:-1 
-32 -32 -0 0 0 0 1:1 2:-1 3:-1 4:-1 5:-1 6:-1 7:-1 9:1 10:-1 11:-1 12:-1 
-32 -32 -0 0 0 0 1:1 2:-1 3:-1 4:-1 5:-1 6:-1 7:-1 9:1 10:-1 11:-1 12:-1 
-32 -32 -0 0 0 0 1:1 2:-1 3:-1 4:-1 5:-1 6:-1 7:-1 9:1 10:-1 11:-1 12:-1 
-32 -32 -0 0 0 0 1:1 2:-1 3:-1 4:-1 5:-1 6:-1 7:-1 9:1 10:-1 11:-1 12:-1 
-32 -32 -0 0 0 0 1:1 2:-1 3:-1 4:-1 5:-1 6:-1 7:-1 9:1 10:-1 11:-1 12:-1 
-32 -32 -0 0 0 0 1:1 2:-1 3:-1 4:-1 5:-1 6:-1 7:-1 9:1 10:-1 11:-1 12:-1 
-32 -32 -0 0 0 0 1:1 2:-1 3:-1 4:-1 5:-1 6:-1 7:-1 9:1 10:-1 11:-1 12:-1 
-32 -32 -0 0 0 0 1:1 2:-1 3:-1 4:-1 5:-1 6:-1 7:-1 9:1 10:-1 11:-1 12:-1 
-32 -32 -0 0 0 0 1:1 2:-1 3:-1 4:-1 5:-1 6:-1 7:-1 9:1 10:-1 11:-1 12:-1 
-32 -32 -0 0 0 0 1:1 2:-1 3:-1 4:-1 5:-1 6:-1 7:-1 9:1 10:-1 11:-1 12:-1 
-32 -32 -0 0 0 0 1:1 2:-1 3:-1 4:-1 5:-1 6:-1 7:-1 9:1 10:-1 11:-1 12:-1 
-32 -32 -0 0 0 0 1:1 2:-1 3:-1 4:-1 5:-1 6:-1 7:-1 9:1 10:-1 11:-1 12:-1 
-32 -32 -0 0 0 0 1:1 2:-1 3:-1 4:-1 5:-1 6:-1 7:-1 9:1 10:-1 11:-1 12:-1 
-32 -32 -0 0 0 0 1:1 2:-1 3:-1 4:-1 5:-1 6:-1 7:-1 9:1 10:-1 11:-1 12:-1 
-32 -32 -0 0 0 0 1:1 2:-1 3:-1 4:-1 5:-1 6:-1 7:-1 9:1 10:-1 11:-1 12:-1 
-32 -32 -0 0 0 0 1:1 2:-1 3:-1 4:-1 5:-1 6:-1 7:-1 9:1 10:-1 11:-1 12:-1 
-32 -32 -0 0 0 0 1:1 2:-1 3:-1 4:-1 5:-1 6:-1 7:-1 9:1 10:-1 11:-1 12:-1 
-32 -32 -0 0 0 0 1:1 2:-1 3:-1 4:-1 5:-1 6:-1 7:-1 9:1 10:-1 11:-1 12:-1 
-32 -32 -0 0 0 0 1:1 2:-1 3:-1 4:-1 5:-1 6:-1 7:-1 9:1 10:-1 11:-1 12:-1 
-32 -32 -0 0 0 0 1:1 2:-1 3:-1 4:-1 5:-1 6:-1 7:-1 9:1 10:-1 11:-1 12:-1 
-32 -32 -0 0 0 0 1:1 2:-1 3:-1 4:-1 5:-1 6:-1 7:-1 9:1 10:-1 11:-1 12:-1 
-32 -32 -0 0 0 0 1:1 2:-1 3:-1 4:-1 5:-1 6:-1 7:-1 9:1 10:-1 11:-1 12:-1 
-32 -32 -0 0 0 0 1:1 2:-1 3:-1 4:-1 5:-1 6:-1 7:-1 9:1 10:-1 11:-1 12:-1 
-32 -32 -0 0 0 0 1:1 2:-1 3:-1 4:-1 5:-1 6:-1 7:-1 9:1 10:-1 11:-1 12:-1 
-32 -32 -0 0 0 0 1:1 2:-1 3:-1 4:-1 5:-1 6:-1 7:-1 9:1 10:-1 11:-1 12:-1 
-32 -32 -0 0 0 0 1:1 2:-1 3:-1 4:-1 5:-1 6:-1 7:-1 9:1 10:-1 11:-1 12:-1 
-32 -32 -0 0 0 0 1:1 2:-1 3:-1 4:-1 5:-1 6:-1 7:-1 9:1 10:-1 11:-1 12:-1 
-32 -32 -0 0 0 0 1:1 2:-1 3:-1 4:-1 5:-1 6:-1 7:-1 9:1 10:-1 11:-1 12:-1 
-32 -32 -0 0 0 0 1:1 2:-1 3:-1 4:-1 5:-1 6:-1 7:-1 9:1 10:-1 11:-1 12:-1 
-32 -32 -0 0 0 0 1:1 2:-1 3:-1 4:-1 5:-1 6:-1 7:-1 9:1 10:-1 11:-1 12:-1 
-32 -32 -0 0 0 0 1:1 2:-1 3:-1 4:-1 5:-1 6:-1 7:-1 9:1 10:-1 11:-1 12:-1 
-32 -32 -0 0 0 0 1:1 2:-1 3:-1 4:-1 5:-1 6:-1 7:-1 9:1 10:-1 11:-1 12:-1 
-32 -32 -0 0 0 0 1:1 2:-1 3:-1 4:-1 5:-1 6:-1 7:-1 9:1 10:-1 11:-1 12:-1 
-32 -32 -0 0 0 0 1:1 2:-1 3:-1 4:-1 5:-1 6:-1 7:-1 9:1 10:-1 11:-1 12:-1 
-32 -32 -0 0 0 0 1:1 2:-1 3:-1 4:-1 5:-1 6:-1 7:-1 9:1 10:-1 11:-1 12:-1 
-32 -32 -0 0 0 0 1:1 2:-1 3:-1 4:-1 5:-1 6:-1 7:-1 9:1 10:-1 11:-1 12:-1 
-32 -32 -0 0 0 0 1:1 2:-1 3:-1 4:-1 5:-1 6:-1 7:-1 9:1 10:-1 11:-1 12:-1 
-32 -32 -0 0 0 0 1:1 2:-1 3:-1 4:-1 5:-1 6:-1 7:-1 9:1 10:-1 11:-1 12:-1 
-32 -32 -0 0 0 0 1:1 2:-1 3:-1 4:-1 5:-1 6:-1 7:-1 9:1 10:-1 11:-1 12:-1 
-32 -32 -0 0 0 0 1:1 2:-1 3:-1 4:-1 5:-1 6:-1 7:-1 9:1 10:-1 11:-1 12:-1 
-32 -32 -0 0 0 0 1:1 2:-1 3:-1 4:-1 5:-1 6:-1 7:-1 9:1 10:-1 11:-1 12:-1 
-32 -32 -0 0 0 0 1:1 2:-1 3:-1 4:-1 5:-1 6:-1 7:-1 9:1 10:-1 11:-1 12:-1 
-32 -32 -0 0 0 0 1:1 2:-1 3:-1 4:-1 5:-1 6:-1 7:-1 9:1 10:-1 11:-1 12:-1 
-32 -32 -0 0 0 0 1:1 2:-1 3:-1 4:-1 5:-1 6:-1 7:-1 9:1 10:-1 11:-1 12:-1 
-32 -32 -0 0 0 0 1:1 2:-1 3:-1 4:-1 5:-1 6:-1 7:-1 9:1 10:-1 11:-1 12:-1 
-32 -32 -0 0 0 0 1:1 2:-1 3:-1 4:-1 5:-1 6:-1 7:-1 9:1 10:-1 11:-1 12:-1 
-32 -32 -0 0 0 0 1:1 2:-1 3:-1 4:-1 5:-1 6:-1 7:-1 9:1 10:-1 11:-1 12:-1 
-32 -32 -0 0 0 0 1:1 2:-1 3:-1 4:-1 5:-1 6:-1 7:-1 9:1 10:-1 11:-1 12:-1 
-32 -32 -0 0 0 0 1:1 2:-1 3:-1 4:-1 5:-1 6:-1 7:-1 9:1 10:-1 11:-1 12:-1 
-32 -32 -0 0 0 0 1:1 2:-1 3:-1 4:-1 5:-1 6:-1 7:-1 9:1 10:-1 11:-1 12:-1 
-32 -32 -0 0 0 0 1:1 2:-1 3:-1 4:-1 5:-1 6:-1 7:-1 9:1 10:-1 11:-1 12:-1 
-32 -32 -0 0 0 0 1:1 2:-1 3:-1 4:-1 5:-1 6:-1 7:-1 9:1 10:-1 11:-1 12:-1 
-32 -32 -0 0 0 0 1:1 2:-1 3:-1 4:-1 5:-1 6:-1 7:-1 9:1 10:-1 11:-1 12:-1 
-32 -32 -0 0 0 0 1:1 2:-1 3:-1 4:-1 5:-1 6:-1 7:-1 9:1 10:-1 11:-1 12:-1 
-32 -32 -0 0 0 0 1:1 2:-1 3:-1 4:-1 5:-1 6:-1 7:-1 9:1 10:-1 11:-1 12:-1 
-32 -32 -0 0 0 0 1:1 2:-1 3:-1 4:-1 5:-1 6:-1 7:-1 9:1 10:-1 11:-1 12:-1 
-32 -32 -0 0 0 0 1:1 2:-1 3:-1 4:-1 5:-1 6:-1 7:-1 9:1 10:-1 11:-1 12:-1 
-32 -32 -0 0 0 0 1:1 2:-1 3:-1 4:-1 5:-1 6:-1 7:-1 9:1 10:-1 11:-1 12:-1 
-32 -32 -0 0 0 0 1:1 2:-1 3:-1 4:-1 5:-1 6:-1 7:-1 9:1 10:-1 11:-1 12:-1 
-32 -32 -0 0 0 0 1:1 2:-1 3:-1 4:-1 5:-1 6:-1 7:-1 9:1 10:-1 11:-1 12:-1 
-32 -32 -0 0 0 0 1:1 2:-1 3:-1 4:-1 5:-1 6:-1 7:-1 9:1 10:-1 11:-1 12:-1 
-32 -32 -0 0 0 0 1:1 2:-1 3:-1 4:-1 5:-1 6:-1 7:-1 9:1 10:-1 11:-1 12:-1 
-32 -32 -0 0 0 0 1:1 2:-1 3:-1 4:-1 5:-1 6:-1 7:-1 9:1 10:-1 11:-1 12:-1 
-32 -32 -0 0 0 0 1:1 2:-1 3:-1 4:-1 5:-1 6:-1 7:-1 9:1 10:-1 11:-1 12:-1 
-32 -32 -0 0 0 0 1:1 2:-1 3:-1 4:-1 5:-1 6:-1 7:-1 9:1 10:-1 11:-1 12:-1 
-32 -32 -0 0 0 0 1:1 2:-1 3:-1 4:-1 5:-1 6:-1 7:-1 9:1 10:-1 11:-1 12:-1 
-32 -32 -0 0 0 0 1:1 2:-1 3:-1 4:-1 5:-1 6:-1 7:-1 9:1 10:-1 11:-1 12:-1 
-32 -32 -0 0 0 0 1:1 2:-1 3:-1 4:-1 5:-1 6:-1 7:-1 9:1 10:-1 11:-1 12:-1 
-32 -32 -0 0 0 0 1:1 2:-1 3:-1 4:-1 5:-1 6:-1 7:-1 9:1 10:-1 11:-1 12:-1 
-32 -32 -0 0 0 0 1:1 2:-1 3:-1 4:-1 5:-1 6:-1 7:-1 9:1 10:-1 11:-1 12:-1 
-32 -32 -0 0 0 0 1:1 2:-1 3:-1 4:-1 5:-1 6:-1 7:-1 9:1 10:-1 11:-1 12:-1 
-32 -32 -32 32 32 32 1:-1 2:1 3:-1 4:-1 5:-1 6:-1 7:-1 9:1 10:-1 11:-1 12:-1 
-32 -32 -0 0 0 0 1:1 2:-1 3:-1 4:-1 5:-1 6:-1 7:-1 9:1 10:-1 11:-1 12:-1 
-32 -32 -0 0 0 0 1:1 2:-1 3:-1 4:-1 5:-1 6:-1 7:-1 9:1 10:-1 11:-1 12:-1 
-32 -32 -0 0 0 0 1:1 2:-1 3:-1 4:-1 5:-1 6:-1 7:-1 9:1 10:-1 11:-1 12:-1 
-32 -32 -0 0 0 0 1:1 2:-1 3:-1 4:-1 5:-1 6:-1 7:-1 9:1 10:-1 11:-1 12:-1 
-32 -32 -0 0 0 0 1:1 2:-1 3:-1 4:-1 5:-1 6:-1 7:-1 9:1 10:-1 11:-1 12:-1 
-32 -32 -0 0 0 0 1:1 2:-1 3:-1 4:-1 5:-1 6:-1 7:-1 9:1 10:-1 11:-1 12:-1 
-32 -32 -0 0 0 0 1:1 2:-1 3:-1 4:-1 5:-1 6:-1 7:-1 9:1 10:-1 11:-1 12:-1 
-32 -32 -0 0 0 0 1:1 2:-1 3:-1 4:-1 5:-1 6:-1 7:-1 9:1 10:-1 11:-1 12:-1 
-32 -32 -0 0 0 0 1:1 2:-1 3:-1 4:-1 5:-1 6:-1 7:-1 9:1 10:-1 11:-1 12:-1 
-32 -32 -0 0 0 0 1:1 2:-1 3:-1 4:-1 5:-1 6:-1 7:-1 9:1 10:-1 11:-1 12:-1 
-32 -32 -0 0 0 0 1:1 2:-1 3:-1 4:-1 5:-1 6:-1 7:-1 9:1 10:-1 11:-1 12:-1 
-32 -32 -0 0 0 0 1:1 2:-1 3:-1 4:-1 5:-1 6:-1 7:-1 9:1 10:-1 11:-1 12:-1 
-32 -32 -0 0 0 0 1:1 2:-1 3:-1 4:-1 5:-1 6:-1 7:-1 9:1 10:-1 11:-1 12:-1 
-32 -32 -0 0 0 0 1:1 2:-1 3:-1 4:-1 5:-1 6:-1 7:-1 9:1 10:-1 11:-1 12:-1 
-32 -32 -0 0 0 0 1:1 2:-1 3:-1 4:-1 5:-1 6:-1 7:-1 9:1 10:-1 11:-1 12:-1 
-32 -32 -0 0 0 0 1:1 2:-1 3:-1 4:-1 5:-1 6:-1 7:-1 9:1 10:-1 11:-1 12:-1 
-32 -32 -0 0 0 0 1:1 2:-1 3:-1 4:-1 5:-1 6:-1 7:-1 9:1 10:-1 11:-1 12:-1 
-32 -32 -0 0 0 0 1:1 2:-1 3:-1 4:-1 5:-1 6:-1 7:-1 9:1 10:-1 11:-1 12:-1 
-32 -32 -0 0 0 0 1:1 2:-1 3:-1 4:-1 5:-1 6:-1 7:-1 9:1 10:-1 11:-1 12:-1 
-32 -32 -0 0 0 0 1:1 2:-1 3:-1 4:-1 5:-1 6:-1 7:-1 9:1 10:-1 11:-1 12:-1 
-32 -32 -0 0 0 0 1:1 2:-1 3:-1 4:-1 5:-1 6:-1 7:-1 9:1 10:-1 11:-1 12:-1 
-32 -32 -0 0 0 0 1:1 2:-1 3:-1 4:-1 5:-1 6:-1 7:-1 9:1 10:-1 11:-1 12:-1 
-32 -32 -0 0 0 0 1:1 2:-1 3:-1 4:-1 5:-1 6:-1 7:-1 9:1 10:-1 11:-1 12:-1 
-32 -32 -0 0 0 0 1:1 2:-1 3:-1 4:-1 5:-1 6:-1 7:-1 9:1 10:-1 11:-1 12:-1 
-32 -32 -0 0 0 0 1:1 2:-1 3:-1 4:-1 5:-1 6:-1 7:-1 9:1 10:-1 11:-1 12:-1 
-32 -32 -0 0 0 0 1:1 2:-1 3:-1 4:-1 5:-1 6:-1 7:-1 9:1 10:-1 11:-1 12:-1 
-32 -32 -0 0 0 0 1:1 2:-1 3:-1 4:-1 5:-1 6:-1 7:-1 9:1 10:-1 11:-1 12:-1 
-32 -32 -0 0 0 0 1:1 2:-1 3:-1 4:-1 5:-1 6:-1 7:-1 9:1 10:-1 11:-1 12:-1 
-32 -32 -0 0 0 0 1:1 2:-1 3:-1 4:-1 5:-1 6:-1 7:-1 9:1 10:-1 11:-1 12:-1 
-32 -32 -0 0 0 0 1:1 2:-1 3:-1 4:-1 5:-1 6:-1 7:-1 9:1 10:-1 11:-1 12:-1 
-32 -32 -0 0 0 0 1:1 2:-1 3:-1 4:-1 5:-1 6:-1 7:-1 9:1 10:-1 11:-1 12:-1 
-32 -32 -0 0 0 0 1:1 2:-1 3:-1 4:-1 5:-1 6:-1 7:-1 9:1 10:-1 11:-1 12:-1 
-32 -32 -0 0 0 0 1:1 2:-1 3:-1 4:-1 5:-1 6:-1 7:-1 9:1 10:-1 11:-1 12:-1 
-32 -32 -0 0 0 0 1:1 2:-1 3:-1 4:-1 5:-1 6:-1 7:-1 9:1 10:-1 11:-1 12:-1 
-32 -32 -0 0 0 0 1:1 2:-1 3:-1 4:-1 5:-1 6:-1 7:-1 9:1 10:-1 11:-1 12:-1 
-32 -32 -0 0 0 0 1:1 2:-1 3:-1 4:-1 5:-1 6:-1 7:-1 9:1 10:-1 11:-1 12:-1 
-32 -32 -0 0 0 0 1:1 2:-1 3:-1 4:-1 5:-1 6:-1 7:-1 9:1 10:-1 11:-1 12:-1 
-32 -32 -0 0 0 0 1:1 2:-1 3:-1 4:-1 5:-1 6:-1 7:-1 9:1 10:-1 11:-1 12:-1 
-32 -32 -0 0 0 0 1:1 2:-1 3:-1 4:-1 5:-1 6:-1 7:-1 9:1 10:-1 11:-1 12:-1 
-32 -32 -0 0 0 0 1:1 2:-1 3:-1 4:-1 5:-1 6:-1 7:-1 9:1 10:-1 11:-1 12:-1 
-32 -32 -0 0 0 0 1:1 2:-1 3:-1 4:-1 5:-1 6:-1 7:-1 9:1 10:-1 11:-1 12:-1 
-32 -32 -0 0 0 0 1:1 2:-1 3:-1 4:-1 5:-1 6:-1 7:-1 9:1 10:-1 11:-1 12:-1 
-32 -32 -0 0 0 0 1:1 2:-1 3:-1 4:-1 5:-1 6:-1 7:-1 9:1 10:-1 11:-1 12:-1 
-32 -32 -0 0 0 0 1:1 2:-1 3:-1 4:-1 5:-1 6:-1 7:-1 9:1 10:-1 11:-1 12:-1 
-32 -32 -0 0 0 0 1:1 2:-1 3:-1 4:-1 5:-1 6:-1 7:-1 9:1 10:-1 11:-1 12:-1 
-32 -32 -0 0 0 0 1:1 2:-1 3:-1 4:-1 5:-1 6:-1 7:-1 9:1 10:-1 11:-1 12:-1 
-32 -32 -0 0 0 0 1:1 2:-1 3:-1 4:-1 5:-1 6:-1 7:-1 9:1 10:-1 11:-1 12:-1 
-32 -32 -0 0 0 0 1:1 2:-1 3:-1 4:-1 5:-1 6:-1 7:-1 9:1 10:-1 11:-1 12:-1 
-32 -32 -0 0 0 0 1:1 2:-1 3:-1 4:-1 5:-1 6:-1 7:-1 9:1 10:-1 11:-1 12:-1 
-32 -32 -0 0 0 0 1:1 2:-1 3:-1 4:-1 5:-1 6:-1 7:-1 9:1 10:-1 11:-1 12:-1 
-32 -32 -0 0 0 0 1:1 2:-1 3:-1 4:-1 5:-1 6:-1 7:-1 9:1 10:-1 11:-1 12:-1 
-32 -32 -0 0 0 0 1:1 2:-1 3:-1 4:-1 5:-1 6:-1 7:-1 9:1 10:-1 11:-1 12:-1 
-32 -32 -0 0 0 0 1:1 2:-1 3:-1 4:-1 5:-1 6:-1 7:-1 9:1 10:-1 11:-1 12:-1 
-32 -32 -0 0 0 0 1:1 2:-1 3:-1 4:-1 5:-1 6:-1 7:-1 9:1 10:-1 11:-1 12:-1 
-32 -32 -0 0 0 0 1:1 2:-1 3:-1 4:-1 5:-1 6:-1 7:-1 9:1 10:-1 11:-1 12:-1 
-32 -32 -0 0 0 0 1:1 2:-1 3:-1 4:-1 5:-1 6:-1 7:-1 9:1 10:-1 11:-1 12:-1 
-32 -32 -0 0 0 0 1:1 2:-1 3:-1 4:-1 5:-1 6:-1 7:-1 9:1 10:-1 11:-1 12:-1 
-32 -32 -0 0 0 0 1:1 2:-1 3:-1 4:-1 5:-1 6:-1 7:-1 9:1 10:-1 11:-1 12:-1 
-32 -32 -0 0 0 0 1:1 2:-1 3:-1 4:-1 5:-1 6:-1 7:-1 9:1 10:-1 11:-1 12:-1 
-32 -32 -0 0 0 0 1:1 2:-1 3:-1 4:-1 5:-1 6:-1 7:-1 9:1 10:-1 11:-1 12:-1 
-2.694039067297812 -0.764181690135847 -8.168431985423576 8.217240980832777 2.460684458988043 8.074017789796883 1:-1 2:-1 3:-1 4:-1 5:1 6:-1 7:-1 9:-1 10:-1 11:1 12:-1 
-32 -32 -0 0 0 0 1:1 2:-1 3:-1 4:-1 5:-1 6:-1 7:-1 9:1 10:-1 11:-1 12:-1 
-32 -32 -0 0 0 0 1:1 2:-1 3:-1 4:-1 5:-1 6:-1 7:-1 9:1 10:-1 11:-1 12:-1 
-32 -32 -0 0 0 0 1:1 2:-1 3:-1 4:-1 5:-1 6:-1 7:-1 9:1 10:-1 11:-1 12:-1 
-32 -32 -14.02523573996694 0 0 0 1:1 2:-1 3:-1 4:-1 5:-1 6:-1 7:-1 9:1 10:-1 11:-1 12:-1 
-32 -32 -32 0 0 0 1:1 2:-1 3:-1 4:-1 5:-1 6:-1 7:-1 9:1 10:-1 11:-1 12:-1 
-32 -32 -32 0 0 0 1:1 2:-1 3:-1 4:-1 5:-1 6:-1 7:-1 9:1 10:-1 11:-1 12:-1 
-32 -32 -32 0 0 0 1:1 2:-1 3:-1 4:-1 5:-1 6:-1 7:-1 9:1 10:-1 11:-1 12:-1 
-32 -32 -32 0 0 0 1:1 2:-1 3:-1 4:-1 5:-1 6:-1 7:-1 9:1 10:-1 11:-1 12:-1 
-32 -32 -32 0 0 0 1:1 2:-1 3:-1 4:-1 5:-1 6:-1 7:-1 9:1 10:-1 11:-1 12:-1 
-32 -32 -32 0 0 0 1:1 2:-1 3:-1 4:-1 5:-1 6:-1 7:-1 9:1 10:-1 11:-1 12:-1 
-32 -32 -32 0 0 0 1:1 2:-1 3:-1 4:-1 5:-1 6:-1 7:-1 9:1 10:-1 11:-1 12:-1 
-32 -32 -32 0 0 0 1:1 2:-1 3:-1 4:-1 5:-1 6:-1 7:-1 9:1 10:-1 11:-1 12:-1 
-32 -32 -32 0 0 12.38197984473318 1:1 2:-1 3:-1 4:-1 5:-1 6:-1 7:-1 9:1 10:-1 11:-1 12:-1 
-32 -32 -32 0 0 32 1:1 2:-1 3:-1 4:-1 5:-1 6:-1 7:-1 9:1 10:-1 11:-1 12:-1 
-32 -32 -32 0 0 32 1:1 2:-1 3:-1 4:-1 5:-1 6:-1 7:-1 9:1 10:-1 11:-1 12:-1 
-32 -32 -32 0 0 32 1:1 2:-1 3:-1 4:-1 5:-1 6:-1 7:-1 9:1 10:-1 11:-1 12:-1 
-32 -32 -32 0 0 32 1:1 2:-1 3:-1 4:-1 5:-1 6:-1 7:-1 9:1 10:-1 11:-1 12:-1 
-32 -32 -32 0 0 32 1:1 2:-1 3:-1 4:-1 5:-1 6:-1 7:-1 9:1 10:-1 11:-1 12:-1 
-32 -32 -32 0 0 32 1:1 2:-1 3:-1 4:-1 5:-1 6:-1 7:-1 9:1 10:-1 11:-1 12:-1 
-32 -32 -32 0 0 32 1:1 2:-1 3:-1 4:-1 5:-1 6:-1 7:-1 9:1 10:-1 11:-1 12:-1 
-4.671743205823012 -0 -0 0 0 0 1:-1 2:-1 3:-1 4:-1 5:1 6:-1 7:-1 9:1 10:-1 11:-1 12:-1 
-32 -32 -32 14.33083439122344 0 32 1:1 2:-1 3:-1 4:-1 5:-1 6:-1 7:-1 9:1 10:-1 11:-1 12:-1 
-32 -32 -32 32 7.307368037695925 32 1:1 2:-1 3:-1 4:-1 5:-1 6:-1 7:-1 9:1 10:-1 11:-1 12:-1 
-32 -0 -0 0 0 0 1:-1 2:-1 3:-1 4:-1 5:1 6:-1 7:-1 9:1 10:-1 11:-1 12:-1 
-32 -32 -32 32 32 32 1:1 2:-1 3:-1 4:-1 5:-1 6:-1 7:-1 9:1 10:-1 11:-1 12:-1 
-32 -32 -32 32 32 32 1:1 2:-1 3:-1 4:-1 5:-1 6:-1 7:-1 9:1 10:-1 11:-1 12:-1 
-32 -32 -32 32 32 32 1:1 2:-1 3:-1 4:-1 5:-1 6:-1 7:-1 9:1 10:-1 11:-1 12:-1 
-32 -32 -32 32 32 32 1:1 2:-1 3:-1 4:-1 5:-1 6:-1 7:-1 9:1 10:-1 11:-1 12:-1 
-32 -32 -32 32 32 32 1:1 2:-1 3:-1 4:-1 5:-1 6:-1 7:-1 9:1 10:-1 11:-1 12:-1 
-32 -0 -0 0 0 0 1:-1 2:-1 3:-1 4:-1 5:1 6:-1 7:-1 9:1 10:-1 11:-1 12:-1 
-32 -32 -32 32 32 32 1:1 2:-1 3:-1 4:-1 5:-1 6:-1 7:-1 9:1 10:-1 11:-1 12:-1 
-32 -9.041623429343318 -0 0 0 0 1:-1 2:-1 3:-1 4:-1 5:1 6:-1 7:-1 9:1 10:-1 11:-1 12:-1 
-32 -32 -0 0 0 0 1:-1 2:-1 3:-1 4:-1 5:1 6:-1 7:-1 9:1 10:-1 11:-1 12:-1 
-32 -32 -0 0 0 0 1:-1 2:-1 3:-1 4:-1 5:1 6:-1 7:-1 9:1 10:-1 11:-1 12:-1 
-32 -32 -0 0 0 0 1:-1 2:-1 3:-1 4:-1 5:1 6:-1 7:-1 9:1 10:-1 11:-1 12:-1 
-32 -32 -0 0 0 0 1:-1 2:-1 3:-1 4:-1 5:1 6:-1 7:-1 9:1 10:-1 11:-1 12:-1 
-32 -32 -0 0 0 0 1:-1 2:-1 3:-1 4:-1 5:1 6:-1 7:-1 9:1 10:-1 11:-1 12:-1 
-32 -32 -0 0 0 0 1:-1 2:-1 3:-1 4:-1 5:1 6:-1 7:-1 9:1 10:-1 11:-1 12:-1 
-32 -32 -32 32 32 32 1:1 2:-1 3:-1 4:-1 5:-1 6:-1 7:-1 9:1 10:-1 11:-1 12:-1 
-32 -32 -31.64911210824924 32 32 32 1:1 2:-1 3:-1 4:-1 5:-1 6:-1 7:-1 9:1 10:-1 11:-1 12:-1 
-32 -29.10363756017247 -0 0 1.304480488535356 0 1:-1 2:-1 3:-1 4:-1 5:1 6:-1 7:-1 9:1 10:-1 11:-1 12:-1 
-0 -0 -32 -0 0 0 1:-1 2:-1 3:1 4:-1 5:-1 6:-1 7:-1 9:-1 10:1 11:-1 12:-1 
-1.417858256321423 -1.605782603614515 -32 -0 0 0 1:-1 2:-1 3:1 4:-1 5:-1 6:-1 7:-1 9:-1 10:1 11:-1 12:-1 
-32 -32 -32 -32 7.493033012328378 32 1:1 2:-1 3:-1 4:-1 5:-1 6:-1 7:-1 9:1 10:-1 11:-1 12:-1 
-3.274447198247475 -0.9349548559282086 -0.7063389519589378 -2.183851658496185 32 2.065923751933075 1:1 2:-1 3:-1 4:-1 5:-1 6:-1 7:-1 9:-1 10:-1 11:-1 12:1 
-32 -32 -32 -32 32 32 1:1 2:-1 3:-1 4:-1 5:-1 6:-1 7:-1 9:1 10:-1 11:-1 12:-1 
-0 -0 -0 -0 32 0 1:-1 2:1 3:-1 4:-1 5:-1 6:-1 7:-1 9:-1 10:-1 11:-1 12:1 
-1.424284392845346 -1.613530792886837 -4.757856644595805 -0 6.327570594216455 0 1:-1 2:-1 3:1 4:-1 5:-1 6:-1 7:-1 9:-1 10:-1 11:-1 12:1 
-32 -32 -32 -0 0 0 1:-1 2:-1 3:1 4:-1 5:-1 6:-1 7:-1 9:1 10:-1 11:-1 12:-1 
-32 -32 -32 -32 32 32 1:1 2:-1 3:-1 4:-1 5:-1 6:-1 7:-1 9:1 10:-1 11:-1 12:-1 
-4.520811714671659 -0 -0 -0 0 0 1:1 2:-1 3:-1 4:-1 5:-1 6:-1 7:-1 9:-1 10:1 11:-1 12:-1 
-32 -0 -0 -0 0 0 1:1 2:-1 3:-1 4:-1 5:-1 6:-1 7:-1 9:-1 10:1 11:-1 12:-1 
-32 -0 -0 -0 0 0 1:1 2:-1 3:-1 4:-1 5:-1 6:-1 7:-1 9:-1 10:1 11:-1 12:-1 
-32 -0 -0 -0 0 0 1:1 2:-1 3:-1 4:-1 5:-1 6:-1 7:-1 9:-1 10:1 11:-1 12:-1 
-32 -0 -0 -0 0 0 1:1 2:-1 3:-1 4:-1 5:-1 6:-1 7:-1 9:-1 10:1 11:-1 12:-1 
-32 -0 -0 -0 0 0 1:1 2:-1 3:-1 4:-1 5:-1 6:-1 7:-1 9:-1 10:1 11:-1 12:-1 
-0 -0 -0 -0 32 0 1:-1 2:1 3:-1 4:-1 5:-1 6:-1 7:-1 9:-1 10:-1 11:-1 12:1 
-32 -32 -32 -32 32 32 1:1 2:-1 3:-1 4:-1 5:-1 6:-1 7:-1 9:1 10:-1 11:-1 12:-1 
-32 -32 -32 -32 32 32 1:1 2:-1 3:-1 4:-1 5:-1 6:-1 7:-1 9:1 10:-1 11:-1 12:-1 
-32 -32 -32 -0 0 0 1:-1 2:-1 3:1 4:-1 5:-1 6:-1 7:-1 9:1 10:-1 11:-1 12:-1 
-32 -32 -32 -0 0 0 1:-1 2:-1 3:1 4:-1 5:-1 6:-1 7:-1 9:1 10:-1 11:-1 12:-1 
-32 -0 -0 -0 0 0 1:1 2:-1 3:-1 4:-1 5:-1 6:-1 7:-1 9:-1 10:1 11:-1 12:-1 
-32 -0 -0 -0 0 0 1:1 2:-1 3:-1 4:-1 5:-1 6:-1 7:-1 9:-1 10:1 11:-1 12:-1 
-32 -0 -0 -0 0 0 1:1 2:-1 3:-1 4:-1 5:-1 6:-1 7:-1 9:-1 10:1 11:-1 12:-1 
-32 -0 -0 -0 0 0 1:1 2:-1 3:-1 4:-1 5:-1 6:-1 7:-1 9:-1 10:1 11:-1 12:-1 
-6.286388174693911 -0 -0 -0 0 0 1:-1 2:1 3:-1 4:-1 5:-1 6:-1 7:-1 9:1 10:-1 11:-1 12:-1 
-32 -0 -32 -0 0 2.939835826934196 1:1 2:-1 3:-1 4:-1 5:-1 6:-1 7:-1 9:-1 10:-1 11:1 12:-1 
-32 -2.191278051530706 -32 -8.584472533137395 2.25347143992576 31.12608792499888 1:1 2:-1 3:-1 4:-1 5:-1 6:-1 7:-1 9:-1 10:-1 11:1 12:-1 
-32 -0 -0 -0 0 0 1:-1 2:1 3:-1 4:-1 5:-1 6:-1 7:-1 9:1 10:-1 11:-1 12:-1 
-32 -0 -0 -0 0 0 1:-1 2:1 3:-1 4:-1 5:-1 6:-1 7:-1 9:1 10:-1 11:-1 12:-1 
-32 -0 -0 -0 0 0 1:-1 2:1 3:-1 4:-1 5:-1 6:-1 7:-1 9:1 10:-1 11:-1 12:-1 
-32 -0 -0 -0 0 0 1:1 2:-1 3:-1 4:-1 5:-1 6:-1 7:-1 9:-1 10:1 11:-1 12:-1 
-32 -0 -0 -0 0 0 1:1 2:-1 3:-1 4:-1 5:-1 6:-1 7:-1 9:-1 10:1 11:-1 12:-1 
-32 -0 -0 -0 0 0 1:1 2:-1 3:-1 4:-1 5:-1 6:-1 7:-1 9:-1 10:1 11:-1 12:-1 
-32 -0 -0 -0 0 0 1:1 2:-1 3:-1 4:-1 5:-1 6:-1 7:-1 9:-1 10:1 11:-1 12:-1 
-32 -0 -0 -0 0 0 1:1 2:-1 3:-1 4:-1 5:-1 6:-1 7:-1 9:-1 10:1 11:-1 12:-1 
-32 -0 -0 -0 0 0 1:1 2:-1 3:-1 4:-1 5:-1 6:-1 7:-1 9:-1 10:1 11:-1 12:-1 
-32 -0 -0 -0 0 0 1:-1 2:1 3:-1 4:-1 5:-1 6:-1 7:-1 9:1 10:-1 11:-1 12:-1 
-32 -32 -32 -0 0 0 1:-1 2:-1 3:1 4:-1 5:-1 6:-1 7:-1 9:1 10:-1 11:-1 12:-1 
-32 -0 -0 -0 0 0 1:1 2:-1 3:-1 4:-1 5:-1 6:-1 7:-1 9:-1 10:1 11:-1 12:-1 
-32 -0 -0 -0 0 0 1:1 2:-1 3:-1 4:-1 5:-1 6:-1 7:-1 9:-1 10:1 11:-1 12:-1 
-32 -0 -0 -0 0 0 1:1 2:-1 3:-1 4:-1 5:-1 6:-1 7:-1 9:-1 10:1 11:-1 12:-1 
-32 -0 -0 -0 0 0 1:-1 2:1 3:-1 4:-1 5:-1 6:-1 7:-1 9:1 10:-1 11:-1 12:-1 
-32 -0 -8.221011006443415 -0 0 0 1:-1 2:1 3:-1 4:-1 5:-1 6:-1 7:-1 9:1 10:-1 11:-1 12:-1 
-32 -6.910187395491764 -32 -4.873689731503767 1.434742205245355 4.271944596222805 1:-1 2:1 3:-1 4:-1 5:-1 6:-1 7:-1 9:1 10:-1 11:-1 12:-1 
-30.77396627346252 -32 -32 -31.92471411050205 32 31.90593212697827 1:-1 2:1 3:-1 4:-1 5:-1 6:-1 7:-1 9:1 10:-1 11:-1 12:-1 
-32 -32 -32 -32 32 32 1:1 2:-1 3:-1 4:-1 5:-1 6:-1 7:-1 9:1 10:-1 11:-1 12:-1 
-32 -32 -32 -32 32 32 1:1 2:-1 3:-1 4:-1 5:-1 6:-1 7:-1 9:1 10:-1 11:-1 12:-1 
-32 -32 -32 -0 0 4.52081171467166 1:-1 2:-1 3:1 4:-1 5:-1 6:-1 7:-1 9:1 10:-1 11:-1 12:-1 
-32 -32 -32 -4.798494630013955 0 31.65706500852942 1:-1 2:-1 3:1 4:-1 5:-1 6:-1 7:-1 9:1 10:-1 11:-1 12:-1 
-32 -0 -0 -0 0 0 1:1 2:-1 3:-1 4:-1 5:-1 6:-1 7:-1 9:-1 10:1 11:-1 12:-1 
-32 -0 -0 -0 0 0 1:1 2:-1 3:-1 4:-1 5:-1 6:-1 7:-1 9:-1 10:1 11:-1 12:-1 
-32 -32 -32 -32 32 32 1:1 2:-1 3:-1 4:-1 5:-1 6:-1 7:-1 9:1 10:-1 11:-1 12:-1 
-32 -0 -0 -0 0 0 1:1 2:-1 3:-1 4:-1 5:-1 6:-1 7:-1 9:-1 10:1 11:-1 12:-1 
-32 -0 -0 -0 0 0 1:1 2:-1 3:-1 4:-1 5:-1 6:-1 7:-1 9:-1 10:1 11:-1 12:-1 
-32 -0 -0 -0 0 0 1:1 2:-1 3:-1 4:-1 5:-1 6:-1 7:-1 9:-1 10:1 11:-1 12:-1 
-32 -32 -32 -32 31.56383055490406 32 1:1 2:-1 3:-1 4:-1 5:-1 6:-1 7:-1 9:1 10:-1 11:-1 12:-1 
-32 -0 -0 -0 0 0 1:1 2:-1 3:-1 4:-1 5:-1 6:-1 7:-1 9:-1 10:1 11:-1 12:-1 
-32 -0 -0 -0 0 0 1:1 2:-1 3:-1 4:-1 5:-1 6:-1 7:-1 9:-1 10:1 11:-1 12:-1 
-32 -0 -13.27919582945445 -0 0 0 1:1 2:-1 3:-1 4:-1 5:-1 6:-1 7:-1 9:-1 10:1 11:-1 12:-1 
-32 -0 -32 -0 0 0 1:1 2:-1 3:-1 4:-1 5:-1 6:-1 7:-1 9:-1 10:1 11:-1 12:-1 
-30.76188680631116 -0.9416983936963539 -32 -2.182852708402863 2.251715136249689 2.06953024961439 1:1 2:-1 3:-1 4:-1 5:-1 6:-1 7:-1 9:-1 10:1 11:-1 12:-1 
-1.846217444112158 -0 -8.221733281316554 -0 0 0 1:-1 2:1 3:-1 4:-1 5:-1 6:-1 7:-1 9:-1 10:-1 11:1 12:-1 
-0 -0 -32 -0 0 0 1:-1 2:1 3:-1 4:-1 5:-1 6:-1 7:-1 9:-1 10:1 11:-1 12:-1 
-0 -0 -32 -0 0 0 1:-1 2:1 3:-1 4:-1 5:-1 6:-1 7:-1 9:-1 10:1 11:-1 12:-1 
-0 -0 -20.61332963861411 -0 0 0 1:-1 2:1 3:-1 4:-1 5:-1 6:-1 7:-1 9:-1 10:1 11:-1 12:-1 
-32 -32 -32 -32 -32 32 1:-1 2:1 3:-1 4:-1 5:-1 6:-1 7:-1 9:1 10:-1 11:-1 12:-1 
-0 -0 -0 -0 -32 0 1:-1 2:1 3:-1 4:-1 5:-1 6:-1 7:-1 9:-1 10:-1 11:-1 12:1 
-32 -32 -32 -32 -32 32 1:1 2:-1 3:-1 4:-1 5:-1 6:-1 7:-1 9:1 10:-1 11:-1 12:-1 
-32 -32 -32 -32 -32 32 1:1 2:-1 3:-1 4:-1 5:-1 6:-1 7:-1 9:1 10:-1 11:-1 12:-1 
-2.582275444133585 -0.1214288730083805 -3.423613242594716 -0 -32 0 1:-1 2:1 3:-1 4:-1 5:-1 6:-1 7:-1 9:-1 10:-1 11:-1 12:1 
-32 -32 -32 -32 -32 32 1:1 2:-1 3:-1 4:-1 5:-1 6:-1 7:-1 9:1 10:-1 11:-1 12:-1 
-32 -32 -32 -32 -32 32 1:1 2:-1 3:-1 4:-1 5:-1 6:-1 7:-1 9:1 10:-1 11:-1 12:-1 
-32 -32 -32 -32 -32 32 1:1 2:-1 3:-1 4:-1 5:-1 6:-1 7:-1 9:1 10:-1 11:-1 12:-1 
-32 -32 -32 -32 -32 32 1:1 2:-1 3:-1 4:-1 5:-1 6:-1 7:-1 9:1 10:-1 11:-1 12:-1 
-32 -32 -32 -32 -32 32 1:1 2:-1 3:-1 4:-1 5:-1 6:-1 7:-1 9:1 10:-1 11:-1 12:-1 
-7.121059702393437 -7.018975396507539 -6.660280406040351 -5.822772733413937 -7.604183955681247 6.631867983228078 1:-1 2:-1 3:-1 4:1 5:-1 6:-1 7:-1 9:1 10:-1 11:-1 12:-1 
-0 -0 -0 -0 -11.83479220165026 0 1:1 2:-1 3:-1 4:-1 5:-1 6:-1 7:-1 9:-1 10:-1 11:-1 12:1 
-4.664974938205055 -4.308715904425561 -3.994555381568705 -5.249760251805382 -31.88538678553818 5.894804248377811 1:1 2:-1 3:-1 4:-1 5:-1 6:-1 7:-1 9:-1 10:-1 11:-1 12:1 
-32 -32 -32 -32 -32 32 1:1 2:-1 3:-1 4:-1 5:-1 6:-1 7:-1 9:1 10:-1 11:-1 12:-1 
-32 -32 -32 -32 -0 -0 1:1 2:-1 3:-1 4:-1 5:-1 6:-1 7:-1 9:1 10:-1 11:-1 12:-1 
-32 -32 -32 -32 -32 -32 1:-1 2:1 3:-1 4:-1 5:-1 6:-1 7:-1 9:1 10:-1 11:-1 12:-1 
-32 -32 -32 -32 -0 -0 1:1 2:-1 3:-1 4:-1 5:-1 6:-1 7:-1 9:1 10:-1 11:-1 12:-1 
-32 -32 -32 -32 -0 -0 1:1 2:-1 3:-1 4:-1 5:-1 6:-1 7:-1 9:1 10:-1 11:-1 12:-1 
-32 -32 -32 -32 -0 -0 1:1 2:-1 3:-1 4:-1 5:-1 6:-1 7:-1 9:1 10:-1 11:-1 12:-1 
-32 -32 -32 -32 -0 -0 1:1 2:-1 3:-1 4:-1 5:-1 6:-1 7:-1 9:1 10:-1 11:-1 12:-1 
-32 -32 -32 -32 -0 -0 1:1 2:-1 3:-1 4:-1 5:-1 6:-1 7:-1 9:1 10:-1 11:-1 12:-1 
-32 -32 -32 -32 -0 -0 1:1 2:-1 3:-1 4:-1 5:-1 6:-1 7:-1 9:1 10:-1 11:-1 12:-1 
-32 -32 -32 -32 -9.693384493740457 -0 1:1 2:-1 3:-1 4:-1 5:-1 6:-1 7:-1 9:1 10:-1 11:-1 12:-1 
-32 -32 -32 -32 -32 -4.55288911868116 1:1 2:-1 3:-1 4:-1 5:-1 6:-1 7:-1 9:1 10:-1 11:-1 12:-1 
-32 -32 -32 -32 -32 -32 1:1 2:-1 3:-1 4:-1 5:-1 6:-1 7:-1 9:1 10:-1 11:-1 12:-1 
-32 -32 -32 -32 -32 -32 1:1 2:-1 3:-1 4:-1 5:-1 6:-1 7:-1 9:1 10:-1 11:-1 12:-1 
-32 -32 -32 -32 -32 -32 1:1 2:-1 3:-1 4:-1 5:-1 6:-1 7:-1 9:1 10:-1 11:-1 12:-1 
-32 -32 -32 -32 -32 -32 1:1 2:-1 3:-1 4:-1 5:-1 6:-1 7:-1 9:1 10:-1 11:-1 12:-1 
-32 -32 -32 -32 -32 -32 1:1 2:-1 3:-1 4:-1 5:-1 6:-1 7:-1 9:1 10:-1 11:-1 12:-1 
-32 -32 -32 -4.922918762239257 -32 -2.412756224199563 1:-1 2:-1 3:1 4:-1 5:-1 6:-1 7:-1 9:1 10:-1 11:-1 12:-1 
-32 -32 -32 -32 -32 -32 1:1 2:-1 3:-1 4:-1 5:-1 6:-1 7:-1 9:1 10:-1 11:-1 12:-1 
-32 -4.405467426815799 -32 -10.61233203830906 -32 -3.146819180965509 1:1 2:-1 3:-1 4:-1 5:-1 6:-1 7:-1 9:-1 10:-1 11:1 12:-1 
-7.244660271774468 -7.037688274422645 -6.802206442452313 -4.920746833981749 -4.863746706142242 -2.414207707759658 1:-1 2:-1 3:-1 4:-1 5:-1 6:-1 7:1 9:1 10:-1 11:-1 12:-1 
-32 -32 -32 -32 -32 -32 1:1 2:-1 3:-1 4:-1 5:-1 6:-1 7:-1 9:1 10:-1 11:-1 12:-1 
-32 -32 -32 -32 -32 -32 1:1 2:-1 3:-1 4:-1 5:-1 6:-1 7:-1 9:1 10:-1 11:-1 12:-1 
