svm_type c_svc
kernel_type rbf
gamma 0.03125
nr_class 7
total_sv 448
rho -0.385636 0.423835 -0.365879 -0.184092 -0.164659 -0.229323 0.45865 -0.322524 -0.0519285 0.372519 -0.25925 -0.997834 -0.886659 -0.486273 -0.042159 0.277356 0.467849 0.245954 0.131134 -0.416696 -0.437124
label 0 5 2 4 1 3 6
nr_sv 140 12 91 82 73 22 28
SV
0 32 0 32 0 0 1:-1 2:1 3:-1 4:-1 5:-1 6:-1 7:-1 9:-1 10:1 11:-1 12:-1 13:-1 14:-1 15:-1 17:-1 18:1 19:-1 20:-1 
0 32 0 32 0 0 1:-1 2:1 3:-1 4:-1 5:-1 6:-1 7:-1 9:-1 10:1 11:-1 12:-1 13:-1 14:-1 15:-1 17:-1 18:1 19:-1 20:-1 
0 0 32 0 0 0 1:1 2:-1 3:-1 4:-1 5:-1 6:-1 7:-1 9:-1 10:-1 11:-1 12:-1 13:1 14:-1 15:-1 17:1 18:-1 19:-1 20:-1 
0 0 32 0 0 0 1:-1 2:-1 3:-1 4:-1 5:1 6:-1 7:-1 9:1 10:-1 11:-1 12:-1 13:-1 14:-1 15:-1 17:1 18:-1 19:-1 20:-1 
0 0 0 32 0 0 1:-1 2:1 3:-1 4:-1 5:-1 6:-1 7:-1 9:1 10:-1 11:-1 12:-1 13:-1 14:-1 15:-1 17:1 18:-1 19:-1 20:-1 
0 0 32 0 0 0 1:1 2:-1 3:-1 4:-1 5:-1 6:-1 7:-1 9:-1 10:-1 11:-1 12:-1 13:1 14:-1 15:-1 17:1 18:-1 19:-1 20:-1 
0 0 32 0 0 0 1:1 2:-1 3:-1 4:-1 5:-1 6:-1 7:-1 9:-1 10:-1 11:-1 12:-1 13:1 14:-1 15:-1 17:1 18:-1 19:-1 20:-1 
0 0 0 32 0 0 1:-1 2:1 3:-1 4:-1 5:-1 6:-1 7:-1 9:1 10:-1 11:-1 12:-1 13:-1 14:-1 15:-1 17:1 18:-1 19:-1 20:-1 
0 0 0 32 0 0 1:-1 2:1 3:-1 4:-1 5:-1 6:-1 7:-1 9:1 10:-1 11:-1 12:-1 13:-1 14:-1 15:-1 17:1 18:-1 19:-1 20:-1 
0 0 32 0 0 0 1:1 2:-1 3:-1 4:-1 5:-1 6:-1 7:-1 9:-1 10:-1 11:-1 12:-1 13:1 14:-1 15:-1 17:1 18:-1 19:-1 20:-1 
0 0 32 0 0 0 1:1 2:-1 3:-1 4:-1 5:-1 6:-1 7:-1 9:-1 10:-1 11:-1 12:-1 13:1 14:-1 15:-1 17:1 18:-1 19:-1 20:-1 
0 32 0 0 0 0 1:-1 2:-1 3:1 4:-1 5:-1 6:-1 7:-1 9:-1 10:-1 11:1 12:-1 13:-1 14:-1 15:-1 17:1 18:-1 19:-1 20:-1 
0 32 0 0 0 0 1:1 2:-1 3:-1 4:-1 5:-1 6:-1 7:-1 9:-1 10:1 11:-1 12:-1 13:-1 14:-1 15:-1 17:1 18:-1 19:-1 20:-1 
0 0 32 0 0 0 1:-1 2:-1 3:-1 4:-1 5:1 6:-1 7:-1 9:1 10:-1 11:-1 12:-1 13:-1 14:-1 15:-1 17:1 18:-1 19:-1 20:-1 
0 0 0 32 0 0 1:-1 2:1 3:-1 4:-1 5:-1 6:-1 7:-1 9:1 10:-1 11:-1 12:-1 13:-1 14:-1 15:-1 17:1 18:-1 19:-1 20:-1 
0 0 0 32 0 0 1:-1 2:1 3:-1 4:-1 5:-1 6:-1 7:-1 9:1 10:-1 11:-1 12:-1 13:-1 14:-1 15:-1 17:1 18:-1 19:-1 20:-1 
0 0 32 0 0 0 1:-1 2:-1 3:-1 4:-1 5:1 6:-1 7:-1 9:1 10:-1 11:-1 12:-1 13:-1 14:-1 15:-1 17:1 18:-1 19:-1 20:-1 
0 0 32 0 0 0 1:-1 2:-1 3:-1 4:-1 5:1 6:-1 7:-1 9:1 10:-1 11:-1 12:-1 13:-1 14:-1 15:-1 17:1 18:-1 19:-1 20:-1 
0 0 32 0 0 0 1:-1 2:-1 3:-1 4:-1 5:1 6:-1 7:-1 9:1 10:-1 11:-1 12:-1 13:-1 14:-1 15:-1 17:1 18:-1 19:-1 20:-1 
0 0 32 0 0 0 1:-1 2:-1 3:-1 4:-1 5:1 6:-1 7:-1 9:1 10:-1 11:-1 12:-1 13:-1 14:-1 15:-1 17:1 18:-1 19:-1 20:-1 
0 32 0 30.5678788627929 0 0 1:1 2:-1 3:-1 4:-1 5:-1 6:-1 7:-1 9:-1 10:1 11:-1 12:-1 13:-1 14:-1 15:-1 17:1 18:-1 19:-1 20:-1 
0 0 0 32 0 0 1:-1 2:1 3:-1 4:-1 5:-1 6:-1 7:-1 9:1 10:-1 11:-1 12:-1 13:-1 14:-1 15:-1 17:1 18:-1 19:-1 20:-1 
0 32 0 32 0 0 1:1 2:-1 3:-1 4:-1 5:-1 6:-1 7:-1 9:-1 10:1 11:-1 12:-1 13:-1 14:-1 15:-1 17:-1 18:1 19:-1 20:-1 
0 32 0.05378393771547706 32 0 0.06273595717928447 1:1 2:-1 3:-1 4:-1 5:-1 6:-1 7:-1 9:-1 10:1 11:-1 12:-1 13:-1 14:-1 15:-1 17:-1 18:1 19:-1 20:-1 
0 32 0 32 0 0 1:1 2:-1 3:-1 4:-1 5:-1 6:-1 7:-1 9:-1 10:1 11:-1 12:-1 13:-1 14:-1 15:-1 17:1 18:-1 19:-1 20:-1 
0 32 0 32 0 0 1:1 2:-1 3:-1 4:-1 5:-1 6:-1 7:-1 9:-1 10:1 11:-1 12:-1 13:-1 14:-1 15:-1 17:1 18:-1 19:-1 20:-1 
0 32 0 32 0 0 1:1 2:-1 3:-1 4:-1 5:-1 6:-1 7:-1 9:-1 10:1 11:-1 12:-1 13:-1 14:-1 15:-1 17:1 18:-1 19:-1 20:-1 
0 0 32 0 0 0 1:-1 2:-1 3:-1 4:-1 5:1 6:-1 7:-1 9:1 10:-1 11:-1 12:-1 13:-1 14:-1 15:-1 17:1 18:-1 19:-1 20:-1 
0 32 0 32 0 0 1:1 2:-1 3:-1 4:-1 5:-1 6:-1 7:-1 9:-1 10:1 11:-1 12:-1 13:-1 14:-1 15:-1 17:1 18:-1 19:-1 20:-1 
0 32 0 32 0 0 1:1 2:-1 3:-1 4:-1 5:-1 6:-1 7:-1 9:-1 10:1 11:-1 12:-1 13:-1 14:-1 15:-1 17:1 18:-1 19:-1 20:-1 
0 8.557696230837092 0 0 0 0 1:1 2:-1 3:-1 4:-1 5:-1 6:-1 7:-1 9:1 10:-1 11:-1 12:-1 13:-1 14:-1 15:-1 17:-1 18:-1 19:1 20:-1 
0 0 0 32 0 0 1:-1 2:1 3:-1 4:-1 5:-1 6:-1 7:-1 9:1 10:-1 11:-1 12:-1 13:-1 14:-1 15:-1 17:1 18:-1 19:-1 20:-1 
0 0 0 23.80030413772725 0 0 1:1 2:-1 3:-1 4:-1 5:-1 6:-1 7:-1 9:1 10:-1 11:-1 12:-1 13:-1 14:-1 15:-1 17:-1 18:1 19:-1 20:-1 
0 32 0 32 0 0 1:1 2:-1 3:-1 4:-1 5:-1 6:-1 7:-1 9:-1 10:1 11:-1 12:-1 13:-1 14:-1 15:-1 17:1 18:-1 19:-1 20:-1 
0 32 0 32 0 0 1:1 2:-1 3:-1 4:-1 5:-1 6:-1 7:-1 9:-1 10:1 11:-1 12:-1 13:-1 14:-1 15:-1 17:1 18:-1 19:-1 20:-1 
0 8.785714060256712 0 0 0 0 1:-1 2:-1 3:1 4:-1 5:-1 6:-1 7:-1 9:1 10:-1 11:-1 12:-1 13:-1 14:-1 15:-1 17:1 18:-1 19:-1 20:-1 
0 32 0 0 0 0 1:-1 2:-1 3:1 4:-1 5:-1 6:-1 7:-1 9:1 10:-1 11:-1 12:-1 13:-1 14:-1 15:-1 17:1 18:-1 19:-1 20:-1 
0 32 0 0 0 0 1:1 2:-1 3:-1 4:-1 5:-1 6:-1 7:-1 9:1 10:-1 11:-1 12:-1 13:-1 14:-1 15:-1 17:-1 18:-1 19:1 20:-1 
0 0 32 0 0 0 1:-1 2:-1 3:-1 4:-1 5:1 6:-1 7:-1 9:1 10:-1 11:-1 12:-1 13:-1 14:-1 15:-1 17:1 18:-1 19:-1 20:-1 
0 32 0 0 32 0 1:-1 2:-1 3:-1 4:1 5:-1 6:-1 7:-1 9:1 10:-1 11:-1 12:-1 13:-1 14:-1 15:-1 17:1 18:-1 19:-1 20:-1 
1.563547578363982 32 1.864787165119083 1.910324508819364 32 2.620163323547294 1:-1 2:-1 3:-1 4:1 5:-1 6:-1 7:-1 9:1 10:-1 11:-1 12:-1 13:-1 14:-1 15:-1 17:1 18:-1 19:-1 20:-1 
0 0 32 0 0 0 1:-1 2:-1 3:-1 4:-1 5:1 6:-1 7:-1 9:1 10:-1 11:-1 12:-1 13:-1 14:-1 15:-1 17:1 18:-1 19:-1 20:-1 
0 0 32 0 0 0 1:1 2:-1 3:-1 4:-1 5:-1 6:-1 7:-1 9:-1 10:-1 11:-1 12:-1 13:1 14:-1 15:-1 17:1 18:-1 19:-1 20:-1 
0 0.1850909278459576 32 0 0 0 1:-1 2:-1 3:-1 4:-1 5:1 6:-1 7:-1 9:1 10:-1 11:-1 12:-1 13:-1 14:-1 15:-1 17:1 18:-1 19:-1 20:-1 
0 0 0 32 0 0 1:1 2:-1 3:-1 4:-1 5:-1 6:-1 7:-1 9:1 10:-1 11:-1 12:-1 13:-1 14:-1 15:-1 17:-1 18:1 19:-1 20:-1 
0 0 0 32 0 0 1:1 2:-1 3:-1 4:-1 5:-1 6:-1 7:-1 9:1 10:-1 11:-1 12:-1 13:-1 14:-1 15:-1 17:-1 18:1 19:-1 20:-1 
0.8388420901449324 32 0.1945073615929352 32 6.823568651151276 0.2386116201087901 1:-1 2:1 3:-1 4:-1 5:-1 6:-1 7:-1 9:-1 10:1 11:-1 12:-1 13:-1 14:-1 15:-1 17:-1 18:1 19:-1 20:-1 
0.1257801858369826 30.8598686759782 1.467151183252809 32 32 0.5013350359165977 1:-1 2:1 3:-1 4:-1 5:-1 6:-1 7:-1 9:-1 10:1 11:-1 12:-1 13:-1 14:-1 15:-1 17:1 18:-1 19:-1 20:-1 
0 0 0 32 0 0 1:-1 2:1 3:-1 4:-1 5:-1 6:-1 7:-1 9:1 10:-1 11:-1 12:-1 13:-1 14:-1 15:-1 17:1 18:-1 19:-1 20:-1 
0.9569593469056743 0 0 32 0 0 1:-1 2:1 3:-1 4:-1 5:-1 6:-1 7:-1 9:1 10:-1 11:-1 12:-1 13:-1 14:-1 15:-1 17:1 18:-1 19:-1 20:-1 
0 0 0 32 0 0 1:1 2:-1 3:-1 4:-1 5:-1 6:-1 7:-1 9:1 10:-1 11:-1 12:-1 13:-1 14:-1 15:-1 17:-1 18:1 19:-1 20:-1 
0 0 0 32 0 0 1:1 2:-1 3:-1 4:-1 5:-1 6:-1 7:-1 9:1 10:-1 11:-1 12:-1 13:-1 14:-1 15:-1 17:-1 18:1 19:-1 20:-1 
0 0 32 0 0 4.130526613596322 1:1 2:-1 3:-1 4:-1 5:-1 6:-1 7:-1 9:-1 10:-1 11:-1 12:-1 13:1 14:-1 15:-1 17:1 18:-1 19:-1 20:-1 
0 0 32 0 0 32 1:1 2:-1 3:-1 4:-1 5:-1 6:-1 7:-1 9:-1 10:-1 11:-1 12:-1 13:1 14:-1 15:-1 17:1 18:-1 19:-1 20:-1 
0 32 0 0 0 0 1:1 2:-1 3:-1 4:-1 5:-1 6:-1 7:-1 9:1 10:-1 11:-1 12:-1 13:-1 14:-1 15:-1 17:-1 18:-1 19:1 20:-1 
0 0 0 32 0 0 1:1 2:-1 3:-1 4:-1 5:-1 6:-1 7:-1 9:1 10:-1 11:-1 12:-1 13:-1 14:-1 15:-1 17:-1 18:1 19:-1 20:-1 
0.2416392363629721 32 0.2474051006181925 7.174900405934945 1.820454230642634 0.300992520513055 1:1 2:-1 3:-1 4:-1 5:-1 6:-1 7:-1 9:1 10:-1 11:-1 12:-1 13:-1 14:-1 15:-1 17:-1 18:-1 19:1 20:-1 
32 0 0 32 0 0 1:-1 2:1 3:-1 4:-1 5:-1 6:-1 7:-1 9:1 10:-1 11:-1 12:-1 13:-1 14:-1 15:-1 17:1 18:-1 19:-1 20:-1 
32 0 0.6041939943304558 32 15.74538107987992 2.081148132587161 1:-1 2:1 3:-1 4:-1 5:-1 6:-1 7:-1 9:1 10:-1 11:-1 12:-1 13:-1 14:-1 15:-1 17:1 18:-1 19:-1 20:-1 
0 0 0 32 0 0 1:1 2:-1 3:-1 4:-1 5:-1 6:-1 7:-1 9:1 10:-1 11:-1 12:-1 13:-1 14:-1 15:-1 17:-1 18:1 19:-1 20:-1 
0 0 0 32 0 0 1:1 2:-1 3:-1 4:-1 5:-1 6:-1 7:-1 9:1 10:-1 11:-1 12:-1 13:-1 14:-1 15:-1 17:-1 18:1 19:-1 20:-1 
0.9560218286101126 32 3.260904346074617 32 10.79778211378761 1.328578411224821 1:1 2:-1 3:-1 4:-1 5:-1 6:-1 7:-1 9:-1 10:1 11:-1 12:-1 13:-1 14:-1 15:-1 17:1 18:-1 19:-1 20:-1 
0 3.868376873171842 0 0 0 0 1:1 2:-1 3:-1 4:-1 5:-1 6:-1 7:-1 9:-1 10:-1 11:1 12:-1 13:-1 14:-1 15:-1 17:1 18:-1 19:-1 20:-1 
0 0 32 0 0 32 1:1 2:-1 3:-1 4:-1 5:-1 6:-1 7:-1 9:-1 10:-1 11:-1 12:-1 13:1 14:-1 15:-1 17:1 18:-1 19:-1 20:-1 
0 0 0 32 0 0 1:1 2:-1 3:-1 4:-1 5:-1 6:-1 7:-1 9:1 10:-1 11:-1 12:-1 13:-1 14:-1 15:-1 17:-1 18:1 19:-1 20:-1 
0 0 0 32 0 0 1:1 2:-1 3:-1 4:-1 5:-1 6:-1 7:-1 9:1 10:-1 11:-1 12:-1 13:-1 14:-1 15:-1 17:-1 18:1 19:-1 20:-1 
3.082050497868987 2.056424403071806 32 0.1530395478136994 0.3404514417827305 32 1:1 2:-1 3:-1 4:-1 5:-1 6:-1 7:-1 9:-1 10:-1 11:-1 12:-1 13:1 14:-1 15:-1 17:1 18:-1 19:-1 20:-1 
0 32 0 0 0 0 1:-1 2:-1 3:1 4:-1 5:-1 6:-1 7:-1 9:-1 10:-1 11:1 12:-1 13:-1 14:-1 15:-1 17:1 18:-1 19:-1 20:-1 
0 32 0 0 0 0 1:-1 2:-1 3:1 4:-1 5:-1 6:-1 7:-1 9:1 10:-1 11:-1 12:-1 13:-1 14:-1 15:-1 17:1 18:-1 19:-1 20:-1 
0 32 0 0 0 0 1:1 2:-1 3:-1 4:-1 5:-1 6:-1 7:-1 9:-1 10:-1 11:1 12:-1 13:-1 14:-1 15:-1 17:1 18:-1 19:-1 20:-1 
1.564705382086339 31.97083178585549 32 1.909996959973028 1.905917097617242 2.617706940332379 1:-1 2:-1 3:-1 4:-1 5:1 6:-1 7:-1 9:1 10:-1 11:-1 12:-1 13:-1 14:-1 15:-1 17:1 18:-1 19:-1 20:-1 
1.563444412117555 2.057179857513691 1.864172389444468 0.1517368478871177 0.3409062935084985 32 1:1 2:-1 3:-1 4:-1 5:-1 6:-1 7:-1 9:-1 10:-1 11:-1 12:-1 13:-1 14:-1 15:1 17:1 18:-1 19:-1 20:-1 
0 5.261625167526022 0 32 0 0 1:1 2:-1 3:-1 4:-1 5:-1 6:-1 7:-1 9:1 10:-1 11:-1 12:-1 13:-1 14:-1 15:-1 17:-1 18:1 19:-1 20:-1 
2.02378611327635 31.85078888286332 0.08700002829356998 32 0 0.107937752750591 1:1 2:-1 3:-1 4:-1 5:-1 6:-1 7:-1 9:1 10:-1 11:-1 12:-1 13:-1 14:-1 15:-1 17:-1 18:1 19:-1 20:-1 
0 32 0 0 0 0 1:-1 2:-1 3:1 4:-1 5:-1 6:-1 7:-1 9:1 10:-1 11:-1 12:-1 13:-1 14:-1 15:-1 17:1 18:-1 19:-1 20:-1 
0 32 0 0 0 0 1:-1 2:-1 3:1 4:-1 5:-1 6:-1 7:-1 9:1 10:-1 11:-1 12:-1 13:-1 14:-1 15:-1 17:1 18:-1 19:-1 20:-1 
0 32 0 0 0 0 1:-1 2:-1 3:1 4:-1 5:-1 6:-1 7:-1 9:-1 10:-1 11:1 12:-1 13:-1 14:-1 15:-1 17:1 18:-1 19:-1 20:-1 
1.573866435621711 32 0.5498955503085691 0.5073866533130519 2.896674136488483 0.674131537784167 1:-1 2:-1 3:1 4:-1 5:-1 6:-1 7:-1 9:-1 10:-1 11:1 12:-1 13:-1 14:-1 15:-1 17:1 18:-1 19:-1 20:-1 
2.400978865677325 32 1.438297407447279 0 0.437789480022344 1.391173474214247 1:1 2:-1 3:-1 4:-1 5:-1 6:-1 7:-1 9:-1 10:-1 11:1 12:-1 13:-1 14:-1 15:-1 17:1 18:-1 19:-1 20:-1 
0 32 0 0 0 0 1:-1 2:-1 3:1 4:-1 5:-1 6:-1 7:-1 9:1 10:-1 11:-1 12:-1 13:-1 14:-1 15:-1 17:1 18:-1 19:-1 20:-1 
0 32 0 0 0 0 1:-1 2:-1 3:1 4:-1 5:-1 6:-1 7:-1 9:1 10:-1 11:-1 12:-1 13:-1 14:-1 15:-1 17:1 18:-1 19:-1 20:-1 
0 32 0 0 0 0 1:-1 2:-1 3:1 4:-1 5:-1 6:-1 7:-1 9:1 10:-1 11:-1 12:-1 13:-1 14:-1 15:-1 17:1 18:-1 19:-1 20:-1 
0.3400053233109749 32 1.438274882845749 1.513873964735487 0 2.094904960522157 1:-1 2:-1 3:1 4:-1 5:-1 6:-1 7:-1 9:1 10:-1 11:-1 12:-1 13:-1 14:-1 15:-1 17:1 18:-1 19:-1 20:-1 
0 0 4.52081171467166 0 0 0 1:1 2:-1 3:-1 4:-1 5:-1 6:-1 7:-1 9:1 10:-1 11:-1 12:-1 13:-1 14:-1 15:-1 17:1 18:-1 19:-1 20:-1 
0 0 32 0 0 0 1:1 2:-1 3:-1 4:-1 5:-1 6:-1 7:-1 9:1 10:-1 11:-1 12:-1 13:-1 14:-1 15:-1 17:1 18:-1 19:-1 20:-1 
0 0 32 0 0 0 1:1 2:-1 3:-1 4:-1 5:-1 6:-1 7:-1 9:1 10:-1 11:-1 12:-1 13:-1 14:-1 15:-1 17:1 18:-1 19:-1 20:-1 
0 0 32 0 0 0 1:1 2:-1 3:-1 4:-1 5:-1 6:-1 7:-1 9:1 10:-1 11:-1 12:-1 13:-1 14:-1 15:-1 17:1 18:-1 19:-1 20:-1 
0 0 32 0 0 0 1:1 2:-1 3:-1 4:-1 5:-1 6:-1 7:-1 9:1 10:-1 11:-1 12:-1 13:-1 14:-1 15:-1 17:1 18:-1 19:-1 20:-1 
0 0 32 0 0 0 1:1 2:-1 3:-1 4:-1 5:-1 6:-1 7:-1 9:1 10:-1 11:-1 12:-1 13:-1 14:-1 15:-1 17:1 18:-1 19:-1 20:-1 
0 0 32 0 0 0 1:1 2:-1 3:-1 4:-1 5:-1 6:-1 7:-1 9:1 10:-1 11:-1 12:-1 13:-1 14:-1 15:-1 17:1 18:-1 19:-1 20:-1 
0 0 32 0 0 0 1:1 2:-1 3:-1 4:-1 5:-1 6:-1 7:-1 9:1 10:-1 11:-1 12:-1 13:-1 14:-1 15:-1 17:1 18:-1 19:-1 20:-1 
0 0 32 0 0 0 1:1 2:-1 3:-1 4:-1 5:-1 6:-1 7:-1 9:1 10:-1 11:-1 12:-1 13:-1 14:-1 15:-1 17:1 18:-1 19:-1 20:-1 
0 0 32 0 0 0 1:1 2:-1 3:-1 4:-1 5:-1 6:-1 7:-1 9:1 10:-1 11:-1 12:-1 13:-1 14:-1 15:-1 17:1 18:-1 19:-1 20:-1 
0 0 32 0 0 0 1:1 2:-1 3:-1 4:-1 5:-1 6:-1 7:-1 9:1 10:-1 11:-1 12:-1 13:-1 14:-1 15:-1 17:1 18:-1 19:-1 20:-1 
0 0 32 0 0 0 1:1 2:-1 3:-1 4:-1 5:-1 6:-1 7:-1 9:1 10:-1 11:-1 12:-1 13:-1 14:-1 15:-1 17:1 18:-1 19:-1 20:-1 
0 0 32 0 0 0 1:1 2:-1 3:-1 4:-1 5:-1 6:-1 7:-1 9:1 10:-1 11:-1 12:-1 13:-1 14:-1 15:-1 17:1 18:-1 19:-1 20:-1 
0 0 32 0 0 0 1:1 2:-1 3:-1 4:-1 5:-1 6:-1 7:-1 9:1 10:-1 11:-1 12:-1 13:-1 14:-1 15:-1 17:1 18:-1 19:-1 20:-1 
0 0 32 0 0 0 1:1 2:-1 3:-1 4:-1 5:-1 6:-1 7:-1 9:1 10:-1 11:-1 12:-1 13:-1 14:-1 15:-1 17:1 18:-1 19:-1 20:-1 
0 0 32 0 0 0 1:1 2:-1 3:-1 4:-1 5:-1 6:-1 7:-1 9:1 10:-1 11:-1 12:-1 13:-1 14:-1 15:-1 17:1 18:-1 19:-1 20:-1 
0 0 32 0 0 0 1:1 2:-1 3:-1 4:-1 5:-1 6:-1 7:-1 9:1 10:-1 11:-1 12:-1 13:-1 14:-1 15:-1 17:1 18:-1 19:-1 20:-1 
0 0 32 0 0 0 1:1 2:-1 3:-1 4:-1 5:-1 6:-1 7:-1 9:1 10:-1 11:-1 12:-1 13:-1 14:-1 15:-1 17:1 18:-1 19:-1 20:-1 
0 0 32 0 0 0 1:1 2:-1 3:-1 4:-1 5:-1 6:-1 7:-1 9:1 10:-1 11:-1 12:-1 13:-1 14:-1 15:-1 17:1 18:-1 19:-1 20:-1 
0 0 32 0 0 0 1:1 2:-1 3:-1 4:-1 5:-1 6:-1 7:-1 9:1 10:-1 11:-1 12:-1 13:-1 14:-1 15:-1 17:1 18:-1 19:-1 20:-1 
0 0 32 0 0 0 1:1 2:-1 3:-1 4:-1 5:-1 6:-1 7:-1 9:1 10:-1 11:-1 12:-1 13:-1 14:-1 15:-1 17:1 18:-1 19:-1 20:-1 
0 0 32 0 0 0 1:1 2:-1 3:-1 4:-1 5:-1 6:-1 7:-1 9:1 10:-1 11:-1 12:-1 13:-1 14:-1 15:-1 17:1 18:-1 19:-1 20:-1 
0 0 32 0 0 0 1:1 2:-1 3:-1 4:-1 5:-1 6:-1 7:-1 9:1 10:-1 11:-1 12:-1 13:-1 14:-1 15:-1 17:1 18:-1 19:-1 20:-1 
0 0 32 0 0 0 1:1 2:-1 3:-1 4:-1 5:-1 6:-1 7:-1 9:1 10:-1 11:-1 12:-1 13:-1 14:-1 15:-1 17:1 18:-1 19:-1 20:-1 
0 0 32 0 0 0 1:1 2:-1 3:-1 4:-1 5:-1 6:-1 7:-1 9:1 10:-1 11:-1 12:-1 13:-1 14:-1 15:-1 17:1 18:-1 19:-1 20:-1 
0 0 32 0 0 0 1:1 2:-1 3:-1 4:-1 5:-1 6:-1 7:-1 9:1 10:-1 11:-1 12:-1 13:-1 14:-1 15:-1 17:1 18:-1 19:-1 20:-1 
0 0 32 0 0 0 1:1 2:-1 3:-1 4:-1 5:-1 6:-1 7:-1 9:1 10:-1 11:-1 12:-1 13:-1 14:-1 15:-1 17:1 18:-1 19:-1 20:-1 
0 0 32 0 0 0 1:1 2:-1 3:-1 4:-1 5:-1 6:-1 7:-1 9:1 10:-1 11:-1 12:-1 13:-1 14:-1 15:-1 17:1 18:-1 19:-1 20:-1 
0 0 32 0 0 0 1:1 2:-1 3:-1 4:-1 5:-1 6:-1 7:-1 9:1 10:-1 11:-1 12:-1 13:-1 14:-1 15:-1 17:1 18:-1 19:-1 20:-1 
0 0 32 0 0 0 1:1 2:-1 3:-1 4:-1 5:-1 6:-1 7:-1 9:1 10:-1 11:-1 12:-1 13:-1 14:-1 15:-1 17:1 18:-1 19:-1 20:-1 
0 4.52081171467166 32 0 0 0 1:1 2:-1 3:-1 4:-1 5:-1 6:-1 7:-1 9:1 10:-1 11:-1 12:-1 13:-1 14:-1 15:-1 17:1 18:-1 19:-1 20:-1 
0 32 32 0 0 0 1:1 2:-1 3:-1 4:-1 5:-1 6:-1 7:-1 9:1 10:-1 11:-1 12:-1 13:-1 14:-1 15:-1 17:1 18:-1 19:-1 20:-1 
0 32 32 0 0 0 1:1 2:-1 3:-1 4:-1 5:-1 6:-1 7:-1 9:1 10:-1 11:-1 12:-1 13:-1 14:-1 15:-1 17:1 18:-1 19:-1 20:-1 
0 32 32 0 0 0 1:1 2:-1 3:-1 4:-1 5:-1 6:-1 7:-1 9:1 10:-1 11:-1 12:-1 13:-1 14:-1 15:-1 17:1 18:-1 19:-1 20:-1 
0 32 32 0 0 0 1:1 2:-1 3:-1 4:-1 5:-1 6:-1 7:-1 9:1 10:-1 11:-1 12:-1 13:-1 14:-1 15:-1 17:1 18:-1 19:-1 20:-1 
0 32 32 0 0 0 1:1 2:-1 3:-1 4:-1 5:-1 6:-1 7:-1 9:1 10:-1 11:-1 12:-1 13:-1 14:-1 15:-1 17:1 18:-1 19:-1 20:-1 
0 32 32 0 0 0 1:1 2:-1 3:-1 4:-1 5:-1 6:-1 7:-1 9:1 10:-1 11:-1 12:-1 13:-1 14:-1 15:-1 17:1 18:-1 19:-1 20:-1 
0 32 32 0 0 0 1:1 2:-1 3:-1 4:-1 5:-1 6:-1 7:-1 9:1 10:-1 11:-1 12:-1 13:-1 14:-1 15:-1 17:1 18:-1 19:-1 20:-1 
0 32 32 0 0 4.52081171467166 1:1 2:-1 3:-1 4:-1 5:-1 6:-1 7:-1 9:1 10:-1 11:-1 12:-1 13:-1 14:-1 15:-1 17:1 18:-1 19:-1 20:-1 
0 32 32 0 0 32 1:1 2:-1 3:-1 4:-1 5:-1 6:-1 7:-1 9:1 10:-1 11:-1 12:-1 13:-1 14:-1 15:-1 17:1 18:-1 19:-1 20:-1 
0 32 32 0 0 32 1:1 2:-1 3:-1 4:-1 5:-1 6:-1 7:-1 9:1 10:-1 11:-1 12:-1 13:-1 14:-1 15:-1 17:1 18:-1 19:-1 20:-1 
0 32 32 0 0 32 1:1 2:-1 3:-1 4:-1 5:-1 6:-1 7:-1 9:1 10:-1 11:-1 12:-1 13:-1 14:-1 15:-1 17:1 18:-1 19:-1 20:-1 
0 32 32 0 0 32 1:1 2:-1 3:-1 4:-1 5:-1 6:-1 7:-1 9:1 10:-1 11:-1 12:-1 13:-1 14:-1 15:-1 17:1 18:-1 19:-1 20:-1 
0 32 32 0 0 32 1:1 2:-1 3:-1 4:-1 5:-1 6:-1 7:-1 9:1 10:-1 11:-1 12:-1 13:-1 14:-1 15:-1 17:1 18:-1 19:-1 20:-1 
0 32 32 0 0 32 1:1 2:-1 3:-1 4:-1 5:-1 6:-1 7:-1 9:1 10:-1 11:-1 12:-1 13:-1 14:-1 15:-1 17:1 18:-1 19:-1 20:-1 
0 32 32 0 0 32 1:1 2:-1 3:-1 4:-1 5:-1 6:-1 7:-1 9:1 10:-1 11:-1 12:-1 13:-1 14:-1 15:-1 17:1 18:-1 19:-1 20:-1 
0 32 32 4.52081171467166 4.52081171467166 32 1:1 2:-1 3:-1 4:-1 5:-1 6:-1 7:-1 9:1 10:-1 11:-1 12:-1 13:-1 14:-1 15:-1 17:1 18:-1 19:-1 20:-1 
0 32 32 32 32 32 1:1 2:-1 3:-1 4:-1 5:-1 6:-1 7:-1 9:1 10:-1 11:-1 12:-1 13:-1 14:-1 15:-1 17:1 18:-1 19:-1 20:-1 
0 32 32 32 32 32 1:1 2:-1 3:-1 4:-1 5:-1 6:-1 7:-1 9:1 10:-1 11:-1 12:-1 13:-1 14:-1 15:-1 17:1 18:-1 19:-1 20:-1 
0 32 32 32 32 32 1:1 2:-1 3:-1 4:-1 5:-1 6:-1 7:-1 9:1 10:-1 11:-1 12:-1 13:-1 14:-1 15:-1 17:1 18:-1 19:-1 20:-1 
0 32 32 32 32 32 1:1 2:-1 3:-1 4:-1 5:-1 6:-1 7:-1 9:1 10:-1 11:-1 12:-1 13:-1 14:-1 15:-1 17:1 18:-1 19:-1 20:-1 
0 32 32 32 32 32 1:1 2:-1 3:-1 4:-1 5:-1 6:-1 7:-1 9:1 10:-1 11:-1 12:-1 13:-1 14:-1 15:-1 17:1 18:-1 19:-1 20:-1 
0 32 32 32 32 32 1:1 2:-1 3:-1 4:-1 5:-1 6:-1 7:-1 9:1 10:-1 11:-1 12:-1 13:-1 14:-1 15:-1 17:1 18:-1 19:-1 20:-1 
0 32 32 32 32 32 1:1 2:-1 3:-1 4:-1 5:-1 6:-1 7:-1 9:1 10:-1 11:-1 12:-1 13:-1 14:-1 15:-1 17:1 18:-1 19:-1 20:-1 
4.52081171467166 32 32 32 32 32 1:1 2:-1 3:-1 4:-1 5:-1 6:-1 7:-1 9:1 10:-1 11:-1 12:-1 13:-1 14:-1 15:-1 17:1 18:-1 19:-1 20:-1 
32 32 32 32 32 32 1:1 2:-1 3:-1 4:-1 5:-1 6:-1 7:-1 9:1 10:-1 11:-1 12:-1 13:-1 14:-1 15:-1 17:1 18:-1 19:-1 20:-1 
26.86984145838795 11.92646874177631 29.52945949651556 3.276445777912439 21.1965347290201 29.95732454200974 1:1 2:-1 3:-1 4:-1 5:-1 6:-1 7:-1 9:1 10:-1 11:-1 12:-1 13:-1 14:-1 15:-1 17:1 18:-1 19:-1 20:-1 
-2.944207594254417 1.895545329151534 1.272880996905538 3.298662349474422 2.535801906019008 0.3124764961434059 1:-1 2:-1 3:-1 4:-1 5:-1 6:1 7:-1 9:1 10:-1 11:-1 12:-1 13:-1 14:-1 15:-1 17:-1 18:1 19:-1 20:-1 
-32 0 0 32 0 0 1:-1 2:1 3:-1 4:-1 5:-1 6:-1 7:-1 9:1 10:-1 11:-1 12:-1 13:-1 14:-1 15:-1 17:1 18:-1 19:-1 20:-1 
-32 32 32 32 32 32 1:1 2:-1 3:-1 4:-1 5:-1 6:-1 7:-1 9:1 10:-1 11:-1 12:-1 13:-1 14:-1 15:-1 17:1 18:-1 19:-1 20:-1 
-7.475684560001968 6.989632439511137 6.23971541355589 5.8774623213825 6.855895923990777 14.9492045242006 1:1 2:-1 3:-1 4:-1 5:-1 6:-1 7:-1 9:-1 10:-1 11:-1 12:-1 13:-1 14:1 15:-1 17:1 18:-1 19:-1 20:-1 
-32 16.62232100013302 4.424457349226667 32 14.00339388838038 4.443658199615959 1:-1 2:1 3:-1 4:-1 5:-1 6:-1 7:-1 9:1 10:-1 11:-1 12:-1 13:-1 14:-1 15:-1 17:1 18:-1 19:-1 20:-1 
-1.951083508682003 0 3.313102234647571 0 0.740088805104875 7.74183983353502 1:-1 2:-1 3:-1 4:-1 5:-1 6:1 7:-1 9:-1 10:-1 11:-1 12:-1 13:1 14:-1 15:-1 17:1 18:-1 19:-1 20:-1 
-2.645528256553527 7.51287266073277 0 0 0.7404991453221721 0.6981480861598607 1:-1 2:-1 3:-1 4:-1 5:-1 6:1 7:-1 9:-1 10:-1 11:1 12:-1 13:-1 14:-1 15:-1 17:1 18:-1 19:-1 20:-1 
-0 0 0 0 0 0.3093830463161194 1:-1 2:-1 3:-1 4:-1 5:-1 6:1 7:-1 9:-1 10:-1 11:-1 12:-1 13:-1 14:1 15:-1 17:-1 18:-1 19:1 20:-1 
-0 0 0 0 0 20.81489594528987 1:-1 2:-1 3:-1 4:-1 5:-1 6:1 7:-1 9:-1 10:-1 11:-1 12:-1 13:-1 14:1 15:-1 17:1 18:-1 19:-1 20:-1 
-32 32 32 32 32 32 1:1 2:-1 3:-1 4:-1 5:-1 6:-1 7:-1 9:1 10:-1 11:-1 12:-1 13:-1 14:-1 15:-1 17:1 18:-1 19:-1 20:-1 
-0 0 0 0 0 6.148835297852962 1:-1 2:-1 3:-1 4:-1 5:-1 6:1 7:-1 9:1 10:-1 11:-1 12:-1 13:-1 14:-1 15:-1 17:1 18:-1 19:-1 20:-1 
-1.605776549751589 0 0.8548493804236761 3.309595692722184 1.50488541008401 32 1:-1 2:-1 3:-1 4:-1 5:-1 6:1 7:-1 9:1 10:-1 11:-1 12:-1 13:-1 14:-1 15:-1 17:1 18:-1 19:-1 20:-1 
-32 -0 32 0 0 0 1:1 2:-1 3:-1 4:-1 5:-1 6:-1 7:-1 9:1 10:-1 11:-1 12:-1 13:-1 14:-1 15:-1 17:1 18:-1 19:-1 20:-1 
-32 -0 0 0 0 0 1:-1 2:-1 3:1 4:-1 5:-1 6:-1 7:-1 9:1 10:-1 11:-1 12:-1 13:-1 14:-1 15:-1 17:1 18:-1 19:-1 20:-1 
-32 -0 0 0 0 0 1:1 2:-1 3:-1 4:-1 5:-1 6:-1 7:-1 9:1 10:-1 11:-1 12:-1 13:-1 14:-1 15:-1 17:-1 18:-1 19:1 20:-1 
-0 -0 0 32 0 0 1:1 2:-1 3:-1 4:-1 5:-1 6:-1 7:-1 9:-1 10:1 11:-1 12:-1 13:-1 14:-1 15:-1 17:-1 18:1 19:-1 20:-1 
-0 -0 0 32 0 0 1:1 2:-1 3:-1 4:-1 5:-1 6:-1 7:-1 9:-1 10:1 11:-1 12:-1 13:-1 14:-1 15:-1 17:-1 18:1 19:-1 20:-1 
-32 -0 0 0 0 0 1:1 2:-1 3:-1 4:-1 5:-1 6:-1 7:-1 9:1 10:-1 11:-1 12:-1 13:-1 14:-1 15:-1 17:-1 18:-1 19:1 20:-1 
-32 -0 32 0 0 0 1:1 2:-1 3:-1 4:-1 5:-1 6:-1 7:-1 9:1 10:-1 11:-1 12:-1 13:-1 14:-1 15:-1 17:1 18:-1 19:-1 20:-1 
-32 -0 2.753334445891725 5.132407249203932 0 0.08343657169482208 1:1 2:-1 3:-1 4:-1 5:-1 6:-1 7:-1 9:1 10:-1 11:-1 12:-1 13:-1 14:-1 15:-1 17:-1 18:-1 19:1 20:-1 
-32 -0 0 0 0 0 1:-1 2:-1 3:1 4:-1 5:-1 6:-1 7:-1 9:1 10:-1 11:-1 12:-1 13:-1 14:-1 15:-1 17:1 18:-1 19:-1 20:-1 
-32 -0 0 0 0 0 1:-1 2:-1 3:1 4:-1 5:-1 6:-1 7:-1 9:1 10:-1 11:-1 12:-1 13:-1 14:-1 15:-1 17:1 18:-1 19:-1 20:-1 
-32 -0 0 0 0 0 1:-1 2:-1 3:1 4:-1 5:-1 6:-1 7:-1 9:1 10:-1 11:-1 12:-1 13:-1 14:-1 15:-1 17:1 18:-1 19:-1 20:-1 
-32 -0 32 0 0 0 1:1 2:-1 3:-1 4:-1 5:-1 6:-1 7:-1 9:1 10:-1 11:-1 12:-1 13:-1 14:-1 15:-1 17:1 18:-1 19:-1 20:-1 
-0 -0 0 1.823685905316976 0 0 1:-1 2:1 3:-1 4:-1 5:-1 6:-1 7:-1 9:-1 10:-1 11:1 12:-1 13:-1 14:-1 15:-1 17:-1 18:1 19:-1 20:-1 
-19.58689474208824 -11.36260187549269 0 2.56949090424584 7.878507000162797 1.436721266411138 1:-1 2:1 3:-1 4:-1 5:-1 6:-1 7:-1 9:-1 10:-1 11:1 12:-1 13:-1 14:-1 15:-1 17:1 18:-1 19:-1 20:-1 
-32 -0 32 0 0 0 1:1 2:-1 3:-1 4:-1 5:-1 6:-1 7:-1 9:1 10:-1 11:-1 12:-1 13:-1 14:-1 15:-1 17:1 18:-1 19:-1 20:-1 
-32 -0 32 0 0 0 1:1 2:-1 3:-1 4:-1 5:-1 6:-1 7:-1 9:1 10:-1 11:-1 12:-1 13:-1 14:-1 15:-1 17:1 18:-1 19:-1 20:-1 
-32 -0 32 0 0 0 1:1 2:-1 3:-1 4:-1 5:-1 6:-1 7:-1 9:1 10:-1 11:-1 12:-1 13:-1 14:-1 15:-1 17:1 18:-1 19:-1 20:-1 
-10.87136652151078 -0 0 2.571884343393999 0 0.08827657154204131 1:1 2:-1 3:-1 4:-1 5:-1 6:-1 7:-1 9:-1 10:-1 11:1 12:-1 13:-1 14:-1 15:-1 17:-1 18:1 19:-1 20:-1 
-0 -0 0 0 1.102069656250667 0 1:-1 2:-1 3:-1 4:1 5:-1 6:-1 7:-1 9:-1 10:-1 11:1 12:-1 13:-1 14:-1 15:-1 17:-1 18:-1 19:1 20:-1 
-32 -0 0 0 32 0 1:-1 2:-1 3:-1 4:1 5:-1 6:-1 7:-1 9:1 10:-1 11:-1 12:-1 13:-1 14:-1 15:-1 17:1 18:-1 19:-1 20:-1 
-32 -3.229352143577327 4.220704387668847 1.433383091798023 32 2.824273706313606 1:-1 2:-1 3:-1 4:1 5:-1 6:-1 7:-1 9:1 10:-1 11:-1 12:-1 13:-1 14:-1 15:-1 17:1 18:-1 19:-1 20:-1 
-32 -0 32 0 0 0 1:1 2:-1 3:-1 4:-1 5:-1 6:-1 7:-1 9:1 10:-1 11:-1 12:-1 13:-1 14:-1 15:-1 17:1 18:-1 19:-1 20:-1 
-32 -0 32 0 0 7.582203273776141 1:1 2:-1 3:-1 4:-1 5:-1 6:-1 7:-1 9:1 10:-1 11:-1 12:-1 13:-1 14:-1 15:-1 17:1 18:-1 19:-1 20:-1 
-32 -0.196203717737725 4.430383887848405 32 0 0.07806224044969283 1:1 2:-1 3:-1 4:-1 5:-1 6:-1 7:-1 9:1 10:-1 11:-1 12:-1 13:-1 14:-1 15:-1 17:-1 18:1 19:-1 20:-1 
-0 -0 0 32 0 0 1:1 2:-1 3:-1 4:-1 5:-1 6:-1 7:-1 9:-1 10:1 11:-1 12:-1 13:-1 14:-1 15:-1 17:-1 18:-1 19:1 20:-1 
-0 -0 0 32 0 0 1:1 2:-1 3:-1 4:-1 5:-1 6:-1 7:-1 9:-1 10:1 11:-1 12:-1 13:-1 14:-1 15:-1 17:-1 18:1 19:-1 20:-1 
-0 -0 0 32 0 0 1:1 2:-1 3:-1 4:-1 5:-1 6:-1 7:-1 9:-1 10:1 11:-1 12:-1 13:-1 14:-1 15:-1 17:-1 18:1 19:-1 20:-1 
-0 -0 0 32 0 0 1:1 2:-1 3:-1 4:-1 5:-1 6:-1 7:-1 9:-1 10:1 11:-1 12:-1 13:-1 14:-1 15:-1 17:-1 18:1 19:-1 20:-1 
-32 -0 0 32 0 0 1:1 2:-1 3:-1 4:-1 5:-1 6:-1 7:-1 9:-1 10:1 11:-1 12:-1 13:-1 14:-1 15:-1 17:-1 18:1 19:-1 20:-1 
-32 -0 32 0 0 32 1:1 2:-1 3:-1 4:-1 5:-1 6:-1 7:-1 9:1 10:-1 11:-1 12:-1 13:-1 14:-1 15:-1 17:1 18:-1 19:-1 20:-1 
-32 -0 0 0 0 0 1:-1 2:-1 3:1 4:-1 5:-1 6:-1 7:-1 9:1 10:-1 11:-1 12:-1 13:-1 14:-1 15:-1 17:1 18:-1 19:-1 20:-1 
-32 -0 4.222493964157298 0 0 2.405242268007378 1:1 2:-1 3:-1 4:-1 5:-1 6:-1 7:-1 9:-1 10:-1 11:1 12:-1 13:-1 14:-1 15:-1 17:1 18:-1 19:-1 20:-1 
-32 -0 32 0 0 32 1:1 2:-1 3:-1 4:-1 5:-1 6:-1 7:-1 9:1 10:-1 11:-1 12:-1 13:-1 14:-1 15:-1 17:1 18:-1 19:-1 20:-1 
-32 -0 32 0 0 32 1:1 2:-1 3:-1 4:-1 5:-1 6:-1 7:-1 9:1 10:-1 11:-1 12:-1 13:-1 14:-1 15:-1 17:1 18:-1 19:-1 20:-1 
-32 -0 32 0 0 32 1:1 2:-1 3:-1 4:-1 5:-1 6:-1 7:-1 9:1 10:-1 11:-1 12:-1 13:-1 14:-1 15:-1 17:1 18:-1 19:-1 20:-1 
-32 -0 32 0 0 32 1:1 2:-1 3:-1 4:-1 5:-1 6:-1 7:-1 9:1 10:-1 11:-1 12:-1 13:-1 14:-1 15:-1 17:1 18:-1 19:-1 20:-1 
-20.25750934351686 -0 0 32 0 0 1:1 2:-1 3:-1 4:-1 5:-1 6:-1 7:-1 9:-1 10:1 11:-1 12:-1 13:-1 14:-1 15:-1 17:-1 18:1 19:-1 20:-1 
-32 -0 32 0 0 32 1:1 2:-1 3:-1 4:-1 5:-1 6:-1 7:-1 9:1 10:-1 11:-1 12:-1 13:-1 14:-1 15:-1 17:1 18:-1 19:-1 20:-1 
-28.38607181525663 -0 0 0 0 0 1:1 2:-1 3:-1 4:-1 5:-1 6:-1 7:-1 9:-1 10:1 11:-1 12:-1 13:-1 14:-1 15:-1 17:1 18:-1 19:-1 20:-1 
-32 -0 0 0 0 0 1:1 2:-1 3:-1 4:-1 5:-1 6:-1 7:-1 9:-1 10:1 11:-1 12:-1 13:-1 14:-1 15:-1 17:1 18:-1 19:-1 20:-1 
-32 -0 0 8.461601096489074 0 0 1:1 2:-1 3:-1 4:-1 5:-1 6:-1 7:-1 9:-1 10:1 11:-1 12:-1 13:-1 14:-1 15:-1 17:1 18:-1 19:-1 20:-1 
-0 -0 0 32 0 0 1:-1 2:1 3:-1 4:-1 5:-1 6:-1 7:-1 9:-1 10:1 11:-1 12:-1 13:-1 14:-1 15:-1 17:-1 18:-1 19:1 20:-1 
-0 -0 0 32 0 0 1:-1 2:1 3:-1 4:-1 5:-1 6:-1 7:-1 9:-1 10:1 11:-1 12:-1 13:-1 14:-1 15:-1 17:-1 18:-1 19:1 20:-1 
-0 -0 0 32 0 0 1:-1 2:1 3:-1 4:-1 5:-1 6:-1 7:-1 9:-1 10:1 11:-1 12:-1 13:-1 14:-1 15:-1 17:-1 18:-1 19:1 20:-1 
-0 -0 0 32 0 0 1:-1 2:1 3:-1 4:-1 5:-1 6:-1 7:-1 9:-1 10:1 11:-1 12:-1 13:-1 14:-1 15:-1 17:-1 18:-1 19:1 20:-1 
-32 -0 0 32 0 0 1:1 2:-1 3:-1 4:-1 5:-1 6:-1 7:-1 9:-1 10:1 11:-1 12:-1 13:-1 14:-1 15:-1 17:1 18:-1 19:-1 20:-1 
-32 -0 0 32 0 0 1:1 2:-1 3:-1 4:-1 5:-1 6:-1 7:-1 9:-1 10:1 11:-1 12:-1 13:-1 14:-1 15:-1 17:1 18:-1 19:-1 20:-1 
-0 -0 0 32 0 0 1:1 2:-1 3:-1 4:-1 5:-1 6:-1 7:-1 9:-1 10:1 11:-1 12:-1 13:-1 14:-1 15:-1 17:-1 18:-1 19:1 20:-1 
-32 -0 0 32 0 0 1:1 2:-1 3:-1 4:-1 5:-1 6:-1 7:-1 9:-1 10:1 11:-1 12:-1 13:-1 14:-1 15:-1 17:1 18:-1 19:-1 20:-1 
-32 -0 0 32 0 0 1:1 2:-1 3:-1 4:-1 5:-1 6:-1 7:-1 9:-1 10:1 11:-1 12:-1 13:-1 14:-1 15:-1 17:1 18:-1 19:-1 20:-1 
-0 -0 0 32 0 0 1:-1 2:1 3:-1 4:-1 5:-1 6:-1 7:-1 9:-1 10:1 11:-1 12:-1 13:-1 14:-1 15:-1 17:-1 18:-1 19:1 20:-1 
-0 -0 0 32 0 0 1:-1 2:1 3:-1 4:-1 5:-1 6:-1 7:-1 9:-1 10:1 11:-1 12:-1 13:-1 14:-1 15:-1 17:-1 18:-1 19:1 20:-1 
-0 -0 0 32 0 0 1:-1 2:1 3:-1 4:-1 5:-1 6:-1 7:-1 9:-1 10:1 11:-1 12:-1 13:-1 14:-1 15:-1 17:-1 18:-1 19:1 20:-1 
-0 -0 0 32 0 0 1:-1 2:1 3:-1 4:-1 5:-1 6:-1 7:-1 9:-1 10:1 11:-1 12:-1 13:-1 14:-1 15:-1 17:-1 18:-1 19:1 20:-1 
-32 -0 0 32 0 0 1:1 2:-1 3:-1 4:-1 5:-1 6:-1 7:-1 9:-1 10:1 11:-1 12:-1 13:-1 14:-1 15:-1 17:1 18:-1 19:-1 20:-1 
-32 -0 0 32 0 0 1:1 2:-1 3:-1 4:-1 5:-1 6:-1 7:-1 9:-1 10:1 11:-1 12:-1 13:-1 14:-1 15:-1 17:1 18:-1 19:-1 20:-1 
-32 -0 32 0 0 32 1:1 2:-1 3:-1 4:-1 5:-1 6:-1 7:-1 9:1 10:-1 11:-1 12:-1 13:-1 14:-1 15:-1 17:1 18:-1 19:-1 20:-1 
-32 -0 32 1.778291909548038 3.156144975238515 32 1:1 2:-1 3:-1 4:-1 5:-1 6:-1 7:-1 9:1 10:-1 11:-1 12:-1 13:-1 14:-1 15:-1 17:1 18:-1 19:-1 20:-1 
-0 -0 0 32 0 0 1:1 2:-1 3:-1 4:-1 5:-1 6:-1 7:-1 9:-1 10:1 11:-1 12:-1 13:-1 14:-1 15:-1 17:-1 18:-1 19:1 20:-1 
-32 -0 0 32 0 0 1:1 2:-1 3:-1 4:-1 5:-1 6:-1 7:-1 9:-1 10:1 11:-1 12:-1 13:-1 14:-1 15:-1 17:1 18:-1 19:-1 20:-1 
-32 -0.09180115567570452 11.81094369653075 32 5.795327450462183 3.198855446969911 1:1 2:-1 3:-1 4:-1 5:-1 6:-1 7:-1 9:-1 10:1 11:-1 12:-1 13:-1 14:-1 15:-1 17:1 18:-1 19:-1 20:-1 
-32 -0 32 32 32 32 1:1 2:-1 3:-1 4:-1 5:-1 6:-1 7:-1 9:1 10:-1 11:-1 12:-1 13:-1 14:-1 15:-1 17:1 18:-1 19:-1 20:-1 
-8.629074759004466 -0 0 32 0 0 1:-1 2:1 3:-1 4:-1 5:-1 6:-1 7:-1 9:-1 10:1 11:-1 12:-1 13:-1 14:-1 15:-1 17:-1 18:1 19:-1 20:-1 
-32 -0 0 32 0 0 1:-1 2:1 3:-1 4:-1 5:-1 6:-1 7:-1 9:-1 10:1 11:-1 12:-1 13:-1 14:-1 15:-1 17:-1 18:1 19:-1 20:-1 
-32 -0 0 32 0 0 1:-1 2:1 3:-1 4:-1 5:-1 6:-1 7:-1 9:-1 10:1 11:-1 12:-1 13:-1 14:-1 15:-1 17:-1 18:1 19:-1 20:-1 
-32 -2.132185114049031 0 32 5.194597890738113 0.3738883777213158 1:-1 2:1 3:-1 4:-1 5:-1 6:-1 7:-1 9:-1 10:1 11:-1 12:-1 13:-1 14:-1 15:-1 17:-1 18:1 19:-1 20:-1 
-0 -0 0 32 0 0 1:1 2:-1 3:-1 4:-1 5:-1 6:-1 7:-1 9:-1 10:1 11:-1 12:-1 13:-1 14:-1 15:-1 17:-1 18:-1 19:1 20:-1 
-0 -0 0 32 0 0 1:-1 2:1 3:-1 4:-1 5:-1 6:-1 7:-1 9:-1 10:1 11:-1 12:-1 13:-1 14:-1 15:-1 17:-1 18:-1 19:1 20:-1 
-0 -0 0 32 0 0 1:-1 2:1 3:-1 4:-1 5:-1 6:-1 7:-1 9:-1 10:1 11:-1 12:-1 13:-1 14:-1 15:-1 17:-1 18:-1 19:1 20:-1 
-3.671927894018462 -1.100903185417452 0 32 4.524267601063194 0.3786499801034155 1:-1 2:1 3:-1 4:-1 5:-1 6:-1 7:-1 9:-1 10:1 11:-1 12:-1 13:-1 14:-1 15:-1 17:-1 18:-1 19:1 20:-1 
-32 -0 0 0 0 0 1:-1 2:-1 3:1 4:-1 5:-1 6:-1 7:-1 9:1 10:-1 11:-1 12:-1 13:-1 14:-1 15:-1 17:1 18:-1 19:-1 20:-1 
-32 -3.230661098984362 32 1.433344070764892 2.894823921583212 2.822290098827597 1:-1 2:-1 3:-1 4:-1 5:1 6:-1 7:-1 9:1 10:-1 11:-1 12:-1 13:-1 14:-1 15:-1 17:1 18:-1 19:-1 20:-1 
-32 -0 32 32 32 32 1:1 2:-1 3:-1 4:-1 5:-1 6:-1 7:-1 9:1 10:-1 11:-1 12:-1 13:-1 14:-1 15:-1 17:1 18:-1 19:-1 20:-1 
-32 -0 32 32 32 32 1:1 2:-1 3:-1 4:-1 5:-1 6:-1 7:-1 9:1 10:-1 11:-1 12:-1 13:-1 14:-1 15:-1 17:1 18:-1 19:-1 20:-1 
-32 -0 0 0 0 0 1:-1 2:-1 3:1 4:-1 5:-1 6:-1 7:-1 9:1 10:-1 11:-1 12:-1 13:-1 14:-1 15:-1 17:1 18:-1 19:-1 20:-1 
-0 -0 0 5.02178675817981 0 0 1:-1 2:-1 3:1 4:-1 5:-1 6:-1 7:-1 9:-1 10:1 11:-1 12:-1 13:-1 14:-1 15:-1 17:-1 18:1 19:-1 20:-1 
-5.540722603569873 -0 0 0 7.448431029555663 0 1:-1 2:-1 3:1 4:-1 5:-1 6:-1 7:-1 9:-1 10:1 11:-1 12:-1 13:-1 14:-1 15:-1 17:1 18:-1 19:-1 20:-1 
-32 -0 32 32 32 32 1:1 2:-1 3:-1 4:-1 5:-1 6:-1 7:-1 9:1 10:-1 11:-1 12:-1 13:-1 14:-1 15:-1 17:1 18:-1 19:-1 20:-1 
-32 -0 32 32 32 32 1:1 2:-1 3:-1 4:-1 5:-1 6:-1 7:-1 9:1 10:-1 11:-1 12:-1 13:-1 14:-1 15:-1 17:1 18:-1 19:-1 20:-1 
-32 -0 32 32 32 32 1:1 2:-1 3:-1 4:-1 5:-1 6:-1 7:-1 9:1 10:-1 11:-1 12:-1 13:-1 14:-1 15:-1 17:1 18:-1 19:-1 20:-1 
-32 -0 32 32 32 32 1:1 2:-1 3:-1 4:-1 5:-1 6:-1 7:-1 9:1 10:-1 11:-1 12:-1 13:-1 14:-1 15:-1 17:1 18:-1 19:-1 20:-1 
-32 -8.447695912803615 32 32 32 32 1:1 2:-1 3:-1 4:-1 5:-1 6:-1 7:-1 9:1 10:-1 11:-1 12:-1 13:-1 14:-1 15:-1 17:1 18:-1 19:-1 20:-1 
-32 -32 32 32 32 32 1:1 2:-1 3:-1 4:-1 5:-1 6:-1 7:-1 9:1 10:-1 11:-1 12:-1 13:-1 14:-1 15:-1 17:1 18:-1 19:-1 20:-1 
-32 -32 32 31.66812524954576 30.96985851363396 31.04087597896304 1:1 2:-1 3:-1 4:-1 5:-1 6:-1 7:-1 9:1 10:-1 11:-1 12:-1 13:-1 14:-1 15:-1 17:1 18:-1 19:-1 20:-1 
-32 -3.228967225790563 4.220704387668847 0 0 2.822273802933937 1:-1 2:-1 3:1 4:-1 5:-1 6:-1 7:-1 9:1 10:-1 11:-1 12:-1 13:-1 14:-1 15:-1 17:1 18:-1 19:-1 20:-1 
-7.414619574410994 -0 0 0 0 0.07888575518360395 1:1 2:-1 3:-1 4:-1 5:-1 6:-1 7:-1 9:-1 10:-1 11:1 12:-1 13:-1 14:-1 15:-1 17:-1 18:-1 19:1 20:-1 
-5.542690067991786 -0 0 0 0 0 1:-1 2:-1 3:1 4:-1 5:-1 6:-1 7:-1 9:-1 10:-1 11:1 12:-1 13:-1 14:-1 15:-1 17:1 18:-1 19:-1 20:-1 
-32 -0 0 0 0 0 1:-1 2:-1 3:1 4:-1 5:-1 6:-1 7:-1 9:-1 10:-1 11:1 12:-1 13:-1 14:-1 15:-1 17:1 18:-1 19:-1 20:-1 
-32 -0 0 0 0 0 1:-1 2:-1 3:1 4:-1 5:-1 6:-1 7:-1 9:-1 10:-1 11:1 12:-1 13:-1 14:-1 15:-1 17:1 18:-1 19:-1 20:-1 
-32 -0 0 0 0 0 1:-1 2:-1 3:1 4:-1 5:-1 6:-1 7:-1 9:-1 10:-1 11:1 12:-1 13:-1 14:-1 15:-1 17:1 18:-1 19:-1 20:-1 
-32 -0 0 0 0 0 1:-1 2:-1 3:1 4:-1 5:-1 6:-1 7:-1 9:-1 10:-1 11:1 12:-1 13:-1 14:-1 15:-1 17:1 18:-1 19:-1 20:-1 
-32 -0 -0 0 0 0 1:1 2:-1 3:-1 4:-1 5:-1 6:-1 7:-1 9:1 10:-1 11:-1 12:-1 13:-1 14:-1 15:-1 17:1 18:-1 19:-1 20:-1 
-32 -0 -0 0 0 0 1:1 2:-1 3:-1 4:-1 5:-1 6:-1 7:-1 9:1 10:-1 11:-1 12:-1 13:-1 14:-1 15:-1 17:1 18:-1 19:-1 20:-1 
-32 -0 -0 0 0 0 1:1 2:-1 3:-1 4:-1 5:-1 6:-1 7:-1 9:1 10:-1 11:-1 12:-1 13:-1 14:-1 15:-1 17:1 18:-1 19:-1 20:-1 
-32 -0 -0 0 0 0 1:1 2:-1 3:-1 4:-1 5:-1 6:-1 7:-1 9:1 10:-1 11:-1 12:-1 13:-1 14:-1 15:-1 17:1 18:-1 19:-1 20:-1 
-32 -0 -0 0 0 0 1:1 2:-1 3:-1 4:-1 5:-1 6:-1 7:-1 9:1 10:-1 11:-1 12:-1 13:-1 14:-1 15:-1 17:1 18:-1 19:-1 20:-1 
-32 -0 -0 0 0 0 1:1 2:-1 3:-1 4:-1 5:-1 6:-1 7:-1 9:1 10:-1 11:-1 12:-1 13:-1 14:-1 15:-1 17:1 18:-1 19:-1 20:-1 
-7.230000432600943 -0 -0 0 0 0 1:1 2:-1 3:-1 4:-1 5:-1 6:-1 7:-1 9:-1 10:-1 11:-1 12:-1 13:1 14:-1 15:-1 17:1 18:-1 19:-1 20:-1 
-32 -0 -0 0 0 0 1:1 2:-1 3:-1 4:-1 5:-1 6:-1 7:-1 9:1 10:-1 11:-1 12:-1 13:-1 14:-1 15:-1 17:1 18:-1 19:-1 20:-1 
-32 -0 -0 0 0 0 1:1 2:-1 3:-1 4:-1 5:-1 6:-1 7:-1 9:-1 10:-1 11:-1 12:-1 13:1 14:-1 15:-1 17:1 18:-1 19:-1 20:-1 
-32 -0 -0 0 0 0 1:1 2:-1 3:-1 4:-1 5:-1 6:-1 7:-1 9:1 10:-1 11:-1 12:-1 13:-1 14:-1 15:-1 17:1 18:-1 19:-1 20:-1 
-32 -0 -0 0 0 0 1:1 2:-1 3:-1 4:-1 5:-1 6:-1 7:-1 9:1 10:-1 11:-1 12:-1 13:-1 14:-1 15:-1 17:1 18:-1 19:-1 20:-1 
-32 -0 -0 0 0 0 1:1 2:-1 3:-1 4:-1 5:-1 6:-1 7:-1 9:-1 10:-1 11:-1 12:-1 13:1 14:-1 15:-1 17:1 18:-1 19:-1 20:-1 
-32 -0 -0 0 0 0 1:1 2:-1 3:-1 4:-1 5:-1 6:-1 7:-1 9:-1 10:-1 11:-1 12:-1 13:1 14:-1 15:-1 17:1 18:-1 19:-1 20:-1 
-32 -0 -0 0 0 0 1:1 2:-1 3:-1 4:-1 5:-1 6:-1 7:-1 9:-1 10:-1 11:-1 12:-1 13:1 14:-1 15:-1 17:1 18:-1 19:-1 20:-1 
-32 -0 -0 0 0 0 1:1 2:-1 3:-1 4:-1 5:-1 6:-1 7:-1 9:1 10:-1 11:-1 12:-1 13:-1 14:-1 15:-1 17:1 18:-1 19:-1 20:-1 
-32 -0 -0 0 0 0 1:1 2:-1 3:-1 4:-1 5:-1 6:-1 7:-1 9:1 10:-1 11:-1 12:-1 13:-1 14:-1 15:-1 17:1 18:-1 19:-1 20:-1 
-32 -0 -0 0 0 0 1:1 2:-1 3:-1 4:-1 5:-1 6:-1 7:-1 9:1 10:-1 11:-1 12:-1 13:-1 14:-1 15:-1 17:1 18:-1 19:-1 20:-1 
-32 -0 -0 0 0 0 1:1 2:-1 3:-1 4:-1 5:-1 6:-1 7:-1 9:1 10:-1 11:-1 12:-1 13:-1 14:-1 15:-1 17:1 18:-1 19:-1 20:-1 
-32 -0 -0 0 0 0 1:1 2:-1 3:-1 4:-1 5:-1 6:-1 7:-1 9:1 10:-1 11:-1 12:-1 13:-1 14:-1 15:-1 17:1 18:-1 19:-1 20:-1 
-32 -0 -0 0 0 0 1:1 2:-1 3:-1 4:-1 5:-1 6:-1 7:-1 9:-1 10:-1 11:-1 12:-1 13:1 14:-1 15:-1 17:1 18:-1 19:-1 20:-1 
-32 -0 -0 0 0 0 1:1 2:-1 3:-1 4:-1 5:-1 6:-1 7:-1 9:1 10:-1 11:-1 12:-1 13:-1 14:-1 15:-1 17:1 18:-1 19:-1 20:-1 
-32 -0 -0 0 0 0 1:1 2:-1 3:-1 4:-1 5:-1 6:-1 7:-1 9:1 10:-1 11:-1 12:-1 13:-1 14:-1 15:-1 17:1 18:-1 19:-1 20:-1 
-32 -0 -0 0 0 0 1:1 2:-1 3:-1 4:-1 5:-1 6:-1 7:-1 9:1 10:-1 11:-1 12:-1 13:-1 14:-1 15:-1 17:1 18:-1 19:-1 20:-1 
-32 -0 -0 0 0 0 1:1 2:-1 3:-1 4:-1 5:-1 6:-1 7:-1 9:1 10:-1 11:-1 12:-1 13:-1 14:-1 15:-1 17:1 18:-1 19:-1 20:-1 
-32 -0 -0 0 0 0 1:1 2:-1 3:-1 4:-1 5:-1 6:-1 7:-1 9:1 10:-1 11:-1 12:-1 13:-1 14:-1 15:-1 17:1 18:-1 19:-1 20:-1 
-32 -0 -0 0 0 0 1:1 2:-1 3:-1 4:-1 5:-1 6:-1 7:-1 9:1 10:-1 11:-1 12:-1 13:-1 14:-1 15:-1 17:1 18:-1 19:-1 20:-1 
-32 -0 -0 0 0 0 1:1 2:-1 3:-1 4:-1 5:-1 6:-1 7:-1 9:1 10:-1 11:-1 12:-1 13:-1 14:-1 15:-1 17:1 18:-1 19:-1 20:-1 
-32 -0 -0 0 0 0 1:1 2:-1 3:-1 4:-1 5:-1 6:-1 7:-1 9:1 10:-1 11:-1 12:-1 13:-1 14:-1 15:-1 17:1 18:-1 19:-1 20:-1 
-32 -0 -0 0 0 0 1:1 2:-1 3:-1 4:-1 5:-1 6:-1 7:-1 9:1 10:-1 11:-1 12:-1 13:-1 14:-1 15:-1 17:1 18:-1 19:-1 20:-1 
-32 -0 -0 0 0 0 1:1 2:-1 3:-1 4:-1 5:-1 6:-1 7:-1 9:1 10:-1 11:-1 12:-1 13:-1 14:-1 15:-1 17:1 18:-1 19:-1 20:-1 
-32 -0 -0 0 0 0 1:1 2:-1 3:-1 4:-1 5:-1 6:-1 7:-1 9:1 10:-1 11:-1 12:-1 13:-1 14:-1 15:-1 17:1 18:-1 19:-1 20:-1 
-32 -0 -0 0 0 0 1:1 2:-1 3:-1 4:-1 5:-1 6:-1 7:-1 9:-1 10:-1 11:-1 12:-1 13:1 14:-1 15:-1 17:1 18:-1 19:-1 20:-1 
-32 -0 -0 0 0 0 1:1 2:-1 3:-1 4:-1 5:-1 6:-1 7:-1 9:1 10:-1 11:-1 12:-1 13:-1 14:-1 15:-1 17:1 18:-1 19:-1 20:-1 
-32 -0 -0 0 0 0 1:1 2:-1 3:-1 4:-1 5:-1 6:-1 7:-1 9:1 10:-1 11:-1 12:-1 13:-1 14:-1 15:-1 17:1 18:-1 19:-1 20:-1 
-0 -1.472953444591821 -2.765526499511098 1.713137306567684 1.641374860673672 0.698938851207852 1:-1 2:-1 3:-1 4:-1 5:1 6:-1 7:-1 9:-1 10:-1 11:-1 12:-1 13:1 14:-1 15:-1 17:-1 18:1 19:-1 20:-1 
-32 -0 -0 0 0 4.564422931170778 1:1 2:-1 3:-1 4:-1 5:-1 6:-1 7:-1 9:-1 10:-1 11:-1 12:-1 13:1 14:-1 15:-1 17:1 18:-1 19:-1 20:-1 
-32 -0 -0 0 0 0 1:1 2:-1 3:-1 4:-1 5:-1 6:-1 7:-1 9:1 10:-1 11:-1 12:-1 13:-1 14:-1 15:-1 17:1 18:-1 19:-1 20:-1 
-32 -0 -0 0 0 0 1:1 2:-1 3:-1 4:-1 5:-1 6:-1 7:-1 9:1 10:-1 11:-1 12:-1 13:-1 14:-1 15:-1 17:1 18:-1 19:-1 20:-1 
-32 -0 -20.45172028450229 0 0 0 1:1 2:-1 3:-1 4:-1 5:-1 6:-1 7:-1 9:1 10:-1 11:-1 12:-1 13:-1 14:-1 15:-1 17:1 18:-1 19:-1 20:-1 
-32 -0 -32 0 0 0 1:1 2:-1 3:-1 4:-1 5:-1 6:-1 7:-1 9:1 10:-1 11:-1 12:-1 13:-1 14:-1 15:-1 17:1 18:-1 19:-1 20:-1 
-32 -0 -0 0 0 32 1:1 2:-1 3:-1 4:-1 5:-1 6:-1 7:-1 9:-1 10:-1 11:-1 12:-1 13:1 14:-1 15:-1 17:1 18:-1 19:-1 20:-1 
-32 -0 -32 0 0 0 1:1 2:-1 3:-1 4:-1 5:-1 6:-1 7:-1 9:1 10:-1 11:-1 12:-1 13:-1 14:-1 15:-1 17:1 18:-1 19:-1 20:-1 
-32 -0 -32 0 0 0 1:1 2:-1 3:-1 4:-1 5:-1 6:-1 7:-1 9:1 10:-1 11:-1 12:-1 13:-1 14:-1 15:-1 17:1 18:-1 19:-1 20:-1 
-32 -0 -32 0 0 0 1:1 2:-1 3:-1 4:-1 5:-1 6:-1 7:-1 9:1 10:-1 11:-1 12:-1 13:-1 14:-1 15:-1 17:1 18:-1 19:-1 20:-1 
-32 -0 -32 0 0 0 1:1 2:-1 3:-1 4:-1 5:-1 6:-1 7:-1 9:1 10:-1 11:-1 12:-1 13:-1 14:-1 15:-1 17:1 18:-1 19:-1 20:-1 
-32 -0 -32 0 0 0 1:1 2:-1 3:-1 4:-1 5:-1 6:-1 7:-1 9:1 10:-1 11:-1 12:-1 13:-1 14:-1 15:-1 17:1 18:-1 19:-1 20:-1 
-32 -0 -32 0 0 0 1:1 2:-1 3:-1 4:-1 5:-1 6:-1 7:-1 9:1 10:-1 11:-1 12:-1 13:-1 14:-1 15:-1 17:1 18:-1 19:-1 20:-1 
-32 -0 -32 0 0 6.281217543484507 1:1 2:-1 3:-1 4:-1 5:-1 6:-1 7:-1 9:1 10:-1 11:-1 12:-1 13:-1 14:-1 15:-1 17:1 18:-1 19:-1 20:-1 
-32 -0 -32 0 0 32 1:1 2:-1 3:-1 4:-1 5:-1 6:-1 7:-1 9:1 10:-1 11:-1 12:-1 13:-1 14:-1 15:-1 17:1 18:-1 19:-1 20:-1 
-32 -0 -32 0 0 32 1:1 2:-1 3:-1 4:-1 5:-1 6:-1 7:-1 9:1 10:-1 11:-1 12:-1 13:-1 14:-1 15:-1 17:1 18:-1 19:-1 20:-1 
-32 -0 -32 0 0 32 1:1 2:-1 3:-1 4:-1 5:-1 6:-1 7:-1 9:1 10:-1 11:-1 12:-1 13:-1 14:-1 15:-1 17:1 18:-1 19:-1 20:-1 
-32 -0 -0 0 0 32 1:1 2:-1 3:-1 4:-1 5:-1 6:-1 7:-1 9:-1 10:-1 11:-1 12:-1 13:1 14:-1 15:-1 17:1 18:-1 19:-1 20:-1 
-3.467226393710111 -1.967143589222215 -9.745709779790083 5.9741301247002 3.64295483222975 1.975158753843486 1:-1 2:-1 3:-1 4:-1 5:1 6:-1 7:-1 9:-1 10:1 11:-1 12:-1 13:-1 14:-1 15:-1 17:1 18:-1 19:-1 20:-1 
-31.94631639637459 -4.490535576750815 -3.144123952627594 2.213883161643077 0.3861675515519943 32 1:1 2:-1 3:-1 4:-1 5:-1 6:-1 7:-1 9:-1 10:-1 11:-1 12:-1 13:1 14:-1 15:-1 17:1 18:-1 19:-1 20:-1 
-32 -0 -32 0 0 32 1:1 2:-1 3:-1 4:-1 5:-1 6:-1 7:-1 9:1 10:-1 11:-1 12:-1 13:-1 14:-1 15:-1 17:1 18:-1 19:-1 20:-1 
-32 -0 -32 0 0 32 1:1 2:-1 3:-1 4:-1 5:-1 6:-1 7:-1 9:1 10:-1 11:-1 12:-1 13:-1 14:-1 15:-1 17:1 18:-1 19:-1 20:-1 
-32 -0 -32 0 0 32 1:1 2:-1 3:-1 4:-1 5:-1 6:-1 7:-1 9:1 10:-1 11:-1 12:-1 13:-1 14:-1 15:-1 17:1 18:-1 19:-1 20:-1 
-32 -0 -32 0 0 32 1:1 2:-1 3:-1 4:-1 5:-1 6:-1 7:-1 9:1 10:-1 11:-1 12:-1 13:-1 14:-1 15:-1 17:1 18:-1 19:-1 20:-1 
-32 -0 -32 12.80062415944634 7.640961251201028 32 1:1 2:-1 3:-1 4:-1 5:-1 6:-1 7:-1 9:1 10:-1 11:-1 12:-1 13:-1 14:-1 15:-1 17:1 18:-1 19:-1 20:-1 
-32 -0 -32 32 32 32 1:1 2:-1 3:-1 4:-1 5:-1 6:-1 7:-1 9:1 10:-1 11:-1 12:-1 13:-1 14:-1 15:-1 17:1 18:-1 19:-1 20:-1 
-32 -0 -32 32 32 32 1:1 2:-1 3:-1 4:-1 5:-1 6:-1 7:-1 9:1 10:-1 11:-1 12:-1 13:-1 14:-1 15:-1 17:1 18:-1 19:-1 20:-1 
-32 -0 -32 32 32 32 1:1 2:-1 3:-1 4:-1 5:-1 6:-1 7:-1 9:1 10:-1 11:-1 12:-1 13:-1 14:-1 15:-1 17:1 18:-1 19:-1 20:-1 
-32 -0 -32 32 32 32 1:1 2:-1 3:-1 4:-1 5:-1 6:-1 7:-1 9:1 10:-1 11:-1 12:-1 13:-1 14:-1 15:-1 17:1 18:-1 19:-1 20:-1 
-4.520811714671659 -0 -0 0 0 0 1:-1 2:-1 3:-1 4:-1 5:1 6:-1 7:-1 9:1 10:-1 11:-1 12:-1 13:-1 14:-1 15:-1 17:1 18:-1 19:-1 20:-1 
-32 -0 -0 0 0 0 1:-1 2:-1 3:-1 4:-1 5:1 6:-1 7:-1 9:1 10:-1 11:-1 12:-1 13:-1 14:-1 15:-1 17:1 18:-1 19:-1 20:-1 
-32 -0 -0 0 0 0 1:-1 2:-1 3:-1 4:-1 5:1 6:-1 7:-1 9:1 10:-1 11:-1 12:-1 13:-1 14:-1 15:-1 17:1 18:-1 19:-1 20:-1 
-32 -0 -0 0 0 0 1:-1 2:-1 3:-1 4:-1 5:1 6:-1 7:-1 9:1 10:-1 11:-1 12:-1 13:-1 14:-1 15:-1 17:1 18:-1 19:-1 20:-1 
-32 -0 -0 0 0 0 1:-1 2:-1 3:-1 4:-1 5:1 6:-1 7:-1 9:1 10:-1 11:-1 12:-1 13:-1 14:-1 15:-1 17:1 18:-1 19:-1 20:-1 
-32 -0 -0 0 0 0 1:-1 2:-1 3:-1 4:-1 5:1 6:-1 7:-1 9:1 10:-1 11:-1 12:-1 13:-1 14:-1 15:-1 17:1 18:-1 19:-1 20:-1 
-32 -0 -32 32 32 32 1:1 2:-1 3:-1 4:-1 5:-1 6:-1 7:-1 9:1 10:-1 11:-1 12:-1 13:-1 14:-1 15:-1 17:1 18:-1 19:-1 20:-1 
-32 -0 -32 32 32 32 1:1 2:-1 3:-1 4:-1 5:-1 6:-1 7:-1 9:1 10:-1 11:-1 12:-1 13:-1 14:-1 15:-1 17:1 18:-1 19:-1 20:-1 
-32 -0 -32 32 32 32 1:1 2:-1 3:-1 4:-1 5:-1 6:-1 7:-1 9:1 10:-1 11:-1 12:-1 13:-1 14:-1 15:-1 17:1 18:-1 19:-1 20:-1 
-32 -8.156249883727492 -32 32 32 32 1:1 2:-1 3:-1 4:-1 5:-1 6:-1 7:-1 9:1 10:-1 11:-1 12:-1 13:-1 14:-1 15:-1 17:1 18:-1 19:-1 20:-1 
-32 -0 -0 0 0 0 1:-1 2:-1 3:-1 4:-1 5:1 6:-1 7:-1 9:1 10:-1 11:-1 12:-1 13:-1 14:-1 15:-1 17:1 18:-1 19:-1 20:-1 
-32 -0 -0 0 0 0 1:-1 2:-1 3:-1 4:-1 5:1 6:-1 7:-1 9:1 10:-1 11:-1 12:-1 13:-1 14:-1 15:-1 17:1 18:-1 19:-1 20:-1 
-32 -0 -0 0 0 0 1:-1 2:-1 3:-1 4:-1 5:1 6:-1 7:-1 9:1 10:-1 11:-1 12:-1 13:-1 14:-1 15:-1 17:1 18:-1 19:-1 20:-1 
-32 -0 -0 0 0 0 1:-1 2:-1 3:-1 4:-1 5:1 6:-1 7:-1 9:1 10:-1 11:-1 12:-1 13:-1 14:-1 15:-1 17:1 18:-1 19:-1 20:-1 
-32 -0 -0 0 0 0 1:-1 2:-1 3:-1 4:-1 5:1 6:-1 7:-1 9:1 10:-1 11:-1 12:-1 13:-1 14:-1 15:-1 17:1 18:-1 19:-1 20:-1 
-31.95628962087312 -2.192886219206915 -27.55148425333481 0 0.4556471988696847 2.305441427586592 1:-1 2:-1 3:-1 4:-1 5:1 6:-1 7:-1 9:1 10:-1 11:-1 12:-1 13:-1 14:-1 15:-1 17:1 18:-1 19:-1 20:-1 
-32 -32 -32 32 32 32 1:1 2:-1 3:-1 4:-1 5:-1 6:-1 7:-1 9:1 10:-1 11:-1 12:-1 13:-1 14:-1 15:-1 17:1 18:-1 19:-1 20:-1 
-32 -29.82523666126009 -32 32 32 31.64032991660863 1:1 2:-1 3:-1 4:-1 5:-1 6:-1 7:-1 9:1 10:-1 11:-1 12:-1 13:-1 14:-1 15:-1 17:1 18:-1 19:-1 20:-1 
-0 -0 -0 0 0 0.4185655952347325 1:-1 2:-1 3:-1 4:-1 5:1 6:-1 7:-1 9:-1 10:-1 11:-1 12:-1 13:1 14:-1 15:-1 17:1 18:-1 19:-1 20:-1 
-32 -0 -32 -32 32 32 1:1 2:-1 3:-1 4:-1 5:-1 6:-1 7:-1 9:1 10:-1 11:-1 12:-1 13:-1 14:-1 15:-1 17:1 18:-1 19:-1 20:-1 
-32 -0 -0 -0 0 0 1:1 2:-1 3:-1 4:-1 5:-1 6:-1 7:-1 9:1 10:-1 11:-1 12:-1 13:-1 14:-1 15:-1 17:-1 18:1 19:-1 20:-1 
-0 -0 -32 -0 0 0 1:1 2:-1 3:-1 4:-1 5:-1 6:-1 7:-1 9:-1 10:1 11:-1 12:-1 13:-1 14:-1 15:-1 17:-1 18:-1 19:1 20:-1 
-0 -0 -32 -0 0 0 1:1 2:-1 3:-1 4:-1 5:-1 6:-1 7:-1 9:-1 10:1 11:-1 12:-1 13:-1 14:-1 15:-1 17:-1 18:-1 19:1 20:-1 
-32 -0 -32 -32 32 32 1:1 2:-1 3:-1 4:-1 5:-1 6:-1 7:-1 9:1 10:-1 11:-1 12:-1 13:-1 14:-1 15:-1 17:1 18:-1 19:-1 20:-1 
-4.520811714671659 -0 -0 -0 0 0 1:-1 2:1 3:-1 4:-1 5:-1 6:-1 7:-1 9:1 10:-1 11:-1 12:-1 13:-1 14:-1 15:-1 17:1 18:-1 19:-1 20:-1 
-32 -0 -32 -0 0 0 1:1 2:-1 3:-1 4:-1 5:-1 6:-1 7:-1 9:-1 10:1 11:-1 12:-1 13:-1 14:-1 15:-1 17:1 18:-1 19:-1 20:-1 
-32 -0 -0 -0 0 0 1:1 2:-1 3:-1 4:-1 5:-1 6:-1 7:-1 9:1 10:-1 11:-1 12:-1 13:-1 14:-1 15:-1 17:-1 18:1 19:-1 20:-1 
-32 -0 -0 -0 0 0 1:1 2:-1 3:-1 4:-1 5:-1 6:-1 7:-1 9:1 10:-1 11:-1 12:-1 13:-1 14:-1 15:-1 17:-1 18:1 19:-1 20:-1 
-32 -0 -32 -0 0 0 1:1 2:-1 3:-1 4:-1 5:-1 6:-1 7:-1 9:-1 10:1 11:-1 12:-1 13:-1 14:-1 15:-1 17:1 18:-1 19:-1 20:-1 
-32 -0 -32 -0 0 0 1:1 2:-1 3:-1 4:-1 5:-1 6:-1 7:-1 9:-1 10:1 11:-1 12:-1 13:-1 14:-1 15:-1 17:1 18:-1 19:-1 20:-1 
-32 -0 -32 -0 0 0 1:1 2:-1 3:-1 4:-1 5:-1 6:-1 7:-1 9:-1 10:1 11:-1 12:-1 13:-1 14:-1 15:-1 17:1 18:-1 19:-1 20:-1 
-32 -0 -32 -0 0 0 1:1 2:-1 3:-1 4:-1 5:-1 6:-1 7:-1 9:-1 10:1 11:-1 12:-1 13:-1 14:-1 15:-1 17:1 18:-1 19:-1 20:-1 
-32 -0 -32 -0 0 0 1:1 2:-1 3:-1 4:-1 5:-1 6:-1 7:-1 9:-1 10:1 11:-1 12:-1 13:-1 14:-1 15:-1 17:1 18:-1 19:-1 20:-1 
-32 -0 -0 -0 0 0 1:1 2:-1 3:-1 4:-1 5:-1 6:-1 7:-1 9:1 10:-1 11:-1 12:-1 13:-1 14:-1 15:-1 17:-1 18:1 19:-1 20:-1 
-32 -0 -0 -0 0 0 1:1 2:-1 3:-1 4:-1 5:-1 6:-1 7:-1 9:1 10:-1 11:-1 12:-1 13:-1 14:-1 15:-1 17:-1 18:1 19:-1 20:-1 
-32 -0 -32 -32 32 32 1:1 2:-1 3:-1 4:-1 5:-1 6:-1 7:-1 9:1 10:-1 11:-1 12:-1 13:-1 14:-1 15:-1 17:1 18:-1 19:-1 20:-1 
-32 -0 -0 -0 0 0 1:-1 2:1 3:-1 4:-1 5:-1 6:-1 7:-1 9:1 10:-1 11:-1 12:-1 13:-1 14:-1 15:-1 17:1 18:-1 19:-1 20:-1 
-32 -0 -0 -0 0 0 1:-1 2:1 3:-1 4:-1 5:-1 6:-1 7:-1 9:1 10:-1 11:-1 12:-1 13:-1 14:-1 15:-1 17:1 18:-1 19:-1 20:-1 
-32 -0 -0 -0 0 0 1:-1 2:1 3:-1 4:-1 5:-1 6:-1 7:-1 9:1 10:-1 11:-1 12:-1 13:-1 14:-1 15:-1 17:1 18:-1 19:-1 20:-1 
-32 -0 -0 -0 0 0 1:-1 2:1 3:-1 4:-1 5:-1 6:-1 7:-1 9:1 10:-1 11:-1 12:-1 13:-1 14:-1 15:-1 17:1 18:-1 19:-1 20:-1 
-32 -0 -0 -0 0 0 1:-1 2:1 3:-1 4:-1 5:-1 6:-1 7:-1 9:1 10:-1 11:-1 12:-1 13:-1 14:-1 15:-1 17:1 18:-1 19:-1 20:-1 
-32 -0 -0 -0 0 0 1:1 2:-1 3:-1 4:-1 5:-1 6:-1 7:-1 9:1 10:-1 11:-1 12:-1 13:-1 14:-1 15:-1 17:-1 18:1 19:-1 20:-1 
-32 -0 -0 -0 0 0 1:1 2:-1 3:-1 4:-1 5:-1 6:-1 7:-1 9:1 10:-1 11:-1 12:-1 13:-1 14:-1 15:-1 17:-1 18:1 19:-1 20:-1 
-32 -0 -0 -0 0 0 1:1 2:-1 3:-1 4:-1 5:-1 6:-1 7:-1 9:1 10:-1 11:-1 12:-1 13:-1 14:-1 15:-1 17:-1 18:1 19:-1 20:-1 
-32 -0 -0 -0 0 0 1:-1 2:1 3:-1 4:-1 5:-1 6:-1 7:-1 9:1 10:-1 11:-1 12:-1 13:-1 14:-1 15:-1 17:1 18:-1 19:-1 20:-1 
-0 -0 -32 -0 0 0 1:1 2:-1 3:-1 4:-1 5:-1 6:-1 7:-1 9:-1 10:1 11:-1 12:-1 13:-1 14:-1 15:-1 17:-1 18:-1 19:1 20:-1 
-8.803562812960383 -0.235905731341083 -32 -0 0.3869594971139071 0 1:1 2:-1 3:-1 4:-1 5:-1 6:-1 7:-1 9:-1 10:1 11:-1 12:-1 13:-1 14:-1 15:-1 17:-1 18:-1 19:1 20:-1 
-32 -0 -0 -0 0 0 1:-1 2:1 3:-1 4:-1 5:-1 6:-1 7:-1 9:1 10:-1 11:-1 12:-1 13:-1 14:-1 15:-1 17:1 18:-1 19:-1 20:-1 
-32 -0 -32 -32 32 32 1:1 2:-1 3:-1 4:-1 5:-1 6:-1 7:-1 9:1 10:-1 11:-1 12:-1 13:-1 14:-1 15:-1 17:1 18:-1 19:-1 20:-1 
-32 -0 -0 -0 0 0 1:1 2:-1 3:-1 4:-1 5:-1 6:-1 7:-1 9:1 10:-1 11:-1 12:-1 13:-1 14:-1 15:-1 17:-1 18:1 19:-1 20:-1 
-0 -0 -3.967028287480618 -0 0 0 1:-1 2:1 3:-1 4:-1 5:-1 6:-1 7:-1 9:-1 10:1 11:-1 12:-1 13:-1 14:-1 15:-1 17:-1 18:-1 19:1 20:-1 
-0 -0 -32 -0 0 0 1:-1 2:1 3:-1 4:-1 5:-1 6:-1 7:-1 9:-1 10:1 11:-1 12:-1 13:-1 14:-1 15:-1 17:-1 18:-1 19:1 20:-1 
-0 -0 -32 -0 0 0 1:-1 2:1 3:-1 4:-1 5:-1 6:-1 7:-1 9:-1 10:1 11:-1 12:-1 13:-1 14:-1 15:-1 17:-1 18:-1 19:1 20:-1 
-0 -0 -32 -0 0 0 1:-1 2:1 3:-1 4:-1 5:-1 6:-1 7:-1 9:-1 10:1 11:-1 12:-1 13:-1 14:-1 15:-1 17:-1 18:-1 19:1 20:-1 
-0 -0 -32 -0 0 0 1:-1 2:1 3:-1 4:-1 5:-1 6:-1 7:-1 9:-1 10:1 11:-1 12:-1 13:-1 14:-1 15:-1 17:-1 18:-1 19:1 20:-1 
-0 -0 -11.29067422107666 -0 0 0 1:1 2:-1 3:-1 4:-1 5:-1 6:-1 7:-1 9:-1 10:1 11:-1 12:-1 13:-1 14:-1 15:-1 17:-1 18:1 19:-1 20:-1 
-32 -0 -32 -0 0 0 1:1 2:-1 3:-1 4:-1 5:-1 6:-1 7:-1 9:-1 10:1 11:-1 12:-1 13:-1 14:-1 15:-1 17:1 18:-1 19:-1 20:-1 
-32 -2.669675569307465 -32 -10.44176303223364 2.240885212588986 6.789928934017548 1:1 2:-1 3:-1 4:-1 5:-1 6:-1 7:-1 9:-1 10:1 11:-1 12:-1 13:-1 14:-1 15:-1 17:1 18:-1 19:-1 20:-1 
-32 -0 -32 -32 32 32 1:1 2:-1 3:-1 4:-1 5:-1 6:-1 7:-1 9:1 10:-1 11:-1 12:-1 13:-1 14:-1 15:-1 17:1 18:-1 19:-1 20:-1 
-32 -0 -32 -32 32 32 1:1 2:-1 3:-1 4:-1 5:-1 6:-1 7:-1 9:1 10:-1 11:-1 12:-1 13:-1 14:-1 15:-1 17:1 18:-1 19:-1 20:-1 
-0 -0 -32 -0 0 0 1:-1 2:1 3:-1 4:-1 5:-1 6:-1 7:-1 9:-1 10:1 11:-1 12:-1 13:-1 14:-1 15:-1 17:-1 18:-1 19:1 20:-1 
-0 -0 -32 -0 0 0 1:-1 2:1 3:-1 4:-1 5:-1 6:-1 7:-1 9:-1 10:1 11:-1 12:-1 13:-1 14:-1 15:-1 17:-1 18:-1 19:1 20:-1 
-32 -0 -0 -0 0 0 1:-1 2:1 3:-1 4:-1 5:-1 6:-1 7:-1 9:1 10:-1 11:-1 12:-1 13:-1 14:-1 15:-1 17:1 18:-1 19:-1 20:-1 
-32 -2.16465836737227 -0 -0 0 0 1:-1 2:1 3:-1 4:-1 5:-1 6:-1 7:-1 9:1 10:-1 11:-1 12:-1 13:-1 14:-1 15:-1 17:1 18:-1 19:-1 20:-1 
-0 -0 -0 -0 31.29142947345435 0 1:-1 2:1 3:-1 4:-1 5:-1 6:-1 7:-1 9:-1 10:1 11:-1 12:-1 13:-1 14:-1 15:-1 17:1 18:-1 19:-1 20:-1 
-32 -32 -0 -0 0 0 1:-1 2:1 3:-1 4:-1 5:-1 6:-1 7:-1 9:1 10:-1 11:-1 12:-1 13:-1 14:-1 15:-1 17:1 18:-1 19:-1 20:-1 
-15.88732910623554 -31.48788794490622 -5.827100744876552 -6.856258823419664 6.922156311449045 6.506871820239786 1:-1 2:1 3:-1 4:-1 5:-1 6:-1 7:-1 9:1 10:-1 11:-1 12:-1 13:-1 14:-1 15:-1 17:1 18:-1 19:-1 20:-1 
-0 -0 -32 -0 0 0 1:-1 2:1 3:-1 4:-1 5:-1 6:-1 7:-1 9:-1 10:1 11:-1 12:-1 13:-1 14:-1 15:-1 17:-1 18:-1 19:1 20:-1 
-0 -0 -32 -0 0 0 1:-1 2:1 3:-1 4:-1 5:-1 6:-1 7:-1 9:-1 10:1 11:-1 12:-1 13:-1 14:-1 15:-1 17:-1 18:-1 19:1 20:-1 
-0 -0 -32 -0 0 0 1:-1 2:1 3:-1 4:-1 5:-1 6:-1 7:-1 9:-1 10:1 11:-1 12:-1 13:-1 14:-1 15:-1 17:-1 18:-1 19:1 20:-1 
-32 -0 -32 -32 32 32 1:1 2:-1 3:-1 4:-1 5:-1 6:-1 7:-1 9:1 10:-1 11:-1 12:-1 13:-1 14:-1 15:-1 17:1 18:-1 19:-1 20:-1 
-0 -0 -32 -0 0 0 1:1 2:-1 3:-1 4:-1 5:-1 6:-1 7:-1 9:-1 10:1 11:-1 12:-1 13:-1 14:-1 15:-1 17:-1 18:1 19:-1 20:-1 
-0 -0 -32 -0 0 0 1:1 2:-1 3:-1 4:-1 5:-1 6:-1 7:-1 9:-1 10:1 11:-1 12:-1 13:-1 14:-1 15:-1 17:-1 18:1 19:-1 20:-1 
-0 -0 -32 -0 0 0 1:1 2:-1 3:-1 4:-1 5:-1 6:-1 7:-1 9:-1 10:1 11:-1 12:-1 13:-1 14:-1 15:-1 17:-1 18:1 19:-1 20:-1 
-32 -4.520811714671659 -32 -32 32 32 1:1 2:-1 3:-1 4:-1 5:-1 6:-1 7:-1 9:1 10:-1 11:-1 12:-1 13:-1 14:-1 15:-1 17:1 18:-1 19:-1 20:-1 
-32 -32 -32 -32 32 32 1:1 2:-1 3:-1 4:-1 5:-1 6:-1 7:-1 9:1 10:-1 11:-1 12:-1 13:-1 14:-1 15:-1 17:1 18:-1 19:-1 20:-1 
-0 -0 -32 -0 0 0 1:-1 2:1 3:-1 4:-1 5:-1 6:-1 7:-1 9:-1 10:1 11:-1 12:-1 13:-1 14:-1 15:-1 17:-1 18:-1 19:1 20:-1 
-0 -0.2260637272324305 -31.88301109133535 -0 1.717674409367728 0 1:-1 2:1 3:-1 4:-1 5:-1 6:-1 7:-1 9:-1 10:1 11:-1 12:-1 13:-1 14:-1 15:-1 17:-1 18:-1 19:1 20:-1 
-21.45113163850112 -0 -0 -0 32 0 1:-1 2:1 3:-1 4:-1 5:-1 6:-1 7:-1 9:-1 10:1 11:-1 12:-1 13:-1 14:-1 15:-1 17:1 18:-1 19:-1 20:-1 
-32 -0 -6.890289284812544 -0 0 0 1:1 2:-1 3:-1 4:-1 5:-1 6:-1 7:-1 9:1 10:-1 11:-1 12:-1 13:-1 14:-1 15:-1 17:-1 18:1 19:-1 20:-1 
-0 -0 -32 -0 0 0 1:1 2:-1 3:-1 4:-1 5:-1 6:-1 7:-1 9:-1 10:1 11:-1 12:-1 13:-1 14:-1 15:-1 17:-1 18:1 19:-1 20:-1 
-32 -1.648328836254729 -31.92994601411964 -5.403752896703997 2.705624288994335 4.28741137170202 1:1 2:-1 3:-1 4:-1 5:-1 6:-1 7:-1 9:1 10:-1 11:-1 12:-1 13:-1 14:-1 15:-1 17:-1 18:1 19:-1 20:-1 
-21.35053444353531 -1.610969032259428 -0 -0 0.6103303137373505 0 1:-1 2:1 3:-1 4:-1 5:-1 6:-1 7:-1 9:1 10:-1 11:-1 12:-1 13:-1 14:-1 15:-1 17:-1 18:1 19:-1 20:-1 
-32 -31.67466483557867 -32 -32 32 32 1:1 2:-1 3:-1 4:-1 5:-1 6:-1 7:-1 9:1 10:-1 11:-1 12:-1 13:-1 14:-1 15:-1 17:1 18:-1 19:-1 20:-1 
-32 -0.07293128932108971 -7.404955048271235 -0 30.90557387296348 0 1:-1 2:1 3:-1 4:-1 5:-1 6:-1 7:-1 9:-1 10:1 11:-1 12:-1 13:-1 14:-1 15:-1 17:1 18:-1 19:-1 20:-1 
-27.55861364373873 -0 -32 -0 0 0 1:1 2:-1 3:-1 4:-1 5:-1 6:-1 7:-1 9:-1 10:1 11:-1 12:-1 13:-1 14:-1 15:-1 17:-1 18:1 19:-1 20:-1 
-32 -0 -32 -0 0 0 1:1 2:-1 3:-1 4:-1 5:-1 6:-1 7:-1 9:-1 10:1 11:-1 12:-1 13:-1 14:-1 15:-1 17:-1 18:1 19:-1 20:-1 
-32 -0.06729155459504406 -32 -0 0 0 1:1 2:-1 3:-1 4:-1 5:-1 6:-1 7:-1 9:-1 10:1 11:-1 12:-1 13:-1 14:-1 15:-1 17:-1 18:1 19:-1 20:-1 
-0 -0 -32 -0 0 0 1:-1 2:1 3:-1 4:-1 5:-1 6:-1 7:-1 9:-1 10:1 11:-1 12:-1 13:-1 14:-1 15:-1 17:-1 18:1 19:-1 20:-1 
-32 -0 -32 -0 0 0 1:-1 2:1 3:-1 4:-1 5:-1 6:-1 7:-1 9:-1 10:1 11:-1 12:-1 13:-1 14:-1 15:-1 17:-1 18:1 19:-1 20:-1 
-32 -0 -32 -0 0 0 1:-1 2:1 3:-1 4:-1 5:-1 6:-1 7:-1 9:-1 10:1 11:-1 12:-1 13:-1 14:-1 15:-1 17:-1 18:1 19:-1 20:-1 
-7.914716021938193 -0.1065317607390062 -26.70099588651374 -0 0 0 1:-1 2:1 3:-1 4:-1 5:-1 6:-1 7:-1 9:-1 10:1 11:-1 12:-1 13:-1 14:-1 15:-1 17:-1 18:1 19:-1 20:-1 
-32 -0 -32 -32 -32 32 1:1 2:-1 3:-1 4:-1 5:-1 6:-1 7:-1 9:1 10:-1 11:-1 12:-1 13:-1 14:-1 15:-1 17:1 18:-1 19:-1 20:-1 
-32 -0 -32 -32 -32 32 1:1 2:-1 3:-1 4:-1 5:-1 6:-1 7:-1 9:1 10:-1 11:-1 12:-1 13:-1 14:-1 15:-1 17:1 18:-1 19:-1 20:-1 
-0.9281851791098457 -0 -0 -0.2734408708775178 -0.4846264652697299 0.2601750209318649 1:1 2:-1 3:-1 4:-1 5:-1 6:-1 7:-1 9:-1 10:-1 11:-1 12:1 13:-1 14:-1 15:-1 17:-1 18:-1 19:-1 20:1 
-32 -0 -32 -32 -32 32 1:1 2:-1 3:-1 4:-1 5:-1 6:-1 7:-1 9:1 10:-1 11:-1 12:-1 13:-1 14:-1 15:-1 17:1 18:-1 19:-1 20:-1 
-32 -0 -32 -32 -32 32 1:1 2:-1 3:-1 4:-1 5:-1 6:-1 7:-1 9:1 10:-1 11:-1 12:-1 13:-1 14:-1 15:-1 17:1 18:-1 19:-1 20:-1 
-32 -0 -32 -32 -32 32 1:1 2:-1 3:-1 4:-1 5:-1 6:-1 7:-1 9:1 10:-1 11:-1 12:-1 13:-1 14:-1 15:-1 17:1 18:-1 19:-1 20:-1 
-0 -0.8559747672795376 -1.757133437783817 -0.4212343274390054 -0.5334002195185887 0.3718949380474408 1:-1 2:-1 3:-1 4:1 5:-1 6:-1 7:-1 9:-1 10:-1 11:-1 12:1 13:-1 14:-1 15:-1 17:1 18:-1 19:-1 20:-1 
-4.740682626375915 -5.174710744155325 -0 -0 -4.284539605252189 0 1:-1 2:1 3:-1 4:-1 5:-1 6:-1 7:-1 9:1 10:-1 11:-1 12:-1 13:-1 14:-1 15:-1 17:-1 18:-1 19:-1 20:1 
-0.5143355326316187 -0 -4.720797939395335 -0 -0.5790218450306449 0 1:-1 2:-1 3:1 4:-1 5:-1 6:-1 7:-1 9:-1 10:1 11:-1 12:-1 13:-1 14:-1 15:-1 17:-1 18:-1 19:-1 20:1 
-0 -0 -0 -0 -32 0 1:-1 2:1 3:-1 4:-1 5:-1 6:-1 7:-1 9:-1 10:1 11:-1 12:-1 13:-1 14:-1 15:-1 17:1 18:-1 19:-1 20:-1 
-18.34368247618424 -0 -0 -0 -32 0 1:-1 2:1 3:-1 4:-1 5:-1 6:-1 7:-1 9:-1 10:1 11:-1 12:-1 13:-1 14:-1 15:-1 17:1 18:-1 19:-1 20:-1 
-32 -6.860743827137664 -18.97266027679625 -4.048420009220263 -32 2.94488219931333 1:-1 2:1 3:-1 4:-1 5:-1 6:-1 7:-1 9:-1 10:1 11:-1 12:-1 13:-1 14:-1 15:-1 17:1 18:-1 19:-1 20:-1 
-7.349781644112883 -0 -6.482139496685024 -0 -0 0 1:-1 2:-1 3:-1 4:1 5:-1 6:-1 7:-1 9:1 10:-1 11:-1 12:-1 13:-1 14:-1 15:-1 17:1 18:-1 19:-1 20:-1 
-32 -0 -32 -32 -32 32 1:1 2:-1 3:-1 4:-1 5:-1 6:-1 7:-1 9:1 10:-1 11:-1 12:-1 13:-1 14:-1 15:-1 17:1 18:-1 19:-1 20:-1 
-32 -0 -32 -32 -32 32 1:1 2:-1 3:-1 4:-1 5:-1 6:-1 7:-1 9:1 10:-1 11:-1 12:-1 13:-1 14:-1 15:-1 17:1 18:-1 19:-1 20:-1 
-32 -9.746785047876955 -32 -32 -32 32 1:1 2:-1 3:-1 4:-1 5:-1 6:-1 7:-1 9:1 10:-1 11:-1 12:-1 13:-1 14:-1 15:-1 17:1 18:-1 19:-1 20:-1 
-32 -32 -32 -32 -32 32 1:1 2:-1 3:-1 4:-1 5:-1 6:-1 7:-1 9:1 10:-1 11:-1 12:-1 13:-1 14:-1 15:-1 17:1 18:-1 19:-1 20:-1 
-32 -0 -32 -0 -0 0 1:-1 2:-1 3:-1 4:1 5:-1 6:-1 7:-1 9:1 10:-1 11:-1 12:-1 13:-1 14:-1 15:-1 17:1 18:-1 19:-1 20:-1 
-31.78382006033925 -3.742350692451746 -30.96438406298323 -4.427416658953544 -4.927525821602741 5.6739160129103 1:-1 2:-1 3:-1 4:1 5:-1 6:-1 7:-1 9:1 10:-1 11:-1 12:-1 13:-1 14:-1 15:-1 17:1 18:-1 19:-1 20:-1 
-32 -32 -32 -32 -32 32 1:1 2:-1 3:-1 4:-1 5:-1 6:-1 7:-1 9:1 10:-1 11:-1 12:-1 13:-1 14:-1 15:-1 17:1 18:-1 19:-1 20:-1 
-3.025174055868654 -0 -5.701997476266637 -0.5280029964505528 -0.8119420160280153 0.4865437911573288 1:1 2:-1 3:-1 4:-1 5:-1 6:-1 7:-1 9:-1 10:-1 11:1 12:-1 13:-1 14:-1 15:-1 17:-1 18:-1 19:-1 20:1 
-0.1406093939500895 -0 -0.3649153487779994 -4.068590831585248 -1.159577406967277 3.693811787663932 1:1 2:-1 3:-1 4:-1 5:-1 6:-1 7:-1 9:1 10:-1 11:-1 12:-1 13:-1 14:-1 15:-1 17:-1 18:-1 19:-1 20:1 
-7.145463015458208 -0 -0 -0 -0 -0 1:1 2:-1 3:-1 4:-1 5:-1 6:-1 7:-1 9:-1 10:-1 11:-1 12:-1 13:-1 14:-1 15:1 17:1 18:-1 19:-1 20:-1 
-32 -0 -32 -32 -0 -0 1:1 2:-1 3:-1 4:-1 5:-1 6:-1 7:-1 9:1 10:-1 11:-1 12:-1 13:-1 14:-1 15:-1 17:1 18:-1 19:-1 20:-1 
-32 -0 -32 -32 -0 -0 1:1 2:-1 3:-1 4:-1 5:-1 6:-1 7:-1 9:1 10:-1 11:-1 12:-1 13:-1 14:-1 15:-1 17:1 18:-1 19:-1 20:-1 
-32 -0 -32 -32 -0 -0 1:1 2:-1 3:-1 4:-1 5:-1 6:-1 7:-1 9:1 10:-1 11:-1 12:-1 13:-1 14:-1 15:-1 17:1 18:-1 19:-1 20:-1 
-32 -0 -32 -32 -0 -0 1:1 2:-1 3:-1 4:-1 5:-1 6:-1 7:-1 9:1 10:-1 11:-1 12:-1 13:-1 14:-1 15:-1 17:1 18:-1 19:-1 20:-1 
-32 -0 -32 -32 -0 -0 1:1 2:-1 3:-1 4:-1 5:-1 6:-1 7:-1 9:1 10:-1 11:-1 12:-1 13:-1 14:-1 15:-1 17:1 18:-1 19:-1 20:-1 
-32 -0 -32 -32 -0 -0 1:1 2:-1 3:-1 4:-1 5:-1 6:-1 7:-1 9:1 10:-1 11:-1 12:-1 13:-1 14:-1 15:-1 17:1 18:-1 19:-1 20:-1 
-32 -0 -32 -32 -0 -0 1:1 2:-1 3:-1 4:-1 5:-1 6:-1 7:-1 9:1 10:-1 11:-1 12:-1 13:-1 14:-1 15:-1 17:1 18:-1 19:-1 20:-1 
-32 -0 -32 -32 -7.989412430692759 -5.197771828938682 1:1 2:-1 3:-1 4:-1 5:-1 6:-1 7:-1 9:1 10:-1 11:-1 12:-1 13:-1 14:-1 15:-1 17:1 18:-1 19:-1 20:-1 
-32 -0 -32 -32 -32 -32 1:1 2:-1 3:-1 4:-1 5:-1 6:-1 7:-1 9:1 10:-1 11:-1 12:-1 13:-1 14:-1 15:-1 17:1 18:-1 19:-1 20:-1 
-32 -0 -32 -32 -32 -32 1:1 2:-1 3:-1 4:-1 5:-1 6:-1 7:-1 9:1 10:-1 11:-1 12:-1 13:-1 14:-1 15:-1 17:1 18:-1 19:-1 20:-1 
-32 -0 -0 -32 -0 -0 1:1 2:-1 3:-1 4:-1 5:-1 6:-1 7:-1 9:-1 10:-1 11:-1 12:-1 13:1 14:-1 15:-1 17:1 18:-1 19:-1 20:-1 
-32 -0 -0 -32 -0 -0 1:1 2:-1 3:-1 4:-1 5:-1 6:-1 7:-1 9:-1 10:-1 11:-1 12:-1 13:1 14:-1 15:-1 17:1 18:-1 19:-1 20:-1 
-32 -0 -32 -32 -32 -32 1:1 2:-1 3:-1 4:-1 5:-1 6:-1 7:-1 9:1 10:-1 11:-1 12:-1 13:-1 14:-1 15:-1 17:1 18:-1 19:-1 20:-1 
-32 -0 -32 -32 -32 -32 1:1 2:-1 3:-1 4:-1 5:-1 6:-1 7:-1 9:1 10:-1 11:-1 12:-1 13:-1 14:-1 15:-1 17:1 18:-1 19:-1 20:-1 
-0.1063237826138397 -32 -0 -0 -1.560508160174348 -1.201595795578526 1:-1 2:-1 3:-1 4:-1 5:-1 6:1 7:-1 9:-1 10:-1 11:-1 12:-1 13:-1 14:1 15:-1 17:1 18:-1 19:-1 20:-1 
-32 -7.224924167711985 -5.387570220666569 -32 -2.174758952364864 -0.7816115207325695 1:1 2:-1 3:-1 4:-1 5:-1 6:-1 7:-1 9:-1 10:-1 11:-1 12:-1 13:1 14:-1 15:-1 17:1 18:-1 19:-1 20:-1 
-32 -0 -32 -32 -32 -32 1:1 2:-1 3:-1 4:-1 5:-1 6:-1 7:-1 9:1 10:-1 11:-1 12:-1 13:-1 14:-1 15:-1 17:1 18:-1 19:-1 20:-1 
-32 -0 -32 -32 -32 -32 1:1 2:-1 3:-1 4:-1 5:-1 6:-1 7:-1 9:1 10:-1 11:-1 12:-1 13:-1 14:-1 15:-1 17:1 18:-1 19:-1 20:-1 
-32 -0 -32 -32 -32 -32 1:1 2:-1 3:-1 4:-1 5:-1 6:-1 7:-1 9:1 10:-1 11:-1 12:-1 13:-1 14:-1 15:-1 17:1 18:-1 19:-1 20:-1 
-32 -8.576593701834673 -32 -32 -32 -32 1:1 2:-1 3:-1 4:-1 5:-1 6:-1 7:-1 9:1 10:-1 11:-1 12:-1 13:-1 14:-1 15:-1 17:1 18:-1 19:-1 20:-1 
-31.9820815693655 -2.614880711094238 -5.38757022066657 -6.269536487923064 -2.165292758448945 -0.7700847546069451 1:1 2:-1 3:-1 4:-1 5:-1 6:-1 7:-1 9:-1 10:-1 11:-1 12:-1 13:-1 14:-1 15:1 17:1 18:-1 19:-1 20:-1 
-32 -32 -32 -32 -32 -32 1:1 2:-1 3:-1 4:-1 5:-1 6:-1 7:-1 9:1 10:-1 11:-1 12:-1 13:-1 14:-1 15:-1 17:1 18:-1 19:-1 20:-1 
-2.848471267844541 -1.820824432897827 -0 -3.265420288146134 -0.09943097440601635 -0.5902584258405482 1:-1 2:-1 3:-1 4:-1 5:-1 6:-1 7:1 9:-1 10:-1 11:-1 12:-1 13:1 14:-1 15:-1 17:1 18:-1 19:-1 20:-1 
-4.205730682131859 -3.181218415575076 -6.219397448782253 -1.902778154284702 -2.370637004985686 -2.147797475332325 1:-1 2:-1 3:-1 4:-1 5:-1 6:-1 7:1 9:1 10:-1 11:-1 12:-1 13:-1 14:-1 15:-1 17:1 18:-1 19:-1 20:-1 
-6.340012219544325 -32 -6.219397448782254 -4.446340088782681 -1.319649391665399 -2.138807928291582 1:-1 2:-1 3:-1 4:-1 5:-1 6:1 7:-1 9:1 10:-1 11:-1 12:-1 13:-1 14:-1 15:-1 17:1 18:-1 19:-1 20:-1 
-32 -32 -32 -32 -31.7946950776973 -32 1:1 2:-1 3:-1 4:-1 5:-1 6:-1 7:-1 9:1 10:-1 11:-1 12:-1 13:-1 14:-1 15:-1 17:1 18:-1 19:-1 20:-1 
-0 -0 -0 -0 -0.1098273755240405 -0.6032960207030181 1:-1 2:-1 3:-1 4:-1 5:-1 6:-1 7:1 9:-1 10:-1 11:-1 12:-1 13:-1 14:-1 15:1 17:1 18:-1 19:-1 20:-1 
