svm_type c_svc
kernel_type rbf
gamma 0.03125
nr_class 8
total_sv 1515
rho -0.710355 0.574396 -0.22887 0.802628 0.589051 -0.398441 -0.843861 0.423305 0.469964 0.51029 1.09257 0.254911 -0.589879 -0.934059 -0.0295131 -0.0656464 -1.13854 -0.838692 0.710295 0.715095 -0.0632742 -0.721061 -0.0843346 -1.15198 -0.826549 -0.755707 -0.860445 -0.549735
label 0 5 2 4 1 3 6 7
nr_sv 582 46 145 486 152 41 62 1
SV
0 0 32 0 0 0 0 1:-1 2:-1 3:-1 4:-1 5:1 6:-1 7:-1 8:-1 9:1 10:-1 11:-1 12:-1 13:-1 14:-1 15:-1 17:1 18:-1 19:-1 20:-1 25:1 26:-1 27:-1 28:-1 
0 0 32 0 0 0 0 1:-1 2:-1 3:-1 4:-1 5:1 6:-1 7:-1 8:-1 9:1 10:-1 11:-1 12:-1 13:-1 14:-1 15:-1 17:1 18:-1 19:-1 20:-1 25:1 26:-1 27:-1 28:-1 
0 0 0 32 0 0 0 1:-1 2:1 3:-1 4:-1 5:-1 6:-1 7:-1 8:-1 9:-1 10:1 11:-1 12:-1 13:-1 14:-1 15:-1 17:1 18:-1 19:-1 20:-1 25:1 26:-1 27:-1 28:-1 
0 0 0 0 0 32 0 1:-1 2:-1 3:-1 4:-1 5:-1 6:-1 7:1 8:-1 9:1 10:-1 11:-1 12:-1 13:-1 14:-1 15:-1 17:1 18:-1 19:-1 20:-1 25:1 26:-1 27:-1 28:-1 
0 0 32 0 0 0 0 1:-1 2:-1 3:-1 4:-1 5:1 6:-1 7:-1 8:-1 9:1 10:-1 11:-1 12:-1 13:-1 14:-1 15:-1 17:1 18:-1 19:-1 20:-1 25:1 26:-1 27:-1 28:-1 
0 0 32 0 0 0 0 1:-1 2:-1 3:-1 4:-1 5:1 6:-1 7:-1 8:-1 9:1 10:-1 11:-1 12:-1 13:-1 14:-1 15:-1 17:1 18:-1 19:-1 20:-1 25:1 26:-1 27:-1 28:-1 
0 0 32 0 0 0 0 1:-1 2:-1 3:-1 4:-1 5:1 6:-1 7:-1 8:-1 9:1 10:-1 11:-1 12:-1 13:-1 14:-1 15:-1 17:1 18:-1 19:-1 20:-1 25:1 26:-1 27:-1 28:-1 
0 0 32 0 0 0 0 1:-1 2:-1 3:-1 4:-1 5:1 6:-1 7:-1 8:-1 9:1 10:-1 11:-1 12:-1 13:-1 14:-1 15:-1 17:1 18:-1 19:-1 20:-1 25:1 26:-1 27:-1 28:-1 
0 32 0 0 0 0 0 1:1 2:-1 3:-1 4:-1 5:-1 6:-1 7:-1 8:-1 9:-1 10:-1 11:1 12:-1 13:-1 14:-1 15:-1 17:-1 18:-1 19:1 20:-1 25:1 26:-1 27:-1 28:-1 
0 0 0 32 0 0 0 1:-1 2:1 3:-1 4:-1 5:-1 6:-1 7:-1 8:-1 9:1 10:-1 11:-1 12:-1 13:-1 14:-1 15:-1 17:1 18:-1 19:-1 20:-1 25:1 26:-1 27:-1 28:-1 
0 0 32 0 0 0 0 1:-1 2:-1 3:-1 4:-1 5:1 6:-1 7:-1 8:-1 9:1 10:-1 11:-1 12:-1 13:-1 14:-1 15:-1 17:1 18:-1 19:-1 20:-1 25:1 26:-1 27:-1 28:-1 
0 0 0 0 0 32 0 1:-1 2:-1 3:-1 4:-1 5:-1 6:-1 7:1 8:-1 9:1 10:-1 11:-1 12:-1 13:-1 14:-1 15:-1 17:1 18:-1 19:-1 20:-1 25:1 26:-1 27:-1 28:-1 
0 0 32 0 0 0 0 1:-1 2:-1 3:-1 4:-1 5:1 6:-1 7:-1 8:-1 9:1 10:-1 11:-1 12:-1 13:-1 14:-1 15:-1 17:1 18:-1 19:-1 20:-1 25:1 26:-1 27:-1 28:-1 
0 0 32 0 0 0 0 1:-1 2:-1 3:-1 4:-1 5:1 6:-1 7:-1 8:-1 9:1 10:-1 11:-1 12:-1 13:-1 14:-1 15:-1 17:1 18:-1 19:-1 20:-1 25:1 26:-1 27:-1 28:-1 
0 0 32 0 0 0 0 1:-1 2:-1 3:-1 4:-1 5:1 6:-1 7:-1 8:-1 9:1 10:-1 11:-1 12:-1 13:-1 14:-1 15:-1 17:1 18:-1 19:-1 20:-1 25:1 26:-1 27:-1 28:-1 
0 0 32 0 0 0 0 1:-1 2:-1 3:-1 4:-1 5:1 6:-1 7:-1 8:-1 9:1 10:-1 11:-1 12:-1 13:-1 14:-1 15:-1 17:1 18:-1 19:-1 20:-1 25:1 26:-1 27:-1 28:-1 
0 0 0 32 0 0 0 1:-1 2:1 3:-1 4:-1 5:-1 6:-1 7:-1 8:-1 9:1 10:-1 11:-1 12:-1 13:-1 14:-1 15:-1 17:1 18:-1 19:-1 20:-1 25:1 26:-1 27:-1 28:-1 
0 0 32 0 0 0 0 1:-1 2:-1 3:-1 4:-1 5:1 6:-1 7:-1 8:-1 9:1 10:-1 11:-1 12:-1 13:-1 14:-1 15:-1 17:1 18:-1 19:-1 20:-1 25:1 26:-1 27:-1 28:-1 
0 0 32 0 0 0 0 1:-1 2:-1 3:-1 4:-1 5:1 6:-1 7:-1 8:-1 9:1 10:-1 11:-1 12:-1 13:-1 14:-1 15:-1 17:1 18:-1 19:-1 20:-1 25:1 26:-1 27:-1 28:-1 
0 0 32 0 0 0 0 1:-1 2:-1 3:-1 4:-1 5:1 6:-1 7:-1 8:-1 9:1 10:-1 11:-1 12:-1 13:-1 14:-1 15:-1 17:1 18:-1 19:-1 20:-1 25:1 26:-1 27:-1 28:-1 
0 32 0 0 1.352909659838384 4.869098122246059 0 1:1 2:-1 3:-1 4:-1 5:-1 6:-1 7:-1 8:-1 9:-1 10:-1 11:1 12:-1 13:-1 14:-1 15:-1 17:-1 18:-1 19:1 20:-1 25:1 26:-1 27:-1 28:-1 
0 32 0 0 0 0 0 1:-1 2:-1 3:1 4:-1 5:-1 6:-1 7:-1 8:-1 9:-1 10:-1 11:1 12:-1 13:-1 14:-1 15:-1 17:1 18:-1 19:-1 20:-1 25:1 26:-1 27:-1 28:-1 
0 0 32 0 0 0 0 1:-1 2:-1 3:-1 4:-1 5:1 6:-1 7:-1 8:-1 9:1 10:-1 11:-1 12:-1 13:-1 14:-1 15:-1 17:1 18:-1 19:-1 20:-1 25:1 26:-1 27:-1 28:-1 
0 0 32 0 0 0 0 1:-1 2:-1 3:-1 4:-1 5:1 6:-1 7:-1 8:-1 9:1 10:-1 11:-1 12:-1 13:-1 14:-1 15:-1 17:1 18:-1 19:-1 20:-1 25:1 26:-1 27:-1 28:-1 
0 32 0 0 0 0 0 1:-1 2:-1 3:1 4:-1 5:-1 6:-1 7:-1 8:-1 9:1 10:-1 11:-1 12:-1 13:-1 14:-1 15:-1 17:1 18:-1 19:-1 20:-1 25:1 26:-1 27:-1 28:-1 
0 32 0 0 0 0 0 1:-1 2:-1 3:1 4:-1 5:-1 6:-1 7:-1 8:-1 9:1 10:-1 11:-1 12:-1 13:-1 14:-1 15:-1 17:1 18:-1 19:-1 20:-1 25:1 26:-1 27:-1 28:-1 
0 0 0 0 32 0 0 1:-1 2:-1 3:-1 4:1 5:-1 6:-1 7:-1 8:-1 9:-1 10:1 11:-1 12:-1 13:-1 14:-1 15:-1 17:1 18:-1 19:-1 20:-1 25:1 26:-1 27:-1 28:-1 
0 0 32 0 0 0 0 1:-1 2:-1 3:-1 4:-1 5:1 6:-1 7:-1 8:-1 9:1 10:-1 11:-1 12:-1 13:-1 14:-1 15:-1 17:1 18:-1 19:-1 20:-1 25:1 26:-1 27:-1 28:-1 
0 0 32 0 0 0 0 1:-1 2:-1 3:-1 4:-1 5:1 6:-1 7:-1 8:-1 9:1 10:-1 11:-1 12:-1 13:-1 14:-1 15:-1 17:1 18:-1 19:-1 20:-1 25:1 26:-1 27:-1 28:-1 
0.02327635081063365 2.381400221497511 4.928794543446907 4.195257145562175 1.178198569515481 0.08848733396922824 0.01055592733074398 1:1 2:-1 3:-1 4:-1 5:-1 6:-1 7:-1 8:-1 9:-1 10:-1 11:-1 12:-1 13:1 14:-1 15:-1 17:-1 18:-1 19:1 20:-1 25:1 26:-1 27:-1 28:-1 
0 0 32 0 0 0 0 1:-1 2:-1 3:-1 4:-1 5:1 6:-1 7:-1 8:-1 9:1 10:-1 11:-1 12:-1 13:-1 14:-1 15:-1 17:1 18:-1 19:-1 20:-1 25:1 26:-1 27:-1 28:-1 
0 0 32 0 0 0 0 1:-1 2:-1 3:-1 4:-1 5:1 6:-1 7:-1 8:-1 9:1 10:-1 11:-1 12:-1 13:-1 14:-1 15:-1 17:1 18:-1 19:-1 20:-1 25:1 26:-1 27:-1 28:-1 
0 0 32 0 0 0 0 1:-1 2:-1 3:-1 4:-1 5:1 6:-1 7:-1 8:-1 9:1 10:-1 11:-1 12:-1 13:-1 14:-1 15:-1 17:1 18:-1 19:-1 20:-1 25:1 26:-1 27:-1 28:-1 
0 0 32 0 0 0 0 1:-1 2:-1 3:-1 4:-1 5:1 6:-1 7:-1 8:-1 9:-1 10:-1 11:-1 12:-1 13:1 14:-1 15:-1 17:1 18:-1 19:-1 20:-1 25:1 26:-1 27:-1 28:-1 
0 0 32 0 0 0 0 1:-1 2:-1 3:-1 4:-1 5:1 6:-1 7:-1 8:-1 9:-1 10:-1 11:-1 12:-1 13:1 14:-1 15:-1 17:1 18:-1 19:-1 20:-1 25:1 26:-1 27:-1 28:-1 
0 0 32 0 0 0 0 1:-1 2:-1 3:-1 4:-1 5:1 6:-1 7:-1 8:-1 9:-1 10:-1 11:-1 12:-1 13:1 14:-1 15:-1 17:1 18:-1 19:-1 20:-1 25:1 26:-1 27:-1 28:-1 
32 0 0 0 0 0 0 1:-1 2:-1 3:-1 4:-1 5:-1 6:1 7:-1 8:-1 9:1 10:-1 11:-1 12:-1 13:-1 14:-1 15:-1 17:1 18:-1 19:-1 20:-1 25:1 26:-1 27:-1 28:-1 
0 0 32 0 0 0 0 1:-1 2:-1 3:-1 4:-1 5:1 6:-1 7:-1 8:-1 9:1 10:-1 11:-1 12:-1 13:-1 14:-1 15:-1 17:1 18:-1 19:-1 20:-1 25:1 26:-1 27:-1 28:-1 
0 0 32 0 0 0 0 1:-1 2:-1 3:-1 4:-1 5:1 6:-1 7:-1 8:-1 9:1 10:-1 11:-1 12:-1 13:-1 14:-1 15:-1 17:1 18:-1 19:-1 20:-1 25:1 26:-1 27:-1 28:-1 
0.08541297051284774 9.020019398601525 0.08521985370968006 3.337118904262891 2.129046351994213 2.988371357970691 0.04286492204069308 1:1 2:-1 3:-1 4:-1 5:-1 6:-1 7:-1 8:-1 9:-1 10:-1 11:1 12:-1 13:-1 14:-1 15:-1 17:-1 18:-1 19:1 20:-1 25:-1 26:-1 27:-1 28:1 
0.007511578723929784 0 0 1.077989864998254 10.55483347261725 0 0.008435287093749421 1:1 2:-1 3:-1 4:-1 5:-1 6:-1 7:-1 8:-1 9:1 10:-1 11:-1 12:-1 13:-1 14:-1 15:-1 17:-1 18:-1 19:1 20:-1 25:-1 26:-1 27:-1 28:1 
0 0 32 0 0 0 0 1:-1 2:-1 3:-1 4:-1 5:1 6:-1 7:-1 8:-1 9:1 10:-1 11:-1 12:-1 13:-1 14:-1 15:-1 17:1 18:-1 19:-1 20:-1 25:1 26:-1 27:-1 28:-1 
0 0 32 0 0 0 0 1:-1 2:-1 3:-1 4:-1 5:1 6:-1 7:-1 8:-1 9:1 10:-1 11:-1 12:-1 13:-1 14:-1 15:-1 17:1 18:-1 19:-1 20:-1 25:1 26:-1 27:-1 28:-1 
0 0 32 0 0 0 0 1:-1 2:-1 3:-1 4:-1 5:1 6:-1 7:-1 8:-1 9:1 10:-1 11:-1 12:-1 13:-1 14:-1 15:-1 17:1 18:-1 19:-1 20:-1 25:1 26:-1 27:-1 28:-1 
0 0 32 0 0 0 0 1:-1 2:-1 3:-1 4:-1 5:1 6:-1 7:-1 8:-1 9:1 10:-1 11:-1 12:-1 13:-1 14:-1 15:-1 17:1 18:-1 19:-1 20:-1 25:1 26:-1 27:-1 28:-1 
0 0 32 0 0 0 0 1:-1 2:-1 3:-1 4:-1 5:1 6:-1 7:-1 8:-1 9:1 10:-1 11:-1 12:-1 13:-1 14:-1 15:-1 17:1 18:-1 19:-1 20:-1 25:1 26:-1 27:-1 28:-1 
0 0 32 0 0 0 0 1:-1 2:-1 3:-1 4:-1 5:1 6:-1 7:-1 8:-1 9:1 10:-1 11:-1 12:-1 13:-1 14:-1 15:-1 17:1 18:-1 19:-1 20:-1 25:1 26:-1 27:-1 28:-1 
0 0 32 0 0 0 0 1:-1 2:-1 3:-1 4:-1 5:1 6:-1 7:-1 8:-1 9:1 10:-1 11:-1 12:-1 13:-1 14:-1 15:-1 17:1 18:-1 19:-1 20:-1 25:1 26:-1 27:-1 28:-1 
0 0 0 32 0 0 0 1:-1 2:1 3:-1 4:-1 5:-1 6:-1 7:-1 8:-1 9:1 10:-1 11:-1 12:-1 13:-1 14:-1 15:-1 17:1 18:-1 19:-1 20:-1 25:1 26:-1 27:-1 28:-1 
0 0 0 32 0 0 0 1:-1 2:1 3:-1 4:-1 5:-1 6:-1 7:-1 8:-1 9:1 10:-1 11:-1 12:-1 13:-1 14:-1 15:-1 17:1 18:-1 19:-1 20:-1 25:1 26:-1 27:-1 28:-1 
0 32 0 0 0 0 0 1:-1 2:-1 3:1 4:-1 5:-1 6:-1 7:-1 8:-1 9:-1 10:-1 11:1 12:-1 13:-1 14:-1 15:-1 17:1 18:-1 19:-1 20:-1 25:1 26:-1 27:-1 28:-1 
0.8129740622047983 2.868595553423747 0 4.022465538511101 32 0.9776839523160508 0.008514731564720535 1:-1 2:-1 3:-1 4:1 5:-1 6:-1 7:-1 8:-1 9:-1 10:1 11:-1 12:-1 13:-1 14:-1 15:-1 17:1 18:-1 19:-1 20:-1 25:1 26:-1 27:-1 28:-1 
0 0 32 0 0 0 0 1:-1 2:-1 3:-1 4:-1 5:1 6:-1 7:-1 8:-1 9:1 10:-1 11:-1 12:-1 13:-1 14:-1 15:-1 17:1 18:-1 19:-1 20:-1 25:1 26:-1 27:-1 28:-1 
0 0 32 0 0 0 0 1:-1 2:-1 3:-1 4:-1 5:1 6:-1 7:-1 8:-1 9:-1 10:-1 11:-1 12:-1 13:1 14:-1 15:-1 17:1 18:-1 19:-1 20:-1 25:1 26:-1 27:-1 28:-1 
32 0 0 0 0 0 0 1:-1 2:-1 3:-1 4:-1 5:-1 6:1 7:-1 8:-1 9:1 10:-1 11:-1 12:-1 13:-1 14:-1 15:-1 17:1 18:-1 19:-1 20:-1 25:1 26:-1 27:-1 28:-1 
32 0 0 0 0 0 0 1:-1 2:-1 3:-1 4:-1 5:-1 6:1 7:-1 8:-1 9:1 10:-1 11:-1 12:-1 13:-1 14:-1 15:-1 17:1 18:-1 19:-1 20:-1 25:1 26:-1 27:-1 28:-1 
32 18.91349121550288 0 0 0 0 0 1:-1 2:-1 3:-1 4:-1 5:-1 6:1 7:-1 8:-1 9:1 10:-1 11:-1 12:-1 13:-1 14:-1 15:-1 17:1 18:-1 19:-1 20:-1 25:1 26:-1 27:-1 28:-1 
0 0 32 0 0 0 0 1:-1 2:-1 3:-1 4:-1 5:1 6:-1 7:-1 8:-1 9:1 10:-1 11:-1 12:-1 13:-1 14:-1 15:-1 17:1 18:-1 19:-1 20:-1 25:1 26:-1 27:-1 28:-1 
0 32 0 0 0 0 0 1:-1 2:-1 3:1 4:-1 5:-1 6:-1 7:-1 8:-1 9:1 10:-1 11:-1 12:-1 13:-1 14:-1 15:-1 17:1 18:-1 19:-1 20:-1 25:1 26:-1 27:-1 28:-1 
7.367358038062132 24.22220348454003 2.125080457968747 0.5110829211646026 0 1.472545647855785 0.02974364085064464 1:-1 2:-1 3:1 4:-1 5:-1 6:-1 7:-1 8:-1 9:-1 10:-1 11:-1 12:-1 13:-1 14:1 15:-1 17:1 18:-1 19:-1 20:-1 25:1 26:-1 27:-1 28:-1 
0 0 32 0 0 0 0 1:-1 2:-1 3:-1 4:-1 5:1 6:-1 7:-1 8:-1 9:1 10:-1 11:-1 12:-1 13:-1 14:-1 15:-1 17:1 18:-1 19:-1 20:-1 25:1 26:-1 27:-1 28:-1 
0 0 32 0 0 0 0 1:-1 2:-1 3:-1 4:-1 5:1 6:-1 7:-1 8:-1 9:1 10:-1 11:-1 12:-1 13:-1 14:-1 15:-1 17:1 18:-1 19:-1 20:-1 25:1 26:-1 27:-1 28:-1 
0 0 0 0 5.444972941543683 0 0 1:1 2:-1 3:-1 4:-1 5:-1 6:-1 7:-1 8:-1 9:1 10:-1 11:-1 12:-1 13:-1 14:-1 15:-1 17:-1 18:-1 19:-1 20:1 25:1 26:-1 27:-1 28:-1 
0 0 32 0 0 0 0 1:-1 2:-1 3:-1 4:-1 5:1 6:-1 7:-1 8:-1 9:1 10:-1 11:-1 12:-1 13:-1 14:-1 15:-1 17:1 18:-1 19:-1 20:-1 25:1 26:-1 27:-1 28:-1 
0 0 32 0 0 0 0 1:-1 2:-1 3:-1 4:-1 5:1 6:-1 7:-1 8:-1 9:-1 10:-1 11:-1 12:-1 13:1 14:-1 15:-1 17:1 18:-1 19:-1 20:-1 25:1 26:-1 27:-1 28:-1 
0 0 32 0 0 0 0 1:-1 2:-1 3:-1 4:-1 5:1 6:-1 7:-1 8:-1 9:-1 10:-1 11:-1 12:-1 13:1 14:-1 15:-1 17:1 18:-1 19:-1 20:-1 25:1 26:-1 27:-1 28:-1 
0 0 0 0 1.148067373233105 0 0 1:-1 2:-1 3:-1 4:1 5:-1 6:-1 7:-1 8:-1 9:1 10:-1 11:-1 12:-1 13:-1 14:-1 15:-1 17:1 18:-1 19:-1 20:-1 25:1 26:-1 27:-1 28:-1 
0 0 32 0 0 0 0 1:-1 2:-1 3:-1 4:-1 5:1 6:-1 7:-1 8:-1 9:1 10:-1 11:-1 12:-1 13:-1 14:-1 15:-1 17:1 18:-1 19:-1 20:-1 25:1 26:-1 27:-1 28:-1 
0 32 0 0 0 0 0 1:-1 2:-1 3:1 4:-1 5:-1 6:-1 7:-1 8:-1 9:-1 10:-1 11:1 12:-1 13:-1 14:-1 15:-1 17:1 18:-1 19:-1 20:-1 25:1 26:-1 27:-1 28:-1 
0 32 0 0 0 0 0 1:-1 2:-1 3:1 4:-1 5:-1 6:-1 7:-1 8:-1 9:-1 10:-1 11:1 12:-1 13:-1 14:-1 15:-1 17:1 18:-1 19:-1 20:-1 25:1 26:-1 27:-1 28:-1 
0 0 32 0 0 0 0 1:-1 2:-1 3:-1 4:-1 5:1 6:-1 7:-1 8:-1 9:1 10:-1 11:-1 12:-1 13:-1 14:-1 15:-1 17:1 18:-1 19:-1 20:-1 25:1 26:-1 27:-1 28:-1 
32 0 0 0 0.2812473954133234 32 0 1:1 2:-1 3:-1 4:-1 5:-1 6:-1 7:-1 8:-1 9:-1 10:-1 11:-1 12:-1 13:-1 14:1 15:-1 17:1 18:-1 19:-1 20:-1 25:1 26:-1 27:-1 28:-1 
0 0 32 0 0 32 0 1:1 2:-1 3:-1 4:-1 5:-1 6:-1 7:-1 8:-1 9:-1 10:-1 11:-1 12:-1 13:-1 14:-1 15:1 17:1 18:-1 19:-1 20:-1 25:1 26:-1 27:-1 28:-1 
0 0 0 32 0 0 0 1:-1 2:1 3:-1 4:-1 5:-1 6:-1 7:-1 8:-1 9:1 10:-1 11:-1 12:-1 13:-1 14:-1 15:-1 17:1 18:-1 19:-1 20:-1 25:1 26:-1 27:-1 28:-1 
0 0 32 0 0 0 0 1:-1 2:-1 3:-1 4:-1 5:1 6:-1 7:-1 8:-1 9:1 10:-1 11:-1 12:-1 13:-1 14:-1 15:-1 17:1 18:-1 19:-1 20:-1 25:1 26:-1 27:-1 28:-1 
0 0 32 0 0 0 0 1:-1 2:-1 3:-1 4:-1 5:1 6:-1 7:-1 8:-1 9:-1 10:-1 11:-1 12:-1 13:1 14:-1 15:-1 17:1 18:-1 19:-1 20:-1 25:1 26:-1 27:-1 28:-1 
0 0 0 32 0 0 0 1:-1 2:1 3:-1 4:-1 5:-1 6:-1 7:-1 8:-1 9:1 10:-1 11:-1 12:-1 13:-1 14:-1 15:-1 17:1 18:-1 19:-1 20:-1 25:1 26:-1 27:-1 28:-1 
0 0 0 32 0 0 0 1:-1 2:1 3:-1 4:-1 5:-1 6:-1 7:-1 8:-1 9:1 10:-1 11:-1 12:-1 13:-1 14:-1 15:-1 17:1 18:-1 19:-1 20:-1 25:1 26:-1 27:-1 28:-1 
0 0 32 0 0 0 0 1:-1 2:-1 3:-1 4:-1 5:1 6:-1 7:-1 8:-1 9:1 10:-1 11:-1 12:-1 13:-1 14:-1 15:-1 17:1 18:-1 19:-1 20:-1 25:1 26:-1 27:-1 28:-1 
0 0 0 0 32 0 0 1:-1 2:-1 3:-1 4:1 5:-1 6:-1 7:-1 8:-1 9:1 10:-1 11:-1 12:-1 13:-1 14:-1 15:-1 17:1 18:-1 19:-1 20:-1 25:1 26:-1 27:-1 28:-1 
32 32 0 0 0 0 0 1:-1 2:-1 3:-1 4:-1 5:-1 6:1 7:-1 8:-1 9:1 10:-1 11:-1 12:-1 13:-1 14:-1 15:-1 17:1 18:-1 19:-1 20:-1 25:1 26:-1 27:-1 28:-1 
0 0 32 0 0 0 0 1:-1 2:-1 3:-1 4:-1 5:1 6:-1 7:-1 8:-1 9:1 10:-1 11:-1 12:-1 13:-1 14:-1 15:-1 17:1 18:-1 19:-1 20:-1 25:1 26:-1 27:-1 28:-1 
0 0 32 0 0 0 0 1:-1 2:-1 3:-1 4:-1 5:1 6:-1 7:-1 8:-1 9:-1 10:-1 11:-1 12:-1 13:1 14:-1 15:-1 17:1 18:-1 19:-1 20:-1 25:1 26:-1 27:-1 28:-1 
0 0 32 0 0 0 0 1:-1 2:-1 3:-1 4:-1 5:1 6:-1 7:-1 8:-1 9:1 10:-1 11:-1 12:-1 13:-1 14:-1 15:-1 17:1 18:-1 19:-1 20:-1 25:1 26:-1 27:-1 28:-1 
0 0 32 0 0 0 0 1:-1 2:-1 3:-1 4:-1 5:1 6:-1 7:-1 8:-1 9:1 10:-1 11:-1 12:-1 13:-1 14:-1 15:-1 17:1 18:-1 19:-1 20:-1 25:1 26:-1 27:-1 28:-1 
0 0 0 0 32 0 0 1:-1 2:-1 3:-1 4:1 5:-1 6:-1 7:-1 8:-1 9:1 10:-1 11:-1 12:-1 13:-1 14:-1 15:-1 17:1 18:-1 19:-1 20:-1 25:1 26:-1 27:-1 28:-1 
0 0 32 0 0 0 0 1:-1 2:-1 3:-1 4:-1 5:1 6:-1 7:-1 8:-1 9:1 10:-1 11:-1 12:-1 13:-1 14:-1 15:-1 17:1 18:-1 19:-1 20:-1 25:1 26:-1 27:-1 28:-1 
0 0 32 0 0 0 0 1:-1 2:-1 3:-1 4:-1 5:1 6:-1 7:-1 8:-1 9:1 10:-1 11:-1 12:-1 13:-1 14:-1 15:-1 17:1 18:-1 19:-1 20:-1 25:1 26:-1 27:-1 28:-1 
0 0 32 0 0 0 0 1:-1 2:-1 3:-1 4:-1 5:1 6:-1 7:-1 8:-1 9:-1 10:-1 11:-1 12:-1 13:1 14:-1 15:-1 17:1 18:-1 19:-1 20:-1 25:1 26:-1 27:-1 28:-1 
0 0 32 0 0 0 0 1:-1 2:-1 3:-1 4:-1 5:1 6:-1 7:-1 8:-1 9:1 10:-1 11:-1 12:-1 13:-1 14:-1 15:-1 17:1 18:-1 19:-1 20:-1 25:1 26:-1 27:-1 28:-1 
0 0 0 32 0 0 0 1:-1 2:1 3:-1 4:-1 5:-1 6:-1 7:-1 8:-1 9:1 10:-1 11:-1 12:-1 13:-1 14:-1 15:-1 17:1 18:-1 19:-1 20:-1 25:1 26:-1 27:-1 28:-1 
0 0 32 0 0 0 0 1:-1 2:-1 3:-1 4:-1 5:1 6:-1 7:-1 8:-1 9:1 10:-1 11:-1 12:-1 13:-1 14:-1 15:-1 17:1 18:-1 19:-1 20:-1 25:1 26:-1 27:-1 28:-1 
0 0 32 0 0 0 0 1:-1 2:-1 3:-1 4:-1 5:1 6:-1 7:-1 8:-1 9:1 10:-1 11:-1 12:-1 13:-1 14:-1 15:-1 17:1 18:-1 19:-1 20:-1 25:1 26:-1 27:-1 28:-1 
0 0 32 0 0 0 0 1:-1 2:-1 3:-1 4:-1 5:1 6:-1 7:-1 8:-1 9:1 10:-1 11:-1 12:-1 13:-1 14:-1 15:-1 17:1 18:-1 19:-1 20:-1 25:1 26:-1 27:-1 28:-1 
0 0 32 0 0 0 0 1:-1 2:-1 3:-1 4:-1 5:1 6:-1 7:-1 8:-1 9:1 10:-1 11:-1 12:-1 13:-1 14:-1 15:-1 17:1 18:-1 19:-1 20:-1 25:1 26:-1 27:-1 28:-1 
0.08661528841391594 32 0.2320032077234885 32 11.69451542304543 0 0.04755567648489843 1:1 2:-1 3:-1 4:-1 5:-1 6:-1 7:-1 8:-1 9:1 10:-1 11:-1 12:-1 13:-1 14:-1 15:-1 17:1 18:-1 19:-1 20:-1 25:-1 26:-1 27:1 28:-1 
0 0 0 32 0 0 0 1:-1 2:1 3:-1 4:-1 5:-1 6:-1 7:-1 8:-1 9:1 10:-1 11:-1 12:-1 13:-1 14:-1 15:-1 17:1 18:-1 19:-1 20:-1 25:1 26:-1 27:-1 28:-1 
0 32 2.45224268325586 32 2.467439229853545 0 0 1:-1 2:1 3:-1 4:-1 5:-1 6:-1 7:-1 8:-1 9:-1 10:1 11:-1 12:-1 13:-1 14:-1 15:-1 17:-1 18:1 19:-1 20:-1 25:1 26:-1 27:-1 28:-1 
0.08562226183264325 32 12.13865747976339 32 1.703500531076521 5.084877506867107 0.0470142238716439 1:1 2:-1 3:-1 4:-1 5:-1 6:-1 7:-1 8:-1 9:1 10:-1 11:-1 12:-1 13:-1 14:-1 15:-1 17:1 18:-1 19:-1 20:-1 25:-1 26:1 27:-1 28:-1 
0 32 0 0 32 32 0 1:1 2:-1 3:-1 4:-1 5:-1 6:-1 7:-1 8:-1 9:-1 10:-1 11:1 12:-1 13:-1 14:-1 15:-1 17:-1 18:-1 19:1 20:-1 25:1 26:-1 27:-1 28:-1 
2.600706473979032 0 0 5.495180196885812 8.6053435767344 1.450751248935015 0.02307193627573225 1:1 2:-1 3:-1 4:-1 5:-1 6:-1 7:-1 8:-1 9:-1 10:-1 11:-1 12:1 13:-1 14:-1 15:-1 17:1 18:-1 19:-1 20:-1 25:1 26:-1 27:-1 28:-1 
0 0 0 32 0 0 0 1:-1 2:1 3:-1 4:-1 5:-1 6:-1 7:-1 8:-1 9:1 10:-1 11:-1 12:-1 13:-1 14:-1 15:-1 17:1 18:-1 19:-1 20:-1 25:1 26:-1 27:-1 28:-1 
0 0 3.237290254282829 32 0 0 0 1:-1 2:1 3:-1 4:-1 5:-1 6:-1 7:-1 8:-1 9:1 10:-1 11:-1 12:-1 13:-1 14:-1 15:-1 17:1 18:-1 19:-1 20:-1 25:1 26:-1 27:-1 28:-1 
0 32 0 0 0 0 0 1:-1 2:-1 3:1 4:-1 5:-1 6:-1 7:-1 8:-1 9:-1 10:-1 11:1 12:-1 13:-1 14:-1 15:-1 17:1 18:-1 19:-1 20:-1 25:1 26:-1 27:-1 28:-1 
0 32 0 0 0 0 0 1:-1 2:-1 3:1 4:-1 5:-1 6:-1 7:-1 8:-1 9:-1 10:-1 11:1 12:-1 13:-1 14:-1 15:-1 17:1 18:-1 19:-1 20:-1 25:1 26:-1 27:-1 28:-1 
4.641871115205421 1.156870481507553 1.37629006141849 0.6427150249991019 0 32 1.115243609698792 1:-1 2:-1 3:-1 4:-1 5:-1 6:-1 7:1 8:-1 9:1 10:-1 11:-1 12:-1 13:-1 14:-1 15:-1 17:1 18:-1 19:-1 20:-1 25:1 26:-1 27:-1 28:-1 
0 0 32 0 0 0 0 1:-1 2:-1 3:-1 4:-1 5:1 6:-1 7:-1 8:-1 9:1 10:-1 11:-1 12:-1 13:-1 14:-1 15:-1 17:1 18:-1 19:-1 20:-1 25:1 26:-1 27:-1 28:-1 
0 0 0 32 0 0 0 1:-1 2:1 3:-1 4:-1 5:-1 6:-1 7:-1 8:-1 9:-1 10:1 11:-1 12:-1 13:-1 14:-1 15:-1 17:1 18:-1 19:-1 20:-1 25:1 26:-1 27:-1 28:-1 
0.03845949960345407 32 3.921292103886942 32 4.869680852047942 0.09962198692982195 0.01922163780018919 1:-1 2:1 3:-1 4:-1 5:-1 6:-1 7:-1 8:-1 9:-1 10:1 11:-1 12:-1 13:-1 14:-1 15:-1 17:-1 18:-1 19:1 20:-1 25:1 26:-1 27:-1 28:-1 
0 0 0 0 32 0 0 1:1 2:-1 3:-1 4:-1 5:-1 6:-1 7:-1 8:-1 9:1 10:-1 11:-1 12:-1 13:-1 14:-1 15:-1 17:-1 18:-1 19:-1 20:1 25:1 26:-1 27:-1 28:-1 
0.08351784394453028 0.4725218980020227 0 2.368001995623128 32 0.1761258145783896 0.04395996257200986 1:1 2:-1 3:-1 4:-1 5:-1 6:-1 7:-1 8:-1 9:1 10:-1 11:-1 12:-1 13:-1 14:-1 15:-1 17:-1 18:-1 19:-1 20:1 25:1 26:-1 27:-1 28:-1 
0 24.42890441329098 0 32 0 0 0 1:1 2:-1 3:-1 4:-1 5:-1 6:-1 7:-1 8:-1 9:-1 10:1 11:-1 12:-1 13:-1 14:-1 15:-1 17:-1 18:-1 19:1 20:-1 25:1 26:-1 27:-1 28:-1 
0 0 32 0 0 0 0 1:-1 2:-1 3:-1 4:-1 5:1 6:-1 7:-1 8:-1 9:1 10:-1 11:-1 12:-1 13:-1 14:-1 15:-1 17:1 18:-1 19:-1 20:-1 25:1 26:-1 27:-1 28:-1 
0 0 32 0 0 0 0 1:-1 2:-1 3:-1 4:-1 5:1 6:-1 7:-1 8:-1 9:1 10:-1 11:-1 12:-1 13:-1 14:-1 15:-1 17:1 18:-1 19:-1 20:-1 25:1 26:-1 27:-1 28:-1 
0.0299517844408528 0 0.1788217020316603 3.960526326376305 32 0 0.01321074964498506 1:1 2:-1 3:-1 4:-1 5:-1 6:-1 7:-1 8:-1 9:1 10:-1 11:-1 12:-1 13:-1 14:-1 15:-1 17:1 18:-1 19:-1 20:-1 25:-1 26:-1 27:-1 28:1 
0 32 0 0 0 0 0 1:-1 2:-1 3:1 4:-1 5:-1 6:-1 7:-1 8:-1 9:-1 10:-1 11:1 12:-1 13:-1 14:-1 15:-1 17:1 18:-1 19:-1 20:-1 25:1 26:-1 27:-1 28:-1 
0 32 0 0 0 0 0 1:-1 2:-1 3:1 4:-1 5:-1 6:-1 7:-1 8:-1 9:-1 10:-1 11:1 12:-1 13:-1 14:-1 15:-1 17:1 18:-1 19:-1 20:-1 25:1 26:-1 27:-1 28:-1 
0 32 0 0 0 0 0 1:-1 2:-1 3:1 4:-1 5:-1 6:-1 7:-1 8:-1 9:-1 10:-1 11:1 12:-1 13:-1 14:-1 15:-1 17:1 18:-1 19:-1 20:-1 25:1 26:-1 27:-1 28:-1 
0 32 0 11.88763196901468 32 32 0 1:1 2:-1 3:-1 4:-1 5:-1 6:-1 7:-1 8:-1 9:-1 10:-1 11:1 12:-1 13:-1 14:-1 15:-1 17:-1 18:-1 19:1 20:-1 25:1 26:-1 27:-1 28:-1 
0 22.38185450208259 0 0 0 0 0 1:1 2:-1 3:-1 4:-1 5:-1 6:-1 7:-1 8:-1 9:-1 10:-1 11:1 12:-1 13:-1 14:-1 15:-1 17:1 18:-1 19:-1 20:-1 25:1 26:-1 27:-1 28:-1 
0 32 0 0 0 0 0 1:1 2:-1 3:-1 4:-1 5:-1 6:-1 7:-1 8:-1 9:-1 10:-1 11:1 12:-1 13:-1 14:-1 15:-1 17:1 18:-1 19:-1 20:-1 25:1 26:-1 27:-1 28:-1 
0 0 16.49803958749822 0 0 0 0 1:1 2:-1 3:-1 4:-1 5:-1 6:-1 7:-1 8:-1 9:-1 10:-1 11:-1 12:-1 13:1 14:-1 15:-1 17:1 18:-1 19:-1 20:-1 25:1 26:-1 27:-1 28:-1 
0 0 32 0 0 0 0 1:-1 2:-1 3:-1 4:-1 5:1 6:-1 7:-1 8:-1 9:1 10:-1 11:-1 12:-1 13:-1 14:-1 15:-1 17:1 18:-1 19:-1 20:-1 25:1 26:-1 27:-1 28:-1 
0 0 32 0 0 0 0 1:1 2:-1 3:-1 4:-1 5:-1 6:-1 7:-1 8:-1 9:-1 10:-1 11:-1 12:-1 13:1 14:-1 15:-1 17:1 18:-1 19:-1 20:-1 25:1 26:-1 27:-1 28:-1 
0 0 32 0 0 0 0 1:1 2:-1 3:-1 4:-1 5:-1 6:-1 7:-1 8:-1 9:-1 10:-1 11:-1 12:-1 13:1 14:-1 15:-1 17:1 18:-1 19:-1 20:-1 25:1 26:-1 27:-1 28:-1 
0 32 0 0 0 0 0 1:1 2:-1 3:-1 4:-1 5:-1 6:-1 7:-1 8:-1 9:-1 10:-1 11:1 12:-1 13:-1 14:-1 15:-1 17:1 18:-1 19:-1 20:-1 25:1 26:-1 27:-1 28:-1 
0 0 32 0 0 0 0 1:1 2:-1 3:-1 4:-1 5:-1 6:-1 7:-1 8:-1 9:-1 10:-1 11:-1 12:-1 13:1 14:-1 15:-1 17:1 18:-1 19:-1 20:-1 25:1 26:-1 27:-1 28:-1 
0 0 32 0 0 0 0 1:1 2:-1 3:-1 4:-1 5:-1 6:-1 7:-1 8:-1 9:-1 10:-1 11:-1 12:-1 13:1 14:-1 15:-1 17:1 18:-1 19:-1 20:-1 25:1 26:-1 27:-1 28:-1 
0 0 32 0 0 0 0 1:1 2:-1 3:-1 4:-1 5:-1 6:-1 7:-1 8:-1 9:-1 10:-1 11:-1 12:-1 13:1 14:-1 15:-1 17:1 18:-1 19:-1 20:-1 25:1 26:-1 27:-1 28:-1 
0 0 32 0 0 0 0 1:-1 2:-1 3:-1 4:-1 5:1 6:-1 7:-1 8:-1 9:1 10:-1 11:-1 12:-1 13:-1 14:-1 15:-1 17:1 18:-1 19:-1 20:-1 25:1 26:-1 27:-1 28:-1 
0 0 32 0 0 0 0 1:-1 2:-1 3:-1 4:-1 5:1 6:-1 7:-1 8:-1 9:1 10:-1 11:-1 12:-1 13:-1 14:-1 15:-1 17:1 18:-1 19:-1 20:-1 25:1 26:-1 27:-1 28:-1 
0 0 32 0 0 0 0 1:-1 2:-1 3:-1 4:-1 5:1 6:-1 7:-1 8:-1 9:1 10:-1 11:-1 12:-1 13:-1 14:-1 15:-1 17:1 18:-1 19:-1 20:-1 25:1 26:-1 27:-1 28:-1 
0 0 32 0 0 0 0 1:-1 2:-1 3:-1 4:-1 5:1 6:-1 7:-1 8:-1 9:1 10:-1 11:-1 12:-1 13:-1 14:-1 15:-1 17:1 18:-1 19:-1 20:-1 25:1 26:-1 27:-1 28:-1 
0 0 32 0 0 0 0 1:-1 2:-1 3:-1 4:-1 5:1 6:-1 7:-1 8:-1 9:1 10:-1 11:-1 12:-1 13:-1 14:-1 15:-1 17:1 18:-1 19:-1 20:-1 25:1 26:-1 27:-1 28:-1 
0 0 32 0 0 0 0 1:-1 2:-1 3:-1 4:-1 5:1 6:-1 7:-1 8:-1 9:1 10:-1 11:-1 12:-1 13:-1 14:-1 15:-1 17:1 18:-1 19:-1 20:-1 25:1 26:-1 27:-1 28:-1 
0 0 32 0 0 0 0 1:-1 2:-1 3:-1 4:-1 5:1 6:-1 7:-1 8:-1 9:1 10:-1 11:-1 12:-1 13:-1 14:-1 15:-1 17:1 18:-1 19:-1 20:-1 25:1 26:-1 27:-1 28:-1 
0 0 32 0 0 0 0 1:-1 2:-1 3:-1 4:-1 5:1 6:-1 7:-1 8:-1 9:1 10:-1 11:-1 12:-1 13:-1 14:-1 15:-1 17:1 18:-1 19:-1 20:-1 25:1 26:-1 27:-1 28:-1 
0 0 32 0 0 0 0 1:-1 2:-1 3:-1 4:-1 5:1 6:-1 7:-1 8:-1 9:1 10:-1 11:-1 12:-1 13:-1 14:-1 15:-1 17:1 18:-1 19:-1 20:-1 25:1 26:-1 27:-1 28:-1 
0 0 1.378071047629929 0 32 0.5661166889512764 1.110444942590154 1:-1 2:-1 3:-1 4:1 5:-1 6:-1 7:-1 8:-1 9:1 10:-1 11:-1 12:-1 13:-1 14:-1 15:-1 17:1 18:-1 19:-1 20:-1 25:1 26:-1 27:-1 28:-1 
0 0 32 0 0 0 0 1:1 2:-1 3:-1 4:-1 5:-1 6:-1 7:-1 8:-1 9:-1 10:-1 11:-1 12:-1 13:1 14:-1 15:-1 17:1 18:-1 19:-1 20:-1 25:1 26:-1 27:-1 28:-1 
0 32 0 0 0 0 0 1:1 2:-1 3:-1 4:-1 5:-1 6:-1 7:-1 8:-1 9:-1 10:-1 11:1 12:-1 13:-1 14:-1 15:-1 17:1 18:-1 19:-1 20:-1 25:1 26:-1 27:-1 28:-1 
0 0 32 0 0 0 0 1:1 2:-1 3:-1 4:-1 5:-1 6:-1 7:-1 8:-1 9:-1 10:-1 11:-1 12:-1 13:1 14:-1 15:-1 17:1 18:-1 19:-1 20:-1 25:1 26:-1 27:-1 28:-1 
0 0 32 0 0 0 0 1:1 2:-1 3:-1 4:-1 5:-1 6:-1 7:-1 8:-1 9:-1 10:-1 11:-1 12:-1 13:1 14:-1 15:-1 17:1 18:-1 19:-1 20:-1 25:1 26:-1 27:-1 28:-1 
0 0 32 0 0 0 0 1:1 2:-1 3:-1 4:-1 5:-1 6:-1 7:-1 8:-1 9:-1 10:-1 11:-1 12:-1 13:1 14:-1 15:-1 17:1 18:-1 19:-1 20:-1 25:1 26:-1 27:-1 28:-1 
0 0 32 0 0 0 0 1:1 2:-1 3:-1 4:-1 5:-1 6:-1 7:-1 8:-1 9:-1 10:-1 11:-1 12:-1 13:1 14:-1 15:-1 17:1 18:-1 19:-1 20:-1 25:1 26:-1 27:-1 28:-1 
0 0 32 0 0 0 0 1:1 2:-1 3:-1 4:-1 5:-1 6:-1 7:-1 8:-1 9:-1 10:-1 11:-1 12:-1 13:1 14:-1 15:-1 17:1 18:-1 19:-1 20:-1 25:1 26:-1 27:-1 28:-1 
0 0 32 0 0 0 0 1:1 2:-1 3:-1 4:-1 5:-1 6:-1 7:-1 8:-1 9:-1 10:-1 11:-1 12:-1 13:1 14:-1 15:-1 17:1 18:-1 19:-1 20:-1 25:1 26:-1 27:-1 28:-1 
0 1.563084312691644 2.193864430855657 32 0 0.07125040128088621 0.02460916447951491 1:-1 2:1 3:-1 4:-1 5:-1 6:-1 7:-1 8:-1 9:1 10:-1 11:-1 12:-1 13:-1 14:-1 15:-1 17:-1 18:1 19:-1 20:-1 25:1 26:-1 27:-1 28:-1 
0 0 32 0 0 0 0 1:1 2:-1 3:-1 4:-1 5:-1 6:-1 7:-1 8:-1 9:-1 10:-1 11:-1 12:-1 13:1 14:-1 15:-1 17:1 18:-1 19:-1 20:-1 25:1 26:-1 27:-1 28:-1 
0 0 32 0 0 0 0 1:1 2:-1 3:-1 4:-1 5:-1 6:-1 7:-1 8:-1 9:-1 10:-1 11:-1 12:-1 13:1 14:-1 15:-1 17:1 18:-1 19:-1 20:-1 25:1 26:-1 27:-1 28:-1 
0 0 32 0 0 0 0 1:1 2:-1 3:-1 4:-1 5:-1 6:-1 7:-1 8:-1 9:-1 10:-1 11:-1 12:-1 13:1 14:-1 15:-1 17:1 18:-1 19:-1 20:-1 25:1 26:-1 27:-1 28:-1 
0 0 32 0 0 0 0 1:1 2:-1 3:-1 4:-1 5:-1 6:-1 7:-1 8:-1 9:-1 10:-1 11:-1 12:-1 13:1 14:-1 15:-1 17:1 18:-1 19:-1 20:-1 25:1 26:-1 27:-1 28:-1 
0.07746163329101032 32 28.68116940368831 32 32 0.1167025391791009 0.02597709961135699 1:-1 2:1 3:-1 4:-1 5:-1 6:-1 7:-1 8:-1 9:-1 10:1 11:-1 12:-1 13:-1 14:-1 15:-1 17:-1 18:1 19:-1 20:-1 25:1 26:-1 27:-1 28:-1 
0 0 32 0 0 0 0 1:1 2:-1 3:-1 4:-1 5:-1 6:-1 7:-1 8:-1 9:-1 10:-1 11:-1 12:-1 13:1 14:-1 15:-1 17:1 18:-1 19:-1 20:-1 25:1 26:-1 27:-1 28:-1 
0 0 32 0 0 0 0 1:1 2:-1 3:-1 4:-1 5:-1 6:-1 7:-1 8:-1 9:-1 10:-1 11:-1 12:-1 13:1 14:-1 15:-1 17:1 18:-1 19:-1 20:-1 25:1 26:-1 27:-1 28:-1 
0 0 32 0 0 0 0 1:1 2:-1 3:-1 4:-1 5:-1 6:-1 7:-1 8:-1 9:-1 10:-1 11:-1 12:-1 13:1 14:-1 15:-1 17:1 18:-1 19:-1 20:-1 25:1 26:-1 27:-1 28:-1 
0 0 32 0 0 0 0 1:1 2:-1 3:-1 4:-1 5:-1 6:-1 7:-1 8:-1 9:-1 10:-1 11:-1 12:-1 13:1 14:-1 15:-1 17:1 18:-1 19:-1 20:-1 25:1 26:-1 27:-1 28:-1 
0 0 32 0 0 0 0 1:1 2:-1 3:-1 4:-1 5:-1 6:-1 7:-1 8:-1 9:-1 10:-1 11:-1 12:-1 13:1 14:-1 15:-1 17:1 18:-1 19:-1 20:-1 25:1 26:-1 27:-1 28:-1 
0 0 32 0 0 0 0 1:1 2:-1 3:-1 4:-1 5:-1 6:-1 7:-1 8:-1 9:-1 10:-1 11:-1 12:-1 13:1 14:-1 15:-1 17:1 18:-1 19:-1 20:-1 25:1 26:-1 27:-1 28:-1 
0 0 32 0 0 0 0 1:-1 2:-1 3:-1 4:-1 5:1 6:-1 7:-1 8:-1 9:1 10:-1 11:-1 12:-1 13:-1 14:-1 15:-1 17:1 18:-1 19:-1 20:-1 25:1 26:-1 27:-1 28:-1 
0 0 32 0 0 0 0 1:1 2:-1 3:-1 4:-1 5:-1 6:-1 7:-1 8:-1 9:-1 10:-1 11:-1 12:-1 13:1 14:-1 15:-1 17:1 18:-1 19:-1 20:-1 25:1 26:-1 27:-1 28:-1 
0 0 32 0 0 0 0 1:1 2:-1 3:-1 4:-1 5:-1 6:-1 7:-1 8:-1 9:-1 10:-1 11:-1 12:-1 13:1 14:-1 15:-1 17:1 18:-1 19:-1 20:-1 25:1 26:-1 27:-1 28:-1 
0 0 32 0 0 0 0 1:1 2:-1 3:-1 4:-1 5:-1 6:-1 7:-1 8:-1 9:-1 10:-1 11:-1 12:-1 13:1 14:-1 15:-1 17:1 18:-1 19:-1 20:-1 25:1 26:-1 27:-1 28:-1 
0 0 32 0 0 0 0 1:1 2:-1 3:-1 4:-1 5:-1 6:-1 7:-1 8:-1 9:-1 10:-1 11:-1 12:-1 13:1 14:-1 15:-1 17:1 18:-1 19:-1 20:-1 25:1 26:-1 27:-1 28:-1 
0 0 32 0 0 0 0 1:1 2:-1 3:-1 4:-1 5:-1 6:-1 7:-1 8:-1 9:-1 10:-1 11:-1 12:-1 13:1 14:-1 15:-1 17:1 18:-1 19:-1 20:-1 25:1 26:-1 27:-1 28:-1 
0 0 0 0.9109526774306076 0 0 0 1:1 2:-1 3:-1 4:-1 5:-1 6:-1 7:-1 8:-1 9:1 10:-1 11:-1 12:-1 13:-1 14:-1 15:-1 17:-1 18:1 19:-1 20:-1 25:1 26:-1 27:-1 28:-1 
0 0 0 32 0 0 0 1:1 2:-1 3:-1 4:-1 5:-1 6:-1 7:-1 8:-1 9:1 10:-1 11:-1 12:-1 13:-1 14:-1 15:-1 17:-1 18:1 19:-1 20:-1 25:1 26:-1 27:-1 28:-1 
0 0 32 0 0 0 0 1:1 2:-1 3:-1 4:-1 5:-1 6:-1 7:-1 8:-1 9:-1 10:-1 11:-1 12:-1 13:1 14:-1 15:-1 17:1 18:-1 19:-1 20:-1 25:1 26:-1 27:-1 28:-1 
0 0 32 0 0 0 0 1:1 2:-1 3:-1 4:-1 5:-1 6:-1 7:-1 8:-1 9:-1 10:-1 11:-1 12:-1 13:1 14:-1 15:-1 17:1 18:-1 19:-1 20:-1 25:1 26:-1 27:-1 28:-1 
0 0 32 0 0 0 0 1:1 2:-1 3:-1 4:-1 5:-1 6:-1 7:-1 8:-1 9:-1 10:-1 11:-1 12:-1 13:1 14:-1 15:-1 17:1 18:-1 19:-1 20:-1 25:1 26:-1 27:-1 28:-1 
0 0 32 0 0 0 0 1:1 2:-1 3:-1 4:-1 5:-1 6:-1 7:-1 8:-1 9:-1 10:-1 11:-1 12:-1 13:1 14:-1 15:-1 17:1 18:-1 19:-1 20:-1 25:1 26:-1 27:-1 28:-1 
0 0 32 0 0 0 0 1:-1 2:-1 3:-1 4:-1 5:1 6:-1 7:-1 8:-1 9:1 10:-1 11:-1 12:-1 13:-1 14:-1 15:-1 17:1 18:-1 19:-1 20:-1 25:1 26:-1 27:-1 28:-1 
0 0 32 0 0 0 0 1:-1 2:-1 3:-1 4:-1 5:1 6:-1 7:-1 8:-1 9:1 10:-1 11:-1 12:-1 13:-1 14:-1 15:-1 17:1 18:-1 19:-1 20:-1 25:1 26:-1 27:-1 28:-1 
0 0 32 0 0 0 0 1:-1 2:-1 3:-1 4:-1 5:1 6:-1 7:-1 8:-1 9:1 10:-1 11:-1 12:-1 13:-1 14:-1 15:-1 17:1 18:-1 19:-1 20:-1 25:1 26:-1 27:-1 28:-1 
0 0 32 0 0 0 0 1:-1 2:-1 3:-1 4:-1 5:1 6:-1 7:-1 8:-1 9:1 10:-1 11:-1 12:-1 13:-1 14:-1 15:-1 17:1 18:-1 19:-1 20:-1 25:1 26:-1 27:-1 28:-1 
0 0 32 0 0 0 0 1:-1 2:-1 3:-1 4:-1 5:1 6:-1 7:-1 8:-1 9:1 10:-1 11:-1 12:-1 13:-1 14:-1 15:-1 17:1 18:-1 19:-1 20:-1 25:1 26:-1 27:-1 28:-1 
0 0 32 0 0 0 0 1:-1 2:-1 3:-1 4:-1 5:1 6:-1 7:-1 8:-1 9:1 10:-1 11:-1 12:-1 13:-1 14:-1 15:-1 17:1 18:-1 19:-1 20:-1 25:1 26:-1 27:-1 28:-1 
0 0 32 0 0 0 0 1:-1 2:-1 3:-1 4:-1 5:1 6:-1 7:-1 8:-1 9:1 10:-1 11:-1 12:-1 13:-1 14:-1 15:-1 17:1 18:-1 19:-1 20:-1 25:1 26:-1 27:-1 28:-1 
0 0 32 0 0 0 0 1:1 2:-1 3:-1 4:-1 5:-1 6:-1 7:-1 8:-1 9:-1 10:-1 11:-1 12:-1 13:1 14:-1 15:-1 17:1 18:-1 19:-1 20:-1 25:1 26:-1 27:-1 28:-1 
1.292721843946756 0 32 0.06672507291934991 0.2800733777816428 32 0.02494489267187932 1:1 2:-1 3:-1 4:-1 5:-1 6:-1 7:-1 8:-1 9:-1 10:-1 11:-1 12:-1 13:-1 14:-1 15:1 17:1 18:-1 19:-1 20:-1 25:1 26:-1 27:-1 28:-1 
0 32 0 0 0 0 0 1:1 2:-1 3:-1 4:-1 5:-1 6:-1 7:-1 8:-1 9:-1 10:-1 11:1 12:-1 13:-1 14:-1 15:-1 17:1 18:-1 19:-1 20:-1 25:1 26:-1 27:-1 28:-1 
0 0 0 15.41244461090788 0 0 0 1:1 2:-1 3:-1 4:-1 5:-1 6:-1 7:-1 8:-1 9:-1 10:1 11:-1 12:-1 13:-1 14:-1 15:-1 17:1 18:-1 19:-1 20:-1 25:1 26:-1 27:-1 28:-1 
0 0 0 32 0 0 0 1:1 2:-1 3:-1 4:-1 5:-1 6:-1 7:-1 8:-1 9:-1 10:1 11:-1 12:-1 13:-1 14:-1 15:-1 17:1 18:-1 19:-1 20:-1 25:1 26:-1 27:-1 28:-1 
0 0 32 0 0 0 0 1:1 2:-1 3:-1 4:-1 5:-1 6:-1 7:-1 8:-1 9:-1 10:-1 11:-1 12:-1 13:1 14:-1 15:-1 17:1 18:-1 19:-1 20:-1 25:1 26:-1 27:-1 28:-1 
0 0 32 0 0 0 0 1:-1 2:-1 3:-1 4:-1 5:1 6:-1 7:-1 8:-1 9:-1 10:-1 11:-1 12:-1 13:1 14:-1 15:-1 17:1 18:-1 19:-1 20:-1 25:1 26:-1 27:-1 28:-1 
0 0 32 0 0 0 0 1:1 2:-1 3:-1 4:-1 5:-1 6:-1 7:-1 8:-1 9:-1 10:-1 11:-1 12:-1 13:1 14:-1 15:-1 17:1 18:-1 19:-1 20:-1 25:1 26:-1 27:-1 28:-1 
0 0 32 0 0 0 0 1:1 2:-1 3:-1 4:-1 5:-1 6:-1 7:-1 8:-1 9:-1 10:-1 11:-1 12:-1 13:1 14:-1 15:-1 17:1 18:-1 19:-1 20:-1 25:1 26:-1 27:-1 28:-1 
0 0 32 0 0 0 0 1:1 2:-1 3:-1 4:-1 5:-1 6:-1 7:-1 8:-1 9:-1 10:-1 11:-1 12:-1 13:1 14:-1 15:-1 17:1 18:-1 19:-1 20:-1 25:1 26:-1 27:-1 28:-1 
0 0 32 0 0 0 0 1:1 2:-1 3:-1 4:-1 5:-1 6:-1 7:-1 8:-1 9:-1 10:-1 11:-1 12:-1 13:1 14:-1 15:-1 17:1 18:-1 19:-1 20:-1 25:1 26:-1 27:-1 28:-1 
0.8875173733659385 0 32 1.019935548040261 5.585064319726976 1.172560993962304 0.02741689256138648 1:-1 2:-1 3:-1 4:-1 5:1 6:-1 7:-1 8:-1 9:-1 10:-1 11:-1 12:-1 13:1 14:-1 15:-1 17:1 18:-1 19:-1 20:-1 25:1 26:-1 27:-1 28:-1 
0 0 0 32 0 0 0 1:1 2:-1 3:-1 4:-1 5:-1 6:-1 7:-1 8:-1 9:1 10:-1 11:-1 12:-1 13:-1 14:-1 15:-1 17:-1 18:1 19:-1 20:-1 25:1 26:-1 27:-1 28:-1 
0 0 0 32 0 0 0 1:1 2:-1 3:-1 4:-1 5:-1 6:-1 7:-1 8:-1 9:-1 10:1 11:-1 12:-1 13:-1 14:-1 15:-1 17:1 18:-1 19:-1 20:-1 25:1 26:-1 27:-1 28:-1 
0 32 7.730684605732122 4.801990056857087 5.855270844430764 0.4183609913038693 0.009585880775952304 1:-1 2:-1 3:1 4:-1 5:-1 6:-1 7:-1 8:-1 9:-1 10:-1 11:1 12:-1 13:-1 14:-1 15:-1 17:1 18:-1 19:-1 20:-1 25:1 26:-1 27:-1 28:-1 
0 0 0 32 0 0 0 1:1 2:-1 3:-1 4:-1 5:-1 6:-1 7:-1 8:-1 9:1 10:-1 11:-1 12:-1 13:-1 14:-1 15:-1 17:-1 18:1 19:-1 20:-1 25:1 26:-1 27:-1 28:-1 
0 0 0 32 0 0 0 1:1 2:-1 3:-1 4:-1 5:-1 6:-1 7:-1 8:-1 9:1 10:-1 11:-1 12:-1 13:-1 14:-1 15:-1 17:-1 18:1 19:-1 20:-1 25:1 26:-1 27:-1 28:-1 
0 0 32 0 0 0 0 1:1 2:-1 3:-1 4:-1 5:-1 6:-1 7:-1 8:-1 9:-1 10:-1 11:-1 12:-1 13:1 14:-1 15:-1 17:1 18:-1 19:-1 20:-1 25:1 26:-1 27:-1 28:-1 
0 0 32 0 0 0 0 1:1 2:-1 3:-1 4:-1 5:-1 6:-1 7:-1 8:-1 9:-1 10:-1 11:-1 12:-1 13:1 14:-1 15:-1 17:1 18:-1 19:-1 20:-1 25:1 26:-1 27:-1 28:-1 
0 0 32 0 0 0 0 1:1 2:-1 3:-1 4:-1 5:-1 6:-1 7:-1 8:-1 9:-1 10:-1 11:-1 12:-1 13:1 14:-1 15:-1 17:1 18:-1 19:-1 20:-1 25:1 26:-1 27:-1 28:-1 
0 0 32 0 0 0 0 1:-1 2:-1 3:-1 4:-1 5:1 6:-1 7:-1 8:-1 9:1 10:-1 11:-1 12:-1 13:-1 14:-1 15:-1 17:1 18:-1 19:-1 20:-1 25:1 26:-1 27:-1 28:-1 
0 32 0 0 0 0 0 1:-1 2:-1 3:1 4:-1 5:-1 6:-1 7:-1 8:-1 9:1 10:-1 11:-1 12:-1 13:-1 14:-1 15:-1 17:1 18:-1 19:-1 20:-1 25:1 26:-1 27:-1 28:-1 
0 32 6.786746007381678 0 0 0 1.085894194056416 1:-1 2:-1 3:1 4:-1 5:-1 6:-1 7:-1 8:-1 9:1 10:-1 11:-1 12:-1 13:-1 14:-1 15:-1 17:1 18:-1 19:-1 20:-1 25:1 26:-1 27:-1 28:-1 
0 0 0 32 0 0 0 1:1 2:-1 3:-1 4:-1 5:-1 6:-1 7:-1 8:-1 9:-1 10:1 11:-1 12:-1 13:-1 14:-1 15:-1 17:1 18:-1 19:-1 20:-1 25:1 26:-1 27:-1 28:-1 
0 4.541905169208559 0 0 0 0 0 1:1 2:-1 3:-1 4:-1 5:-1 6:-1 7:-1 8:-1 9:1 10:-1 11:-1 12:-1 13:-1 14:-1 15:-1 17:-1 18:-1 19:1 20:-1 25:1 26:-1 27:-1 28:-1 
0 32 0 0 0 0 0 1:1 2:-1 3:-1 4:-1 5:-1 6:-1 7:-1 8:-1 9:1 10:-1 11:-1 12:-1 13:-1 14:-1 15:-1 17:-1 18:-1 19:1 20:-1 25:1 26:-1 27:-1 28:-1 
0 32 0 16.14809117462338 32 0 0 1:1 2:-1 3:-1 4:-1 5:-1 6:-1 7:-1 8:-1 9:1 10:-1 11:-1 12:-1 13:-1 14:-1 15:-1 17:-1 18:-1 19:1 20:-1 25:1 26:-1 27:-1 28:-1 
0 32 0 32 25.24116931417342 0 0 1:1 2:-1 3:-1 4:-1 5:-1 6:-1 7:-1 8:-1 9:1 10:-1 11:-1 12:-1 13:-1 14:-1 15:-1 17:-1 18:-1 19:1 20:-1 25:1 26:-1 27:-1 28:-1 
0 0 31.920711868227 32 0 0.5108138153647536 1.068837332041952 1:-1 2:1 3:-1 4:-1 5:-1 6:-1 7:-1 8:-1 9:1 10:-1 11:-1 12:-1 13:-1 14:-1 15:-1 17:1 18:-1 19:-1 20:-1 25:1 26:-1 27:-1 28:-1 
0 0 32 0 0 0 0 1:1 2:-1 3:-1 4:-1 5:-1 6:-1 7:-1 8:-1 9:-1 10:-1 11:-1 12:-1 13:1 14:-1 15:-1 17:1 18:-1 19:-1 20:-1 25:1 26:-1 27:-1 28:-1 
0 0 0 32 0 0 0 1:1 2:-1 3:-1 4:-1 5:-1 6:-1 7:-1 8:-1 9:-1 10:1 11:-1 12:-1 13:-1 14:-1 15:-1 17:1 18:-1 19:-1 20:-1 25:1 26:-1 27:-1 28:-1 
0 0 32 0 0 0 0 1:1 2:-1 3:-1 4:-1 5:-1 6:-1 7:-1 8:-1 9:-1 10:-1 11:-1 12:-1 13:1 14:-1 15:-1 17:1 18:-1 19:-1 20:-1 25:1 26:-1 27:-1 28:-1 
0 0 32 0 0 0 0 1:1 2:-1 3:-1 4:-1 5:-1 6:-1 7:-1 8:-1 9:-1 10:-1 11:-1 12:-1 13:1 14:-1 15:-1 17:1 18:-1 19:-1 20:-1 25:1 26:-1 27:-1 28:-1 
0 0 32 0 0 0 0 1:1 2:-1 3:-1 4:-1 5:-1 6:-1 7:-1 8:-1 9:-1 10:-1 11:-1 12:-1 13:1 14:-1 15:-1 17:1 18:-1 19:-1 20:-1 25:1 26:-1 27:-1 28:-1 
0 0 0 32 0 0 0 1:1 2:-1 3:-1 4:-1 5:-1 6:-1 7:-1 8:-1 9:1 10:-1 11:-1 12:-1 13:-1 14:-1 15:-1 17:-1 18:1 19:-1 20:-1 25:1 26:-1 27:-1 28:-1 
0 0 0 32 0 0 0 1:1 2:-1 3:-1 4:-1 5:-1 6:-1 7:-1 8:-1 9:-1 10:1 11:-1 12:-1 13:-1 14:-1 15:-1 17:1 18:-1 19:-1 20:-1 25:1 26:-1 27:-1 28:-1 
0 0 0 32 0 0 0 1:1 2:-1 3:-1 4:-1 5:-1 6:-1 7:-1 8:-1 9:-1 10:1 11:-1 12:-1 13:-1 14:-1 15:-1 17:1 18:-1 19:-1 20:-1 25:1 26:-1 27:-1 28:-1 
0 32 0 0 0 0 0 1:1 2:-1 3:-1 4:-1 5:-1 6:-1 7:-1 8:-1 9:-1 10:-1 11:1 12:-1 13:-1 14:-1 15:-1 17:1 18:-1 19:-1 20:-1 25:1 26:-1 27:-1 28:-1 
0 0 32 0 0 0 0 1:-1 2:-1 3:-1 4:-1 5:1 6:-1 7:-1 8:-1 9:1 10:-1 11:-1 12:-1 13:-1 14:-1 15:-1 17:1 18:-1 19:-1 20:-1 25:1 26:-1 27:-1 28:-1 
0 0 0 32 0 0 0 1:1 2:-1 3:-1 4:-1 5:-1 6:-1 7:-1 8:-1 9:-1 10:1 11:-1 12:-1 13:-1 14:-1 15:-1 17:1 18:-1 19:-1 20:-1 25:1 26:-1 27:-1 28:-1 
0 0 0 32 0 0 0 1:-1 2:1 3:-1 4:-1 5:-1 6:-1 7:-1 8:-1 9:-1 10:1 11:-1 12:-1 13:-1 14:-1 15:-1 17:1 18:-1 19:-1 20:-1 25:1 26:-1 27:-1 28:-1 
0 0 0 32 0 0 0 1:1 2:-1 3:-1 4:-1 5:-1 6:-1 7:-1 8:-1 9:1 10:-1 11:-1 12:-1 13:-1 14:-1 15:-1 17:-1 18:1 19:-1 20:-1 25:1 26:-1 27:-1 28:-1 
0 0 0 32 0 0 0 1:1 2:-1 3:-1 4:-1 5:-1 6:-1 7:-1 8:-1 9:1 10:-1 11:-1 12:-1 13:-1 14:-1 15:-1 17:-1 18:1 19:-1 20:-1 25:1 26:-1 27:-1 28:-1 
32 32 1.377238464813951 11.56460563360824 0 1.327686845214311 1.114954493564354 1:-1 2:-1 3:-1 4:-1 5:-1 6:1 7:-1 8:-1 9:1 10:-1 11:-1 12:-1 13:-1 14:-1 15:-1 17:1 18:-1 19:-1 20:-1 25:1 26:-1 27:-1 28:-1 
0.7255519453199881 12.64632534465203 0 32 27.63280033251793 0.8078634964114362 0 1:-1 2:1 3:-1 4:-1 5:-1 6:-1 7:-1 8:-1 9:-1 10:1 11:-1 12:-1 13:-1 14:-1 15:-1 17:1 18:-1 19:-1 20:-1 25:1 26:-1 27:-1 28:-1 
0 0 0 32 0 0 0 1:1 2:-1 3:-1 4:-1 5:-1 6:-1 7:-1 8:-1 9:1 10:-1 11:-1 12:-1 13:-1 14:-1 15:-1 17:-1 18:1 19:-1 20:-1 25:1 26:-1 27:-1 28:-1 
0 0 0 32 0 0 0 1:1 2:-1 3:-1 4:-1 5:-1 6:-1 7:-1 8:-1 9:1 10:-1 11:-1 12:-1 13:-1 14:-1 15:-1 17:-1 18:1 19:-1 20:-1 25:1 26:-1 27:-1 28:-1 
0 0 0 32 0 0 0 1:1 2:-1 3:-1 4:-1 5:-1 6:-1 7:-1 8:-1 9:1 10:-1 11:-1 12:-1 13:-1 14:-1 15:-1 17:-1 18:1 19:-1 20:-1 25:1 26:-1 27:-1 28:-1 
0 0 0 32 0 0 0 1:1 2:-1 3:-1 4:-1 5:-1 6:-1 7:-1 8:-1 9:1 10:-1 11:-1 12:-1 13:-1 14:-1 15:-1 17:-1 18:1 19:-1 20:-1 25:1 26:-1 27:-1 28:-1 
0 0 32 0 0 0 0 1:-1 2:-1 3:-1 4:-1 5:1 6:-1 7:-1 8:-1 9:1 10:-1 11:-1 12:-1 13:-1 14:-1 15:-1 17:1 18:-1 19:-1 20:-1 25:1 26:-1 27:-1 28:-1 
0 0 0 32 7.296597732520777 0 0 1:1 2:-1 3:-1 4:-1 5:-1 6:-1 7:-1 8:-1 9:-1 10:1 11:-1 12:-1 13:-1 14:-1 15:-1 17:1 18:-1 19:-1 20:-1 25:1 26:-1 27:-1 28:-1 
0 0 32 0 0 0 0 1:1 2:-1 3:-1 4:-1 5:-1 6:-1 7:-1 8:-1 9:-1 10:-1 11:-1 12:-1 13:1 14:-1 15:-1 17:1 18:-1 19:-1 20:-1 25:1 26:-1 27:-1 28:-1 
0 0 32 0 0 0 0 1:1 2:-1 3:-1 4:-1 5:-1 6:-1 7:-1 8:-1 9:-1 10:-1 11:-1 12:-1 13:1 14:-1 15:-1 17:1 18:-1 19:-1 20:-1 25:1 26:-1 27:-1 28:-1 
0 0 32 0 0 0 0 1:1 2:-1 3:-1 4:-1 5:-1 6:-1 7:-1 8:-1 9:-1 10:-1 11:-1 12:-1 13:1 14:-1 15:-1 17:1 18:-1 19:-1 20:-1 25:1 26:-1 27:-1 28:-1 
0 12.70193670791686 0 32 0 0 0 1:1 2:-1 3:-1 4:-1 5:-1 6:-1 7:-1 8:-1 9:1 10:-1 11:-1 12:-1 13:-1 14:-1 15:-1 17:-1 18:1 19:-1 20:-1 25:1 26:-1 27:-1 28:-1 
0 32 0 32 0 0 0 1:1 2:-1 3:-1 4:-1 5:-1 6:-1 7:-1 8:-1 9:1 10:-1 11:-1 12:-1 13:-1 14:-1 15:-1 17:-1 18:1 19:-1 20:-1 25:1 26:-1 27:-1 28:-1 
0 32 0 32 0 0 0 1:1 2:-1 3:-1 4:-1 5:-1 6:-1 7:-1 8:-1 9:1 10:-1 11:-1 12:-1 13:-1 14:-1 15:-1 17:-1 18:1 19:-1 20:-1 25:1 26:-1 27:-1 28:-1 
0 0 32 0 0 0 0 1:-1 2:-1 3:-1 4:-1 5:1 6:-1 7:-1 8:-1 9:1 10:-1 11:-1 12:-1 13:-1 14:-1 15:-1 17:1 18:-1 19:-1 20:-1 25:1 26:-1 27:-1 28:-1 
0 0 0 32 32 0 0 1:1 2:-1 3:-1 4:-1 5:-1 6:-1 7:-1 8:-1 9:-1 10:1 11:-1 12:-1 13:-1 14:-1 15:-1 17:1 18:-1 19:-1 20:-1 25:1 26:-1 27:-1 28:-1 
0 32 0 32 32 0 0 1:1 2:-1 3:-1 4:-1 5:-1 6:-1 7:-1 8:-1 9:-1 10:1 11:-1 12:-1 13:-1 14:-1 15:-1 17:1 18:-1 19:-1 20:-1 25:1 26:-1 27:-1 28:-1 
0 32 0 32 1.937773665867955 0 0 1:1 2:-1 3:-1 4:-1 5:-1 6:-1 7:-1 8:-1 9:-1 10:1 11:-1 12:-1 13:-1 14:-1 15:-1 17:-1 18:-1 19:1 20:-1 25:1 26:-1 27:-1 28:-1 
0 0 32 0 0 0 0 1:1 2:-1 3:-1 4:-1 5:-1 6:-1 7:-1 8:-1 9:-1 10:-1 11:-1 12:-1 13:1 14:-1 15:-1 17:1 18:-1 19:-1 20:-1 25:1 26:-1 27:-1 28:-1 
0 0 32 0 0 0 0 1:1 2:-1 3:-1 4:-1 5:-1 6:-1 7:-1 8:-1 9:-1 10:-1 11:-1 12:-1 13:1 14:-1 15:-1 17:1 18:-1 19:-1 20:-1 25:1 26:-1 27:-1 28:-1 
0 0 32 0 0 1.983951910952673 0 1:1 2:-1 3:-1 4:-1 5:-1 6:-1 7:-1 8:-1 9:-1 10:-1 11:-1 12:-1 13:1 14:-1 15:-1 17:1 18:-1 19:-1 20:-1 25:1 26:-1 27:-1 28:-1 
1.239384849894299 32 0 1.261149392770376 2.852156708082322 2.324083927071158 0 1:1 2:-1 3:-1 4:-1 5:-1 6:-1 7:-1 8:-1 9:-1 10:-1 11:1 12:-1 13:-1 14:-1 15:-1 17:1 18:-1 19:-1 20:-1 25:1 26:-1 27:-1 28:-1 
2.196142443653082 0 32 0 3.601889847625881 32 0 1:1 2:-1 3:-1 4:-1 5:-1 6:-1 7:-1 8:-1 9:-1 10:-1 11:-1 12:-1 13:1 14:-1 15:-1 17:1 18:-1 19:-1 20:-1 25:1 26:-1 27:-1 28:-1 
0 0 32 0 0 0 0 1:-1 2:-1 3:-1 4:-1 5:1 6:-1 7:-1 8:-1 9:1 10:-1 11:-1 12:-1 13:-1 14:-1 15:-1 17:1 18:-1 19:-1 20:-1 25:1 26:-1 27:-1 28:-1 
0.03514779179100329 32 0 32 0 0.04908863428846867 0.009735149954969734 1:1 2:-1 3:-1 4:-1 5:-1 6:-1 7:-1 8:-1 9:1 10:-1 11:-1 12:-1 13:-1 14:-1 15:-1 17:-1 18:1 19:-1 20:-1 25:1 26:-1 27:-1 28:-1 
0 1.156870481507553 32 0 0 0.4132129479745033 1.093189427907251 1:-1 2:-1 3:-1 4:-1 5:1 6:-1 7:-1 8:-1 9:1 10:-1 11:-1 12:-1 13:-1 14:-1 15:-1 17:1 18:-1 19:-1 20:-1 25:1 26:-1 27:-1 28:-1 
0 0 32 0 0 0 0 1:1 2:-1 3:-1 4:-1 5:-1 6:-1 7:-1 8:-1 9:1 10:-1 11:-1 12:-1 13:-1 14:-1 15:-1 17:1 18:-1 19:-1 20:-1 25:1 26:-1 27:-1 28:-1 
0 0 32 0 0 0 0 1:1 2:-1 3:-1 4:-1 5:-1 6:-1 7:-1 8:-1 9:1 10:-1 11:-1 12:-1 13:-1 14:-1 15:-1 17:1 18:-1 19:-1 20:-1 25:1 26:-1 27:-1 28:-1 
0 0 32 0 0 0 0 1:1 2:-1 3:-1 4:-1 5:-1 6:-1 7:-1 8:-1 9:1 10:-1 11:-1 12:-1 13:-1 14:-1 15:-1 17:1 18:-1 19:-1 20:-1 25:1 26:-1 27:-1 28:-1 
0 0 32 0 0 0 0 1:1 2:-1 3:-1 4:-1 5:-1 6:-1 7:-1 8:-1 9:1 10:-1 11:-1 12:-1 13:-1 14:-1 15:-1 17:1 18:-1 19:-1 20:-1 25:1 26:-1 27:-1 28:-1 
0 0 32 0 0 0 0 1:1 2:-1 3:-1 4:-1 5:-1 6:-1 7:-1 8:-1 9:1 10:-1 11:-1 12:-1 13:-1 14:-1 15:-1 17:1 18:-1 19:-1 20:-1 25:1 26:-1 27:-1 28:-1 
0 0 32 0 0 0 0 1:1 2:-1 3:-1 4:-1 5:-1 6:-1 7:-1 8:-1 9:1 10:-1 11:-1 12:-1 13:-1 14:-1 15:-1 17:1 18:-1 19:-1 20:-1 25:1 26:-1 27:-1 28:-1 
0 0 32 0 0 0 0 1:1 2:-1 3:-1 4:-1 5:-1 6:-1 7:-1 8:-1 9:1 10:-1 11:-1 12:-1 13:-1 14:-1 15:-1 17:1 18:-1 19:-1 20:-1 25:1 26:-1 27:-1 28:-1 
0 0 32 0 0 0 0 1:1 2:-1 3:-1 4:-1 5:-1 6:-1 7:-1 8:-1 9:1 10:-1 11:-1 12:-1 13:-1 14:-1 15:-1 17:1 18:-1 19:-1 20:-1 25:1 26:-1 27:-1 28:-1 
0 0 32 0 0 0 0 1:1 2:-1 3:-1 4:-1 5:-1 6:-1 7:-1 8:-1 9:1 10:-1 11:-1 12:-1 13:-1 14:-1 15:-1 17:1 18:-1 19:-1 20:-1 25:1 26:-1 27:-1 28:-1 
0 0 32 0 0 0 0 1:1 2:-1 3:-1 4:-1 5:-1 6:-1 7:-1 8:-1 9:1 10:-1 11:-1 12:-1 13:-1 14:-1 15:-1 17:1 18:-1 19:-1 20:-1 25:1 26:-1 27:-1 28:-1 
0 0 32 0 0 0 0 1:1 2:-1 3:-1 4:-1 5:-1 6:-1 7:-1 8:-1 9:1 10:-1 11:-1 12:-1 13:-1 14:-1 15:-1 17:1 18:-1 19:-1 20:-1 25:1 26:-1 27:-1 28:-1 
0 0 32 0 0 0 0 1:1 2:-1 3:-1 4:-1 5:-1 6:-1 7:-1 8:-1 9:1 10:-1 11:-1 12:-1 13:-1 14:-1 15:-1 17:1 18:-1 19:-1 20:-1 25:1 26:-1 27:-1 28:-1 
0 0 32 0 0 0 0 1:1 2:-1 3:-1 4:-1 5:-1 6:-1 7:-1 8:-1 9:1 10:-1 11:-1 12:-1 13:-1 14:-1 15:-1 17:1 18:-1 19:-1 20:-1 25:1 26:-1 27:-1 28:-1 
0 0 32 0 0 0 0 1:1 2:-1 3:-1 4:-1 5:-1 6:-1 7:-1 8:-1 9:1 10:-1 11:-1 12:-1 13:-1 14:-1 15:-1 17:1 18:-1 19:-1 20:-1 25:1 26:-1 27:-1 28:-1 
0 0 32 0 0 0 0 1:1 2:-1 3:-1 4:-1 5:-1 6:-1 7:-1 8:-1 9:1 10:-1 11:-1 12:-1 13:-1 14:-1 15:-1 17:1 18:-1 19:-1 20:-1 25:1 26:-1 27:-1 28:-1 
0 0 32 0 0 0 0 1:1 2:-1 3:-1 4:-1 5:-1 6:-1 7:-1 8:-1 9:1 10:-1 11:-1 12:-1 13:-1 14:-1 15:-1 17:1 18:-1 19:-1 20:-1 25:1 26:-1 27:-1 28:-1 
0 0 32 0 0 0 0 1:1 2:-1 3:-1 4:-1 5:-1 6:-1 7:-1 8:-1 9:1 10:-1 11:-1 12:-1 13:-1 14:-1 15:-1 17:1 18:-1 19:-1 20:-1 25:1 26:-1 27:-1 28:-1 
0 0 32 0 0 0 0 1:1 2:-1 3:-1 4:-1 5:-1 6:-1 7:-1 8:-1 9:1 10:-1 11:-1 12:-1 13:-1 14:-1 15:-1 17:1 18:-1 19:-1 20:-1 25:1 26:-1 27:-1 28:-1 
0 0 32 0 0 0 0 1:1 2:-1 3:-1 4:-1 5:-1 6:-1 7:-1 8:-1 9:1 10:-1 11:-1 12:-1 13:-1 14:-1 15:-1 17:1 18:-1 19:-1 20:-1 25:1 26:-1 27:-1 28:-1 
0 0 32 0 0 0 0 1:1 2:-1 3:-1 4:-1 5:-1 6:-1 7:-1 8:-1 9:1 10:-1 11:-1 12:-1 13:-1 14:-1 15:-1 17:1 18:-1 19:-1 20:-1 25:1 26:-1 27:-1 28:-1 
0 0 32 0 0 0 0 1:1 2:-1 3:-1 4:-1 5:-1 6:-1 7:-1 8:-1 9:1 10:-1 11:-1 12:-1 13:-1 14:-1 15:-1 17:1 18:-1 19:-1 20:-1 25:1 26:-1 27:-1 28:-1 
0 0 32 0 0 0 0 1:1 2:-1 3:-1 4:-1 5:-1 6:-1 7:-1 8:-1 9:1 10:-1 11:-1 12:-1 13:-1 14:-1 15:-1 17:1 18:-1 19:-1 20:-1 25:1 26:-1 27:-1 28:-1 
0 0 32 0 0 0 0 1:1 2:-1 3:-1 4:-1 5:-1 6:-1 7:-1 8:-1 9:1 10:-1 11:-1 12:-1 13:-1 14:-1 15:-1 17:1 18:-1 19:-1 20:-1 25:1 26:-1 27:-1 28:-1 
0 0 32 0 0 0 0 1:1 2:-1 3:-1 4:-1 5:-1 6:-1 7:-1 8:-1 9:1 10:-1 11:-1 12:-1 13:-1 14:-1 15:-1 17:1 18:-1 19:-1 20:-1 25:1 26:-1 27:-1 28:-1 
0 0 32 0 0 0 0 1:1 2:-1 3:-1 4:-1 5:-1 6:-1 7:-1 8:-1 9:1 10:-1 11:-1 12:-1 13:-1 14:-1 15:-1 17:1 18:-1 19:-1 20:-1 25:1 26:-1 27:-1 28:-1 
0 0 32 0 0 0 0 1:1 2:-1 3:-1 4:-1 5:-1 6:-1 7:-1 8:-1 9:1 10:-1 11:-1 12:-1 13:-1 14:-1 15:-1 17:1 18:-1 19:-1 20:-1 25:1 26:-1 27:-1 28:-1 
0 0 32 0 0 0 0 1:1 2:-1 3:-1 4:-1 5:-1 6:-1 7:-1 8:-1 9:1 10:-1 11:-1 12:-1 13:-1 14:-1 15:-1 17:1 18:-1 19:-1 20:-1 25:1 26:-1 27:-1 28:-1 
0 0 32 0 0 0 0 1:1 2:-1 3:-1 4:-1 5:-1 6:-1 7:-1 8:-1 9:1 10:-1 11:-1 12:-1 13:-1 14:-1 15:-1 17:1 18:-1 19:-1 20:-1 25:1 26:-1 27:-1 28:-1 
0 0 32 0 0 0 0 1:1 2:-1 3:-1 4:-1 5:-1 6:-1 7:-1 8:-1 9:1 10:-1 11:-1 12:-1 13:-1 14:-1 15:-1 17:1 18:-1 19:-1 20:-1 25:1 26:-1 27:-1 28:-1 
0 0 32 0 0 0 0 1:1 2:-1 3:-1 4:-1 5:-1 6:-1 7:-1 8:-1 9:1 10:-1 11:-1 12:-1 13:-1 14:-1 15:-1 17:1 18:-1 19:-1 20:-1 25:1 26:-1 27:-1 28:-1 
0 0 32 0 0 0 0 1:1 2:-1 3:-1 4:-1 5:-1 6:-1 7:-1 8:-1 9:1 10:-1 11:-1 12:-1 13:-1 14:-1 15:-1 17:1 18:-1 19:-1 20:-1 25:1 26:-1 27:-1 28:-1 
0 0 32 0 0 0 0 1:1 2:-1 3:-1 4:-1 5:-1 6:-1 7:-1 8:-1 9:1 10:-1 11:-1 12:-1 13:-1 14:-1 15:-1 17:1 18:-1 19:-1 20:-1 25:1 26:-1 27:-1 28:-1 
0 0 32 0 0 0 0 1:1 2:-1 3:-1 4:-1 5:-1 6:-1 7:-1 8:-1 9:1 10:-1 11:-1 12:-1 13:-1 14:-1 15:-1 17:1 18:-1 19:-1 20:-1 25:1 26:-1 27:-1 28:-1 
0 0 32 0 0 0 0 1:1 2:-1 3:-1 4:-1 5:-1 6:-1 7:-1 8:-1 9:1 10:-1 11:-1 12:-1 13:-1 14:-1 15:-1 17:1 18:-1 19:-1 20:-1 25:1 26:-1 27:-1 28:-1 
0 0 32 0 0 0 0 1:1 2:-1 3:-1 4:-1 5:-1 6:-1 7:-1 8:-1 9:1 10:-1 11:-1 12:-1 13:-1 14:-1 15:-1 17:1 18:-1 19:-1 20:-1 25:1 26:-1 27:-1 28:-1 
0 0 32 0 0 0 0 1:1 2:-1 3:-1 4:-1 5:-1 6:-1 7:-1 8:-1 9:1 10:-1 11:-1 12:-1 13:-1 14:-1 15:-1 17:1 18:-1 19:-1 20:-1 25:1 26:-1 27:-1 28:-1 
0 0 32 0 0 0 0 1:1 2:-1 3:-1 4:-1 5:-1 6:-1 7:-1 8:-1 9:1 10:-1 11:-1 12:-1 13:-1 14:-1 15:-1 17:1 18:-1 19:-1 20:-1 25:1 26:-1 27:-1 28:-1 
0 0 32 0 0 0 0 1:1 2:-1 3:-1 4:-1 5:-1 6:-1 7:-1 8:-1 9:1 10:-1 11:-1 12:-1 13:-1 14:-1 15:-1 17:1 18:-1 19:-1 20:-1 25:1 26:-1 27:-1 28:-1 
0 0 32 0 0 0 0 1:1 2:-1 3:-1 4:-1 5:-1 6:-1 7:-1 8:-1 9:1 10:-1 11:-1 12:-1 13:-1 14:-1 15:-1 17:1 18:-1 19:-1 20:-1 25:1 26:-1 27:-1 28:-1 
0 0 32 0 0 0 0 1:1 2:-1 3:-1 4:-1 5:-1 6:-1 7:-1 8:-1 9:1 10:-1 11:-1 12:-1 13:-1 14:-1 15:-1 17:1 18:-1 19:-1 20:-1 25:1 26:-1 27:-1 28:-1 
0 0 32 0 0 0 0 1:1 2:-1 3:-1 4:-1 5:-1 6:-1 7:-1 8:-1 9:1 10:-1 11:-1 12:-1 13:-1 14:-1 15:-1 17:1 18:-1 19:-1 20:-1 25:1 26:-1 27:-1 28:-1 
0 0 32 0 0 0 0 1:1 2:-1 3:-1 4:-1 5:-1 6:-1 7:-1 8:-1 9:1 10:-1 11:-1 12:-1 13:-1 14:-1 15:-1 17:1 18:-1 19:-1 20:-1 25:1 26:-1 27:-1 28:-1 
0 0 32 0 0 0 0 1:1 2:-1 3:-1 4:-1 5:-1 6:-1 7:-1 8:-1 9:1 10:-1 11:-1 12:-1 13:-1 14:-1 15:-1 17:1 18:-1 19:-1 20:-1 25:1 26:-1 27:-1 28:-1 
0 0 32 0 0 0 0 1:1 2:-1 3:-1 4:-1 5:-1 6:-1 7:-1 8:-1 9:1 10:-1 11:-1 12:-1 13:-1 14:-1 15:-1 17:1 18:-1 19:-1 20:-1 25:1 26:-1 27:-1 28:-1 
0 0 32 0 0 0 0 1:1 2:-1 3:-1 4:-1 5:-1 6:-1 7:-1 8:-1 9:1 10:-1 11:-1 12:-1 13:-1 14:-1 15:-1 17:1 18:-1 19:-1 20:-1 25:1 26:-1 27:-1 28:-1 
0 0 32 0 0 0 0 1:1 2:-1 3:-1 4:-1 5:-1 6:-1 7:-1 8:-1 9:1 10:-1 11:-1 12:-1 13:-1 14:-1 15:-1 17:1 18:-1 19:-1 20:-1 25:1 26:-1 27:-1 28:-1 
0 0 32 0 0 0 0 1:1 2:-1 3:-1 4:-1 5:-1 6:-1 7:-1 8:-1 9:1 10:-1 11:-1 12:-1 13:-1 14:-1 15:-1 17:1 18:-1 19:-1 20:-1 25:1 26:-1 27:-1 28:-1 
0 0 32 0 0 0 0 1:1 2:-1 3:-1 4:-1 5:-1 6:-1 7:-1 8:-1 9:1 10:-1 11:-1 12:-1 13:-1 14:-1 15:-1 17:1 18:-1 19:-1 20:-1 25:1 26:-1 27:-1 28:-1 
0 0 32 0 0 0 0 1:1 2:-1 3:-1 4:-1 5:-1 6:-1 7:-1 8:-1 9:1 10:-1 11:-1 12:-1 13:-1 14:-1 15:-1 17:1 18:-1 19:-1 20:-1 25:1 26:-1 27:-1 28:-1 
0 0 32 0 0 0 0 1:1 2:-1 3:-1 4:-1 5:-1 6:-1 7:-1 8:-1 9:1 10:-1 11:-1 12:-1 13:-1 14:-1 15:-1 17:1 18:-1 19:-1 20:-1 25:1 26:-1 27:-1 28:-1 
0 0 32 0 0 0 0 1:1 2:-1 3:-1 4:-1 5:-1 6:-1 7:-1 8:-1 9:1 10:-1 11:-1 12:-1 13:-1 14:-1 15:-1 17:1 18:-1 19:-1 20:-1 25:1 26:-1 27:-1 28:-1 
0 0 32 0 0 0 0 1:1 2:-1 3:-1 4:-1 5:-1 6:-1 7:-1 8:-1 9:1 10:-1 11:-1 12:-1 13:-1 14:-1 15:-1 17:1 18:-1 19:-1 20:-1 25:1 26:-1 27:-1 28:-1 
0 0 32 0 0 0 0 1:1 2:-1 3:-1 4:-1 5:-1 6:-1 7:-1 8:-1 9:1 10:-1 11:-1 12:-1 13:-1 14:-1 15:-1 17:1 18:-1 19:-1 20:-1 25:1 26:-1 27:-1 28:-1 
0 0 32 0 0 0 0 1:1 2:-1 3:-1 4:-1 5:-1 6:-1 7:-1 8:-1 9:1 10:-1 11:-1 12:-1 13:-1 14:-1 15:-1 17:1 18:-1 19:-1 20:-1 25:1 26:-1 27:-1 28:-1 
0 0 32 0 0 0 0 1:1 2:-1 3:-1 4:-1 5:-1 6:-1 7:-1 8:-1 9:1 10:-1 11:-1 12:-1 13:-1 14:-1 15:-1 17:1 18:-1 19:-1 20:-1 25:1 26:-1 27:-1 28:-1 
0 0 32 0 0 0 0 1:1 2:-1 3:-1 4:-1 5:-1 6:-1 7:-1 8:-1 9:1 10:-1 11:-1 12:-1 13:-1 14:-1 15:-1 17:1 18:-1 19:-1 20:-1 25:1 26:-1 27:-1 28:-1 
0 0 32 0 0 0 0 1:1 2:-1 3:-1 4:-1 5:-1 6:-1 7:-1 8:-1 9:1 10:-1 11:-1 12:-1 13:-1 14:-1 15:-1 17:1 18:-1 19:-1 20:-1 25:1 26:-1 27:-1 28:-1 
0 0 32 0 0 0 0 1:1 2:-1 3:-1 4:-1 5:-1 6:-1 7:-1 8:-1 9:1 10:-1 11:-1 12:-1 13:-1 14:-1 15:-1 17:1 18:-1 19:-1 20:-1 25:1 26:-1 27:-1 28:-1 
0 0 32 0 0 0 0 1:1 2:-1 3:-1 4:-1 5:-1 6:-1 7:-1 8:-1 9:1 10:-1 11:-1 12:-1 13:-1 14:-1 15:-1 17:1 18:-1 19:-1 20:-1 25:1 26:-1 27:-1 28:-1 
0 0 32 0 0 0 0 1:1 2:-1 3:-1 4:-1 5:-1 6:-1 7:-1 8:-1 9:1 10:-1 11:-1 12:-1 13:-1 14:-1 15:-1 17:1 18:-1 19:-1 20:-1 25:1 26:-1 27:-1 28:-1 
0 0 32 0 0 0 0 1:1 2:-1 3:-1 4:-1 5:-1 6:-1 7:-1 8:-1 9:1 10:-1 11:-1 12:-1 13:-1 14:-1 15:-1 17:1 18:-1 19:-1 20:-1 25:1 26:-1 27:-1 28:-1 
0 0 32 0 0 0 0 1:1 2:-1 3:-1 4:-1 5:-1 6:-1 7:-1 8:-1 9:1 10:-1 11:-1 12:-1 13:-1 14:-1 15:-1 17:1 18:-1 19:-1 20:-1 25:1 26:-1 27:-1 28:-1 
0 0 32 0 0 0 0 1:1 2:-1 3:-1 4:-1 5:-1 6:-1 7:-1 8:-1 9:1 10:-1 11:-1 12:-1 13:-1 14:-1 15:-1 17:1 18:-1 19:-1 20:-1 25:1 26:-1 27:-1 28:-1 
0 0 32 0 0 0 0 1:1 2:-1 3:-1 4:-1 5:-1 6:-1 7:-1 8:-1 9:1 10:-1 11:-1 12:-1 13:-1 14:-1 15:-1 17:1 18:-1 19:-1 20:-1 25:1 26:-1 27:-1 28:-1 
0 0 32 0 0 0 0 1:1 2:-1 3:-1 4:-1 5:-1 6:-1 7:-1 8:-1 9:1 10:-1 11:-1 12:-1 13:-1 14:-1 15:-1 17:1 18:-1 19:-1 20:-1 25:1 26:-1 27:-1 28:-1 
0 0 32 0 0 0 0 1:1 2:-1 3:-1 4:-1 5:-1 6:-1 7:-1 8:-1 9:1 10:-1 11:-1 12:-1 13:-1 14:-1 15:-1 17:1 18:-1 19:-1 20:-1 25:1 26:-1 27:-1 28:-1 
0 0 32 0 0 0 0 1:1 2:-1 3:-1 4:-1 5:-1 6:-1 7:-1 8:-1 9:1 10:-1 11:-1 12:-1 13:-1 14:-1 15:-1 17:1 18:-1 19:-1 20:-1 25:1 26:-1 27:-1 28:-1 
0 0 32 0 0 0 0 1:1 2:-1 3:-1 4:-1 5:-1 6:-1 7:-1 8:-1 9:1 10:-1 11:-1 12:-1 13:-1 14:-1 15:-1 17:1 18:-1 19:-1 20:-1 25:1 26:-1 27:-1 28:-1 
0 0 32 0 0 0 0 1:1 2:-1 3:-1 4:-1 5:-1 6:-1 7:-1 8:-1 9:1 10:-1 11:-1 12:-1 13:-1 14:-1 15:-1 17:1 18:-1 19:-1 20:-1 25:1 26:-1 27:-1 28:-1 
0 0 32 0 0 0 0 1:1 2:-1 3:-1 4:-1 5:-1 6:-1 7:-1 8:-1 9:1 10:-1 11:-1 12:-1 13:-1 14:-1 15:-1 17:1 18:-1 19:-1 20:-1 25:1 26:-1 27:-1 28:-1 
0 0 32 0 0 0 0 1:1 2:-1 3:-1 4:-1 5:-1 6:-1 7:-1 8:-1 9:1 10:-1 11:-1 12:-1 13:-1 14:-1 15:-1 17:1 18:-1 19:-1 20:-1 25:1 26:-1 27:-1 28:-1 
0 0 32 0 0 0 0 1:1 2:-1 3:-1 4:-1 5:-1 6:-1 7:-1 8:-1 9:1 10:-1 11:-1 12:-1 13:-1 14:-1 15:-1 17:1 18:-1 19:-1 20:-1 25:1 26:-1 27:-1 28:-1 
0 0 32 0 0 0 0 1:1 2:-1 3:-1 4:-1 5:-1 6:-1 7:-1 8:-1 9:1 10:-1 11:-1 12:-1 13:-1 14:-1 15:-1 17:1 18:-1 19:-1 20:-1 25:1 26:-1 27:-1 28:-1 
0 0 32 0 0 0 0 1:1 2:-1 3:-1 4:-1 5:-1 6:-1 7:-1 8:-1 9:1 10:-1 11:-1 12:-1 13:-1 14:-1 15:-1 17:1 18:-1 19:-1 20:-1 25:1 26:-1 27:-1 28:-1 
0 0 32 0 0 0 0 1:1 2:-1 3:-1 4:-1 5:-1 6:-1 7:-1 8:-1 9:1 10:-1 11:-1 12:-1 13:-1 14:-1 15:-1 17:1 18:-1 19:-1 20:-1 25:1 26:-1 27:-1 28:-1 
0 0 32 0 0 0 0 1:1 2:-1 3:-1 4:-1 5:-1 6:-1 7:-1 8:-1 9:1 10:-1 11:-1 12:-1 13:-1 14:-1 15:-1 17:1 18:-1 19:-1 20:-1 25:1 26:-1 27:-1 28:-1 
0 0 32 0 0 0 0 1:1 2:-1 3:-1 4:-1 5:-1 6:-1 7:-1 8:-1 9:1 10:-1 11:-1 12:-1 13:-1 14:-1 15:-1 17:1 18:-1 19:-1 20:-1 25:1 26:-1 27:-1 28:-1 
0 0 32 0 0 0 0 1:1 2:-1 3:-1 4:-1 5:-1 6:-1 7:-1 8:-1 9:1 10:-1 11:-1 12:-1 13:-1 14:-1 15:-1 17:1 18:-1 19:-1 20:-1 25:1 26:-1 27:-1 28:-1 
0 0 32 0 0 0 0 1:1 2:-1 3:-1 4:-1 5:-1 6:-1 7:-1 8:-1 9:1 10:-1 11:-1 12:-1 13:-1 14:-1 15:-1 17:1 18:-1 19:-1 20:-1 25:1 26:-1 27:-1 28:-1 
0 0 32 0 0 0 0 1:1 2:-1 3:-1 4:-1 5:-1 6:-1 7:-1 8:-1 9:1 10:-1 11:-1 12:-1 13:-1 14:-1 15:-1 17:1 18:-1 19:-1 20:-1 25:1 26:-1 27:-1 28:-1 
0 0 32 0 0 0 0 1:1 2:-1 3:-1 4:-1 5:-1 6:-1 7:-1 8:-1 9:1 10:-1 11:-1 12:-1 13:-1 14:-1 15:-1 17:1 18:-1 19:-1 20:-1 25:1 26:-1 27:-1 28:-1 
0 0 32 0 0 0 0 1:1 2:-1 3:-1 4:-1 5:-1 6:-1 7:-1 8:-1 9:1 10:-1 11:-1 12:-1 13:-1 14:-1 15:-1 17:1 18:-1 19:-1 20:-1 25:1 26:-1 27:-1 28:-1 
0 0 32 0 0 0 0 1:1 2:-1 3:-1 4:-1 5:-1 6:-1 7:-1 8:-1 9:1 10:-1 11:-1 12:-1 13:-1 14:-1 15:-1 17:1 18:-1 19:-1 20:-1 25:1 26:-1 27:-1 28:-1 
0 0 32 0 0 0 0 1:1 2:-1 3:-1 4:-1 5:-1 6:-1 7:-1 8:-1 9:1 10:-1 11:-1 12:-1 13:-1 14:-1 15:-1 17:1 18:-1 19:-1 20:-1 25:1 26:-1 27:-1 28:-1 
0 0 32 0 0 0 0 1:1 2:-1 3:-1 4:-1 5:-1 6:-1 7:-1 8:-1 9:1 10:-1 11:-1 12:-1 13:-1 14:-1 15:-1 17:1 18:-1 19:-1 20:-1 25:1 26:-1 27:-1 28:-1 
0 0 32 0 0 0 0 1:1 2:-1 3:-1 4:-1 5:-1 6:-1 7:-1 8:-1 9:1 10:-1 11:-1 12:-1 13:-1 14:-1 15:-1 17:1 18:-1 19:-1 20:-1 25:1 26:-1 27:-1 28:-1 
0 0 32 0 0 0 0 1:1 2:-1 3:-1 4:-1 5:-1 6:-1 7:-1 8:-1 9:1 10:-1 11:-1 12:-1 13:-1 14:-1 15:-1 17:1 18:-1 19:-1 20:-1 25:1 26:-1 27:-1 28:-1 
0 0 32 0 0 0 0 1:1 2:-1 3:-1 4:-1 5:-1 6:-1 7:-1 8:-1 9:1 10:-1 11:-1 12:-1 13:-1 14:-1 15:-1 17:1 18:-1 19:-1 20:-1 25:1 26:-1 27:-1 28:-1 
0 0 32 0 0 0 0 1:1 2:-1 3:-1 4:-1 5:-1 6:-1 7:-1 8:-1 9:1 10:-1 11:-1 12:-1 13:-1 14:-1 15:-1 17:1 18:-1 19:-1 20:-1 25:1 26:-1 27:-1 28:-1 
0 0 32 0 0 0 0 1:1 2:-1 3:-1 4:-1 5:-1 6:-1 7:-1 8:-1 9:1 10:-1 11:-1 12:-1 13:-1 14:-1 15:-1 17:1 18:-1 19:-1 20:-1 25:1 26:-1 27:-1 28:-1 
0 0 32 0 0 0 0 1:1 2:-1 3:-1 4:-1 5:-1 6:-1 7:-1 8:-1 9:1 10:-1 11:-1 12:-1 13:-1 14:-1 15:-1 17:1 18:-1 19:-1 20:-1 25:1 26:-1 27:-1 28:-1 
0 0 32 0 0 0 0 1:1 2:-1 3:-1 4:-1 5:-1 6:-1 7:-1 8:-1 9:1 10:-1 11:-1 12:-1 13:-1 14:-1 15:-1 17:1 18:-1 19:-1 20:-1 25:1 26:-1 27:-1 28:-1 
0 0 32 0 0 0 0 1:1 2:-1 3:-1 4:-1 5:-1 6:-1 7:-1 8:-1 9:1 10:-1 11:-1 12:-1 13:-1 14:-1 15:-1 17:1 18:-1 19:-1 20:-1 25:1 26:-1 27:-1 28:-1 
0 0 32 0 0 0 0 1:1 2:-1 3:-1 4:-1 5:-1 6:-1 7:-1 8:-1 9:1 10:-1 11:-1 12:-1 13:-1 14:-1 15:-1 17:1 18:-1 19:-1 20:-1 25:1 26:-1 27:-1 28:-1 
0 0 32 0 0 0 0 1:1 2:-1 3:-1 4:-1 5:-1 6:-1 7:-1 8:-1 9:1 10:-1 11:-1 12:-1 13:-1 14:-1 15:-1 17:1 18:-1 19:-1 20:-1 25:1 26:-1 27:-1 28:-1 
0 0 32 0 0 0 0 1:1 2:-1 3:-1 4:-1 5:-1 6:-1 7:-1 8:-1 9:1 10:-1 11:-1 12:-1 13:-1 14:-1 15:-1 17:1 18:-1 19:-1 20:-1 25:1 26:-1 27:-1 28:-1 
0 0 32 0 0 0 0 1:1 2:-1 3:-1 4:-1 5:-1 6:-1 7:-1 8:-1 9:1 10:-1 11:-1 12:-1 13:-1 14:-1 15:-1 17:1 18:-1 19:-1 20:-1 25:1 26:-1 27:-1 28:-1 
0 0 32 0 0 0 0 1:1 2:-1 3:-1 4:-1 5:-1 6:-1 7:-1 8:-1 9:1 10:-1 11:-1 12:-1 13:-1 14:-1 15:-1 17:1 18:-1 19:-1 20:-1 25:1 26:-1 27:-1 28:-1 
0 0 32 0 0 0 0 1:1 2:-1 3:-1 4:-1 5:-1 6:-1 7:-1 8:-1 9:1 10:-1 11:-1 12:-1 13:-1 14:-1 15:-1 17:1 18:-1 19:-1 20:-1 25:1 26:-1 27:-1 28:-1 
0 0 32 0 0 0 0 1:1 2:-1 3:-1 4:-1 5:-1 6:-1 7:-1 8:-1 9:1 10:-1 11:-1 12:-1 13:-1 14:-1 15:-1 17:1 18:-1 19:-1 20:-1 25:1 26:-1 27:-1 28:-1 
0 0 32 0 0 0 0 1:1 2:-1 3:-1 4:-1 5:-1 6:-1 7:-1 8:-1 9:1 10:-1 11:-1 12:-1 13:-1 14:-1 15:-1 17:1 18:-1 19:-1 20:-1 25:1 26:-1 27:-1 28:-1 
0 0 32 0 0 0 0 1:1 2:-1 3:-1 4:-1 5:-1 6:-1 7:-1 8:-1 9:1 10:-1 11:-1 12:-1 13:-1 14:-1 15:-1 17:1 18:-1 19:-1 20:-1 25:1 26:-1 27:-1 28:-1 
0 0 32 0 0 0 0 1:1 2:-1 3:-1 4:-1 5:-1 6:-1 7:-1 8:-1 9:1 10:-1 11:-1 12:-1 13:-1 14:-1 15:-1 17:1 18:-1 19:-1 20:-1 25:1 26:-1 27:-1 28:-1 
0 0 32 0 0 0 0 1:1 2:-1 3:-1 4:-1 5:-1 6:-1 7:-1 8:-1 9:1 10:-1 11:-1 12:-1 13:-1 14:-1 15:-1 17:1 18:-1 19:-1 20:-1 25:1 26:-1 27:-1 28:-1 
0 0 32 0 0 0 0 1:1 2:-1 3:-1 4:-1 5:-1 6:-1 7:-1 8:-1 9:1 10:-1 11:-1 12:-1 13:-1 14:-1 15:-1 17:1 18:-1 19:-1 20:-1 25:1 26:-1 27:-1 28:-1 
0 0 32 0 0 0 0 1:1 2:-1 3:-1 4:-1 5:-1 6:-1 7:-1 8:-1 9:1 10:-1 11:-1 12:-1 13:-1 14:-1 15:-1 17:1 18:-1 19:-1 20:-1 25:1 26:-1 27:-1 28:-1 
0 0 32 0 0 0 0 1:1 2:-1 3:-1 4:-1 5:-1 6:-1 7:-1 8:-1 9:1 10:-1 11:-1 12:-1 13:-1 14:-1 15:-1 17:1 18:-1 19:-1 20:-1 25:1 26:-1 27:-1 28:-1 
0 0 32 0 0 0 0 1:1 2:-1 3:-1 4:-1 5:-1 6:-1 7:-1 8:-1 9:1 10:-1 11:-1 12:-1 13:-1 14:-1 15:-1 17:1 18:-1 19:-1 20:-1 25:1 26:-1 27:-1 28:-1 
0 0 32 0 0 0 0 1:1 2:-1 3:-1 4:-1 5:-1 6:-1 7:-1 8:-1 9:1 10:-1 11:-1 12:-1 13:-1 14:-1 15:-1 17:1 18:-1 19:-1 20:-1 25:1 26:-1 27:-1 28:-1 
0 0 32 0 0 0 0 1:1 2:-1 3:-1 4:-1 5:-1 6:-1 7:-1 8:-1 9:1 10:-1 11:-1 12:-1 13:-1 14:-1 15:-1 17:1 18:-1 19:-1 20:-1 25:1 26:-1 27:-1 28:-1 
0 0 32 0 0 0 0 1:1 2:-1 3:-1 4:-1 5:-1 6:-1 7:-1 8:-1 9:1 10:-1 11:-1 12:-1 13:-1 14:-1 15:-1 17:1 18:-1 19:-1 20:-1 25:1 26:-1 27:-1 28:-1 
0 0 32 0 0 0 0 1:1 2:-1 3:-1 4:-1 5:-1 6:-1 7:-1 8:-1 9:1 10:-1 11:-1 12:-1 13:-1 14:-1 15:-1 17:1 18:-1 19:-1 20:-1 25:1 26:-1 27:-1 28:-1 
0 0 32 0 0 0 0 1:1 2:-1 3:-1 4:-1 5:-1 6:-1 7:-1 8:-1 9:1 10:-1 11:-1 12:-1 13:-1 14:-1 15:-1 17:1 18:-1 19:-1 20:-1 25:1 26:-1 27:-1 28:-1 
0 0 32 0 0 0 0 1:1 2:-1 3:-1 4:-1 5:-1 6:-1 7:-1 8:-1 9:1 10:-1 11:-1 12:-1 13:-1 14:-1 15:-1 17:1 18:-1 19:-1 20:-1 25:1 26:-1 27:-1 28:-1 
0 0 32 0 0 0 0 1:1 2:-1 3:-1 4:-1 5:-1 6:-1 7:-1 8:-1 9:1 10:-1 11:-1 12:-1 13:-1 14:-1 15:-1 17:1 18:-1 19:-1 20:-1 25:1 26:-1 27:-1 28:-1 
0 0 32 0 0 0 0 1:1 2:-1 3:-1 4:-1 5:-1 6:-1 7:-1 8:-1 9:1 10:-1 11:-1 12:-1 13:-1 14:-1 15:-1 17:1 18:-1 19:-1 20:-1 25:1 26:-1 27:-1 28:-1 
0 0 32 0 0 0 0 1:1 2:-1 3:-1 4:-1 5:-1 6:-1 7:-1 8:-1 9:1 10:-1 11:-1 12:-1 13:-1 14:-1 15:-1 17:1 18:-1 19:-1 20:-1 25:1 26:-1 27:-1 28:-1 
0 0 32 0 0 0 0 1:1 2:-1 3:-1 4:-1 5:-1 6:-1 7:-1 8:-1 9:1 10:-1 11:-1 12:-1 13:-1 14:-1 15:-1 17:1 18:-1 19:-1 20:-1 25:1 26:-1 27:-1 28:-1 
0 0 32 0 0 0 0 1:1 2:-1 3:-1 4:-1 5:-1 6:-1 7:-1 8:-1 9:1 10:-1 11:-1 12:-1 13:-1 14:-1 15:-1 17:1 18:-1 19:-1 20:-1 25:1 26:-1 27:-1 28:-1 
0 0 32 0 0 0 0 1:1 2:-1 3:-1 4:-1 5:-1 6:-1 7:-1 8:-1 9:1 10:-1 11:-1 12:-1 13:-1 14:-1 15:-1 17:1 18:-1 19:-1 20:-1 25:1 26:-1 27:-1 28:-1 
0 0 32 0 0 0 0 1:1 2:-1 3:-1 4:-1 5:-1 6:-1 7:-1 8:-1 9:1 10:-1 11:-1 12:-1 13:-1 14:-1 15:-1 17:1 18:-1 19:-1 20:-1 25:1 26:-1 27:-1 28:-1 
0 0 32 0 0 0 0 1:1 2:-1 3:-1 4:-1 5:-1 6:-1 7:-1 8:-1 9:1 10:-1 11:-1 12:-1 13:-1 14:-1 15:-1 17:1 18:-1 19:-1 20:-1 25:1 26:-1 27:-1 28:-1 
0 0 32 0 0 0 0 1:1 2:-1 3:-1 4:-1 5:-1 6:-1 7:-1 8:-1 9:1 10:-1 11:-1 12:-1 13:-1 14:-1 15:-1 17:1 18:-1 19:-1 20:-1 25:1 26:-1 27:-1 28:-1 
0 0 32 0 0 0 0 1:1 2:-1 3:-1 4:-1 5:-1 6:-1 7:-1 8:-1 9:1 10:-1 11:-1 12:-1 13:-1 14:-1 15:-1 17:1 18:-1 19:-1 20:-1 25:1 26:-1 27:-1 28:-1 
0 0 32 0 0 0 0 1:1 2:-1 3:-1 4:-1 5:-1 6:-1 7:-1 8:-1 9:1 10:-1 11:-1 12:-1 13:-1 14:-1 15:-1 17:1 18:-1 19:-1 20:-1 25:1 26:-1 27:-1 28:-1 
0 0 32 0 0 0 0 1:1 2:-1 3:-1 4:-1 5:-1 6:-1 7:-1 8:-1 9:1 10:-1 11:-1 12:-1 13:-1 14:-1 15:-1 17:1 18:-1 19:-1 20:-1 25:1 26:-1 27:-1 28:-1 
0 0 32 0 0 0 0 1:1 2:-1 3:-1 4:-1 5:-1 6:-1 7:-1 8:-1 9:1 10:-1 11:-1 12:-1 13:-1 14:-1 15:-1 17:1 18:-1 19:-1 20:-1 25:1 26:-1 27:-1 28:-1 
0 0 32 0 0 0 0 1:1 2:-1 3:-1 4:-1 5:-1 6:-1 7:-1 8:-1 9:1 10:-1 11:-1 12:-1 13:-1 14:-1 15:-1 17:1 18:-1 19:-1 20:-1 25:1 26:-1 27:-1 28:-1 
0 0 32 0 0 0 0 1:1 2:-1 3:-1 4:-1 5:-1 6:-1 7:-1 8:-1 9:1 10:-1 11:-1 12:-1 13:-1 14:-1 15:-1 17:1 18:-1 19:-1 20:-1 25:1 26:-1 27:-1 28:-1 
0 0 32 0 0 0 0 1:1 2:-1 3:-1 4:-1 5:-1 6:-1 7:-1 8:-1 9:1 10:-1 11:-1 12:-1 13:-1 14:-1 15:-1 17:1 18:-1 19:-1 20:-1 25:1 26:-1 27:-1 28:-1 
0 0 32 0 0 0 0 1:1 2:-1 3:-1 4:-1 5:-1 6:-1 7:-1 8:-1 9:1 10:-1 11:-1 12:-1 13:-1 14:-1 15:-1 17:1 18:-1 19:-1 20:-1 25:1 26:-1 27:-1 28:-1 
0 0 32 0 0 0 0 1:1 2:-1 3:-1 4:-1 5:-1 6:-1 7:-1 8:-1 9:1 10:-1 11:-1 12:-1 13:-1 14:-1 15:-1 17:1 18:-1 19:-1 20:-1 25:1 26:-1 27:-1 28:-1 
0 0 32 0 0 0 0 1:1 2:-1 3:-1 4:-1 5:-1 6:-1 7:-1 8:-1 9:1 10:-1 11:-1 12:-1 13:-1 14:-1 15:-1 17:1 18:-1 19:-1 20:-1 25:1 26:-1 27:-1 28:-1 
0 0 32 0 0 0 0 1:1 2:-1 3:-1 4:-1 5:-1 6:-1 7:-1 8:-1 9:1 10:-1 11:-1 12:-1 13:-1 14:-1 15:-1 17:1 18:-1 19:-1 20:-1 25:1 26:-1 27:-1 28:-1 
0 0 32 0 0 0 0 1:1 2:-1 3:-1 4:-1 5:-1 6:-1 7:-1 8:-1 9:1 10:-1 11:-1 12:-1 13:-1 14:-1 15:-1 17:1 18:-1 19:-1 20:-1 25:1 26:-1 27:-1 28:-1 
0 0 32 0 0 0 0 1:1 2:-1 3:-1 4:-1 5:-1 6:-1 7:-1 8:-1 9:1 10:-1 11:-1 12:-1 13:-1 14:-1 15:-1 17:1 18:-1 19:-1 20:-1 25:1 26:-1 27:-1 28:-1 
0 0 32 0 0 0 0 1:1 2:-1 3:-1 4:-1 5:-1 6:-1 7:-1 8:-1 9:1 10:-1 11:-1 12:-1 13:-1 14:-1 15:-1 17:1 18:-1 19:-1 20:-1 25:1 26:-1 27:-1 28:-1 
0 0 32 0 0 0 0 1:1 2:-1 3:-1 4:-1 5:-1 6:-1 7:-1 8:-1 9:1 10:-1 11:-1 12:-1 13:-1 14:-1 15:-1 17:1 18:-1 19:-1 20:-1 25:1 26:-1 27:-1 28:-1 
0 0 32 0 0 0 0 1:1 2:-1 3:-1 4:-1 5:-1 6:-1 7:-1 8:-1 9:1 10:-1 11:-1 12:-1 13:-1 14:-1 15:-1 17:1 18:-1 19:-1 20:-1 25:1 26:-1 27:-1 28:-1 
0 0 32 0 0 0 0 1:1 2:-1 3:-1 4:-1 5:-1 6:-1 7:-1 8:-1 9:1 10:-1 11:-1 12:-1 13:-1 14:-1 15:-1 17:1 18:-1 19:-1 20:-1 25:1 26:-1 27:-1 28:-1 
0 0 32 0 0 0 0 1:1 2:-1 3:-1 4:-1 5:-1 6:-1 7:-1 8:-1 9:1 10:-1 11:-1 12:-1 13:-1 14:-1 15:-1 17:1 18:-1 19:-1 20:-1 25:1 26:-1 27:-1 28:-1 
0 0 32 0 0 0 0 1:1 2:-1 3:-1 4:-1 5:-1 6:-1 7:-1 8:-1 9:1 10:-1 11:-1 12:-1 13:-1 14:-1 15:-1 17:1 18:-1 19:-1 20:-1 25:1 26:-1 27:-1 28:-1 
0 0 32 0 0 0 0 1:1 2:-1 3:-1 4:-1 5:-1 6:-1 7:-1 8:-1 9:1 10:-1 11:-1 12:-1 13:-1 14:-1 15:-1 17:1 18:-1 19:-1 20:-1 25:1 26:-1 27:-1 28:-1 
0 0 32 0 0 0 0 1:1 2:-1 3:-1 4:-1 5:-1 6:-1 7:-1 8:-1 9:1 10:-1 11:-1 12:-1 13:-1 14:-1 15:-1 17:1 18:-1 19:-1 20:-1 25:1 26:-1 27:-1 28:-1 
0 0 32 0 0 0 0 1:1 2:-1 3:-1 4:-1 5:-1 6:-1 7:-1 8:-1 9:1 10:-1 11:-1 12:-1 13:-1 14:-1 15:-1 17:1 18:-1 19:-1 20:-1 25:1 26:-1 27:-1 28:-1 
0 0 32 0 0 0 0 1:1 2:-1 3:-1 4:-1 5:-1 6:-1 7:-1 8:-1 9:1 10:-1 11:-1 12:-1 13:-1 14:-1 15:-1 17:1 18:-1 19:-1 20:-1 25:1 26:-1 27:-1 28:-1 
0 0 32 0 0 0 0 1:1 2:-1 3:-1 4:-1 5:-1 6:-1 7:-1 8:-1 9:1 10:-1 11:-1 12:-1 13:-1 14:-1 15:-1 17:1 18:-1 19:-1 20:-1 25:1 26:-1 27:-1 28:-1 
0 0 32 0 0 0 0 1:1 2:-1 3:-1 4:-1 5:-1 6:-1 7:-1 8:-1 9:1 10:-1 11:-1 12:-1 13:-1 14:-1 15:-1 17:1 18:-1 19:-1 20:-1 25:1 26:-1 27:-1 28:-1 
0 0 32 0 0 0 0 1:1 2:-1 3:-1 4:-1 5:-1 6:-1 7:-1 8:-1 9:1 10:-1 11:-1 12:-1 13:-1 14:-1 15:-1 17:1 18:-1 19:-1 20:-1 25:1 26:-1 27:-1 28:-1 
0 0 32 0 0 0 0 1:1 2:-1 3:-1 4:-1 5:-1 6:-1 7:-1 8:-1 9:1 10:-1 11:-1 12:-1 13:-1 14:-1 15:-1 17:1 18:-1 19:-1 20:-1 25:1 26:-1 27:-1 28:-1 
0 0 32 0 0 0 0 1:1 2:-1 3:-1 4:-1 5:-1 6:-1 7:-1 8:-1 9:1 10:-1 11:-1 12:-1 13:-1 14:-1 15:-1 17:1 18:-1 19:-1 20:-1 25:1 26:-1 27:-1 28:-1 
0 0 32 0 0 0 0 1:1 2:-1 3:-1 4:-1 5:-1 6:-1 7:-1 8:-1 9:1 10:-1 11:-1 12:-1 13:-1 14:-1 15:-1 17:1 18:-1 19:-1 20:-1 25:1 26:-1 27:-1 28:-1 
0 0 32 0 0 0 0 1:1 2:-1 3:-1 4:-1 5:-1 6:-1 7:-1 8:-1 9:1 10:-1 11:-1 12:-1 13:-1 14:-1 15:-1 17:1 18:-1 19:-1 20:-1 25:1 26:-1 27:-1 28:-1 
0 0 32 0 0 0 0 1:1 2:-1 3:-1 4:-1 5:-1 6:-1 7:-1 8:-1 9:1 10:-1 11:-1 12:-1 13:-1 14:-1 15:-1 17:1 18:-1 19:-1 20:-1 25:1 26:-1 27:-1 28:-1 
0 0 32 0 0 0 0 1:1 2:-1 3:-1 4:-1 5:-1 6:-1 7:-1 8:-1 9:1 10:-1 11:-1 12:-1 13:-1 14:-1 15:-1 17:1 18:-1 19:-1 20:-1 25:1 26:-1 27:-1 28:-1 
0 0 32 0 0 0 0 1:1 2:-1 3:-1 4:-1 5:-1 6:-1 7:-1 8:-1 9:1 10:-1 11:-1 12:-1 13:-1 14:-1 15:-1 17:1 18:-1 19:-1 20:-1 25:1 26:-1 27:-1 28:-1 
0 0 32 0 0 0 0 1:1 2:-1 3:-1 4:-1 5:-1 6:-1 7:-1 8:-1 9:1 10:-1 11:-1 12:-1 13:-1 14:-1 15:-1 17:1 18:-1 19:-1 20:-1 25:1 26:-1 27:-1 28:-1 
0 0 32 0 0 0 0 1:1 2:-1 3:-1 4:-1 5:-1 6:-1 7:-1 8:-1 9:1 10:-1 11:-1 12:-1 13:-1 14:-1 15:-1 17:1 18:-1 19:-1 20:-1 25:1 26:-1 27:-1 28:-1 
0 0 32 0 0 0 0 1:1 2:-1 3:-1 4:-1 5:-1 6:-1 7:-1 8:-1 9:1 10:-1 11:-1 12:-1 13:-1 14:-1 15:-1 17:1 18:-1 19:-1 20:-1 25:1 26:-1 27:-1 28:-1 
0 0 32 0 0 0 0 1:1 2:-1 3:-1 4:-1 5:-1 6:-1 7:-1 8:-1 9:1 10:-1 11:-1 12:-1 13:-1 14:-1 15:-1 17:1 18:-1 19:-1 20:-1 25:1 26:-1 27:-1 28:-1 
0 0 32 0 0 0 0 1:1 2:-1 3:-1 4:-1 5:-1 6:-1 7:-1 8:-1 9:1 10:-1 11:-1 12:-1 13:-1 14:-1 15:-1 17:1 18:-1 19:-1 20:-1 25:1 26:-1 27:-1 28:-1 
0 0 32 0 0 0 0 1:1 2:-1 3:-1 4:-1 5:-1 6:-1 7:-1 8:-1 9:1 10:-1 11:-1 12:-1 13:-1 14:-1 15:-1 17:1 18:-1 19:-1 20:-1 25:1 26:-1 27:-1 28:-1 
0 0 32 0 0 0 0 1:1 2:-1 3:-1 4:-1 5:-1 6:-1 7:-1 8:-1 9:1 10:-1 11:-1 12:-1 13:-1 14:-1 15:-1 17:1 18:-1 19:-1 20:-1 25:1 26:-1 27:-1 28:-1 
0 0 32 0 0 0 0 1:1 2:-1 3:-1 4:-1 5:-1 6:-1 7:-1 8:-1 9:1 10:-1 11:-1 12:-1 13:-1 14:-1 15:-1 17:1 18:-1 19:-1 20:-1 25:1 26:-1 27:-1 28:-1 
0 0 32 0 0 0 0 1:1 2:-1 3:-1 4:-1 5:-1 6:-1 7:-1 8:-1 9:1 10:-1 11:-1 12:-1 13:-1 14:-1 15:-1 17:1 18:-1 19:-1 20:-1 25:1 26:-1 27:-1 28:-1 
0 0 32 0 0 0 0 1:1 2:-1 3:-1 4:-1 5:-1 6:-1 7:-1 8:-1 9:1 10:-1 11:-1 12:-1 13:-1 14:-1 15:-1 17:1 18:-1 19:-1 20:-1 25:1 26:-1 27:-1 28:-1 
0 0 32 0 0 0 0 1:1 2:-1 3:-1 4:-1 5:-1 6:-1 7:-1 8:-1 9:1 10:-1 11:-1 12:-1 13:-1 14:-1 15:-1 17:1 18:-1 19:-1 20:-1 25:1 26:-1 27:-1 28:-1 
0 0 32 0 0 0 0 1:1 2:-1 3:-1 4:-1 5:-1 6:-1 7:-1 8:-1 9:1 10:-1 11:-1 12:-1 13:-1 14:-1 15:-1 17:1 18:-1 19:-1 20:-1 25:1 26:-1 27:-1 28:-1 
0 0 32 0 0 0 0 1:1 2:-1 3:-1 4:-1 5:-1 6:-1 7:-1 8:-1 9:1 10:-1 11:-1 12:-1 13:-1 14:-1 15:-1 17:1 18:-1 19:-1 20:-1 25:1 26:-1 27:-1 28:-1 
0 0 32 0 0 0 0 1:1 2:-1 3:-1 4:-1 5:-1 6:-1 7:-1 8:-1 9:1 10:-1 11:-1 12:-1 13:-1 14:-1 15:-1 17:1 18:-1 19:-1 20:-1 25:1 26:-1 27:-1 28:-1 
0 0 32 0 0 0 0 1:1 2:-1 3:-1 4:-1 5:-1 6:-1 7:-1 8:-1 9:1 10:-1 11:-1 12:-1 13:-1 14:-1 15:-1 17:1 18:-1 19:-1 20:-1 25:1 26:-1 27:-1 28:-1 
0 0 32 0 0 0 0 1:1 2:-1 3:-1 4:-1 5:-1 6:-1 7:-1 8:-1 9:1 10:-1 11:-1 12:-1 13:-1 14:-1 15:-1 17:1 18:-1 19:-1 20:-1 25:1 26:-1 27:-1 28:-1 
0 0 32 0 0 0 0 1:1 2:-1 3:-1 4:-1 5:-1 6:-1 7:-1 8:-1 9:1 10:-1 11:-1 12:-1 13:-1 14:-1 15:-1 17:1 18:-1 19:-1 20:-1 25:1 26:-1 27:-1 28:-1 
0 0 32 0 0 0 0 1:1 2:-1 3:-1 4:-1 5:-1 6:-1 7:-1 8:-1 9:1 10:-1 11:-1 12:-1 13:-1 14:-1 15:-1 17:1 18:-1 19:-1 20:-1 25:1 26:-1 27:-1 28:-1 
0 0 32 0 0 0 0 1:1 2:-1 3:-1 4:-1 5:-1 6:-1 7:-1 8:-1 9:1 10:-1 11:-1 12:-1 13:-1 14:-1 15:-1 17:1 18:-1 19:-1 20:-1 25:1 26:-1 27:-1 28:-1 
0 0 32 0 0 0 0 1:1 2:-1 3:-1 4:-1 5:-1 6:-1 7:-1 8:-1 9:1 10:-1 11:-1 12:-1 13:-1 14:-1 15:-1 17:1 18:-1 19:-1 20:-1 25:1 26:-1 27:-1 28:-1 
0 0 32 0 0 0 0 1:1 2:-1 3:-1 4:-1 5:-1 6:-1 7:-1 8:-1 9:1 10:-1 11:-1 12:-1 13:-1 14:-1 15:-1 17:1 18:-1 19:-1 20:-1 25:1 26:-1 27:-1 28:-1 
0 0 32 0 0 0 0 1:1 2:-1 3:-1 4:-1 5:-1 6:-1 7:-1 8:-1 9:1 10:-1 11:-1 12:-1 13:-1 14:-1 15:-1 17:1 18:-1 19:-1 20:-1 25:1 26:-1 27:-1 28:-1 
0 0 32 0 0 0 0 1:1 2:-1 3:-1 4:-1 5:-1 6:-1 7:-1 8:-1 9:1 10:-1 11:-1 12:-1 13:-1 14:-1 15:-1 17:1 18:-1 19:-1 20:-1 25:1 26:-1 27:-1 28:-1 
0 0 32 0 0 0 0 1:1 2:-1 3:-1 4:-1 5:-1 6:-1 7:-1 8:-1 9:1 10:-1 11:-1 12:-1 13:-1 14:-1 15:-1 17:1 18:-1 19:-1 20:-1 25:1 26:-1 27:-1 28:-1 
0 0 32 0 0 0 0 1:1 2:-1 3:-1 4:-1 5:-1 6:-1 7:-1 8:-1 9:1 10:-1 11:-1 12:-1 13:-1 14:-1 15:-1 17:1 18:-1 19:-1 20:-1 25:1 26:-1 27:-1 28:-1 
0 0 32 0 0 0 0 1:1 2:-1 3:-1 4:-1 5:-1 6:-1 7:-1 8:-1 9:1 10:-1 11:-1 12:-1 13:-1 14:-1 15:-1 17:1 18:-1 19:-1 20:-1 25:1 26:-1 27:-1 28:-1 
0 0 32 0 0 0 0 1:1 2:-1 3:-1 4:-1 5:-1 6:-1 7:-1 8:-1 9:1 10:-1 11:-1 12:-1 13:-1 14:-1 15:-1 17:1 18:-1 19:-1 20:-1 25:1 26:-1 27:-1 28:-1 
0 0 32 0 0 0 0 1:1 2:-1 3:-1 4:-1 5:-1 6:-1 7:-1 8:-1 9:1 10:-1 11:-1 12:-1 13:-1 14:-1 15:-1 17:1 18:-1 19:-1 20:-1 25:1 26:-1 27:-1 28:-1 
0 0 32 0 0 0 0 1:1 2:-1 3:-1 4:-1 5:-1 6:-1 7:-1 8:-1 9:1 10:-1 11:-1 12:-1 13:-1 14:-1 15:-1 17:1 18:-1 19:-1 20:-1 25:1 26:-1 27:-1 28:-1 
0 0 32 0 0 0 0 1:1 2:-1 3:-1 4:-1 5:-1 6:-1 7:-1 8:-1 9:1 10:-1 11:-1 12:-1 13:-1 14:-1 15:-1 17:1 18:-1 19:-1 20:-1 25:1 26:-1 27:-1 28:-1 
0 0 32 0 0 0 0 1:1 2:-1 3:-1 4:-1 5:-1 6:-1 7:-1 8:-1 9:1 10:-1 11:-1 12:-1 13:-1 14:-1 15:-1 17:1 18:-1 19:-1 20:-1 25:1 26:-1 27:-1 28:-1 
0 0 32 0 0 0 0 1:1 2:-1 3:-1 4:-1 5:-1 6:-1 7:-1 8:-1 9:1 10:-1 11:-1 12:-1 13:-1 14:-1 15:-1 17:1 18:-1 19:-1 20:-1 25:1 26:-1 27:-1 28:-1 
0 0 32 0 0 0 0 1:1 2:-1 3:-1 4:-1 5:-1 6:-1 7:-1 8:-1 9:1 10:-1 11:-1 12:-1 13:-1 14:-1 15:-1 17:1 18:-1 19:-1 20:-1 25:1 26:-1 27:-1 28:-1 
0 0 32 0 0 0 0 1:1 2:-1 3:-1 4:-1 5:-1 6:-1 7:-1 8:-1 9:1 10:-1 11:-1 12:-1 13:-1 14:-1 15:-1 17:1 18:-1 19:-1 20:-1 25:1 26:-1 27:-1 28:-1 
0 0 32 0 0 0 0 1:1 2:-1 3:-1 4:-1 5:-1 6:-1 7:-1 8:-1 9:1 10:-1 11:-1 12:-1 13:-1 14:-1 15:-1 17:1 18:-1 19:-1 20:-1 25:1 26:-1 27:-1 28:-1 
0 0 32 0 0 0 0 1:1 2:-1 3:-1 4:-1 5:-1 6:-1 7:-1 8:-1 9:1 10:-1 11:-1 12:-1 13:-1 14:-1 15:-1 17:1 18:-1 19:-1 20:-1 25:1 26:-1 27:-1 28:-1 
0 0 32 0 0 0 0 1:1 2:-1 3:-1 4:-1 5:-1 6:-1 7:-1 8:-1 9:1 10:-1 11:-1 12:-1 13:-1 14:-1 15:-1 17:1 18:-1 19:-1 20:-1 25:1 26:-1 27:-1 28:-1 
0 0 32 0 0 0 0 1:1 2:-1 3:-1 4:-1 5:-1 6:-1 7:-1 8:-1 9:1 10:-1 11:-1 12:-1 13:-1 14:-1 15:-1 17:1 18:-1 19:-1 20:-1 25:1 26:-1 27:-1 28:-1 
0 0 32 0 0 0 0 1:1 2:-1 3:-1 4:-1 5:-1 6:-1 7:-1 8:-1 9:1 10:-1 11:-1 12:-1 13:-1 14:-1 15:-1 17:1 18:-1 19:-1 20:-1 25:1 26:-1 27:-1 28:-1 
0 0 32 0 0 0 0 1:1 2:-1 3:-1 4:-1 5:-1 6:-1 7:-1 8:-1 9:1 10:-1 11:-1 12:-1 13:-1 14:-1 15:-1 17:1 18:-1 19:-1 20:-1 25:1 26:-1 27:-1 28:-1 
0 0 32 0 0 0 0 1:1 2:-1 3:-1 4:-1 5:-1 6:-1 7:-1 8:-1 9:1 10:-1 11:-1 12:-1 13:-1 14:-1 15:-1 17:1 18:-1 19:-1 20:-1 25:1 26:-1 27:-1 28:-1 
0 0 32 0 0 0 0 1:1 2:-1 3:-1 4:-1 5:-1 6:-1 7:-1 8:-1 9:1 10:-1 11:-1 12:-1 13:-1 14:-1 15:-1 17:1 18:-1 19:-1 20:-1 25:1 26:-1 27:-1 28:-1 
0 0 32 0 0 0 0 1:1 2:-1 3:-1 4:-1 5:-1 6:-1 7:-1 8:-1 9:1 10:-1 11:-1 12:-1 13:-1 14:-1 15:-1 17:1 18:-1 19:-1 20:-1 25:1 26:-1 27:-1 28:-1 
0 0 32 0 0 0 0 1:1 2:-1 3:-1 4:-1 5:-1 6:-1 7:-1 8:-1 9:1 10:-1 11:-1 12:-1 13:-1 14:-1 15:-1 17:1 18:-1 19:-1 20:-1 25:1 26:-1 27:-1 28:-1 
0 0 32 0 0 0 0 1:1 2:-1 3:-1 4:-1 5:-1 6:-1 7:-1 8:-1 9:1 10:-1 11:-1 12:-1 13:-1 14:-1 15:-1 17:1 18:-1 19:-1 20:-1 25:1 26:-1 27:-1 28:-1 
0 0 32 0 0 0 0 1:1 2:-1 3:-1 4:-1 5:-1 6:-1 7:-1 8:-1 9:1 10:-1 11:-1 12:-1 13:-1 14:-1 15:-1 17:1 18:-1 19:-1 20:-1 25:1 26:-1 27:-1 28:-1 
0 0 32 0 0 0 0 1:1 2:-1 3:-1 4:-1 5:-1 6:-1 7:-1 8:-1 9:1 10:-1 11:-1 12:-1 13:-1 14:-1 15:-1 17:1 18:-1 19:-1 20:-1 25:1 26:-1 27:-1 28:-1 
0 0 32 0 0 0 0 1:1 2:-1 3:-1 4:-1 5:-1 6:-1 7:-1 8:-1 9:1 10:-1 11:-1 12:-1 13:-1 14:-1 15:-1 17:1 18:-1 19:-1 20:-1 25:1 26:-1 27:-1 28:-1 
0 0 32 0 0 0 0 1:1 2:-1 3:-1 4:-1 5:-1 6:-1 7:-1 8:-1 9:1 10:-1 11:-1 12:-1 13:-1 14:-1 15:-1 17:1 18:-1 19:-1 20:-1 25:1 26:-1 27:-1 28:-1 
0 0 32 0 0 0 0 1:1 2:-1 3:-1 4:-1 5:-1 6:-1 7:-1 8:-1 9:1 10:-1 11:-1 12:-1 13:-1 14:-1 15:-1 17:1 18:-1 19:-1 20:-1 25:1 26:-1 27:-1 28:-1 
0 0 32 0 0 0 0 1:1 2:-1 3:-1 4:-1 5:-1 6:-1 7:-1 8:-1 9:1 10:-1 11:-1 12:-1 13:-1 14:-1 15:-1 17:1 18:-1 19:-1 20:-1 25:1 26:-1 27:-1 28:-1 
0 0 32 0 0 0 0 1:1 2:-1 3:-1 4:-1 5:-1 6:-1 7:-1 8:-1 9:1 10:-1 11:-1 12:-1 13:-1 14:-1 15:-1 17:1 18:-1 19:-1 20:-1 25:1 26:-1 27:-1 28:-1 
0 0 32 0 0 0 0 1:1 2:-1 3:-1 4:-1 5:-1 6:-1 7:-1 8:-1 9:1 10:-1 11:-1 12:-1 13:-1 14:-1 15:-1 17:1 18:-1 19:-1 20:-1 25:1 26:-1 27:-1 28:-1 
0 0 32 0 0 0 0 1:1 2:-1 3:-1 4:-1 5:-1 6:-1 7:-1 8:-1 9:1 10:-1 11:-1 12:-1 13:-1 14:-1 15:-1 17:1 18:-1 19:-1 20:-1 25:1 26:-1 27:-1 28:-1 
0 0 32 0 0 0 0 1:1 2:-1 3:-1 4:-1 5:-1 6:-1 7:-1 8:-1 9:1 10:-1 11:-1 12:-1 13:-1 14:-1 15:-1 17:1 18:-1 19:-1 20:-1 25:1 26:-1 27:-1 28:-1 
0 0 32 0 0 0 0 1:1 2:-1 3:-1 4:-1 5:-1 6:-1 7:-1 8:-1 9:1 10:-1 11:-1 12:-1 13:-1 14:-1 15:-1 17:1 18:-1 19:-1 20:-1 25:1 26:-1 27:-1 28:-1 
0 0 32 0 0 0 0 1:1 2:-1 3:-1 4:-1 5:-1 6:-1 7:-1 8:-1 9:1 10:-1 11:-1 12:-1 13:-1 14:-1 15:-1 17:1 18:-1 19:-1 20:-1 25:1 26:-1 27:-1 28:-1 
0 0 32 0 0 0 0 1:1 2:-1 3:-1 4:-1 5:-1 6:-1 7:-1 8:-1 9:1 10:-1 11:-1 12:-1 13:-1 14:-1 15:-1 17:1 18:-1 19:-1 20:-1 25:1 26:-1 27:-1 28:-1 
0 0 32 0 0 0 0 1:1 2:-1 3:-1 4:-1 5:-1 6:-1 7:-1 8:-1 9:1 10:-1 11:-1 12:-1 13:-1 14:-1 15:-1 17:1 18:-1 19:-1 20:-1 25:1 26:-1 27:-1 28:-1 
0 0 32 0 0 0 0 1:1 2:-1 3:-1 4:-1 5:-1 6:-1 7:-1 8:-1 9:1 10:-1 11:-1 12:-1 13:-1 14:-1 15:-1 17:1 18:-1 19:-1 20:-1 25:1 26:-1 27:-1 28:-1 
0 0 32 0 0 0 0 1:1 2:-1 3:-1 4:-1 5:-1 6:-1 7:-1 8:-1 9:1 10:-1 11:-1 12:-1 13:-1 14:-1 15:-1 17:1 18:-1 19:-1 20:-1 25:1 26:-1 27:-1 28:-1 
0 0 32 0 0 0 0 1:1 2:-1 3:-1 4:-1 5:-1 6:-1 7:-1 8:-1 9:1 10:-1 11:-1 12:-1 13:-1 14:-1 15:-1 17:1 18:-1 19:-1 20:-1 25:1 26:-1 27:-1 28:-1 
0 0 32 0 0 0 0 1:1 2:-1 3:-1 4:-1 5:-1 6:-1 7:-1 8:-1 9:1 10:-1 11:-1 12:-1 13:-1 14:-1 15:-1 17:1 18:-1 19:-1 20:-1 25:1 26:-1 27:-1 28:-1 
0 0 32 0 0 0 0 1:1 2:-1 3:-1 4:-1 5:-1 6:-1 7:-1 8:-1 9:1 10:-1 11:-1 12:-1 13:-1 14:-1 15:-1 17:1 18:-1 19:-1 20:-1 25:1 26:-1 27:-1 28:-1 
0 0 32 0 0 0 0 1:1 2:-1 3:-1 4:-1 5:-1 6:-1 7:-1 8:-1 9:1 10:-1 11:-1 12:-1 13:-1 14:-1 15:-1 17:1 18:-1 19:-1 20:-1 25:1 26:-1 27:-1 28:-1 
0 0 32 0 0 0 0 1:1 2:-1 3:-1 4:-1 5:-1 6:-1 7:-1 8:-1 9:1 10:-1 11:-1 12:-1 13:-1 14:-1 15:-1 17:1 18:-1 19:-1 20:-1 25:1 26:-1 27:-1 28:-1 
0 0 32 0 0 0 0 1:1 2:-1 3:-1 4:-1 5:-1 6:-1 7:-1 8:-1 9:1 10:-1 11:-1 12:-1 13:-1 14:-1 15:-1 17:1 18:-1 19:-1 20:-1 25:1 26:-1 27:-1 28:-1 
0 0 32 0 0 0 0 1:1 2:-1 3:-1 4:-1 5:-1 6:-1 7:-1 8:-1 9:1 10:-1 11:-1 12:-1 13:-1 14:-1 15:-1 17:1 18:-1 19:-1 20:-1 25:1 26:-1 27:-1 28:-1 
0 0 32 0 0 0 0 1:1 2:-1 3:-1 4:-1 5:-1 6:-1 7:-1 8:-1 9:1 10:-1 11:-1 12:-1 13:-1 14:-1 15:-1 17:1 18:-1 19:-1 20:-1 25:1 26:-1 27:-1 28:-1 
0 0 32 0 0 0 0 1:1 2:-1 3:-1 4:-1 5:-1 6:-1 7:-1 8:-1 9:1 10:-1 11:-1 12:-1 13:-1 14:-1 15:-1 17:1 18:-1 19:-1 20:-1 25:1 26:-1 27:-1 28:-1 
0 0 32 0 0 0 0 1:1 2:-1 3:-1 4:-1 5:-1 6:-1 7:-1 8:-1 9:1 10:-1 11:-1 12:-1 13:-1 14:-1 15:-1 17:1 18:-1 19:-1 20:-1 25:1 26:-1 27:-1 28:-1 
0 0 32 0 0 0 0 1:1 2:-1 3:-1 4:-1 5:-1 6:-1 7:-1 8:-1 9:1 10:-1 11:-1 12:-1 13:-1 14:-1 15:-1 17:1 18:-1 19:-1 20:-1 25:1 26:-1 27:-1 28:-1 
0 0 32 0 0 0 0 1:1 2:-1 3:-1 4:-1 5:-1 6:-1 7:-1 8:-1 9:1 10:-1 11:-1 12:-1 13:-1 14:-1 15:-1 17:1 18:-1 19:-1 20:-1 25:1 26:-1 27:-1 28:-1 
0 0 32 0 0 0 0 1:1 2:-1 3:-1 4:-1 5:-1 6:-1 7:-1 8:-1 9:1 10:-1 11:-1 12:-1 13:-1 14:-1 15:-1 17:1 18:-1 19:-1 20:-1 25:1 26:-1 27:-1 28:-1 
0 0 32 0 0 0 0 1:1 2:-1 3:-1 4:-1 5:-1 6:-1 7:-1 8:-1 9:1 10:-1 11:-1 12:-1 13:-1 14:-1 15:-1 17:1 18:-1 19:-1 20:-1 25:1 26:-1 27:-1 28:-1 
0 0 32 0 0 0 0 1:1 2:-1 3:-1 4:-1 5:-1 6:-1 7:-1 8:-1 9:1 10:-1 11:-1 12:-1 13:-1 14:-1 15:-1 17:1 18:-1 19:-1 20:-1 25:1 26:-1 27:-1 28:-1 
0 0 32 0 0 0 0 1:1 2:-1 3:-1 4:-1 5:-1 6:-1 7:-1 8:-1 9:1 10:-1 11:-1 12:-1 13:-1 14:-1 15:-1 17:1 18:-1 19:-1 20:-1 25:1 26:-1 27:-1 28:-1 
0 0 32 0 0 0 0 1:1 2:-1 3:-1 4:-1 5:-1 6:-1 7:-1 8:-1 9:1 10:-1 11:-1 12:-1 13:-1 14:-1 15:-1 17:1 18:-1 19:-1 20:-1 25:1 26:-1 27:-1 28:-1 
0 0 32 0 0 0 0 1:1 2:-1 3:-1 4:-1 5:-1 6:-1 7:-1 8:-1 9:1 10:-1 11:-1 12:-1 13:-1 14:-1 15:-1 17:1 18:-1 19:-1 20:-1 25:1 26:-1 27:-1 28:-1 
0 0 32 0 0 0 0 1:1 2:-1 3:-1 4:-1 5:-1 6:-1 7:-1 8:-1 9:1 10:-1 11:-1 12:-1 13:-1 14:-1 15:-1 17:1 18:-1 19:-1 20:-1 25:1 26:-1 27:-1 28:-1 
0 0 32 0 0 0 0 1:1 2:-1 3:-1 4:-1 5:-1 6:-1 7:-1 8:-1 9:1 10:-1 11:-1 12:-1 13:-1 14:-1 15:-1 17:1 18:-1 19:-1 20:-1 25:1 26:-1 27:-1 28:-1 
0 0 32 0 0 0 0 1:1 2:-1 3:-1 4:-1 5:-1 6:-1 7:-1 8:-1 9:1 10:-1 11:-1 12:-1 13:-1 14:-1 15:-1 17:1 18:-1 19:-1 20:-1 25:1 26:-1 27:-1 28:-1 
0 0 32 0 0 0 0 1:1 2:-1 3:-1 4:-1 5:-1 6:-1 7:-1 8:-1 9:1 10:-1 11:-1 12:-1 13:-1 14:-1 15:-1 17:1 18:-1 19:-1 20:-1 25:1 26:-1 27:-1 28:-1 
0 0 32 0 0 0 0 1:1 2:-1 3:-1 4:-1 5:-1 6:-1 7:-1 8:-1 9:1 10:-1 11:-1 12:-1 13:-1 14:-1 15:-1 17:1 18:-1 19:-1 20:-1 25:1 26:-1 27:-1 28:-1 
0 0 32 0 0 0 0 1:1 2:-1 3:-1 4:-1 5:-1 6:-1 7:-1 8:-1 9:1 10:-1 11:-1 12:-1 13:-1 14:-1 15:-1 17:1 18:-1 19:-1 20:-1 25:1 26:-1 27:-1 28:-1 
0 0 32 0 0 0 0 1:1 2:-1 3:-1 4:-1 5:-1 6:-1 7:-1 8:-1 9:1 10:-1 11:-1 12:-1 13:-1 14:-1 15:-1 17:1 18:-1 19:-1 20:-1 25:1 26:-1 27:-1 28:-1 
0 0 32 0 0 0 0 1:1 2:-1 3:-1 4:-1 5:-1 6:-1 7:-1 8:-1 9:1 10:-1 11:-1 12:-1 13:-1 14:-1 15:-1 17:1 18:-1 19:-1 20:-1 25:1 26:-1 27:-1 28:-1 
0 0 32 0 0 0 0 1:1 2:-1 3:-1 4:-1 5:-1 6:-1 7:-1 8:-1 9:1 10:-1 11:-1 12:-1 13:-1 14:-1 15:-1 17:1 18:-1 19:-1 20:-1 25:1 26:-1 27:-1 28:-1 
0 0 32 0 0 0 0 1:1 2:-1 3:-1 4:-1 5:-1 6:-1 7:-1 8:-1 9:1 10:-1 11:-1 12:-1 13:-1 14:-1 15:-1 17:1 18:-1 19:-1 20:-1 25:1 26:-1 27:-1 28:-1 
0 0 32 0 0 0 0 1:1 2:-1 3:-1 4:-1 5:-1 6:-1 7:-1 8:-1 9:1 10:-1 11:-1 12:-1 13:-1 14:-1 15:-1 17:1 18:-1 19:-1 20:-1 25:1 26:-1 27:-1 28:-1 
0 0 32 0 0 0 0 1:1 2:-1 3:-1 4:-1 5:-1 6:-1 7:-1 8:-1 9:1 10:-1 11:-1 12:-1 13:-1 14:-1 15:-1 17:1 18:-1 19:-1 20:-1 25:1 26:-1 27:-1 28:-1 
0 0 32 0 0 0 0 1:1 2:-1 3:-1 4:-1 5:-1 6:-1 7:-1 8:-1 9:1 10:-1 11:-1 12:-1 13:-1 14:-1 15:-1 17:1 18:-1 19:-1 20:-1 25:1 26:-1 27:-1 28:-1 
0 0 32 0 0 0 0 1:1 2:-1 3:-1 4:-1 5:-1 6:-1 7:-1 8:-1 9:1 10:-1 11:-1 12:-1 13:-1 14:-1 15:-1 17:1 18:-1 19:-1 20:-1 25:1 26:-1 27:-1 28:-1 
0 0 32 0 0 0 0 1:1 2:-1 3:-1 4:-1 5:-1 6:-1 7:-1 8:-1 9:1 10:-1 11:-1 12:-1 13:-1 14:-1 15:-1 17:1 18:-1 19:-1 20:-1 25:1 26:-1 27:-1 28:-1 
0 0 32 0 0 0 0 1:1 2:-1 3:-1 4:-1 5:-1 6:-1 7:-1 8:-1 9:1 10:-1 11:-1 12:-1 13:-1 14:-1 15:-1 17:1 18:-1 19:-1 20:-1 25:1 26:-1 27:-1 28:-1 
0 0 32 0 0 0 0 1:1 2:-1 3:-1 4:-1 5:-1 6:-1 7:-1 8:-1 9:1 10:-1 11:-1 12:-1 13:-1 14:-1 15:-1 17:1 18:-1 19:-1 20:-1 25:1 26:-1 27:-1 28:-1 
0 0 32 0 0 0 0 1:1 2:-1 3:-1 4:-1 5:-1 6:-1 7:-1 8:-1 9:1 10:-1 11:-1 12:-1 13:-1 14:-1 15:-1 17:1 18:-1 19:-1 20:-1 25:1 26:-1 27:-1 28:-1 
0 0 32 0 0 0 0 1:1 2:-1 3:-1 4:-1 5:-1 6:-1 7:-1 8:-1 9:1 10:-1 11:-1 12:-1 13:-1 14:-1 15:-1 17:1 18:-1 19:-1 20:-1 25:1 26:-1 27:-1 28:-1 
0 0 32 0 0 0 0 1:1 2:-1 3:-1 4:-1 5:-1 6:-1 7:-1 8:-1 9:1 10:-1 11:-1 12:-1 13:-1 14:-1 15:-1 17:1 18:-1 19:-1 20:-1 25:1 26:-1 27:-1 28:-1 
0 0 32 0 0 0 0 1:1 2:-1 3:-1 4:-1 5:-1 6:-1 7:-1 8:-1 9:1 10:-1 11:-1 12:-1 13:-1 14:-1 15:-1 17:1 18:-1 19:-1 20:-1 25:1 26:-1 27:-1 28:-1 
0 0 32 0 0 0 0 1:1 2:-1 3:-1 4:-1 5:-1 6:-1 7:-1 8:-1 9:1 10:-1 11:-1 12:-1 13:-1 14:-1 15:-1 17:1 18:-1 19:-1 20:-1 25:1 26:-1 27:-1 28:-1 
0 0 32 0 0 0 0 1:1 2:-1 3:-1 4:-1 5:-1 6:-1 7:-1 8:-1 9:1 10:-1 11:-1 12:-1 13:-1 14:-1 15:-1 17:1 18:-1 19:-1 20:-1 25:1 26:-1 27:-1 28:-1 
0 0 32 0 0 0 0 1:1 2:-1 3:-1 4:-1 5:-1 6:-1 7:-1 8:-1 9:1 10:-1 11:-1 12:-1 13:-1 14:-1 15:-1 17:1 18:-1 19:-1 20:-1 25:1 26:-1 27:-1 28:-1 
0 0 32 0 0 0 0 1:1 2:-1 3:-1 4:-1 5:-1 6:-1 7:-1 8:-1 9:1 10:-1 11:-1 12:-1 13:-1 14:-1 15:-1 17:1 18:-1 19:-1 20:-1 25:1 26:-1 27:-1 28:-1 
0 0 32 0 0 0 0 1:1 2:-1 3:-1 4:-1 5:-1 6:-1 7:-1 8:-1 9:1 10:-1 11:-1 12:-1 13:-1 14:-1 15:-1 17:1 18:-1 19:-1 20:-1 25:1 26:-1 27:-1 28:-1 
0 0 32 0 0 0 0 1:1 2:-1 3:-1 4:-1 5:-1 6:-1 7:-1 8:-1 9:1 10:-1 11:-1 12:-1 13:-1 14:-1 15:-1 17:1 18:-1 19:-1 20:-1 25:1 26:-1 27:-1 28:-1 
0 0 32 0 0 0 0 1:1 2:-1 3:-1 4:-1 5:-1 6:-1 7:-1 8:-1 9:1 10:-1 11:-1 12:-1 13:-1 14:-1 15:-1 17:1 18:-1 19:-1 20:-1 25:1 26:-1 27:-1 28:-1 
0 0 32 0 0 0 0 1:1 2:-1 3:-1 4:-1 5:-1 6:-1 7:-1 8:-1 9:1 10:-1 11:-1 12:-1 13:-1 14:-1 15:-1 17:1 18:-1 19:-1 20:-1 25:1 26:-1 27:-1 28:-1 
0 0 32 0 0 0 0 1:1 2:-1 3:-1 4:-1 5:-1 6:-1 7:-1 8:-1 9:1 10:-1 11:-1 12:-1 13:-1 14:-1 15:-1 17:1 18:-1 19:-1 20:-1 25:1 26:-1 27:-1 28:-1 
0 0 32 0 0 0 0 1:1 2:-1 3:-1 4:-1 5:-1 6:-1 7:-1 8:-1 9:1 10:-1 11:-1 12:-1 13:-1 14:-1 15:-1 17:1 18:-1 19:-1 20:-1 25:1 26:-1 27:-1 28:-1 
0 0 32 0 0 0 0 1:1 2:-1 3:-1 4:-1 5:-1 6:-1 7:-1 8:-1 9:1 10:-1 11:-1 12:-1 13:-1 14:-1 15:-1 17:1 18:-1 19:-1 20:-1 25:1 26:-1 27:-1 28:-1 
0 0 32 0 0 0 0 1:1 2:-1 3:-1 4:-1 5:-1 6:-1 7:-1 8:-1 9:1 10:-1 11:-1 12:-1 13:-1 14:-1 15:-1 17:1 18:-1 19:-1 20:-1 25:1 26:-1 27:-1 28:-1 
0 0 32 0 0 0 0 1:1 2:-1 3:-1 4:-1 5:-1 6:-1 7:-1 8:-1 9:1 10:-1 11:-1 12:-1 13:-1 14:-1 15:-1 17:1 18:-1 19:-1 20:-1 25:1 26:-1 27:-1 28:-1 
0 0 32 0 0 0 0 1:1 2:-1 3:-1 4:-1 5:-1 6:-1 7:-1 8:-1 9:1 10:-1 11:-1 12:-1 13:-1 14:-1 15:-1 17:1 18:-1 19:-1 20:-1 25:1 26:-1 27:-1 28:-1 
0 0 32 0 0 0 0 1:1 2:-1 3:-1 4:-1 5:-1 6:-1 7:-1 8:-1 9:1 10:-1 11:-1 12:-1 13:-1 14:-1 15:-1 17:1 18:-1 19:-1 20:-1 25:1 26:-1 27:-1 28:-1 
0 0 32 0 0 0 0 1:1 2:-1 3:-1 4:-1 5:-1 6:-1 7:-1 8:-1 9:1 10:-1 11:-1 12:-1 13:-1 14:-1 15:-1 17:1 18:-1 19:-1 20:-1 25:1 26:-1 27:-1 28:-1 
0 0 32 0 0 0 0 1:1 2:-1 3:-1 4:-1 5:-1 6:-1 7:-1 8:-1 9:1 10:-1 11:-1 12:-1 13:-1 14:-1 15:-1 17:1 18:-1 19:-1 20:-1 25:1 26:-1 27:-1 28:-1 
0 0 32 0 0 0 0 1:1 2:-1 3:-1 4:-1 5:-1 6:-1 7:-1 8:-1 9:1 10:-1 11:-1 12:-1 13:-1 14:-1 15:-1 17:1 18:-1 19:-1 20:-1 25:1 26:-1 27:-1 28:-1 
0 0 32 0 0 0 0 1:1 2:-1 3:-1 4:-1 5:-1 6:-1 7:-1 8:-1 9:1 10:-1 11:-1 12:-1 13:-1 14:-1 15:-1 17:1 18:-1 19:-1 20:-1 25:1 26:-1 27:-1 28:-1 
0 0 32 0 0 0 0 1:1 2:-1 3:-1 4:-1 5:-1 6:-1 7:-1 8:-1 9:1 10:-1 11:-1 12:-1 13:-1 14:-1 15:-1 17:1 18:-1 19:-1 20:-1 25:1 26:-1 27:-1 28:-1 
0 0 32 0 0 0 0 1:1 2:-1 3:-1 4:-1 5:-1 6:-1 7:-1 8:-1 9:1 10:-1 11:-1 12:-1 13:-1 14:-1 15:-1 17:1 18:-1 19:-1 20:-1 25:1 26:-1 27:-1 28:-1 
0 0 32 0 0 0 0 1:1 2:-1 3:-1 4:-1 5:-1 6:-1 7:-1 8:-1 9:1 10:-1 11:-1 12:-1 13:-1 14:-1 15:-1 17:1 18:-1 19:-1 20:-1 25:1 26:-1 27:-1 28:-1 
0 0 32 0 0 0 0 1:1 2:-1 3:-1 4:-1 5:-1 6:-1 7:-1 8:-1 9:1 10:-1 11:-1 12:-1 13:-1 14:-1 15:-1 17:1 18:-1 19:-1 20:-1 25:1 26:-1 27:-1 28:-1 
0 0 32 0 0 0 0 1:1 2:-1 3:-1 4:-1 5:-1 6:-1 7:-1 8:-1 9:1 10:-1 11:-1 12:-1 13:-1 14:-1 15:-1 17:1 18:-1 19:-1 20:-1 25:1 26:-1 27:-1 28:-1 
0 0 32 0 0 0 0 1:1 2:-1 3:-1 4:-1 5:-1 6:-1 7:-1 8:-1 9:1 10:-1 11:-1 12:-1 13:-1 14:-1 15:-1 17:1 18:-1 19:-1 20:-1 25:1 26:-1 27:-1 28:-1 
0 0 32 0 0 0 0 1:1 2:-1 3:-1 4:-1 5:-1 6:-1 7:-1 8:-1 9:1 10:-1 11:-1 12:-1 13:-1 14:-1 15:-1 17:1 18:-1 19:-1 20:-1 25:1 26:-1 27:-1 28:-1 
0 0 32 0 0 0 0 1:1 2:-1 3:-1 4:-1 5:-1 6:-1 7:-1 8:-1 9:1 10:-1 11:-1 12:-1 13:-1 14:-1 15:-1 17:1 18:-1 19:-1 20:-1 25:1 26:-1 27:-1 28:-1 
0 0 32 0 0 0 0 1:1 2:-1 3:-1 4:-1 5:-1 6:-1 7:-1 8:-1 9:1 10:-1 11:-1 12:-1 13:-1 14:-1 15:-1 17:1 18:-1 19:-1 20:-1 25:1 26:-1 27:-1 28:-1 
0 0 32 0 0 0 0 1:1 2:-1 3:-1 4:-1 5:-1 6:-1 7:-1 8:-1 9:1 10:-1 11:-1 12:-1 13:-1 14:-1 15:-1 17:1 18:-1 19:-1 20:-1 25:1 26:-1 27:-1 28:-1 
0 0 32 0 0 0 0 1:1 2:-1 3:-1 4:-1 5:-1 6:-1 7:-1 8:-1 9:1 10:-1 11:-1 12:-1 13:-1 14:-1 15:-1 17:1 18:-1 19:-1 20:-1 25:1 26:-1 27:-1 28:-1 
0 0 32 0 0 0 0 1:1 2:-1 3:-1 4:-1 5:-1 6:-1 7:-1 8:-1 9:1 10:-1 11:-1 12:-1 13:-1 14:-1 15:-1 17:1 18:-1 19:-1 20:-1 25:1 26:-1 27:-1 28:-1 
0 0 32 0 0 0 0 1:1 2:-1 3:-1 4:-1 5:-1 6:-1 7:-1 8:-1 9:1 10:-1 11:-1 12:-1 13:-1 14:-1 15:-1 17:1 18:-1 19:-1 20:-1 25:1 26:-1 27:-1 28:-1 
0 0 32 0 0 0 0 1:1 2:-1 3:-1 4:-1 5:-1 6:-1 7:-1 8:-1 9:1 10:-1 11:-1 12:-1 13:-1 14:-1 15:-1 17:1 18:-1 19:-1 20:-1 25:1 26:-1 27:-1 28:-1 
0 0 32 0 0 30.93429440404775 0 1:1 2:-1 3:-1 4:-1 5:-1 6:-1 7:-1 8:-1 9:1 10:-1 11:-1 12:-1 13:-1 14:-1 15:-1 17:1 18:-1 19:-1 20:-1 25:1 26:-1 27:-1 28:-1 
0 0 32 0 0 32 0 1:1 2:-1 3:-1 4:-1 5:-1 6:-1 7:-1 8:-1 9:1 10:-1 11:-1 12:-1 13:-1 14:-1 15:-1 17:1 18:-1 19:-1 20:-1 25:1 26:-1 27:-1 28:-1 
0 0 32 0 0 32 0 1:1 2:-1 3:-1 4:-1 5:-1 6:-1 7:-1 8:-1 9:1 10:-1 11:-1 12:-1 13:-1 14:-1 15:-1 17:1 18:-1 19:-1 20:-1 25:1 26:-1 27:-1 28:-1 
0 0 32 0 0 32 0 1:1 2:-1 3:-1 4:-1 5:-1 6:-1 7:-1 8:-1 9:1 10:-1 11:-1 12:-1 13:-1 14:-1 15:-1 17:1 18:-1 19:-1 20:-1 25:1 26:-1 27:-1 28:-1 
0 0 32 0 0 32 0 1:1 2:-1 3:-1 4:-1 5:-1 6:-1 7:-1 8:-1 9:1 10:-1 11:-1 12:-1 13:-1 14:-1 15:-1 17:1 18:-1 19:-1 20:-1 25:1 26:-1 27:-1 28:-1 
0 0 32 0 0 32 0 1:1 2:-1 3:-1 4:-1 5:-1 6:-1 7:-1 8:-1 9:1 10:-1 11:-1 12:-1 13:-1 14:-1 15:-1 17:1 18:-1 19:-1 20:-1 25:1 26:-1 27:-1 28:-1 
0 0 32 0 0 32 0 1:1 2:-1 3:-1 4:-1 5:-1 6:-1 7:-1 8:-1 9:1 10:-1 11:-1 12:-1 13:-1 14:-1 15:-1 17:1 18:-1 19:-1 20:-1 25:1 26:-1 27:-1 28:-1 
0 0 32 0 0 32 0 1:1 2:-1 3:-1 4:-1 5:-1 6:-1 7:-1 8:-1 9:1 10:-1 11:-1 12:-1 13:-1 14:-1 15:-1 17:1 18:-1 19:-1 20:-1 25:1 26:-1 27:-1 28:-1 
0 0 32 0 0 32 0 1:1 2:-1 3:-1 4:-1 5:-1 6:-1 7:-1 8:-1 9:1 10:-1 11:-1 12:-1 13:-1 14:-1 15:-1 17:1 18:-1 19:-1 20:-1 25:1 26:-1 27:-1 28:-1 
0 0 32 0 0 32 0 1:1 2:-1 3:-1 4:-1 5:-1 6:-1 7:-1 8:-1 9:1 10:-1 11:-1 12:-1 13:-1 14:-1 15:-1 17:1 18:-1 19:-1 20:-1 25:1 26:-1 27:-1 28:-1 
0 0 32 0 0 32 0 1:1 2:-1 3:-1 4:-1 5:-1 6:-1 7:-1 8:-1 9:1 10:-1 11:-1 12:-1 13:-1 14:-1 15:-1 17:1 18:-1 19:-1 20:-1 25:1 26:-1 27:-1 28:-1 
0 0 32 0 0 32 0 1:1 2:-1 3:-1 4:-1 5:-1 6:-1 7:-1 8:-1 9:1 10:-1 11:-1 12:-1 13:-1 14:-1 15:-1 17:1 18:-1 19:-1 20:-1 25:1 26:-1 27:-1 28:-1 
0 0 32 0 0 32 0 1:1 2:-1 3:-1 4:-1 5:-1 6:-1 7:-1 8:-1 9:1 10:-1 11:-1 12:-1 13:-1 14:-1 15:-1 17:1 18:-1 19:-1 20:-1 25:1 26:-1 27:-1 28:-1 
0 0 32 0 0 32 0 1:1 2:-1 3:-1 4:-1 5:-1 6:-1 7:-1 8:-1 9:1 10:-1 11:-1 12:-1 13:-1 14:-1 15:-1 17:1 18:-1 19:-1 20:-1 25:1 26:-1 27:-1 28:-1 
0 0 32 0 0 32 0 1:1 2:-1 3:-1 4:-1 5:-1 6:-1 7:-1 8:-1 9:1 10:-1 11:-1 12:-1 13:-1 14:-1 15:-1 17:1 18:-1 19:-1 20:-1 25:1 26:-1 27:-1 28:-1 
0 0 32 0 0 32 0 1:1 2:-1 3:-1 4:-1 5:-1 6:-1 7:-1 8:-1 9:1 10:-1 11:-1 12:-1 13:-1 14:-1 15:-1 17:1 18:-1 19:-1 20:-1 25:1 26:-1 27:-1 28:-1 
0 4.52081171467166 32 0 0 32 0 1:1 2:-1 3:-1 4:-1 5:-1 6:-1 7:-1 8:-1 9:1 10:-1 11:-1 12:-1 13:-1 14:-1 15:-1 17:1 18:-1 19:-1 20:-1 25:1 26:-1 27:-1 28:-1 
0 32 32 0 0 32 0 1:1 2:-1 3:-1 4:-1 5:-1 6:-1 7:-1 8:-1 9:1 10:-1 11:-1 12:-1 13:-1 14:-1 15:-1 17:1 18:-1 19:-1 20:-1 25:1 26:-1 27:-1 28:-1 
0 32 32 0 0 32 0 1:1 2:-1 3:-1 4:-1 5:-1 6:-1 7:-1 8:-1 9:1 10:-1 11:-1 12:-1 13:-1 14:-1 15:-1 17:1 18:-1 19:-1 20:-1 25:1 26:-1 27:-1 28:-1 
0 32 32 0 0 32 0 1:1 2:-1 3:-1 4:-1 5:-1 6:-1 7:-1 8:-1 9:1 10:-1 11:-1 12:-1 13:-1 14:-1 15:-1 17:1 18:-1 19:-1 20:-1 25:1 26:-1 27:-1 28:-1 
0 32 32 4.52081171467166 0 32 0 1:1 2:-1 3:-1 4:-1 5:-1 6:-1 7:-1 8:-1 9:1 10:-1 11:-1 12:-1 13:-1 14:-1 15:-1 17:1 18:-1 19:-1 20:-1 25:1 26:-1 27:-1 28:-1 
0 32 32 32 0 32 0 1:1 2:-1 3:-1 4:-1 5:-1 6:-1 7:-1 8:-1 9:1 10:-1 11:-1 12:-1 13:-1 14:-1 15:-1 17:1 18:-1 19:-1 20:-1 25:1 26:-1 27:-1 28:-1 
0 32 32 32 0 32 0 1:1 2:-1 3:-1 4:-1 5:-1 6:-1 7:-1 8:-1 9:1 10:-1 11:-1 12:-1 13:-1 14:-1 15:-1 17:1 18:-1 19:-1 20:-1 25:1 26:-1 27:-1 28:-1 
0 32 32 32 0 32 0 1:1 2:-1 3:-1 4:-1 5:-1 6:-1 7:-1 8:-1 9:1 10:-1 11:-1 12:-1 13:-1 14:-1 15:-1 17:1 18:-1 19:-1 20:-1 25:1 26:-1 27:-1 28:-1 
4.020811686148678 32 32 32 0 32 0 1:1 2:-1 3:-1 4:-1 5:-1 6:-1 7:-1 8:-1 9:1 10:-1 11:-1 12:-1 13:-1 14:-1 15:-1 17:1 18:-1 19:-1 20:-1 25:1 26:-1 27:-1 28:-1 
32 32 32 32 0 32 0 1:1 2:-1 3:-1 4:-1 5:-1 6:-1 7:-1 8:-1 9:1 10:-1 11:-1 12:-1 13:-1 14:-1 15:-1 17:1 18:-1 19:-1 20:-1 25:1 26:-1 27:-1 28:-1 
32 32 32 32 0 32 0 1:1 2:-1 3:-1 4:-1 5:-1 6:-1 7:-1 8:-1 9:1 10:-1 11:-1 12:-1 13:-1 14:-1 15:-1 17:1 18:-1 19:-1 20:-1 25:1 26:-1 27:-1 28:-1 
32 32 32 32 0 32 0 1:1 2:-1 3:-1 4:-1 5:-1 6:-1 7:-1 8:-1 9:1 10:-1 11:-1 12:-1 13:-1 14:-1 15:-1 17:1 18:-1 19:-1 20:-1 25:1 26:-1 27:-1 28:-1 
32 32 32 32 0 32 0 1:1 2:-1 3:-1 4:-1 5:-1 6:-1 7:-1 8:-1 9:1 10:-1 11:-1 12:-1 13:-1 14:-1 15:-1 17:1 18:-1 19:-1 20:-1 25:1 26:-1 27:-1 28:-1 
32 32 32 32 0 32 0 1:1 2:-1 3:-1 4:-1 5:-1 6:-1 7:-1 8:-1 9:1 10:-1 11:-1 12:-1 13:-1 14:-1 15:-1 17:1 18:-1 19:-1 20:-1 25:1 26:-1 27:-1 28:-1 
32 32 32 32 0 32 0 1:1 2:-1 3:-1 4:-1 5:-1 6:-1 7:-1 8:-1 9:1 10:-1 11:-1 12:-1 13:-1 14:-1 15:-1 17:1 18:-1 19:-1 20:-1 25:1 26:-1 27:-1 28:-1 
32 32 32 32 0 32 0 1:1 2:-1 3:-1 4:-1 5:-1 6:-1 7:-1 8:-1 9:1 10:-1 11:-1 12:-1 13:-1 14:-1 15:-1 17:1 18:-1 19:-1 20:-1 25:1 26:-1 27:-1 28:-1 
1.898548682449874 28.98505696057681 0 32 32 1.717886411818272 0 1:1 2:-1 3:-1 4:-1 5:-1 6:-1 7:-1 8:-1 9:-1 10:1 11:-1 12:-1 13:-1 14:-1 15:-1 17:1 18:-1 19:-1 20:-1 25:1 26:-1 27:-1 28:-1 
32 32 32 32 0 32 0 1:1 2:-1 3:-1 4:-1 5:-1 6:-1 7:-1 8:-1 9:1 10:-1 11:-1 12:-1 13:-1 14:-1 15:-1 17:1 18:-1 19:-1 20:-1 25:1 26:-1 27:-1 28:-1 
32 32 32 32 0 32 0 1:1 2:-1 3:-1 4:-1 5:-1 6:-1 7:-1 8:-1 9:1 10:-1 11:-1 12:-1 13:-1 14:-1 15:-1 17:1 18:-1 19:-1 20:-1 25:1 26:-1 27:-1 28:-1 
32 32 32 32 0 32 0 1:1 2:-1 3:-1 4:-1 5:-1 6:-1 7:-1 8:-1 9:1 10:-1 11:-1 12:-1 13:-1 14:-1 15:-1 17:1 18:-1 19:-1 20:-1 25:1 26:-1 27:-1 28:-1 
32 32 32 32 0 32 0 1:1 2:-1 3:-1 4:-1 5:-1 6:-1 7:-1 8:-1 9:1 10:-1 11:-1 12:-1 13:-1 14:-1 15:-1 17:1 18:-1 19:-1 20:-1 25:1 26:-1 27:-1 28:-1 
32 32 32 32 0 32 0 1:1 2:-1 3:-1 4:-1 5:-1 6:-1 7:-1 8:-1 9:1 10:-1 11:-1 12:-1 13:-1 14:-1 15:-1 17:1 18:-1 19:-1 20:-1 25:1 26:-1 27:-1 28:-1 
32 32 32 32 0 32 0 1:1 2:-1 3:-1 4:-1 5:-1 6:-1 7:-1 8:-1 9:1 10:-1 11:-1 12:-1 13:-1 14:-1 15:-1 17:1 18:-1 19:-1 20:-1 25:1 26:-1 27:-1 28:-1 
32 32 32 32 0 32 0 1:1 2:-1 3:-1 4:-1 5:-1 6:-1 7:-1 8:-1 9:1 10:-1 11:-1 12:-1 13:-1 14:-1 15:-1 17:1 18:-1 19:-1 20:-1 25:1 26:-1 27:-1 28:-1 
32 32 32 32 0 32 0 1:1 2:-1 3:-1 4:-1 5:-1 6:-1 7:-1 8:-1 9:1 10:-1 11:-1 12:-1 13:-1 14:-1 15:-1 17:1 18:-1 19:-1 20:-1 25:1 26:-1 27:-1 28:-1 
32 32 32 32 4.52081171467166 32 0 1:1 2:-1 3:-1 4:-1 5:-1 6:-1 7:-1 8:-1 9:1 10:-1 11:-1 12:-1 13:-1 14:-1 15:-1 17:1 18:-1 19:-1 20:-1 25:1 26:-1 27:-1 28:-1 
32 32 32 32 32 32 0 1:1 2:-1 3:-1 4:-1 5:-1 6:-1 7:-1 8:-1 9:1 10:-1 11:-1 12:-1 13:-1 14:-1 15:-1 17:1 18:-1 19:-1 20:-1 25:1 26:-1 27:-1 28:-1 
32 32 32 32 32 32 0 1:1 2:-1 3:-1 4:-1 5:-1 6:-1 7:-1 8:-1 9:1 10:-1 11:-1 12:-1 13:-1 14:-1 15:-1 17:1 18:-1 19:-1 20:-1 25:1 26:-1 27:-1 28:-1 
32 32 32 10.03229392161461 20.30456693328069 32 0 1:1 2:-1 3:-1 4:-1 5:-1 6:-1 7:-1 8:-1 9:1 10:-1 11:-1 12:-1 13:-1 14:-1 15:-1 17:1 18:-1 19:-1 20:-1 25:1 26:-1 27:-1 28:-1 
28.30355896313504 10.1865160350822 15.4197714063529 0 0 30.24415288700421 0.9220999288741247 1:1 2:-1 3:-1 4:-1 5:-1 6:-1 7:-1 8:-1 9:1 10:-1 11:-1 12:-1 13:-1 14:-1 15:-1 17:1 18:-1 19:-1 20:-1 25:1 26:-1 27:-1 28:-1 
-32 32 32 32 0 32 0 1:1 2:-1 3:-1 4:-1 5:-1 6:-1 7:-1 8:-1 9:1 10:-1 11:-1 12:-1 13:-1 14:-1 15:-1 17:1 18:-1 19:-1 20:-1 25:1 26:-1 27:-1 28:-1 
-32 32 32 32 0 32 0 1:1 2:-1 3:-1 4:-1 5:-1 6:-1 7:-1 8:-1 9:1 10:-1 11:-1 12:-1 13:-1 14:-1 15:-1 17:1 18:-1 19:-1 20:-1 25:1 26:-1 27:-1 28:-1 
-0 0 0 3.487240389929763 0 0 0 1:-1 2:-1 3:-1 4:-1 5:-1 6:1 7:-1 8:-1 9:-1 10:1 11:-1 12:-1 13:-1 14:-1 15:-1 17:1 18:-1 19:-1 20:-1 25:1 26:-1 27:-1 28:-1 
-2.404427238664555 8.173549845883208 0.07314427892009109 32 6.506591648675402 1.201348729349456 0 1:-1 2:-1 3:-1 4:-1 5:-1 6:1 7:-1 8:-1 9:-1 10:1 11:-1 12:-1 13:-1 14:-1 15:-1 17:1 18:-1 19:-1 20:-1 25:1 26:-1 27:-1 28:-1 
-32 32 32 32 0 32 0 1:1 2:-1 3:-1 4:-1 5:-1 6:-1 7:-1 8:-1 9:1 10:-1 11:-1 12:-1 13:-1 14:-1 15:-1 17:1 18:-1 19:-1 20:-1 25:1 26:-1 27:-1 28:-1 
-32 32 32 32 0 32 0 1:1 2:-1 3:-1 4:-1 5:-1 6:-1 7:-1 8:-1 9:1 10:-1 11:-1 12:-1 13:-1 14:-1 15:-1 17:1 18:-1 19:-1 20:-1 25:1 26:-1 27:-1 28:-1 
-32 32 32 32 0 32 0 1:1 2:-1 3:-1 4:-1 5:-1 6:-1 7:-1 8:-1 9:1 10:-1 11:-1 12:-1 13:-1 14:-1 15:-1 17:1 18:-1 19:-1 20:-1 25:1 26:-1 27:-1 28:-1 
-32 32 32 32 0 32 0 1:1 2:-1 3:-1 4:-1 5:-1 6:-1 7:-1 8:-1 9:1 10:-1 11:-1 12:-1 13:-1 14:-1 15:-1 17:1 18:-1 19:-1 20:-1 25:1 26:-1 27:-1 28:-1 
-32 32 32 32 0 32 0 1:1 2:-1 3:-1 4:-1 5:-1 6:-1 7:-1 8:-1 9:1 10:-1 11:-1 12:-1 13:-1 14:-1 15:-1 17:1 18:-1 19:-1 20:-1 25:1 26:-1 27:-1 28:-1 
-1.680888970585999 0.986278550054039 0 0 0 0 0 1:-1 2:-1 3:-1 4:-1 5:-1 6:1 7:-1 8:-1 9:-1 10:-1 11:-1 12:1 13:-1 14:-1 15:-1 17:1 18:-1 19:-1 20:-1 25:1 26:-1 27:-1 28:-1 
-32 32 32 32 0 32 0 1:1 2:-1 3:-1 4:-1 5:-1 6:-1 7:-1 8:-1 9:1 10:-1 11:-1 12:-1 13:-1 14:-1 15:-1 17:1 18:-1 19:-1 20:-1 25:1 26:-1 27:-1 28:-1 
-0 2.459701178223087 0 0 1.826092531408456 0 0 1:-1 2:-1 3:-1 4:-1 5:-1 6:1 7:-1 8:-1 9:-1 10:-1 11:-1 12:-1 13:-1 14:1 15:-1 17:-1 18:-1 19:1 20:-1 25:1 26:-1 27:-1 28:-1 
-32 32 32 32 0 32 0 1:1 2:-1 3:-1 4:-1 5:-1 6:-1 7:-1 8:-1 9:1 10:-1 11:-1 12:-1 13:-1 14:-1 15:-1 17:1 18:-1 19:-1 20:-1 25:1 26:-1 27:-1 28:-1 
-32 32 32 32 0 32 0 1:1 2:-1 3:-1 4:-1 5:-1 6:-1 7:-1 8:-1 9:1 10:-1 11:-1 12:-1 13:-1 14:-1 15:-1 17:1 18:-1 19:-1 20:-1 25:1 26:-1 27:-1 28:-1 
-32 32 32 32 0 32 0 1:1 2:-1 3:-1 4:-1 5:-1 6:-1 7:-1 8:-1 9:1 10:-1 11:-1 12:-1 13:-1 14:-1 15:-1 17:1 18:-1 19:-1 20:-1 25:1 26:-1 27:-1 28:-1 
-32 32 32 32 0 32 0 1:1 2:-1 3:-1 4:-1 5:-1 6:-1 7:-1 8:-1 9:1 10:-1 11:-1 12:-1 13:-1 14:-1 15:-1 17:1 18:-1 19:-1 20:-1 25:1 26:-1 27:-1 28:-1 
-32 32 32 32 0 32 0 1:1 2:-1 3:-1 4:-1 5:-1 6:-1 7:-1 8:-1 9:1 10:-1 11:-1 12:-1 13:-1 14:-1 15:-1 17:1 18:-1 19:-1 20:-1 25:1 26:-1 27:-1 28:-1 
-32 32 32 32 0 32 0 1:1 2:-1 3:-1 4:-1 5:-1 6:-1 7:-1 8:-1 9:1 10:-1 11:-1 12:-1 13:-1 14:-1 15:-1 17:1 18:-1 19:-1 20:-1 25:1 26:-1 27:-1 28:-1 
-32 32 32 32 0 32 0 1:1 2:-1 3:-1 4:-1 5:-1 6:-1 7:-1 8:-1 9:1 10:-1 11:-1 12:-1 13:-1 14:-1 15:-1 17:1 18:-1 19:-1 20:-1 25:1 26:-1 27:-1 28:-1 
-32 32 32 32 16.74542257726054 32 0 1:1 2:-1 3:-1 4:-1 5:-1 6:-1 7:-1 8:-1 9:1 10:-1 11:-1 12:-1 13:-1 14:-1 15:-1 17:1 18:-1 19:-1 20:-1 25:1 26:-1 27:-1 28:-1 
-32 32 32 32 32 32 0 1:1 2:-1 3:-1 4:-1 5:-1 6:-1 7:-1 8:-1 9:1 10:-1 11:-1 12:-1 13:-1 14:-1 15:-1 17:1 18:-1 19:-1 20:-1 25:1 26:-1 27:-1 28:-1 
-5.290424624265043 1.822771045318768 0.2945853138613128 0 1.029143465993686 32 1.04346445911519 1:-1 2:-1 3:-1 4:-1 5:-1 6:-1 7:1 8:-1 9:-1 10:-1 11:-1 12:-1 13:-1 14:1 15:-1 17:1 18:-1 19:-1 20:-1 25:1 26:-1 27:-1 28:-1 
-32 32 32 32 32 32 0 1:1 2:-1 3:-1 4:-1 5:-1 6:-1 7:-1 8:-1 9:1 10:-1 11:-1 12:-1 13:-1 14:-1 15:-1 17:1 18:-1 19:-1 20:-1 25:1 26:-1 27:-1 28:-1 
-32 32 32 32 32 32 0 1:1 2:-1 3:-1 4:-1 5:-1 6:-1 7:-1 8:-1 9:1 10:-1 11:-1 12:-1 13:-1 14:-1 15:-1 17:1 18:-1 19:-1 20:-1 25:1 26:-1 27:-1 28:-1 
-32 32 32 32 32 32 2.668766313668395 1:1 2:-1 3:-1 4:-1 5:-1 6:-1 7:-1 8:-1 9:1 10:-1 11:-1 12:-1 13:-1 14:-1 15:-1 17:1 18:-1 19:-1 20:-1 25:1 26:-1 27:-1 28:-1 
-10.20422807283386 0 0 0 0 7.138166180668598 0 1:1 2:-1 3:-1 4:-1 5:-1 6:-1 7:-1 8:-1 9:-1 10:-1 11:-1 12:-1 13:-1 14:1 15:-1 17:1 18:-1 19:-1 20:-1 25:1 26:-1 27:-1 28:-1 
-31.16350001136315 14.28855093028285 6.87091066302627 6.831620882508827 1.662850993760045 32 0 1:1 2:-1 3:-1 4:-1 5:-1 6:-1 7:-1 8:-1 9:-1 10:-1 11:-1 12:-1 13:-1 14:1 15:-1 17:1 18:-1 19:-1 20:-1 25:1 26:-1 27:-1 28:-1 
-0 28.54136485001435 0 0 0 0 0 1:-1 2:-1 3:-1 4:-1 5:-1 6:1 7:-1 8:-1 9:-1 10:-1 11:-1 12:-1 13:-1 14:1 15:-1 17:1 18:-1 19:-1 20:-1 25:1 26:-1 27:-1 28:-1 
-2.072904379889214 0.7286301188565842 4.09019160991854 0 0 2.843057704532094 0 1:-1 2:-1 3:-1 4:-1 5:-1 6:1 7:-1 8:-1 9:-1 10:-1 11:-1 12:-1 13:1 14:-1 15:-1 17:1 18:-1 19:-1 20:-1 25:1 26:-1 27:-1 28:-1 
-0 32 0 0 0 0 0 1:-1 2:-1 3:-1 4:-1 5:-1 6:1 7:-1 8:-1 9:-1 10:-1 11:-1 12:-1 13:-1 14:1 15:-1 17:1 18:-1 19:-1 20:-1 25:1 26:-1 27:-1 28:-1 
-0 32 0 0 0 0 0 1:-1 2:-1 3:-1 4:-1 5:-1 6:1 7:-1 8:-1 9:-1 10:-1 11:-1 12:-1 13:-1 14:1 15:-1 17:1 18:-1 19:-1 20:-1 25:1 26:-1 27:-1 28:-1 
-0 32 0 0 0 0 0 1:-1 2:-1 3:-1 4:-1 5:-1 6:1 7:-1 8:-1 9:-1 10:-1 11:-1 12:-1 13:-1 14:1 15:-1 17:1 18:-1 19:-1 20:-1 25:1 26:-1 27:-1 28:-1 
-0 32 0 0 0 0 0 1:-1 2:-1 3:-1 4:-1 5:-1 6:1 7:-1 8:-1 9:-1 10:-1 11:-1 12:-1 13:-1 14:1 15:-1 17:1 18:-1 19:-1 20:-1 25:1 26:-1 27:-1 28:-1 
-0 32 0 0 0 0 0 1:-1 2:-1 3:-1 4:-1 5:-1 6:1 7:-1 8:-1 9:-1 10:-1 11:-1 12:-1 13:-1 14:1 15:-1 17:1 18:-1 19:-1 20:-1 25:1 26:-1 27:-1 28:-1 
-0 32 0 0 0 0 0 1:-1 2:-1 3:-1 4:-1 5:-1 6:1 7:-1 8:-1 9:-1 10:-1 11:-1 12:-1 13:-1 14:1 15:-1 17:1 18:-1 19:-1 20:-1 25:1 26:-1 27:-1 28:-1 
-4.856627922863539 0 0 0 0 0 0 1:-1 2:-1 3:-1 4:-1 5:-1 6:1 7:-1 8:-1 9:1 10:-1 11:-1 12:-1 13:-1 14:-1 15:-1 17:1 18:-1 19:-1 20:-1 25:1 26:-1 27:-1 28:-1 
-0 32 0 0 0 0 0 1:-1 2:-1 3:-1 4:-1 5:-1 6:1 7:-1 8:-1 9:-1 10:-1 11:-1 12:-1 13:-1 14:1 15:-1 17:1 18:-1 19:-1 20:-1 25:1 26:-1 27:-1 28:-1 
-0 32 0 0 0 0 0 1:-1 2:-1 3:-1 4:-1 5:-1 6:1 7:-1 8:-1 9:-1 10:-1 11:-1 12:-1 13:-1 14:1 15:-1 17:1 18:-1 19:-1 20:-1 25:1 26:-1 27:-1 28:-1 
-32 0 0 0 0 0 0 1:-1 2:-1 3:-1 4:-1 5:-1 6:1 7:-1 8:-1 9:1 10:-1 11:-1 12:-1 13:-1 14:-1 15:-1 17:1 18:-1 19:-1 20:-1 25:1 26:-1 27:-1 28:-1 
-32 0 0 0 0 0 0 1:-1 2:-1 3:-1 4:-1 5:-1 6:1 7:-1 8:-1 9:1 10:-1 11:-1 12:-1 13:-1 14:-1 15:-1 17:1 18:-1 19:-1 20:-1 25:1 26:-1 27:-1 28:-1 
-32 0 0 0 0 0 0 1:-1 2:-1 3:-1 4:-1 5:-1 6:1 7:-1 8:-1 9:1 10:-1 11:-1 12:-1 13:-1 14:-1 15:-1 17:1 18:-1 19:-1 20:-1 25:1 26:-1 27:-1 28:-1 
-0 32 0 0 0 0 0 1:-1 2:-1 3:-1 4:-1 5:-1 6:1 7:-1 8:-1 9:-1 10:-1 11:-1 12:-1 13:-1 14:1 15:-1 17:1 18:-1 19:-1 20:-1 25:1 26:-1 27:-1 28:-1 
-0 21.72664498254252 0 0 0 0 0 1:-1 2:-1 3:-1 4:-1 5:-1 6:1 7:-1 8:-1 9:-1 10:-1 11:-1 12:-1 13:-1 14:1 15:-1 17:1 18:-1 19:-1 20:-1 25:1 26:-1 27:-1 28:-1 
-32 7.625751458350234 0 0 0 0 0 1:-1 2:-1 3:-1 4:-1 5:-1 6:1 7:-1 8:-1 9:1 10:-1 11:-1 12:-1 13:-1 14:-1 15:-1 17:1 18:-1 19:-1 20:-1 25:1 26:-1 27:-1 28:-1 
-32 32 0 0 0 0 0 1:-1 2:-1 3:-1 4:-1 5:-1 6:1 7:-1 8:-1 9:1 10:-1 11:-1 12:-1 13:-1 14:-1 15:-1 17:1 18:-1 19:-1 20:-1 25:1 26:-1 27:-1 28:-1 
-30.8671232602645 32 3.825929686140286 3.653437069545691 0 2.847804257166038 2.664696328279867 1:-1 2:-1 3:-1 4:-1 5:-1 6:1 7:-1 8:-1 9:1 10:-1 11:-1 12:-1 13:-1 14:-1 15:-1 17:1 18:-1 19:-1 20:-1 25:1 26:-1 27:-1 28:-1 
-32 -0 32 0 0 32 0 1:1 2:-1 3:-1 4:-1 5:-1 6:-1 7:-1 8:-1 9:1 10:-1 11:-1 12:-1 13:-1 14:-1 15:-1 17:1 18:-1 19:-1 20:-1 25:1 26:-1 27:-1 28:-1 
-0 -0 0 32 0 0 0 1:-1 2:1 3:-1 4:-1 5:-1 6:-1 7:-1 8:-1 9:-1 10:1 11:-1 12:-1 13:-1 14:-1 15:-1 17:-1 18:1 19:-1 20:-1 25:1 26:-1 27:-1 28:-1 
-0 -0 0 32 0 0 0 1:-1 2:1 3:-1 4:-1 5:-1 6:-1 7:-1 8:-1 9:-1 10:1 11:-1 12:-1 13:-1 14:-1 15:-1 17:-1 18:1 19:-1 20:-1 25:1 26:-1 27:-1 28:-1 
-0 -0 0 32 0 0 0 1:-1 2:1 3:-1 4:-1 5:-1 6:-1 7:-1 8:-1 9:-1 10:1 11:-1 12:-1 13:-1 14:-1 15:-1 17:-1 18:1 19:-1 20:-1 25:-1 26:1 27:-1 28:-1 
-0 -0 0 32 0 0 0 1:-1 2:1 3:-1 4:-1 5:-1 6:-1 7:-1 8:-1 9:-1 10:1 11:-1 12:-1 13:-1 14:-1 15:-1 17:-1 18:1 19:-1 20:-1 25:1 26:-1 27:-1 28:-1 
-32 -0 32 0 0 32 0 1:1 2:-1 3:-1 4:-1 5:-1 6:-1 7:-1 8:-1 9:1 10:-1 11:-1 12:-1 13:-1 14:-1 15:-1 17:1 18:-1 19:-1 20:-1 25:1 26:-1 27:-1 28:-1 
-0 -0 0 7.294386400019502 0 0 0 1:1 2:-1 3:-1 4:-1 5:-1 6:-1 7:-1 8:-1 9:1 10:-1 11:-1 12:-1 13:-1 14:-1 15:-1 17:1 18:-1 19:-1 20:-1 25:-1 26:-1 27:1 28:-1 
-32 -0 32 0 0 32 0 1:1 2:-1 3:-1 4:-1 5:-1 6:-1 7:-1 8:-1 9:1 10:-1 11:-1 12:-1 13:-1 14:-1 15:-1 17:1 18:-1 19:-1 20:-1 25:1 26:-1 27:-1 28:-1 
-32 -0 0 32 0 0 0 1:1 2:-1 3:-1 4:-1 5:-1 6:-1 7:-1 8:-1 9:1 10:-1 11:-1 12:-1 13:-1 14:-1 15:-1 17:-1 18:1 19:-1 20:-1 25:1 26:-1 27:-1 28:-1 
-32 -0 0 32 0 0 0 1:1 2:-1 3:-1 4:-1 5:-1 6:-1 7:-1 8:-1 9:1 10:-1 11:-1 12:-1 13:-1 14:-1 15:-1 17:-1 18:1 19:-1 20:-1 25:1 26:-1 27:-1 28:-1 
-16.67388518709679 -0 0 0 0 0 0 1:-1 2:-1 3:1 4:-1 5:-1 6:-1 7:-1 8:-1 9:1 10:-1 11:-1 12:-1 13:-1 14:-1 15:-1 17:1 18:-1 19:-1 20:-1 25:1 26:-1 27:-1 28:-1 
-3.575959708385369 -0 0 32 0 0 0 1:1 2:-1 3:-1 4:-1 5:-1 6:-1 7:-1 8:-1 9:1 10:-1 11:-1 12:-1 13:-1 14:-1 15:-1 17:1 18:-1 19:-1 20:-1 25:-1 26:1 27:-1 28:-1 
-32 -0 32 20.07532484142969 0 32 0 1:1 2:-1 3:-1 4:-1 5:-1 6:-1 7:-1 8:-1 9:1 10:-1 11:-1 12:-1 13:-1 14:-1 15:-1 17:1 18:-1 19:-1 20:-1 25:1 26:-1 27:-1 28:-1 
-24.34788971440133 -0 10.88855206570535 32 0 5.029337776637316 0 1:1 2:-1 3:-1 4:-1 5:-1 6:-1 7:-1 8:-1 9:1 10:-1 11:-1 12:-1 13:-1 14:-1 15:-1 17:1 18:-1 19:-1 20:-1 25:-1 26:1 27:-1 28:-1 
-32 -0 32 32 0 32 0 1:1 2:-1 3:-1 4:-1 5:-1 6:-1 7:-1 8:-1 9:1 10:-1 11:-1 12:-1 13:-1 14:-1 15:-1 17:1 18:-1 19:-1 20:-1 25:1 26:-1 27:-1 28:-1 
-32 -0 32 32 0 32 0 1:1 2:-1 3:-1 4:-1 5:-1 6:-1 7:-1 8:-1 9:1 10:-1 11:-1 12:-1 13:-1 14:-1 15:-1 17:1 18:-1 19:-1 20:-1 25:1 26:-1 27:-1 28:-1 
-32 -0 32 32 0 32 0 1:1 2:-1 3:-1 4:-1 5:-1 6:-1 7:-1 8:-1 9:1 10:-1 11:-1 12:-1 13:-1 14:-1 15:-1 17:1 18:-1 19:-1 20:-1 25:1 26:-1 27:-1 28:-1 
-0 -0 0 32 0 0 0 1:-1 2:1 3:-1 4:-1 5:-1 6:-1 7:-1 8:-1 9:-1 10:1 11:-1 12:-1 13:-1 14:-1 15:-1 17:-1 18:1 19:-1 20:-1 25:1 26:-1 27:-1 28:-1 
-0 -0 0 32 0 0 0 1:-1 2:1 3:-1 4:-1 5:-1 6:-1 7:-1 8:-1 9:-1 10:1 11:-1 12:-1 13:-1 14:-1 15:-1 17:-1 18:1 19:-1 20:-1 25:-1 26:1 27:-1 28:-1 
-14.08299542286349 -0 0 32 0 0 0 1:-1 2:1 3:-1 4:-1 5:-1 6:-1 7:-1 8:-1 9:-1 10:1 11:-1 12:-1 13:-1 14:-1 15:-1 17:-1 18:-1 19:1 20:-1 25:1 26:-1 27:-1 28:-1 
-0 -0 0 32 0 0 0 1:-1 2:1 3:-1 4:-1 5:-1 6:-1 7:-1 8:-1 9:-1 10:1 11:-1 12:-1 13:-1 14:-1 15:-1 17:-1 18:-1 19:1 20:-1 25:-1 26:1 27:-1 28:-1 
-0 -0 0 32 0 0 0 1:1 2:-1 3:-1 4:-1 5:-1 6:-1 7:-1 8:-1 9:1 10:-1 11:-1 12:-1 13:-1 14:-1 15:-1 17:1 18:-1 19:-1 20:-1 25:-1 26:-1 27:1 28:-1 
-32 -6.861270985351056 32 32 0 32 0 1:1 2:-1 3:-1 4:-1 5:-1 6:-1 7:-1 8:-1 9:1 10:-1 11:-1 12:-1 13:-1 14:-1 15:-1 17:1 18:-1 19:-1 20:-1 25:1 26:-1 27:-1 28:-1 
-0 -0 0 32 0 0 0 1:1 2:-1 3:-1 4:-1 5:-1 6:-1 7:-1 8:-1 9:-1 10:1 11:-1 12:-1 13:-1 14:-1 15:-1 17:-1 18:1 19:-1 20:-1 25:-1 26:1 27:-1 28:-1 
-17.64439123158386 -0 0 32 4.291457923628657 0 0 1:1 2:-1 3:-1 4:-1 5:-1 6:-1 7:-1 8:-1 9:-1 10:1 11:-1 12:-1 13:-1 14:-1 15:-1 17:-1 18:1 19:-1 20:-1 25:1 26:-1 27:-1 28:-1 
-32 -32 32 32 0 32 0 1:1 2:-1 3:-1 4:-1 5:-1 6:-1 7:-1 8:-1 9:1 10:-1 11:-1 12:-1 13:-1 14:-1 15:-1 17:1 18:-1 19:-1 20:-1 25:1 26:-1 27:-1 28:-1 
-32 -32 32 32 0 32 0 1:1 2:-1 3:-1 4:-1 5:-1 6:-1 7:-1 8:-1 9:1 10:-1 11:-1 12:-1 13:-1 14:-1 15:-1 17:1 18:-1 19:-1 20:-1 25:1 26:-1 27:-1 28:-1 
-0 -0 0 0.5511242998384404 0 0 0 1:-1 2:-1 3:1 4:-1 5:-1 6:-1 7:-1 8:-1 9:-1 10:1 11:-1 12:-1 13:-1 14:-1 15:-1 17:-1 18:1 19:-1 20:-1 25:-1 26:1 27:-1 28:-1 
-8.069484300518349 -1.18831709190696 0 11.2412099772015 9.709543393495764 0 0 1:-1 2:-1 3:1 4:-1 5:-1 6:-1 7:-1 8:-1 9:-1 10:1 11:-1 12:-1 13:-1 14:-1 15:-1 17:1 18:-1 19:-1 20:-1 25:1 26:-1 27:-1 28:-1 
-32 -0 0 0 0 0 0 1:1 2:-1 3:-1 4:-1 5:-1 6:-1 7:-1 8:-1 9:-1 10:-1 11:1 12:-1 13:-1 14:-1 15:-1 17:1 18:-1 19:-1 20:-1 25:1 26:-1 27:-1 28:-1 
-32 -32 32 32 0 32 0 1:1 2:-1 3:-1 4:-1 5:-1 6:-1 7:-1 8:-1 9:1 10:-1 11:-1 12:-1 13:-1 14:-1 15:-1 17:1 18:-1 19:-1 20:-1 25:1 26:-1 27:-1 28:-1 
-32 -32 32 32 0 32 0 1:1 2:-1 3:-1 4:-1 5:-1 6:-1 7:-1 8:-1 9:1 10:-1 11:-1 12:-1 13:-1 14:-1 15:-1 17:1 18:-1 19:-1 20:-1 25:1 26:-1 27:-1 28:-1 
-2.276809820957284 -0.5498845594356517 0.7621654993391155 32 4.429297668434913 0 0.2859149106695821 1:-1 2:1 3:-1 4:-1 5:-1 6:-1 7:-1 8:-1 9:-1 10:1 11:-1 12:-1 13:-1 14:-1 15:-1 17:1 18:-1 19:-1 20:-1 25:-1 26:1 27:-1 28:-1 
-0 -0 0 32 0 0 0 1:-1 2:1 3:-1 4:-1 5:-1 6:-1 7:-1 8:-1 9:-1 10:1 11:-1 12:-1 13:-1 14:-1 15:-1 17:-1 18:1 19:-1 20:-1 25:1 26:-1 27:-1 28:-1 
-5.976401391376532 -0 0 0 0 0 0 1:-1 2:-1 3:1 4:-1 5:-1 6:-1 7:-1 8:-1 9:-1 10:-1 11:1 12:-1 13:-1 14:-1 15:-1 17:1 18:-1 19:-1 20:-1 25:1 26:-1 27:-1 28:-1 
-0 -0 0 14.22460696628958 0 0 0 1:-1 2:-1 3:1 4:-1 5:-1 6:-1 7:-1 8:-1 9:1 10:-1 11:-1 12:-1 13:-1 14:-1 15:-1 17:1 18:-1 19:-1 20:-1 25:-1 26:1 27:-1 28:-1 
-32 -32 32 32 0 32 0 1:1 2:-1 3:-1 4:-1 5:-1 6:-1 7:-1 8:-1 9:1 10:-1 11:-1 12:-1 13:-1 14:-1 15:-1 17:1 18:-1 19:-1 20:-1 25:1 26:-1 27:-1 28:-1 
-32 -32 32 32 0 32 0 1:1 2:-1 3:-1 4:-1 5:-1 6:-1 7:-1 8:-1 9:1 10:-1 11:-1 12:-1 13:-1 14:-1 15:-1 17:1 18:-1 19:-1 20:-1 25:1 26:-1 27:-1 28:-1 
-32 -0 0 0 0 0 0 1:-1 2:-1 3:1 4:-1 5:-1 6:-1 7:-1 8:-1 9:1 10:-1 11:-1 12:-1 13:-1 14:-1 15:-1 17:1 18:-1 19:-1 20:-1 25:1 26:-1 27:-1 28:-1 
-0 -0 0 32 0 0 0 1:-1 2:1 3:-1 4:-1 5:-1 6:-1 7:-1 8:-1 9:-1 10:1 11:-1 12:-1 13:-1 14:-1 15:-1 17:-1 18:-1 19:1 20:-1 25:-1 26:1 27:-1 28:-1 
-0 -0 0 32 0 0 0 1:-1 2:1 3:-1 4:-1 5:-1 6:-1 7:-1 8:-1 9:-1 10:1 11:-1 12:-1 13:-1 14:-1 15:-1 17:-1 18:-1 19:1 20:-1 25:-1 26:-1 27:1 28:-1 
-32 -32 32 32 0 32 0 1:1 2:-1 3:-1 4:-1 5:-1 6:-1 7:-1 8:-1 9:1 10:-1 11:-1 12:-1 13:-1 14:-1 15:-1 17:1 18:-1 19:-1 20:-1 25:1 26:-1 27:-1 28:-1 
-32 -32 32 32 0 32 0 1:1 2:-1 3:-1 4:-1 5:-1 6:-1 7:-1 8:-1 9:1 10:-1 11:-1 12:-1 13:-1 14:-1 15:-1 17:1 18:-1 19:-1 20:-1 25:1 26:-1 27:-1 28:-1 
-32 -0 0 0 0 0 0 1:-1 2:-1 3:1 4:-1 5:-1 6:-1 7:-1 8:-1 9:-1 10:-1 11:1 12:-1 13:-1 14:-1 15:-1 17:1 18:-1 19:-1 20:-1 25:1 26:-1 27:-1 28:-1 
-0 -0 0 4.646886984385083 0 0 0 1:-1 2:-1 3:1 4:-1 5:-1 6:-1 7:-1 8:-1 9:-1 10:-1 11:1 12:-1 13:-1 14:-1 15:-1 17:-1 18:1 19:-1 20:-1 25:-1 26:1 27:-1 28:-1 
-0 -0 0 31.99763372237268 0 0 0 1:-1 2:-1 3:1 4:-1 5:-1 6:-1 7:-1 8:-1 9:-1 10:-1 11:1 12:-1 13:-1 14:-1 15:-1 17:-1 18:1 19:-1 20:-1 25:-1 26:1 27:-1 28:-1 
-32 -0 0 0 0 0 0 1:1 2:-1 3:-1 4:-1 5:-1 6:-1 7:-1 8:-1 9:-1 10:-1 11:1 12:-1 13:-1 14:-1 15:-1 17:1 18:-1 19:-1 20:-1 25:1 26:-1 27:-1 28:-1 
-0 -0.06311704092860312 0 0 0 0 0 1:-1 2:-1 3:1 4:-1 5:-1 6:-1 7:-1 8:-1 9:1 10:-1 11:-1 12:-1 13:-1 14:-1 15:-1 17:-1 18:-1 19:1 20:-1 25:1 26:-1 27:-1 28:-1 
-32 -0 0 0 0 0 0 1:-1 2:-1 3:1 4:-1 5:-1 6:-1 7:-1 8:-1 9:-1 10:-1 11:1 12:-1 13:-1 14:-1 15:-1 17:1 18:-1 19:-1 20:-1 25:1 26:-1 27:-1 28:-1 
-32 -0 0 0 0 0 0 1:-1 2:-1 3:1 4:-1 5:-1 6:-1 7:-1 8:-1 9:-1 10:-1 11:1 12:-1 13:-1 14:-1 15:-1 17:1 18:-1 19:-1 20:-1 25:1 26:-1 27:-1 28:-1 
